-1.877514272928237915e-02,1.715134270489215851e-02,2.080881781876087189e-02,2.805638127028942108e-02,5.730281397700309753e-02,2.661111392080783844e-02,3.830203413963317871e-02,2.223312854766845703e-02,-2.301017008721828461e-02,2.034018747508525848e-02,2.202508039772510529e-02,-1.283918600529432297e-02,3.894684091210365295e-02,-1.443831343203783035e-02,-1.286203786730766296e-02,-4.486474767327308655e-02,2.190190367400646210e-02,2.281378954648971558e-02,-9.342632984044030309e-05,-5.834802053868770599e-03,2.740699797868728638e-02,6.956601049751043320e-03,1.080064475536346436e-02,8.632398210465908051e-03,-3.488938137888908386e-02,3.155162325128912926e-03,8.917995000956580043e-05,9.105859324336051941e-03,-1.792893372476100922e-02,1.261804904788732529e-02,2.435475401580333710e-02,-1.327744964510202408e-02,4.427628882694989443e-04,2.238943800330162048e-02,3.619810193777084351e-02,-3.148341551423072815e-02,2.140694670379161835e-02,-3.301744582131505013e-03,-2.746438048779964447e-02,-3.570746257901191711e-02,3.864709986373782158e-03,-2.882336452603340149e-02,-2.049230039119720459e-02,2.498753555119037628e-02,-3.328840434551239014e-02,3.978926688432693481e-02,-2.011740766465663910e-02,-2.067390363663434982e-03,1.260825782082974911e-03,2.550669200718402863e-02,1.037563756108283997e-02,-1.002844702452421188e-02,5.048095062375068665e-02,-1.172574423253536224e-02,2.576787956058979034e-02,-1.376912370324134827e-02,-1.033999212086200714e-02,-1.299310941249132156e-02,8.714567869901657104e-03,4.247876640874892473e-04,-8.993650786578655243e-03,-2.966388501226902008e-02,-1.902256719768047333e-02,3.075705096125602722e-02,1.378036569803953171e-02,-2.761308662593364716e-02,-1.156035112217068672e-03,3.033737465739250183e-02,-5.135481245815753937e-03,2.798399329185485840e-02,1.507942564785480499e-02,-6.741596385836601257e-03,4.027936607599258423e-02,2.245298214256763458e-02,1.211453042924404144e-02,-2.165045402944087982e-02,-1.946916989982128143e-02,-3.511726483702659607e-02,-5.512854550033807755e-03,3.139450773596763611e-02,1.588377542793750763e-02,-4.776753112673759460e-02,2.114358358085155487e-02,2.219413034617900848e-02,2.906066551804542542e-02,-4.166219756007194519e-02,3.718450292944908142e-02,3.109153918921947479e-02,-2.928203158080577850e-02,-4.069539159536361694e-02,-1.561968121677637100e-02,1.257685478776693344e-03,1.026168838143348694e-02,-4.868645337410271168e-04,8.189531974494457245e-03,1.161436550319194794e-02,3.275307267904281616e-02,1.947492826730012894e-03,-2.659305464476346970e-03,-2.309085614979267120e-02,-3.158398671075701714e-03,-3.846847265958786011e-02,-2.976233884692192078e-02,3.372745215892791748e-02,1.814857684075832367e-02,-2.209272794425487518e-02,-9.859727695584297180e-03,1.995252212509512901e-03,-3.430178388953208923e-02,-2.179375616833567619e-03,4.173220321536064148e-02,4.650502279400825500e-02,1.846200041472911835e-02,2.763823233544826508e-02,1.793546788394451141e-02,1.921545341610908508e-02,5.085944756865501404e-02,-4.564175382256507874e-02,1.912811212241649628e-02,-6.348667666316032410e-03,2.863374538719654083e-02,-3.557686880230903625e-02,1.311840768903493881e-02,4.923976212739944458e-02,2.496201172471046448e-02,4.273858293890953064e-02,1.596516743302345276e-02,2.966635487973690033e-02,3.202228993177413940e-02,3.878363966941833496e-02,-3.023061156272888184e-02,3.050509467720985413e-02,2.921001985669136047e-03,1.104619354009628296e-02,-1.771061215549707413e-03,1.032934244722127914e-02,-1.377859711647033691e-02,-8.129153400659561157e-03,3.502702340483665466e-02,-2.809622325003147125e-02,1.333387196063995361e-02,4.055231343954801559e-03,8.807663805782794952e-03,-1.148724369704723358e-02,-2.900004386901855469e-02,-1.011359971016645432e-02,1.241572317667305470e-03,-3.263424336910247803e-02,-1.685279235243797302e-02,2.965801581740379333e-02,-3.315497562289237976e-02,-2.003519795835018158e-03,-3.150262683629989624e-02,-3.360247239470481873e-02,4.664401710033416748e-02,3.103052265942096710e-02,-2.474218234419822693e-02,1.633841916918754578e-02,-1.986207440495491028e-02,1.953974924981594086e-02,3.813094273209571838e-02,9.363051503896713257e-03,1.590509433299303055e-03,2.716006338596343994e-02,-1.301202550530433655e-02,3.132046386599540710e-02,4.088813904672861099e-03,-8.529650978744029999e-03,3.326657414436340332e-02,-1.287075970321893692e-02,-2.562589943408966064e-02,-2.379374578595161438e-02,-3.040518797934055328e-02,3.003909997642040253e-02,5.704347044229507446e-03,1.942279189825057983e-02,-2.160703018307685852e-02,-2.515545301139354706e-02,2.315520495176315308e-02,1.596691831946372986e-02,9.314491413533687592e-03,2.915791235864162445e-02,1.919376105070114136e-02,2.922739274799823761e-02,2.381156571209430695e-02,-3.432937711477279663e-02,9.172653779387474060e-03,-2.997558750212192535e-02,-5.766375921666622162e-03,-6.540683656930923462e-02,3.428780660033226013e-02,-1.668492704629898071e-02,-1.694533415138721466e-02,-2.260051481425762177e-02,4.744537547230720520e-02,3.506724536418914795e-02,-4.910733178257942200e-02,-1.289868168532848358e-02,-9.073035791516304016e-03,-3.907299414277076721e-02,-1.104674534872174263e-03,-1.469081267714500427e-02,-1.790618151426315308e-02,-2.328089904040098190e-03,2.942796796560287476e-02,-1.672557182610034943e-02,-1.556232571601867676e-02,7.998561486601829529e-04,-2.949288580566644669e-03,6.369890179485082626e-03,3.377388790249824524e-02,2.405550703406333923e-02,-3.774781897664070129e-02,1.840417535277083516e-04,3.357969224452972412e-02,-2.852735109627246857e-02,-3.290544822812080383e-02,-1.154146064072847366e-02,3.604901954531669617e-02,1.572095602750778198e-02,3.285590931773185730e-02,7.620853371918201447e-03,-4.539828374981880188e-02,-2.201149985194206238e-02,-3.081211447715759277e-02,-1.040497329086065292e-02,7.784080691635608673e-03,-3.285246901214122772e-03,1.940719597041606903e-02,-8.241808041930198669e-03,1.854884810745716095e-02,2.074317634105682373e-02,3.798285871744155884e-02,1.920261234045028687e-02,4.133901745080947876e-02,3.368019685149192810e-02,-2.967963228002190590e-03,1.636614790186285973e-03,2.405574917793273926e-02,-2.002460509538650513e-02,-1.187914330512285233e-02,-4.454449936747550964e-02,3.962194174528121948e-02,1.370194088667631149e-02,2.987121418118476868e-02,-4.003589972853660583e-02,7.560103200376033783e-03,3.317544003948569298e-03,2.249761484563350677e-02,-6.851926445960998535e-03,2.559148520231246948e-02,-2.642768668010830879e-03,-1.460092235356569290e-02,-3.240602463483810425e-02,3.587477281689643860e-02,-5.501871462911367416e-03,-3.551374748349189758e-02,4.416119679808616638e-02,1.761595532298088074e-02,2.485019154846668243e-02,-4.156561102718114853e-03,2.261894568800926208e-02,1.827285625040531158e-02,-3.198976069688796997e-02,2.274004183709621429e-02,-2.128962799906730652e-02,7.137160864658653736e-04,2.175715938210487366e-02,-9.541966021060943604e-03,-1.811810955405235291e-02,-3.188389912247657776e-02,4.073745384812355042e-02,-1.713940501213073730e-02,-2.222017757594585419e-02,6.463049445301294327e-03,4.232464730739593506e-02,5.282396078109741211e-02,-2.146269939839839935e-02,2.831817977130413055e-02,-1.769295707345008850e-02,3.190483525395393372e-02,-1.047042943537235260e-02,2.632875367999076843e-02,3.804440796375274658e-02,1.037222892045974731e-02,7.631609681993722916e-03,-2.129226177930831909e-02,2.047936990857124329e-02,-1.367732882499694824e-03,-3.648126870393753052e-02,4.812858998775482178e-03,-1.613135449588298798e-02,-3.847270458936691284e-02,4.819065332412719727e-03,3.480240702629089355e-02,3.464580699801445007e-02,-4.316905140876770020e-02,3.611314750742167234e-04,4.156141355633735657e-02,6.946787703782320023e-03,7.438735105097293854e-03,-2.964363433420658112e-02,3.859733790159225464e-02,-4.477800801396369934e-02,-1.477559655904769897e-02,-1.151415146887302399e-02,3.428560495376586914e-02,4.199516028165817261e-02,1.220874139107763767e-03,1.070300489664077759e-02,-2.588837780058383942e-02,1.296878512948751450e-02,3.071986138820648193e-02,-1.031912956386804581e-02,-2.897773683071136475e-02,3.633515909314155579e-02,-6.514038541354238987e-04,-7.461301982402801514e-03,-1.160839758813381195e-02,4.324757680296897888e-02,3.549385070800781250e-02,2.560836635529994965e-02,7.240999490022659302e-03,-2.804719284176826477e-02,3.934719413518905640e-02,5.349714681506156921e-02,4.627476260066032410e-02,1.063768658787012100e-02,3.213014826178550720e-02,1.016237121075391769e-02,2.570441551506519318e-02,1.436049584299325943e-02,-3.352535143494606018e-02,6.852337159216403961e-03,-3.997610881924629211e-02,2.942989021539688110e-02,-3.709553182125091553e-02,-2.483243681490421295e-02,-5.286275874823331833e-03,-2.591241709887981415e-02,-1.574021391570568085e-02,-2.514875493943691254e-02,3.198846802115440369e-02,2.075377851724624634e-02,1.910442113876342773e-02,-1.633979263715445995e-03,2.991716563701629639e-02,-3.177815303206443787e-02,-5.642246920615434647e-03,7.245222572237253189e-03,-4.234912618994712830e-02,4.890806507319211960e-03,-3.598261624574661255e-03,-3.107456490397453308e-02,2.865477092564105988e-02,-2.419042866677045822e-03,-4.294741153717041016e-02,8.549216203391551971e-03,1.999312266707420349e-02,3.899866947904229164e-03,-1.972606405615806580e-02,-7.729032076895236969e-03,2.487624809145927429e-02,3.891530632972717285e-02,-2.703879214823246002e-02,-3.292128909379243851e-03,1.901374384760856628e-02,-4.255013540387153625e-02,4.384269705042243004e-04,1.284701377153396606e-02,-2.209631539881229401e-02,2.900561783462762833e-03,2.586255222558975220e-02,3.459037840366363525e-02,-1.298904232680797577e-02,-3.470706567168235779e-02,-1.551588810980319977e-02,-1.762887841323390603e-04,7.173272781074047089e-03,-1.859289221465587616e-02,3.522067889571189880e-02,4.287724848836660385e-03,2.191687934100627899e-02,-2.896714396774768829e-02,1.768948510289192200e-03,2.833275310695171356e-02,-2.102824114263057709e-02,4.168465360999107361e-02,2.604449726641178131e-02,1.018198207020759583e-02,-2.589974086731672287e-03,4.040423780679702759e-02,9.224727982655167580e-04,-1.249593310058116913e-02,-8.062169887125492096e-03,-2.562179602682590485e-02,-2.107934094965457916e-02,-1.952316798269748688e-02,9.800221305340528488e-04,-3.198781237006187439e-02
