-2.482581138610839844e-02,5.277647450566291809e-02,1.197897642850875854e-02,2.140439301729202271e-02,2.293776534497737885e-02,2.237959951162338257e-02,1.618970744311809540e-02,5.280851945281028748e-02,6.319528073072433472e-02,1.314682327210903168e-02,-2.636667154729366302e-02,1.514654885977506638e-02,-1.322696171700954437e-02,4.970367625355720520e-02,6.621248275041580200e-02,6.845708191394805908e-02,1.118588969111442566e-01,-4.773571272380650043e-04,-2.964189462363719940e-02,-1.924492418766021729e-02,-4.500501975417137146e-02,9.506266564130783081e-02,-5.871752742677927017e-03,-2.103162230923771858e-03,-1.596130989491939545e-02,3.821749612689018250e-02,-8.310257690027356148e-04,1.614508405327796936e-02,-2.562923729419708252e-02,-7.568301260471343994e-02,1.306759417057037354e-01,7.180289924144744873e-02,7.255072146654129028e-02,-2.727830968797206879e-02,2.527446672320365906e-02,6.183794513344764709e-02,5.075954832136631012e-03,-4.063954949378967285e-02,-2.365073561668395996e-02,-3.488782420754432678e-02,-2.930258959531784058e-02,-6.816132366657257080e-02,-1.589921116828918457e-02,-2.851578965783119202e-02,2.403970062732696533e-02,7.155907340347766876e-03,4.999409988522529602e-02,5.769197642803192139e-02,1.041805818676948547e-01,-6.158124282956123352e-02,-2.990494668483734131e-02,8.057823404669761658e-03,7.608062122017145157e-03,3.047965280711650848e-02,-1.435202825814485550e-02,4.102063179016113281e-02,-1.488760486245155334e-02,6.468998640775680542e-02,9.842785447835922241e-02,7.790490053594112396e-03,2.429362013936042786e-02,-1.435848604887723923e-02,-2.649367973208427429e-02,4.978790413588285446e-03,-6.487865000963211060e-02,-1.789650134742259979e-02,-4.439457878470420837e-02,6.679977476596832275e-02,2.788280602544546127e-03,5.651486106216907501e-03,3.546197712421417236e-02,-4.595273360610008240e-02,-1.524632237851619720e-02,-1.840266748331487179e-03,-7.041427306830883026e-03,6.770414859056472778e-02,3.825806081295013428e-02,5.629087984561920166e-02,-1.652915962040424347e-02,-2.488088980317115784e-02,-6.798429042100906372e-02,8.563719689846038818e-02,-3.563691303133964539e-02,8.438795804977416992e-02,4.662245512008666992e-02,6.136332824826240540e-02,-7.018017349764704704e-04,1.032201796770095825e-01,1.833156310021877289e-02,-4.600354656577110291e-02,7.872520387172698975e-02,4.677197709679603577e-02,-4.631180316209793091e-02,4.159706458449363708e-02,2.206932939589023590e-02,-5.920477677136659622e-03,6.065943092107772827e-02,-5.297736078500747681e-02,8.472421765327453613e-02,-9.117878973484039307e-03
