-7.955159991979598999e-03,-3.043937310576438904e-02,-2.870943024754524231e-02,-5.016493611037731171e-03,-3.251313418149948120e-02,3.386757569387555122e-03,1.377237401902675629e-02,2.239752002060413361e-02,-1.285598147660493851e-02,-2.122652344405651093e-02,3.703033726196736097e-04,-1.856852695345878601e-02,-2.482468076050281525e-02,1.392525620758533478e-02,-1.420445623807609081e-03,6.286083254963159561e-03,-1.832752837799489498e-03,3.242836892604827881e-02,-2.777903527021408081e-02,-2.350902929902076721e-02,-1.458394434303045273e-02,3.504496067762374878e-02,2.717659436166286469e-02,-3.263372182846069336e-02,-4.317319765686988831e-02,1.361197512596845627e-02,-7.302200421690940857e-03,-5.737370811402797699e-04,-1.419066265225410461e-02,2.931719459593296051e-02,1.519359461963176727e-02,-2.626668289303779602e-02,3.379057347774505615e-02,-2.287248708307743073e-02,6.681176368147134781e-03,3.705550730228424072e-02,2.363482117652893066e-02,3.507831320166587830e-02,-2.783001214265823364e-02,-3.260752186179161072e-02,-4.345536604523658752e-02,-1.705779880285263062e-02,-2.369914762675762177e-02,-5.782013293355703354e-03,-2.027196250855922699e-02,2.072482742369174957e-02,2.777260541915893555e-02,6.110115908086299896e-03,-2.147226780652999878e-02,-5.281536839902400970e-03,-1.508146640844643116e-03,2.187425456941127777e-02,2.532821334898471832e-02,2.241016179323196411e-02,2.165871672332286835e-02,3.809702396392822266e-02,1.989616826176643372e-02,9.809428825974464417e-03,6.000626832246780396e-03,6.228738930076360703e-03,-1.112562697380781174e-02,2.750768698751926422e-02,-2.422440238296985626e-02,1.189122721552848816e-02,2.309952490031719208e-02,-3.371498733758926392e-02,-7.294502109289169312e-03,-3.204915672540664673e-02,-6.022297777235507965e-03,-2.651710622012615204e-02,6.787051446735858917e-03,-2.063724771142005920e-02,2.333880402147769928e-02,2.742821164429187775e-02,2.994037978351116180e-02,3.435349091887474060e-02,1.385392714291810989e-02,-1.687678135931491852e-02,-1.377832423895597458e-02,-1.413016300648450851e-02,-2.103575319051742554e-02,-2.605559676885604858e-02,-2.266246825456619263e-02,-1.124419365078210831e-02,8.798174560070037842e-03,2.205351926386356354e-02,1.237287558615207672e-02,2.594049833714962006e-02,-6.366665940731763840e-03,-2.836895734071731567e-02,-9.451484307646751404e-03,2.784990705549716949e-02,1.331752073019742966e-02,3.268894553184509277e-02,5.347369238734245300e-03,3.283856064081192017e-02,-2.566984295845031738e-02,3.812786564230918884e-02,1.055176276713609695e-02,2.942095883190631866e-02,3.209172934293746948e-02,3.586110845208168030e-02,1.650502905249595642e-02,2.607228234410285950e-02,2.714848145842552185e-02,1.594473421573638916e-02,-2.769350260496139526e-02,3.607402741909027100e-02,-2.751180343329906464e-02,1.541169267147779465e-02,1.395309623330831528e-02,-1.907032728195190430e-02,-2.081341482698917389e-02,-2.881124615669250488e-02,-3.393555432558059692e-02,-1.678422093391418457e-02,1.604087091982364655e-02,2.801276743412017822e-03,4.345663264393806458e-02,-9.971454739570617676e-03,1.575246080756187439e-02,3.429893031716346741e-02,-2.907167002558708191e-02,-2.850310131907463074e-02,-1.114644668996334076e-02,1.454778574407100677e-02,4.628283903002738953e-03,1.252158824354410172e-02,1.823546737432479858e-02,1.557435467839241028e-02,2.629666030406951904e-02,3.378285095095634460e-02,5.869823042303323746e-03,1.416313555091619492e-02,2.069220319390296936e-02,-2.642740309238433838e-02,2.976566553115844727e-03,-2.524305321276187897e-02,-3.279475495219230652e-02,-2.333570271730422974e-02,3.592711687088012695e-02,-1.450940128415822983e-02,2.562681958079338074e-02,-3.132671862840652466e-02,-2.369603328406810760e-02,-2.109603956341743469e-02,4.981180536560714245e-04,2.865201048552989960e-02,2.467330917716026306e-02,-1.656810566782951355e-02,6.587259471416473389e-03,1.556069217622280121e-02,1.039769407361745834e-02,1.589070819318294525e-02,3.176806867122650146e-02,1.293975114822387695e-02,2.038556337356567383e-02,-1.548769976943731308e-02,2.591074444353580475e-02,-1.834445819258689880e-02,7.784678135067224503e-03,2.287036366760730743e-02,-2.749343030154705048e-02,1.606522873044013977e-02,-1.770722121000289917e-02,-4.076986107975244522e-03,1.915623061358928680e-02,3.242984786629676819e-02,1.198814343661069870e-02,3.534236922860145569e-02,-1.344577781856060028e-02,2.879632450640201569e-02,1.019418239593505859e-02,-9.425275959074497223e-03,1.805503293871879578e-02,2.728483080863952637e-02,3.096053842455148697e-03,7.869955152273178101e-03,4.960437770932912827e-03,-2.406395040452480316e-02,5.683928728103637695e-03,3.174059384036809206e-04,-3.922920301556587219e-02,-2.516488917171955109e-02,2.171744778752326965e-02,-2.494028583168983459e-02,3.265080228447914124e-02,-2.838811278343200684e-02,1.248271111398935318e-02,1.220404542982578278e-02,2.972836047410964966e-02,-9.502357803285121918e-03,3.355135023593902588e-02,3.263358026742935181e-03,2.268088608980178833e-02,1.549937110394239426e-02,1.470426470041275024e-02,4.574380815029144287e-02,-6.997981108725070953e-03,-1.044157613068819046e-02,-1.531185116618871689e-02,-2.114051766693592072e-02,-3.224425017833709717e-02,-3.423975780606269836e-02,3.216138854622840881e-02,-1.986349932849407196e-02,2.364195138216018677e-02,-3.939650207757949829e-02,1.548920106142759323e-02,4.449314146768301725e-04,-1.909895054996013641e-02,-1.007924042642116547e-02,3.381380438804626465e-02,-3.301003202795982361e-02,1.503424905240535736e-02,-3.821644559502601624e-02,2.487106062471866608e-02,-2.794420719146728516e-02,3.409677417948842049e-03,-2.748099854215979576e-03,-4.705210216343402863e-03,2.646775357425212860e-02,4.295035079121589661e-02,1.357631757855415344e-02,-1.915399171411991119e-02,2.898741886019706726e-02,-7.504668552428483963e-03,1.338161295279860497e-03,-1.609548740088939667e-02,2.689251489937305450e-02,1.951550878584384918e-02,-8.861742680892348289e-04,2.394070848822593689e-03,-8.932607248425483704e-03,-2.796875312924385071e-02,1.243663835339248180e-03,2.216166071593761444e-02,1.670208014547824860e-02,4.293398465961217880e-03,-2.238246425986289978e-02,2.670279145240783691e-02,2.543309517204761505e-02,4.765923600643873215e-03,2.312546782195568085e-02,-2.018574625253677368e-03,7.428165059536695480e-03,1.845250278711318970e-02,-1.886752434074878693e-02,1.444713957607746124e-02,-5.963403382338583469e-04,2.040255069732666016e-02,3.909099102020263672e-02,-5.770605057477951050e-04,-2.935486100614070892e-02,9.036825969815254211e-03,2.007073350250720978e-02,-1.610289886593818665e-02,-2.793653169646859169e-03,2.852018550038337708e-02,1.404737867414951324e-02,-5.591856781393289566e-03,-9.711679071187973022e-03,1.441543363034725189e-02,-3.647980839014053345e-02,1.662234589457511902e-02,-2.389020472764968872e-02,-1.720711216330528259e-02,-2.039551921188831329e-02,2.567844279110431671e-02,-5.501858424395322800e-03,3.440375253558158875e-02,2.225672639906406403e-02,-4.964882042258977890e-03,1.144353672862052917e-02,-2.505438774824142456e-02,-8.307675831019878387e-03,6.239608861505985260e-03,1.394807919859886169e-02,-2.256256900727748871e-02,-3.480401262640953064e-02,-1.710685202851891518e-03,-7.582088466733694077e-03,2.574989199638366699e-02,-2.513543888926506042e-02,-4.323719069361686707e-02,-2.523422241210937500e-02,2.030072174966335297e-02,1.897601224482059479e-02,-8.955752477049827576e-03,-9.733385406434535980e-03,2.399045228958129883e-02,2.607776969671249390e-02,-1.446142047643661499e-02,-5.678529851138591766e-03,1.819110289216041565e-02,-6.844306481070816517e-04,2.642769739031791687e-02,-3.358423477038741112e-03,1.224327087402343750e-02,-2.592004835605621338e-03,-2.659635245800018311e-02,7.152583450078964233e-03,-1.115718577057123184e-02,1.041654264554381371e-03,2.747732587158679962e-02,4.139658063650131226e-03,1.150496862828731537e-02,-4.861125780735164881e-04,-8.592611178755760193e-03,-3.090259432792663574e-02,2.975499629974365234e-02,-3.961206227540969849e-02,3.664990514516830444e-02,-1.402464811690151691e-03,-9.922212921082973480e-04,2.816375158727169037e-02,-1.088638044893741608e-02,-3.149177506566047668e-02,-2.640731260180473328e-02,-4.071361385285854340e-03,1.587533950805664062e-02,3.883268218487501144e-03,1.503870822489261627e-02,3.327115625143051147e-02,-2.119254879653453827e-02,2.262039110064506531e-02,2.114367671310901642e-02,1.662285439670085907e-02,7.350737694650888443e-03,1.361676584929227829e-02,-3.216347470879554749e-02,-2.844950929284095764e-02,2.393600717186927795e-02,4.426406230777502060e-03,-2.465664036571979523e-02,1.919676735997200012e-02,-3.286761790513992310e-02,1.827286928892135620e-02,-2.488636597990989685e-02,3.517071530222892761e-02,-2.076041325926780701e-02,-1.937548257410526276e-02,3.824415057897567749e-02,-6.090881768614053726e-03,1.470590289682149887e-02,-4.698275588452816010e-03,-2.691197907552123070e-03,4.574497696012258530e-03,2.515920996665954590e-02,1.610637269914150238e-02,2.566798031330108643e-02,-3.070087544620037079e-02,-1.672166213393211365e-02,1.285077165812253952e-02,3.773952275514602661e-02,2.959370054304599762e-02,7.245623506605625153e-03,-1.111635100096464157e-02,-2.248181030154228210e-02,4.166004434227943420e-02,1.024752345983870327e-04,2.986518479883670807e-02,-2.765576727688312531e-02,3.514035139232873917e-03,1.415226794779300690e-02,-1.674340479075908661e-02,-3.786670416593551636e-02,1.764876581728458405e-02,8.501411415636539459e-03,-2.797571383416652679e-02,-3.735281352419406176e-04,-2.221283316612243652e-02,3.302408149465918541e-03,-2.302107587456703186e-02,2.822902984917163849e-02,1.005430519580841064e-02,-3.805426182225346565e-03,9.750172495841979980e-03,3.418323025107383728e-02,-1.184632908552885056e-02,-3.127650916576385498e-02,-8.668757975101470947e-03,2.145982906222343445e-02,-1.183893065899610519e-02,-2.142140455543994904e-02,-1.062092185020446777e-02,1.089591067284345627e-02,1.305831130594015121e-02,-7.650522515177726746e-03,1.773218438029289246e-02,2.545336261391639709e-02,1.715385913848876953e-02,-1.257728878408670425e-02,2.334073372185230255e-02,-2.153478935360908508e-02,-3.056832589209079742e-02,-7.600795943289995193e-03,-1.397495809942483902e-02,2.978225052356719971e-02,2.256734855473041534e-02,7.173701655119657516e-03,-2.659549005329608917e-02,2.831421559676527977e-03,-1.401773560792207718e-02,-9.709457866847515106e-03,-1.678874343633651733e-02,-2.937532844953238964e-04,-1.528096664696931839e-02,2.321087568998336792e-02,-2.791077829897403717e-02,-2.362397126853466034e-02,-3.223276138305664062e-02,-2.646820805966854095e-02,-1.369033195078372955e-02,3.924357518553733826e-02,7.492270786315202713e-03,6.496164947748184204e-03,-1.450899150222539902e-02,-2.954106591641902924e-02,3.041882999241352081e-02,-3.355934470891952515e-02,-9.977618232369422913e-03,-7.995979860424995422e-03,3.106683865189552307e-02,-4.071572795510292053e-02,1.569795794785022736e-02,-1.615558378398418427e-02,-9.710224694572389126e-04,2.274530008435249329e-02,-2.599947340786457062e-02,7.202575448900461197e-03,2.337931655347347260e-02,1.819649152457714081e-02,-2.023683488368988037e-02,-2.300196501892060041e-04,1.632240228354930878e-02,4.766291240230202675e-04,2.281800657510757446e-02,-1.331983786076307297e-02,-2.791616832837462425e-03,-7.429348770529031754e-04,2.481174282729625702e-02,3.030984476208686829e-02,-9.198490530252456665e-03,2.291420288383960724e-02,-1.672197133302688599e-02,2.280354499816894531e-02,-7.809372153133153915e-03,3.543253114912658930e-04,-8.628790266811847687e-03,8.717578835785388947e-03,-2.905616536736488342e-02,3.032705374062061310e-02,2.557221986353397369e-02,3.552301228046417236e-02,-2.817374281585216522e-02,1.879556511994451284e-04,3.316677641123533249e-03,-1.371407299302518368e-03,1.633071899414062500e-02,-3.827213775366544724e-03,7.335269358009099960e-03,-1.634674333035945892e-02,5.808005109429359436e-03,2.640481851994991302e-02,7.499215658754110336e-03,-1.948258839547634125e-02,-1.994982128962874413e-03,2.251168899238109589e-02,-3.383748698979616165e-03,3.314394876360893250e-02,1.288152579218149185e-02,3.491553664207458496e-02,1.667444966733455658e-02,1.536715310066938400e-02,2.175059169530868530e-02,1.669177040457725525e-02,2.328762225806713104e-02,-4.932923729938920587e-06,-3.546679625287652016e-03,-1.864716038107872009e-02,5.639961920678615570e-03,1.981431990861892700e-02,-4.439915355760604143e-04,1.666575670242309570e-02,1.225433778017759323e-02,-2.994596026837825775e-02,1.685292087495326996e-02,-4.833051934838294983e-03,1.863272674381732941e-02,-3.201909828931093216e-03,-2.253573387861251831e-02,-3.004824183881282806e-02,-6.100300233811140060e-04,-3.325941413640975952e-02,4.745098762214183807e-03,1.174083445221185684e-03,-9.470581426285207272e-04,-1.567302830517292023e-02,-2.278641052544116974e-02,-3.588789608329534531e-03,-1.695166900753974915e-02,2.585168182849884033e-02,1.186360977590084076e-02,-2.814977057278156281e-02,-9.087397716939449310e-03,-1.380839571356773376e-02,3.275332227349281311e-02,-1.216012425720691681e-02,-3.466371446847915649e-02,-2.166405320167541504e-02,2.808702178299427032e-02,3.244511038064956665e-02,-2.197914943099021912e-02,-7.493151817470788956e-03,9.786185808479785919e-03,2.363711595535278320e-02,1.244202442467212677e-02,-3.708973899483680725e-02,3.396687656641006470e-02,3.457643557339906693e-03,-4.686190746724605560e-03,1.117150019854307175e-02,-1.869700662791728973e-02,-2.517376467585563660e-02,-2.803975343704223633e-02,5.516641307622194290e-03,-2.197229862213134766e-02,4.086149390786886215e-03,-2.487822063267230988e-02,3.852523118257522583e-02,6.838866043835878372e-03,-1.123058516532182693e-02,1.433400157839059830e-02,-3.052818402647972107e-02,1.392925158143043518e-02,2.765762433409690857e-02,3.170430660247802734e-02,-1.228354033082723618e-02,2.777701616287231445e-02,1.035328302532434464e-02,-3.357097133994102478e-02,1.708059688098728657e-03,3.548258543014526367e-02,-2.036531455814838409e-02,-2.768543735146522522e-02,-2.364306524395942688e-02,-3.115948103368282318e-02,-2.219813130795955658e-02,-1.912165991961956024e-02,1.627369038760662079e-02,1.887984946370124817e-02,2.101636305451393127e-02,-1.732445694506168365e-02,-3.503225743770599365e-03,-3.075704164803028107e-02,-1.023538038134574890e-02,-3.248574677854776382e-03,-1.611655228771269321e-03,6.259709596633911133e-03,1.063707005232572556e-02,5.068343505263328552e-02,1.288558356463909149e-02,6.790154613554477692e-03,4.816643893718719482e-03,1.735748955979943275e-04,-1.810895279049873352e-02,-1.413491088896989822e-02,-2.601702325046062469e-02,-1.252566464245319366e-02,-4.657160956412553787e-03,-2.590095810592174530e-02,-2.508010901510715485e-02,2.959968522191047668e-02,-2.854057773947715759e-02,-2.687809616327285767e-02,-2.324813045561313629e-02,-2.307669259607791901e-03,5.568112246692180634e-03,-2.386580593883991241e-02,-2.917174994945526123e-02,-2.904920652508735657e-02,2.495775558054447174e-02,-1.639648713171482086e-02,-2.872791141271591187e-02,2.321495302021503448e-02,2.201843447983264923e-02,-1.085050869733095169e-02,2.631025388836860657e-02,-1.849934086203575134e-02,1.461431570351123810e-02,-1.636269316077232361e-02,3.030463866889476776e-02,-2.520002657547593117e-03,-3.348736464977264404e-02,3.067051433026790619e-02,2.782892435789108276e-02,1.057929079979658127e-02,-1.208277512341737747e-02,-1.921786740422248840e-02
