2.343880385160446167e-02,-4.764237999916076660e-02,-9.030428715050220490e-03,-6.126940995454788208e-02,3.572894632816314697e-02,-3.385302424430847168e-02,-2.881870605051517487e-02,4.224248230457305908e-02,-3.593452973291277885e-03,2.453151717782020569e-02,6.617893278598785400e-02,-4.055401310324668884e-02,-5.788315832614898682e-02,5.668724421411752701e-03,-6.090570986270904541e-02,-6.546884775161743164e-02,1.297497376799583435e-02,-3.467498719692230225e-02,-2.773101441562175751e-02,3.321038931608200073e-02,-3.492789342999458313e-02,4.982509091496467590e-02,7.329139858484268188e-02,1.136125773191452026e-01,7.648462057113647461e-02,2.885639853775501251e-02,-2.253276668488979340e-02,-7.572916895151138306e-02,-6.456495076417922974e-02,-1.286087092012166977e-03,3.293062001466751099e-02,1.716794073581695557e-02,-4.325920715928077698e-02,-1.745917089283466339e-02,-3.202036023139953613e-02,2.907414175570011139e-02,-7.396118342876434326e-02,5.853343755006790161e-02,2.516794763505458832e-02,-1.002197861671447754e-01,3.361425595358014107e-03,2.822978049516677856e-02,5.505047366023063660e-02,1.686838269233703613e-02,1.635443605482578278e-02,-2.355232834815979004e-02,4.508242011070251465e-02,-5.250804126262664795e-02,1.207829173654317856e-02,9.853923320770263672e-02,1.264294516295194626e-02,-2.448887564241886139e-02,9.224299341440200806e-02,5.917835514992475510e-03,-5.989510100334882736e-03,-4.013321176171302795e-02,4.279882460832595825e-02,-2.319263294339179993e-02,-6.675815582275390625e-02,4.578187316656112671e-02,-5.766777694225311279e-02,6.677743047475814819e-02,2.928531356155872345e-02,7.035585492849349976e-02,9.275699406862258911e-02,-2.911037579178810120e-02,6.210555881261825562e-02,1.144326664507389069e-02,8.185804821550846100e-03,4.274227097630500793e-02,4.643174260854721069e-02,1.048807706683874130e-02,-6.541437655687332153e-02,6.080044899135828018e-03,-6.904606521129608154e-02,7.779343426227569580e-02,1.825332641601562500e-02,2.618891419842839241e-03,3.010748885571956635e-02,7.936262339353561401e-02,1.002584248781204224e-01,9.149416000582277775e-04,1.903025992214679718e-02,-2.103211544454097748e-02,-4.136467725038528442e-02,5.496911332011222839e-02,2.721451967954635620e-02,-6.046029925346374512e-02,1.478695124387741089e-02,9.725214913487434387e-03,-5.200599506497383118e-02,5.388545989990234375e-02,5.188025534152984619e-03,2.258899621665477753e-03,4.679922759532928467e-02,-7.287822663784027100e-02,-4.694705456495285034e-02,-6.199426576495170593e-02,-7.532990071922540665e-03,7.775010168552398682e-02,8.017743378877639771e-02,6.239553913474082947e-02,-1.018058881163597107e-02,-6.278131902217864990e-02,-1.565009914338588715e-02,-4.925524070858955383e-02,-6.211454980075359344e-03,-1.313103921711444855e-02,-3.749086335301399231e-02,-1.697681844234466553e-02,7.608620822429656982e-02,-6.108282878994941711e-02,-7.198169827461242676e-02,-2.755760215222835541e-02,-1.187781896442174911e-02,1.110484302043914795e-01,-2.262199483811855316e-02,8.950504660606384277e-02,8.880414068698883057e-02,-5.269509553909301758e-02,-3.988191112875938416e-02,3.499562665820121765e-02,-7.093580812215805054e-02,-2.075152844190597534e-02,-4.970923438668251038e-02,8.872745186090469360e-02,5.899209063500165939e-03,-4.855360835790634155e-02,-3.256040066480636597e-02,-2.054520137608051300e-02,-4.002747312188148499e-02,6.465916335582733154e-02,3.194284439086914062e-02,8.636871725320816040e-02,-5.128521099686622620e-02,3.301306813955307007e-02,1.689773425459861755e-02,-2.628055773675441742e-02,-2.088373899459838867e-02,3.085842914879322052e-02,-4.809540137648582458e-02,3.799431771039962769e-02,-5.146798118948936462e-02,3.493274003267288208e-02,5.414007976651191711e-02,4.917363170534372330e-03,3.560087457299232483e-02,-5.095018446445465088e-02,-7.717597298324108124e-03,9.433086961507797241e-02,-3.760037943720817566e-02,-8.437788486480712891e-02,-6.467046588659286499e-02,-9.498644620180130005e-03,2.383231185376644135e-03,5.258049815893173218e-02,5.566170811653137207e-02,7.038952410221099854e-02,-8.342188596725463867e-02,8.660466969013214111e-02,-8.352064341306686401e-02,-8.171770721673965454e-02,7.024217396974563599e-02,1.343199517577886581e-02,-4.354210942983627319e-02,6.215176731348037720e-02,-3.781826794147491455e-02,9.912546724081039429e-03,1.998833380639553070e-02,3.425753116607666016e-02,-3.036149404942989349e-02,-3.339310642331838608e-03,2.071126550436019897e-02,4.896005615592002869e-02,3.827841207385063171e-02,2.271672524511814117e-02,-5.762597918510437012e-02,-4.958233609795570374e-02,-1.307671051472425461e-02,3.169802948832511902e-02,-4.382558166980743408e-02,-2.848337218165397644e-02,-3.228556737303733826e-02,-1.668817736208438873e-02,-6.702714413404464722e-02,8.877032995223999023e-02,-3.614759072661399841e-02,-2.753895521163940430e-02,-5.658654496073722839e-02,-5.629206821322441101e-02,-7.498599588871002197e-02,5.639597773551940918e-02,5.714420974254608154e-02,-2.090801671147346497e-02,-1.788758113980293274e-02,5.286945775151252747e-02,3.090492822229862213e-02,7.110130041837692261e-02,6.374130398035049438e-02,2.282277680933475494e-02,9.466177225112915039e-02,4.332849755883216858e-02,2.236500382423400879e-02,2.739149704575538635e-02,6.392645090818405151e-02,9.039317257702350616e-03,1.161617487668991089e-01,5.439553409814834595e-03,4.829985275864601135e-02,6.726720836013555527e-03,-8.354467898607254028e-02,1.290649827569723129e-02,3.183885663747787476e-02,-5.305277183651924133e-02,3.022471070289611816e-02,6.343206018209457397e-02,-6.596108525991439819e-02,4.604993760585784912e-02,-2.271652780473232269e-02,2.000558376312255859e-02,-1.829082891345024109e-02,-1.827529445290565491e-02,-3.186241909861564636e-02,3.075174242258071899e-02,4.709960892796516418e-02,1.838929136283695698e-03,1.277408748865127563e-02,8.546252734959125519e-03,7.340060174465179443e-02,-2.531296201050281525e-02,-8.655804209411144257e-03,8.738400414586067200e-03,2.194722037529572845e-04,5.634957924485206604e-02,-1.496364921331405640e-02,2.270077168941497803e-02,5.712701007723808289e-02,2.669116016477346420e-03,7.129334658384323120e-02,-7.220587134361267090e-02,-3.354487940669059753e-03,7.889681309461593628e-02,-6.051127240061759949e-02,5.343529954552650452e-02,1.984889246523380280e-02,3.729783371090888977e-02,3.486565873026847839e-02,8.180047571659088135e-02,3.488738089799880981e-02,-3.674105741083621979e-03,-6.448373198509216309e-02,-7.852429151535034180e-02,5.674645304679870605e-02,-4.569244384765625000e-02,-2.441561035811901093e-02,5.724853277206420898e-02,3.651240468025207520e-02,-1.329932920634746552e-02,5.625892430543899536e-02,-2.593506127595901489e-02,8.953883498907089233e-02,8.922061324119567871e-02,9.616115712560713291e-04,4.458529129624366760e-02,6.416963785886764526e-02,-7.500681281089782715e-02,5.603564530611038208e-02,4.851145297288894653e-02,-2.427870221436023712e-02,8.780603855848312378e-02,-2.744499407708644867e-02,1.024020016193389893e-01,-4.077316075563430786e-02,-1.482480484992265701e-02,-6.601770967245101929e-02,8.516449481248855591e-02,-3.169695287942886353e-02,6.839687377214431763e-02,1.558291725814342499e-02,-2.193097956478595734e-02,4.624689742922782898e-02,5.575546249747276306e-02,-8.248346298933029175e-02,7.325148582458496094e-02,-7.754678279161453247e-02,9.346421808004379272e-02,1.094740070402622223e-02,7.222299464046955109e-03,4.278766363859176636e-02,-1.540961582213640213e-02,-5.038257688283920288e-02,-5.109100788831710815e-02,2.498976327478885651e-02,-5.312580242753028870e-02,5.582305416464805603e-02,7.362226396799087524e-02,3.274196758866310120e-02,3.898940980434417725e-02,6.818737834692001343e-02,5.717255547642707825e-02,-5.428213998675346375e-02,6.306925415992736816e-02,4.096378758549690247e-02,-3.468196094036102295e-02,-6.630464643239974976e-02,-4.532891791313886642e-03,3.653340274468064308e-03,-1.881986274383962154e-03,2.826433442533016205e-02,1.484484225511550903e-02,-3.949470072984695435e-02,-1.716103986836969852e-03,-7.879859767854213715e-03,5.989978555589914322e-03,-7.386526465415954590e-02,6.730809807777404785e-03,-6.983354687690734863e-02,6.953825056552886963e-02,4.404225945472717285e-02,7.088912278413772583e-02,7.839287817478179932e-02,-4.638610035181045532e-02,1.248943340033292770e-02,-2.115948498249053955e-02,2.410449460148811340e-02,1.034537982195615768e-02,-4.363104328513145447e-02,-4.265755414962768555e-02,1.112237200140953064e-02,5.207628756761550903e-02,1.429403014481067657e-02,-4.597964510321617126e-02,-1.063357945531606674e-02,3.921776264905929565e-02,-1.030978560447692871e-02,-4.113192111253738403e-02,-8.433187007904052734e-02,-3.324418887495994568e-02,4.534949362277984619e-02,-3.575583919882774353e-02,-2.941439114511013031e-02,8.221177011728286743e-02,3.263934701681137085e-02,-6.289888173341751099e-02,-5.484187975525856018e-02,5.390529055148363113e-03,-3.414173552300781012e-04,3.916051611304283142e-02,6.436327099800109863e-02,3.590815514326095581e-02,-7.466164976358413696e-02,-4.355905205011367798e-02,-7.168912887573242188e-02,-1.069539226591587067e-02,1.028366014361381531e-02,7.078927755355834961e-02,8.704210817813873291e-02,-7.661069184541702271e-02,-1.799334026873111725e-02,-2.741559781134128571e-02,-3.572337701916694641e-02,-1.922733895480632782e-02,3.625454753637313843e-02,6.977181136608123779e-02,-6.163409724831581116e-02,-6.767308712005615234e-02,-3.869059728458523750e-03,-1.307217637076973915e-03,3.738279640674591064e-02,-2.981779724359512329e-02,6.092549115419387817e-02,-2.176896482706069946e-02,8.169593662023544312e-02,-5.192164331674575806e-02,6.973261386156082153e-02,3.992278128862380981e-02,-2.608926966786384583e-02,1.671299524605274200e-02,2.720705606043338776e-02,-2.397813461720943451e-02,-7.778815180063247681e-02,-3.354962170124053955e-02,1.827080175280570984e-02,-3.080730512738227844e-02,8.884420618414878845e-03,6.961790472269058228e-02,-8.326194249093532562e-03,5.390022695064544678e-02,6.781944632530212402e-02,1.820087805390357971e-02,1.025096420198678970e-02,2.261311747133731842e-02,3.054838860407471657e-03,8.808694034814834595e-02,-2.074664458632469177e-02,-4.782586172223091125e-02,5.168183147907257080e-02,3.790947608649730682e-03,-3.393813967704772949e-02,6.451702117919921875e-02,-1.609689183533191681e-02,-3.706805035471916199e-02,1.264724880456924438e-02,-2.849950827658176422e-02,3.902214393019676208e-02,-1.839252188801765442e-02,-6.837918609380722046e-02,2.805911377072334290e-02,2.586809918284416199e-02,5.569956824183464050e-02,2.837882749736309052e-02,9.474010020494461060e-02,-5.652493610978126526e-02,3.036966174840927124e-02,-3.039452806115150452e-02,3.745909780263900757e-03,6.812030076980590820e-02,9.941913932561874390e-02,6.480819731950759888e-02,2.055664919316768646e-02,-4.422497749328613281e-02,1.493757683783769608e-02,-8.309549838304519653e-02,-7.514680176973342896e-02,1.923810131847858429e-02,3.311689570546150208e-02,7.038456201553344727e-02,-1.638019829988479614e-02,6.530330330133438110e-02,-5.146259441971778870e-02,-6.615397334098815918e-02,-2.793997898697853088e-02,-8.076299913227558136e-03,-1.785087026655673981e-02,-2.500532008707523346e-02,1.859274506568908691e-02,1.677818968892097473e-02,1.336307264864444733e-02,-1.988611370325088501e-02,6.251977290958166122e-03,1.230258680880069733e-02,-6.122022122144699097e-02,-2.400246821343898773e-02,-5.691768601536750793e-02,-3.246166929602622986e-02,-2.117996849119663239e-02,-4.049941152334213257e-02,7.153844088315963745e-02,-7.949259132146835327e-02,4.556516930460929871e-02,-7.050988078117370605e-02,-4.491998255252838135e-02,-4.642421752214431763e-02,5.741652473807334900e-02,-1.777443103492259979e-02,5.478600040078163147e-02,-3.363442048430442810e-02,-7.285372167825698853e-02,3.728787600994110107e-02,-5.550287663936614990e-02,-3.472170233726501465e-02,5.258400365710258484e-02,4.998620599508285522e-02,-5.052534118294715881e-02,5.831434205174446106e-02,3.928640112280845642e-02,-6.305634230375289917e-02,7.586900889873504639e-02,1.232482679188251495e-02,1.121948584914207458e-01,2.502784878015518188e-02,-2.746072784066200256e-02,-5.650462210178375244e-02,4.462600871920585632e-02,-3.325507789850234985e-02,3.983966633677482605e-02,3.835761547088623047e-02,3.067671135067939758e-02,3.919471427798271179e-02,-1.138904131948947906e-02,8.953426778316497803e-02,-7.451181113719940186e-02,-6.311490666121244431e-03,-3.031183406710624695e-02,2.753199636936187744e-02,-1.723782904446125031e-02,2.536769956350326538e-02,-4.146212711930274963e-02,-4.710415005683898926e-02,1.146467030048370361e-02,4.526346549391746521e-02,5.517531186342239380e-02,-5.147583410143852234e-02,3.695525601506233215e-02,2.676744945347309113e-02,8.305723220109939575e-02,-1.622927375137805939e-02,-4.753455147147178650e-02,1.987317763268947601e-02,4.953348636627197266e-02,3.975255414843559265e-02,-6.591130793094635010e-02,7.498819380998611450e-02,-1.974282786250114441e-02,1.077368929982185364e-01,-7.462818920612335205e-02,-7.729379087686538696e-02,-2.701471559703350067e-02,8.010825142264366150e-03,-2.994643151760101318e-02,-8.789157867431640625e-02,-2.683910354971885681e-02,-1.570739597082138062e-02,-6.166202574968338013e-02,-8.000008761882781982e-03,-4.197204858064651489e-02,-1.485885027796030045e-02,6.489427178166806698e-04,-2.296538092195987701e-03,-5.173488333821296692e-02,5.660818517208099365e-02,2.964174561202526093e-02,-8.156560361385345459e-03,1.210091263055801392e-02,6.749134510755538940e-02,7.949892431497573853e-02,-8.517289534211158752e-03,-3.287979960441589355e-02,-1.713510043919086456e-02,-4.374984279274940491e-02,1.769107207655906677e-02,7.697043567895889282e-02,4.676549509167671204e-02,-3.438241034746170044e-02,7.254377007484436035e-03,-2.473110146820545197e-02,-6.141042336821556091e-02,5.829769000411033630e-02,6.577915698289871216e-02,4.736834019422531128e-02,-1.698511186987161636e-03,8.151014149188995361e-02,-1.350796874612569809e-02,7.818181812763214111e-02,1.129487529397010803e-02,-3.147279471158981323e-02,-5.505557730793952942e-02,-1.203469559550285339e-02,3.591995686292648315e-02,7.073336094617843628e-02,7.289525121450424194e-02,1.902389526367187500e-02,6.355977803468704224e-02,2.098976820707321167e-02,6.115896254777908325e-02,1.594487228430807590e-03,-2.718733251094818115e-02,-2.477503567934036255e-02,8.478563278913497925e-02,-2.764325181487947702e-04,-3.654968366026878357e-02,3.875042125582695007e-02,-4.309461638331413269e-02,-7.323024328798055649e-03,-3.255403786897659302e-02,1.713719777762889862e-02,-3.338742628693580627e-02,-2.601602487266063690e-02,5.285592004656791687e-02,-4.536743834614753723e-02,-6.734793633222579956e-02,1.546466909348964691e-02,8.873429894447326660e-02,6.510829553008079529e-03,9.151979535818099976e-02,-6.636331230401992798e-02,-2.387637458741664886e-02,-2.642781473696231842e-02,6.022352352738380432e-02,-2.629215829074382782e-03,9.955345839262008667e-02,-7.147754728794097900e-02,-3.117918781936168671e-02,-1.306132320314645767e-02,-7.368511706590652466e-02,3.952699899673461914e-02,-3.819058090448379517e-02,9.719321131706237793e-02,6.943591684103012085e-02,4.969033971428871155e-02,6.006440520286560059e-02,-2.000279352068901062e-02,8.530553430318832397e-02,-2.278026565909385681e-02,2.577613294124603271e-02,6.914716958999633789e-02,6.466770172119140625e-02,7.814761251211166382e-02,7.240927219390869141e-02,-1.019372791051864624e-02,5.222088471055030823e-02,-1.921789348125457764e-02,-2.420686371624469757e-02,-4.437277093529701233e-02,6.519167870283126831e-02,3.095415607094764709e-02,8.305994421243667603e-02,8.006493002176284790e-02,-2.042850665748119354e-02,6.273807585239410400e-02,5.465274676680564880e-02,5.223574489355087280e-02,3.836704418063163757e-02,-5.474023055285215378e-03,-6.408394128084182739e-02,2.358675003051757812e-02,-3.560499101877212524e-02,-1.176747120916843414e-02,7.607594877481460571e-02,4.610318690538406372e-03,5.960167944431304932e-02,1.784404180943965912e-02,-2.556021884083747864e-02,2.465697377920150757e-02,1.928454637527465820e-02,7.344560325145721436e-02,8.402417600154876709e-02,-1.215586904436349869e-03,2.951823547482490540e-02,5.636571906507015228e-03,-6.212303042411804199e-02,2.802699990570545197e-02,-6.455107126384973526e-03,-3.932969644665718079e-02,-1.822184538468718529e-03,5.386804789304733276e-02,2.256462816148996353e-03,1.979161752387881279e-03,-5.944169592112302780e-03,5.156670510768890381e-02,6.765487790107727051e-02,-2.370689809322357178e-02,4.881934449076652527e-02,-2.230705507099628448e-02,7.371508330106735229e-02,7.604466751217842102e-03,-4.117476195096969604e-02,-2.773932367563247681e-02,1.333380863070487976e-02,-2.577997185289859772e-02,7.494898885488510132e-02,6.583161186426877975e-03,-3.013442270457744598e-02,8.689454197883605957e-02,-3.871387615799903870e-02,1.604453660547733307e-02,-4.357189685106277466e-02,3.720255196094512939e-02,1.045739278197288513e-02,6.839305162429809570e-02,-6.886368989944458008e-02,-4.006566107273101807e-02,4.942049458622932434e-02,-4.736951738595962524e-02,-6.040267273783683777e-02,-1.401329645887017250e-03,7.378827780485153198e-02,-6.241753231734037399e-03,7.193332910537719727e-02,2.321824431419372559e-02,-3.202196583151817322e-02,8.635105937719345093e-02,-2.955168113112449646e-02,2.462997473776340485e-02,4.616184532642364502e-02,-3.966766968369483948e-02,5.886434763669967651e-02,6.211958825588226318e-03,-2.812808938324451447e-02,-6.516076624393463135e-02,4.466049745678901672e-02,-5.887250229716300964e-02,1.028137877583503723e-01,-5.386033281683921814e-02,5.480064451694488525e-02,7.053717225790023804e-02,5.623390898108482361e-04,4.068836569786071777e-02,4.976973310112953186e-02,1.087382957339286804e-01,5.358549579977989197e-02,4.640248138457536697e-03,8.970789611339569092e-02,4.381012916564941406e-02,-1.680318266153335571e-02,-7.894510775804519653e-02,-3.451960906386375427e-02,-5.584366992115974426e-02,5.254831165075302124e-02,-3.301540762186050415e-02,7.686233520507812500e-02,4.630929231643676758e-02,6.360539793968200684e-02,6.827727705240249634e-02,4.956121742725372314e-02,5.980739742517471313e-02,-1.309530064463615417e-02,4.874709621071815491e-02,8.779396116733551025e-02,3.761923313140869141e-02,-3.161285305395722389e-03,-6.948136538267135620e-02,-6.757649034261703491e-02,-8.553529158234596252e-03,5.543021485209465027e-02,-2.021248079836368561e-02,-8.761538565158843994e-02,-6.255817413330078125e-02,3.195727244019508362e-02,6.805012375116348267e-02,-5.555166304111480713e-02,7.342343032360076904e-02,-2.169751748442649841e-02,-3.978886455297470093e-02,-9.652076289057731628e-03,-3.324388712644577026e-02,-3.468514606356620789e-02,-1.476061623543500900e-02,7.343741506338119507e-02,-5.319687351584434509e-02,4.535306245088577271e-03,3.401092020794749260e-03,-6.469608750194311142e-03,8.897507190704345703e-02,5.159198492765426636e-02,-4.897183924913406372e-02,5.236775055527687073e-02,4.706091061234474182e-02,6.320222467184066772e-02,9.282072074711322784e-03,4.348521679639816284e-02,5.937395244836807251e-02,-4.311978071928024292e-02,-3.957367315888404846e-02,-1.306356955319643021e-02,1.980602368712425232e-02,-2.320991829037666321e-02,1.651285029947757721e-02,1.371451467275619507e-02,-3.810166940093040466e-02,-3.323461487889289856e-02,6.245636194944381714e-02,4.826775565743446350e-02,6.654287874698638916e-02,-5.960734933614730835e-02,1.406416948884725571e-02,-7.096520066261291504e-02,2.931177243590354919e-02,3.826971352100372314e-02,2.269344776868820190e-02,7.546719163656234741e-02,-3.471500054001808167e-02,4.783409088850021362e-02,-5.942530184984207153e-02,1.472504809498786926e-02,-6.592667102813720703e-02,2.643722109496593475e-02,-6.264495104551315308e-02,-2.132295072078704834e-02,-4.312180913984775543e-03,1.776561699807643890e-02,9.160980582237243652e-02,-3.258069977164268494e-03,2.126172371208667755e-02,7.461399305611848831e-03,5.948279425501823425e-02,-6.750525534152984619e-02,-4.783584550023078918e-02,-5.966060608625411987e-02,-5.461039021611213684e-02,7.130647450685501099e-02,6.219790317118167877e-03,7.540234178304672241e-02,4.314080998301506042e-02,6.150011345744132996e-02,1.923575997352600098e-02,6.846913695335388184e-02,5.378380417823791504e-02,-1.429694518446922302e-02,-6.937455385923385620e-02,-5.957270041108131409e-03,5.731874704360961914e-02,7.401908934116363525e-02,-5.738167837262153625e-02,-2.343094907701015472e-02,-6.310890614986419678e-02,-1.686749747022986412e-03,6.281720101833343506e-02,-8.796004951000213623e-02,-4.731629043817520142e-02
