4.529812186956405640e-02,4.393184557557106018e-03,9.790064767003059387e-03,5.562835931777954102e-02,6.645380705595016479e-02,-3.905331715941429138e-02,8.413782715797424316e-02,9.469889849424362183e-02,-3.954625688493251801e-03,-1.431306172162294388e-02,5.881866812705993652e-02,-8.772513270378112793e-02,1.418058061972260475e-03,5.371100082993507385e-02,-6.690137833356857300e-02,2.082467451691627502e-02,3.022340685129165649e-02,-3.191923489794135094e-03,1.779057784005999565e-03,-4.177816212177276611e-02,4.495626315474510193e-02,4.491123557090759277e-02,-3.432555124163627625e-02,2.373419003561139107e-03,-3.661204501986503601e-02,8.449929207563400269e-02,-1.720900647342205048e-02,8.984044194221496582e-03,4.178512375801801682e-03,-3.810673719272017479e-03,1.361801382154226303e-02,-1.119182631373405457e-02,6.728003267198801041e-03,4.771846532821655273e-02,1.630296185612678528e-02,-2.137839980423450470e-02,2.016591280698776245e-02,-2.094201184809207916e-02,-5.331607069820165634e-03,-3.995972685515880585e-03,5.209729820489883423e-02,3.389068320393562317e-02,4.685266688466072083e-02,1.483236812055110931e-02,-4.343057051301002502e-02,3.397146239876747131e-02,3.880846872925758362e-02,2.983774465974420309e-04,-3.805128857493400574e-02,4.132249578833580017e-02,-6.767556071281433105e-02,-4.449898377060890198e-02,-7.141218520700931549e-03,-3.940749168395996094e-02,5.230222363024950027e-03,-3.350030397996306419e-03,4.827992990612983704e-02,1.610477454960346222e-02,1.026039104908704758e-02,7.276117801666259766e-02,5.865692719817161560e-02,9.022703394293785095e-03,-9.397798567079007626e-04,8.594504324719309807e-04,2.551610209047794342e-02,-9.033572860062122345e-03,-6.429144740104675293e-02,3.904440253973007202e-02,7.126445882022380829e-03,-3.032455453649163246e-03,-6.080874428153038025e-02,-2.122444100677967072e-02,-6.251863390207290649e-02,9.017296135425567627e-03,-2.086857333779335022e-02,1.794636622071266174e-02,6.832787394523620605e-02,-2.015192806720733643e-02,6.181633472442626953e-02,3.293705359101295471e-02,2.497308142483234406e-02,3.640221059322357178e-02,4.355490207672119141e-02,-2.519039670005440712e-03,-4.996473714709281921e-02,-1.524373330175876617e-02,4.344974085688591003e-02,5.335059389472007751e-02,-4.958572238683700562e-02,-5.258798599243164062e-02,-1.038267388939857483e-01,4.064630717039108276e-02,3.518739342689514160e-02,6.067789718508720398e-02,3.490312770009040833e-02,2.929939888417720795e-02,5.635079368948936462e-02,-2.605561353266239166e-02,-3.113098442554473877e-02,-6.803670432418584824e-03,6.311540305614471436e-02,-2.070360071957111359e-02,-8.337244391441345215e-02,5.227601155638694763e-02,5.869622528553009033e-02,1.275075878947973251e-02,-3.306613862514495850e-02,3.926017880439758301e-02,2.418742328882217407e-02,-4.424089100211858749e-03,2.908618003129959106e-02,-1.275430619716644287e-02,-5.127383768558502197e-02,-9.327440522611141205e-03,2.841062285006046295e-02,-3.590806201100349426e-02,-7.552934437990188599e-02,-3.151792660355567932e-02,-6.654145196080207825e-03,-2.709027612581849098e-03,3.148909285664558411e-02,-3.833416476845741272e-02,3.770462796092033386e-02,-6.501427292823791504e-02,-7.207456231117248535e-02,-1.499024126678705215e-02,-1.607920601963996887e-02,5.382668226957321167e-02,5.311387032270431519e-02,1.161415874958038330e-02,-4.167850129306316376e-03,2.629124186933040619e-02,5.422329530119895935e-02,-5.225239321589469910e-02,8.283142000436782837e-03,3.112520650029182434e-02,-4.445593431591987610e-02,2.004793100059032440e-02,-2.001505531370639801e-02,-5.572123825550079346e-02,-5.812041927129030228e-03,3.678229823708534241e-02,3.635479882359504700e-02,-3.316589072346687317e-02,-2.012883313000202179e-02,6.278279423713684082e-02,-4.660179838538169861e-02,-1.228158082813024521e-02,6.164502725005149841e-02,3.463991358876228333e-02,1.313373213633894920e-03,4.445491358637809753e-02,-6.795698404312133789e-02,3.467900305986404419e-02,3.388379886746406555e-02,1.164006534963846207e-02,1.940969564020633698e-02,-2.921330742537975311e-02,-5.654789134860038757e-02,5.608163401484489441e-02,-4.364129528403282166e-02,-1.458894647657871246e-02,-1.471354346722364426e-02,4.472286440432071686e-03,-4.603301361203193665e-02,-7.057393342256546021e-02,3.855247795581817627e-02,4.482319578528404236e-02,-6.866168696433305740e-03,-2.634731493890285492e-02,-1.416046265512704849e-02,-3.671126812696456909e-02,-4.972860962152481079e-02,-2.089746296405792236e-03,2.896737121045589447e-02,-1.471795048564672470e-02,6.153378635644912720e-02,5.150144919753074646e-03,-2.823260053992271423e-02,-5.065964534878730774e-02,-5.213710665702819824e-02,1.691054739058017731e-02,-4.166919738054275513e-02,2.078847959637641907e-03,1.539378985762596130e-02,-3.066385164856910706e-02,2.111013978719711304e-02,2.434469014406204224e-02,1.905632391571998596e-02,6.609935779124498367e-03,1.103960312320850790e-04,7.409924175590276718e-03,4.902603686787188053e-04,-3.679475933313369751e-02,-6.413229554891586304e-02,5.022080242633819580e-02,5.757473409175872803e-03,-6.381713785231113434e-03,-5.399124696850776672e-02,-7.620049268007278442e-02
