-5.109137669205665588e-02,3.876212611794471741e-02,5.631309468299150467e-03,7.402376085519790649e-02,4.781452193856239319e-02,2.098126150667667389e-02,-1.037245020270347595e-01,-7.075812667608261108e-02,4.729620367288589478e-02,1.174239218235015869e-01,-6.857242435216903687e-02,-8.681258186697959900e-03,-7.629343122243881226e-02,-7.453509420156478882e-02,-1.570763289928436279e-01,-3.186561167240142822e-02,1.765808206982910633e-03,1.504490245133638382e-02,-1.693349629640579224e-01,2.406620047986507416e-02,-9.856022894382476807e-02,5.983072519302368164e-02,1.258085668087005615e-01,-1.848317496478557587e-02,8.561964333057403564e-02,2.302771992981433868e-02,-2.660886757075786591e-02,1.087580323219299316e-01,-6.574425101280212402e-02,-5.317711830139160156e-02,7.606721948832273483e-03,1.140212416648864746e-01,4.730084165930747986e-02,-5.415787920355796814e-02,6.322114914655685425e-02,8.626899123191833496e-02,5.180716887116432190e-02,-2.881300449371337891e-02,1.105604320764541626e-01,7.756376173347234726e-03,-3.733116760849952698e-02,2.167581347748637199e-03,-4.354793578386306763e-02,1.162784025073051453e-01,4.181588813662528992e-02,5.239813029766082764e-02,-2.401049062609672546e-02,-8.981907367706298828e-02,1.244192384183406830e-02,-1.260535866022109985e-01,-5.189634114503860474e-02,2.886237576603889465e-02,5.184816196560859680e-02,1.514159440994262695e-01,-9.593429416418075562e-02,-1.514584477990865707e-02,3.463533148169517517e-02,-3.122405894100666046e-02,-5.369284376502037048e-02,-9.413051605224609375e-02,5.702991038560867310e-02,1.194566604681313038e-03,-6.801588088274002075e-02,9.862936288118362427e-02,7.023262977600097656e-02,2.318324334919452667e-02,-1.276605278253555298e-01,-1.275180429220199585e-01,7.062178105115890503e-02,4.100871086120605469e-02,-6.912621110677719116e-02,2.054550796747207642e-01,4.125431925058364868e-02,-6.416169553995132446e-02,4.382858425378799438e-02,-1.094504222273826599e-01,-4.842723160982131958e-02,1.340456008911132812e-01,-1.747576706111431122e-02,2.772897481918334961e-01,1.488457713276147842e-02,-6.803722679615020752e-02,-4.002248495817184448e-02,-8.186813443899154663e-02,-1.692992821335792542e-02,1.578610837459564209e-01,-6.930273771286010742e-02,-4.713469650596380234e-03,-2.391019277274608612e-02,9.913342446088790894e-02,1.961782760918140411e-02,-3.645172342658042908e-02,1.596420072019100189e-02,2.759524621069431305e-02,3.570628538727760315e-02,-3.821816295385360718e-02,7.212518900632858276e-02,3.087217733263969421e-02,-2.552818320691585541e-02,7.516583055257797241e-02,-7.308315485715866089e-03,-1.297765504568815231e-02,-1.003673747181892395e-01,8.662182837724685669e-02,9.994902648031711578e-04,9.008619934320449829e-02,1.348151117563247681e-01,9.786220639944076538e-02,1.393553912639617920e-01,-6.133403629064559937e-02,6.830935180187225342e-02,2.957085706293582916e-02,5.570072215050458908e-03,-8.997006714344024658e-02,7.835734635591506958e-02,8.057479560375213623e-02,-1.302062571048736572e-01,3.843376412987709045e-02,4.165805503726005554e-02,9.780882298946380615e-02,-5.338819324970245361e-02,8.146799355745315552e-02,1.334044039249420166e-01,9.128312766551971436e-02,-1.044166311621665955e-01,8.788874745368957520e-02,-1.346648782491683960e-01,1.044414937496185303e-02,3.603541478514671326e-02,1.001947447657585144e-01,-1.386041752994060516e-02,6.982348114252090454e-02,-5.431061610579490662e-03,-1.618226058781147003e-02,1.986429393291473389e-01,-9.119961410760879517e-03,-2.685013972222805023e-02,4.715963080525398254e-02,2.170291915535926819e-02,1.966635696589946747e-02,-1.510754823684692383e-01,-2.637263573706150055e-02,9.663796424865722656e-02,1.200197115540504456e-01,2.377797849476337433e-02,-2.979502081871032715e-02,-2.266556583344936371e-02,-4.554759338498115540e-02,-3.649999573826789856e-02,9.118453413248062134e-02,-8.898450061678886414e-03,2.867053262889385223e-02,7.965063303709030151e-02,9.767036139965057373e-02,2.110947109758853912e-02,3.894488513469696045e-02,-2.713305316865444183e-02,6.865286827087402344e-02,4.090799391269683838e-02,-1.976068364456295967e-03,5.782045423984527588e-02,5.524682998657226562e-02,1.120802387595176697e-01,1.210956871509552002e-01,2.440931946039199829e-01,-8.344711363315582275e-02,9.799081087112426758e-02,-3.122153691947460175e-02,1.980842277407646179e-02,1.684564203023910522e-01,1.587535254657268524e-02,8.573100715875625610e-02,1.065732836723327637e-01,1.273062825202941895e-01,-4.298661649227142334e-02,4.261185973882675171e-02,-4.549086838960647583e-02,4.245352745056152344e-02,1.382238883525133133e-02,2.706577815115451813e-02,-9.422872215509414673e-02,1.822435995563864708e-03,-8.241008967161178589e-02,-2.512424811720848083e-02,-1.007226258516311646e-01,8.526100963354110718e-02,4.723980277776718140e-02,1.347235441207885742e-01,1.430595815181732178e-01,3.248739242553710938e-02,9.117876738309860229e-02,-1.034907847642898560e-01,7.327304035425186157e-02,2.841738238930702209e-02,-1.111899167299270630e-01,-1.344416141510009766e-01,-1.114575341343879700e-01,-7.634222507476806641e-02,2.322092466056346893e-02,-1.193519681692123413e-03
-8.194297552108764648e-02,1.501765996217727661e-01,7.860519737005233765e-02,-1.574051678180694580e-01,-5.303922574967145920e-03,3.755256533622741699e-02,7.511440198868513107e-03,1.348268538713455200e-01,5.050567537546157837e-02,1.909636855125427246e-01,-3.815373033285140991e-02,6.202578544616699219e-02,-4.854275658726692200e-02,-2.052965909242630005e-01,-2.051683515310287476e-01,-1.126855611801147461e-01,-1.376488208770751953e-01,2.127245217561721802e-01,-1.532070189714431763e-01,4.353731498122215271e-02,-1.474671810865402222e-01,1.714226752519607544e-01,6.395050883293151855e-02,9.392783790826797485e-02,1.127424016594886780e-01,8.637873083353042603e-02,-3.117584437131881714e-02,1.352358460426330566e-01,-1.870311647653579712e-01,-1.941941380500793457e-01,-1.459820419549942017e-01,-1.862265169620513916e-02,-1.620212220586836338e-03,-3.522253632545471191e-01,-3.789952397346496582e-02,3.705535084009170532e-02,5.180700216442346573e-03,-3.460156172513961792e-02,1.597939431667327881e-01,-4.563293978571891785e-02,-1.597802639007568359e-01,-1.785084456205368042e-01,-2.512130141258239746e-02,9.615152329206466675e-02,1.060685589909553528e-01,-2.966086752712726593e-02,6.686296314001083374e-02,1.836660951375961304e-01,-8.917875587940216064e-02,2.373706847429275513e-01,1.266411542892456055e-01,-6.096675619482994080e-02,1.798534840345382690e-01,2.099400311708450317e-01,-1.181094497442245483e-01,2.754727937281131744e-02,9.077816456556320190e-02,-2.582629024982452393e-02,1.474498063325881958e-01,-1.137736514210700989e-01,3.112379088997840881e-02,1.756479591131210327e-02,-5.399387702345848083e-02,5.063813179731369019e-02,-1.413827985525131226e-01,-9.465483576059341431e-02,-1.440107226371765137e-01,4.283676296472549438e-02,-7.013838738203048706e-02,4.427175968885421753e-02,-2.157430648803710938e-01,1.314547657966613770e-01,-3.694737702608108521e-02,-1.119567081332206726e-01,-7.177476584911346436e-02,-7.624966092407703400e-03,8.611173182725906372e-02,-5.721844732761383057e-02,-1.172463223338127136e-01,2.359216511249542236e-01,1.138152256608009338e-01,-1.668917834758758545e-01,-1.623061746358871460e-01,-1.193634197115898132e-01,-1.255493015050888062e-01,-1.060688775032758713e-02,-8.024369366466999054e-03,6.720481067895889282e-02,-1.830791123211383820e-02,4.094608500599861145e-02,5.612869933247566223e-02,-1.247705146670341492e-01,3.919561952352523804e-02,-9.389696270227432251e-02,-3.318291530013084412e-02,2.123193740844726562e-01,2.974127046763896942e-02,7.766056060791015625e-02,-1.267343610525131226e-01,6.786330044269561768e-02,-1.347594112157821655e-01,1.953620836138725281e-02,-2.711318060755729675e-02,8.740819245576858521e-02,-1.047174632549285889e-01,5.795014277100563049e-02,-6.377048045396804810e-02,4.278290271759033203e-02,8.953125029802322388e-02,-2.278535068035125732e-01,1.085479557514190674e-01,1.165211647748947144e-01,-7.688915729522705078e-02,-6.583282351493835449e-02,-1.039509102702140808e-01,6.368841230869293213e-02,-1.602238565683364868e-01,1.540119200944900513e-01,-1.639339327812194824e-02,-1.099417060613632202e-01,6.447779387235641479e-02,6.343480199575424194e-02,-1.621045544743537903e-02,1.204550340771675110e-01,-6.539868563413619995e-02,-2.864447422325611115e-02,-6.567610055208206177e-02,-3.654661402106285095e-02,9.651388041675090790e-03,1.015946567058563232e-01,1.175559163093566895e-01,1.074687391519546509e-01,-5.098349973559379578e-02,-1.750799417495727539e-01,1.416628062725067139e-02,6.454110145568847656e-02,2.906183898448944092e-02,-1.247004419565200806e-01,1.095804572105407715e-01,5.289273709058761597e-02,-1.954128295183181763e-01,-1.889128684997558594e-01,4.095568656921386719e-01,8.805780112743377686e-02,-3.571321070194244385e-02,5.869177170097827911e-03,6.788752228021621704e-02,1.115858703851699829e-01,1.163389906287193298e-01,4.032286256551742554e-02,1.447414010763168335e-01,-1.713976114988327026e-01,-4.066926240921020508e-02,3.465549647808074951e-01,2.038489840924739838e-02,2.074338793754577637e-01,1.050672084093093872e-01,4.118005931377410889e-02,8.707597851753234863e-02,-1.203554403036832809e-02,-3.635523468255996704e-02,1.087199598550796509e-01,-3.969792276620864868e-02,2.304886840283870697e-02,2.919256687164306641e-01,-1.259986907243728638e-01,1.001534759998321533e-01,-1.298799812793731689e-01,-6.048067286610603333e-02,1.865109801292419434e-01,-3.535417467355728149e-02,2.072201669216156006e-01,9.957779943943023682e-02,1.693008467555046082e-02,1.180076524615287781e-01,2.305592298507690430e-01,-2.507704794406890869e-01,1.762005686759948730e-01,-2.478827834129333496e-01,8.824583142995834351e-02,-1.297315657138824463e-01,-1.394195854663848877e-01,8.638795465230941772e-02,-5.644490718841552734e-01,7.081955671310424805e-02,3.473157063126564026e-02,1.009316146373748779e-01,4.853636026382446289e-03,-2.254288829863071442e-02,-9.872175753116607666e-02,-1.456018090248107910e-01,-1.273948252201080322e-01,2.575316280126571655e-02,-1.494219899177551270e-02,5.309855565428733826e-02,-6.929296255111694336e-02,-1.575492173433303833e-01,-5.636317655444145203e-02,1.799942106008529663e-01,-3.378123342990875244e-01
7.093735039234161377e-02,-2.370398044586181641e-01,-8.037254214286804199e-02,1.532932743430137634e-02,1.045655384659767151e-01,-1.269780099391937256e-01,-1.086535304784774780e-01,-1.835639327764511108e-01,-2.065508961677551270e-01,-1.953632105141878128e-03,-4.517393931746482849e-02,3.359050489962100983e-03,2.054035514593124390e-01,9.237438440322875977e-02,8.084580302238464355e-02,2.168338149785995483e-01,-2.436639927327632904e-02,-1.759324371814727783e-01,2.384357713162899017e-02,5.871431156992912292e-02,7.016282528638839722e-02,1.205973550677299500e-01,5.190811306238174438e-02,2.170922309160232544e-01,-2.290464378893375397e-02,-8.672664314508438110e-02,5.778867006301879883e-02,7.122793048620223999e-02,1.706389188766479492e-01,1.265316605567932129e-01,1.841261088848114014e-01,1.600217223167419434e-01,-3.990506753325462341e-03,1.094595193862915039e-01,3.479935601353645325e-02,-1.921451650559902191e-02,3.936637565493583679e-02,6.585258245468139648e-02,1.412505507469177246e-01,4.475375264883041382e-02,6.470434367656707764e-02,1.809453219175338745e-02,-3.178518638014793396e-02,3.800483420491218567e-02,1.473895907402038574e-01,-1.503798514604568481e-01,8.655904233455657959e-02,1.022754609584808350e-01,1.290059983730316162e-01,8.413820713758468628e-02,-4.273131489753723145e-02,-5.707224830985069275e-02,-6.296277791261672974e-02,-5.775333568453788757e-02,-7.177559658885002136e-03,-6.566514074802398682e-02,-8.471054583787918091e-02,1.548577658832073212e-02,-1.315660923719406128e-01,2.982103452086448669e-02,1.220800448209047318e-02,-1.518498361110687256e-01,8.733942359685897827e-02,2.890405431389808655e-02,1.729776114225387573e-01,2.649091184139251709e-02,3.243764340877532959e-01,-9.950135834515094757e-03,7.028680294752120972e-02,1.024222895503044128e-01,2.193938046693801880e-01,-1.816546618938446045e-01,-5.312281101942062378e-02,8.234021812677383423e-02,7.483890652656555176e-02,4.829692468047142029e-02,-7.286055479198694229e-03,1.145199090242385864e-01,3.277131542563438416e-02,-7.405419647693634033e-02,-1.118323355913162231e-01,1.464449763298034668e-01,-3.275943920016288757e-02,8.630476146936416626e-02,8.968072012066841125e-03,9.940324351191520691e-03,-6.279128044843673706e-02,-8.735727518796920776e-02,-6.600470840930938721e-02,4.982001706957817078e-02,4.642109945416450500e-02,-2.014223719015717506e-03,7.127704471349716187e-02,-4.564557597041130066e-02,1.622517257928848267e-01,-1.311243027448654175e-01,-5.629266146570444107e-03,-1.025250852108001709e-01,1.728285551071166992e-01,4.224758222699165344e-02,1.116756200790405273e-01,-3.357890620827674866e-02,6.152966991066932678e-02,-5.187442153692245483e-02,7.810586690902709961e-02,1.068225055932998657e-01,1.885864734649658203e-01,-1.938689872622489929e-02,-7.011989504098892212e-02,2.892859876155853271e-01,-3.112543374300003052e-02,-2.248530536890029907e-01,1.253737956285476685e-01,-9.215521067380905151e-02,6.034391000866889954e-02,1.260718405246734619e-01,1.175262555480003357e-01,-1.480636000633239746e-01,2.404167130589485168e-02,1.559612806886434555e-03,-9.552508592605590820e-02,2.639259444549679756e-03,6.603569537401199341e-02,-4.866889677941799164e-03,-2.900307625532150269e-02,-1.861857995390892029e-02,1.511444598436355591e-01,-9.359475225210189819e-02,-3.449892625212669373e-03,4.856572300195693970e-02,-1.594614088535308838e-01,-2.859349176287651062e-02,1.298102140426635742e-01,9.800012409687042236e-02,-5.200099572539329529e-02,-2.991436794400215149e-02,-7.804134488105773926e-02,3.793745115399360657e-02,-1.162554696202278137e-01,5.021500587463378906e-02,1.394130885601043701e-01,-4.283928126096725464e-02,-1.892038434743881226e-01,5.066918581724166870e-02,1.043678522109985352e-01,-4.733429476618766785e-02,8.917384594678878784e-02,-1.784825772047042847e-01,-9.483898058533668518e-03,-2.070225216448307037e-02,5.664836615324020386e-02,-1.805705577135086060e-02,3.651529550552368164e-02,-2.589996159076690674e-01,-2.141559263691306114e-03,-8.445639908313751221e-02,-1.320099085569381714e-02,1.154449284076690674e-01,-2.786453068256378174e-02,4.303602874279022217e-02,-1.117962878197431564e-02,6.248905882239341736e-02,6.264777481555938721e-02,8.215569704771041870e-02,1.402127146720886230e-01,1.194378659129142761e-01,-1.300007756799459457e-02,7.095835171639919281e-03,7.628088444471359253e-02,1.024554669857025146e-01,1.244657710194587708e-01,-1.890600174665451050e-01,-1.054360195994377136e-01,6.405934691429138184e-02,-7.581692934036254883e-02,-1.511744409799575806e-01,1.687326431274414062e-01,2.091863891109824181e-03,7.433696836233139038e-02,-4.783836752176284790e-02,-1.980264298617839813e-02,1.043201833963394165e-01,5.651082098484039307e-02,1.999909430742263794e-01,-1.328718066215515137e-01,-3.626811131834983826e-02,-1.804720982909202576e-02,8.520823717117309570e-02,-2.965936809778213501e-02,9.717302396893501282e-03,6.502371281385421753e-02,1.713716611266136169e-02,-4.938075784593820572e-03,6.967770308256149292e-02,-4.964077472686767578e-02,6.469624117016792297e-03,-6.536475848406553268e-03,-9.112786501646041870e-02,4.759336262941360474e-02,1.678778082132339478e-01
5.807373300194740295e-02,-4.395329952239990234e-02,4.467148706316947937e-02,2.697486057877540588e-02,-1.004915311932563782e-01,5.059985071420669556e-02,-1.274700015783309937e-01,-1.820215731859207153e-01,8.082047849893569946e-02,8.169599622488021851e-02,-5.435042455792427063e-02,8.132057636976242065e-02,-6.957696378231048584e-02,4.131162539124488831e-02,4.811935871839523315e-02,-9.521251916885375977e-02,9.098924696445465088e-02,-9.233421087265014648e-02,-4.616681486368179321e-02,2.931071817874908447e-02,4.285264585632830858e-04,-1.898338943719863892e-01,1.176387816667556763e-01,-2.883784472942352295e-01,6.436493992805480957e-02,-1.873327642679214478e-01,7.961741089820861816e-02,-4.495174810290336609e-02,-1.073269024491310120e-01,-1.560530532151460648e-02,9.421744942665100098e-02,1.305980682373046875e-01,7.128205150365829468e-02,2.241276763379573822e-02,-1.255364716053009033e-01,9.404408186674118042e-02,1.659021824598312378e-01,-5.936467275023460388e-02,-6.286232918500900269e-02,1.368144154548645020e-01,1.134135350584983826e-01,-5.099113285541534424e-02,-2.628691792488098145e-01,-2.456371206790208817e-03,-7.785377651453018188e-02,-9.431657940149307251e-02,-4.119824990630149841e-02,-2.595022320747375488e-01,6.845665723085403442e-02,-2.589266896247863770e-01,4.740864783525466919e-02,2.083914913237094879e-02,1.077489703893661499e-01,1.524728983640670776e-01,-1.207894179970026016e-02,1.617922037839889526e-01,2.683275146409869194e-03,-6.700638681650161743e-02,-6.410863250494003296e-02,-2.074126899242401123e-01,-1.526088565587997437e-01,7.749620079994201660e-02,-7.100153714418411255e-02,1.119326353073120117e-01,6.788751482963562012e-02,8.708300441503524780e-02,-6.883614230901002884e-03,-1.920503675937652588e-01,9.721514582633972168e-02,6.227533146739006042e-02,-9.643422067165374756e-02,2.761110067367553711e-01,1.029627695679664612e-01,-1.426004767417907715e-01,5.649171769618988037e-02,-4.617669060826301575e-02,-9.252429008483886719e-02,3.200693987309932709e-03,4.299644753336906433e-02,6.866011768579483032e-02,-1.052647233009338379e-01,-1.694983616471290588e-02,-1.757257059216499329e-02,6.662021856755018234e-03,8.761539310216903687e-02,1.554975807666778564e-01,-1.329385191202163696e-01,-3.716170787811279297e-02,3.363785147666931152e-02,1.156884804368019104e-01,5.432041361927986145e-04,1.323171332478523254e-02,-1.787504367530345917e-02,6.725829094648361206e-02,8.814609050750732422e-02,-1.389544457197189331e-01,-8.807675540447235107e-02,1.596721820533275604e-02,-8.412963151931762695e-02,4.627836868166923523e-02,1.128500774502754211e-01,-2.970038168132305145e-02,-4.337880387902259827e-02,9.725645184516906738e-02,3.860727185383439064e-03,1.157646477222442627e-01,1.087513566017150879e-01,7.231900002807378769e-03,2.251645773649215698e-01,4.177166894078254700e-02,2.098801173269748688e-02,3.720933198928833008e-02,1.649303175508975983e-02,-1.367970257997512817e-01,4.602507129311561584e-02,2.632456645369529724e-02,-2.614276669919490814e-02,-2.188159152865409851e-02,1.352691501379013062e-01,7.511348277330398560e-02,-3.715817630290985107e-02,4.939671605825424194e-02,4.291160032153129578e-02,8.985352516174316406e-02,-7.068338990211486816e-02,4.928163811564445496e-02,-4.802362993359565735e-02,2.062086574733257294e-02,-1.646451950073242188e-01,7.555442303419113159e-02,-1.408007889986038208e-01,2.284074723720550537e-01,4.755151644349098206e-02,1.564231328666210175e-02,2.242144197225570679e-01,-1.937818527221679688e-02,-2.341392077505588531e-02,1.492245029658079147e-02,1.827662289142608643e-01,-5.357694253325462341e-02,-7.323072105646133423e-02,-6.047262996435165405e-02,1.931197755038738251e-02,1.182883232831954956e-01,1.036291122436523438e-01,-3.523253276944160461e-02,-6.239929795265197754e-02,-2.070657163858413696e-01,-2.341902852058410645e-01,7.457118481397628784e-02,-5.092651396989822388e-02,-5.009374022483825684e-02,1.374170333147048950e-01,8.667868375778198242e-02,-6.382309645414352417e-02,-4.740679264068603516e-02,9.837129712104797363e-02,1.579667255282402039e-02,1.306434571743011475e-01,-8.935690671205520630e-02,2.074062526226043701e-01,1.258468478918075562e-01,9.791969507932662964e-02,3.611663356423377991e-02,-4.465825855731964111e-02,1.025097221136093140e-01,-1.055786572396755219e-02,-1.374001614749431610e-02,2.635006234049797058e-02,4.718057438731193542e-02,-4.371351748704910278e-02,8.369800448417663574e-02,-2.729023806750774384e-02,1.500910222530364990e-01,-2.193916402757167816e-02,-8.015503734350204468e-02,-6.343881040811538696e-02,-1.474833209067583084e-02,-8.478105068206787109e-02,6.302571296691894531e-02,4.495770856738090515e-02,-1.806561499834060669e-01,-1.012881472706794739e-01,1.366562992334365845e-01,-2.285404950380325317e-01,1.427866220474243164e-01,5.540927872061729431e-02,1.227149087935686111e-02,2.184291183948516846e-01,-5.221152678132057190e-03,2.358302026987075806e-01,-3.416783409193158150e-03,1.409368664026260376e-01,4.399350658059120178e-02,-4.440197721123695374e-02,-1.313258111476898193e-01,-5.545349325984716415e-03,4.328645020723342896e-02,-1.302389651536941528e-01,-2.193983644247055054e-02
1.900077611207962036e-01,5.871059373021125793e-02,-8.649931289255619049e-03,-5.646772310137748718e-02,-1.740292608737945557e-01,6.316417455673217773e-02,-8.235152065753936768e-02,1.031317375600337982e-02,1.312817186117172241e-01,4.443871229887008667e-02,1.606688350439071655e-01,-1.495498418807983398e-02,2.098019607365131378e-02,2.550217881798744202e-02,2.646023035049438477e-01,-5.693207308650016785e-02,3.393844515085220337e-02,4.464999213814735413e-02,5.497745424509048462e-02,2.937760762870311737e-02,7.389438152313232422e-02,1.629553735256195068e-02,-5.817179754376411438e-02,1.856616586446762085e-01,7.432161271572113037e-02,7.044448703527450562e-02,2.553475201129913330e-01,5.415093153715133667e-02,8.821631968021392822e-02,2.019842155277729034e-02,-1.526795923709869385e-01,-7.159397751092910767e-02,-6.722950935363769531e-02,3.760451823472976685e-02,-3.769660368561744690e-02,4.541742429137229919e-02,-1.149694435298442841e-02,-2.476727403700351715e-02,-2.055182904005050659e-01,6.044737249612808228e-02,4.092658869922161102e-03,1.318505108356475830e-01,4.685642570257186890e-02,-3.106154315173625946e-02,-9.892379492521286011e-02,9.950940310955047607e-02,7.717268168926239014e-02,3.537334501743316650e-01,9.754190221428871155e-03,2.348134517669677734e-01,1.095758453011512756e-01,-6.344608217477798462e-02,1.034932658076286316e-01,2.332979999482631683e-02,1.323900073766708374e-01,1.195143684744834900e-01,1.009988933801651001e-01,-2.793463133275508881e-02,1.847704648971557617e-01,6.334087997674942017e-02,-6.367406249046325684e-02,4.542220011353492737e-02,1.765201240777969360e-01,-1.167198345065116882e-01,1.605032943189144135e-02,4.394965618848800659e-02,-1.714550107717514038e-01,1.098548471927642822e-01,-1.054026186466217041e-01,2.370258793234825134e-02,-1.881458908319473267e-01,1.027505025267601013e-01,-7.482921332120895386e-02,-6.471165688708424568e-04,-4.771990701556205750e-02,3.379765450954437256e-01,-2.543266862630844116e-02,-6.220786646008491516e-02,2.021934604272246361e-03,-1.504229009151458740e-01,2.316330373287200928e-01,6.721922010183334351e-02,5.856150388717651367e-02,1.147539243102073669e-01,-4.339100420475006104e-02,1.680257916450500488e-02,2.547264471650123596e-02,5.248624086380004883e-02,1.188115496188402176e-02,-8.547148853540420532e-02,3.234381973743438721e-01,-2.585443295538425446e-02,2.491938322782516479e-02,1.813543774187564850e-02,2.918400615453720093e-02,9.244833141565322876e-02,2.150584757328033447e-02,9.153699874877929688e-02,1.403402537107467651e-01,2.873578481376171112e-02,6.469429936259984970e-03,2.993968315422534943e-02,5.655504390597343445e-02,-6.665121763944625854e-02,2.368578687310218811e-03,-4.519328847527503967e-02,-1.221930086612701416e-01,-3.116313740611076355e-02,-2.742893621325492859e-02,6.143327802419662476e-02,-2.335996925830841064e-02,6.719490885734558105e-02,1.864282190799713135e-01,1.832463592290878296e-01,-3.378178179264068604e-02,1.474480517208576202e-02,1.776462644338607788e-01,1.230996102094650269e-01,5.042537301778793335e-02,-9.718893095850944519e-03,5.740361660718917847e-02,-1.281936559826135635e-02,-2.902676463127136230e-01,2.859443984925746918e-02,1.504428777843713760e-02,5.194154381752014160e-02,3.838757053017616272e-02,2.321095950901508331e-02,1.414133459329605103e-01,3.776159510016441345e-02,5.507824942469596863e-02,-9.680566191673278809e-02,-4.628957062959671021e-02,8.029935881495475769e-03,-8.952923864126205444e-02,8.822161704301834106e-02,-5.796210467815399170e-02,3.877249360084533691e-02,-5.402988288551568985e-03,4.736279696226119995e-02,5.277406796813011169e-02,4.104071855545043945e-02,4.684578999876976013e-02,-5.175100266933441162e-02,3.089186735451221466e-02,8.728999644517898560e-03,7.300595939159393311e-02,1.643338501453399658e-01,3.398322314023971558e-02,4.753984510898590088e-02,6.438887119293212891e-02,-1.979831838980317116e-03,-3.028764948248863220e-02,2.202835120260715485e-02,3.092459589242935181e-02,-2.546678297221660614e-03,-2.836482040584087372e-02,-2.941804565489292145e-02,9.302695840597152710e-02,5.178363248705863953e-02,-6.539395544677972794e-04,-5.804870161227881908e-04,3.084574267268180847e-02,3.495500981807708740e-02,-1.923642009496688843e-01,9.858786314725875854e-02,-1.312948670238256454e-02,1.343366354703903198e-01,7.524552196264266968e-02,-6.496325880289077759e-02,2.731909155845642090e-01,9.465495496988296509e-02,-5.633927881717681885e-03,-6.314458325505256653e-03,5.385877937078475952e-02,4.302518814802169800e-02,2.599927969276905060e-02,9.471779316663742065e-02,9.204009175300598145e-02,6.601562350988388062e-02,-9.298697113990783691e-03,4.860601201653480530e-02,2.387233376502990723e-01,5.104452744126319885e-02,1.131932139396667480e-01,-5.920945107936859131e-02,1.097582629881799221e-03,-3.534661978483200073e-02,3.525460138916969299e-02,3.826006874442100525e-02,-2.376435995101928711e-01,3.900661692023277283e-02,-1.669987104833126068e-02,6.092664971947669983e-02,2.228828221559524536e-01,1.223688572645187378e-01,1.355235576629638672e-01,-6.230428442358970642e-02,-1.991116255521774292e-02,1.215128526091575623e-01
1.001665834337472916e-02,-6.296202540397644043e-02,4.364271089434623718e-02,4.284279793500900269e-02,-6.419920176267623901e-02,-6.897900253534317017e-03,-9.198284149169921875e-02,5.716113373637199402e-02,6.956500466912984848e-03,-1.070680394768714905e-01,1.536013185977935791e-01,-1.229465231299400330e-01,2.565609291195869446e-02,1.149314492940902710e-01,2.757157385349273682e-01,3.334135934710502625e-02,6.607469916343688965e-02,-3.601009026169776917e-02,2.829300053417682648e-02,-1.167544070631265640e-02,9.952637553215026855e-02,3.094581887125968933e-02,3.292042389512062073e-02,9.653023630380630493e-02,-1.766733452677726746e-02,6.333188712596893311e-02,1.782999038696289062e-01,-1.917559653520584106e-02,1.596779227256774902e-01,1.691743917763233185e-02,3.295942768454551697e-02,7.730118185281753540e-02,4.501331597566604614e-02,4.042050987482070923e-02,5.588047951459884644e-02,7.309662550687789917e-02,1.640228368341922760e-02,4.478589817881584167e-02,-1.344988644123077393e-01,9.992883354425430298e-02,3.072500228881835938e-02,9.221583604812622070e-02,4.475385695695877075e-02,-7.620665431022644043e-02,-4.420275986194610596e-02,7.117722928524017334e-02,1.560362726449966431e-01,2.273741811513900757e-01,5.743496492505073547e-02,1.091278642416000366e-01,5.272188037633895874e-02,2.380078844726085663e-02,7.341169752180576324e-03,-9.380457550287246704e-02,2.047551609575748444e-02,9.215665049850940704e-03,5.427303910255432129e-02,-1.107402890920639038e-01,4.922981373965740204e-03,1.575551554560661316e-02,-5.340228229761123657e-02,9.822124615311622620e-03,2.497503757476806641e-01,-1.016982346773147583e-01,-9.949691593647003174e-04,5.858290940523147583e-02,-2.559438906610012054e-02,-3.698000311851501465e-02,-8.271167986094951630e-03,-5.149623379111289978e-02,4.112827777862548828e-02,-7.982127368450164795e-02,-3.146697208285331726e-02,1.034084111452102661e-01,6.830021739006042480e-02,2.721021473407745361e-01,1.038282178342342377e-02,-8.895989158190786839e-04,5.896843969821929932e-02,-1.408129781484603882e-01,6.867546588182449341e-02,4.428404197096824646e-02,5.806994065642356873e-02,1.524209976196289062e-01,1.492514275014400482e-02,-1.079440489411354065e-02,-3.591636940836906433e-02,-1.794246956706047058e-02,3.319069743156433105e-02,-8.745487779378890991e-03,2.391543239355087280e-01,1.480858423747122288e-03,4.086000099778175354e-02,4.259833320975303650e-02,5.784366652369499207e-02,4.074326530098915100e-02,6.640214473009109497e-02,3.632125630974769592e-02,3.082352876663208008e-01,5.030441284179687500e-02,9.335578978061676025e-02,-1.558724557980895042e-03,-5.094874650239944458e-02,-7.230776362121105194e-03,3.814772889018058777e-02,5.964705348014831543e-02,8.780173957347869873e-03,-2.386305946856737137e-03,-1.065954566001892090e-01,1.644700467586517334e-01,4.369236528873443604e-02,-4.252912849187850952e-02,1.795796155929565430e-01,1.113629713654518127e-01,4.875507950782775879e-02,2.664736658334732056e-02,2.432337403297424316e-01,-2.756599336862564087e-02,-2.340310253202915192e-02,6.900569796562194824e-02,-3.533457592129707336e-02,-1.054112091660499573e-01,-1.665739715099334717e-01,-4.753553494811058044e-02,2.439504303038120270e-02,-7.320087403059005737e-03,1.275527626276016235e-01,8.388441801071166992e-02,1.991531997919082642e-02,6.737985461950302124e-02,5.281422659754753113e-02,-3.946182504296302795e-02,7.813552021980285645e-02,5.619857460260391235e-02,-1.260116249322891235e-01,8.009459823369979858e-02,7.065777666866779327e-03,-2.371817082166671753e-02,2.316724881529808044e-02,7.322414964437484741e-02,2.771805226802825928e-01,4.419655725359916687e-02,-2.120013386011123657e-01,-7.320468872785568237e-02,1.762260869145393372e-02,9.041091054677963257e-02,2.723571844398975372e-02,6.481288466602563858e-03,-2.747753448784351349e-02,-2.828487753868103027e-02,-7.157849520444869995e-02,6.974020600318908691e-02,9.457843261770904064e-04,-1.708859503269195557e-01,8.061090856790542603e-02,-3.330180794000625610e-02,3.715452924370765686e-02,-4.361020401120185852e-02,-4.252963885664939880e-02,9.231472015380859375e-02,-1.035613100975751877e-02,-1.361639648675918579e-01,-4.571152478456497192e-02,-4.306047409772872925e-02,-1.225127056241035461e-01,1.898782849311828613e-01,-2.956328913569450378e-03,1.163580641150474548e-01,9.722755104303359985e-02,-6.260696053504943848e-02,2.718760073184967041e-01,-3.042654134333133698e-02,4.605990648269653320e-02,-1.082282736897468567e-01,-1.465715467929840088e-02,3.739581257104873657e-02,1.141190156340599060e-01,-7.740357518196105957e-02,5.952853709459304810e-02,-4.241271317005157471e-02,2.055979706346988678e-02,5.712752789258956909e-02,2.159923166036605835e-01,2.936036884784698486e-01,4.880909994244575500e-02,-1.498031616210937500e-01,-6.711806356906890869e-02,1.344814780168235302e-03,-2.179456315934658051e-02,8.606035262346267700e-02,-1.175828129053115845e-01,1.065104231238365173e-01,3.104810602962970734e-02,-3.748643398284912109e-02,1.158205717802047729e-01,1.191571876406669617e-01,5.480920150876045227e-02,-9.751679003238677979e-02,-1.402566879987716675e-01,2.234126776456832886e-01
2.240058407187461853e-02,-2.961706928908824921e-02,-6.315218657255172729e-02,5.472600460052490234e-02,-2.754112705588340759e-03,1.191284880042076111e-01,-4.695561900734901428e-02,-1.656542345881462097e-02,1.305284202098846436e-01,6.615220755338668823e-02,5.552323162555694580e-02,-2.895141206681728363e-02,-8.039330691099166870e-02,-1.012008264660835266e-02,-4.014014899730682373e-01,-1.453422605991363525e-01,5.885623022913932800e-02,1.516961157321929932e-01,-1.937577873468399048e-02,-1.392927020788192749e-01,3.195684775710105896e-02,4.310775548219680786e-02,-2.850021123886108398e-01,-3.435488417744636536e-02,9.461442381143569946e-02,9.205884486436843872e-02,-8.794406056404113770e-02,7.183358073234558105e-02,-2.085423283278942108e-02,1.200062558054924011e-01,-6.951747089624404907e-02,-4.266301915049552917e-02,-1.034039482474327087e-01,2.532390505075454712e-02,1.845091730356216431e-01,1.866221241652965546e-02,-1.414593756198883057e-01,9.599450230598449707e-02,-1.036277227103710175e-02,-2.097265273332595825e-01,-1.458511315286159515e-02,8.447434753179550171e-02,1.648538112640380859e-01,4.703760147094726562e-03,8.690766245126724243e-02,9.249883145093917847e-02,-5.099776014685630798e-02,1.108779087662696838e-01,-2.336912155151367188e-01,2.199457287788391113e-01,-2.641645818948745728e-02,-1.258263289928436279e-01,9.742127358913421631e-02,1.451766770333051682e-02,3.195040673017501831e-02,2.660232037305831909e-02,1.976382881402969360e-01,-7.123509794473648071e-02,1.046330183744430542e-01,6.075786426663398743e-02,6.969428062438964844e-02,4.756093770265579224e-02,-1.712324619293212891e-01,-1.007957831025123596e-01,-1.584744602441787720e-01,-2.400076091289520264e-01,-1.872081905603408813e-01,2.998695150017738342e-02,-1.551394313573837280e-01,-1.096516661345958710e-02,-1.307162046432495117e-01,-1.923668682575225830e-01,-1.005611494183540344e-01,4.562336206436157227e-02,9.035734832286834717e-02,-6.952630728483200073e-02,-4.370554164052009583e-02,-1.486051529645919800e-01,3.177333623170852661e-02,-3.748334050178527832e-01,1.322101354598999023e-01,-1.175812035799026489e-01,1.099463701248168945e-01,-8.921054750680923462e-02,3.225022926926612854e-03,-9.220817685127258301e-02,-8.206846565008163452e-02,9.832390397787094116e-02,-3.306405246257781982e-02,1.203203666955232620e-02,3.348395228385925293e-02,1.507811397314071655e-01,3.880270197987556458e-02,-1.989812776446342468e-02,-7.415205985307693481e-02,2.956964261829853058e-02,1.677764654159545898e-01,2.310674935579299927e-01,-2.217547595500946045e-01,-6.208100542426109314e-02,4.938526824116706848e-02,8.472394198179244995e-02,5.575941875576972961e-02,2.100531756877899170e-02,-6.540233641862869263e-02,-2.222152501344680786e-01,-1.636016666889190674e-01,6.291223317384719849e-02,-1.966039650142192841e-02,-8.703708648681640625e-02,6.933183223009109497e-02,9.594642370939254761e-02,-1.271533668041229248e-01,1.477735582739114761e-02,-1.951493672095239162e-03,-9.779550135135650635e-02,-4.056391716003417969e-01,1.260446310043334961e-01,-1.299846619367599487e-01,3.121344745159149170e-02,8.372392505407333374e-02,-5.442359670996665955e-02,-8.919911086559295654e-02,1.282504498958587646e-01,1.486735697835683823e-02,-8.890757709741592407e-02,-2.384054474532604218e-02,2.899181470274925232e-02,1.995841413736343384e-01,5.930988490581512451e-02,6.482443213462829590e-02,6.161399185657501221e-02,-1.493151783943176270e-01,-1.609188020229339600e-01,3.275963664054870605e-02,1.409256309270858765e-01,-3.179870918393135071e-02,-1.266588419675827026e-01,4.748414084315299988e-02,-6.976769864559173584e-02,-5.426172018051147461e-01,7.922256365418434143e-03,4.912924766540527344e-02,-1.526986211538314819e-01,-1.963109225034713745e-01,6.584911048412322998e-02,1.416575163602828979e-02,1.059424206614494324e-01,3.075059968978166580e-03,-6.107953563332557678e-02,1.214775294065475464e-01,2.768461592495441437e-02,-2.370399236679077148e-01,7.387208938598632812e-02,1.179006323218345642e-01,1.454910635948181152e-01,1.105601247400045395e-02,8.754663914442062378e-02,-3.668147837743163109e-03,9.080566465854644775e-02,-2.204744070768356323e-01,8.976825326681137085e-02,-9.223596751689910889e-02,1.387895792722702026e-01,-7.621744275093078613e-02,-2.220390290021896362e-01,9.263768792152404785e-02,-5.745207145810127258e-02,8.462604135274887085e-03,-4.028832074254751205e-03,-1.366484612226486206e-01,1.295546442270278931e-01,8.000957220792770386e-02,-1.465151906013488770e-01,1.278899610042572021e-01,6.248624622821807861e-02,-4.929957538843154907e-02,6.705000251531600952e-02,1.166685596108436584e-01,1.200812533497810364e-01,-4.171760007739067078e-02,7.822700589895248413e-02,7.038424164056777954e-02,-4.647462666034698486e-01,1.134412735700607300e-01,-2.051044851541519165e-01,4.710526019334793091e-02,-9.486587345600128174e-02,5.907592177391052246e-02,2.857686765491962433e-02,-4.860164523124694824e-01,-1.740308851003646851e-02,-2.931482344865798950e-02,-1.419899612665176392e-01,1.411746591329574585e-01,9.372037649154663086e-02,2.793915197253227234e-02,2.829354256391525269e-02,2.154255956411361694e-01,-2.639332711696624756e-01
-5.003641545772552490e-02,5.297489464282989502e-02,2.207463979721069336e-02,3.941490873694419861e-02,-3.758230805397033691e-02,1.166065707802772522e-01,-6.725890934467315674e-02,-1.246815896593034267e-03,6.997837871313095093e-02,-2.000545524060726166e-02,1.528255045413970947e-01,-8.970613591372966766e-03,-1.038075536489486694e-01,3.500517085194587708e-02,4.556205123662948608e-02,-1.111789792776107788e-01,9.335147589445114136e-02,7.245857268571853638e-02,4.056363552808761597e-02,1.455260068178176880e-02,1.185265276581048965e-02,-1.076585575938224792e-01,8.680049329996109009e-02,-1.174521073698997498e-01,5.591956432908773422e-03,7.805723696947097778e-02,1.120739653706550598e-01,-8.120086789131164551e-02,-5.437501519918441772e-02,-4.716378077864646912e-02,7.569049485027790070e-03,5.474014580249786377e-02,8.282737433910369873e-02,-3.986907377839088440e-02,-7.656025141477584839e-02,5.688229203224182129e-02,8.133237808942794800e-02,5.849535018205642700e-02,-1.240270435810089111e-01,9.191288799047470093e-02,8.392795175313949585e-02,4.645626991987228394e-03,2.329752082005143166e-03,-5.822617560625076294e-02,-1.107078269124031067e-01,1.519527882337570190e-01,-4.960970953106880188e-02,-9.073888510465621948e-02,-2.188762836158275604e-02,-1.116478517651557922e-01,1.025405675172805786e-01,1.970982924103736877e-02,6.343848258256912231e-02,2.058299779891967773e-01,4.552701860666275024e-02,6.593134254217147827e-02,4.221032932400703430e-02,6.564743071794509888e-02,1.263784766197204590e-01,7.065287977457046509e-02,-5.475161969661712646e-02,1.462682187557220459e-01,1.120361760258674622e-01,-7.437442243099212646e-02,5.360375717282295227e-02,5.153800174593925476e-02,-1.857825815677642822e-01,-6.181376799941062927e-02,7.209723844425752759e-05,2.627735584974288940e-02,-9.191694855690002441e-02,1.039173826575279236e-01,-9.071880578994750977e-02,-1.172136235982179642e-02,-5.691727250814437866e-02,1.975560635328292847e-01,-2.589978650212287903e-02,3.899159654974937439e-02,-8.230579085648059845e-03,7.929671555757522583e-02,3.798356652259826660e-02,5.415280163288116455e-02,3.278110921382904053e-02,-2.662179805338382721e-02,3.618653118610382080e-02,6.948546320199966431e-02,4.890472814440727234e-02,1.074872240424156189e-01,1.190593093633651733e-02,9.103760123252868652e-02,5.178124830126762390e-02,8.066472597420215607e-03,5.304551869630813599e-02,8.758828788995742798e-02,-6.506986916065216064e-02,3.181798150762915611e-03,5.487908422946929932e-02,7.134731113910675049e-02,3.705854713916778564e-02,6.380675733089447021e-02,-3.865226730704307556e-02,-3.956277295947074890e-02,-6.265348754823207855e-03,2.319173328578472137e-02,3.694639354944229126e-02,2.256634458899497986e-02,-5.358473211526870728e-02,8.783617988228797913e-03,9.299245476722717285e-02,-6.785467267036437988e-02,-3.684886172413825989e-02,1.991331018507480621e-02,3.848480060696601868e-02,9.168439358472824097e-02,2.967891655862331390e-02,-7.287562824785709381e-03,3.138245269656181335e-02,8.877445012331008911e-02,1.432241201400756836e-01,-4.044200107455253601e-02,5.157975479960441589e-02,5.664918944239616394e-02,-1.960680186748504639e-01,7.443216443061828613e-02,-1.247938070446252823e-02,1.642456501722335815e-01,-4.563443362712860107e-02,-1.820221729576587677e-02,2.460803091526031494e-02,5.672678817063570023e-03,1.173522248864173889e-01,4.233997315168380737e-02,2.660915628075599670e-02,-3.147982060909271240e-02,5.936753377318382263e-02,-2.888806629925966263e-03,5.497202649712562561e-02,6.943493336439132690e-02,1.564649790525436401e-01,-4.679178074002265930e-02,-3.228820161893963814e-03,1.616802066564559937e-01,9.980401396751403809e-02,-5.139654874801635742e-02,1.228575035929679871e-01,1.742962896823883057e-01,6.263502687215805054e-02,7.514451444149017334e-02,-5.722260847687721252e-02,-7.131504267454147339e-02,-1.508541684597730637e-02,4.303884506225585938e-02,1.129450798034667969e-01,7.668026536703109741e-02,6.973502039909362793e-02,-2.091298438608646393e-02,7.452696561813354492e-02,-7.628977298736572266e-02,1.263113617897033691e-01,5.576659739017486572e-02,1.391962021589279175e-01,7.350981980562210083e-02,1.257584542036056519e-01,-3.394168987870216370e-02,-1.342482566833496094e-01,2.672951482236385345e-02,-7.629656232893466949e-03,5.227239057421684265e-02,1.900017112493515015e-01,-3.556241840124130249e-02,1.365765035152435303e-01,6.320383399724960327e-02,4.868483543395996094e-02,1.044390629976987839e-02,6.419230252504348755e-02,-5.450676009058952332e-02,-4.720260575413703918e-02,4.142828658223152161e-02,-3.187531605362892151e-02,-5.158281419426202774e-03,-3.959389775991439819e-02,-2.959715574979782104e-02,-4.254885762929916382e-02,-8.808919042348861694e-02,-1.131624076515436172e-02,1.893159188330173492e-02,-5.203908775001764297e-03,5.623806640505790710e-02,2.124888002872467041e-01,7.316458038985729218e-03,-2.719149226322770119e-03,1.029552966356277466e-01,-1.612182334065437317e-02,2.709622494876384735e-02,5.822854489088058472e-02,1.031916663050651550e-01,1.558409333229064941e-01,1.570460945367813110e-02,-5.343808978796005249e-02,5.829827114939689636e-02
1.244826801121234894e-02,3.468054533004760742e-02,7.059885561466217041e-02,-6.626772228628396988e-03,-5.652257800102233887e-02,3.759118169546127319e-02,2.960982918739318848e-02,1.690511405467987061e-01,-3.885846212506294250e-02,1.489885617047548294e-02,4.412587732076644897e-02,-9.874012321233749390e-02,6.556839216500520706e-03,2.547345589846372604e-03,1.538380980491638184e-02,-8.205046504735946655e-02,5.206874385476112366e-02,6.228789687156677246e-02,-1.571571640670299530e-02,8.620664477348327637e-03,-2.963514812290668488e-02,3.210730850696563721e-02,2.736939676105976105e-02,1.897767186164855957e-02,3.352148830890655518e-02,1.423155665397644043e-01,5.044651776552200317e-02,2.675111405551433563e-03,3.554657101631164551e-02,-2.135024871677160263e-03,-9.222287684679031372e-02,-8.367224596440792084e-03,6.481048464775085449e-02,-5.451077967882156372e-02,1.579895913600921631e-01,3.520576283335685730e-02,3.098410926759243011e-02,8.483932167291641235e-02,-1.059337798506021500e-02,2.561803848948329687e-04,-5.104930326342582703e-02,7.495684921741485596e-02,4.590978845953941345e-02,-6.372255086898803711e-02,5.621834844350814819e-02,6.101177632808685303e-02,6.031350791454315186e-02,1.555301547050476074e-01,6.368809938430786133e-02,1.132638230919837952e-01,-5.701830610632896423e-03,3.039617091417312622e-02,1.227118819952011108e-01,1.133850514888763428e-01,-5.246709287166595459e-02,2.845346368849277496e-02,7.816763222217559814e-02,-5.247870832681655884e-02,1.251669675111770630e-01,7.812548428773880005e-02,1.215543299913406372e-01,5.270317196846008301e-02,4.960431903600692749e-02,7.093538995832204819e-03,5.595571175217628479e-02,-6.488741189241409302e-02,-2.425234913825988770e-01,1.048088297247886658e-01,-6.182273849844932556e-02,-2.949496544897556305e-02,-1.380451917648315430e-01,1.286581903696060181e-01,-7.402855902910232544e-02,7.209188491106033325e-02,3.154600784182548523e-02,1.969534307718276978e-01,1.328377518802881241e-02,7.525970041751861572e-02,5.605453252792358398e-02,1.651603877544403076e-01,1.041414067149162292e-01,-8.972360752522945404e-03,7.801817264407873154e-03,-7.349759340286254883e-02,-5.402880162000656128e-02,-8.755380660295486450e-02,6.153302639722824097e-02,1.327456980943679810e-01,-3.973878547549247742e-02,4.277088493108749390e-02,5.261500924825668335e-02,-1.506113540381193161e-02,-1.058853045105934143e-02,-3.372408077120780945e-02,-1.481166947633028030e-02,1.465191096067428589e-01,1.600288450717926025e-01,-1.040780451148748398e-02,6.132321432232856750e-02,7.983322441577911377e-02,9.754032641649246216e-02,-1.004065424203872681e-01,-2.243257500231266022e-02,3.334654029458761215e-03,-1.341655384749174118e-02,9.720408171415328979e-02,-1.100505813956260681e-01,6.885259598493576050e-02,9.579440951347351074e-02,1.572425477206707001e-02,7.647879421710968018e-02,4.159200936555862427e-02,3.174559399485588074e-02,-4.402384907007217407e-02,2.533019334077835083e-02,9.358610957860946655e-03,4.360972344875335693e-02,1.005547866225242615e-01,1.437540650367736816e-01,7.321165502071380615e-02,9.278964251279830933e-02,-4.921556264162063599e-02,3.172601014375686646e-02,7.028176635503768921e-02,-1.303548663854598999e-01,2.444939874112606049e-02,-2.108111791312694550e-02,1.921075768768787384e-02,-4.963110014796257019e-02,6.459292024374008179e-02,2.325302734971046448e-02,6.671126931905746460e-02,1.996415480971336365e-02,1.542493794113397598e-02,1.352542638778686523e-01,1.165989041328430176e-01,-8.450593054294586182e-02,-6.588777154684066772e-02,1.474302448332309723e-02,4.287993535399436951e-02,-1.270364373922348022e-01,4.679133370518684387e-02,1.046942621469497681e-01,-9.992375969886779785e-02,-2.973032929003238678e-02,2.761667594313621521e-02,-2.296199277043342590e-02,9.276821464300155640e-02,-1.160805299878120422e-02,1.394434180110692978e-02,-5.399363115429878235e-02,-1.830875873565673828e-03,-2.521901391446590424e-02,1.351269930601119995e-01,-4.892978817224502563e-02,8.662074059247970581e-02,9.163163602352142334e-02,-2.505334652960300446e-02,-7.256790995597839355e-02,1.512668430805206299e-01,-6.670039892196655273e-02,3.699978068470954895e-02,7.429303973913192749e-02,-1.123755518347024918e-02,1.931286305189132690e-01,-5.602559819817543030e-02,-4.332702979445457458e-02,1.374708712100982666e-01,-2.464625425636768341e-02,1.956060715019702911e-02,1.362240761518478394e-01,4.262623563408851624e-02,1.767441630363464355e-02,-6.174128875136375427e-02,1.056869775056838989e-01,5.588906258344650269e-02,-2.790817990899085999e-02,5.352713912725448608e-02,-3.116399981081485748e-02,-3.451157826930284500e-03,2.501395344734191895e-02,1.209359988570213318e-02,1.822936981916427612e-01,-1.552952826023101807e-01,3.914899379014968872e-02,4.143112152814865112e-02,-3.732350468635559082e-02,8.472619205713272095e-02,-1.838085800409317017e-02,9.093439579010009766e-02,4.410848394036293030e-02,4.988555982708930969e-02,3.514022380113601685e-02,5.563188344240188599e-02,1.865845173597335815e-01,-2.004168368875980377e-02,1.625010371208190918e-02,8.585974574089050293e-03,5.146991461515426636e-02,-8.095851540565490723e-02
5.905074626207351685e-02,8.214355260133743286e-02,-1.612270995974540710e-02,-1.219204217195510864e-01,1.115419343113899231e-02,2.196203619241714478e-01,-2.619650773704051971e-02,5.387854948639869690e-02,-1.990600861608982086e-02,2.326365709304809570e-01,-1.494459360837936401e-01,5.205389112234115601e-02,-1.193110346794128418e-01,-9.775409102439880371e-02,-3.890736401081085205e-02,-1.757342666387557983e-01,-9.294000267982482910e-02,1.481310427188873291e-01,-1.743937432765960693e-01,4.097856953740119934e-02,-9.874803572893142700e-02,1.335727125406265259e-01,-3.413941711187362671e-02,-8.318156003952026367e-02,1.217615529894828796e-01,1.493780463933944702e-01,2.421234920620918274e-02,2.741221711039543152e-02,-1.296325623989105225e-01,-1.695060431957244873e-01,-1.742794960737228394e-01,-6.290689855813980103e-02,-7.913277298212051392e-02,-2.000860422849655151e-01,-1.939426735043525696e-02,5.833085998892784119e-02,-1.500894688069820404e-02,-4.840300232172012329e-02,6.571798026561737061e-02,-2.000505104660987854e-02,-8.672487735748291016e-02,-1.230099946260452271e-01,-2.352453768253326416e-02,9.168796241283416748e-02,2.902647480368614197e-02,-2.433535084128379822e-02,-5.626452621072530746e-03,1.056259032338857651e-02,-1.691053435206413269e-02,5.881666392087936401e-02,9.310159087181091309e-02,-6.978230178356170654e-02,2.123699635267257690e-01,2.347018420696258545e-01,-1.043383553624153137e-01,1.696550697088241577e-01,6.063141301274299622e-02,-1.414627768099308014e-03,7.510034739971160889e-02,-1.611050516366958618e-01,-5.477438122034072876e-02,-8.788641542196273804e-02,5.075604096055030823e-02,-1.765824854373931885e-02,-1.146472543478012085e-01,-1.206720396876335144e-01,-1.464622020721435547e-01,6.002919003367424011e-02,-8.351413160562515259e-02,5.258885025978088379e-02,-9.075219929218292236e-02,6.360386312007904053e-02,7.924424111843109131e-02,-2.360306084156036377e-01,-4.128505662083625793e-02,-2.752505242824554443e-02,4.385154694318771362e-02,-8.205153048038482666e-02,-1.621999293565750122e-01,1.181945390999317169e-02,2.256004512310028076e-01,-2.217625826597213745e-01,-1.334614157676696777e-01,4.140739887952804565e-02,3.804251924157142639e-02,5.612927302718162537e-02,3.415871760807931423e-04,1.262519657611846924e-01,-1.653454080224037170e-02,3.832137212157249451e-03,1.113264113664627075e-01,-5.265002697706222534e-02,-2.533671632409095764e-02,-1.297016143798828125e-01,-7.317433506250381470e-02,1.878799945116043091e-01,4.068081080913543701e-02,2.304158061742782593e-01,-1.921606212854385376e-01,3.496694564819335938e-02,-8.103477954864501953e-02,8.786430209875106812e-02,2.871614694595336914e-02,-2.703833393752574921e-02,-6.300874054431915283e-02,-3.778619691729545593e-02,-8.578082174062728882e-02,-3.283284977078437805e-02,6.661149859428405762e-02,-1.806426644325256348e-01,5.004062503576278687e-02,1.160905212163925171e-01,-5.428316537290811539e-03,-1.454560011625289917e-01,-1.137093901634216309e-01,3.536548465490341187e-02,-2.195748127996921539e-02,1.720596849918365479e-01,6.711281836032867432e-02,-9.938240051269531250e-02,1.054159477353096008e-01,1.227312833070755005e-01,-9.223108738660812378e-02,1.626866608858108521e-01,-3.895624249707907438e-04,1.897490024566650391e-02,-1.617834419012069702e-01,-5.124273896217346191e-02,6.067669019103050232e-02,1.126244664192199707e-01,1.689965277910232544e-01,-7.031197845935821533e-02,-1.759685277938842773e-01,-1.725130826234817505e-01,9.743595123291015625e-02,5.651864036917686462e-02,3.560306876897811890e-02,-1.249418482184410095e-01,9.527792036533355713e-02,7.467130571603775024e-02,-1.500354558229446411e-01,-6.395094841718673706e-02,3.453061580657958984e-01,5.116362497210502625e-02,-9.547911584377288818e-02,-1.276941150426864624e-01,1.466963160783052444e-02,1.690244525671005249e-01,8.875044062733650208e-03,6.102955434471368790e-03,5.935686454176902771e-02,-1.469702422618865967e-01,3.934553638100624084e-02,3.955082297325134277e-01,1.003648787736892700e-01,1.661843359470367432e-01,6.538348644971847534e-02,1.114168614149093628e-01,1.571565419435501099e-01,-6.265445053577423096e-02,-9.885080158710479736e-03,4.455404728651046753e-02,-5.367703363299369812e-02,1.341107040643692017e-01,1.242380663752555847e-01,-9.380246698856353760e-02,4.677579924464225769e-02,-1.167362555861473083e-01,6.102015078067779541e-02,1.735394746065139771e-01,4.012431949377059937e-02,1.446477919816970825e-01,2.088042199611663818e-01,1.767461560666561127e-02,9.647721797227859497e-02,2.667673528194427490e-01,-2.065040320158004761e-01,1.804873794317245483e-01,-1.569250077009201050e-01,1.595340818166732788e-01,-7.098862528800964355e-02,-1.695678830146789551e-01,-4.485914483666419983e-03,-3.229793310165405273e-01,9.579032659530639648e-02,1.165315136313438416e-01,9.100391715764999390e-02,-8.104331046342849731e-02,1.457857489585876465e-01,-8.141710609197616577e-02,-4.913897067308425903e-02,-1.314889788627624512e-01,1.236034780740737915e-01,-3.678647428750991821e-02,1.628788113594055176e-01,-1.419856864959001541e-02,-1.086001992225646973e-01,-5.639996379613876343e-03,2.424508333206176758e-01,-1.454395651817321777e-01
-3.157440721988677979e-01,1.454567611217498779e-01,1.687970310449600220e-01,8.867216855287551880e-02,1.795281916856765747e-01,9.075661003589630127e-02,-3.709834814071655273e-02,1.817354559898376465e-02,1.038331538438796997e-02,7.692561298608779907e-02,-4.592423886060714722e-02,6.556018441915512085e-02,-5.061955749988555908e-02,1.183492690324783325e-02,1.454557012766599655e-02,-5.385924503207206726e-02,-1.206035986542701721e-01,-1.042336151003837585e-01,-1.209691017866134644e-01,1.214954033493995667e-01,-4.966612905263900757e-02,-1.277518421411514282e-01,1.283640116453170776e-01,-2.851920723915100098e-01,5.650638416409492493e-02,-1.575839221477508545e-01,2.816720306873321533e-02,2.321620285511016846e-02,-1.578244417905807495e-01,2.975548990070819855e-02,9.012693166732788086e-02,1.528495699167251587e-01,8.543756604194641113e-02,-9.634960442781448364e-02,-5.368001386523246765e-02,-2.549739368259906769e-02,1.830117851495742798e-01,-4.761878028512001038e-02,1.337936371564865112e-01,-3.802158683538436890e-02,5.336768180131912231e-02,-1.033969894051551819e-01,-1.263775080442428589e-01,2.478554379194974899e-04,9.740065783262252808e-02,2.757085487246513367e-02,-2.064987272024154663e-01,-2.592241466045379639e-01,1.586616039276123047e-01,-3.333862125873565674e-01,-7.366811484098434448e-02,6.067047268152236938e-02,-1.817188109271228313e-03,2.658064961433410645e-01,-8.496513217687606812e-02,7.562638074159622192e-02,-2.039393875747919083e-03,6.827500462532043457e-02,-6.574515253305435181e-02,-1.041583791375160217e-01,5.426754057407379150e-02,-8.029907941818237305e-02,-1.706420481204986572e-01,2.284147441387176514e-01,-1.438805740326642990e-02,6.202064082026481628e-02,4.089586064219474792e-02,-1.427420973777770996e-01,1.094581335783004761e-01,1.264303028583526611e-01,7.640025019645690918e-02,3.423638939857482910e-01,4.526445642113685608e-02,-7.720993459224700928e-02,5.729458853602409363e-02,-1.617752909660339355e-01,1.624440699815750122e-01,1.192552521824836731e-01,-1.058000698685646057e-01,6.026690006256103516e-01,-2.334234565496444702e-01,-2.953072777017951012e-03,-1.921983808279037476e-01,-6.575808674097061157e-02,-1.349326875060796738e-02,2.207295745611190796e-01,1.822929680347442627e-01,5.218592658638954163e-02,3.702828288078308105e-02,1.113549619913101196e-01,-1.511827558279037476e-01,1.016842052340507507e-01,1.247595809400081635e-02,-6.162257399410009384e-03,1.015454232692718506e-01,2.512441016733646393e-02,-1.321600079536437988e-01,-8.911751955747604370e-02,-3.462486714124679565e-02,8.522091805934906006e-02,-3.187625482678413391e-02,4.520304128527641296e-02,-1.245376989245414734e-01,1.436639726161956787e-01,2.932078763842582703e-02,2.036097943782806396e-01,9.363735467195510864e-02,1.014917120337486267e-01,1.510679814964532852e-02,-6.295765936374664307e-02,-5.197348445653915405e-02,1.443679779767990112e-01,-3.975145146250724792e-02,-1.611744910478591919e-01,6.119083985686302185e-02,4.282361641526222229e-02,2.610888518393039703e-02,2.186657488346099854e-02,1.354614347219467163e-01,7.870826125144958496e-02,-5.132527649402618408e-02,5.450834706425666809e-02,-1.315536499023437500e-01,1.293728351593017578e-01,-4.071749374270439148e-02,2.026610225439071655e-01,-1.084491983056068420e-01,4.911550506949424744e-02,-1.020110473036766052e-01,8.929218351840972900e-02,-1.650891751050949097e-01,2.144870162010192871e-01,1.950577944517135620e-01,-1.715384609997272491e-02,6.492005288600921631e-02,-3.464434668421745300e-02,3.797103883698582649e-03,1.477524936199188232e-01,1.326664686203002930e-01,-3.401348739862442017e-02,5.842681974172592163e-03,-7.497845590114593506e-02,-3.592513129115104675e-02,2.070763409137725830e-01,2.032892107963562012e-01,-5.018275976181030273e-02,5.362040176987648010e-02,-8.526229858398437500e-02,-6.354986689984798431e-03,-3.913907799869775772e-03,-3.258477896451950073e-02,1.729263574816286564e-03,1.046577170491218567e-01,-4.299906641244888306e-02,-5.118843168020248413e-03,-3.034381940960884094e-02,2.921343408524990082e-02,-3.583045303821563721e-02,-1.282997708767652512e-02,-1.537245512008666992e-01,8.965798467397689819e-02,3.186811879277229309e-02,1.757227629423141479e-01,1.519927754998207092e-02,1.545673459768295288e-01,-4.703419655561447144e-02,4.765169322490692139e-02,2.390254475176334381e-02,1.579626947641372681e-01,1.077314987778663635e-01,-1.340851336717605591e-01,-4.987559467554092407e-02,3.987610712647438049e-02,1.694810390472412109e-01,-4.727240651845932007e-02,-1.806015968322753906e-01,2.389661967754364014e-02,-2.193463034927845001e-02,-1.317555606365203857e-01,1.057532131671905518e-01,-1.300785839557647705e-01,-5.217306688427925110e-02,-2.604433596134185791e-01,1.028879582881927490e-01,-6.082270294427871704e-02,2.695401608943939209e-01,8.986108750104904175e-02,1.084370613098144531e-01,2.512894868850708008e-01,-2.572415210306644440e-02,2.109862565994262695e-01,-1.018777638673782349e-01,-5.912628956139087677e-03,1.217170208692550659e-01,-1.256702095270156860e-01,-1.716795414686203003e-01,-3.962396085262298584e-02,-1.052555143833160400e-01,-7.299021631479263306e-02,5.756721273064613342e-02
4.804896190762519836e-02,-2.101157978177070618e-02,6.883396208286285400e-02,6.619376689195632935e-02,3.240650519728660583e-02,1.564469337463378906e-01,-1.038450971245765686e-01,-1.492436975240707397e-02,-2.444865740835666656e-02,6.156586855649948120e-02,-1.118313893675804138e-01,-4.647244140505790710e-02,2.102798037230968475e-02,-3.189547732472419739e-02,-9.254375845193862915e-02,-6.199862062931060791e-02,-1.056551039218902588e-01,3.403796255588531494e-02,-8.712463080883026123e-02,1.026750430464744568e-01,-2.665990218520164490e-02,1.084055602550506592e-01,9.303817898035049438e-02,-1.111403629183769226e-01,1.913418769836425781e-01,1.294248849153518677e-01,6.192733999341726303e-03,4.143997654318809509e-02,-1.000478789210319519e-01,-9.529286064207553864e-03,7.906553149223327637e-02,1.019602715969085693e-01,4.134527221322059631e-02,-4.688641428947448730e-02,3.449613973498344421e-02,1.760431565344333649e-02,4.669532179832458496e-02,9.889130294322967529e-02,1.748079359531402588e-01,4.539807885885238647e-02,1.420784834772348404e-02,-1.662539318203926086e-02,-3.485437855124473572e-02,8.889383822679519653e-02,1.332208514213562012e-01,1.320504117757081985e-02,4.157763440161943436e-03,-1.210052892565727234e-01,-3.377249231562018394e-03,-1.239469051361083984e-01,-4.092596098780632019e-02,-8.618578314781188965e-02,1.534279882907867432e-01,1.514878571033477783e-01,2.281003445386886597e-02,3.750166296958923340e-02,-2.623551338911056519e-02,2.215659618377685547e-02,3.534944728016853333e-02,2.717468328773975372e-02,-5.454526841640472412e-02,2.434083260595798492e-02,-8.391967415809631348e-02,1.654230654239654541e-01,8.586230129003524780e-02,7.089751958847045898e-02,-1.050056889653205872e-01,5.631951987743377686e-02,6.013751029968261719e-02,4.235947504639625549e-02,6.562628597021102905e-02,8.741073310375213623e-02,8.941596746444702148e-02,-9.095715731382369995e-02,1.200931668281555176e-01,-3.316163271665573120e-02,-1.413625199347734451e-02,1.007271334528923035e-01,-1.139289215207099915e-01,1.002257540822029114e-01,5.183382704854011536e-02,-1.033269539475440979e-01,-1.206964254379272461e-03,4.292467236518859863e-02,-1.520128548145294189e-01,2.835328690707683563e-02,-1.095099672675132751e-01,4.415037482976913452e-02,-1.414977461099624634e-01,9.511812031269073486e-02,2.343639964237809181e-03,-3.927070274949073792e-02,1.221139729022979736e-01,-4.347727075219154358e-02,4.830476827919483185e-03,1.228163540363311768e-01,1.911679282784461975e-02,1.629395484924316406e-01,-1.624775677919387817e-01,1.030914634466171265e-01,7.953955978155136108e-02,8.856739103794097900e-02,-9.868040680885314941e-02,6.770258396863937378e-02,-7.620830088853836060e-02,6.449830532073974609e-02,-3.134965524077415466e-02,9.904172271490097046e-02,4.713815450668334961e-02,-8.874331414699554443e-02,5.003395304083824158e-02,4.760518204420804977e-03,2.005866728723049164e-03,-9.127567708492279053e-02,8.775512874126434326e-02,6.185936182737350464e-02,-1.299844980239868164e-01,1.265083849430084229e-01,8.583763241767883301e-02,4.465340077877044678e-02,1.694629713892936707e-02,1.065622642636299133e-01,4.268809687346220016e-03,1.225827261805534363e-01,-9.486982598900794983e-03,1.457641366869211197e-02,-1.168664842844009399e-01,-1.005760505795478821e-01,8.050989359617233276e-02,1.066138818860054016e-01,7.127899676561355591e-02,6.603281944990158081e-02,-2.546733804047107697e-02,1.102569326758384705e-02,4.470105469226837158e-02,1.257425397634506226e-01,-7.277829200029373169e-02,9.081946313381195068e-02,1.222332417964935303e-01,1.209911257028579712e-01,-8.701968938112258911e-02,-5.625608190894126892e-02,1.763293445110321045e-01,1.313636153936386108e-01,3.249990567564964294e-02,-1.818284951150417328e-02,1.369648426771163940e-01,7.028383761644363403e-02,-3.117281198501586914e-02,9.015113860368728638e-02,1.173166781663894653e-01,-1.089662611484527588e-01,1.078178808093070984e-01,2.016390860080718994e-01,1.046257764101028442e-01,1.464737802743911743e-01,-1.782531617209315300e-03,1.839360594749450684e-01,6.655467301607131958e-02,2.597372513264417648e-03,5.712738260626792908e-02,1.973535716533660889e-01,1.328527331352233887e-01,2.062998265027999878e-01,2.073911726474761963e-01,1.869067177176475525e-02,6.216974183917045593e-02,-1.123827695846557617e-01,6.772188097238540649e-02,9.157171100378036499e-02,-5.394175648689270020e-02,1.730593442916870117e-01,9.107942879199981689e-02,1.308598667383193970e-01,8.692524582147598267e-02,1.218542158603668213e-01,1.095869392156600952e-02,7.841827720403671265e-02,-8.036445826292037964e-02,1.656029224395751953e-01,-1.172361224889755249e-01,-8.316233009099960327e-02,1.380279008299112320e-02,-1.387228369712829590e-01,-1.074871886521577835e-02,3.376308828592300415e-02,9.569370746612548828e-02,-1.686455681920051575e-02,2.132189273834228516e-02,-1.272986829280853271e-01,2.565982192754745483e-02,-1.011905521154403687e-01,4.249981790781021118e-02,2.271725982427597046e-02,4.559264332056045532e-02,-1.431414857506752014e-02,-3.247075527906417847e-02,-4.006429016590118408e-02,1.746244877576828003e-01,-4.403004795312881470e-02
-1.883121952414512634e-02,3.161455038934946060e-03,-6.049270555377006531e-02,1.305733621120452881e-01,1.885227560997009277e-01,1.679200679063796997e-01,4.201241582632064819e-02,4.782214760780334473e-02,-3.649969398975372314e-02,1.087305992841720581e-01,-2.224647253751754761e-02,-8.201752603054046631e-02,-1.699032634496688843e-01,6.550203263759613037e-02,2.551908791065216064e-01,1.500003933906555176e-01,-7.779873907566070557e-02,-3.374753147363662720e-02,9.695656597614288330e-03,7.721281796693801880e-02,-1.198620814830064774e-02,8.562821149826049805e-02,-1.012808009982109070e-01,1.949035190045833588e-02,2.018716782331466675e-01,5.942784249782562256e-02,2.415664345026016235e-01,2.118349671363830566e-01,-1.315369177609682083e-02,1.124176681041717529e-01,9.424478560686111450e-02,4.583190008997917175e-02,2.471142075955867767e-02,7.441163063049316406e-02,1.034074798226356506e-01,5.544707179069519043e-02,6.831784546375274658e-02,1.174487024545669556e-01,-2.143596857786178589e-02,4.807464778423309326e-02,-6.700361520051956177e-02,-1.153489388525485992e-02,1.237882450222969055e-01,1.986238658428192139e-01,8.672037720680236816e-02,-1.588937453925609589e-02,-4.600739851593971252e-02,2.185776978731155396e-01,3.606978803873062134e-02,1.452240943908691406e-01,4.907475784420967102e-02,-7.722840458154678345e-02,1.865420937538146973e-01,-1.070859357714653015e-01,-6.988946348428726196e-02,1.922843903303146362e-01,3.417908400297164917e-02,-7.487386465072631836e-02,1.062610298395156860e-01,5.577136203646659851e-02,-2.636477723717689514e-02,-7.405380904674530029e-02,1.260450035333633423e-01,1.497985273599624634e-01,1.311685740947723389e-01,4.689650982618331909e-02,1.609393656253814697e-01,1.188911274075508118e-01,-1.391904894262552261e-02,4.402942955493927002e-02,2.455997616052627563e-01,-7.834596931934356689e-02,2.875738441944122314e-01,9.989785403013229370e-02,9.300480037927627563e-02,2.110078036785125732e-01,1.386788673698902130e-02,8.009602129459381104e-02,-1.936860568821430206e-02,3.284633159637451172e-02,9.554266929626464844e-02,5.517936497926712036e-02,3.008904308080673218e-02,3.246302306652069092e-01,-1.141628548502922058e-01,6.278471648693084717e-02,-5.428196489810943604e-02,-5.300857126712799072e-02,-5.892313271760940552e-02,1.167163997888565063e-02,1.648677438497543335e-01,1.925683617591857910e-01,1.032406762242317200e-01,-3.152615949511528015e-02,2.319989725947380066e-02,-2.345385774970054626e-02,1.311437338590621948e-01,1.128723770380020142e-01,1.672735214233398438e-01,3.379799053072929382e-02,8.298984169960021973e-02,1.203114092350006104e-01,-1.340716890990734100e-02,-1.821973733603954315e-02,6.371999531984329224e-02,1.767235249280929565e-02,-5.243687704205513000e-02,8.437129668891429901e-03,-3.034535050392150879e-01,1.287233382463455200e-01,1.071733012795448303e-01,-1.038861870765686035e-01,8.643541485071182251e-02,6.811390817165374756e-02,-2.356213890016078949e-02,6.144782155752182007e-02,2.591180801391601562e-01,-3.865403588861227036e-03,2.443265020847320557e-01,7.558557391166687012e-02,2.732017450034618378e-02,1.904403865337371826e-01,-3.684672117233276367e-01,2.091452777385711670e-01,-1.126004830002784729e-01,3.978102002292871475e-03,-6.144374981522560120e-02,2.739256434142589569e-02,1.328299790620803833e-01,1.052698567509651184e-01,3.691045939922332764e-02,-2.493481384590268135e-03,-2.460975758731365204e-02,-8.884209394454956055e-02,-4.159278422594070435e-02,4.370820894837379456e-02,-1.169646456837654114e-01,8.750449120998382568e-02,2.107685990631580353e-02,2.429477721452713013e-01,4.480363130569458008e-01,-5.066039413213729858e-02,-3.284539878368377686e-01,-2.134379558265209198e-02,-3.475355356931686401e-02,5.355915054678916931e-03,1.529504507780075073e-01,2.853463962674140930e-02,-1.038455814123153687e-01,2.067852206528186798e-02,1.664503812789916992e-01,-8.386528491973876953e-02,-6.096360832452774048e-02,-2.764312624931335449e-01,-3.933529835194349289e-03,3.414247417822480202e-03,5.814410746097564697e-02,1.556140333414077759e-01,-7.726617902517318726e-02,1.541129350662231445e-01,-3.483321517705917358e-02,1.157960295677185059e-02,1.039401367306709290e-01,1.663931608200073242e-01,-2.740328609943389893e-01,4.566916078329086304e-02,7.737476378679275513e-02,1.952567137777805328e-02,1.655320823192596436e-01,2.538852766156196594e-02,2.605411708354949951e-01,-1.595750898122787476e-01,1.476834565401077271e-01,1.473321765661239624e-01,-4.530483391135931015e-03,-9.270867705345153809e-02,9.680665284395217896e-02,7.693451642990112305e-02,-2.435166947543621063e-02,1.430060714483261108e-01,-1.288665086030960083e-01,1.103790849447250366e-01,1.632500290870666504e-01,3.088378906250000000e-01,7.793934550136327744e-03,9.932134300470352173e-02,3.186125680804252625e-02,-1.452960222959518433e-01,1.154158189892768860e-01,4.668693244457244873e-02,-2.264915108680725098e-01,5.781938508152961731e-02,-5.544453114271163940e-02,1.499171555042266846e-01,1.914962083101272583e-01,6.403905898332595825e-02,5.803060904145240784e-02,-1.079438030719757080e-01,-3.917624801397323608e-02,1.818150877952575684e-01
8.626575767993927002e-02,-1.836118847131729126e-01,-3.889705613255500793e-02,5.612888559699058533e-02,1.505982428789138794e-01,-1.353946626186370850e-01,-4.480247572064399719e-02,-4.701991006731987000e-02,-1.159148439764976501e-01,3.767236834391951561e-03,-2.940967679023742676e-02,-4.186768829822540283e-02,2.214950025081634521e-01,5.786635447293519974e-03,9.127520769834518433e-02,1.971941739320755005e-01,2.664698660373687744e-02,-1.071619465947151184e-01,8.822476863861083984e-02,1.450471729040145874e-01,3.689526394009590149e-02,1.191862821578979492e-01,1.410833299160003662e-01,2.076286822557449341e-01,7.137257605791091919e-02,8.311005681753158569e-02,-8.340087532997131348e-02,1.101829409599304199e-01,1.403919011354446411e-01,6.234327703714370728e-02,7.067950069904327393e-02,4.625893756747245789e-02,1.168539673089981079e-01,1.313879527151584625e-02,-2.417215332388877869e-02,-3.855250775814056396e-02,1.770472154021263123e-02,1.011840328574180603e-01,1.277358680963516235e-01,6.067487969994544983e-02,-9.963534027338027954e-02,-3.089590743184089661e-02,1.191759333014488220e-01,3.919107839465141296e-02,2.697619609534740448e-02,-1.315591484308242798e-01,2.176032662391662598e-01,2.989095151424407959e-01,1.255471557378768921e-01,2.231159061193466187e-01,8.445905148983001709e-02,-4.160821437835693359e-02,-1.769594550132751465e-01,-1.706375032663345337e-01,-9.971005469560623169e-02,-1.773271113634109497e-01,-6.038620695471763611e-02,-1.786135882139205933e-02,-5.572495609521865845e-02,3.141504153609275818e-02,1.088648512959480286e-01,-9.563697874546051025e-02,1.169044822454452515e-01,5.456424131989479065e-02,1.657638251781463623e-01,1.350515782833099365e-01,2.314841002225875854e-01,1.539954096078872681e-01,-1.601571589708328247e-02,4.369390383362770081e-02,1.271005123853683472e-01,-2.712064981460571289e-01,-8.668132871389389038e-02,1.859420388936996460e-01,2.742566354572772980e-02,1.464494168758392334e-01,-1.737468540668487549e-01,1.284735947847366333e-01,3.286804631352424622e-02,-4.417219012975692749e-02,-4.443271085619926453e-02,8.570998907089233398e-02,3.104618377983570099e-02,-8.250147104263305664e-02,-7.128446549177169800e-02,-7.003046572208404541e-02,-1.653298437595367432e-01,-1.367108076810836792e-01,4.598428495228290558e-04,4.394179955124855042e-02,2.374942647293210030e-03,-1.902223229408264160e-01,1.769737899303436279e-02,6.065843999385833740e-02,1.311597973108291626e-01,-5.116413161158561707e-02,-2.550108171999454498e-02,8.268618956208229065e-03,1.946531385183334351e-01,9.713204205036163330e-02,6.411935389041900635e-02,-3.310077264904975891e-02,-1.804124936461448669e-02,-1.407236009836196899e-01,3.201986104249954224e-02,8.820626139640808105e-02,6.051631271839141846e-02,-3.736791387200355530e-02,-1.254646331071853638e-01,8.527989685535430908e-02,2.363386563956737518e-03,-2.357106655836105347e-01,2.265181578695774078e-02,3.051682375371456146e-02,4.412066936492919922e-02,5.151288583874702454e-02,8.378908969461917877e-03,-9.391204267740249634e-02,-4.412646964192390442e-02,6.703062355518341064e-02,-4.527617245912551880e-02,-6.874701473861932755e-03,1.003743112087249756e-01,-8.256505429744720459e-02,-3.333802148699760437e-02,-8.909437805414199829e-02,2.766538560390472412e-01,3.849991038441658020e-02,-1.176379900425672531e-02,9.109949693083763123e-03,1.465343520976603031e-03,-6.977684050798416138e-02,1.664827927015721798e-03,7.809973508119583130e-02,-1.204888373613357544e-01,-1.880334340967237949e-03,-1.240585744380950928e-01,1.659743674099445343e-02,-2.300448268651962280e-01,3.838390484452247620e-02,1.633815318346023560e-01,-2.580702118575572968e-02,-1.818848960101604462e-02,6.526224315166473389e-02,9.331837296485900879e-02,-1.212950199842453003e-01,7.575632631778717041e-02,-3.165439236909151077e-03,1.060327440500259399e-01,2.870841324329376221e-02,3.393327817320823669e-02,-7.087330520153045654e-02,7.133798301219940186e-02,-1.933250129222869873e-01,-3.446158766746520996e-02,-3.358437446877360344e-03,-7.126265764236450195e-02,6.381856650114059448e-02,-6.714004278182983398e-02,1.329510807991027832e-01,-8.528716862201690674e-02,-4.887733981013298035e-02,4.023967310786247253e-02,9.897104650735855103e-02,2.406147122383117676e-01,8.056613802909851074e-02,-4.175627604126930237e-02,5.666782706975936890e-02,-6.840430200099945068e-02,7.955715060234069824e-02,1.164414137601852417e-01,-9.929338842630386353e-02,2.030332339927554131e-03,9.734353981912136078e-03,-1.454361826181411743e-01,-4.592989757657051086e-02,1.296203136444091797e-01,-8.329405449330806732e-03,-7.039632648229598999e-02,-2.007459662854671478e-02,-2.970796637237071991e-02,9.923543781042098999e-02,1.342562586069107056e-01,1.911882194690406322e-03,5.893360823392868042e-02,-1.862711310386657715e-01,-1.616356521844863892e-02,-1.034989729523658752e-01,-2.007396072149276733e-01,4.733700677752494812e-02,2.800630964338779449e-02,-1.179732903838157654e-01,-4.523443803191184998e-02,7.335571944713592529e-02,1.287163496017456055e-01,1.071296259760856628e-01,-7.309326436370611191e-03,-2.174661681056022644e-02,9.106326103210449219e-02,1.129005700349807739e-01
-9.479954838752746582e-02,-4.496947303414344788e-02,-2.543706679716706276e-03,-6.252902001142501831e-02,2.966801449656486511e-02,4.847659915685653687e-02,-6.120530888438224792e-02,-1.618522405624389648e-01,-1.256408989429473877e-01,1.569319218397140503e-01,-1.781543940305709839e-01,1.568607240915298462e-02,4.757041856646537781e-02,-1.095879450440406799e-01,-8.292700164020061493e-03,1.479846984148025513e-01,-1.698119938373565674e-01,1.440757978707551956e-02,-2.695253491401672363e-01,1.534118652343750000e-01,-1.031311154365539551e-01,1.352912336587905884e-01,3.829374536871910095e-02,6.921920180320739746e-02,1.520135998725891113e-01,7.773168385028839111e-02,-4.797796532511711121e-02,1.318888515233993530e-01,-2.198593914508819580e-01,-2.272208780050277710e-02,3.230203688144683838e-02,-8.535082451999187469e-03,5.735323578119277954e-02,-2.374676167964935303e-01,-1.321495026350021362e-01,1.117962971329689026e-01,6.314562261104583740e-02,-4.029205068945884705e-02,2.643783986568450928e-01,1.205440834164619446e-01,-4.388625547289848328e-02,-2.413013279438018799e-01,-2.257688194513320923e-01,6.930196285247802734e-02,2.086690962314605713e-01,-1.446734666824340820e-01,8.356234431266784668e-02,1.481973379850387573e-01,-1.983656361699104309e-02,7.803603261709213257e-02,8.231062442064285278e-02,2.313338220119476318e-02,9.120018035173416138e-02,1.845611631870269775e-01,-9.264079481363296509e-02,-2.183881402015686035e-02,-1.474774628877639771e-01,6.063335761427879333e-02,-2.330144494771957397e-01,-3.095714747905731201e-01,1.379942707717418671e-02,-9.846842288970947266e-02,-6.045186519622802734e-02,6.179749220609664917e-02,-1.726502086967229843e-03,6.826528161764144897e-02,1.364993304014205933e-01,-1.051037833094596863e-01,1.385796070098876953e-01,1.351397931575775146e-01,1.752274036407470703e-01,4.421408101916313171e-02,1.372697204351425171e-01,-1.642564535140991211e-01,4.130415618419647217e-03,-1.985898613929748535e-01,1.026377454400062561e-02,5.881594866514205933e-02,-1.656390726566314697e-01,2.705839872360229492e-01,4.009970463812351227e-03,-8.616231381893157959e-02,-1.003127396106719971e-01,-6.451487541198730469e-02,-5.933626741170883179e-02,6.784505397081375122e-02,-9.032393991947174072e-02,-1.969083249568939209e-01,-7.285044342279434204e-02,7.116517424583435059e-02,-4.601305723190307617e-02,-2.667523324489593506e-01,9.881447255611419678e-02,-1.174465119838714600e-01,-2.184651792049407959e-02,2.916195802390575409e-02,-1.184842139482498169e-01,4.107546061277389526e-02,5.059008300304412842e-02,1.008494049310684204e-01,-1.819325610995292664e-02,6.461863219738006592e-02,2.345692366361618042e-02,-4.227124154567718506e-02,-4.591645300388336182e-02,1.303201615810394287e-01,4.041188955307006836e-02,2.190153487026691437e-02,9.436444938182830811e-02,-2.756327390670776367e-02,5.228758603334426880e-02,-2.533297613263130188e-02,-1.003979742527008057e-01,-2.661062777042388916e-01,5.783856846392154694e-03,1.318101286888122559e-01,-9.484250098466873169e-02,1.467479467391967773e-01,-1.238888036459684372e-02,-7.017540931701660156e-02,-1.540440320968627930e-01,1.533590406179428101e-01,1.308777034282684326e-01,-1.437835162505507469e-03,-1.443569175899028778e-02,-2.096436545252799988e-02,3.955537918955087662e-03,-9.201871603727340698e-02,-2.109543420374393463e-02,1.173172220587730408e-01,-6.588456034660339355e-02,2.162864804267883301e-02,-5.441297218203544617e-02,1.103450283408164978e-01,1.154573187232017517e-01,-1.808220148086547852e-02,-4.878151230514049530e-03,6.820358335971832275e-02,1.768787577748298645e-02,1.042474880814552307e-01,5.455504730343818665e-02,-1.708599478006362915e-01,2.629820406436920166e-01,7.390380650758743286e-02,9.977515786886215210e-02,-1.249392479658126831e-01,4.157021269202232361e-02,1.372566074132919312e-02,-2.241558022797107697e-02,1.050099171698093414e-02,6.144040450453758240e-02,-1.185574084520339966e-01,4.413978382945060730e-02,2.658426165580749512e-01,7.020170241594314575e-02,2.968258596956729889e-02,5.234762281179428101e-02,8.430492132902145386e-02,-1.557059213519096375e-02,-8.984393626451492310e-02,1.330030113458633423e-01,6.234496459364891052e-02,2.786260657012462616e-02,1.083812862634658813e-01,3.868805170059204102e-01,8.384817093610763550e-02,1.143827475607395172e-02,-1.474171280860900879e-01,-7.243192940950393677e-02,1.797443181276321411e-01,-6.177205219864845276e-02,2.462221831083297729e-01,5.540179461240768433e-02,1.109946742653846741e-01,-8.137281239032745361e-02,6.984501332044601440e-02,-9.694828093051910400e-02,5.340550467371940613e-02,-1.889422833919525146e-01,1.704124659299850464e-01,1.022605597972869873e-02,-2.535223029553890228e-02,-4.132523667067289352e-03,-4.422160610556602478e-02,-2.043679952621459961e-01,7.916553318500518799e-02,2.054913491010665894e-01,7.234829664230346680e-02,5.236322060227394104e-03,-1.467345952987670898e-01,7.997103035449981689e-02,-1.955155432224273682e-01,-9.839158505201339722e-03,7.930794358253479004e-02,1.648969575762748718e-02,-2.144737839698791504e-01,-2.136499732732772827e-01,1.200028508901596069e-02,1.784856319427490234e-01,-1.035664379596710205e-01
-9.840874373912811279e-02,-4.511469230055809021e-02,-3.274608030915260315e-02,1.320956740528345108e-02,7.718651741743087769e-02,-4.992920160293579102e-02,2.490538917481899261e-02,3.781356289982795715e-02,-4.344973713159561157e-02,1.014621742069721222e-02,-6.524813175201416016e-02,2.290472574532032013e-02,-1.480336952954530716e-02,-4.530150908976793289e-04,-1.455068122595548630e-02,5.946238711476325989e-02,-6.658349186182022095e-02,-7.907138788141310215e-04,-1.080980524420738220e-01,8.367127925157546997e-02,-1.184014901518821716e-01,1.145525947213172913e-01,8.694426715373992920e-02,-1.038214191794395447e-01,9.354413300752639771e-02,-7.530083507299423218e-02,1.346293929964303970e-02,6.733682751655578613e-02,-5.756903067231178284e-02,9.870987385511398315e-02,4.210024327039718628e-02,1.346972286701202393e-01,6.294649094343185425e-02,-3.007081337273120880e-02,1.068298295140266418e-01,8.402790874242782593e-02,4.719558730721473694e-02,1.121689975261688232e-01,2.341778874397277832e-01,2.675333060324192047e-02,1.692345738410949707e-02,-2.382835000753402710e-02,-2.477983012795448303e-02,1.802206337451934814e-01,1.995221227407455444e-01,-3.177069872617721558e-02,-9.256728738546371460e-02,-7.414056360721588135e-02,7.284238189458847046e-02,-1.236969903111457825e-01,-1.010105200111865997e-02,-9.185285121202468872e-02,9.915757924318313599e-02,2.530752681195735931e-02,-2.722939662635326385e-02,7.626070082187652588e-02,-1.395598868839442730e-03,1.919133029878139496e-02,-9.795691817998886108e-02,-7.658959180116653442e-02,-1.963691040873527527e-02,-1.312817037105560303e-01,-4.056026414036750793e-02,1.955480873584747314e-01,1.103014051914215088e-01,5.684372503310441971e-03,1.318994164466857910e-01,-1.049300506711006165e-01,1.253856867551803589e-01,1.255178302526473999e-01,1.893031001091003418e-01,-2.256444841623306274e-02,1.869755685329437256e-01,-1.716617122292518616e-02,1.424949020147323608e-01,-1.714414656162261963e-01,6.813960522413253784e-02,9.789506345987319946e-02,-3.322891518473625183e-02,2.733305096626281738e-01,5.849935580044984818e-03,3.648548573255538940e-02,-1.278488487005233765e-01,1.193441171199083328e-02,-8.052311837673187256e-02,1.307667195796966553e-01,4.640273749828338623e-02,-4.919169098138809204e-02,-2.310147881507873535e-02,1.589937657117843628e-01,-9.678221493959426880e-02,9.897632524371147156e-03,5.006597191095352173e-02,8.333612233400344849e-02,1.425659358501434326e-01,3.576781228184700012e-02,-2.799332328140735626e-02,-1.372137293219566345e-02,4.412050358951091766e-03,8.781207352876663208e-02,7.658541947603225708e-02,4.891854897141456604e-02,-1.208386868238449097e-01,1.410832703113555908e-01,7.302813231945037842e-02,5.882105603814125061e-02,1.228926628828048706e-01,8.922360837459564209e-02,4.628628864884376526e-02,9.108325839042663574e-02,1.127901524305343628e-01,-1.042299717664718628e-02,1.912195049226284027e-02,-4.506887868046760559e-02,8.535376191139221191e-02,-3.409589454531669617e-02,5.730330571532249451e-02,-2.796579897403717041e-02,2.438767999410629272e-02,5.481228977441787720e-02,1.666509546339511871e-02,6.688479334115982056e-02,1.032195687294006348e-01,1.016950979828834534e-01,-5.083697289228439331e-02,2.907672710716724396e-02,-1.519441157579421997e-01,-1.085272803902626038e-01,-3.761463239789009094e-02,7.460442930459976196e-02,4.863514751195907593e-02,7.113929837942123413e-02,9.324380196630954742e-03,3.968044742941856384e-02,3.350520506501197815e-03,-4.398491233587265015e-02,-1.157838180661201477e-01,7.046565413475036621e-02,-4.567918553948402405e-02,1.320790499448776245e-01,1.800059080123901367e-01,-9.551788866519927979e-02,9.362649172544479370e-02,2.605399303138256073e-02,1.022446602582931519e-01,-1.262784153223037720e-01,5.932821333408355713e-02,-6.325702648609876633e-03,-7.759045809507369995e-02,7.504132390022277832e-02,1.220034956932067871e-01,-7.596196234226226807e-02,1.249436940997838974e-02,1.403679884970188141e-02,-4.465072602033615112e-02,-7.394628226757049561e-02,5.112317204475402832e-02,5.192220956087112427e-02,-4.247552156448364258e-02,5.646954476833343506e-02,-5.044877529144287109e-02,8.252802491188049316e-02,3.887302801012992859e-02,5.946868285536766052e-02,1.264393180608749390e-01,4.188469424843788147e-02,8.561492711305618286e-02,-5.839415267109870911e-02,-2.540923422202467918e-03,1.497501432895660400e-01,-2.453813329339027405e-02,8.148930221796035767e-02,1.031014919281005859e-01,8.353396505117416382e-02,-6.252877414226531982e-02,-7.671423256397247314e-02,7.872745394706726074e-02,9.399157017469406128e-02,-5.718206614255905151e-02,6.057384237647056580e-02,-1.278726458549499512e-01,5.179179087281227112e-02,-1.125550046563148499e-01,7.880333811044692993e-02,-2.203232422471046448e-02,1.850196868181228638e-01,7.493373006582260132e-02,1.447847932577133179e-01,-8.695168420672416687e-03,1.213397365063428879e-02,1.166952550411224365e-01,-1.010209545493125916e-01,2.177590131759643555e-02,1.558174639940261841e-01,-1.430316828191280365e-02,-7.919158041477203369e-02,-1.944172568619251251e-02,-4.302421212196350098e-02,6.740495096892118454e-03,7.300368696451187134e-02
3.676907718181610107e-02,8.052417635917663574e-02,1.371539533138275146e-01,3.322799131274223328e-02,6.541118770837783813e-02,-2.067188471555709839e-01,3.492598980665206909e-02,3.786623477935791016e-03,-3.458037227392196655e-02,-1.099411919713020325e-01,9.985706955194473267e-02,-9.637774899601936340e-03,2.377095222473144531e-01,3.733391687273979187e-02,-3.951877653598785400e-01,-9.081178344786167145e-03,5.411211401224136353e-02,5.847069248557090759e-02,1.384466737508773804e-01,-1.006519198417663574e-01,1.050572097301483154e-01,-8.778379112482070923e-02,1.752572208642959595e-01,1.827910542488098145e-01,-2.166038453578948975e-01,1.259038150310516357e-01,-2.846882939338684082e-01,-2.030507177114486694e-01,9.775750339031219482e-02,8.447586558759212494e-03,7.079862058162689209e-02,1.058804765343666077e-01,1.151508316397666931e-01,1.444525122642517090e-01,1.039735153317451477e-01,6.773101538419723511e-02,7.803152501583099365e-02,7.902573049068450928e-02,2.189904153347015381e-01,-1.563540697097778320e-01,4.113389551639556885e-02,7.149395067244768143e-03,1.013874113559722900e-01,-1.323400437831878662e-01,-1.288772444240748882e-03,3.092111647129058838e-02,1.733384430408477783e-01,-3.986080735921859741e-02,1.049600616097450256e-01,-1.463395208120346069e-01,-1.425351500511169434e-01,-1.559468638151884079e-02,-2.475850731134414673e-01,-2.800356782972812653e-02,8.772765100002288818e-02,-3.441709578037261963e-01,9.284724481403827667e-03,-6.792411953210830688e-02,-8.008794486522674561e-02,-2.130627818405628204e-02,1.651136577129364014e-02,6.394864618778228760e-02,-1.928422003984451294e-01,-5.104644224047660828e-02,8.629320561885833740e-02,1.092085167765617371e-01,-9.397662431001663208e-02,1.196398437023162842e-01,1.785253584384918213e-01,-1.087901461869478226e-02,9.196481853723526001e-02,-5.122832953929901123e-02,-2.965392172336578369e-01,6.395605206489562988e-02,1.455788314342498779e-01,-1.926187127828598022e-01,-1.390127241611480713e-01,3.221223875880241394e-02,1.037894040346145630e-01,-8.444810518994927406e-04,-3.426428884267807007e-02,-1.542134676128625870e-02,4.673878848552703857e-02,-4.928665757179260254e-01,-6.823700666427612305e-02,3.704988583922386169e-02,3.291122242808341980e-02,1.311239153146743774e-01,-6.087309867143630981e-02,4.038884304463863373e-03,-7.115629315376281738e-02,1.664458587765693665e-02,-2.518237568438053131e-02,1.251876205205917358e-01,5.958182737231254578e-02,4.064645990729331970e-02,-4.816171154379844666e-02,-3.175733610987663269e-02,-1.988422423601150513e-01,6.840534508228302002e-02,5.187425017356872559e-02,-2.160659879446029663e-01,-1.019259989261627197e-01,5.215752869844436646e-02,2.895379252731800079e-02,8.955669403076171875e-02,1.960037201642990112e-01,6.403059512376785278e-02,1.261965781450271606e-01,-1.199210956692695618e-01,8.832255005836486816e-02,-2.346427924931049347e-02,-1.651363372802734375e-01,7.178895920515060425e-02,9.458662569522857666e-02,6.932622939348220825e-02,-4.525697827339172363e-01,-9.587055444717407227e-02,-2.610895633697509766e-01,1.372050214558839798e-02,-1.909161731600761414e-02,-2.206332832574844360e-01,5.335905551910400391e-01,-1.366056203842163086e-01,8.611212484538555145e-03,-7.950896024703979492e-02,-2.431520447134971619e-02,8.694697916507720947e-02,-3.974993899464607239e-02,-1.681329160928726196e-01,5.499098449945449829e-02,1.391890738159418106e-02,2.217517048120498657e-02,1.283802688121795654e-01,8.218670263886451721e-04,2.118856273591518402e-02,3.336208872497081757e-03,4.055946320295333862e-02,5.248101800680160522e-02,-2.046716660261154175e-01,-5.753493309020996094e-01,1.150462627410888672e-01,1.931511014699935913e-01,1.288551539182662964e-01,5.403162539005279541e-02,6.490928679704666138e-02,-5.596512183547019958e-02,-1.904660090804100037e-02,9.473105520009994507e-02,5.199276283383369446e-02,-7.802259176969528198e-02,1.194321066141128540e-01,1.428061574697494507e-01,1.824454031884670258e-02,1.328811645507812500e-01,-3.265205770730972290e-02,-2.061484381556510925e-02,-1.842838525772094727e-01,-1.315248459577560425e-01,8.945803344249725342e-02,7.179365307092666626e-02,-5.985724180936813354e-02,1.036374568939208984e-01,-1.194190457463264465e-01,4.675890803337097168e-01,2.065913053229451180e-03,7.231904566287994385e-02,1.329404264688491821e-01,-1.584229245781898499e-02,-2.383869700133800507e-02,-2.418307214975357056e-01,-2.235372364521026611e-02,-2.096025049686431885e-01,-6.506952643394470215e-02,-4.174360632896423340e-02,1.983228512108325958e-02,6.280025467276573181e-03,-6.431451439857482910e-02,-1.012688875198364258e-02,-1.647498607635498047e-01,-7.591757178306579590e-02,-1.710763759911060333e-02,7.211461663246154785e-03,-3.518697917461395264e-01,7.365432381629943848e-02,-2.900235652923583984e-01,-8.208229392766952515e-02,-3.185186907649040222e-02,-3.352038562297821045e-02,4.119396582245826721e-02,3.587249517440795898e-01,3.192556276917457581e-02,7.250855118036270142e-02,4.727213084697723389e-02,-1.761595457792282104e-01,5.626531317830085754e-02,8.482982963323593140e-02,-4.479448124766349792e-02,8.407491445541381836e-02,-4.470977932214736938e-03
3.532824665307998657e-02,7.528289407491683960e-02,1.239456310868263245e-01,4.389198031276464462e-03,-2.120983973145484924e-02,1.078375205397605896e-01,-2.451184689998626709e-01,1.490137912333011627e-02,9.496320784091949463e-02,1.495533436536788940e-01,-1.452135760337114334e-02,-5.286277458071708679e-02,-2.709174761548638344e-03,-1.968926563858985901e-02,-1.181294396519660950e-01,-2.424023002386093140e-01,-1.655402965843677521e-02,4.929484054446220398e-02,-9.643602371215820312e-02,5.429478827863931656e-03,7.455559680238366127e-04,6.319067627191543579e-02,8.876730501651763916e-02,-1.136163249611854553e-01,-1.650661043822765350e-02,7.854975759983062744e-02,-3.349367529153823853e-02,6.362400203943252563e-02,-1.752807796001434326e-01,-8.817844837903976440e-02,-1.908871084451675415e-01,-6.727512925863265991e-02,5.679533630609512329e-02,-1.807515025138854980e-01,-1.244126334786415100e-01,-1.228507328778505325e-02,1.118492409586906433e-01,4.872407298535108566e-03,9.826367348432540894e-02,4.372587054967880249e-02,5.195800913497805595e-04,-1.221222579479217529e-01,-1.777350753545761108e-01,6.507565081119537354e-02,9.946969151496887207e-02,2.396062016487121582e-02,1.399818211793899536e-01,-1.529185324907302856e-01,3.524681553244590759e-02,-1.193710416555404663e-01,1.552659422159194946e-01,3.459883620962500572e-03,1.071139201521873474e-01,1.475450992584228516e-01,5.018523335456848145e-02,6.709467619657516479e-02,-7.449219934642314911e-03,-2.429735288023948669e-02,8.547224104404449463e-02,-2.371663600206375122e-01,-7.503643631935119629e-02,1.259984076023101807e-01,-1.084103509783744812e-01,5.106979608535766602e-02,-9.207579493522644043e-02,4.134285077452659607e-02,-1.892489045858383179e-01,-1.713815331459045410e-02,-7.968961261212825775e-03,3.104838170111179352e-02,-1.855943650007247925e-01,2.072575241327285767e-01,3.965140786021947861e-03,-1.788366734981536865e-01,5.299591924995183945e-03,-1.453126221895217896e-01,-1.378131508827209473e-01,3.059456124901771545e-02,-3.724014386534690857e-02,1.046240553259849548e-01,1.218009516596794128e-01,-4.312309622764587402e-02,4.177996143698692322e-02,-9.747203439474105835e-02,-5.811206623911857605e-02,8.591650426387786865e-02,4.919939860701560974e-02,5.844455212354660034e-03,3.316651657223701477e-02,-8.741979487240314484e-03,-3.211909905076026917e-02,-7.079699635505676270e-02,5.587848275899887085e-02,6.239388312678784132e-05,-9.978302568197250366e-02,8.643469214439392090e-02,-1.979606039822101593e-02,8.725561946630477905e-02,-1.880889385938644409e-01,6.087907589972019196e-03,-1.113415956497192383e-01,9.023615717887878418e-02,-1.094145700335502625e-01,1.155503466725349426e-01,-1.177096515893936157e-01,6.613072473555803299e-03,8.759666979312896729e-02,6.762211024761199951e-02,2.906684577465057373e-01,-1.701657623052597046e-01,3.654278349131345749e-03,6.201655417680740356e-02,1.696080714464187622e-02,-1.744803786277770996e-02,3.475973382592201233e-02,6.190901622176170349e-02,-1.901315897703170776e-01,1.507415026426315308e-01,5.761080607771873474e-02,-2.881096675992012024e-02,-6.193546578288078308e-03,2.281141281127929688e-02,2.016112655401229858e-01,3.404838219285011292e-02,-7.016677409410476685e-02,1.067264825105667114e-01,-1.406635195016860962e-01,-2.561056986451148987e-02,-3.729840368032455444e-02,3.832491487264633179e-02,8.521810919046401978e-02,5.510621145367622375e-02,-8.231858164072036743e-02,7.511673122644424438e-02,1.290039420127868652e-01,1.211033985018730164e-01,-4.579954594373703003e-02,-1.305419579148292542e-02,1.451020240783691406e-01,-2.365486510097980499e-02,-1.354837268590927124e-01,-2.597315236926078796e-02,4.473565518856048584e-01,6.589920818805694580e-02,-2.486876584589481354e-02,-1.695348136126995087e-02,8.349114656448364258e-02,5.548590049147605896e-02,-1.810855232179164886e-02,8.294755965471267700e-02,6.156229227781295776e-02,-9.434653446078300476e-03,4.705144837498664856e-02,4.307429790496826172e-01,1.729697920382022858e-02,-3.425551950931549072e-02,1.029049754142761230e-01,-3.819750249385833740e-02,1.751853972673416138e-01,-5.105628818273544312e-02,1.497965157032012939e-01,9.911654144525527954e-02,6.141330674290657043e-02,1.107621565461158752e-01,1.970159262418746948e-01,-8.555199950933456421e-02,5.259136855602264404e-02,-2.362492261454463005e-03,-1.007405854761600494e-02,5.049584060907363892e-02,-9.435434639453887939e-02,3.208843469619750977e-01,1.323473751544952393e-01,4.863508045673370361e-03,7.201545685529708862e-02,9.194912761449813843e-02,-1.912557184696197510e-01,1.150458455085754395e-01,-4.152262583374977112e-02,1.394712179899215698e-01,1.000273320823907852e-02,-2.344299554824829102e-01,-1.652620919048786163e-02,-2.984070479869842529e-01,-3.439288586378097534e-02,5.889878049492835999e-02,1.687028110027313232e-01,-6.331554614007472992e-03,6.567924469709396362e-02,-1.175603717565536499e-01,1.057184264063835144e-01,3.614469990134239197e-02,7.030694186687469482e-02,2.539614960551261902e-02,-1.738050766289234161e-02,-5.019819736480712891e-02,-9.765640646219253540e-02,-2.213935181498527527e-02,6.419184058904647827e-02,-5.687908083200454712e-02
6.642758101224899292e-02,2.042966522276401520e-02,-1.229037903249263763e-02,2.015522681176662445e-02,-6.881628930568695068e-02,6.316599994897842407e-02,-1.442899368703365326e-02,1.422527283430099487e-01,7.628580555319786072e-03,-1.336204446852207184e-02,7.518291473388671875e-02,-1.185487136244773865e-01,1.399613022804260254e-01,9.898652881383895874e-02,-5.127480253577232361e-02,-5.852529779076576233e-02,3.437323495745658875e-02,7.515607774257659912e-02,1.510634869337081909e-01,-2.997293137013912201e-02,4.353618249297142029e-02,1.663571447134017944e-01,6.084150075912475586e-02,3.993074297904968262e-01,-5.457113310694694519e-02,8.878801017999649048e-02,-6.508653983473777771e-03,-5.507344007492065430e-02,2.485705725848674774e-02,2.166655473411083221e-02,-1.665705442428588867e-01,-4.998400807380676270e-02,-3.995084762573242188e-02,-2.406608313322067261e-02,-3.705403208732604980e-02,-3.971768170595169067e-02,-6.885393708944320679e-02,8.634101599454879761e-02,3.861292451620101929e-02,-4.653450474143028259e-02,-1.144643351435661316e-01,1.012789905071258545e-01,8.183199167251586914e-02,6.214435771107673645e-02,1.949761435389518738e-02,6.973659992218017578e-02,1.742613613605499268e-01,4.843502938747406006e-01,-8.269572257995605469e-02,3.733343482017517090e-01,2.639572694897651672e-02,-8.130060136318206787e-02,4.206685721874237061e-02,5.134258046746253967e-02,1.536902971565723419e-02,-5.369829013943672180e-02,1.022495403885841370e-01,-2.706477418541908264e-02,1.616100966930389404e-01,1.140846908092498779e-01,-2.804431319236755371e-02,8.626498281955718994e-02,1.253381818532943726e-01,-1.155119240283966064e-01,-6.900300271809101105e-03,-4.349635541439056396e-02,-1.803630292415618896e-01,2.144045978784561157e-01,-6.339644640684127808e-02,1.473492756485939026e-02,-6.592275202274322510e-02,-8.172960579395294189e-02,-5.524824187159538269e-02,8.118268102407455444e-02,-4.291806742548942566e-02,1.365150958299636841e-01,-1.788184940814971924e-01,-9.494950622320175171e-02,-6.233028601855039597e-03,-9.764839708805084229e-02,9.980596601963043213e-02,1.419168245047330856e-02,8.277691900730133057e-02,-5.441430211067199707e-02,-1.015581190586090088e-01,-9.186429530382156372e-02,-5.692482739686965942e-02,3.615312278270721436e-02,-4.764918982982635498e-02,-9.728931821882724762e-03,1.565008610486984253e-01,2.364438213407993317e-02,-6.593231111764907837e-02,3.982971422374248505e-03,2.852005511522293091e-02,1.868622004985809326e-01,3.589269146323204041e-02,1.471326202154159546e-01,6.649235635995864868e-02,7.489615678787231445e-02,-6.486047059297561646e-02,-2.050869166851043701e-02,5.348242819309234619e-02,4.423989728093147278e-02,9.034235030412673950e-03,3.700023889541625977e-02,-1.457588076591491699e-01,6.576501578092575073e-02,-4.009900614619255066e-02,-1.108310967683792114e-01,1.008563563227653503e-01,-1.955901831388473511e-02,1.235049590468406677e-01,1.150401979684829712e-01,-7.681533694267272949e-02,-1.364266406744718552e-02,1.101989485323429108e-02,1.398024410009384155e-01,6.126549839973449707e-02,1.893269829452037811e-02,7.374659180641174316e-03,-4.652519896626472473e-02,1.733520813286304474e-02,1.205141190439462662e-02,3.495111688971519470e-02,-9.082219563424587250e-03,5.301730707287788391e-02,-1.565105095505714417e-02,1.217846870422363281e-01,1.461010985076427460e-02,5.637876689434051514e-02,-1.152286753058433533e-01,-4.841886926442384720e-03,-3.103299066424369812e-02,-1.782078295946121216e-01,1.393453329801559448e-01,4.660485312342643738e-02,-1.617166097275912762e-03,-4.343200102448463440e-02,-7.201247382909059525e-03,-3.606131300330162048e-02,7.667683809995651245e-02,1.634205877780914307e-01,3.982696682214736938e-02,2.660950832068920135e-02,2.621165104210376740e-02,3.814397146925330162e-03,1.763372272253036499e-01,-1.888094097375869751e-02,6.425825878977775574e-03,6.434353440999984741e-02,-4.462960362434387207e-02,-6.780893355607986450e-02,1.260442584753036499e-01,1.627997122704982758e-02,1.132899969816207886e-01,5.222571268677711487e-02,1.990916766226291656e-02,3.881326690316200256e-02,7.913457602262496948e-02,-3.493895754218101501e-02,-5.966932326555252075e-02,-4.684666916728019714e-02,4.914745222777128220e-03,2.227305173873901367e-01,-1.492197718471288681e-02,-4.253159835934638977e-02,7.422379404306411743e-02,5.813509225845336914e-02,-6.254879292100667953e-03,1.044945865869522095e-01,1.788043975830078125e-01,8.580168336629867554e-02,-9.440990537405014038e-02,1.716685295104980469e-01,1.728115081787109375e-01,9.039759635925292969e-03,-1.834256947040557861e-02,9.033705294132232666e-02,-3.004753030836582184e-02,2.354786172509193420e-02,-1.257760100997984409e-03,2.910243272781372070e-01,-2.724061906337738037e-01,6.724063307046890259e-02,-2.126708626747131348e-01,3.047401458024978638e-02,-8.923197537660598755e-02,-1.203256100416183472e-01,-1.323222275823354721e-02,-1.373713165521621704e-01,1.276425272226333618e-01,5.089243873953819275e-02,-3.535514324903488159e-02,2.671733796596527100e-01,1.240916326642036438e-01,7.013510167598724365e-02,3.205154463648796082e-02,1.747327893972396851e-01,2.829707600176334381e-02
