-3.579657524824142456e-02,1.357138752937316895e-01,-5.954860895872116089e-02,1.064797770231962204e-02,-5.877274670638144016e-04,-2.799102291464805603e-02,-3.636860474944114685e-02,-8.610685355961322784e-03,-4.740203171968460083e-02,9.413370490074157715e-02,8.888689428567886353e-02,-2.600276656448841095e-02,-7.633849512785673141e-03,1.268195062875747681e-01,-1.109992638230323792e-01,3.740715608000755310e-02,-5.005266144871711731e-02,6.646140664815902710e-02,3.939300030469894409e-02,1.494437921792268753e-02,6.758794188499450684e-02,1.368706766515970230e-02,-2.750823833048343658e-02,6.816032528877258301e-02,9.131272323429584503e-03,-4.457814246416091919e-02,2.703200839459896088e-02,-4.224559664726257324e-02,-1.928114704787731171e-02,7.620427757501602173e-02,-9.902404248714447021e-02,2.778532728552818298e-02,5.328164994716644287e-02,3.939122706651687622e-02,1.026600450277328491e-01,7.166883349418640137e-02,3.761497139930725098e-02,4.026444628834724426e-03,-6.601925194263458252e-02,9.024233557283878326e-03,2.632161788642406464e-02,-1.852866820991039276e-02,7.619185000658035278e-02,1.982847042381763458e-02,7.788392156362533569e-02,-9.026233106851577759e-02,-2.380922809243202209e-02,-3.285922482609748840e-02,-2.116674324497580528e-03,9.055034816265106201e-02,-2.523099631071090698e-02,4.296981543302536011e-02,6.175454705953598022e-03,2.884487435221672058e-02,-5.023692175745964050e-02,5.617749691009521484e-02,1.001426950097084045e-02,-4.585709422826766968e-03,2.413718588650226593e-02,9.078896045684814453e-02,-1.555806025862693787e-02,6.210954114794731140e-02,1.729373633861541748e-01,1.218079403042793274e-02,8.117987215518951416e-02,2.790421014651656151e-03,1.535267233848571777e-01,-8.272681385278701782e-02,-6.377911567687988281e-02,2.035929262638092041e-02,-6.275086104869842529e-02,4.802627861499786377e-02,5.048979073762893677e-02,2.140951342880725861e-02,-1.458836370147764683e-03,1.039923354983329773e-02,-3.236348181962966919e-02,8.434234559535980225e-02,5.917096883058547974e-02,-1.217071115970611572e-01,-5.782436951994895935e-02,-2.885941974818706512e-02,9.664092212915420532e-02,8.997258730232715607e-03,6.808181852102279663e-02,2.532987296581268311e-02,4.636276140809059143e-02,6.207270175218582153e-02,6.023284047842025757e-02,8.126793429255485535e-03,4.976997897028923035e-02,7.799995690584182739e-02,-1.688436791300773621e-02,-1.868382841348648071e-02,6.188163533806800842e-02,-8.300538174808025360e-03,1.367524266242980957e-01,4.188844561576843262e-02,1.300390157848596573e-02,7.414972782135009766e-02
6.454529706388711929e-03,-2.685528993606567383e-01,-2.923973798751831055e-01,-1.055827289819717407e-01,-6.491755135357379913e-03,-2.747401362285017967e-03,-1.054597571492195129e-01,-8.201207965612411499e-03,1.617416739463806152e-02,-1.308632045984268188e-01,1.225779429078102112e-01,3.836082294583320618e-02,-4.143872484564781189e-02,-1.841412484645843506e-01,-3.384806215763092041e-01,5.921590328216552734e-02,2.225892432034015656e-02,-2.265727072954177856e-01,7.591333985328674316e-02,1.662310063838958740e-01,-2.626537084579467773e-01,-2.129921466112136841e-01,-4.128225520253181458e-02,6.427445262670516968e-02,7.187326997518539429e-02,-1.063998788595199585e-01,2.319882996380329132e-02,-5.223783105611801147e-02,-3.068746626377105713e-02,6.408688426017761230e-02,1.100909896194934845e-02,-6.747709214687347412e-02,-8.942069858312606812e-02,1.120688542723655701e-01,-3.833745047450065613e-02,1.208311915397644043e-01,8.768216520547866821e-02,-6.031009554862976074e-02,1.138777565211057663e-02,-1.774529516696929932e-01,8.008429408073425293e-02,4.178069159388542175e-02,-7.649140805006027222e-02,6.684534251689910889e-02,-8.301986753940582275e-02,-8.718032389879226685e-02,4.812146723270416260e-02,-1.718516647815704346e-01,7.521770149469375610e-02,-2.111919522285461426e-01,1.940222531557083130e-01,-8.863634429872035980e-03,1.550757512450218201e-02,-4.566795006394386292e-02,-3.079687952995300293e-01,9.569703042507171631e-02,8.545176126062870026e-03,8.768501877784729004e-02,1.095045059919357300e-01,1.771782897412776947e-02,1.644929870963096619e-02,1.204360574483871460e-01,-1.093712896108627319e-01,1.398365944623947144e-02,-1.445108801126480103e-01,-2.427559047937393188e-01,-2.619948685169219971e-01,-6.390216946601867676e-02,1.186483278870582581e-01,4.638646915555000305e-02,-4.193889498710632324e-01,-1.284752786159515381e-02,-8.577118068933486938e-02,-2.491637319326400757e-01,-2.443908154964447021e-02,-1.590104699134826660e-01,-3.229186683893203735e-02,2.836480922996997833e-02,-1.210433095693588257e-01,-8.717450499534606934e-02,-3.146557211875915527e-01,1.342418510466814041e-02,-2.309467047452926636e-01,-1.950758993625640869e-01,4.016381874680519104e-02,-3.983492404222488403e-02,-1.329471319913864136e-01,-3.236782550811767578e-02,1.042166873812675476e-01,-4.203989356756210327e-02,-5.342556163668632507e-02,-5.761460959911346436e-02,7.278051227331161499e-02,6.654186546802520752e-02,1.046633645892143250e-01,-2.001324743032455444e-01,3.751353919506072998e-02,-3.976347446441650391e-01,-2.226376347243785858e-02,6.348985433578491211e-02
4.413479194045066833e-02,-5.676011443138122559e-01,4.717980697751045227e-02,2.608933299779891968e-02,-6.686663627624511719e-02,-6.361760199069976807e-02,-2.709117718040943146e-02,-5.876096338033676147e-02,1.327383331954479218e-02,-3.771772980690002441e-01,9.418871998786926270e-02,7.550867646932601929e-02,1.277242600917816162e-01,-1.233085840940475464e-01,-7.499443739652633667e-02,-1.360980514436960220e-02,-2.081855088472366333e-01,-2.283834666013717651e-01,-9.979539364576339722e-02,-4.845861345529556274e-02,-4.092384502291679382e-02,2.724946290254592896e-02,-1.042933389544487000e-01,-5.121591687202453613e-02,-6.051791459321975708e-02,-1.569954305887222290e-02,-1.080058794468641281e-02,4.433937743306159973e-02,2.693501487374305725e-02,7.968452572822570801e-02,1.434407681226730347e-01,1.194212883710861206e-01,1.291805803775787354e-01,1.292235255241394043e-01,9.691374003887176514e-02,7.522048801183700562e-02,4.266356676816940308e-02,2.754884026944637299e-02,1.138689890503883362e-01,-5.548905134201049805e-01,-6.891713291406631470e-02,-5.061207339167594910e-02,-2.100808024406433105e-01,3.778906166553497314e-02,1.250475943088531494e-01,1.058614253997802734e-01,-1.339887967333197594e-03,-4.623055160045623779e-01,-2.974136173725128174e-01,-8.690266311168670654e-02,-1.712123006582260132e-01,3.725239634513854980e-02,-2.850785292685031891e-02,1.202662736177444458e-01,-6.158213317394256592e-02,9.595014899969100952e-02,7.712585479021072388e-02,1.063271015882492065e-01,-7.223272696137428284e-03,3.092301264405250549e-02,7.081559859216213226e-03,7.694119215011596680e-02,-5.989153385162353516e-01,1.419942975044250488e-01,-7.876849919557571411e-02,-4.860210791230201721e-02,-1.243247687816619873e-01,1.094191372394561768e-01,3.628030046820640564e-02,-1.175037994980812073e-01,1.518553495407104492e-01,4.375216551125049591e-03,-6.004104763269424438e-02,-3.641567826271057129e-01,-1.250346302986145020e-01,1.911778151988983154e-01,-7.347211241722106934e-02,-3.452758491039276123e-02,-2.423658668994903564e-01,2.372675836086273193e-01,-1.199527680873870850e-01,5.729086697101593018e-02,-3.483394086360931396e-01,-3.615548312664031982e-01,-1.284487545490264893e-01,-2.825610712170600891e-02,3.594301640987396240e-02,-1.744093745946884155e-02,1.635953485965728760e-01,2.319244593381881714e-01,7.874166220426559448e-02,1.373685747385025024e-01,1.054208651185035706e-01,6.148668751120567322e-02,-5.563595890998840332e-02,3.690053243190050125e-03,-4.139505699276924133e-02,2.397366985678672791e-02,-6.600500643253326416e-02,5.695344880223274231e-02
-6.137077882885932922e-02,1.620755493640899658e-01,-1.419935077428817749e-01,-1.592211872339248657e-01,-1.254979223012924194e-01,5.105939134955406189e-02,1.934961378574371338e-01,-5.440709739923477173e-02,-3.841958194971084595e-02,1.486910134553909302e-01,-3.911906182765960693e-01,1.327527035027742386e-02,-2.119197845458984375e-01,-7.654317468404769897e-02,3.351412340998649597e-02,-3.657279610633850098e-01,-8.332858234643936157e-02,1.893526315689086914e-01,1.204683259129524231e-01,-4.310318529605865479e-01,2.246504276990890503e-01,1.612699031829833984e-01,1.567586511373519897e-01,3.338801860809326172e-02,1.172935068607330322e-01,8.108419179916381836e-02,-2.565676569938659668e-01,-1.258498728275299072e-01,-1.404092460870742798e-01,-2.783878445625305176e-01,1.282350122928619385e-01,-5.354748368263244629e-01,-2.728982083499431610e-02,-2.180276066064834595e-01,-5.014237761497497559e-01,-1.849069595336914062e-01,-2.396456152200698853e-01,9.972605854272842407e-02,-1.682805083692073822e-02,2.343225926160812378e-01,-9.576067328453063965e-02,9.108746796846389771e-02,1.696892976760864258e-01,1.725135594606399536e-01,-3.650231063365936279e-01,3.345125820487737656e-03,6.078754551708698273e-03,1.905763000249862671e-01,4.034463316202163696e-02,2.010374069213867188e-01,1.151617467403411865e-01,-2.417253702878952026e-01,-1.787926703691482544e-01,-1.012248247861862183e-01,-2.407952845096588135e-01,2.270088344812393188e-01,-2.827475368976593018e-01,-1.558605730533599854e-01,-2.604227364063262939e-01,-1.636690944433212280e-01,-1.615715026855468750e-01,1.448524743318557739e-01,2.003813236951828003e-01,-2.392153888940811157e-01,5.655703600496053696e-03,-3.102761507034301758e-01,-3.497034013271331787e-01,-9.731262922286987305e-02,-2.111717462539672852e-01,-4.560565575957298279e-02,-2.690428495407104492e-01,-7.985621690750122070e-03,8.201179653406143188e-02,2.190560251474380493e-01,-3.016307950019836426e-01,5.476611480116844177e-02,1.214062049984931946e-01,-3.684228956699371338e-01,1.739556491374969482e-01,-1.667459607124328613e-01,-2.937985658645629883e-01,-1.680282801389694214e-01,1.290537565946578979e-01,3.331509977579116821e-02,-1.150313690304756165e-01,-3.536975383758544922e-02,1.434216350317001343e-01,-1.962380707263946533e-01,7.525193691253662109e-02,-6.586133688688278198e-02,1.638318598270416260e-02,1.571855843067169189e-01,9.517834335565567017e-02,-4.435456693172454834e-01,1.123888343572616577e-01,1.243708133697509766e-01,6.205094233155250549e-02,-2.252667993307113647e-01,-2.371238917112350464e-02,-1.429846584796905518e-01
-5.827887728810310364e-02,-2.367285490036010742e-01,2.307687699794769287e-01,-1.327481865882873535e-01,-6.096549704670906067e-02,-9.542860090732574463e-02,2.201500385999679565e-01,-2.171969711780548096e-01,-1.321579515933990479e-01,1.335287094116210938e-01,-2.647530287504196167e-02,-6.748197972774505615e-02,-4.884083941578865051e-02,1.496658325195312500e-01,1.480128914117813110e-01,5.906414613127708435e-02,2.503735125064849854e-01,-2.177370786666870117e-01,-2.008213847875595093e-02,3.916238434612751007e-03,-1.106492360122501850e-03,2.633848190307617188e-01,2.221652567386627197e-01,1.492101401090621948e-01,-2.360649108886718750e-01,-6.330811418592929840e-03,-2.659006714820861816e-01,-1.814371198415756226e-01,-3.437518477439880371e-01,-2.428243905305862427e-01,3.569653034210205078e-01,3.916781023144721985e-02,6.837717443704605103e-02,-3.365085721015930176e-01,-1.427999436855316162e-01,3.074207156896591187e-02,6.007264554500579834e-02,-2.275511249899864197e-02,-1.088503748178482056e-01,1.448427885770797729e-01,-1.865411400794982910e-01,1.427517086267471313e-02,2.043159306049346924e-01,-3.543365746736526489e-02,-1.458127144724130630e-02,5.698255822062492371e-02,-1.496200710535049438e-01,2.747181653976440430e-01,8.031578361988067627e-02,5.895362421870231628e-02,-4.177122190594673157e-02,-2.122515439987182617e-01,5.760044232010841370e-02,1.640967726707458496e-01,1.941796094179153442e-01,2.701411843299865723e-01,-2.304346561431884766e-01,8.370088413357734680e-03,-8.464936912059783936e-02,3.991885855793952942e-02,-1.629672497510910034e-01,-2.246321886777877808e-01,-2.299351245164871216e-02,1.559895873069763184e-01,-4.037820696830749512e-01,2.256690263748168945e-01,1.736612021923065186e-01,1.141246780753135681e-01,-7.459706068038940430e-02,8.633014559745788574e-02,6.898333877325057983e-02,-2.673595547676086426e-01,1.071195974946022034e-01,2.195143550634384155e-01,-5.329762101173400879e-01,1.430581510066986084e-01,2.343982160091400146e-01,-2.184141799807548523e-02,-9.840546175837516785e-03,1.009836569428443909e-01,1.624381542205810547e-01,-1.090907528996467590e-01,-3.437997400760650635e-01,3.860365599393844604e-02,4.517960846424102783e-01,-1.887387633323669434e-01,7.855316996574401855e-02,1.671145558357238770e-01,-3.232014477252960205e-01,2.196103185415267944e-01,-2.360844053328037262e-02,3.486486971378326416e-01,6.728627532720565796e-02,1.226292699575424194e-01,-1.886712163686752319e-01,1.718172281980514526e-01,-1.630701571702957153e-01,1.481766998767852783e-01,-4.957752302289009094e-02,-2.606122493743896484e-01
-4.721867740154266357e-01,8.590197563171386719e-02,-9.827962517738342285e-02,-1.481326073408126831e-01,-1.165473274886608124e-02,1.588801890611648560e-01,1.558766961097717285e-01,-1.206514835357666016e-01,-5.770668387413024902e-02,2.425139304250478745e-03,-8.730320632457733154e-02,-3.156280517578125000e-01,-8.074463158845901489e-02,-4.337065666913986206e-02,-8.795091509819030762e-02,-2.867353260517120361e-01,-3.062159754335880280e-02,-8.926439285278320312e-02,4.008644074201583862e-02,-3.433693945407867432e-01,-2.518038451671600342e-01,8.908363431692123413e-02,3.737207502126693726e-02,-6.338757276535034180e-02,-1.103402152657508850e-01,-3.323797509074211121e-02,4.498156905174255371e-02,-9.878775477409362793e-02,-2.149791456758975983e-02,-1.115138456225395203e-01,-5.549431964755058289e-02,-3.078139424324035645e-01,-3.131258487701416016e-01,-1.983399502933025360e-02,-1.509559452533721924e-01,-2.390049248933792114e-01,-3.789912760257720947e-01,7.583872973918914795e-02,-1.166035979986190796e-01,5.466558411717414856e-02,-1.411828547716140747e-01,5.318614467978477478e-02,-8.884577453136444092e-02,-2.913136407732963562e-02,-2.981729805469512939e-01,-2.701654434204101562e-01,1.669071987271308899e-02,-1.692117601633071899e-01,7.673946768045425415e-02,1.333760917186737061e-01,2.445859163999557495e-01,2.901576808653771877e-04,-2.068984508514404297e-01,-3.112513758242130280e-02,-2.420022040605545044e-01,6.654479354619979858e-02,-2.658173739910125732e-01,-3.910242319107055664e-01,-3.536054491996765137e-01,-1.166773512959480286e-01,3.914075344800949097e-02,6.973962765187025070e-03,-1.096652299165725708e-01,-5.359373614192008972e-02,-2.600373700261116028e-02,8.848906494677066803e-03,-2.523951828479766846e-01,-2.739312350749969482e-01,-7.745196670293807983e-02,3.609440475702285767e-02,-3.468108922243118286e-02,-9.194435924291610718e-02,-6.846753507852554321e-02,-6.052960827946662903e-02,-2.030606120824813843e-01,3.043239004909992218e-02,4.210376366972923279e-02,-2.951044440269470215e-01,1.465305238962173462e-01,-2.150964289903640747e-01,-1.873515546321868896e-01,-1.380777508020401001e-01,-1.196188554167747498e-01,5.326876882463693619e-03,1.179011762142181396e-01,1.066372767090797424e-01,-1.232550740242004395e-01,-2.284068912267684937e-01,5.826621502637863159e-02,-1.390100866556167603e-01,-3.973564207553863525e-01,-4.009081423282623291e-02,-1.638724058866500854e-01,-2.466374635696411133e-01,7.510184310376644135e-03,-7.111702114343643188e-02,-2.988753020763397217e-01,-2.260756641626358032e-01,-1.754330471158027649e-02,1.140028461813926697e-01
-3.517899811267852783e-01,2.450440973043441772e-01,-6.473777443170547485e-02,-7.047463208436965942e-02,-2.173502445220947266e-01,5.939709022641181946e-02,6.741585582494735718e-02,-6.798604130744934082e-02,-9.777208417654037476e-02,1.057303100824356079e-01,-1.655454635620117188e-01,-3.399690389633178711e-01,-1.877311617136001587e-01,-1.760699003934860229e-01,-4.403339698910713196e-02,-1.932743787765502930e-01,1.710773855447769165e-01,-2.175897806882858276e-01,-1.019215732812881470e-01,-1.616678386926651001e-01,-2.650443017482757568e-01,1.888228803873062134e-01,-6.094279512763023376e-02,-4.224876761436462402e-01,-1.303496211767196655e-01,2.930514514446258545e-02,1.075022220611572266e-01,-7.884950935840606689e-02,3.534801676869392395e-02,-5.962604773230850697e-04,-1.706842333078384399e-01,-1.398364752531051636e-01,-4.113020002841949463e-01,1.328481733798980713e-01,-3.612059950828552246e-01,-2.839411199092864990e-01,-2.982641458511352539e-01,-2.119493111968040466e-02,-3.853724151849746704e-02,-6.920429319143295288e-02,1.318218111991882324e-01,1.933765858411788940e-01,-6.119769066572189331e-02,-2.464176267385482788e-01,-3.042672276496887207e-01,-2.535124123096466064e-01,5.314902588725090027e-02,-2.376038283109664917e-01,1.053598150610923767e-01,1.207731366157531738e-01,1.848757416009902954e-01,-6.131027638912200928e-02,8.146453765220940113e-04,-1.861939579248428345e-01,1.571534276008605957e-01,8.275630325078964233e-02,-1.796398758888244629e-01,-3.402548134326934814e-01,-3.595688939094543457e-01,-9.851478040218353271e-02,9.098370373249053955e-02,-6.553386896848678589e-02,-2.266908437013626099e-01,-2.152089774608612061e-02,-2.116051614284515381e-01,-7.564497180283069611e-03,-1.114886701107025146e-01,-5.311135649681091309e-01,7.741525769233703613e-02,1.168453395366668701e-01,-1.680518835783004761e-01,-8.541193604469299316e-02,2.114457823336124420e-02,-2.153193950653076172e-01,-1.195380315184593201e-01,7.333451509475708008e-02,1.662611030042171478e-02,-3.423178791999816895e-01,1.306855231523513794e-01,-2.424298226833343506e-01,-9.119575470685958862e-02,-1.165830269455909729e-01,-1.286966353654861450e-01,-8.681061863899230957e-02,5.087757855653762817e-02,-1.761868037283420563e-02,-1.210477203130722046e-02,-1.436928063631057739e-01,-6.904304027557373047e-02,-1.127211377024650574e-01,-5.826056599617004395e-01,5.859845876693725586e-02,-1.737388074398040771e-01,-3.909935057163238525e-01,-6.210253760218620300e-02,-2.587580084800720215e-01,-1.300904452800750732e-01,-7.995586842298507690e-02,4.598724097013473511e-02,2.882888726890087128e-02
-7.978776097297668457e-02,-2.101394236087799072e-01,1.157518103718757629e-01,-1.689282655715942383e-01,9.064549952745437622e-02,1.340844482183456421e-01,-2.270458787679672241e-01,-8.337775617837905884e-02,1.340004056692123413e-01,-3.435145318508148193e-01,-7.977182976901531219e-03,-3.181781619787216187e-02,1.287788152694702148e-01,1.808079183101654053e-01,4.850772023200988770e-02,-8.275026455521583557e-03,-1.671002209186553955e-01,-1.955379247665405273e-01,1.850903332233428955e-01,-1.447258740663528442e-01,-1.286478638648986816e-01,-1.805897057056427002e-01,-1.947233080863952637e-01,-1.420853286981582642e-02,-6.692168861627578735e-02,-5.422151461243629456e-02,7.550213485956192017e-02,1.433794200420379639e-01,-9.696119278669357300e-02,-2.499625533819198608e-01,1.589004844427108765e-01,3.882097452878952026e-02,1.195583026856184006e-02,3.211637586355209351e-02,1.419787108898162842e-01,-9.799368679523468018e-02,1.056000888347625732e-01,-1.202148497104644775e-01,6.193209812045097351e-02,-1.658143252134323120e-01,1.173558756709098816e-01,-8.797255903482437134e-02,1.025848984718322754e-01,1.949707046151161194e-02,1.676441878080368042e-01,2.900550365447998047e-01,6.674287468194961548e-02,1.157446950674057007e-01,-4.539427161216735840e-01,-9.985524229705333710e-03,-1.699064671993255615e-01,-1.964728832244873047e-01,9.211941063404083252e-02,1.313200742006301880e-01,-2.182049453258514404e-01,2.140020132064819336e-01,-1.979914009571075439e-01,1.959414184093475342e-01,-2.908162539824843407e-03,9.690635837614536285e-03,-1.571630686521530151e-01,-1.106317806988954544e-02,-2.078518569469451904e-01,1.802777051925659180e-01,-3.298353552818298340e-01,9.319910407066345215e-02,-1.592354327440261841e-01,6.982450932264328003e-02,6.937388330698013306e-02,-1.342134475708007812e-01,-4.685344994068145752e-01,5.711426213383674622e-02,-8.028037101030349731e-02,5.366527289152145386e-02,-3.239413201808929443e-01,-3.010465204715728760e-01,-1.598740518093109131e-01,7.041449099779129028e-02,-3.290034532546997070e-01,-8.056041598320007324e-02,-2.885087132453918457e-01,1.160839572548866272e-01,-5.411065369844436646e-02,-2.556458115577697754e-01,3.827111423015594482e-02,-1.666778624057769775e-01,6.515223532915115356e-02,7.701970636844635010e-02,-1.334631256759166718e-02,2.551003098487854004e-01,-1.318522542715072632e-01,-1.742795854806900024e-01,8.304890245199203491e-02,-1.780245006084442139e-01,2.029178477823734283e-02,2.316940873861312866e-01,9.152234345674514771e-02,-4.276948571205139160e-01,1.508505344390869141e-01,9.918908029794692993e-02
4.435581341385841370e-02,1.151799224317073822e-02,2.555576898157596588e-02,2.405524104833602905e-01,-1.124792397022247314e-01,3.400951623916625977e-03,3.458144664764404297e-01,5.036466568708419800e-02,-1.177283525466918945e-01,-7.720428705215454102e-02,7.534080743789672852e-02,-5.395254492759704590e-02,-6.202406808733940125e-02,-2.209275588393211365e-02,-8.266885876655578613e-01,-7.711852435022592545e-03,-6.350979208946228027e-02,-5.880084633827209473e-01,-1.700491309165954590e-01,1.691843420267105103e-01,-6.482014060020446777e-01,1.049705594778060913e-01,1.407675296068191528e-01,-1.207969263195991516e-01,-1.221698746085166931e-01,-5.812982320785522461e-01,9.566176682710647583e-02,1.208776161074638367e-01,1.250241249799728394e-01,2.704132720828056335e-02,1.808233261108398438e-01,1.558126360177993774e-01,-9.471679478883743286e-02,4.190968349575996399e-02,9.403946250677108765e-02,8.006563782691955566e-02,-4.994502663612365723e-02,-4.000779613852500916e-02,2.669606357812881470e-02,-2.105777561664581299e-01,9.495579451322555542e-02,1.073912065476179123e-02,-1.249668151140213013e-01,-4.553540349006652832e-01,1.040877625346183777e-01,-5.582040548324584961e-01,2.963034622371196747e-02,-3.884520232677459717e-01,9.054797142744064331e-02,-1.250705798156559467e-03,-4.026538692414760590e-03,6.206813082098960876e-02,6.265754997730255127e-02,1.368738561868667603e-01,3.086777031421661377e-01,-1.678624302148818970e-01,2.216341942548751831e-01,-1.370903700590133667e-01,3.528139740228652954e-02,5.727068334817886353e-02,2.105447947978973389e-01,-2.377353161573410034e-01,1.262702941894531250e-01,-1.853378303349018097e-02,-1.030953228473663330e-01,5.562106892466545105e-02,1.009798273444175720e-01,-3.539515659213066101e-02,1.111046001315116882e-01,4.017643630504608154e-02,1.169588938355445862e-01,-2.132689505815505981e-01,6.261797249317169189e-02,-3.178830742835998535e-01,1.555200517177581787e-01,2.502566576004028320e-02,-3.910395503044128418e-02,8.509641885757446289e-02,1.902932673692703247e-01,-6.332915276288986206e-02,2.296616733074188232e-01,-9.856761991977691650e-02,2.016377598047256470e-01,-2.452963590621948242e-02,-1.901571303606033325e-01,1.913883350789546967e-02,-7.702807188034057617e-01,-9.976034052670001984e-03,7.441803067922592163e-02,1.421424746513366699e-01,3.183647617697715759e-02,8.979278616607189178e-03,-4.212340414524078369e-01,1.995789855718612671e-01,7.062225136905908585e-03,-7.807297706604003906e-01,-1.925978213548660278e-01,2.069882005453109741e-01,-2.119243443012237549e-01,5.218650028109550476e-02
-3.556410968303680420e-01,-1.866108626127243042e-01,-5.332664400339126587e-02,-1.751876920461654663e-01,1.786732226610183716e-01,-1.133688017725944519e-01,7.705131173133850098e-02,-8.838291466236114502e-02,-1.575013399124145508e-01,-7.533980906009674072e-02,-1.675528287887573242e-01,-1.755844205617904663e-01,-4.102054517716169357e-03,-8.325186371803283691e-02,-1.039067134261131287e-01,-3.664424717426300049e-01,-1.496351808309555054e-01,-2.735292613506317139e-01,1.203640736639499664e-02,-3.530432283878326416e-01,-6.032696366310119629e-02,1.235614269971847534e-01,6.371054798364639282e-02,-1.858709305524826050e-01,-2.676289714872837067e-02,-3.234634697437286377e-01,-7.667490839958190918e-02,1.177208032459020615e-02,-1.050940826535224915e-01,-1.684183031320571899e-01,1.687009632587432861e-01,-2.139024585485458374e-01,-1.893759816884994507e-01,2.331217750906944275e-02,-1.922369748353958130e-01,-4.501357972621917725e-01,-3.080017566680908203e-01,-1.871327869594097137e-02,-2.440932095050811768e-01,-1.031934618949890137e-01,-1.202587336301803589e-01,1.117404252290725708e-01,-1.585836708545684814e-01,-1.283327341079711914e-01,-2.992710471153259277e-01,-4.466067999601364136e-02,-1.047221291810274124e-02,-6.230566650629043579e-02,8.523788303136825562e-02,1.547197904437780380e-02,1.120143383741378784e-01,4.938571155071258545e-02,3.867680951952934265e-02,-1.209579259157180786e-01,-1.334922760725021362e-01,-1.320331543684005737e-01,-8.387182839214801788e-03,-2.404681146144866943e-01,-4.022721946239471436e-01,-8.601731806993484497e-02,-5.172296985983848572e-02,8.706629276275634766e-03,-4.349322617053985596e-01,-1.841895580291748047e-01,-2.277365326881408691e-01,1.155554316937923431e-02,-1.558521240949630737e-01,-2.470735833048820496e-02,-1.253607273101806641e-01,-6.509299576282501221e-02,7.227519154548645020e-02,5.368980928324162960e-04,6.390736252069473267e-02,2.227472513914108276e-02,-2.191724628210067749e-01,9.044457226991653442e-02,1.546660624444484711e-02,-3.209165334701538086e-01,-3.313953429460525513e-02,-1.262011975049972534e-01,-1.137016043066978455e-01,1.232339628040790558e-02,-1.681518182158470154e-02,-1.930969506502151489e-01,7.529670000076293945e-02,-6.600688397884368896e-02,-1.070854291319847107e-01,-1.217263936996459961e-01,2.722958289086818695e-02,-1.580145657062530518e-01,-4.930310845375061035e-01,-1.418652944266796112e-02,-3.872533887624740601e-02,-3.380503058433532715e-01,9.451454132795333862e-02,-3.613349422812461853e-02,-1.517183631658554077e-01,-1.572871059179306030e-01,3.693111613392829895e-02,-4.677734896540641785e-02
1.563226133584976196e-01,1.808861829340457916e-02,-2.448610961437225342e-01,-3.310806676745414734e-02,1.131938397884368896e-01,-2.150907239411026239e-04,-3.667857125401496887e-02,4.603552818298339844e-02,4.144860431551933289e-03,-2.078507840633392334e-01,-4.528142213821411133e-01,-5.898747593164443970e-02,-1.186533272266387939e-01,-6.127855181694030762e-01,-3.126367926597595215e-01,-6.422325223684310913e-02,2.704652585089206696e-02,4.935199022293090820e-01,-1.474834419786930084e-02,2.164265215396881104e-01,-3.065978586673736572e-01,4.813978821039199829e-02,5.247731134295463562e-02,-4.567840695381164551e-01,8.229179680347442627e-02,1.268504709005355835e-01,8.275081962347030640e-02,-9.100780636072158813e-02,6.980004906654357910e-02,4.431081116199493408e-01,6.111422926187515259e-02,1.489717662334442139e-01,-5.896994844079017639e-02,-8.867792040109634399e-02,1.160778179764747620e-01,-3.165688812732696533e-01,4.789979197084903717e-03,1.027716621756553650e-01,-2.627393230795860291e-02,1.375888586044311523e-01,-3.940411843359470367e-03,1.718695461750030518e-01,-1.419811099767684937e-01,4.344942048192024231e-02,-1.933271586894989014e-01,-1.484061181545257568e-01,-4.989543929696083069e-02,-2.083366662263870239e-01,9.833969920873641968e-02,-3.631943836808204651e-02,-1.812482923269271851e-01,5.362141504883766174e-02,-5.490860715508460999e-02,-4.882508516311645508e-01,-1.837080717086791992e-01,-1.294194310903549194e-01,5.055302381515502930e-01,-3.380992710590362549e-01,-3.564670681953430176e-02,-2.420631349086761475e-01,2.233471907675266266e-02,6.949577480554580688e-02,-3.207098543643951416e-01,-4.269223213195800781e-01,4.606888294219970703e-01,-4.378210604190826416e-01,-3.051692843437194824e-01,-3.606924414634704590e-01,-1.149235591292381287e-01,5.380345880985260010e-02,-9.298322349786758423e-02,1.400058567523956299e-01,1.151445657014846802e-01,-1.605943590402603149e-01,4.201343655586242676e-01,1.331144361756742001e-03,9.988764673471450806e-02,1.113785952329635620e-01,1.106068715453147888e-01,-4.628319293260574341e-02,-2.527070604264736176e-02,-1.367828100919723511e-01,8.705748617649078369e-02,2.875396609306335449e-01,-2.380023244768381119e-03,1.051110401749610901e-02,-1.151082366704940796e-01,-5.842630267143249512e-01,1.721449941396713257e-02,-1.872098296880722046e-01,1.350617855787277222e-01,1.032742932438850403e-01,-3.639670312404632568e-01,1.707248836755752563e-01,3.197825700044631958e-02,-2.071076333522796631e-01,6.899014860391616821e-02,-9.723062813282012939e-02,-1.043636947870254517e-01,7.910142652690410614e-03
9.905713051557540894e-02,-1.723653376102447510e-01,-1.823516488075256348e-01,-1.294148713350296021e-01,4.425168037414550781e-02,1.860234327614307404e-02,-2.823295257985591888e-02,1.181507110595703125e-01,-1.557929068803787231e-02,-2.878417633473873138e-02,2.381543070077896118e-01,1.322807073593139648e-01,7.838724553585052490e-02,-2.168195098638534546e-01,-3.578098118305206299e-01,-1.791977509856224060e-02,2.591020241379737854e-02,-8.754120022058486938e-02,-8.058442175388336182e-02,6.963321566581726074e-02,-1.523491889238357544e-01,-3.003598451614379883e-01,1.896371878683567047e-02,5.299910157918930054e-02,-4.251470789313316345e-03,4.219599440693855286e-02,8.395653963088989258e-02,-1.002592667937278748e-01,-5.496771633625030518e-02,1.818933337926864624e-02,1.568297892808914185e-01,6.597834825515747070e-02,-4.614308476448059082e-02,-2.851773053407669067e-02,1.052868142724037170e-01,3.017885610461235046e-02,2.560625784099102020e-02,6.044332869350910187e-03,-7.948471233248710632e-03,-2.513137459754943848e-01,7.998865097761154175e-02,-9.043286740779876709e-02,-9.021890163421630859e-02,9.223973751068115234e-02,4.959337413311004639e-02,3.830412775278091431e-02,6.857377476990222931e-03,-2.385260164737701416e-01,4.788013175129890442e-02,-1.615416705608367920e-01,2.336969971656799316e-01,-4.446588084101676941e-02,1.020813807845115662e-01,-1.065140366554260254e-01,-2.618423700332641602e-01,-2.450965344905853271e-02,5.100767128169536591e-03,6.254333071410655975e-03,2.478891983628273010e-02,-5.513701587915420532e-02,7.418026775121688843e-02,6.382445991039276123e-02,-1.887055486440658569e-01,-9.613412618637084961e-02,-5.345202982425689697e-02,-2.555391788482666016e-01,-3.604963719844818115e-01,-1.179820820689201355e-01,5.029149726033210754e-02,-3.812320902943611145e-02,-5.248407125473022461e-01,9.486411698162555695e-03,8.834159374237060547e-02,-2.731122672557830811e-01,-7.413647323846817017e-02,-7.635374367237091064e-02,1.554906815290451050e-01,-9.242414683103561401e-02,-1.709491610527038574e-01,-7.458703964948654175e-02,-4.549433290958404541e-01,-5.346967652440071106e-02,-2.953774034976959229e-01,-1.709424406290054321e-01,1.046459376811981201e-01,1.703809201717376709e-02,-1.385855823755264282e-01,3.658457100391387939e-02,4.073293879628181458e-02,-1.235650852322578430e-01,-5.730612576007843018e-02,-1.757587790489196777e-01,7.923817262053489685e-03,1.206197813153266907e-01,3.126746788620948792e-02,-1.705373078584671021e-01,-4.174191877245903015e-02,-4.592164456844329834e-01,-1.009212881326675415e-01,1.154820993542671204e-02
-1.813638024032115936e-02,-5.035594105720520020e-01,2.866740152239799500e-02,1.996999531984329224e-01,-7.395773380994796753e-02,-2.156834304332733154e-02,-1.338936970569193363e-03,5.916945263743400574e-02,-1.392718404531478882e-01,-1.248884424567222595e-01,2.769433706998825073e-02,6.667102873325347900e-02,9.576316922903060913e-02,-1.493358016014099121e-01,1.540351100265979767e-02,1.219092831015586853e-01,-2.234514057636260986e-01,5.293485522270202637e-02,-2.483027428388595581e-01,6.018373370170593262e-02,2.156984806060791016e-01,9.084534645080566406e-02,-2.312423139810562134e-01,1.247066855430603027e-01,8.701319247484207153e-02,-4.033621400594711304e-02,-2.880387753248214722e-02,-4.644644260406494141e-02,-9.431114047765731812e-02,1.335213892161846161e-02,2.623506188392639160e-01,1.004865579307079315e-02,7.884072512388229370e-02,1.107982471585273743e-01,-5.510301887989044189e-02,5.667520686984062195e-02,6.020122393965721130e-02,-1.026362180709838867e-01,1.016749069094657898e-01,-5.553922057151794434e-01,2.613130584359169006e-02,-1.906151138246059418e-02,-2.545797824859619141e-01,-2.120802924036979675e-02,1.484720855951309204e-01,1.034100800752639771e-01,-9.638224728405475616e-03,-3.889209926128387451e-01,-2.915329039096832275e-01,-1.806833148002624512e-01,-1.605485975742340088e-01,-1.252365391701459885e-02,8.403749763965606689e-02,3.220573067665100098e-02,1.282705087214708328e-02,8.736287802457809448e-02,3.174978122115135193e-02,5.353739112615585327e-02,2.695946209132671356e-02,2.721374854445457458e-02,-2.645654790103435516e-02,9.766674041748046875e-02,-6.126307845115661621e-01,1.333823949098587036e-01,-2.067572772502899170e-01,-1.656870096921920776e-01,-2.264218330383300781e-01,-3.655770048499107361e-02,1.180381551384925842e-01,-4.834019020199775696e-02,1.921218782663345337e-01,6.099833920598030090e-02,2.475365996360778809e-02,-3.794135153293609619e-01,6.550227105617523193e-02,1.460182666778564453e-01,-2.732636034488677979e-01,5.417814850807189941e-02,-4.385184049606323242e-01,2.433902472257614136e-01,-4.228131473064422607e-02,-3.243009746074676514e-02,-2.962783873081207275e-01,-2.215974777936935425e-01,3.442749753594398499e-02,-1.167926192283630371e-01,1.030846964567899704e-02,2.077265642583370209e-03,2.804710343480110168e-02,1.519913375377655029e-01,2.440718933939933777e-02,2.123636752367019653e-01,3.459615632891654968e-02,3.006208874285221100e-02,8.065454661846160889e-02,1.341771632432937622e-01,1.322997175157070160e-02,7.723107188940048218e-02,-8.185825310647487640e-03,-5.174710974097251892e-02
-6.876287609338760376e-02,7.526511698961257935e-02,-3.437153697013854980e-01,-4.992145672440528870e-02,-1.970027759671211243e-02,9.689167886972427368e-02,-8.719322830438613892e-02,8.456380665302276611e-02,-1.011854335665702820e-01,8.353270590305328369e-02,-2.796876728534698486e-01,1.864466071128845215e-02,7.180420216172933578e-03,-1.210260167717933655e-01,3.713539103046059608e-03,3.469891473650932312e-02,1.306682974100112915e-01,8.228250592947006226e-02,1.061845645308494568e-01,-5.453902855515480042e-02,8.166195452213287354e-02,3.076829947531223297e-02,3.360017435625195503e-04,4.798082262277603149e-02,1.267668157815933228e-01,1.302147060632705688e-01,-4.962568636983633041e-04,8.134293556213378906e-02,1.581116579473018646e-02,-1.954267770051956177e-01,-8.516787737607955933e-02,4.146267194300889969e-03,9.852467477321624756e-02,5.127667635679244995e-02,2.141913771629333496e-02,-1.269769668579101562e-01,7.073882967233657837e-02,-4.094833880662918091e-02,-2.990228533744812012e-01,5.081005394458770752e-02,-2.001922875642776489e-01,-2.977714873850345612e-02,1.993360221385955811e-01,5.927260965108871460e-02,-1.115549635142087936e-02,1.592279970645904541e-01,1.710589230060577393e-01,2.264679074287414551e-01,8.806946873664855957e-02,-7.257944345474243164e-02,3.499576076865196228e-02,-1.206444874405860901e-01,-1.368812471628189087e-01,-2.995149195194244385e-01,-4.822506010532379150e-01,-1.888542808592319489e-02,1.360341757535934448e-01,-2.934340015053749084e-02,3.473865101113915443e-03,-2.685157582163810730e-02,-1.666794866323471069e-01,7.532501965761184692e-02,1.906684041023254395e-01,6.660673767328262329e-03,-3.127325326204299927e-02,-4.145314693450927734e-01,-1.936487108469009399e-01,3.304305300116539001e-02,6.838166713714599609e-02,8.602817356586456299e-02,4.573332518339157104e-02,3.185801440849900246e-03,-8.907329291105270386e-02,1.153233647346496582e-01,6.278678029775619507e-02,6.195557489991188049e-02,-8.699342608451843262e-02,-5.471429228782653809e-02,-5.002259463071823120e-02,5.249419435858726501e-02,-4.880517348647117615e-02,7.307855784893035889e-02,2.213999778032302856e-01,-9.843064099550247192e-02,2.860293090343475342e-01,-3.723639249801635742e-02,1.326873749494552612e-01,-3.703658878803253174e-01,-1.713323034346103668e-02,-5.957069993019104004e-02,8.081798441708087921e-03,4.341930523514747620e-02,9.569872170686721802e-02,-9.844033420085906982e-02,-3.003095090389251709e-02,2.128502875566482544e-01,1.236979812383651733e-01,-3.536735102534294128e-02,-6.844196468591690063e-03,-7.369843125343322754e-02
4.506679251790046692e-02,1.359476298093795776e-01,5.127180367708206177e-02,-6.635165959596633911e-02,8.810815215110778809e-02,7.371144741773605347e-02,3.912841528654098511e-02,8.256515860557556152e-02,7.207021862268447876e-02,8.704254031181335449e-02,4.110383242368698120e-02,9.807129949331283569e-02,-5.629307776689529419e-02,-4.453093931078910828e-02,-5.775503814220428467e-03,3.081742674112319946e-02,-4.974898695945739746e-02,4.651472344994544983e-02,9.052908420562744141e-02,1.434375066310167313e-02,6.382218748331069946e-02,-2.536408416926860809e-02,-1.052626073360443115e-01,6.065885722637176514e-02,-4.729193449020385742e-02,-4.074364155530929565e-02,1.096714735031127930e-01,-6.013009324669837952e-02,-3.465040773153305054e-02,1.210494562983512878e-01,-2.719533070921897888e-02,-5.416573211550712585e-02,5.780605971813201904e-02,-5.463068373501300812e-04,-6.449810415506362915e-02,-5.525761842727661133e-02,5.230151489377021790e-02,-5.890397354960441589e-02,9.437025338411331177e-02,-8.971578441560268402e-03,6.293740123510360718e-02,-7.031429558992385864e-02,-5.962507054209709167e-02,-4.313561599701642990e-03,1.099374070763587952e-01,-1.307820081710815430e-01,-1.460608653724193573e-02,9.639832377433776855e-02,2.844177186489105225e-02,8.768388628959655762e-02,-1.627790555357933044e-02,-1.335851754993200302e-02,1.760621368885040283e-02,7.623825967311859131e-02,2.340781874954700470e-02,-4.061043262481689453e-02,-4.927302151918411255e-02,-4.790958389639854431e-02,4.780381917953491211e-02,6.502518802881240845e-02,-3.387513756752014160e-02,5.268327519297599792e-02,1.095152795314788818e-01,-8.366683870553970337e-02,4.158740863204002380e-02,-4.607218131422996521e-02,6.410647183656692505e-02,9.455337375402450562e-02,-4.889250546693801880e-02,3.864952921867370605e-02,-5.050820857286453247e-02,1.903900876641273499e-03,-4.064721241593360901e-02,3.455008938908576965e-02,1.401628106832504272e-01,3.526812419295310974e-02,8.018313348293304443e-02,5.317363142967224121e-02,9.645170718431472778e-02,5.237179249525070190e-02,-3.234260482713580132e-03,8.551698178052902222e-02,1.339629441499710083e-01,-2.323857881128787994e-02,-5.169117078185081482e-02,-2.974124066531658173e-02,1.392870116978883743e-02,-3.310712426900863647e-02,-5.453498288989067078e-02,4.321318492293357849e-02,-2.951523102819919586e-02,-2.074315026402473450e-02,7.764405757188796997e-02,-2.099501714110374451e-02,-7.930878549814224243e-02,-8.472858369350433350e-02,-5.009473860263824463e-02,3.599932417273521423e-02,-1.491326745599508286e-02,6.263989210128784180e-02
6.865306198596954346e-02,1.131857186555862427e-01,8.521142601966857910e-02,-9.522343426942825317e-02,1.840470544993877411e-02,-8.334020525217056274e-02,7.945829629898071289e-02,-8.138234727084636688e-03,3.831549314782023430e-03,8.388044685125350952e-02,-6.010473240166902542e-03,-3.922070190310478210e-02,-4.793572425842285156e-02,1.271602977067232132e-02,-2.986792474985122681e-02,8.114701509475708008e-02,1.833695173263549805e-02,6.428700685501098633e-02,2.816624566912651062e-02,-7.544480264186859131e-02,6.944889575242996216e-02,-1.104581076651811600e-02,-3.591872984543442726e-03,8.300653845071792603e-02,6.567826867103576660e-02,8.343645185232162476e-02,9.283209592103958130e-02,3.169552981853485107e-02,-6.193134188652038574e-02,6.536001712083816528e-02,-4.997882246971130371e-02,-7.911849766969680786e-02,-5.003315955400466919e-02,-8.957087993621826172e-03,2.505012601613998413e-02,9.267713129520416260e-02,-6.916364282369613647e-02,5.163378641009330750e-02,-6.108714267611503601e-02,-2.371995011344552040e-03,1.797946635633707047e-03,-6.501204520463943481e-02,8.646290004253387451e-02,1.056717857718467712e-01,9.887473285198211670e-02,-8.467026799917221069e-02,9.404177218675613403e-02,-4.837150499224662781e-02,-2.099661529064178467e-02,-1.830470561981201172e-02,5.855911225080490112e-02,8.768832311034202576e-03,4.664095491170883179e-02,4.441865906119346619e-02,-5.443550646305084229e-02,4.094416275620460510e-03,1.155509203672409058e-01,1.069176495075225830e-01,1.085287705063819885e-01,5.564125254750251770e-03,9.619189798831939697e-02,-4.375711455941200256e-02,1.642116457223892212e-01,-7.585985958576202393e-02,9.673944860696792603e-02,9.214737266302108765e-02,9.240581840276718140e-02,1.198220532387495041e-02,-1.231704186648130417e-02,5.967792496085166931e-02,1.027769148349761963e-01,3.177031502127647400e-02,-2.197757549583911896e-02,1.069416180253028870e-01,4.066101461648941040e-02,1.529926713556051254e-02,-8.118555694818496704e-02,-7.330854982137680054e-02,1.096168160438537598e-01,-1.018570456653833389e-02,5.671811476349830627e-02,-9.092956036329269409e-02,7.324010133743286133e-02,-8.651975542306900024e-02,1.378484815359115601e-02,2.728263102471828461e-02,-3.563119098544120789e-02,5.228239297866821289e-02,9.001598507165908813e-02,-1.062466055154800415e-01,6.370184570550918579e-02,-8.421944454312324524e-03,-2.211624197661876678e-02,1.830253377556800842e-02,8.737333863973617554e-02,-3.429854661226272583e-02,9.760524332523345947e-02,-1.499814633280038834e-02,1.070380210876464844e-01,-5.003523454070091248e-02
-7.642239797860383987e-03,-3.258741497993469238e-01,-9.487441182136535645e-02,-1.476083248853683472e-01,7.423569262027740479e-02,7.682480663061141968e-02,-7.973600178956985474e-02,-1.674504578113555908e-02,1.463503483682870865e-02,-2.313073724508285522e-01,-7.064231485128402710e-02,-1.033883448690176010e-02,5.689502507448196411e-02,-3.929780796170234680e-02,-2.448684573173522949e-01,5.962387844920158386e-02,-4.756973683834075928e-02,-2.194243073463439941e-01,2.292149886488914490e-02,5.695055797696113586e-02,-2.775509059429168701e-01,-1.548362672328948975e-01,-5.225880816578865051e-02,-4.577485099434852600e-02,-5.568741261959075928e-02,-5.387333780527114868e-02,2.372771315276622772e-02,-2.946313284337520599e-02,1.439867448061704636e-02,-8.518346399068832397e-02,-7.671614643186330795e-03,1.049114763736724854e-02,-3.525407239794731140e-02,9.188307076692581177e-02,1.415996104478836060e-01,6.375014781951904297e-02,1.383323520421981812e-01,7.305883616209030151e-02,9.173030406236648560e-02,-2.007110267877578735e-01,3.275288268923759460e-02,-4.003596305847167969e-02,-3.756565228104591370e-02,5.115402862429618835e-02,1.356151849031448364e-01,-7.462714612483978271e-02,-3.372320532798767090e-02,-8.707866072654724121e-02,-4.894770681858062744e-02,-2.749714627861976624e-02,-2.068767324090003967e-02,-3.858164697885513306e-02,4.245704039931297302e-02,-1.396994441747665405e-01,-1.219040676951408386e-01,5.477505037561058998e-04,7.063450664281845093e-02,-3.068166598677635193e-02,1.515359878540039062e-01,-4.959802702069282532e-02,2.155711501836776733e-02,7.066743820905685425e-02,-1.753958314657211304e-01,-1.596706807613372803e-01,-3.019167482852935791e-01,-1.726959943771362305e-01,-1.440036892890930176e-01,-2.888278849422931671e-02,6.636143475770950317e-02,4.867083951830863953e-02,-4.643613398075103760e-01,-2.111550420522689819e-02,-6.094004958868026733e-02,-6.954432278871536255e-02,6.567602604627609253e-02,-8.153416216373443604e-02,9.252486377954483032e-02,-1.713764667510986328e-02,-4.997110366821289062e-02,-7.789611816406250000e-03,-2.664162814617156982e-01,-2.013256028294563293e-02,-6.099587306380271912e-02,2.178724296391010284e-02,1.397029459476470947e-01,1.550516672432422638e-02,-3.184785246849060059e-01,-1.037476658821105957e-01,-1.166369067505002022e-03,-5.403797142207622528e-03,-6.465014070272445679e-02,4.651372134685516357e-02,-1.264434307813644409e-01,8.719805628061294556e-02,5.273220688104629517e-02,-1.777419000864028931e-01,5.669889599084854126e-02,-3.328827321529388428e-01,-2.594786323606967926e-02,4.015115648508071899e-02
1.149057894945144653e-01,-4.896350204944610596e-01,-2.129019983112812042e-02,-4.681058228015899658e-03,7.870503515005111694e-02,9.684076905250549316e-02,-1.772428862750530243e-02,2.557418309152126312e-02,-6.657467782497406006e-02,-1.307566165924072266e-01,-1.860149353742599487e-01,1.066212132573127747e-01,7.786078751087188721e-02,-2.213501781225204468e-01,-2.659445703029632568e-01,9.060044586658477783e-02,-1.928665190935134888e-01,-3.039561212062835693e-01,3.811004012823104858e-02,5.604565516114234924e-02,-1.554791480302810669e-01,-2.005017362534999847e-02,-8.157264441251754761e-03,5.804026499390602112e-02,7.355942856520414352e-03,-9.651117026805877686e-02,2.304174192249774933e-02,-2.147725410759449005e-02,-8.582028746604919434e-02,1.232979372143745422e-01,1.164453849196434021e-01,1.496645063161849976e-01,-3.455623053014278412e-03,2.553876861929893494e-02,3.900238499045372009e-02,-5.360404774546623230e-02,1.240256726741790771e-01,3.235972672700881958e-02,1.345217376947402954e-01,-2.289260625839233398e-01,6.626418977975845337e-02,8.033616095781326294e-02,2.829072065651416779e-02,-5.296442657709121704e-02,1.639002114534378052e-01,2.915175631642341614e-03,2.054935880005359650e-02,-2.093440294265747070e-01,-6.903584301471710205e-02,7.320103794336318970e-02,-1.085919067263603210e-01,-1.087812259793281555e-01,4.010839387774467468e-02,5.364754796028137207e-02,-2.382440865039825439e-01,8.832231978885829449e-04,2.945222556591033936e-01,3.155075386166572571e-02,3.621692955493927002e-02,7.176495157182216644e-03,1.398075819015502930e-01,3.121796622872352600e-02,-1.250333935022354126e-01,5.545135214924812317e-02,-5.115398168563842773e-01,6.098063662648200989e-02,-1.419560015201568604e-01,-6.371680647134780884e-03,-5.004101246595382690e-02,-2.477413415908813477e-02,-4.192630946636199951e-01,8.308050036430358887e-02,-4.114838317036628723e-02,-3.464037775993347168e-01,5.744208022952079773e-02,7.620242238044738770e-02,-3.979337215423583984e-02,5.247152224183082581e-02,-4.300381615757942200e-02,1.263445168733596802e-01,-2.467213571071624756e-01,-9.469376504421234131e-02,2.215675264596939087e-02,-2.758369408547878265e-02,3.447772189974784851e-02,-1.310784965753555298e-01,-2.660497426986694336e-01,-1.815232038497924805e-01,-1.067406404763460159e-02,1.793121099472045898e-01,-6.216575205326080322e-02,-7.117963582277297974e-02,1.134044211357831955e-02,1.043042317032814026e-01,1.132119912654161453e-02,-1.022193133831024170e-01,6.054055411368608475e-04,-6.266026943922042847e-02,-1.364979594945907593e-01,-5.966387316584587097e-02
1.258687488734722137e-02,-1.988607645034790039e-02,-3.046150505542755127e-01,-8.284714072942733765e-02,6.197447702288627625e-02,7.335691154003143311e-02,3.432523086667060852e-02,-2.334300242364406586e-02,-9.201770275831222534e-02,9.103170037269592285e-02,-3.483144938945770264e-01,9.885532408952713013e-02,-1.491105649620294571e-03,-2.068616822361946106e-02,4.720738530158996582e-02,-1.254407465457916260e-01,1.167919635772705078e-01,-6.415307521820068359e-02,1.625015586614608765e-01,-4.119491577148437500e-02,-8.006221055984497070e-02,-9.902402758598327637e-02,1.999150961637496948e-02,4.514341428875923157e-02,7.045461237430572510e-02,1.554964017122983932e-02,1.129068285226821899e-01,-3.223012015223503113e-02,-1.203460805118083954e-02,-8.569125086069107056e-02,-3.715950530022382736e-03,7.763054966926574707e-02,-2.693066000938415527e-02,1.410611718893051147e-01,2.185747027397155762e-02,-1.179416999220848083e-01,2.143730781972408295e-02,-2.244306541979312897e-02,-2.387204617261886597e-01,1.370387226343154907e-01,-1.040972769260406494e-01,3.175051137804985046e-02,1.482896357774734497e-01,1.644303202629089355e-01,-5.003057047724723816e-02,-4.982470069080591202e-03,2.933164313435554504e-02,2.222818136215209961e-01,-2.866807207465171814e-02,-8.415567129850387573e-02,7.718735933303833008e-02,-8.584562689065933228e-02,6.684915721416473389e-02,-2.536673545837402344e-01,-4.203675091266632080e-01,-6.037025898694992065e-02,1.029173657298088074e-01,-4.529323056340217590e-02,9.326829016208648682e-02,3.177879843860864639e-03,-1.802228391170501709e-01,1.051811575889587402e-01,7.511621713638305664e-02,-1.436593532562255859e-01,1.021606996655464172e-01,-1.917021572589874268e-01,-1.445780787616968155e-02,-4.941304400563240051e-02,-1.412214338779449463e-01,-9.222304821014404297e-02,-1.001312062144279480e-01,7.269573211669921875e-02,-2.891865000128746033e-02,1.787330806255340576e-01,-2.924668043851852417e-02,-4.138733446598052979e-02,-1.327916979789733887e-01,1.372136920690536499e-02,5.157051607966423035e-02,-1.334915459156036377e-01,-1.208585649728775024e-01,-5.055122822523117065e-02,2.295610308647155762e-01,-7.247120141983032227e-02,1.068504452705383301e-01,-1.622323095798492432e-01,1.136957854032516479e-01,-3.287190794944763184e-01,8.419553190469741821e-02,-9.550759196281433105e-02,3.965168818831443787e-02,1.472134515643119812e-02,-3.092967532575130463e-02,-6.249463558197021484e-02,1.219758763909339905e-01,1.362336575984954834e-01,9.295345097780227661e-02,-2.533794939517974854e-01,-3.564279526472091675e-02,8.700222522020339966e-02
-5.515710711479187012e-01,-1.728666275739669800e-01,1.616538614034652710e-01,1.084130406379699707e-01,1.001300588250160217e-01,9.447794407606124878e-02,-7.598743587732315063e-02,-3.154576569795608521e-02,-7.923780940473079681e-03,1.025770674459636211e-03,6.796021014451980591e-02,-5.776701569557189941e-01,-1.342218965291976929e-01,1.242602914571762085e-01,-1.258308738470077515e-01,-6.306659579277038574e-01,1.829483658075332642e-01,-2.633320689201354980e-01,8.533717691898345947e-02,-5.125188827514648438e-01,-1.512093245983123779e-01,-8.184889331459999084e-03,-4.959738254547119141e-02,-1.554165780544281006e-01,8.878581225872039795e-02,-2.362841367721557617e-01,-5.505903973244130611e-04,-1.001286087557673454e-03,1.338116973638534546e-01,1.730310767889022827e-01,-1.377636194229125977e-01,-4.272182881832122803e-01,-5.778990387916564941e-01,2.504886500537395477e-02,3.152841329574584961e-01,-5.613636374473571777e-01,-1.077688634395599365e-01,-5.706971138715744019e-02,-3.406786322593688965e-01,-1.157304272055625916e-01,-2.598903514444828033e-02,1.301597356796264648e-01,-1.108897998929023743e-01,-9.886673092842102051e-02,-4.913864731788635254e-01,-1.789632737636566162e-01,5.927179381251335144e-02,3.402397781610488892e-02,6.651522219181060791e-02,7.384333014488220215e-02,-2.529073655605316162e-01,1.287930756807327271e-01,9.828139096498489380e-03,5.621293559670448303e-02,-2.522559277713298798e-02,-7.806470245122909546e-02,4.970507621765136719e-01,-2.161001265048980713e-01,-4.704515337944030762e-01,4.100406765937805176e-01,2.850214950740337372e-02,-5.459064617753028870e-03,6.157467961311340332e-01,-6.792194396257400513e-02,4.638044908642768860e-02,9.357053786516189575e-02,2.999761700630187988e-01,-4.309462308883666992e-01,9.808112680912017822e-02,-5.080281198024749756e-02,-3.150197118520736694e-02,-6.974846869707107544e-02,-4.727648943662643433e-02,-2.825677394866943359e-03,5.714572072029113770e-01,3.628810122609138489e-02,-7.891561090946197510e-02,-4.224918484687805176e-01,-5.056468248367309570e-01,-7.167353481054306030e-02,-6.467811763286590576e-02,1.474809795618057251e-01,6.933096647262573242e-01,-4.690148308873176575e-02,8.179961144924163818e-02,6.924968212842941284e-02,-9.917350113391876221e-02,-1.342122703790664673e-01,-2.484015189111232758e-02,-5.506705492734909058e-02,-5.606887936592102051e-01,3.166240081191062927e-02,-3.023754656314849854e-01,-7.394943237304687500e-01,-6.320717278867959976e-03,-1.044714897871017456e-01,-5.595724582672119141e-01,-4.427581094205379486e-03,-9.227319806814193726e-02,8.035638928413391113e-02
9.291125833988189697e-02,8.596415817737579346e-02,1.164233870804309845e-02,-1.335076708346605301e-02,-1.140498742461204529e-02,-4.708497785031795502e-03,-4.583615809679031372e-02,8.850584179162979126e-02,1.311979256570339203e-02,1.017641797661781311e-01,6.327913701534271240e-02,6.323277205228805542e-02,-4.019076377153396606e-02,1.666376590728759766e-01,-1.167827248573303223e-01,6.976043805480003357e-03,2.502344921231269836e-02,6.188382208347320557e-02,3.257346153259277344e-02,7.374379783868789673e-02,1.218154281377792358e-01,-4.696186631917953491e-02,-2.483092620968818665e-02,7.101776450872421265e-02,2.996925637125968933e-02,8.384287357330322266e-02,-5.243792384862899780e-02,1.021455377340316772e-01,9.362585842609405518e-02,1.069325488060712814e-02,1.049561760737560689e-04,1.072424650192260742e-01,3.480007871985435486e-02,-7.522559165954589844e-02,-1.855359971523284912e-02,2.552223391830921173e-02,3.292504325509071350e-02,-6.913528591394424438e-02,-3.094238787889480591e-02,-1.601182483136653900e-02,1.025543287396430969e-01,-6.178745627403259277e-02,5.899839475750923157e-02,1.398166362196207047e-02,-2.319514937698841095e-02,-6.605547666549682617e-02,2.583778649568557739e-02,2.315185265615582466e-03,-1.095417737960815430e-01,9.390287846326828003e-02,3.912599012255668640e-02,-6.789088994264602661e-02,1.036823987960815430e-01,1.086809905245900154e-03,6.883950531482696533e-02,2.584550715982913971e-02,2.211826108396053314e-02,3.934309259057044983e-02,-4.098341800272464752e-03,-2.954516746103763580e-02,2.863967977464199066e-02,1.439677271991968155e-02,2.384108304977416992e-02,-5.721492320299148560e-02,3.417041897773742676e-02,-1.384636759757995605e-02,1.261758506298065186e-01,8.057934232056140900e-03,-2.617172338068485260e-02,-1.074828058481216431e-01,-8.726200461387634277e-02,3.546572476625442505e-02,3.233949840068817139e-02,-1.542722922749817371e-03,4.651973769068717957e-02,8.764365315437316895e-02,-3.838984761387109756e-03,8.018808811902999878e-02,1.093889698386192322e-01,-1.104864031076431274e-01,3.145038336515426636e-02,-2.786810323596000671e-02,1.701615452766418457e-01,-8.215329796075820923e-02,5.739529617130756378e-03,-6.557590514421463013e-02,-3.411026671528816223e-02,-1.952703855931758881e-02,-6.125966832041740417e-02,-5.920331180095672607e-02,-1.818861067295074463e-02,-6.864975392818450928e-02,-8.372208103537559509e-03,1.015927500702673569e-05,-1.159258112311363220e-01,9.139532223343849182e-03,7.658245414495468140e-02,3.376006707549095154e-02,1.316682547330856323e-01,5.744790658354759216e-02
-2.269435673952102661e-02,1.451988518238067627e-01,-1.005004998296499252e-02,-8.483245968818664551e-03,-9.177263826131820679e-03,5.772680044174194336e-02,1.133468188345432281e-02,7.227861322462558746e-03,9.125041961669921875e-02,1.192411705851554871e-01,6.027098745107650757e-02,8.372677117586135864e-02,9.741254150867462158e-03,-8.391308598220348358e-03,-7.784465700387954712e-02,3.140613809227943420e-02,2.113670669496059418e-02,-2.689107507467269897e-02,5.062687024474143982e-02,-3.255364671349525452e-02,-4.261177033185958862e-03,8.133304864168167114e-02,-1.328319031745195389e-02,2.782311476767063141e-02,-3.195369616150856018e-02,-4.332756623625755310e-02,8.740657009184360504e-03,-4.686176404356956482e-02,7.199319452047348022e-02,-4.334589093923568726e-02,-6.508031487464904785e-02,-5.962878093123435974e-02,2.993898652493953705e-02,-4.301454499363899231e-02,1.860323548316955566e-02,3.760364651679992676e-02,2.006249874830245972e-02,-3.376279398798942566e-02,6.750278919935226440e-02,1.296149194240570068e-01,6.614530086517333984e-02,5.404153838753700256e-02,-1.059949770569801331e-01,4.403992742300033569e-02,6.352577358484268188e-02,-9.212192893028259277e-02,-8.615170419216156006e-02,8.404806256294250488e-02,6.153674051165580750e-02,4.933353513479232788e-02,-1.543229632079601288e-02,-9.320367127656936646e-02,-4.380593076348304749e-02,1.183331906795501709e-01,4.599021002650260925e-02,-8.315377868711948395e-03,1.230591684579849243e-01,1.611565798521041870e-02,-2.262638881802558899e-02,9.698807448148727417e-02,-2.703684754669666290e-02,4.653485491871833801e-03,1.074290350079536438e-01,6.531148403882980347e-02,1.679646372795104980e-01,-7.494518905878067017e-02,-5.206792149692773819e-03,9.771905839443206787e-02,4.511310532689094543e-02,2.094018459320068359e-02,-4.876038432121276855e-02,-2.645900286734104156e-02,4.739027097821235657e-02,-5.324981734156608582e-02,1.162120103836059570e-01,-1.444296794943511486e-03,-8.338057436048984528e-03,1.216822862625122070e-01,-6.210361048579216003e-02,-5.825928971171379089e-02,6.226442009210586548e-02,6.361620873212814331e-02,1.293085962533950806e-01,-5.650641396641731262e-02,4.050537943840026855e-02,4.183290898799896240e-02,2.865459583699703217e-02,-1.105464156717061996e-02,3.058363124728202820e-02,-2.647969499230384827e-02,5.678718537092208862e-02,9.162723273038864136e-02,8.180600404739379883e-02,8.751520514488220215e-02,7.753623183816671371e-03,-6.977846473455429077e-02,5.369035527110099792e-03,-6.653234362602233887e-02,2.713700011372566223e-02,5.959238857030868530e-03
-4.733585938811302185e-02,-2.123563885688781738e-01,-5.558120086789131165e-02,-2.958614826202392578e-01,9.050741791725158691e-02,1.257834434509277344e-01,-1.636428982019424438e-01,1.616222038865089417e-02,1.523827612400054932e-01,-2.670423388481140137e-01,-1.052302420139312744e-01,-7.617289572954177856e-02,1.931793689727783203e-01,1.719001829624176025e-01,1.206828281283378601e-02,1.114045083522796631e-01,-1.744612902402877808e-01,-1.638470292091369629e-01,6.375588476657867432e-02,-5.487567186355590820e-02,-1.943914145231246948e-01,-3.196638822555541992e-01,-2.106382101774215698e-01,3.906290605664253235e-02,-9.277977794408798218e-02,-2.679715864360332489e-02,-5.257176980376243591e-02,1.629823297262191772e-01,6.227983161807060242e-02,-1.267749816179275513e-01,1.977329999208450317e-01,6.231596227735280991e-03,-1.573148928582668304e-02,-5.453322827816009521e-02,8.551242947578430176e-02,9.207949787378311157e-02,-3.890243917703628540e-02,-1.801008433103561401e-01,-4.763813922181725502e-04,-1.854780316352844238e-01,-2.892998978495597839e-02,-1.010621264576911926e-01,1.353085786104202271e-01,1.779940165579319000e-02,1.559478044509887695e-01,2.698977887630462646e-01,4.879527539014816284e-02,1.902290433645248413e-01,-3.881231546401977539e-01,-4.487568512558937073e-02,1.068812143057584763e-02,-1.459392458200454712e-01,8.586228638887405396e-02,2.315312027931213379e-01,-3.252345621585845947e-01,1.817583888769149780e-01,-1.153391078114509583e-01,1.266186088323593140e-01,-5.348380282521247864e-02,6.433520466089248657e-02,-8.817809820175170898e-02,1.151850521564483643e-01,-1.052954420447349548e-01,1.236857622861862183e-01,-3.523949980735778809e-01,1.040015146136283875e-01,-4.997117444872856140e-02,1.373297423124313354e-01,1.351433843374252319e-01,-1.799309998750686646e-01,-3.421093821525573730e-01,2.540806122124195099e-02,-1.500499546527862549e-01,8.555448055267333984e-02,-4.141318202018737793e-01,-2.765140235424041748e-01,-1.457093805074691772e-01,-8.329741656780242920e-02,-3.786878585815429688e-01,-3.597972169518470764e-02,-2.967492043972015381e-01,1.660333871841430664e-01,-1.485227346420288086e-01,-4.436322748661041260e-01,3.672340884804725647e-02,-1.946490854024887085e-01,5.085112899541854858e-02,1.133289337158203125e-01,8.422368764877319336e-02,8.431333303451538086e-02,-1.151262521743774414e-01,-1.184137091040611267e-01,7.594867795705795288e-02,-1.701406538486480713e-01,-6.734749767929315567e-03,3.025248646736145020e-01,6.786764413118362427e-02,-2.691936492919921875e-01,3.095416724681854248e-01,3.035142272710800171e-02
1.285252394154667854e-03,1.568006873130798340e-01,9.933595359325408936e-02,2.348401546478271484e-01,-5.822319537401199341e-02,-6.099954992532730103e-02,2.361188381910324097e-01,-4.508860409259796143e-02,-2.838170900940895081e-02,-1.056799516081809998e-01,9.808910638093948364e-02,-4.315499216318130493e-02,-1.315942257642745972e-01,-4.979806765913963318e-02,-7.936016917228698730e-01,9.879569709300994873e-02,1.010754378512501717e-03,-6.411731243133544922e-01,-2.022446244955062866e-01,6.179391965270042419e-02,-6.880487799644470215e-01,6.771761924028396606e-02,1.676654666662216187e-01,-1.729306280612945557e-01,-6.073798611760139465e-02,-5.601477622985839844e-01,1.148155517876148224e-02,1.402876824140548706e-01,1.340248733758926392e-01,1.612859815359115601e-01,1.554791927337646484e-01,5.899225175380706787e-02,-7.581950724124908447e-02,2.089276351034641266e-02,6.387038528919219971e-02,1.742013543844223022e-02,4.128574207425117493e-02,5.319440364837646484e-02,8.798570185899734497e-02,-2.019180506467819214e-01,1.084771901369094849e-01,4.656458273530006409e-02,-2.455967217683792114e-01,-5.036470293998718262e-01,-2.787639852613210678e-03,-5.063513517379760742e-01,3.440484777092933655e-02,-2.437738031148910522e-01,2.114044427871704102e-01,1.199318841099739075e-01,8.864431083202362061e-02,8.512962609529495239e-02,1.052679941058158875e-01,-5.261693615466356277e-03,1.456041187047958374e-01,-9.176022559404373169e-02,1.785207837820053101e-01,-4.239351302385330200e-02,7.644792646169662476e-02,8.500501513481140137e-02,7.586118578910827637e-02,-4.510698094964027405e-02,9.704098105430603027e-02,2.202655933797359467e-02,-6.581418961286544800e-02,1.378851234912872314e-01,2.016049921512603760e-01,5.398788303136825562e-02,1.592165231704711914e-01,-7.444123178720474243e-02,1.965268105268478394e-01,-1.245409920811653137e-01,2.396274358034133911e-02,-2.620849907398223877e-01,5.309877544641494751e-02,-7.614300400018692017e-02,-1.495661288499832153e-01,7.826021313667297363e-02,1.251039505004882812e-01,1.005509402602910995e-02,3.068899214267730713e-01,-1.038517728447914124e-01,2.195820510387420654e-01,3.768546879291534424e-02,-1.674610525369644165e-01,-3.204372897744178772e-02,-8.706297874450683594e-01,-6.199582014232873917e-03,6.029272824525833130e-02,1.911342740058898926e-01,9.392306208610534668e-02,1.726066917181015015e-01,-5.145302414894104004e-01,1.374622583389282227e-01,-2.420916594564914703e-02,-8.680830597877502441e-01,-2.106518149375915527e-01,2.760684788227081299e-01,-3.844605982303619385e-01,1.100748125463724136e-02
-9.153568744659423828e-02,-1.206458508968353271e-01,-1.589395552873611450e-01,-4.757672920823097229e-02,-3.620827943086624146e-02,1.075656190514564514e-01,-7.953246682882308960e-02,-3.153665736317634583e-02,-7.846639305353164673e-02,-2.378563880920410156e-01,-3.668853938579559326e-01,7.974211871623992920e-02,1.013589501380920410e-01,-2.511090040206909180e-01,-1.387067437171936035e-01,2.456470765173435211e-02,-5.710441619157791138e-02,-1.075979694724082947e-01,8.725434541702270508e-02,-1.350495517253875732e-01,9.053681045770645142e-03,5.082005634903907776e-02,1.306384950876235962e-01,-1.474432051181793213e-01,-2.826982177793979645e-02,-3.313556686043739319e-02,-5.372554063796997070e-02,-2.141704410314559937e-02,1.059542074799537659e-01,7.174413651227951050e-02,1.899316161870956421e-02,5.434852093458175659e-02,1.106722950935363770e-01,7.648491859436035156e-02,9.943612664937973022e-02,-1.422543972730636597e-01,-1.633343659341335297e-02,8.663196861743927002e-02,-1.885745674371719360e-01,-1.486646980047225952e-01,-3.425145521759986877e-02,-1.002942100167274475e-01,-8.125548064708709717e-02,6.805973500013351440e-02,-4.496864229440689087e-02,3.383773937821388245e-02,-4.608918726444244385e-02,-1.379138976335525513e-01,3.006417863070964813e-02,-1.775648817420005798e-02,-6.615649163722991943e-02,2.116144075989723206e-02,-8.580046147108078003e-02,-4.831185936927795410e-02,-7.907675951719284058e-02,-9.399203956127166748e-02,4.665200039744377136e-02,-9.944661706686019897e-02,4.223039373755455017e-02,-1.477044448256492615e-02,-6.486070901155471802e-02,1.291666030883789062e-01,5.633707344532012939e-02,-2.217520326375961304e-01,-1.220499689225107431e-04,6.479011476039886475e-02,1.266008019447326660e-01,-7.016203552484512329e-02,-1.999876275658607483e-02,8.314307034015655518e-02,-1.435453146696090698e-01,-5.996356904506683350e-02,6.675226986408233643e-02,-8.035735040903091431e-02,-3.108789026737213135e-02,-9.283925592899322510e-02,-4.043438937515020370e-03,5.397228151559829712e-02,1.889709755778312683e-02,-2.035892754793167114e-02,-2.397568672895431519e-01,1.026435717940330505e-01,7.933646440505981445e-02,9.091864526271820068e-02,1.449261009693145752e-01,6.236930494196712971e-04,-1.645694077014923096e-01,-2.513040304183959961e-01,1.079825833439826965e-01,-1.106274798512458801e-01,-4.369779303669929504e-02,-4.064587503671646118e-02,-1.547631025314331055e-01,-6.136408075690269470e-02,1.166075319051742554e-01,-9.426656365394592285e-02,2.529176883399486542e-02,-2.936167120933532715e-01,-4.806358739733695984e-02,-6.493572145700454712e-02
-6.579847633838653564e-02,-6.353055685758590698e-02,-1.846010088920593262e-01,4.622688144445419312e-02,-1.065643504261970520e-02,9.898086637258529663e-02,1.514407247304916382e-01,2.855499647557735443e-02,-3.805226832628250122e-02,-2.254122346639633179e-01,-4.523641467094421387e-01,2.174278907477855682e-02,9.605395048856735229e-02,-1.847760379314422607e-02,-3.173412680625915527e-01,-1.058031711727380753e-02,-1.434415876865386963e-01,-1.070445552468299866e-01,9.950970299541950226e-03,-9.920883178710937500e-02,-2.707268595695495605e-01,6.815891712903976440e-02,8.580109477043151855e-02,-1.151039153337478638e-01,5.272212624549865723e-02,-2.301305681467056274e-01,1.077544093132019043e-01,-4.401367157697677612e-02,2.326311729848384857e-02,9.566364437341690063e-02,-1.548121403902769089e-02,6.196319311857223511e-02,-1.837295666337013245e-02,4.798035137355327606e-03,1.416701376438140869e-01,-1.095761731266975403e-01,1.590630784630775452e-02,2.438475750386714935e-02,-5.257321149110794067e-02,-4.859647527337074280e-02,1.222350448369979858e-01,1.418938115239143372e-02,-1.857053339481353760e-01,-1.239563152194023132e-01,-1.039889827370643616e-01,-7.221020013093948364e-02,1.327061355113983154e-01,-1.105179488658905029e-01,-7.699466496706008911e-02,-4.130708426237106323e-02,8.281921595335006714e-02,-1.579576730728149414e-02,-1.058684438467025757e-01,-3.353372216224670410e-02,1.227377206087112427e-01,-1.899609565734863281e-01,1.105309352278709412e-01,4.467915371060371399e-02,-1.968685165047645569e-02,-4.367046430706977844e-02,3.693497553467750549e-02,-8.945460617542266846e-02,-5.353118106722831726e-02,-1.230745837092399597e-01,1.206870563328266144e-02,-8.942367881536483765e-02,2.012792527675628662e-01,-2.046006619930267334e-01,2.840110799297690392e-03,5.397083237767219543e-02,-1.299741864204406738e-01,4.017183929681777954e-02,-6.690741330385208130e-02,-1.468142271041870117e-01,1.636048555374145508e-01,1.054815500974655151e-01,-4.916660115122795105e-02,4.362776502966880798e-02,7.271594554185867310e-02,-2.243244834244251251e-02,-1.493049561977386475e-01,9.159240126609802246e-02,1.703130602836608887e-01,1.011275649070739746e-01,2.927082218229770660e-02,-8.267949521541595459e-02,-1.706040650606155396e-01,-3.198619186878204346e-02,2.807985246181488037e-02,-1.749704182147979736e-01,-4.341941326856613159e-03,1.198556497693061829e-01,-3.003334403038024902e-01,9.773242473602294922e-02,1.054849708452820778e-03,-1.933048665523529053e-01,-8.057488501071929932e-02,-1.704342779703438282e-03,-1.026978269219398499e-01,2.337976358830928802e-03
-3.863302990794181824e-02,1.158460788428783417e-02,-4.598502069711685181e-02,-8.075315505266189575e-02,7.898729294538497925e-02,1.250881049782037735e-02,-7.386898249387741089e-02,-4.545047134160995483e-02,-1.785526052117347717e-02,1.295033842325210571e-01,-6.527018547058105469e-02,1.048433259129524231e-01,-4.779382422566413879e-02,-2.153846621513366699e-02,-6.554149091243743896e-02,-2.506831474602222443e-02,1.182158011943101883e-02,5.597400292754173279e-02,-4.259864613413810730e-02,1.026757434010505676e-01,-7.058198004961013794e-02,-1.675111008808016777e-03,7.649758458137512207e-02,1.196826715022325516e-02,-6.432551890611648560e-02,1.361141353845596313e-01,-2.518543601036071777e-02,-3.928982093930244446e-02,7.392912358045578003e-02,1.055067405104637146e-01,-1.030345726758241653e-02,1.017027869820594788e-01,5.834519490599632263e-02,7.247187942266464233e-02,5.873122811317443848e-02,3.552731126546859741e-02,1.033828258514404297e-01,-1.119070574641227722e-01,5.196598172187805176e-02,5.850706994533538818e-02,-5.579642951488494873e-02,-7.081371545791625977e-02,2.598448842763900757e-02,1.604667864739894867e-03,5.372344329953193665e-02,-9.031402319669723511e-02,2.823364175856113434e-02,9.896117448806762695e-02,2.716199681162834167e-02,1.080074831843376160e-01,-2.598985433578491211e-01,-3.466010093688964844e-02,8.976493775844573975e-02,4.411064460873603821e-02,-6.123652681708335876e-02,9.586952626705169678e-02,-3.228596597909927368e-02,-2.807537466287612915e-02,-4.192988853901624680e-03,8.136261254549026489e-02,5.629028752446174622e-02,-2.847617119550704956e-02,6.524185184389352798e-03,1.768704131245613098e-02,1.309181153774261475e-01,1.038911715149879456e-01,1.323707699775695801e-01,7.979755289852619171e-03,-1.099200081080198288e-02,2.252953127026557922e-02,3.270757570862770081e-02,-5.488039553165435791e-02,-6.006730720400810242e-03,-4.049355164170265198e-02,-1.498015411198139191e-02,-4.656370356678962708e-02,-1.078473217785358429e-02,1.589166559278964996e-02,7.772075384855270386e-02,-4.181268811225891113e-02,6.760855019092559814e-02,4.265050217509269714e-02,1.979890018701553345e-01,3.028633072972297668e-02,-5.466511845588684082e-02,-3.294915705919265747e-02,5.615661665797233582e-02,-4.663141071796417236e-02,-2.237776760011911392e-03,-1.139687150716781616e-01,6.163868680596351624e-02,4.200291633605957031e-02,8.552472293376922607e-02,-7.413092255592346191e-02,-2.455357089638710022e-02,2.402507886290550232e-02,1.212696582078933716e-01,-6.140985712409019470e-02,8.874944597482681274e-02,6.794545054435729980e-02
-2.878845669329166412e-02,5.477330461144447327e-02,8.589304983615875244e-02,-4.514726623892784119e-02,1.518221478909254074e-02,5.815083906054496765e-02,1.151568591594696045e-01,2.141617704182863235e-03,6.352953612804412842e-02,1.499194204807281494e-01,-2.481161244213581085e-02,1.158033218234777451e-02,3.627596050500869751e-02,6.269424408674240112e-02,-5.262671783566474915e-02,5.335021391510963440e-02,5.510970205068588257e-02,2.157816477119922638e-02,4.911749158054590225e-03,5.587372183799743652e-02,2.518315240740776062e-02,-1.452900283038616180e-02,1.156865507364273071e-01,3.950564563274383545e-02,-2.636730857193470001e-02,-1.480744965374469757e-02,4.467887431383132935e-02,1.449971459805965424e-02,-4.009961336851119995e-02,7.105383276939392090e-02,-4.714693874120712280e-02,-4.541506618261337280e-02,-5.791985616087913513e-02,2.956655062735080719e-02,5.764911323785781860e-02,7.105036824941635132e-02,8.783546090126037598e-02,-1.053458973765373230e-01,-4.569231718778610229e-02,-2.749153412878513336e-02,6.129594519734382629e-02,-1.901010982692241669e-02,-6.469611078500747681e-02,-4.506408702582120895e-03,2.091568149626255035e-02,-6.038036197423934937e-02,1.161093544214963913e-02,-2.731349505484104156e-02,5.259513109922409058e-02,4.767784103751182556e-02,-1.411289423704147339e-01,-5.844375863671302795e-02,-6.333085149526596069e-02,9.543356299400329590e-02,-4.005087912082672119e-02,2.961811842396855354e-03,1.139131560921669006e-01,4.213497973978519440e-03,2.789643034338951111e-02,1.763292006216943264e-03,-2.072715200483798981e-02,1.073783114552497864e-01,1.383810117840766907e-02,-6.546743959188461304e-02,7.307671010494232178e-02,6.152703613042831421e-02,7.554472982883453369e-02,3.761334344744682312e-02,-9.328441321849822998e-02,1.507103536278009415e-02,9.596442803740501404e-03,-7.414988707751035690e-03,-1.113691702485084534e-01,9.947846084833145142e-02,9.706479310989379883e-02,1.690113544464111328e-02,-4.436015151441097260e-03,-7.668066024780273438e-02,6.950929015874862671e-02,4.997116327285766602e-02,-4.517543688416481018e-02,1.057302672415971756e-02,1.870955526828765869e-01,3.226391039788722992e-03,-7.103573530912399292e-02,9.914976358413696289e-02,1.509515102952718735e-02,2.990724146366119385e-02,8.651781082153320312e-02,-1.269290745258331299e-01,6.512816250324249268e-02,-1.115321069955825806e-01,1.237251386046409607e-01,6.592700630426406860e-02,8.912891149520874023e-02,8.487188071012496948e-02,5.488912016153335571e-02,-4.320234432816505432e-02,-1.220077276229858398e-02,-6.086167693138122559e-02
7.501889765262603760e-02,4.570347815752029419e-02,4.859186336398124695e-02,-3.148647770285606384e-02,-4.672203212976455688e-02,6.490939855575561523e-02,4.316818341612815857e-02,-5.857790261507034302e-02,-7.136367261409759521e-02,1.255027353763580322e-01,-9.322102181613445282e-03,-3.804886713624000549e-03,-2.293780632317066193e-02,-7.026819884777069092e-02,-2.681210171431303024e-03,-3.364495187997817993e-02,6.627695262432098389e-02,3.326458111405372620e-02,3.775913640856742859e-02,8.796402812004089355e-02,1.001583486795425415e-01,-9.763458371162414551e-02,-4.281097277998924255e-02,-1.688279211521148682e-02,7.824644446372985840e-03,-2.686124993488192558e-03,1.028647050261497498e-01,-7.280018180608749390e-02,-5.174075812101364136e-02,-2.541179128456860781e-04,-4.503752291202545166e-02,-9.839586168527603149e-02,8.216285146772861481e-03,-2.948571182787418365e-02,4.801421612501144409e-02,9.478461742401123047e-02,-4.447028413414955139e-02,-8.364111930131912231e-02,2.791721560060977936e-02,1.562346965074539185e-01,-4.671612009406089783e-02,6.621133536100387573e-02,8.625731803476810455e-03,1.316977590322494507e-01,9.368371963500976562e-02,-8.269244432449340820e-02,-3.754002600908279419e-02,3.810372948646545410e-02,3.501318395137786865e-02,8.330015093088150024e-02,-4.892273619771003723e-02,5.040653981268405914e-03,7.371868193149566650e-02,9.054638445377349854e-02,5.498090758919715881e-02,-3.719060495495796204e-02,9.311447292566299438e-02,5.006927251815795898e-02,1.039117425680160522e-01,-1.448237616568803787e-02,-8.381315320730209351e-02,9.341385960578918457e-02,1.642891019582748413e-01,-7.661005854606628418e-02,1.652365028858184814e-01,9.660825878381729126e-02,7.870078086853027344e-02,2.778960950672626495e-02,5.364279448986053467e-02,3.758250176906585693e-02,-6.918449699878692627e-02,4.430233687162399292e-02,3.460404276847839355e-02,-5.780394189059734344e-03,8.469124324619770050e-03,5.161147937178611755e-02,-5.100090056657791138e-02,-7.364013697952032089e-03,4.666701704263687134e-02,5.266695469617843628e-02,-1.022993400692939758e-02,1.115476712584495544e-01,1.145514249801635742e-01,-1.269036978483200073e-01,7.219892740249633789e-02,9.346480667591094971e-02,4.789280146360397339e-02,6.803308427333831787e-02,-3.050676360726356506e-02,-7.284644246101379395e-02,-8.057574927806854248e-02,4.216629266738891602e-02,-5.163205415010452271e-02,9.806930273771286011e-02,1.037961468100547791e-01,-8.711023628711700439e-02,1.300134062767028809e-01,-5.550412833690643311e-02,7.315030694007873535e-02,6.358752399682998657e-02
7.281757146120071411e-02,-1.187049150466918945e-01,-2.571713994257152081e-04,1.093302220106124878e-01,-2.569799125194549561e-01,-1.564349830150604248e-01,9.207228571176528931e-02,-5.576959997415542603e-02,1.154029816389083862e-01,-2.474114000797271729e-01,4.109891131520271301e-02,1.668737530708312988e-01,-1.200124025344848633e-01,6.712883710861206055e-02,1.485423594713211060e-01,1.265356987714767456e-01,2.694500386714935303e-01,1.584364771842956543e-01,2.823442593216896057e-02,1.551510095596313477e-01,1.257056593894958496e-01,3.026279211044311523e-01,1.351259201765060425e-01,-6.326419115066528320e-02,6.169729679822921753e-02,-1.869152635335922241e-01,8.399426005780696869e-03,-1.431129723787307739e-01,-1.549742668867111206e-01,-2.825190126895904541e-01,-3.387845680117607117e-02,8.620385080575942993e-02,1.197312474250793457e-01,-5.563300475478172302e-02,-3.324767053127288818e-01,1.364695727825164795e-01,-9.586103260517120361e-02,6.281916797161102295e-02,6.499528139829635620e-02,-2.490722537040710449e-01,-6.968919187784194946e-02,-9.697438031435012817e-02,-2.835711836814880371e-01,-1.422793567180633545e-01,-3.177416324615478516e-02,-1.004518717527389526e-01,3.249660879373550415e-02,-2.150039076805114746e-01,3.026310503482818604e-01,2.873592376708984375e-01,-1.023258417844772339e-01,7.515560090541839600e-02,6.391171365976333618e-03,5.659935995936393738e-02,2.312109768390655518e-01,-1.926223635673522949e-01,-8.877120018005371094e-01,2.473252639174461365e-02,1.791345328092575073e-01,-1.504335850477218628e-01,1.210239343345165253e-02,-2.335864864289760590e-02,-2.474116981029510498e-01,-1.402098778635263443e-02,3.129585459828376770e-02,8.108635991811752319e-02,1.427285969257354736e-01,3.432808816432952881e-02,-2.372007630765438080e-02,2.177123352885246277e-02,2.221643924713134766e-01,-1.765024960041046143e-01,1.657578907907009125e-02,-7.701098173856735229e-02,-8.754096925258636475e-02,6.597944349050521851e-02,2.427931278944015503e-01,-2.902496419847011566e-02,4.882131179329007864e-04,-1.372145116329193115e-01,2.047375291585922241e-01,-7.458782196044921875e-02,-1.008619308471679688e+00,1.263842284679412842e-01,7.051374018192291260e-02,8.187772333621978760e-02,-8.114299923181533813e-02,8.852836489677429199e-02,-2.186286300420761108e-01,3.131720051169395447e-02,1.660296469926834106e-01,-1.824363507330417633e-02,-9.805777668952941895e-02,1.960210353136062622e-01,1.279883831739425659e-02,-6.818082928657531738e-02,1.360857393592596054e-02,7.365278154611587524e-02,-1.917903721332550049e-01,-5.426204204559326172e-02
-2.232077345252037048e-02,2.157530933618545532e-01,5.415198951959609985e-02,5.843846127390861511e-02,-6.823018193244934082e-02,-1.024801284074783325e-01,1.622335426509380341e-02,6.814547628164291382e-02,1.130823865532875061e-01,5.400385241955518723e-03,-3.696670383214950562e-02,1.033384501934051514e-01,4.062153771519660950e-02,-1.073051430284976959e-02,1.479050237685441971e-02,-1.770181953907012939e-02,4.850998893380165100e-02,1.119584892876446247e-03,2.219367958605289459e-02,-5.052354931831359863e-02,9.999078512191772461e-02,-1.022243127226829529e-01,-8.417787402868270874e-02,-2.081089653074741364e-02,5.806322023272514343e-02,-2.920595929026603699e-03,3.118092566728591919e-02,4.051667079329490662e-02,-5.577005818486213684e-02,3.239176794886589050e-02,1.416254416108131409e-02,-2.202970162034034729e-02,-4.849347099661827087e-02,2.417513751424849033e-04,5.250683054327964783e-02,4.565518721938133240e-02,4.486277699470520020e-02,-2.505582571029663086e-02,1.495269220322370529e-02,1.390936039388179779e-02,2.738600410521030426e-02,3.300362080335617065e-02,4.743479564785957336e-02,9.449821710586547852e-02,1.013376936316490173e-01,-7.679199427366256714e-02,9.422457218170166016e-02,-1.764785149134695530e-03,-5.102864280343055725e-02,7.078370451927185059e-02,-2.211576513946056366e-02,9.491637349128723145e-02,-5.294106900691986084e-03,9.022665023803710938e-02,7.753808051347732544e-02,-7.564770523458719254e-03,-2.698827907443046570e-02,-4.240814596414566040e-02,9.639026224613189697e-02,-7.550914771854877472e-03,-7.338198274374008179e-02,3.621918335556983948e-02,1.446147263050079346e-01,5.844534188508987427e-02,4.161867871880531311e-02,3.160883486270904541e-02,1.264353543519973755e-01,6.975229829549789429e-02,-7.657316327095031738e-02,2.428752742707729340e-02,4.803738370537757874e-02,-4.817071184515953064e-02,-6.839593499898910522e-02,1.510956138372421265e-02,1.215367093682289124e-01,7.302793860435485840e-02,-1.405015401542186737e-02,9.706840664148330688e-02,-3.939881920814514160e-02,-3.237479925155639648e-02,-7.872942090034484863e-02,4.771460965275764465e-02,1.602378934621810913e-01,4.040600359439849854e-02,-4.540144279599189758e-02,-1.165632437914609909e-02,3.917017020285129547e-03,-1.308671105653047562e-02,6.495744735002517700e-02,-4.424091055989265442e-02,-4.822565242648124695e-02,3.524455800652503967e-02,-7.711593061685562134e-02,-2.765452861785888672e-02,4.875099286437034607e-02,-8.988055586814880371e-02,1.074448376893997192e-01,-6.341396830976009369e-03,-2.525418763980269432e-03,-4.985714331269264221e-03
1.181427836418151855e-01,8.188245445489883423e-02,-3.276703655719757080e-01,2.285072505474090576e-01,-1.514092385768890381e-01,-3.483627438545227051e-01,-2.597137540578842163e-02,-3.568816930055618286e-02,9.104932099580764771e-02,5.967473611235618591e-02,8.279865235090255737e-02,3.905509784817695618e-02,-9.479426592588424683e-02,-4.596696794033050537e-01,1.407034099102020264e-01,8.554976433515548706e-02,6.130793318152427673e-02,8.413465321063995361e-02,-1.814124137163162231e-01,1.302876472473144531e-01,1.447845399379730225e-01,1.269274055957794189e-01,-8.893632888793945312e-02,-1.207772195339202881e-01,5.566408857703208923e-02,4.709246009588241577e-02,-1.983108669519424438e-01,-2.743586301803588867e-01,-1.452671289443969727e-01,-4.791072104126214981e-03,-1.156204491853713989e-01,8.713096030987799168e-04,3.456618404015898705e-03,-3.168678656220436096e-02,-1.329595744609832764e-01,9.771122038364410400e-02,-9.463495574891567230e-03,1.678532809019088745e-01,-1.041701762005686760e-03,-2.321988344192504883e-02,-4.016441851854324341e-02,5.455433949828147888e-02,1.924041062593460083e-01,-9.690054506063461304e-02,-7.924772799015045166e-02,3.584457561373710632e-03,-2.484533041715621948e-01,8.536894619464874268e-02,-4.030067846179008484e-02,1.873821914196014404e-01,-1.047020331025123596e-01,-5.279723182320594788e-02,-5.542982742190361023e-02,-3.727012276649475098e-01,6.871691346168518066e-02,3.460670113563537598e-01,-1.767769157886505127e-01,-1.342689841985702515e-01,1.075584143400192261e-01,-4.588021337985992432e-01,8.011026680469512939e-02,2.005922235548496246e-02,-7.051286697387695312e-01,8.877223730087280273e-02,1.395064145326614380e-01,-3.991501033306121826e-01,-5.929031372070312500e-01,-4.927769675850868225e-02,4.166779667139053345e-02,4.860232770442962646e-02,1.055324971675872803e-01,3.131848573684692383e-02,1.588664501905441284e-01,8.810169249773025513e-02,5.153134092688560486e-02,2.689836025238037109e-01,1.590528935194015503e-01,-7.607025559991598129e-03,-1.978744119405746460e-01,1.390211880207061768e-01,1.071157157421112061e-01,-1.403229404240846634e-02,-4.172820150852203369e-01,-4.846038669347763062e-02,8.932206034660339355e-02,1.663371622562408447e-01,1.094921678304672241e-01,-7.616601884365081787e-02,-1.153620705008506775e-02,-2.184166461229324341e-01,9.811948239803314209e-02,-7.814612984657287598e-02,8.950755000114440918e-02,5.982737988233566284e-02,1.650321632623672485e-01,1.844117045402526855e-01,1.133501231670379639e-01,2.051123976707458496e-01,2.115330845117568970e-01,9.864864498376846313e-02
1.586215049028396606e-01,-9.644503146409988403e-02,1.493374109268188477e-01,-2.715358138084411621e-02,-8.349147439002990723e-02,-4.337363690137863159e-02,9.167464077472686768e-02,-1.015111617743968964e-02,-6.422715634107589722e-02,-1.677868813276290894e-01,2.818998135626316071e-02,7.115732878446578979e-02,8.430320769548416138e-02,4.306110739707946777e-02,8.154176175594329834e-02,7.376095652580261230e-02,1.376665383577346802e-01,-5.149809177964925766e-03,2.595066465437412262e-02,8.070594817399978638e-02,5.330258235335350037e-02,1.697221100330352783e-01,8.103380352258682251e-02,8.357203006744384766e-02,-1.158943697810173035e-01,1.041650027036666870e-02,3.217347711324691772e-02,-1.226313561201095581e-01,4.844243172556161880e-03,-7.333606481552124023e-02,-3.254761546850204468e-02,4.475320689380168915e-03,-2.263832278549671173e-02,5.580581352114677429e-02,-7.024591416120529175e-02,1.676259487867355347e-01,1.679645851254463196e-02,4.322146624326705933e-02,-6.126499921083450317e-02,-1.370676755905151367e-01,7.481023669242858887e-02,-7.995653152465820312e-02,-7.400707807391881943e-03,-8.582458645105361938e-02,-1.838499121367931366e-02,4.170740023255348206e-02,3.327244892716407776e-02,-1.060642395168542862e-02,1.617240756750106812e-01,3.197804093360900879e-02,-2.853737957775592804e-02,4.278343170881271362e-02,8.887791633605957031e-02,-5.301372706890106201e-02,6.149174273014068604e-02,-1.179466694593429565e-01,-3.296511471271514893e-01,-1.146313548088073730e-02,6.768412888050079346e-02,-5.623734742403030396e-02,4.366954788565635681e-02,-2.777886390686035156e-02,-1.886637508869171143e-02,5.425606667995452881e-02,5.165144428610801697e-02,4.717569798231124878e-02,4.185317084193229675e-02,-6.085742264986038208e-02,-9.205142408609390259e-02,-5.916257202625274658e-02,1.637078076601028442e-01,-5.994597449898719788e-02,8.276139199733734131e-02,1.052801311016082764e-02,-3.048756718635559082e-02,1.300608515739440918e-01,2.162691652774810791e-01,4.697455558925867081e-03,-1.018658578395843506e-01,1.578473895788192749e-01,4.155533015727996826e-02,-1.052161827683448792e-01,-2.465919256210327148e-01,1.166532374918460846e-02,-1.307527255266904831e-02,-2.668945118784904480e-02,-2.574201859533786774e-02,1.601025313138961792e-01,-2.933463640511035919e-02,5.680923536419868469e-02,1.768695414066314697e-01,-6.095131486654281616e-02,-8.080750703811645508e-02,-8.708907291293144226e-03,-1.092799678444862366e-01,2.877744613215327263e-03,1.251553185284137726e-02,1.587059944868087769e-01,6.989901512861251831e-02,-5.100186169147491455e-02
-1.435542404651641846e-01,1.036973595619201660e-01,-2.019752711057662964e-01,9.321984834969043732e-03,-1.030165120027959347e-03,-2.477507479488849640e-02,-9.715840220451354980e-02,-3.681447729468345642e-02,1.115212496370077133e-02,9.958873689174652100e-02,-3.225057125091552734e-01,5.113460123538970947e-02,2.851500548422336578e-02,-1.615336686372756958e-01,5.719861015677452087e-02,2.737916819751262665e-02,8.568318188190460205e-02,5.066777393221855164e-02,4.442287608981132507e-02,-1.385841965675354004e-01,7.343791425228118896e-03,-2.641594782471656799e-02,-1.620400347746908665e-03,-6.952185183763504028e-02,3.036511689424514771e-02,1.313960254192352295e-01,-8.513598889112472534e-02,3.279421944171190262e-03,1.411395147442817688e-03,-1.474302262067794800e-01,-1.124726459383964539e-01,-1.921193301677703857e-02,1.335791125893592834e-02,9.536426514387130737e-02,-6.161272153258323669e-02,-8.044070750474929810e-02,1.223531737923622131e-01,-2.504644915461540222e-02,-1.165544986724853516e-01,7.062256336212158203e-02,-7.752099633216857910e-02,-9.525140374898910522e-02,1.362581849098205566e-01,4.728167131543159485e-02,1.195502933114767075e-02,3.223420307040214539e-02,9.530781209468841553e-02,4.715273156762123108e-02,5.595391988754272461e-02,2.645994722843170166e-02,2.571850828826427460e-02,-3.074931679293513298e-03,-6.672699749469757080e-02,-1.795118153095245361e-01,-3.283057212829589844e-01,-8.164679631590843201e-03,-3.664938267320394516e-03,1.160322427749633789e-01,-5.949493125081062317e-02,-6.983731687068939209e-02,6.534648686647415161e-02,1.417856067419052124e-01,2.520594298839569092e-01,-6.553992163389921188e-03,5.554932355880737305e-02,-2.869798541069030762e-01,-3.530372865498065948e-03,-9.566954523324966431e-02,-1.209250465035438538e-01,-5.799713730812072754e-02,-9.814643859863281250e-02,5.521334242075681686e-03,9.323912113904953003e-02,1.581556200981140137e-01,7.526782574132084846e-04,-5.954708158969879150e-02,3.575764223933219910e-02,8.633381687104701996e-03,3.373071551322937012e-02,4.336459934711456299e-02,-2.622083127498626709e-01,8.273005485534667969e-02,3.770895898342132568e-01,4.638319462537765503e-02,1.471991389989852905e-01,-8.106559514999389648e-02,-5.257142335176467896e-02,-2.198174893856048584e-01,1.099253967404365540e-01,-2.316393405199050903e-01,-9.004066139459609985e-02,2.620483003556728363e-02,-7.062825560569763184e-02,-7.159402221441268921e-02,1.226487010717391968e-01,9.202107042074203491e-02,1.105756759643554688e-01,-1.916573345661163330e-01,5.951404944062232971e-02,-5.677885562181472778e-02
1.288127154111862183e-01,9.298445284366607666e-02,-1.936618983745574951e-02,8.216717094182968140e-02,5.704613402485847473e-02,-3.802549093961715698e-02,5.064114183187484741e-02,5.849569290876388550e-02,1.108371391892433167e-01,4.691204056143760681e-02,7.167188450694084167e-03,8.055948466062545776e-02,-2.665288001298904419e-02,-3.825977072119712830e-02,2.158784866333007812e-02,-5.157725419849157333e-03,-3.194935992360115051e-02,-5.324760824441909790e-02,9.441076964139938354e-02,-3.870081854984164238e-04,7.528195530176162720e-02,2.150242216885089874e-02,6.226811185479164124e-02,-1.549476105719804764e-02,3.603615239262580872e-02,-2.570848539471626282e-02,1.084645465016365051e-01,-2.757265046238899231e-02,1.632663048803806305e-02,3.412552177906036377e-02,-8.825310319662094116e-02,1.145324036478996277e-01,-6.089694425463676453e-02,-1.927919499576091766e-02,2.763027511537075043e-02,6.844530254602432251e-02,3.857125341892242432e-02,3.919541463255882263e-02,-6.485684216022491455e-02,1.125636026263237000e-01,-2.337580372113734484e-04,-3.551861643791198730e-02,-1.973629929125308990e-02,-2.184770256280899048e-02,9.165907651185989380e-02,1.603707298636436462e-02,8.265562355518341064e-02,6.154625117778778076e-02,-3.427712619304656982e-02,1.522871851921081543e-02,2.515143156051635742e-02,4.706886410713195801e-02,7.354550063610076904e-02,3.733754530549049377e-02,-2.165589481592178345e-02,3.464735299348831177e-02,-5.945915356278419495e-02,-4.652790352702140808e-02,-5.331298708915710449e-02,1.860674284398555756e-02,1.833365857601165771e-02,-5.123955011367797852e-02,5.959721654653549194e-02,6.716763973236083984e-02,1.284036487340927124e-01,7.692596316337585449e-02,1.556827127933502197e-01,1.135913655161857605e-01,-7.821817696094512939e-02,-1.149080693721771240e-01,-5.453058332204818726e-02,-3.608992323279380798e-02,6.627904716879129410e-03,-6.606264412403106689e-02,3.057912737131118774e-02,-6.520037353038787842e-02,2.741200616583228111e-03,6.207815930247306824e-02,-1.066480390727519989e-02,-7.529169321060180664e-02,6.570580881088972092e-03,5.703334137797355652e-02,1.581824272871017456e-01,5.802379921078681946e-02,-6.260739266872406006e-02,-1.492644567042589188e-02,-3.982364013791084290e-02,-1.532866060733795166e-02,-8.466102927923202515e-02,-5.311599746346473694e-02,-5.495206639170646667e-02,-6.254243850708007812e-02,1.105283126235008240e-01,-4.890736192464828491e-02,2.168737538158893585e-02,-5.381238181143999100e-03,2.990315668284893036e-02,-5.705492943525314331e-02,-7.277716696262359619e-02,6.822762638330459595e-02
1.147330328822135925e-01,6.830189377069473267e-02,-6.574020534753799438e-02,-8.393725007772445679e-02,2.079587802290916443e-02,-3.411328420042991638e-02,-2.947568148374557495e-02,7.454182952642440796e-02,5.841641500592231750e-02,6.634880602359771729e-02,1.565675949677824974e-03,8.476258069276809692e-02,3.753672167658805847e-02,9.442914277315139771e-02,-7.966775447130203247e-02,-2.401399612426757812e-02,3.817692049778997898e-04,5.648406222462654114e-02,-6.211232393980026245e-02,8.837434463202953339e-03,1.057199612259864807e-01,3.451547026634216309e-02,8.571130037307739258e-02,6.527978181838989258e-02,-2.940747700631618500e-02,9.741779416799545288e-03,4.800709709525108337e-02,-4.665040224790573120e-02,3.571398183703422546e-02,8.742221444845199585e-02,-1.067158430814743042e-01,-2.468591369688510895e-02,-6.203436478972434998e-02,-3.888694941997528076e-02,6.903653591871261597e-02,-6.231385096907615662e-02,1.065942496061325073e-01,-4.037159308791160583e-02,6.122002843767404556e-03,5.925269052386283875e-02,3.125385195016860962e-02,4.088729619979858398e-02,-8.819120936095714569e-03,1.281197667121887207e-01,2.819010615348815918e-02,-5.891935154795646667e-02,-5.575207993388175964e-03,5.616449937224388123e-02,5.211143568158149719e-02,8.641764521598815918e-02,-2.570816874504089355e-02,1.070595458149909973e-01,2.973985299468040466e-02,8.373788744211196899e-02,-4.691350460052490234e-02,1.860868185758590698e-02,-2.098978124558925629e-02,-4.357573762536048889e-02,-4.505733773112297058e-02,7.504552602767944336e-02,2.188343368470668793e-02,4.306123405694961548e-02,9.305033087730407715e-02,-3.725863993167877197e-02,8.421087265014648438e-02,-6.647772621363401413e-03,1.161957159638404846e-01,-8.418943732976913452e-02,8.602192252874374390e-02,6.321396678686141968e-02,-3.200201550498604774e-03,6.987674534320831299e-02,4.176473990082740784e-02,-5.280523374676704407e-02,-7.508323062211275101e-03,6.157420575618743896e-02,-6.139606609940528870e-02,-1.952131092548370361e-02,5.368335172533988953e-02,-8.675391227006912231e-02,1.406100858002901077e-02,8.714911527931690216e-03,8.310996741056442261e-02,1.771791465580463409e-02,-1.048724800348281860e-01,1.675521023571491241e-02,3.074968606233596802e-02,8.875609189271926880e-02,-5.248552560806274414e-02,-2.688449248671531677e-02,1.118385568261146545e-01,-1.616268977522850037e-02,4.533752053976058960e-02,5.459650978446006775e-02,9.582829475402832031e-02,-2.066405303776264191e-02,-6.694883853197097778e-02,5.599705502390861511e-02,1.023441851139068604e-01,-2.075568959116935730e-02
-4.548714496195316315e-03,9.323833137750625610e-02,8.391467481851577759e-02,4.446165263652801514e-02,8.599042147397994995e-02,2.190163731575012207e-02,7.010986655950546265e-02,3.541933745145797729e-02,-3.789153695106506348e-02,6.923857331275939941e-02,-2.393408492207527161e-02,-6.917020678520202637e-02,-1.931021455675363541e-03,-3.563360497355461121e-02,-7.551114261150360107e-02,7.483682036399841309e-02,-6.427034735679626465e-02,8.382950723171234131e-02,3.879391774535179138e-02,2.152388542890548706e-02,2.051773481070995331e-02,-7.741922140121459961e-02,-2.152708172798156738e-02,3.826208412647247314e-02,1.850583404302597046e-02,-1.471132226288318634e-02,7.116018980741500854e-02,3.645697236061096191e-02,-4.391565546393394470e-02,2.161750756204128265e-02,-3.364383056759834290e-02,7.529059797525405884e-02,-3.789080539718270302e-03,3.045048378407955170e-02,4.259701445698738098e-02,4.423324018716812134e-02,5.714821815490722656e-02,7.523629814386367798e-02,1.076637059450149536e-01,-1.796837896108627319e-02,-4.237778484821319580e-02,-1.148757524788379669e-02,3.008522465825080872e-02,7.195966690778732300e-02,-2.826863527297973633e-02,-4.695696756243705750e-02,1.967051625251770020e-02,1.639625243842601776e-02,-1.511900103650987148e-03,9.117507189512252808e-02,-5.353178456425666809e-02,-1.981169730424880981e-02,1.565287634730339050e-02,7.848759740591049194e-02,-3.171767294406890869e-02,-7.013553380966186523e-02,1.428870707750320435e-01,2.306225895881652832e-02,8.822090923786163330e-03,2.618119493126869202e-02,3.421784937381744385e-02,-4.778914619237184525e-03,1.715071648359298706e-01,-7.109154760837554932e-02,1.212093532085418701e-01,-6.845167279243469238e-02,9.404643625020980835e-02,1.602097414433956146e-02,-5.676165223121643066e-02,-9.036057442426681519e-02,1.218325365334749222e-02,-6.023002415895462036e-02,5.723052844405174255e-02,6.252881605178117752e-03,-4.734560847282409668e-02,7.291486114263534546e-02,7.462523132562637329e-02,-9.394038468599319458e-03,6.797903031110763550e-02,-7.740778475999832153e-02,9.826603531837463379e-02,1.001659110188484192e-01,6.209388375282287598e-02,6.027824431657791138e-02,-5.868532508611679077e-02,1.000285372138023376e-01,4.631302133202552795e-02,4.012652114033699036e-02,4.873129725456237793e-02,-2.437873929738998413e-02,5.634410306811332703e-02,7.438444346189498901e-02,4.466016590595245361e-02,5.108024342916905880e-04,-3.183506056666374207e-02,3.517071017995476723e-03,3.741237893700599670e-02,-1.031227260828018188e-01,6.016978994011878967e-02,7.749361544847488403e-02
1.157057955861091614e-01,1.264104396104812622e-01,9.419466555118560791e-02,2.870015799999237061e-02,-1.899955607950687408e-02,3.772587329149246216e-02,8.949105441570281982e-02,1.335232853889465332e-01,-4.754345864057540894e-02,1.113734468817710876e-01,-6.629951298236846924e-03,6.631377339363098145e-02,2.468996681272983551e-03,-3.704249486327171326e-02,3.624004870653152466e-02,1.036625057458877563e-01,-2.365479804575443268e-02,-1.212584692984819412e-02,1.090148314833641052e-01,-4.494471475481987000e-02,9.025194495916366577e-02,7.732729427516460419e-03,-4.684324376285076141e-03,8.923851698637008667e-02,1.444109156727790833e-02,1.896716468036174774e-02,1.151757538318634033e-01,1.338718235492706299e-01,-3.467258065938949585e-02,1.274892594665288925e-02,-4.755154252052307129e-02,-3.521228954195976257e-02,-1.892922446131706238e-02,-3.940583020448684692e-02,8.405484259128570557e-02,1.106918305158615112e-01,3.766018152236938477e-02,-3.645928204059600830e-02,2.065721154212951660e-02,-2.815391868352890015e-02,3.239572793245315552e-02,9.238764643669128418e-03,-7.504726946353912354e-02,3.716517612338066101e-02,7.148566655814647675e-03,-9.865637123584747314e-02,-2.849166467785835266e-02,4.519041255116462708e-02,1.672777161002159119e-02,6.474299728870391846e-02,-7.373637706041336060e-02,-5.043539404869079590e-02,1.845658384263515472e-02,2.008111961185932159e-02,-6.729177385568618774e-02,-3.105931915342807770e-02,3.528833389282226562e-02,2.936438471078872681e-02,-7.675527781248092651e-02,6.784688681364059448e-02,1.078895404934883118e-01,-6.779155880212783813e-02,1.116154640913009644e-01,4.580907896161079407e-02,7.220608741044998169e-02,1.073634847998619080e-01,-1.247480139136314392e-02,-5.495242029428482056e-02,-6.063538789749145508e-02,4.414932336658239365e-04,-7.187939435243606567e-02,-4.576272889971733093e-02,-6.841984391212463379e-02,7.055926322937011719e-02,3.319754078984260559e-02,8.180936425924301147e-02,-1.080551669001579285e-01,-1.458017900586128235e-02,6.875169277191162109e-02,-1.164436223916709423e-03,2.336781658232212067e-02,2.210054546594619751e-02,4.698549211025238037e-02,9.691134095191955566e-02,-2.289396524429321289e-02,9.840555489063262939e-02,-6.339175160974264145e-04,7.934667915105819702e-02,1.078631356358528137e-01,-1.195546686649322510e-01,4.761006683111190796e-02,7.101761549711227417e-02,8.832658641040325165e-03,1.062075421214103699e-02,-1.234478224068880081e-02,-7.245526462793350220e-02,4.573313519358634949e-02,1.286890357732772827e-02,-5.079383775591850281e-02,-4.306138027459383011e-03
-2.582906931638717651e-02,-3.625094294548034668e-01,-2.523822784423828125e-01,-6.025329604744911194e-02,-3.403081372380256653e-02,8.668380230665206909e-02,-1.281400620937347412e-01,8.849134668707847595e-03,-7.226616144180297852e-02,-1.398860961198806763e-01,1.672154366970062256e-01,-3.329658135771751404e-02,1.084537059068679810e-01,-1.615257859230041504e-01,-2.373582422733306885e-01,-3.163553774356842041e-02,9.193132072687149048e-02,-1.652362197637557983e-01,6.678821146488189697e-02,2.129598855972290039e-01,-1.829500794410705566e-01,-2.595392465591430664e-01,-1.496032178401947021e-01,-1.554575515910983086e-03,1.716822385787963867e-01,-8.994866162538528442e-02,1.159688606858253479e-01,-3.775705769658088684e-02,5.014592409133911133e-02,1.339122373610734940e-02,2.496079914271831512e-02,1.241620443761348724e-02,-2.371122688055038452e-02,9.473114460706710815e-02,-1.512495335191488266e-02,1.857565492391586304e-01,4.068986698985099792e-02,1.007706392556428909e-02,-2.158785983920097351e-02,-2.582534253597259521e-01,-2.699295990169048309e-02,-5.525662377476692200e-02,-6.943157315254211426e-02,-3.106142953038215637e-02,-5.313827469944953918e-02,-6.240633502602577209e-02,1.366849336773157120e-02,-1.302035003900527954e-01,-5.858518183231353760e-02,-1.967802345752716064e-01,2.084212750196456909e-01,-2.340475842356681824e-02,8.875001221895217896e-03,-1.923087388277053833e-01,-2.947053015232086182e-01,7.222493737936019897e-02,-1.162325441837310791e-01,1.052757948637008667e-01,3.914405032992362976e-02,-4.087061621248722076e-03,4.724865779280662537e-02,4.796395823359489441e-02,-1.438681632280349731e-01,-1.239490807056427002e-01,-1.294914335012435913e-01,-3.568834364414215088e-01,-1.861179620027542114e-01,1.182299945503473282e-02,-2.199466340243816376e-02,-1.090037971735000610e-01,-3.142419755458831787e-01,4.844520613551139832e-02,-6.677167117595672607e-02,-3.086244463920593262e-01,6.964531540870666504e-02,-4.474611207842826843e-02,2.638687379658222198e-02,2.455213293433189392e-02,-1.002307087182998657e-01,-3.503664955496788025e-02,-3.208051621913909912e-01,-2.496762899681925774e-03,-2.459148615598678589e-01,-1.383912563323974609e-01,-3.779753670096397400e-02,8.486253768205642700e-02,-1.498227715492248535e-01,-3.459382802248001099e-02,-3.627235302701592445e-03,1.351844985038042068e-02,-1.513693779706954956e-01,-2.044020406901836395e-02,2.253625914454460144e-02,1.008958220481872559e-01,1.184597760438919067e-01,-1.329718530178070068e-01,1.983022131025791168e-02,-4.365274310111999512e-01,2.587039582431316376e-02,5.128894001245498657e-02
