-2.148320525884628296e-02,-3.129308670759201050e-02,6.987684220075607300e-02,-1.234571337699890137e-01,-1.886136364191770554e-03,4.235495254397392273e-02,-9.388677775859832764e-02,-3.049120306968688965e-02,7.259060442447662354e-02,1.757420413196086884e-02,1.016531437635421753e-01,2.323253080248832703e-02,-2.601752057671546936e-02,1.007222831249237061e-01,1.467611175030469894e-02,-1.187613233923912048e-02,-5.012272391468286514e-03,-9.255510754883289337e-03,4.090849310159683228e-02,-1.381980180740356445e-01,5.357201211154460907e-03,2.685730904340744019e-02,-5.604967009276151657e-03,1.043237093836069107e-02,-5.810191482305526733e-02,7.933942228555679321e-02,-3.316422551870346069e-02,-5.923659726977348328e-02,5.143482610583305359e-02,6.572502106428146362e-02,-3.222243394702672958e-03,8.679644018411636353e-02,-6.082586012780666351e-03,-4.514642059803009033e-02,-7.285887002944946289e-02,-1.800141483545303345e-02,-4.381345584988594055e-02,8.120553568005561829e-03,6.072786450386047363e-02,8.851703256368637085e-02,-7.893062382936477661e-02,5.177821964025497437e-02,1.206786092370748520e-02,-6.765764672309160233e-03,2.264869771897792816e-02,9.623476862907409668e-02,8.066382259130477905e-02,-8.036974817514419556e-03,-3.845009580254554749e-02,-7.695319503545761108e-02,-5.172459036111831665e-02,-1.570282969623804092e-03,-6.994754821062088013e-02,-1.209816057235002518e-02,3.938952460885047913e-02,-5.124969035387039185e-02
