5.603397637605667114e-02,1.492076925933361053e-02,-7.651353627443313599e-02,4.701508581638336182e-02,2.399545628577470779e-03,3.660943359136581421e-02,4.489575698971748352e-02,-1.166709349490702152e-03,9.402518160641193390e-03,3.162698075175285339e-02,2.520059980452060699e-02,-8.562929928302764893e-03,-2.132406644523143768e-02,-4.594384506344795227e-02,1.904360251501202583e-03,2.174674160778522491e-02,3.590171784162521362e-02,-5.980754643678665161e-02,-1.890795491635799408e-02,-4.342426545917987823e-03,-2.330353669822216034e-02,6.821379810571670532e-02,-2.847971953451633453e-02,-1.179348118603229523e-02,5.636157467961311340e-02,-3.226659074425697327e-02,1.213323231786489487e-02,4.409687966108322144e-02,6.869285553693771362e-02,-5.192865058779716492e-02,3.734550904482603073e-03,5.115405470132827759e-02,7.536931335926055908e-02,3.177734091877937317e-02,3.904490172863006592e-02,-1.172363664954900742e-02,-2.638437598943710327e-02,-4.954168573021888733e-03,4.934731125831604004e-02,3.702059760689735413e-02,-1.559638138860464096e-02,1.737177558243274689e-02,-1.587893627583980560e-02,-6.234319880604743958e-02,1.748555153608322144e-02,-7.518406346207484603e-05,-4.180036112666130066e-02,5.744421482086181641e-02,7.446474395692348480e-03,2.650357596576213837e-02,-7.379636913537979126e-02,6.085423287004232407e-03,-1.117101311683654785e-02,3.782867640256881714e-02,3.069155663251876831e-02,4.753522109240293503e-03,2.644719555974006653e-02,1.329993247054517269e-03,-4.166306555271148682e-02,3.450423479080200195e-02,5.583410710096359253e-02,3.764021769165992737e-02,2.443179115653038025e-02,-2.146372199058532715e-02,4.936821013689041138e-02,-2.686500176787376404e-02,4.421076178550720215e-02,-2.294009784236550331e-03,1.656368374824523926e-02,3.225966542959213257e-02,-9.177686297334730625e-04,1.768231205642223358e-02,5.981954559683799744e-02,3.661663085222244263e-02,8.603783324360847473e-03,9.677616506814956665e-02,4.406501073390245438e-03,-1.637238264083862305e-02,2.706656930968165398e-03,-3.620551154017448425e-02,5.649517104029655457e-02,-2.231959067285060883e-02,5.840469617396593094e-03,1.026351749897003174e-02,-4.729986190795898438e-03,-2.274021692574024200e-02,8.400344289839267731e-03,-1.117929257452487946e-02,6.307097524404525757e-02,-7.015714049339294434e-02,5.370596796274185181e-02,7.401613984256982803e-03,-1.217791344970464706e-02,7.020693738013505936e-03,8.279130607843399048e-02,3.118399903178215027e-02,-9.880524128675460815e-03,6.888586282730102539e-02,-3.840672317892313004e-03,3.124571871012449265e-03,-2.331294119358062744e-02,2.590810507535934448e-02,1.177673228085041046e-02,-6.577407568693161011e-02,1.139030233025550842e-02,3.889837116003036499e-02,2.398462779819965363e-02,-1.147530693560838699e-02,6.086869165301322937e-02,-1.007165666669607162e-02,-7.267031073570251465e-02,1.310914754867553711e-02,1.462754700332880020e-02,2.903417684137821198e-02,2.434954605996608734e-02,3.625555709004402161e-02,1.451867725700139999e-02,4.213731363415718079e-02,3.506378084421157837e-02,2.191714197397232056e-02,2.916214580181986094e-04,2.282813191413879395e-02,-6.520221009850502014e-03,3.691587969660758972e-02,7.406204938888549805e-02,-2.753497287631034851e-02,-9.795238263905048370e-03,3.721157461404800415e-02,5.157698690891265869e-02,-3.335814224556088448e-03,2.623867243528366089e-02,-3.066151030361652374e-02,7.206429727375507355e-03,-5.132763180881738663e-03,1.887809857726097107e-02,6.105773150920867920e-02,4.746496304869651794e-02,-2.743064798414707184e-02,2.982464432716369629e-02,3.154699504375457764e-02,-2.665673568844795227e-02,1.789758680388331413e-04,1.103918254375457764e-02,-8.274790830910205841e-03,7.083012908697128296e-02,6.658885627985000610e-02,8.091257512569427490e-02,5.486306548118591309e-02,3.196560963988304138e-02,-9.625827893614768982e-03,-4.199918732047080994e-02,3.137444704771041870e-02,4.781803488731384277e-02,-6.656894925981760025e-03,3.943256288766860962e-02,4.161919280886650085e-02,2.815694734454154968e-02,4.775909334421157837e-02,3.556667594239115715e-03,-2.738146344199776649e-03,1.991727389395236969e-02,2.570435777306556702e-02,-8.548811078071594238e-03,5.066455900669097900e-02,7.912345230579376221e-02,-2.330189011991024017e-02,2.319249324500560760e-02,1.372975576668977737e-02,3.025089576840400696e-02,5.365382507443428040e-02,7.692008279263973236e-03,-2.663466706871986389e-02,7.447065412998199463e-02,6.628361344337463379e-02,1.541425567120313644e-02,-2.728291787207126617e-02,6.201308965682983398e-02,7.713990658521652222e-02,2.124124579131603241e-02,-3.571850713342428207e-03,6.589390337467193604e-02,9.719007462263107300e-02,-2.015956863760948181e-02,-2.877085097134113312e-02,-3.958836197853088379e-02,-6.392168346792459488e-03,-2.865743078291416168e-02,5.535748973488807678e-02,4.858214233536273241e-04,6.181851029396057129e-02,2.395566785708069801e-03,2.611843124032020569e-02,-9.226763620972633362e-03,-1.746293529868125916e-02,2.671277895569801331e-02,4.618149623274803162e-02,5.129428207874298096e-02,-2.667479403316974640e-02,-1.529753394424915314e-02,3.904008492827415466e-02
