1.131065115332603455e-01,-2.286532148718833923e-02,3.929919004440307617e-02,3.183861076831817627e-02,1.150645199231803417e-03,1.217479258775711060e-01,3.937203437089920044e-02,-1.376059651374816895e-02,7.864302955567836761e-03,-3.655704110860824585e-02,-2.435894869267940521e-02,1.115324944257736206e-01,4.997780546545982361e-02,4.278305545449256897e-02,1.234265975654125214e-02,5.326244607567787170e-02,1.159682404249906540e-02,1.057411134243011475e-01,-3.408072888851165771e-02,-3.485278412699699402e-02,6.316589564085006714e-02,3.001791983842849731e-02,-5.909175612032413483e-03,3.397912904620170593e-02,5.973389372229576111e-02,1.133224815130233765e-01,4.447694122791290283e-02,-4.078394174575805664e-02,8.843363821506500244e-02,-1.797121134586632252e-03,-2.993733435869216919e-02,-1.090932190418243408e-01,-9.575258940458297729e-03,-8.304711431264877319e-02,-1.268200483173131943e-02,3.515440598130226135e-02,9.136877954006195068e-02,-4.385504405945539474e-03,-1.095828786492347717e-01,-5.029432475566864014e-03,9.870807640254497528e-03,-1.168751418590545654e-01,-2.385015133768320084e-03,1.013321876525878906e-01,9.770614653825759888e-02,-1.297200471162796021e-02,-3.113495185971260071e-02,-1.926894858479499817e-02,3.579254448413848877e-02,9.632296860218048096e-03,-1.119240093976259232e-02,-3.431206941604614258e-02,-4.981472715735435486e-02,5.302625149488449097e-02,-4.845275729894638062e-02,7.071100920438766479e-02,8.320491760969161987e-02,-1.180305145680904388e-02,6.422451883554458618e-02,-6.296911090612411499e-02,-5.601211450994014740e-03,3.341332077980041504e-02,4.621044173836708069e-02,-1.960156857967376709e-02,-7.486951351165771484e-02,-3.794199228286743164e-02,-2.868681959807872772e-02,-1.225873176008462906e-02,-1.155535653233528137e-01,-3.983893245458602905e-02,-1.312681846320629120e-02,4.023986402899026871e-03,7.164362072944641113e-02,4.522851854562759399e-02,3.754537180066108704e-02,4.698829725384712219e-02,1.611479930579662323e-02,9.130746126174926758e-02,5.077924206852912903e-02,-1.669038645923137665e-02,-1.366344839334487915e-02,9.914631955325603485e-03,4.716450348496437073e-02,1.047243177890777588e-01,-6.529306527227163315e-03,-3.409887105226516724e-02,7.522626221179962158e-02,-2.282742783427238464e-02,-5.438372120261192322e-02,9.267192333936691284e-03,2.101946249604225159e-02,6.057108566164970398e-02,8.395088464021682739e-02,-3.103492408990859985e-02,1.772795245051383972e-02,-2.830485627055168152e-02,-5.563547089695930481e-02,6.060558184981346130e-02,6.028233096003532410e-02,-2.807129733264446259e-02
