2.883301302790641785e-02,7.548643648624420166e-02,7.265631109476089478e-02,-4.448191612027585506e-04,5.626555904746055603e-02,5.791020393371582031e-02,2.495631016790866852e-02,-6.404017657041549683e-02,8.689296990633010864e-02,8.508605882525444031e-03,-1.972643472254276276e-02,-5.095091089606285095e-02,-2.444997802376747131e-02,-2.091756649315357208e-02,5.817534774541854858e-02,-6.722369045019149780e-02,5.358233675360679626e-02,4.223835188895463943e-03,-3.124993061646819115e-03,-3.245203569531440735e-02,7.476444542407989502e-02,3.127978881821036339e-03,-2.822775021195411682e-02,-1.460895221680402756e-02,-6.022391468286514282e-02,6.664004921913146973e-02,2.250210754573345184e-02,-5.862686783075332642e-02,-4.280432686209678650e-02,-3.049902245402336121e-02,5.913434922695159912e-02,-4.291751980781555176e-02,7.593312859535217285e-02,6.101237609982490540e-02,5.624303966760635376e-02,9.973151609301567078e-04,-8.608406037092208862e-02,5.232604593038558960e-02,5.917998403310775757e-02,-3.629897534847259521e-02,1.576394587755203247e-02,-7.512948662042617798e-02,3.708288818597793579e-02,-4.169345274567604065e-02,1.396418642252683640e-02,5.605804547667503357e-02,-6.334957480430603027e-02,-8.307522535324096680e-02,4.874902591109275818e-02,-6.740930676460266113e-02,-5.612318217754364014e-02,2.779454365372657776e-02,1.022674422711133957e-02,7.132842391729354858e-02,-4.412952810525894165e-02,6.365437060594558716e-02,-5.892184004187583923e-02,1.894382387399673462e-02,-4.533506929874420166e-02,4.957935586571693420e-02,4.234831780195236206e-02,2.265701768919825554e-03,4.148270562291145325e-02,-6.416678428649902344e-02,1.070288941264152527e-02,4.302216321229934692e-02,4.894639551639556885e-02,1.939261704683303833e-02,-4.144676029682159424e-02,4.262864962220191956e-02,-5.449250712990760803e-02,2.698656357824802399e-02,-3.254319017287343740e-04,3.087023645639419556e-02,8.752600848674774170e-02,-7.060686126351356506e-03,-3.684649989008903503e-02,1.778874546289443970e-02,7.646331936120986938e-02,9.376927465200424194e-02,7.272856682538986206e-02,7.338952273130416870e-02,8.003023685887455940e-04,-6.317269289866089821e-04,5.855292454361915588e-02,-1.233892235904932022e-02,7.359755784273147583e-02,6.221315637230873108e-02,3.004748560488224030e-02,6.175511330366134644e-02,8.522950112819671631e-02,2.551943250000476837e-02,-2.789805270731449127e-02,-1.954613812267780304e-02,5.296894814819097519e-03,2.688114903867244720e-02,6.244220584630966187e-02,8.294948376715183258e-03,-4.806482791900634766e-02,-6.389141082763671875e-02,2.523365430533885956e-02,1.293642167001962662e-02,-4.563928395509719849e-02,5.640585720539093018e-02,7.678979635238647461e-02,-2.877115039154887199e-03,3.373874723911285400e-02,-4.109289124608039856e-02,1.122499071061611176e-02,6.609139591455459595e-02,-4.679896682500839233e-02,-8.338198065757751465e-03,-6.332204490900039673e-02,-1.728115975856781006e-02,1.579626090824604034e-02,-2.242688275873661041e-02,-6.860775407403707504e-03,4.319895058870315552e-02,-2.088057994842529297e-02,4.415658116340637207e-02,-1.740130968391895294e-02,3.834898769855499268e-02,1.682299189269542694e-02,-5.379226524382829666e-03,-7.087530195713043213e-02,-2.522742561995983124e-02,-6.921873986721038818e-02,-1.685571041889488697e-03,1.844259910285472870e-02,-4.839470610022544861e-02,-5.371109768748283386e-02,-1.157858036458492279e-02,4.322213679552078247e-02,2.220919542014598846e-02,8.019817061722278595e-03,5.660353228449821472e-02,1.982314325869083405e-02,5.992034450173377991e-02,9.514654986560344696e-03,-4.656324908137321472e-02,3.179492428898811340e-02,1.550679840147495270e-02,-1.740843802690505981e-02,7.460123300552368164e-02,-5.939248204231262207e-02,4.251234233379364014e-02,1.215882692486047745e-02,6.643225997686386108e-02,4.781918227672576904e-02,2.094005420804023743e-02,-1.598916761577129364e-02,4.053324088454246521e-02,-2.330681681632995605e-02,-3.762613609433174133e-02,-6.697064638137817383e-02,1.860065944492816925e-02,4.784846212714910507e-03,-1.744577102363109589e-02,1.489611528813838959e-02,2.384498529136180878e-02,-3.844241797924041748e-02,-2.571369521319866180e-02,4.461057111620903015e-02,4.199356585741043091e-02,4.080155491828918457e-02,3.897709771990776062e-02,4.127611219882965088e-02,4.736973345279693604e-02,-3.688056766986846924e-02,4.352225363254547119e-02,-5.807836726307868958e-02,6.572768092155456543e-02,6.167315691709518433e-02,-3.409546241164207458e-02,2.173452824354171753e-02,-1.104125194251537323e-02,4.533987119793891907e-02,-4.110360145568847656e-02,-3.388499841094017029e-02,4.244916513562202454e-02,1.319717057049274445e-02,4.890814423561096191e-02,6.794989109039306641e-02,-1.729583740234375000e-02,1.957969274371862411e-03,2.350724861025810242e-02,2.973368391394615173e-02,-6.230064854025840759e-02,-6.802938133478164673e-02,7.257096469402313232e-02,-9.286726266145706177e-02,1.485883072018623352e-02,-6.462765485048294067e-02,1.863601058721542358e-02,-6.003706157207489014e-02,7.815531454980373383e-03,-6.781222671270370483e-02,-4.697639122605323792e-02,2.237667795270681381e-03,2.063748799264431000e-02,-4.442774504423141479e-02,4.565504565834999084e-02,4.534573480486869812e-02,7.102171331644058228e-02,4.685937240719795227e-02,-7.909981906414031982e-02,3.945725038647651672e-02,2.064852043986320496e-02,4.803486168384552002e-02,7.101665437221527100e-02,1.333260256797075272e-02,-6.942083127796649933e-03,1.846208982169628143e-02,-1.517198421061038971e-02,-4.219770058989524841e-02,-3.945255652070045471e-02,-1.716768369078636169e-02,2.598429657518863678e-02,-2.763640880584716797e-02,7.115226238965988159e-02,-1.897744648158550262e-02,1.625338569283485413e-02,4.074108228087425232e-02,5.627939477562904358e-02,8.738851547241210938e-02,6.000479310750961304e-02,-2.838632836937904358e-02,2.957051619887351990e-02,3.108652494847774506e-02,3.436945751309394836e-02,3.760391846299171448e-02,5.935378000140190125e-02,2.938361093401908875e-02,-3.119073435664176941e-02,8.553185313940048218e-02,5.180064588785171509e-02,-7.497221231460571289e-02,2.318987809121608734e-02,1.565405726432800293e-02,8.372602611780166626e-02,1.092347428202629089e-01,-3.498948179185390472e-03,-4.265241324901580811e-02,-2.024556323885917664e-02,6.517536938190460205e-02,-5.136076360940933228e-02,4.586337879300117493e-02,5.782580375671386719e-02,1.448418479412794113e-02,-5.772745609283447266e-02,6.421685963869094849e-02,-1.768948277458548546e-03,5.221620947122573853e-02,8.553747832775115967e-02,5.383115634322166443e-02,-2.900610119104385376e-02,-8.689673990011215210e-02,7.474683225154876709e-03,9.642441757023334503e-03,-3.941518068313598633e-02,2.639456093311309814e-02,2.243781834840774536e-02,1.174663100391626358e-02,7.593633979558944702e-02,9.484978020191192627e-02,-5.110675841569900513e-02,7.872169837355613708e-03,2.189056389033794403e-02,3.372738510370254517e-02,9.708574414253234863e-02,-1.706360839307308197e-02,4.713844507932662964e-02,-5.985903367400169373e-02,-4.471982270479202271e-02,-6.611205637454986572e-02,-8.978226222097873688e-03,-3.864146396517753601e-02,1.501495577394962311e-02,3.174804896116256714e-02,1.964135654270648956e-02,2.239030599594116211e-02,-7.348848879337310791e-02,-3.275160118937492371e-02,7.612359523773193359e-02,-3.842845186591148376e-02,-1.873620040714740753e-02,3.590982407331466675e-03,-2.370988205075263977e-02,-7.762396335601806641e-02,-4.354921728372573853e-02,4.060792177915573120e-02,-7.769998162984848022e-03,-7.554216776043176651e-03,3.745116665959358215e-02,1.794848777353763580e-02,1.055457815527915955e-02,-1.473471987992525101e-03,4.510308802127838135e-02,7.195542007684707642e-02,6.706614792346954346e-02,2.508601406589150429e-03,4.283058643341064453e-02,-5.620307102799415588e-02,6.749313324689865112e-02,1.289604045450687408e-02,-3.911728784441947937e-02,4.459865763783454895e-02,-2.188390307128429413e-02,-5.976501107215881348e-02,-4.151149094104766846e-02,5.799989774823188782e-02,8.290435373783111572e-02,-7.385357469320297241e-02,1.123343706130981445e-01,-5.274390801787376404e-02,-6.419805437326431274e-02,-3.361087292432785034e-02,4.710081592202186584e-02,5.650097131729125977e-02,-4.277996346354484558e-02,3.648589481599628925e-04,7.440226525068283081e-02,-1.511474512517452240e-02,7.894355803728103638e-02,8.697135001420974731e-02,4.126529023051261902e-02,-2.352999709546566010e-02,-5.735303740948438644e-03,-5.259793996810913086e-02,-5.265836790204048157e-02,6.445562839508056641e-02,2.303058654069900513e-02,7.576836738735437393e-03,-3.784280642867088318e-02,9.033561497926712036e-02,2.153007313609123230e-02,5.241272598505020142e-02,4.065073281526565552e-02,-4.761282727122306824e-02,1.055026724934577942e-01,7.647852599620819092e-02,-6.977573968470096588e-03,-2.330951392650604248e-02,-4.571388289332389832e-02,3.607881441712379456e-02,-4.726036638021469116e-02,8.552597463130950928e-02,2.290399558842182159e-02,-3.056088835000991821e-02,2.473557833582162857e-03,2.101812139153480530e-02,6.499934475868940353e-03,2.739770524203777313e-02,4.068420454859733582e-02,4.720704257488250732e-02,5.957519635558128357e-02,-7.886943221092224121e-02,-2.962311916053295135e-02,-1.509586721658706665e-02,-1.413895655423402786e-02,1.621153391897678375e-02,5.606406927108764648e-02,-3.975123539566993713e-02,7.245231419801712036e-02,-2.905113855376839638e-03,7.520160824060440063e-02,6.671793758869171143e-02,-1.140220090746879578e-02,1.122327893972396851e-02,9.166489541530609131e-02,3.042191453278064728e-02,-6.019071117043495178e-02,5.232706293463706970e-02,-1.803490519523620605e-02,5.796407908201217651e-02,-7.032953947782516479e-02,-4.684184491634368896e-02,7.048559188842773438e-02,-3.561383485794067383e-02,-2.516960725188255310e-02,-3.959230706095695496e-02,8.346272259950637817e-02,5.897200107574462891e-02,-2.153662405908107758e-02,-1.559092942625284195e-02,9.200750850141048431e-03,-1.262159086763858795e-03,-7.423391938209533691e-02,4.923934116959571838e-02,7.604611665010452271e-02,-4.658665508031845093e-02,-2.094249986112117767e-02,-4.947790876030921936e-02,-3.584382310509681702e-02,-4.024245217442512512e-02,-6.657761335372924805e-02,4.950309544801712036e-02,-3.901876881718635559e-02,-3.764472901821136475e-02,4.406113550066947937e-02,-6.202736496925354004e-02,4.088813439011573792e-02,1.303781173191964626e-03,-3.938694298267364502e-02,9.237500280141830444e-02,-6.769164651632308960e-02,-4.880923032760620117e-02,-2.528677321970462799e-02,-5.100005865097045898e-02,-7.828716933727264404e-02,3.570123761892318726e-02,-5.283833295106887817e-02,3.205787762999534607e-02,-1.172476168721914291e-02,1.124412883655168116e-04,2.289627678692340851e-03,6.470028311014175415e-02,-2.351384051144123077e-02,-3.433301672339439392e-02,-5.315995961427688599e-02,7.756277918815612793e-02,-2.004298940300941467e-02,-6.965631246566772461e-02,-9.020400792360305786e-02,-3.680626302957534790e-02,3.063005208969116211e-02,-6.452683359384536743e-02,5.787410959601402283e-02,1.102715507149696350e-01,-2.000393718481063843e-02,5.626913532614707947e-02,-4.976719245314598083e-02,7.494932413101196289e-02,-4.832245782017707825e-02,4.010344296693801880e-02,4.545183107256889343e-02,-2.515620738267898560e-02,-9.350293315947055817e-03,1.536046806722879410e-02,3.771284595131874084e-02,-2.103002741932868958e-02,-4.222477786242961884e-03,1.376558281481266022e-02,5.913989618420600891e-03,-7.690656185150146484e-02,-3.777734935283660889e-02,6.270469725131988525e-02,5.115580186247825623e-02,-4.107452929019927979e-02,9.037001989781856537e-03,-2.633937634527683258e-02,6.333230435848236084e-02,-1.198245771229267120e-02,-2.765218354761600494e-02,-5.516953021287918091e-02,9.137864224612712860e-03,3.772241994738578796e-02,4.474834352731704712e-02,2.445869520306587219e-02,5.049280077219009399e-02,-5.508394539356231689e-02,-4.503842443227767944e-02,2.870585769414901733e-02,5.276942625641822815e-02,-2.334251999855041504e-02,-6.056522950530052185e-03,5.090480670332908630e-02,-2.562011778354644775e-02,-3.697266802191734314e-02,3.666638582944869995e-02,-6.182260811328887939e-02,-6.311113387346267700e-02,-7.512881606817245483e-02,-1.849314197897911072e-02,8.162543922662734985e-02,6.034511700272560120e-02,5.396355316042900085e-02,-1.145807094871997833e-02,-1.838737167418003082e-02,6.342827528715133667e-02,-1.381834968924522400e-02,8.577987551689147949e-02,-2.290388336405158043e-03,1.974717341363430023e-02,-5.229587480425834656e-02,-3.953348100185394287e-02,-7.545544952154159546e-02,-3.175602469127625227e-04,3.126313909888267517e-02,1.905669085681438446e-02,7.879509031772613525e-02,-7.222485542297363281e-02,-4.146405030041933060e-03,3.212628141045570374e-02,4.702571406960487366e-02,4.997119680047035217e-02,1.001340523362159729e-02,3.399667516350746155e-02,-6.816267967224121094e-02,-4.460597783327102661e-02,1.015764102339744568e-01,7.562583684921264648e-02,8.701909333467483521e-02,-7.524146232753992081e-03,-7.820667326450347900e-02,-5.630433186888694763e-02,-8.030967414379119873e-02,1.123648471548222005e-04,7.354663312435150146e-02,3.498354693874716759e-03,6.854994595050811768e-02,9.831317514181137085e-02,-3.085355088114738464e-02,-2.242503501474857330e-02,-6.851376593112945557e-02,-1.738883554935455322e-02,1.365337800234556198e-02,8.064587414264678955e-02,6.356089562177658081e-02,-6.187171489000320435e-02,7.277848571538925171e-02,-3.522955998778343201e-02,1.835909113287925720e-02,-2.830429002642631531e-03,-4.409636557102203369e-02,5.611338093876838684e-02,3.020477294921875000e-02,-7.867295295000076294e-02,6.949352473020553589e-02,4.829796403646469116e-02,-8.456794917583465576e-02,-2.748633548617362976e-02,3.665312007069587708e-02,-3.933461755514144897e-02,-3.001554869115352631e-03,4.710484668612480164e-02,6.507859379053115845e-02,5.181181058287620544e-02,-2.346721850335597992e-02,-4.786446690559387207e-02,1.471874862909317017e-02,7.206402719020843506e-02,-5.101094022393226624e-02,-4.720249678939580917e-03,-1.600286178290843964e-02,-6.028468720614910126e-03,5.664024129509925842e-02,1.693312823772430420e-02,5.474925041198730469e-02,7.126309722661972046e-02,3.072200343012809753e-02,2.884664945304393768e-02,-5.457634106278419495e-02,2.466593123972415924e-02,3.871398791670799255e-02,2.654836140573024750e-02,4.925251007080078125e-02,3.762119216844439507e-03,-9.087916463613510132e-03,4.258784651756286621e-02,9.207736700773239136e-03,1.875111646950244904e-02,2.707662433385848999e-02,-5.670676752924919128e-02,-8.615870028734207153e-03,-3.989276662468910217e-02,5.995263159275054932e-02,-3.391527757048606873e-02,-1.778444088995456696e-02,-8.131071925163269043e-02,1.611169613897800446e-02,-5.794008262455463409e-03,-5.434319004416465759e-02,-3.830538690090179443e-02,1.966721937060356140e-02,3.818170726299285889e-02,2.406769432127475739e-02,-2.443955838680267334e-02,-4.508967325091362000e-02,-6.372991949319839478e-02,1.012932360172271729e-01,1.040806714445352554e-02,6.266479194164276123e-02,-2.241717278957366943e-02,1.928952150046825409e-02,-9.587966836988925934e-03,6.665633618831634521e-02,-8.314874768257141113e-02,-6.632722914218902588e-02,-2.076069824397563934e-02,2.476101368665695190e-02,6.248436123132705688e-02,4.015385638922452927e-03,1.599170453846454620e-02,-5.068397149443626404e-02,1.803994551301002502e-02,-1.051128562539815903e-02,-2.947303652763366699e-02,-2.700635232031345367e-02,2.267303504049777985e-02,-5.320576019585132599e-04,8.876585960388183594e-02,-6.769979000091552734e-02,-4.439040273427963257e-02,-1.019162759184837341e-01,-1.326949219219386578e-03,2.811761014163494110e-02,7.058382034301757812e-02,-3.100178763270378113e-02,4.470054991543292999e-03,7.087153941392898560e-02,-8.274665474891662598e-02,6.650371477007865906e-03,1.989709911867976189e-03,7.657961547374725342e-02,-4.834366217255592346e-02,-7.110376656055450439e-02,6.129693612456321716e-02,-4.443259164690971375e-02,-1.528089679777622223e-02,-1.092764455825090408e-02,4.596858099102973938e-02,-5.635301023721694946e-02,4.452225565910339355e-02,-4.855146631598472595e-02,-1.821769587695598602e-02,8.855303376913070679e-02,7.683809101581573486e-02,4.290008917450904846e-02,-6.335017085075378418e-02,-1.567050628364086151e-02,-4.411721602082252502e-02,1.818252541124820709e-02,-2.018637396395206451e-02,-4.636558517813682556e-02,3.416525945067405701e-02,1.153841335326433182e-02,-7.415124028921127319e-02,-4.215782880783081055e-02,5.410223081707954407e-02,2.716878801584243774e-02,1.721927081234753132e-03,-3.261042013764381409e-02,-3.314409777522087097e-02,-2.284985035657882690e-02,-6.113490089774131775e-02,6.575836986303329468e-02,-3.725288063287734985e-02,-5.248175933957099915e-02,2.568232268095016479e-02,7.842047512531280518e-02,-5.383952707052230835e-02,-4.343215003609657288e-02,-1.536798942834138870e-02,-4.383618384599685669e-02,1.565648056566715240e-02,-1.540046371519565582e-02,-8.067413233220577240e-03,-2.618673816323280334e-02,-5.077231302857398987e-02,-7.156202197074890137e-02,-6.352964788675308228e-02,-5.280101206153631210e-03,-1.347823813557624817e-02,-5.046888440847396851e-02,-3.521241480484604836e-03,-5.446840077638626099e-02,-2.343054860830307007e-02,8.136667311191558838e-04,-3.128928691148757935e-02,8.319185674190521240e-02,9.166364371776580811e-02,-2.856773138046264648e-02,-1.324829086661338806e-02,-4.514186084270477295e-02,-3.893848333973437548e-04,-3.931244090199470520e-02,4.601668193936347961e-02,-4.989630356431007385e-02,6.909390538930892944e-02,7.291320711374282837e-02,7.745533436536788940e-02,1.005554869771003723e-01,6.719482690095901489e-02,5.738872662186622620e-02,-7.122672349214553833e-02,-4.742717370390892029e-02,-4.307402297854423523e-02,-2.331122197210788727e-02,1.251926366239786148e-02,-4.717747122049331665e-02,3.460654243826866150e-02,4.154384136199951172e-02,-5.891984701156616211e-02,3.362182062119245529e-03,-5.209723487496376038e-02,-2.069716900587081909e-02,-8.023051917552947998e-02,8.815065771341323853e-02,6.516768131405115128e-03,-4.495010152459144592e-02,-2.754882723093032837e-02,3.364190831780433655e-02,-1.511127222329378128e-02,1.346048805862665176e-02,-5.389797315001487732e-02,4.560980945825576782e-02,-1.996133103966712952e-02,6.315106898546218872e-02,5.282372236251831055e-02,-8.193776756525039673e-02,-2.714920230209827423e-02,-7.727349549531936646e-02,2.998517081141471863e-02,3.850263729691505432e-02,-6.339775025844573975e-02,3.183586522936820984e-02,5.331492796540260315e-02,2.258782647550106049e-02,3.845484554767608643e-02,1.615700870752334595e-02,7.983832806348800659e-02,4.050292819738388062e-02,4.370690509676933289e-02,2.576792985200881958e-02,8.937500417232513428e-02,1.770137809216976166e-02,5.423733592033386230e-02,8.881712704896926880e-02,-1.445640902966260910e-02,-4.697273019701242447e-03,-4.809955134987831116e-02,-3.526077419519424438e-02,-1.256163045763969421e-02,8.523654937744140625e-02,-6.670370697975158691e-02,7.494208961725234985e-02,3.551239846274256706e-03,-7.807454559952020645e-03,-1.674996316432952881e-02,9.008958935737609863e-02,3.249913454055786133e-02,-1.062231953255832195e-03,5.935819074511528015e-02,-5.000222474336624146e-02,-2.632507495582103729e-02,5.904137715697288513e-02,4.304599389433860779e-02,-1.828485541045665741e-02,8.035824447870254517e-02,-2.181436493992805481e-02,-6.885495036840438843e-02,3.808701410889625549e-02,-2.774625830352306366e-02,6.966745108366012573e-02,1.040306035429239273e-02,5.051295086741447449e-02,-5.734392628073692322e-02,-3.412859886884689331e-02,-7.098627835512161255e-02,1.833651773631572723e-02,1.843398809432983398e-02,3.593600913882255554e-02,4.779044166207313538e-02,5.563064292073249817e-02,-5.025976803153753281e-03,4.905007407069206238e-02,-1.116209663450717926e-02,2.817766554653644562e-02,-2.485196292400360107e-02,-2.706878259778022766e-02,2.900709630921483040e-03,5.028528720140457153e-02,5.210378393530845642e-02,-1.569975283928215504e-03,2.936231158673763275e-02,7.889739423990249634e-02,-7.120992988348007202e-02,2.739160507917404175e-02,3.834267705678939819e-02,7.293643802404403687e-02,-5.944984778761863708e-02,-1.405424159020185471e-02,4.094898700714111328e-02,9.119033068418502808e-02,-4.807986691594123840e-02,-3.433589264750480652e-02,3.282020613551139832e-02,-7.104021310806274414e-02,-6.556992232799530029e-02,-6.190306320786476135e-02,-4.081743210554122925e-02,-3.292081132531166077e-02,-7.462950050830841064e-02,-4.566868767142295837e-02,7.681660354137420654e-04,-6.195610016584396362e-02,-2.116637118160724640e-02,-2.443681284785270691e-02,6.773509085178375244e-02
