8.436051011085510254e-02,7.795815914869308472e-02,-3.099525533616542816e-02,1.228346377611160278e-01,8.863956481218338013e-02,-2.388072898611426353e-03,-8.720204234123229980e-03,-9.552562981843948364e-02,2.478439826518297195e-03,-4.372096806764602661e-02,1.022182181477546692e-01,-2.853695675730705261e-02,-6.921283435076475143e-03,3.351011313498020172e-03,5.604293197393417358e-02,-3.543638437986373901e-02,-8.212552219629287720e-02,-1.664918288588523865e-02,2.534290216863155365e-02,1.279861330986022949e-01,4.905226826667785645e-02,-9.444074332714080811e-02,-3.158324584364891052e-02,4.855180904269218445e-02,-2.162029407918453217e-02,2.362187765538692474e-02,7.528600841760635376e-02,4.501079674810171127e-03,5.017206445336341858e-02,4.837722703814506531e-02,-1.423120647668838501e-01,-5.907576158642768860e-02,5.327579379081726074e-02,-3.999446053057909012e-03,-3.900571539998054504e-02,-3.012331947684288025e-02,-1.210202723741531372e-01,1.393937617540359497e-01,6.450907886028289795e-02,5.368312075734138489e-02,5.178626254200935364e-02,-1.260776966810226440e-01,7.015375047922134399e-02,-7.903291285037994385e-02,6.700296886265277863e-03,-1.796405762434005737e-02,-4.492453299462795258e-03,6.784592568874359131e-02,1.174576506018638611e-01,-6.526289973407983780e-03,1.508654654026031494e-01,2.849597111344337463e-02,6.406467407941818237e-02,-8.047796785831451416e-03,-1.455883234739303589e-01,1.063246876001358032e-01,4.126622527837753296e-02,4.268643260002136230e-02,1.472448278218507767e-02,3.896425291895866394e-02,1.207003965973854065e-01,1.526586152613162994e-02,3.415446355938911438e-02,2.108606882393360138e-02,9.307623654603958130e-02,8.100562728941440582e-03,2.768431045114994049e-02,1.265946775674819946e-02,-5.922692269086837769e-02,4.606623947620391846e-02,-7.591201364994049072e-02,-6.627499312162399292e-02,-1.300275418907403946e-02,-8.935209363698959351e-02,-3.403026983141899109e-02,-2.792732976377010345e-02,1.593222655355930328e-02,-4.785567522048950195e-02,-2.487732656300067902e-02,6.284113973379135132e-02,1.208048015832901001e-01,4.619348049163818359e-02,4.956350848078727722e-02,9.720572084188461304e-02,5.250597745180130005e-02,1.168303042650222778e-01,9.680049121379852295e-02,9.206229820847511292e-03,1.506997793912887573e-01,-3.848620131611824036e-02,-7.172100991010665894e-02,4.669820889830589294e-02,-5.378235876560211182e-02,-1.068392023444175720e-01,-1.863256655633449554e-02,1.051730290055274963e-02,1.521121263504028320e-01,8.430485427379608154e-02,1.206658631563186646e-01,-1.229266542941331863e-02
-4.274724796414375305e-02,-1.065918151289224625e-02,2.014411985874176025e-02,-1.075911521911621094e-01,-9.108062386512756348e-01,8.207745850086212158e-02,-7.371971011161804199e-01,-5.053906887769699097e-02,9.524872899055480957e-02,-2.411992251873016357e-01,1.786749213933944702e-01,2.754141688346862793e-01,1.437530964612960815e-01,1.311191916465759277e-01,-4.006811380386352539e-01,3.172595500946044922e-01,-3.852668032050132751e-02,-1.424024850130081177e-01,-5.834636837244033813e-02,-1.287438422441482544e-01,7.853237539529800415e-02,9.773796051740646362e-02,-1.248870939016342163e-01,4.254533350467681885e-02,-1.739958822727203369e-01,-6.778395175933837891e-01,2.466421807184815407e-03,-6.385120749473571777e-02,9.745748341083526611e-02,2.028195746243000031e-02,-2.820079624652862549e-01,-5.212987773120403290e-03,1.151788756251335144e-01,-1.347790956497192383e-01,-7.694709300994873047e-02,8.591035008430480957e-02,1.063949912786483765e-01,-3.488388657569885254e-01,-4.876290634274482727e-02,2.114489674568176270e-01,1.299236118793487549e-01,-1.057700738310813904e-01,1.179610863327980042e-01,2.995598688721656799e-02,1.305916812270879745e-02,-1.472352892160415649e-01,3.338749334216117859e-02,-1.311690658330917358e-01,7.241007871925830841e-03,2.251511365175247192e-01,-1.521152973175048828e+00,6.958746165037155151e-02,5.601480230689048767e-02,-4.392823670059442520e-03,5.087278038263320923e-02,8.999100327491760254e-02,2.012959122657775879e-01,4.147948622703552246e-01,1.071599200367927551e-01,-3.388984128832817078e-02,2.864619344472885132e-02,1.775192320346832275e-01,1.153069511055946350e-01,-7.267781347036361694e-02,-1.069492399692535400e-01,-2.776868343353271484e-01,-4.832139611244201660e-01,-1.286974102258682251e-01,6.998268514871597290e-02,-1.441443413496017456e-01,-1.067783161997795105e-01,-8.688621222972869873e-02,-1.855259016156196594e-02,7.329737395048141479e-02,4.490628838539123535e-02,1.198109611868858337e-01,-4.912193119525909424e-01,4.206800833344459534e-02,-5.213887691497802734e-01,-3.175633847713470459e-01,8.993714116513729095e-03,1.882839053869247437e-01,-9.720388799905776978e-03,-1.092199143022298813e-02,6.727673113346099854e-02,5.772656295448541641e-03,-1.076299309730529785e+00,2.531223930418491364e-02,4.113312065601348877e-02,3.135114535689353943e-02,-1.408800482749938965e-01,2.300685346126556396e-01,3.308817744255065918e-02,2.839774079620838165e-02,1.530022323131561279e-01,1.623468548059463501e-01,-1.679052233695983887e+00,-5.984083935618400574e-02,6.531737744808197021e-02,-4.688762873411178589e-02
-2.713602483272552490e-01,-1.358602195978164673e-01,1.994017511606216431e-02,-7.581670582294464111e-02,-2.218270897865295410e-01,-9.651357680559158325e-02,-7.147973775863647461e-02,-6.276270747184753418e-02,3.324796259403228760e-02,-1.515123434364795685e-02,5.232466757297515869e-02,-1.138175278902053833e-02,-2.174963802099227905e-01,1.605648845434188843e-01,7.016098126769065857e-03,-2.002198845148086548e-01,2.481691539287567139e-02,-1.517491415143013000e-02,-6.322193145751953125e-02,4.684622958302497864e-02,8.166832476854324341e-02,6.461068987846374512e-02,-5.750994682312011719e-01,5.418217554688453674e-02,8.729858696460723877e-02,-2.405717521905899048e-01,9.269376099109649658e-02,8.068784326314926147e-02,9.972598403692245483e-02,-1.162096112966537476e-01,-2.474688440561294556e-01,-9.316576272249221802e-02,2.258906699717044830e-02,-8.331722579896450043e-03,-1.156619712710380554e-01,-3.197136521339416504e-02,-3.541135191917419434e-01,-3.751868605613708496e-01,-1.763535849750041962e-02,-1.757275164127349854e-01,6.722861528396606445e-02,-5.722090229392051697e-02,-2.721775509417057037e-02,1.335490345954895020e-01,2.439850941300392151e-02,1.177348718047142029e-01,-1.582345366477966309e-01,-2.280558943748474121e-01,1.332732737064361572e-01,1.028260067105293274e-01,3.225265070796012878e-02,-6.162919104099273682e-02,-5.980962887406349182e-02,-7.096509635448455811e-02,9.160959720611572266e-02,-1.142351888120174408e-02,-2.294665127992630005e-01,5.897621065378189087e-02,1.574170142412185669e-01,-1.059885323047637939e-01,-1.235654130578041077e-01,-1.294977664947509766e-01,9.618288278579711914e-02,5.039719492197036743e-02,-6.171055138111114502e-02,8.970601484179496765e-03,-1.335123479366302490e-01,-3.730643913149833679e-02,3.630928462371230125e-03,-9.948930703103542328e-03,3.975623846054077148e-02,1.119743511080741882e-01,-2.180042304098606110e-02,-2.371591515839099884e-02,-2.050102129578590393e-02,-4.487144947052001953e-02,-6.737871170043945312e-01,-2.262275516986846924e-01,-5.718813091516494751e-02,3.492385149002075195e-02,5.482972413301467896e-02,4.814206808805465698e-02,-2.171453274786472321e-02,2.358413040637969971e-01,-1.625924110412597656e-01,-4.240414872765541077e-02,1.398699078708887100e-02,9.359787404537200928e-02,9.396033361554145813e-03,-8.112687617540359497e-02,-8.819380402565002441e-02,2.028478123247623444e-02,9.774732589721679688e-02,-5.257730484008789062e-01,-3.773531317710876465e-02,5.266986414790153503e-02,1.131781190633773804e-01,-9.389864653348922729e-02,-2.636546082794666290e-02,5.099939554929733276e-02
-6.640411615371704102e-01,1.205380931496620178e-01,-1.704276502132415771e-01,-3.657650202512741089e-02,-2.546869814395904541e-01,-2.446863949298858643e-01,-2.720443345606327057e-02,-6.876074671745300293e-01,-2.521752417087554932e-01,4.034091532230377197e-01,-5.559634566307067871e-01,8.853127807378768921e-02,-1.484319716691970825e-01,-5.882818102836608887e-01,-1.227878853678703308e-01,-2.689281404018402100e-01,1.606983244419097900e-01,-5.023567751049995422e-02,-3.441005200147628784e-02,-3.131279945373535156e-01,-6.294932961463928223e-01,-6.515776515007019043e-01,-1.072098314762115479e-01,-5.327183604240417480e-01,3.631744980812072754e-01,-5.458163619041442871e-01,-3.157825767993927002e-01,-1.992543041706085205e-01,-4.887486398220062256e-01,-8.085445165634155273e-01,8.586180955171585083e-02,2.677327990531921387e-01,-3.059760034084320068e-01,-1.206596121191978455e-01,1.711757481098175049e-01,-7.257480621337890625e-01,-1.317352801561355591e-01,-5.478212833404541016e-01,1.997818797826766968e-01,-9.955809265375137329e-02,-5.218526721000671387e-01,2.699042856693267822e-01,-7.985737919807434082e-02,-4.870600700378417969e-01,-4.282130300998687744e-01,1.410555280745029449e-02,2.526996135711669922e-01,-3.761863410472869873e-01,-2.274410054087638855e-02,-1.231247484683990479e-01,8.068432658910751343e-02,-6.698724031448364258e-01,-5.520819500088691711e-02,-4.101112186908721924e-01,5.359657406806945801e-01,-5.776557922363281250e-01,-1.625315696001052856e-01,7.221234589815139771e-02,-3.650970160961151123e-01,-4.456575214862823486e-01,-1.036247014999389648e-01,-1.651134490966796875e-01,-4.116455614566802979e-01,2.215372631326317787e-03,2.265969365835189819e-01,-3.745716437697410583e-02,8.908828347921371460e-02,-2.541787624359130859e-01,2.589605152606964111e-01,-3.391606807708740234e-01,1.185516342520713806e-01,-2.913529872894287109e-01,4.984263330698013306e-02,2.771393358707427979e-01,-1.214874535799026489e-01,-4.618725180625915527e-01,-4.850024878978729248e-01,2.352054417133331299e-02,1.614900082349777222e-01,4.674620330333709717e-01,-4.512829184532165527e-01,-1.262975782155990601e-01,-7.197994589805603027e-01,-7.819465547800064087e-02,9.642644226551055908e-02,-1.812139898538589478e-01,-3.916147723793983459e-02,1.235169544816017151e-01,-2.368182092905044556e-01,-5.383449792861938477e-01,1.326393932104110718e-01,-1.598447263240814209e-01,-5.058149695396423340e-01,-1.014477685093879700e-01,3.001490235328674316e-02,-2.912275791168212891e-01,3.387417495250701904e-01,-5.955250859260559082e-01,-5.362234115600585938e-01,-4.439504072070121765e-02
-2.113043069839477539e-01,1.514572650194168091e-01,-2.254400402307510376e-01,1.242290735244750977e-01,8.470882894471287727e-04,-5.060310661792755127e-02,5.949262902140617371e-02,-7.944802045822143555e-01,-4.270536303520202637e-01,1.101346015930175781e-01,-3.634380698204040527e-01,-1.914796978235244751e-01,-2.856660261750221252e-02,1.392053365707397461e-01,4.383984580636024475e-02,8.763630688190460205e-02,9.081538021564483643e-02,2.872364968061447144e-02,-2.480304390192031860e-01,-1.794296205043792725e-01,-8.202500939369201660e-01,-9.626074433326721191e-01,-1.480944305658340454e-01,-4.401783943176269531e-01,1.008681058883666992e-01,6.438428163528442383e-02,-7.409226894378662109e-01,8.544087409973144531e-02,-4.606096744537353516e-01,-5.167050361633300781e-01,-1.389142218977212906e-02,1.109463255852460861e-02,-2.556505501270294189e-01,-1.474899202585220337e-01,9.794931113719940186e-02,-6.408744454383850098e-01,-6.389351934194564819e-02,-1.529476046562194824e-01,3.771764785051345825e-02,5.674123764038085938e-02,-7.240457087755203247e-02,4.032874107360839844e-02,-4.184425473213195801e-01,-2.434098422527313232e-01,-2.259363979101181030e-01,-2.237332984805107117e-02,7.735152542591094971e-02,-1.793546676635742188e-01,-2.650670409202575684e-01,-7.788381725549697876e-02,-8.214804530143737793e-02,-7.604249119758605957e-01,-4.511591792106628418e-01,2.534831762313842773e-01,1.694414019584655762e-01,-6.951430439949035645e-01,-2.707165293395519257e-02,-1.090228185057640076e-01,-4.120361804962158203e-01,-4.773838520050048828e-01,-2.325468324124813080e-02,-1.135150566697120667e-01,-3.850696682929992676e-01,7.938250899314880371e-02,-7.173253223299980164e-03,-1.114812493324279785e-01,-1.350387930870056152e-02,-4.004493355751037598e-01,3.691566362977027893e-02,-2.460102587938308716e-01,3.204982262104749680e-03,-1.132868602871894836e-01,7.851898670196533203e-02,1.226217225193977356e-01,-9.764131903648376465e-02,-6.739044785499572754e-01,-7.373667508363723755e-02,1.530424505472183228e-01,-1.357319355010986328e-01,1.030238252133131027e-02,-6.532765626907348633e-01,-2.270893901586532593e-01,-7.721398472785949707e-01,-3.800410032272338867e-02,1.049650460481643677e-01,-8.242154121398925781e-02,7.806390989571809769e-03,3.440953418612480164e-02,7.055949419736862183e-02,-9.005595743656158447e-02,-4.453599080443382263e-02,3.960036486387252808e-02,-3.154055178165435791e-01,-2.323677539825439453e-01,-1.567224711179733276e-01,-2.384759634733200073e-01,-1.665659695863723755e-01,-9.399248659610748291e-02,-3.254576325416564941e-01,6.675273925065994263e-02
-8.674873113632202148e-01,-7.934460788965225220e-02,-2.467865794897079468e-01,-5.964682996273040771e-02,-1.584225445985794067e-01,-1.783335953950881958e-01,6.549669802188873291e-02,-6.498727798461914062e-01,-2.204927057027816772e-01,3.408372700214385986e-01,-5.454102754592895508e-01,3.582818433642387390e-02,4.253145772963762283e-03,-4.633286595344543457e-01,-9.188927710056304932e-02,-8.055803366005420685e-03,2.436455786228179932e-01,-7.483881711959838867e-02,9.370948374271392822e-02,-1.532421261072158813e-01,-6.309418678283691406e-01,-6.234681606292724609e-01,-1.485689729452133179e-02,-6.942257881164550781e-01,1.820365935564041138e-01,-2.618691623210906982e-01,-3.679654896259307861e-01,-3.042206168174743652e-01,-4.612170159816741943e-01,-6.784347891807556152e-01,1.261165589094161987e-01,1.196835413575172424e-01,-3.474122583866119385e-01,1.733238250017166138e-02,2.981338649988174438e-02,-7.575001716613769531e-01,3.149570897221565247e-02,-3.507197499275207520e-01,1.071281824260950089e-02,-1.819517314434051514e-01,-1.548856347799301147e-01,-2.522667683660984039e-02,-1.649703979492187500e-01,-1.706237643957138062e-01,-2.578269541263580322e-01,1.720249950885772705e-01,-4.934499263763427734e-01,-2.613169550895690918e-01,-1.131072640419006348e-01,-4.781742393970489502e-02,1.452525407075881958e-01,-6.634063124656677246e-01,-1.170881688594818115e-01,-9.179549217224121094e-01,3.505461812019348145e-01,-6.127009987831115723e-01,-2.163094282150268555e-01,1.258934438228607178e-01,-2.567513883113861084e-01,-3.704146146774291992e-01,-1.051960662007331848e-01,-1.227696463465690613e-01,-4.008599817752838135e-01,-3.375228121876716614e-02,9.233700484037399292e-02,2.358327507972717285e-01,9.463961422443389893e-02,-1.087726056575775146e-01,7.134577631950378418e-02,-2.106439173221588135e-01,4.565052315592765808e-02,-8.688309788703918457e-02,1.964316517114639282e-01,-2.154217213392257690e-01,6.406702846288681030e-02,-4.263974130153656006e-01,-3.181160688400268555e-01,-5.314121842384338379e-01,6.155911087989807129e-02,3.045328557491302490e-01,-4.352978467941284180e-01,-1.428650617599487305e-01,-6.365234255790710449e-01,2.967330394312739372e-03,-4.656445980072021484e-01,-3.683941066265106201e-01,2.162591516971588135e-01,1.589766591787338257e-01,-1.387618035078048706e-01,-5.511981248855590820e-01,1.117344051599502563e-01,-2.192172855138778687e-01,-2.639704346656799316e-01,-5.086056515574455261e-02,-7.981839776039123535e-02,-1.799933910369873047e-01,1.190306916832923889e-01,-5.487619042396545410e-01,-9.422152042388916016e-01,-1.390001177787780762e-01
1.287351921200752258e-02,7.371327280998229980e-02,-4.986934959888458252e-01,2.252900227904319763e-02,1.133467629551887512e-02,-1.237695477902889252e-02,-3.218925371766090393e-02,-5.716683864593505859e-01,-4.338052570819854736e-01,1.504965424537658691e-01,-4.661381840705871582e-01,-6.704641878604888916e-02,7.528758049011230469e-02,-2.405881732702255249e-01,-1.713594887405633926e-03,-1.294258981943130493e-01,1.123577579855918884e-01,1.267681568861007690e-01,-1.415932923555374146e-01,-1.397781372070312500e-01,-7.545795440673828125e-01,-6.756763458251953125e-01,-1.724884510040283203e-01,-4.521788358688354492e-01,1.776787340641021729e-01,1.856641098856925964e-02,-4.998911023139953613e-01,-1.524294018745422363e-01,-2.478892356157302856e-01,-5.696989893913269043e-01,-2.879439108073711395e-02,-7.008199580013751984e-03,-4.030241966247558594e-01,4.742078110575675964e-02,-4.188379272818565369e-02,-7.352104187011718750e-01,-6.671283394098281860e-02,1.044346205890178680e-02,-8.831498026847839355e-02,-1.090124174952507019e-01,-5.310363769531250000e-01,1.308501809835433960e-01,-1.224810257554054260e-01,-5.203682184219360352e-01,-3.436882495880126953e-01,-1.964675076305866241e-02,2.204621136188507080e-01,-3.672346472740173340e-01,-3.090329468250274658e-01,-4.412216320633888245e-02,-4.739015176892280579e-02,-6.625519394874572754e-01,-2.137364447116851807e-01,-9.539885073900222778e-02,3.560715615749359131e-01,-8.052483797073364258e-01,-6.658907234668731689e-02,8.446203544735908508e-03,-2.486867606639862061e-01,-3.379732370376586914e-01,-2.231182754039764404e-01,-5.839780345559120178e-02,-4.145416021347045898e-01,1.353519316762685776e-02,5.531246960163116455e-02,-9.016876667737960815e-02,-4.167981073260307312e-02,-1.926411241292953491e-01,1.125783547759056091e-01,-2.729425728321075439e-01,-1.522777676582336426e-01,-3.226554095745086670e-01,-4.406669735908508301e-02,-2.474785596132278442e-02,-1.568478792905807495e-01,-7.163462042808532715e-01,-9.420694410800933838e-02,1.763812005519866943e-01,-6.000795215368270874e-02,-1.214856654405593872e-01,-6.748677492141723633e-01,-1.794325709342956543e-01,-6.423418521881103516e-01,-1.361928135156631470e-01,5.793535336852073669e-02,-2.971026003360748291e-01,-3.250177949666976929e-02,-5.685495957732200623e-02,-1.407368332147598267e-01,-4.003590345382690430e-01,6.070409715175628662e-02,-1.025115847587585449e-01,-4.114117622375488281e-01,-1.987529546022415161e-01,7.336389739066362381e-03,-2.771878838539123535e-01,-2.965249819681048393e-03,-3.202081620693206787e-01,-9.103527665138244629e-02,6.403996795415878296e-02
-1.535379141569137573e-01,-8.226573467254638672e-02,2.852194011211395264e-02,5.467423051595687866e-02,-4.559159278869628906e-01,-1.791967265307903290e-02,-6.872222572565078735e-02,-1.096031144261360168e-01,3.502122685313224792e-02,3.574455380439758301e-01,4.443106427788734436e-02,-5.783949792385101318e-02,-7.890594750642776489e-02,4.058844596147537231e-02,-5.708236619830131531e-02,-3.278279602527618408e-01,7.706034928560256958e-02,1.787334308028221130e-02,-1.072772219777107239e-02,-8.001404255628585815e-02,-5.993727594614028931e-02,6.720501929521560669e-02,-3.365995287895202637e-01,-2.042589485645294189e-01,5.155254900455474854e-02,-4.131819307804107666e-01,7.343054562807083130e-02,-2.060296386480331421e-01,1.739097535610198975e-01,1.444275723770260811e-03,-4.113372266292572021e-01,1.383672356605529785e-01,7.016680669039487839e-03,7.476735115051269531e-02,-4.167600069195032120e-03,-4.338081553578376770e-02,-5.370758175849914551e-01,-4.923157393932342529e-01,1.403392553329467773e-01,-1.809517145156860352e-01,3.050213679671287537e-02,3.745073080062866211e-02,-4.784361645579338074e-02,-6.141477078199386597e-02,-3.452964127063751221e-01,-2.597729265689849854e-01,1.667601615190505981e-02,-2.250625193119049072e-01,4.872847720980644226e-02,-2.605703100562095642e-02,3.006731569766998291e-01,1.620951853692531586e-02,-7.085535675287246704e-02,-2.912896126508712769e-02,3.048652708530426025e-01,8.096458762884140015e-02,-6.595157831907272339e-02,5.351544916629791260e-02,-1.923418343067169189e-01,1.006746068596839905e-01,-3.674974143505096436e-01,9.383115917444229126e-02,1.124806255102157593e-01,3.756802156567573547e-02,-6.357118836604058743e-04,7.032480090856552124e-02,-1.714867204427719116e-01,1.450915634632110596e-01,1.301157772541046143e-01,-2.857358753681182861e-02,2.430012673139572144e-01,-9.055089205503463745e-02,-6.228212639689445496e-02,7.314973976463079453e-03,-3.536081910133361816e-01,4.512390121817588806e-02,-6.263718605041503906e-01,4.892596602439880371e-02,-8.403579890727996826e-02,3.198709189891815186e-01,8.697079122066497803e-02,1.800937056541442871e-01,-6.243247166275978088e-02,1.388634443283081055e-01,1.666796654462814331e-01,-1.050760447978973389e-01,1.873830333352088928e-02,-4.791031777858734131e-02,7.014761120080947876e-02,8.032424747943878174e-02,-1.570250242948532104e-01,1.013312116265296936e-01,1.096865832805633545e-01,-6.030442714691162109e-01,1.498419195413589478e-01,9.934586286544799805e-02,2.946603298187255859e-01,3.221423178911209106e-02,8.979095518589019775e-02,1.394877284765243530e-01
1.979643702507019043e-01,-4.751454666256904602e-02,1.482674181461334229e-01,-3.111486434936523438e-01,9.811671823263168335e-02,1.408695280551910400e-01,-4.799277484416961670e-01,-6.976938340812921524e-03,2.552026882767677307e-02,9.819808602333068848e-02,2.630222821608185768e-03,1.912830322980880737e-01,2.077223658561706543e-01,2.664568461477756500e-02,-6.259593963623046875e-01,3.074418008327484131e-02,1.479086875915527344e-01,7.166854338720440865e-04,2.510249018669128418e-01,-2.067756801843643188e-01,-5.795636679977178574e-03,1.606272608041763306e-01,4.001278802752494812e-02,9.125131182372570038e-03,1.799357980489730835e-01,3.221693038940429688e-01,7.877640426158905029e-02,-7.873204350471496582e-01,1.997729986906051636e-01,-1.897336449474096298e-03,-4.879643023014068604e-01,-6.987246125936508179e-02,2.683884464204311371e-02,1.342596262693405151e-01,3.519617021083831787e-01,1.066936999559402466e-01,-3.162795305252075195e-01,2.104306519031524658e-01,-1.454631090164184570e-01,5.603072792291641235e-02,1.674608290195465088e-01,-6.703836470842361450e-02,-2.582892775535583496e-01,1.357892155647277832e-01,-2.288342118263244629e-01,-3.244631886482238770e-01,-1.063519269227981567e-01,9.059517644345760345e-03,1.564391255378723145e-01,3.180798888206481934e-01,-6.284930706024169922e-01,6.058133766055107117e-02,2.709220647811889648e-01,6.383612751960754395e-02,2.621660828590393066e-01,2.249293774366378784e-01,2.176620215177536011e-01,-1.348088681697845459e-02,-1.822606027126312256e-01,1.356868296861648560e-01,-3.432146906852722168e-01,1.079100966453552246e-01,-1.476215422153472900e-01,-3.296117186546325684e-01,-1.647955924272537231e-01,-7.160401344299316406e-02,1.171828359365463257e-01,1.075975224375724792e-01,-1.056332066655158997e-01,-2.504914402961730957e-01,-6.686550974845886230e-01,1.866743415594100952e-01,4.229563772678375244e-01,2.247913330793380737e-01,3.700908422470092773e-01,1.747427880764007568e-01,2.552137672901153564e-01,-5.167569592595100403e-02,3.390595316886901855e-01,-7.706136107444763184e-01,1.341516077518463135e-01,-3.199945092201232910e-01,-8.634258061647415161e-02,-4.993696212768554688e-01,-1.049642860889434814e-01,-1.792912036180496216e-01,-3.088025450706481934e-01,1.832580119371414185e-01,-1.289732307195663452e-01,1.901726722717285156e-01,-5.917232632637023926e-01,1.760980188846588135e-01,-1.535627543926239014e-01,3.087409138679504395e-01,2.868496179580688477e-01,-4.325780645012855530e-02,-6.891363859176635742e-01,9.742937982082366943e-03,1.416070908308029175e-01,-6.167738512158393860e-02
-2.375243902206420898e-01,-6.422484666109085083e-02,-4.077273607254028320e-01,3.034094534814357758e-02,-1.791074573993682861e-01,4.293453693389892578e-02,9.957249462604522705e-02,-7.809311151504516602e-01,-1.353884190320968628e-01,-1.739641092717647552e-02,-5.788946151733398438e-01,-9.947176277637481689e-02,-1.883072964847087860e-02,-3.358366787433624268e-01,1.053721457719802856e-01,5.111881066113710403e-03,1.660020649433135986e-01,-4.768046364188194275e-02,-1.031467393040657043e-01,9.559956192970275879e-02,-8.325254917144775391e-01,-6.218829154968261719e-01,-2.764126956462860107e-01,-3.200008571147918701e-01,2.296283841133117676e-01,-2.472360990941524506e-02,-4.436167776584625244e-01,5.421630665659904480e-02,-4.755585491657257080e-01,-5.826458930969238281e-01,-1.087531149387359619e-01,-8.585540950298309326e-02,-1.716040223836898804e-01,-6.577812880277633667e-02,3.018934465944766998e-02,-7.951060533523559570e-01,6.572055630385875702e-03,-1.854968667030334473e-01,-1.043133139610290527e-01,-2.717345952987670898e-01,-1.150432974100112915e-01,-1.720210537314414978e-02,-2.185204774141311646e-01,-1.266338676214218140e-01,1.448331922292709351e-01,1.238509342074394226e-01,1.673963069915771484e-01,-1.071146279573440552e-01,-1.836629509925842285e-01,-1.243156194686889648e-01,-6.006803736090660095e-02,-5.871196985244750977e-01,-2.699740529060363770e-01,-2.386583536863327026e-01,1.837809234857559204e-01,-1.023491382598876953e+00,-1.189109534025192261e-01,-9.106350690126419067e-02,-2.737857103347778320e-01,-5.215867161750793457e-01,-1.698619574308395386e-01,-2.979012727737426758e-01,-5.162009000778198242e-01,-3.858857229351997375e-02,9.827431291341781616e-02,9.354300796985626221e-02,-1.105352863669395447e-01,-3.116172552108764648e-01,-1.601202785968780518e-02,-2.200575768947601318e-01,-1.512081474065780640e-01,-6.449440121650695801e-02,-2.535171248018741608e-02,-1.757279783487319946e-02,-1.580012217164039612e-02,-3.725720047950744629e-01,-2.140421718358993530e-01,1.229650452733039856e-01,5.377716571092605591e-02,-2.001779377460479736e-01,-4.913114011287689209e-01,-1.142392382025718689e-01,-5.736678242683410645e-01,1.117671281099319458e-01,7.511257380247116089e-02,-5.709718912839889526e-02,9.591260552406311035e-02,-1.842588931322097778e-01,2.164476364850997925e-02,-5.216223001480102539e-01,-2.955679967999458313e-02,-3.086318671703338623e-01,-1.479957904666662216e-02,-3.728137314319610596e-01,-3.447780907154083252e-01,-6.284414231777191162e-02,-1.762056536972522736e-02,-6.243067979812622070e-01,-9.875103086233139038e-02,1.631100028753280640e-01
8.117221295833587646e-02,3.836772218346595764e-02,-8.310558646917343140e-02,3.257309552282094955e-03,6.201171502470970154e-02,-7.789961528033018112e-03,-2.041916549205780029e-02,-4.548436403274536133e-01,-1.466275453567504883e-01,7.449105381965637207e-02,-3.291039764881134033e-01,-3.973847255110740662e-03,-5.095081031322479248e-02,-3.118254803121089935e-02,2.580393478274345398e-02,4.000810161232948303e-02,1.162554696202278137e-01,1.486293599009513855e-02,3.232861310243606567e-02,4.353614058345556259e-03,-4.013719260692596436e-01,-9.614968895912170410e-01,-3.323194384574890137e-02,-2.367168664932250977e-01,6.519958376884460449e-02,1.662833988666534424e-01,-1.613629758358001709e-01,3.472849726676940918e-03,-8.219262957572937012e-02,-2.944068014621734619e-01,-1.675127893686294556e-01,-2.790880016982555389e-02,7.723774760961532593e-02,-6.612237077206373215e-03,-1.067063659429550171e-01,-5.652188658714294434e-01,1.296360939741134644e-01,7.494240533560514450e-03,-9.498357027769088745e-02,-1.740499436855316162e-01,-1.915913671255111694e-01,-1.017189994454383850e-01,-2.194838076829910278e-01,-1.669510453939437866e-01,-6.192547082901000977e-02,1.735971309244632721e-02,-5.217016860842704773e-02,5.069159343838691711e-02,-9.972823411226272583e-02,-4.862316325306892395e-02,3.757014125585556030e-02,-3.030052483081817627e-01,-2.671127617359161377e-01,-1.658039391040802002e-01,7.521592080593109131e-03,-5.686321854591369629e-01,-2.618359758344013244e-05,-5.600987747311592102e-02,-1.033666282892227173e-01,-1.711287349462509155e-01,-8.788563311100006104e-02,1.302348566241562366e-03,-4.590452611446380615e-01,4.741827771067619324e-02,-2.319953637197613716e-03,8.390078693628311157e-02,-1.007459163665771484e-01,-3.579570055007934570e-01,8.701422065496444702e-02,3.922734409570693970e-02,-1.245678961277008057e-01,-8.275262266397476196e-02,2.771875262260437012e-02,-1.387806981801986694e-02,1.516726613044738770e-01,-2.144577205181121826e-01,-5.792641639709472656e-02,4.731028527021408081e-02,5.799846351146697998e-02,2.593541890382766724e-02,-1.309284418821334839e-01,-7.077359594404697418e-03,-4.007890820503234863e-01,1.465561799705028534e-02,-5.006777122616767883e-02,-4.182548448443412781e-02,8.210889250040054321e-02,7.465165853500366211e-02,9.601566195487976074e-02,-2.424529790878295898e-01,1.504679676145315170e-02,-1.210663542151451111e-01,-1.624578535556793213e-01,-2.827818691730499268e-01,-2.124412208795547485e-01,-1.654373854398727417e-01,5.587443709373474121e-02,-3.323725759983062744e-01,-4.584013298153877258e-02,1.564025729894638062e-01
1.028339043259620667e-01,-7.127529382705688477e-02,1.646345108747482300e-01,1.439899392426013947e-02,-1.080270409584045410e+00,5.710463970899581909e-02,-6.102656126022338867e-01,-1.179095078259706497e-02,8.808362483978271484e-02,-3.179108500480651855e-01,9.276819974184036255e-02,2.328093051910400391e-01,5.350302532315254211e-02,5.150661244988441467e-02,-4.583369791507720947e-01,2.784055471420288086e-01,7.756341248750686646e-02,1.303643733263015747e-01,-3.859248459339141846e-01,4.447139427065849304e-02,3.883117111399769783e-03,4.806206747889518738e-02,-2.910312823951244354e-02,1.014625132083892822e-01,-2.351786196231842041e-01,-6.606311798095703125e-01,5.819915980100631714e-02,-8.372528851032257080e-02,2.634268999099731445e-02,1.307602077722549438e-01,-6.436731815338134766e-01,-3.037433326244354248e-02,-6.253738701343536377e-02,-8.332945406436920166e-02,-1.424415111541748047e-01,1.173239946365356445e-01,1.699050068855285645e-01,-2.432321459054946899e-01,2.248449623584747314e-01,1.650280654430389404e-01,6.437661498785018921e-02,-7.549202442169189453e-02,1.716711074113845825e-01,-9.340259432792663574e-02,6.093114987015724182e-02,-1.160927936434745789e-01,1.523860841989517212e-01,-5.086896196007728577e-02,6.412737071514129639e-02,2.746278941631317139e-01,-1.633464336395263672e+00,-2.054527774453163147e-02,-2.975349128246307373e-02,7.372011989355087280e-02,3.638104721903800964e-02,-6.781222671270370483e-02,1.460867375135421753e-01,2.281830906867980957e-01,2.327927350997924805e-01,4.347955808043479919e-02,1.831121593713760376e-01,1.858262568712234497e-01,4.126661643385887146e-02,5.942125245928764343e-02,-1.758912205696105957e-02,-1.073759347200393677e-01,-2.560373246669769287e-01,-1.282193809747695923e-01,-1.276440173387527466e-01,-1.492826640605926514e-01,-1.143139451742172241e-01,-1.468603592365980148e-02,1.309413742274045944e-02,-3.044116543605923653e-03,1.886641532182693481e-01,1.319881081581115723e-01,-4.137865006923675537e-01,-4.522556439042091370e-02,-6.860963702201843262e-01,-3.831658065319061279e-01,-1.512427907437086105e-02,7.102167233824729919e-03,4.399630799889564514e-02,-1.772917807102203369e-01,-3.703044727444648743e-02,6.967088673263788223e-03,-1.100813865661621094e+00,-3.303000330924987793e-02,9.262662380933761597e-02,1.394274979829788208e-01,-1.101388931274414062e-01,9.897138178348541260e-02,5.125809833407402039e-02,1.233760118484497070e-01,1.038186345249414444e-02,6.492656469345092773e-02,-1.630939841270446777e+00,-5.966379866003990173e-02,5.158932507038116455e-02,-8.784404397010803223e-02
-1.747593432664871216e-01,1.092759706079959869e-02,1.131590008735656738e-01,-1.308120787143707275e-02,-3.916221857070922852e-01,1.319569535553455353e-02,-5.759863555431365967e-02,1.571937650442123413e-02,-1.069487556815147400e-01,5.066029727458953857e-03,9.310290217399597168e-02,5.397286266088485718e-02,-2.899780571460723877e-01,1.169959008693695068e-01,1.344516873359680176e-01,-1.242397874593734741e-01,1.063704043626785278e-01,-9.636449813842773438e-02,-1.169839724898338318e-01,3.739333525300025940e-02,7.882440835237503052e-02,-1.085161268711090088e-01,-5.039133429527282715e-01,-9.044358879327774048e-02,1.320497840642929077e-01,-2.576192915439605713e-01,1.041208356618881226e-01,8.321361988782882690e-02,7.850543409585952759e-02,1.977557875216007233e-02,-1.572078466415405273e-01,-1.138632968068122864e-01,-8.677119016647338867e-02,-9.543298929929733276e-02,-1.757595390081405640e-01,2.536482177674770355e-02,-2.370938509702682495e-01,-5.790750980377197266e-01,-3.868487197905778885e-03,-2.177490741014480591e-01,8.589025586843490601e-02,5.238561704754829407e-02,-2.729239314794540405e-02,6.649102270603179932e-02,2.483024727553129196e-04,2.665759921073913574e-01,-2.246633321046829224e-01,-2.162273228168487549e-01,7.596307992935180664e-02,1.084762960672378540e-01,-7.387833297252655029e-02,-2.459926158189773560e-02,-4.070911929011344910e-02,-1.653677597641944885e-02,8.242557942867279053e-02,-4.398860037326812744e-02,-1.131358221173286438e-01,-6.312449276447296143e-02,7.981493324041366577e-02,1.103922724723815918e-02,-1.378377228975296021e-01,-1.000304594635963440e-01,1.403538286685943604e-01,-1.452285237610340118e-02,-3.274855762720108032e-02,1.135887652635574341e-01,-2.104799896478652954e-01,6.773075461387634277e-02,-4.518709704279899597e-02,-8.540435880422592163e-02,-7.262192666530609131e-02,1.452056691050529480e-02,9.139329195022583008e-02,-1.102176979184150696e-01,-1.309749484062194824e-01,8.171900361776351929e-02,-5.423933267593383789e-01,-3.845605552196502686e-01,-4.953056946396827698e-02,6.838726252317428589e-02,1.207994949072599411e-02,2.173388749361038208e-01,-1.281303539872169495e-02,1.975024342536926270e-01,-1.855735778808593750e-01,-5.954990535974502563e-02,-9.690184891223907471e-02,-2.235345356166362762e-02,5.315288156270980835e-02,-1.317891180515289307e-01,-1.009274721145629883e-01,4.278531298041343689e-03,1.673126071691513062e-01,-3.595913946628570557e-01,-9.747672826051712036e-02,-2.521172352135181427e-02,6.729515641927719116e-02,-8.360967971384525299e-03,-2.226046472787857056e-02,-6.259688735008239746e-02
1.458862144500017166e-02,5.670797824859619141e-02,-4.454623758792877197e-01,-3.754834085702896118e-02,-4.104179143905639648e-01,-4.410320147871971130e-02,-7.497587054967880249e-02,2.475675344467163086e-01,-5.082139968872070312e-01,9.454339742660522461e-02,1.146624386310577393e-01,-3.093788865953683853e-03,-2.447356730699539185e-01,1.117335781455039978e-01,-2.345856511965394020e-03,-1.273708194494247437e-01,-1.150673478841781616e-01,-1.073513627052307129e-01,-5.293799564242362976e-02,-1.775442659854888916e-01,2.269944846630096436e-01,2.223281264305114746e-01,-2.467647641897201538e-01,1.373304426670074463e-01,9.131509065628051758e-02,-9.079957753419876099e-02,-2.729119062423706055e-01,2.831423282623291016e-02,-1.043952163308858871e-02,1.148464754223823547e-01,2.511240243911743164e-01,-4.971673712134361267e-02,-5.898860692977905273e-01,8.750215917825698853e-02,5.336131528019905090e-02,9.712407737970352173e-02,1.627696305513381958e-01,-3.205035030841827393e-01,-1.208164021372795105e-01,2.805603146553039551e-01,-1.743544340133666992e-01,-2.984053269028663635e-02,-7.506463676691055298e-02,-5.734795331954956055e-02,2.597073093056678772e-02,-7.412360608577728271e-02,-1.337587386369705200e-01,-3.951727747917175293e-01,-2.982485294342041016e-01,1.304006204009056091e-03,-1.020662486553192139e-01,1.923301368951797485e-01,-2.535429298877716064e-01,1.566090136766433716e-01,1.120345741510391235e-01,1.852435320615768433e-01,-4.145537316799163818e-01,-2.786616981029510498e-02,1.364189833402633667e-01,1.457018703222274780e-01,1.375163644552230835e-01,-4.708071649074554443e-01,2.174274176359176636e-01,1.755400449037551880e-01,3.755104169249534607e-02,-8.652690448798239231e-04,2.934297919273376465e-01,-2.288532257080078125e-02,2.953191324195358902e-05,-4.047967493534088135e-01,2.315731160342693329e-02,1.663131862878799438e-01,-4.491657949984073639e-03,-6.703086197376251221e-02,-3.165413737297058105e-01,-1.153030805289745331e-02,-2.246428579092025757e-01,-3.171224594116210938e-01,-2.268077284097671509e-01,1.341465413570404053e-01,-3.047142624855041504e-01,-1.935106813907623291e-01,1.899594962596893311e-01,-1.755365282297134399e-01,-4.084687232971191406e-01,-4.114637374877929688e-01,-1.033547967672348022e-01,2.174459695816040039e-01,-3.781948983669281006e-01,7.839758694171905518e-02,1.971649825572967529e-01,-3.586406111717224121e-01,-4.328767303377389908e-03,3.110193908214569092e-01,-4.628104269504547119e-01,-3.291414380073547363e-01,-8.205863833427429199e-02,1.736105084419250488e-01,-1.034460440278053284e-01,-6.959508359432220459e-02
5.894788727164268494e-02,6.627395749092102051e-02,2.207880280911922455e-02,5.435555428266525269e-02,5.647684261202812195e-02,2.264845184981822968e-02,7.064335793256759644e-02,-8.554247766733169556e-02,8.772784471511840820e-02,-7.209359109401702881e-02,9.005275368690490723e-02,5.315617192536592484e-03,3.241344913840293884e-02,7.121744006872177124e-02,7.018233835697174072e-02,-9.944681823253631592e-02,-5.414542742073535919e-03,-6.287190318107604980e-02,-5.969033390283584595e-02,-4.930615052580833435e-02,3.384857252240180969e-02,-7.897982746362686157e-02,1.488947588950395584e-02,2.973989769816398621e-02,-6.509113311767578125e-02,-2.694244869053363800e-02,-2.968549728393554688e-02,1.221345439553260803e-01,4.335714969784021378e-03,-3.375179320573806763e-02,-2.810212783515453339e-02,-2.090075425803661346e-02,1.054837107658386230e-01,7.320127636194229126e-02,-2.540199086070060730e-02,7.010348141193389893e-02,-3.004529280588030815e-03,4.866825044155120850e-02,1.353921145200729370e-01,-4.929082840681076050e-02,-1.018457934260368347e-01,-1.545713394880294800e-01,-1.343872491270303726e-02,6.971861422061920166e-02,-1.420363225042819977e-02,7.402865588665008545e-02,-5.945406854152679443e-02,1.482082009315490723e-01,3.581186756491661072e-02,-5.710670351982116699e-02,7.389561086893081665e-02,3.340436145663261414e-02,2.314994856715202332e-02,7.556211203336715698e-02,-1.375159770250320435e-01,1.550541352480649948e-02,-4.110415652394294739e-02,1.398467342369258404e-03,6.332035362720489502e-02,-4.091095551848411560e-02,1.644739210605621338e-01,8.094561845064163208e-02,7.000117748975753784e-02,-1.808992214500904083e-02,1.140016838908195496e-01,-5.995280295610427856e-02,-4.683284834027290344e-02,2.211109735071659088e-02,5.386498942971229553e-02,-1.193328853696584702e-02,9.858898818492889404e-02,6.978759914636611938e-02,-7.983585447072982788e-02,-6.129269301891326904e-02,4.857620969414710999e-02,7.158336695283651352e-03,8.527476340532302856e-02,3.316785395145416260e-02,3.378070890903472900e-02,-4.204744845628738403e-02,8.216445147991180420e-02,-1.610255055129528046e-02,5.396239459514617920e-02,6.763903796672821045e-02,8.119831234216690063e-02,-6.708591245114803314e-03,1.428028047084808350e-01,-7.424185052514076233e-03,5.476109683513641357e-02,-3.111187554895877838e-02,-2.326507121324539185e-03,6.555403023958206177e-02,-1.531528402119874954e-02,-4.171885550022125244e-02,-2.501443028450012207e-02,8.828258514404296875e-02,6.238609179854393005e-02,7.511661201715469360e-02,2.690590731799602509e-02,1.037514582276344299e-01
7.667194306850433350e-02,4.805086553096771240e-02,9.008183330297470093e-02,-1.177952435682527721e-04,1.483645848929882050e-02,-5.094520747661590576e-03,1.133639216423034668e-01,1.395011972635984421e-02,8.665869943797588348e-03,-5.109098181128501892e-02,1.041044816374778748e-01,3.474615281447768211e-03,7.724886760115623474e-03,7.439125329256057739e-02,3.956105560064315796e-02,-3.541015833616256714e-02,-7.773613184690475464e-02,-4.993490502238273621e-02,-9.796078316867351532e-03,3.496974334120750427e-02,-8.226776123046875000e-02,-9.323948062956333160e-03,-1.871269196271896362e-02,5.699303001165390015e-02,8.074195683002471924e-02,-1.177626196295022964e-02,-4.750671796500682831e-03,1.330551058053970337e-01,-1.271732430905103683e-02,-1.166505739092826843e-03,5.809442326426506042e-02,4.719948396086692810e-02,5.752018839120864868e-02,-5.217530950903892517e-02,3.921327879652380943e-04,-2.415182301774621010e-03,-1.183065474033355713e-01,7.978438585996627808e-02,-1.171417459845542908e-01,3.045725263655185699e-02,6.264353543519973755e-02,-2.649359405040740967e-01,9.030587226152420044e-02,-2.218819223344326019e-02,4.052126035094261169e-02,6.676122546195983887e-02,-1.099586673080921173e-02,6.371978670358657837e-02,4.260144778527319431e-04,-3.713234141469001770e-02,1.225702911615371704e-01,7.903873175382614136e-02,2.166251093149185181e-02,5.506807193160057068e-02,-1.557998955249786377e-01,5.685742571949958801e-02,-1.352985040284693241e-03,-6.309568881988525391e-02,6.767107546329498291e-02,2.431609295308589935e-02,4.893999919295310974e-02,1.897493377327919006e-02,3.249476721975952387e-04,8.860785514116287231e-02,-8.511040359735488892e-02,-7.540265470743179321e-02,-1.026051789522171021e-01,-2.971305884420871735e-02,-1.770523004233837128e-02,1.157679595053195953e-02,-4.584557935595512390e-02,7.460697740316390991e-02,-5.754889920353889465e-02,-8.508954942226409912e-02,-8.689334243535995483e-02,6.853317469358444214e-02,1.250702887773513794e-01,-8.429942652583122253e-03,2.961195632815361023e-02,5.128329992294311523e-02,1.884180307388305664e-02,7.953288033604621887e-03,-3.269029781222343445e-02,-2.027687430381774902e-02,1.332938019186258316e-02,-2.874224679544568062e-03,1.120011582970619202e-01,7.376302964985370636e-03,1.154210194945335388e-01,-4.257899150252342224e-02,7.841894775629043579e-02,7.357282936573028564e-02,7.202914357185363770e-02,-4.560440033674240112e-02,4.997203499078750610e-02,9.304056316614151001e-02,1.711560636758804321e-01,-9.553304314613342285e-02,1.297364532947540283e-01,1.108766645193099976e-01
-4.620729386806488037e-01,-7.525150477886199951e-02,1.896203607320785522e-01,-1.226140558719635010e-01,-7.881370186805725098e-01,-9.991871565580368042e-02,-6.590845528990030289e-03,-2.989316359162330627e-02,6.109657511115074158e-02,1.184503510594367981e-01,6.958559155464172363e-02,6.304098665714263916e-02,5.344884470105171204e-02,-7.343740435317158699e-05,-7.918660342693328857e-02,-1.177000328898429871e-01,1.501923543401062489e-03,-8.102320879697799683e-02,-2.436284273862838745e-01,8.503957092761993408e-02,3.454107791185379028e-02,-7.532719522714614868e-02,-3.981635272502899170e-01,-3.799817990511655807e-03,1.393249928951263428e-01,-4.886593520641326904e-01,1.617382764816284180e-01,5.765565857291221619e-02,-3.055981174111366272e-02,9.479310363531112671e-02,-2.762609720230102539e-01,-9.150324761867523193e-02,8.631969243288040161e-02,4.050733149051666260e-02,-1.938879489898681641e-02,1.197444275021553040e-01,-2.200410664081573486e-01,-4.801723361015319824e-01,1.889303326606750488e-02,7.579242438077926636e-02,1.081534624099731445e-01,-1.470249146223068237e-01,1.243702843785285950e-01,6.825258582830429077e-02,-1.953608840703964233e-01,2.569408901035785675e-02,-2.802919447422027588e-01,-2.201536148786544800e-01,5.008176341652870178e-02,2.998549316544085741e-04,-1.927882432937622070e-01,5.362176522612571716e-02,-1.654364168643951416e-01,-1.890919506549835205e-01,1.903187185525894165e-01,9.440945833921432495e-02,-5.715325847268104553e-02,1.889927834272384644e-01,1.233655288815498352e-01,-1.285875141620635986e-01,9.534298628568649292e-02,6.990479677915573120e-02,6.162370741367340088e-02,-5.349814891815185547e-04,-1.822104901075363159e-01,-5.846149846911430359e-02,-2.851277887821197510e-01,-1.281241327524185181e-01,1.726424880325794220e-02,-9.682944044470787048e-03,1.421798467636108398e-01,5.965013056993484497e-02,-3.927794471383094788e-02,-6.461388617753982544e-02,-1.436558365821838379e-01,2.789607457816600800e-02,-9.006731510162353516e-01,-3.158175349235534668e-01,-9.333804994821548462e-02,-1.690044701099395752e-01,5.926800519227981567e-02,1.557019501924514771e-01,7.537230849266052246e-03,-6.446926295757293701e-02,-2.386586368083953857e-02,3.569566830992698669e-02,-3.298321366310119629e-01,9.757860004901885986e-02,1.125410795211791992e-01,5.420585721731185913e-02,-2.173620015382766724e-01,1.026065945625305176e-01,1.913654617965221405e-02,-3.043116629123687744e-01,-5.993583053350448608e-02,-4.592152312397956848e-02,-7.754338532686233521e-02,-1.193958669900894165e-01,-2.399995736777782440e-02,-6.754345726221799850e-03
-1.332695335149765015e-01,-9.785216301679611206e-02,1.313204616308212280e-01,4.077727906405925751e-03,-2.315072864294052124e-01,-5.250496417284011841e-02,-5.881433561444282532e-02,6.659923493862152100e-02,1.094445772469043732e-02,3.281324729323387146e-02,9.008777141571044922e-02,9.773536026477813721e-02,-1.368782967329025269e-01,-6.385655701160430908e-02,9.945143014192581177e-02,-1.907433122396469116e-01,-7.794668432325124741e-03,-7.879674434661865234e-02,-5.235973000526428223e-02,-1.497069187462329865e-02,4.848068952560424805e-02,-1.397610921412706375e-02,-5.448049902915954590e-01,-2.668823674321174622e-02,1.428298205137252808e-01,-1.667604297399520874e-01,1.173760145902633667e-01,4.906340688467025757e-02,-5.799393355846405029e-02,-2.604937180876731873e-02,-2.298025488853454590e-01,-6.734691560268402100e-02,-1.379937585443258286e-02,-5.455811694264411926e-02,-1.012505665421485901e-01,-9.462676942348480225e-03,-1.770505011081695557e-01,-1.995797306299209595e-01,-1.817489787936210632e-02,-1.441253572702407837e-01,-1.131069362163543701e-01,-7.844479382038116455e-02,-3.773660585284233093e-02,1.872840523719787598e-01,-1.224927902221679688e-01,1.699039340019226074e-02,1.879582852125167847e-01,-1.102652773261070251e-01,7.871038466691970825e-02,-4.681809619069099426e-02,4.232463613152503967e-02,-4.392537474632263184e-02,-1.558068245649337769e-01,-7.428659498691558838e-02,1.151296496391296387e-01,-6.119627133011817932e-02,-1.285429894924163818e-01,-3.752072528004646301e-02,1.076714545488357544e-01,6.346061825752258301e-02,-2.819695770740509033e-01,-8.021128177642822266e-02,1.099725067615509033e-01,-1.217906922101974487e-02,-1.106295734643936157e-01,5.425181612372398376e-02,-2.765538394451141357e-01,4.106448218226432800e-02,4.139369353652000427e-02,-2.107824683189392090e-01,4.613241553306579590e-02,8.855103701353073120e-02,9.915265440940856934e-02,9.877010248601436615e-03,-1.164902597665786743e-01,1.593004465103149414e-01,-2.049703299999237061e-01,3.273527324199676514e-02,-1.571658253669738770e-01,-5.521461740136146545e-02,5.025515705347061157e-02,4.521994665265083313e-02,3.185028955340385437e-02,1.388746798038482666e-01,7.560823857784271240e-02,-2.747048251330852509e-02,-3.024139208719134331e-03,2.335756868124008179e-01,3.673075884580612183e-02,-2.561022154986858368e-02,-1.158293560147285461e-01,-1.221317648887634277e-01,5.641580559313297272e-03,-3.517057895660400391e-01,-1.339188963174819946e-01,-4.184460267424583435e-02,8.194129168987274170e-02,-7.359786331653594971e-02,1.091799288988113403e-01,-1.848930865526199341e-02
1.120900362730026245e-01,5.702377855777740479e-02,-4.401102066040039062e-01,-3.947177156805992126e-02,-4.043702483177185059e-01,3.834950178861618042e-02,-2.302534133195877075e-02,2.410253137350082397e-01,-4.055624604225158691e-01,2.171902544796466827e-02,2.048535197973251343e-01,6.036455184221267700e-02,-2.592083513736724854e-01,-5.186675116419792175e-03,-4.921915754675865173e-02,-9.398747235536575317e-02,-2.930205315351486206e-02,-3.090206719934940338e-02,-2.913978397846221924e-01,-1.890267282724380493e-01,2.402640134096145630e-01,2.502449750900268555e-01,-4.094175398349761963e-01,1.673444658517837524e-01,6.832708418369293213e-02,-2.181695997714996338e-01,-1.910326182842254639e-01,7.970479130744934082e-02,7.806796580553054810e-02,1.426220685243606567e-01,1.539795994758605957e-01,-3.871446475386619568e-02,-5.716609954833984375e-01,9.897555410861968994e-02,6.617296487092971802e-02,8.920555561780929565e-02,7.934380322694778442e-02,-3.236056864261627197e-01,-7.817488908767700195e-02,2.638659179210662842e-01,-1.609435230493545532e-01,-7.167408615350723267e-02,-6.257723085582256317e-03,2.703283447772264481e-03,9.553083777427673340e-02,2.649541711434721947e-04,-1.506778448820114136e-01,-3.865284025669097900e-01,-4.558795094490051270e-01,2.946701087057590485e-02,-6.570988148450851440e-02,1.818822771310806274e-01,-1.355638802051544189e-01,2.257545590400695801e-01,1.050876379013061523e-01,1.389323323965072632e-01,-4.330363869667053223e-01,-1.198018565773963928e-01,2.260831743478775024e-01,1.592879146337509155e-01,1.843491196632385254e-01,-4.399717152118682861e-01,1.518998295068740845e-01,1.221686899662017822e-01,5.030613765120506287e-02,3.601733967661857605e-02,2.180303186178207397e-01,7.796115428209304810e-02,-2.872771397233009338e-02,-4.040533602237701416e-01,5.024851858615875244e-02,6.461292505264282227e-02,1.743855699896812439e-02,-1.374154239892959595e-01,-2.930396497249603271e-01,-7.942286133766174316e-02,-1.988178342580795288e-01,-2.906762957572937012e-01,-2.766826748847961426e-01,1.947437375783920288e-01,-1.981099098920822144e-01,-1.622682213783264160e-01,7.451386004686355591e-02,-5.681476369500160217e-02,-5.096441507339477539e-01,-3.745206892490386963e-01,-1.515607237815856934e-01,2.244006842374801636e-01,-3.778649270534515381e-01,9.504206478595733643e-02,1.473399698734283447e-01,-2.091954946517944336e-01,1.514623612165451050e-01,3.422799110412597656e-01,-4.729306101799011230e-01,-2.318898439407348633e-01,-4.642499238252639771e-02,1.989369839429855347e-01,-1.376513540744781494e-01,-2.076202034950256348e-01
2.333335280418395996e-01,1.346536073833703995e-02,-7.532510161399841309e-02,-2.374181896448135376e-01,9.156738221645355225e-02,9.871369227766990662e-03,-2.935171723365783691e-01,-6.481984257698059082e-01,-3.402611315250396729e-01,1.834844425320625305e-02,-4.493696093559265137e-01,9.675831347703933716e-02,1.144875511527061462e-01,-1.649864017963409424e-01,-1.472973823547363281e-01,-3.000316321849822998e-01,3.143234252929687500e-01,-1.314653307199478149e-01,1.124803498387336731e-01,-1.515197455883026123e-01,-6.558617949485778809e-01,-7.042626738548278809e-01,-2.921601943671703339e-02,-3.937826752662658691e-01,3.454746603965759277e-01,-1.392053440213203430e-02,-6.039201617240905762e-01,-3.428558707237243652e-01,2.667338214814662933e-02,-5.036284923553466797e-01,2.327130436897277832e-01,1.861352920532226562e-01,-2.202065736055374146e-01,-8.860481530427932739e-02,1.225275769829750061e-01,-8.822157979011535645e-01,-1.025728285312652588e-01,-2.485718876123428345e-01,1.431861221790313721e-01,1.673412322998046875e-01,-2.951166033744812012e-01,1.887468099594116211e-01,-5.163271725177764893e-02,-8.682828545570373535e-01,-4.452695250511169434e-01,1.067195311188697815e-01,9.164918959140777588e-02,-5.047758221626281738e-01,-5.547696352005004883e-02,1.437030136585235596e-01,-3.662707507610321045e-01,-4.947190284729003906e-01,-8.620552718639373779e-02,4.020050913095474243e-02,3.642796576023101807e-01,-7.805557250976562500e-01,4.885316640138626099e-02,1.058463975787162781e-01,-4.943766891956329346e-01,1.504958570003509521e-01,-4.771910309791564941e-01,-7.588564604520797729e-02,-7.122334837913513184e-01,-1.044318675994873047e-01,2.158600836992263794e-01,1.408032774925231934e-01,1.288754492998123169e-01,5.129282921552658081e-02,1.687968522310256958e-01,-1.976743191480636597e-01,-1.932852864265441895e-01,-3.297926187515258789e-01,-1.431537605822086334e-02,2.405132055282592773e-01,-2.180114686489105225e-01,-5.335898399353027344e-01,5.930535495281219482e-02,-2.716194689273834229e-01,8.410964161157608032e-03,-8.377440273761749268e-02,-3.026206493377685547e-01,-3.226440250873565674e-01,-7.665807008743286133e-01,2.404022067785263062e-01,-8.768947422504425049e-02,-7.884240895509719849e-02,-1.996203809976577759e-01,-2.790777683258056641e-01,-5.217092037200927734e-01,-1.577108502388000488e-01,1.588753163814544678e-01,5.404750257730484009e-02,-4.678640663623809814e-01,8.103386312723159790e-02,-5.559498444199562073e-02,-8.910429477691650391e-02,3.098733425140380859e-01,-2.572247087955474854e-01,1.418818980455398560e-01,-4.134903848171234131e-02
4.330436885356903076e-02,2.070205751806497574e-03,9.902843832969665527e-02,8.745393157005310059e-02,1.003631204366683960e-01,2.762415632605552673e-02,4.595774784684181213e-02,-6.531176716089248657e-02,-5.787607282400131226e-02,-3.942629694938659668e-02,8.805617690086364746e-02,-2.235874347388744354e-02,-3.579153865575790405e-02,7.260714471340179443e-02,5.128205567598342896e-02,-9.533487260341644287e-02,3.639477118849754333e-02,-1.745841465890407562e-02,7.365491241216659546e-02,2.333793602883815765e-02,1.088078394532203674e-01,-8.731964230537414551e-02,5.478587374091148376e-02,2.147643081843852997e-02,6.501599401235580444e-02,3.696443140506744385e-02,8.791083842515945435e-02,1.692738384008407593e-01,4.556133970618247986e-02,8.210973814129829407e-03,-5.085951089859008789e-02,1.518590655177831650e-02,1.091208755970001221e-01,-7.498805224895477295e-02,1.099794544279575348e-02,-1.578182727098464966e-02,-1.958267204463481903e-02,1.699820607900619507e-01,-1.498300582170486450e-02,3.603383898735046387e-02,8.916684985160827637e-02,-1.909469366073608398e-01,7.326896488666534424e-02,-1.378556364215910435e-03,4.630042612552642822e-02,3.095683827996253967e-02,-1.757284998893737793e-02,1.088982820510864258e-01,-3.335439786314964294e-02,4.080694168806076050e-02,8.659161627292633057e-03,-1.200976874679327011e-02,3.497662767767906189e-02,-4.185172170400619507e-02,-1.243624761700630188e-01,3.181130066514015198e-02,5.426010489463806152e-02,6.569384597241878510e-03,-1.396016776561737061e-02,8.145701885223388672e-02,1.303551644086837769e-01,2.477291412651538849e-02,4.562759771943092346e-02,-6.691452860832214355e-02,-8.153423666954040527e-02,-7.933814078569412231e-02,-8.849374949932098389e-02,5.084282159805297852e-02,-1.066600456833839417e-01,2.432613546261563897e-04,-1.067107170820236206e-02,-2.899562940001487732e-02,-1.203838363289833069e-01,-6.036522611975669861e-02,-9.335810691118240356e-02,-6.835123896598815918e-02,-1.914808154106140137e-02,2.284458838403224945e-02,5.866602808237075806e-02,5.917117372155189514e-02,1.913479715585708618e-02,-3.723612800240516663e-02,7.343288511037826538e-02,1.106501296162605286e-01,1.528481021523475647e-02,1.183632612228393555e-01,3.891671076416969299e-02,2.461269497871398926e-02,1.012526825070381165e-01,4.712561890482902527e-02,2.467259392142295837e-02,9.533731639385223389e-02,-5.915263202041387558e-03,-9.463973343372344971e-02,2.249659039080142975e-02,2.136660926043987274e-02,1.274246275424957275e-01,5.280400067567825317e-02,-2.327622286975383759e-02,4.295880347490310669e-02
5.983365327119827271e-02,7.083866745233535767e-02,-2.148407511413097382e-02,6.228365004062652588e-02,8.059257268905639648e-02,2.881100028753280640e-02,-1.398661453276872635e-02,-1.789173111319541931e-03,3.030300512909889221e-02,1.288639456033706665e-01,3.847233206033706665e-02,-6.476263701915740967e-02,-4.754930734634399414e-02,8.621849119663238525e-02,1.015153154730796814e-01,-8.404433727264404297e-02,4.112673923373222351e-03,-8.048925548791885376e-02,-4.750450700521469116e-02,1.622909903526306152e-01,-2.105179801583290100e-02,-7.018985599279403687e-02,1.806885749101638794e-02,6.540732085704803467e-02,5.492343381047248840e-02,-3.152377903461456299e-02,2.662364579737186432e-02,1.503331661224365234e-01,-1.484806556254625320e-02,-1.712545752525329590e-02,-9.529192000627517700e-02,6.658319383859634399e-03,1.735959015786647797e-02,7.371855527162551880e-02,-1.746121793985366821e-03,3.369380161166191101e-02,-1.298198569566011429e-02,7.648131251335144043e-02,-1.059715449810028076e-02,-1.789812184870243073e-02,5.100696906447410583e-02,-1.711345463991165161e-01,8.968881517648696899e-02,5.550857167690992355e-03,8.628186583518981934e-02,1.223049983382225037e-01,-2.220521867275238037e-02,1.053773090243339539e-01,5.040181428194046021e-02,5.795203521847724915e-02,5.704781785607337952e-02,-9.646085090935230255e-03,-8.869297057390213013e-02,-1.728931069374084473e-02,-1.917252242565155029e-01,-2.975148148834705353e-02,6.270696967840194702e-02,-6.017888337373733521e-02,1.177850365638732910e-01,4.438233003020286560e-02,6.056213006377220154e-02,-1.692863530479371548e-03,1.395187526941299438e-01,1.515284925699234009e-02,-6.207218021154403687e-02,1.138585060834884644e-01,-8.837161958217620850e-02,-1.889383792877197266e-01,-5.808971077203750610e-02,8.617034181952476501e-03,9.346740692853927612e-02,9.654280543327331543e-02,3.094333782792091370e-02,-2.155274003744125366e-01,-4.037350043654441833e-02,-6.510688364505767822e-02,-5.549629777669906616e-02,-3.366264328360557556e-02,-2.134144678711891174e-02,1.750179380178451538e-02,-2.669063024222850800e-02,5.662000179290771484e-02,-6.291265040636062622e-02,3.777620196342468262e-02,2.925539854913949966e-03,1.602438092231750488e-01,6.709626317024230957e-02,7.185004651546478271e-02,3.653480857610702515e-02,4.066552966833114624e-03,1.587202250957489014e-01,1.155128329992294312e-01,7.052792608737945557e-02,1.693728752434253693e-02,1.642280258238315582e-02,-7.735967636108398438e-03,1.365274935960769653e-01,6.036042422056198120e-02,1.085005998611450195e-01,3.364860266447067261e-02
-4.752345755696296692e-02,-1.395176351070404053e-01,5.798604339361190796e-02,7.730011641979217529e-02,-4.004498124122619629e-01,-3.415194898843765259e-02,-2.746797353029251099e-02,-1.131868362426757812e-01,1.510470062494277954e-01,3.193405866622924805e-01,8.032330125570297241e-02,-4.463980905711650848e-03,7.026018202304840088e-02,1.003657057881355286e-01,-3.620902821421623230e-02,-3.662227392196655273e-01,-4.169015213847160339e-02,1.011124849319458008e-01,6.326068192720413208e-03,-9.294633567333221436e-02,-1.207689121365547180e-01,-9.131874144077301025e-02,-3.495266735553741455e-01,-1.193762570619583130e-01,7.038628309965133667e-02,-4.460552930831909180e-01,1.317330449819564819e-01,-5.421235039830207825e-02,3.405873477458953857e-02,2.420800365507602692e-02,-1.926625818014144897e-01,1.452112793922424316e-01,1.805027127265930176e-01,1.949609257280826569e-02,2.178281173110008240e-02,-5.967902392148971558e-02,-4.226008057594299316e-01,-4.850189685821533203e-01,4.076871275901794434e-02,-1.765842139720916748e-01,7.386831101030111313e-03,6.030026078224182129e-02,-7.307957857847213745e-02,7.992934435606002808e-02,-3.148043155670166016e-01,-2.966960966587066650e-01,1.754509806632995605e-01,-1.790959686040878296e-01,1.956655643880367279e-02,-6.767293810844421387e-02,2.805112004280090332e-01,-8.254770189523696899e-02,6.056180596351623535e-02,7.278568297624588013e-02,1.684172898530960083e-01,2.950939722359180450e-02,2.823379589244723320e-03,1.170178055763244629e-01,-1.447896659374237061e-01,1.210922747850418091e-01,-3.735701143741607666e-01,1.033166125416755676e-01,9.421299397945404053e-02,-6.491226702928543091e-02,-2.563099563121795654e-02,4.200541600584983826e-02,-3.265746533870697021e-01,2.057874798774719238e-01,7.658316940069198608e-02,2.687959233298897743e-03,1.060004159808158875e-01,-8.352978155016899109e-03,-6.833016872406005859e-02,1.705494523048400879e-02,-3.224638104438781738e-01,2.559880167245864868e-02,-4.949766397476196289e-01,-4.408569633960723877e-02,-1.914729028940200806e-01,3.289214968681335449e-01,7.187194377183914185e-02,1.662012040615081787e-01,2.490133047103881836e-02,6.728933006525039673e-02,1.183020696043968201e-01,-5.222702398896217346e-02,-1.675375737249851227e-02,-7.201720774173736572e-02,1.104840859770774841e-01,9.878132492303848267e-02,-2.508449554443359375e-01,1.548141241073608398e-01,2.345456369221210480e-02,-6.449793577194213867e-01,1.464459002017974854e-01,6.637515127658843994e-02,3.397073149681091309e-01,-2.373727411031723022e-02,3.763330727815628052e-02,1.786762773990631104e-01
2.142665982246398926e-01,-1.376245319843292236e-01,2.638904191553592682e-02,-2.853566706180572510e-01,1.619065254926681519e-01,2.045384943485260010e-01,-4.729869365692138672e-01,1.776107251644134521e-01,1.598632931709289551e-01,1.541135460138320923e-01,-8.281279355287551880e-02,1.682457178831100464e-01,2.194513827562332153e-01,1.031828895211219788e-01,-6.977787613868713379e-01,-5.039820075035095215e-02,1.085354313254356384e-01,1.655922681093215942e-01,3.266417682170867920e-01,-3.037470579147338867e-01,7.138134539127349854e-02,1.138594001531600952e-01,1.830020844936370850e-01,-4.883931204676628113e-02,4.913165792822837830e-02,3.405999541282653809e-01,1.501225233078002930e-01,-8.011186122894287109e-01,1.393631100654602051e-01,4.690045490860939026e-02,-5.580857396125793457e-01,-1.270338892936706543e-01,-3.912515565752983093e-02,9.307882934808731079e-02,4.311898052692413330e-01,-1.797124184668064117e-02,-1.850616484880447388e-01,1.196403428912162781e-01,-1.727943420410156250e-01,-6.616596877574920654e-02,1.179833710193634033e-01,-1.025226116180419922e-01,-1.813157349824905396e-01,1.435781866312026978e-01,-2.750814855098724365e-01,-2.698480486869812012e-01,-1.035562679171562195e-01,-1.178671494126319885e-01,1.440371423959732056e-01,2.864459455013275146e-01,-6.539664864540100098e-01,-7.050693035125732422e-02,2.563011646270751953e-01,1.163039878010749817e-01,2.790072858333587646e-01,1.504619568586349487e-01,2.068607658147811890e-01,4.147292580455541611e-03,-2.102679610252380371e-01,1.563021391630172729e-01,-1.833375096321105957e-01,2.156742513179779053e-01,-8.788289129734039307e-02,-3.244191706180572510e-01,-2.573784589767456055e-01,1.447740197181701660e-01,2.160761654376983643e-01,7.726300507783889771e-02,-1.238323822617530823e-01,-2.093532830476760864e-01,-6.993104219436645508e-01,2.577874362468719482e-01,4.709897637367248535e-01,1.347385346889495850e-01,3.426114618778228760e-01,8.018002659082412720e-02,1.384953558444976807e-01,-8.071975409984588623e-02,3.040389120578765869e-01,-8.097085356712341309e-01,-7.844032719731330872e-03,-2.428246885538101196e-01,-1.373417302966117859e-02,-5.133267641067504883e-01,-9.374924749135971069e-02,-1.701731979846954346e-01,-2.103037834167480469e-01,1.115976274013519287e-01,4.692449048161506653e-02,1.168141812086105347e-01,-6.744341254234313965e-01,2.088157385587692261e-01,-1.600926518440246582e-01,2.577001750469207764e-01,2.587120532989501953e-01,6.369414180517196655e-02,-7.038210630416870117e-01,1.505872607231140137e-01,1.906549483537673950e-01,-9.672276675701141357e-02
-4.736641645431518555e-01,1.629408448934555054e-01,-2.995634824037551880e-02,-7.903159409761428833e-02,-5.303803086280822754e-01,-7.219731062650680542e-02,-2.836612984538078308e-02,3.999425843358039856e-02,4.412198066711425781e-02,-3.008463419973850250e-02,8.832602202892303467e-02,-1.881604455411434174e-02,-1.774508655071258545e-01,1.810175366699695587e-02,1.666645705699920654e-01,-1.561188604682683945e-02,-1.260529309511184692e-01,-9.158175438642501831e-02,-5.948533490300178528e-02,-2.854763902723789215e-02,3.785705193877220154e-02,-9.401928633451461792e-03,-3.515758216381072998e-01,-5.978584289550781250e-02,1.914945989847183228e-01,-1.605471521615982056e-01,4.875987023115158081e-02,-6.079483777284622192e-02,-6.201941147446632385e-02,4.888803884387016296e-02,-8.773894608020782471e-02,1.591104269027709961e-02,-1.345252692699432373e-01,4.786713980138301849e-03,-7.261642068624496460e-02,7.515843957662582397e-02,-3.527613580226898193e-01,-4.669929444789886475e-01,7.950803637504577637e-02,-3.859263360500335693e-01,1.069329306483268738e-01,2.083227187395095825e-01,-1.902801096439361572e-01,8.343506604433059692e-02,-1.313970386981964111e-01,1.864199042320251465e-01,-7.040838003158569336e-01,-2.090247869491577148e-01,1.171678421087563038e-03,2.619734150357544422e-04,-3.713040053844451904e-02,1.323560811579227448e-02,-1.568498462438583374e-02,-2.606624066829681396e-01,-1.247323080897331238e-01,-2.411492541432380676e-02,-3.405097424983978271e-01,6.061406806111335754e-02,1.416526287794113159e-01,-1.213023290038108826e-01,-4.176945388317108154e-01,-1.322085410356521606e-01,1.507571190595626831e-01,-2.981517463922500610e-02,2.585011124610900879e-01,1.019978523254394531e-01,-7.521445304155349731e-02,8.984256535768508911e-02,1.837321370840072632e-01,-3.773685097694396973e-01,-9.769584238529205322e-02,1.238492578268051147e-01,3.027555942535400391e-01,-2.642102241516113281e-01,6.053853034973144531e-02,1.531881242990493774e-01,-7.264882922172546387e-01,-1.049373149871826172e+00,-2.165158092975616455e-01,-2.083913236856460571e-02,1.125907599925994873e-01,1.386519428342580795e-02,-3.395548090338706970e-03,2.042410373687744141e-01,-7.736620903015136719e-01,-2.803699672222137451e-01,-1.266953498125076294e-01,-9.254197031259536743e-02,-5.284060537815093994e-02,3.178004547953605652e-02,-7.869587093591690063e-02,-1.487069129943847656e-01,1.833416819572448730e-01,-3.656536638736724854e-01,-2.031703889369964600e-01,-2.446667551994323730e-01,-6.652687489986419678e-02,-1.272387206554412842e-01,-9.659523516893386841e-02,-1.096953079104423523e-01
-6.729456782341003418e-01,2.702936343848705292e-02,4.204611480236053467e-02,-7.536146044731140137e-02,-5.126309394836425781e-01,-1.454579979181289673e-01,6.747943907976150513e-02,-3.530140593647956848e-02,-4.853577911853790283e-02,1.708982884883880615e-02,-4.959125816822052002e-02,-8.284170925617218018e-02,-1.943542212247848511e-01,1.361265331506729126e-01,2.175359986722469330e-02,-7.218419015407562256e-02,-9.778847917914390564e-03,-2.961255237460136414e-02,1.666926406323909760e-02,-1.001354157924652100e-01,7.837814837694168091e-02,8.779378840699791908e-04,-4.165381789207458496e-01,-1.796764731407165527e-01,1.899817436933517456e-01,-2.223879694938659668e-01,1.021088734269142151e-01,-6.157389283180236816e-02,-1.539450883865356445e-01,3.487334772944450378e-02,-2.973282039165496826e-01,6.576979905366897583e-02,-1.588326394557952881e-01,8.667874336242675781e-02,3.666947409510612488e-02,6.421881914138793945e-02,-5.075121521949768066e-01,-4.731982052326202393e-01,-8.668158948421478271e-02,-4.007122516632080078e-01,1.959665417671203613e-01,-2.190452069044113159e-02,-1.994861066341400146e-01,3.182441368699073792e-02,-1.648374199867248535e-01,6.398999691009521484e-02,-4.066747725009918213e-01,-3.480600118637084961e-01,-4.376146197319030762e-02,-3.744533658027648926e-02,-1.512916833162307739e-01,-7.789713144302368164e-02,-2.576589770615100861e-02,-2.155517339706420898e-01,-1.309815198183059692e-01,1.245646774768829346e-01,-4.458117187023162842e-01,-5.186808481812477112e-02,-3.705614805221557617e-02,-1.027315011015161872e-04,-3.629283010959625244e-01,-3.139648139476776123e-01,7.908771187067031860e-02,1.011497825384140015e-01,7.664608303457498550e-03,7.619964331388473511e-02,-6.962490826845169067e-02,2.329845875501632690e-01,1.231654547154903412e-02,-3.953568339347839355e-01,1.052253097295761108e-01,2.609338164329528809e-01,1.773820370435714722e-01,-1.442466974258422852e-01,-3.465945133939385414e-03,-8.422862156294286251e-04,-6.614074707031250000e-01,-8.191831111907958984e-01,-1.571489870548248291e-01,5.332699418067932129e-02,1.213065311312675476e-01,1.072907373309135437e-01,3.238660469651222229e-02,1.139419227838516235e-01,-4.727414548397064209e-01,-2.540435492992401123e-01,-1.345030814409255981e-01,-3.778995573520660400e-02,-1.059328615665435791e-01,5.585878342390060425e-02,-1.796191930770874023e-01,-1.154337599873542786e-01,1.202378496527671814e-01,-4.712563753128051758e-01,-9.446486830711364746e-02,-3.219267725944519043e-01,-2.498666942119598389e-02,-3.286051005125045776e-02,-3.382094800472259521e-01,4.621245339512825012e-02
1.134151592850685120e-01,3.050678223371505737e-02,-9.156484156847000122e-02,-1.583440601825714111e-01,9.350361675024032593e-02,9.283674880862236023e-03,1.276365965604782104e-01,1.521444916725158691e-01,-4.152463003993034363e-02,-1.693404614925384521e-01,-2.900291047990322113e-02,4.535827934741973877e-01,1.425868719816207886e-01,4.097674041986465454e-02,-4.692928493022918701e-02,2.225837409496307373e-01,-1.703201979398727417e-01,8.979909121990203857e-02,1.899408549070358276e-01,-2.629475295543670654e-01,1.919935196638107300e-01,1.130485385656356812e-01,-3.630234599113464355e-01,7.417591661214828491e-02,-1.515047103166580200e-01,2.506403811275959015e-02,-5.357851460576057434e-02,-1.984148472547531128e-01,1.229813788086175919e-02,-2.140316553413867950e-02,1.215337276458740234e+00,1.250095963478088379e-01,-3.416230157017707825e-02,-2.522674798965454102e-01,-5.126319453120231628e-02,6.673115491867065430e-02,8.321449160575866699e-02,-2.814697027206420898e-01,-1.459676586091518402e-02,8.220715075731277466e-02,4.782184213399887085e-02,8.337356150150299072e-03,1.829568743705749512e-01,-6.131448969244956970e-02,1.511283032596111298e-02,-4.194405376911163330e-01,-2.905015051364898682e-01,-3.903628289699554443e-01,-7.971818745136260986e-02,2.075433731079101562e-01,2.452439218759536743e-01,1.227067410945892334e-01,1.851649433374404907e-01,3.749352321028709412e-02,9.423842281103134155e-02,2.089351862668991089e-01,-1.252129971981048584e-01,-4.388655126094818115e-01,5.036777630448341370e-02,-9.010440111160278320e-02,-2.825475931167602539e-01,1.668542623519897461e-02,-6.687256973236799240e-03,1.824065744876861572e-01,1.351182907819747925e-01,2.097682654857635498e-01,5.243258550763130188e-02,2.481813430786132812e-01,1.050316840410232544e-01,-3.052166104316711426e-01,1.332858204841613770e-01,-5.785109475255012512e-02,-3.426551520824432373e-01,1.578523516654968262e-01,8.931982517242431641e-02,1.349262446165084839e-01,-1.902843862771987915e-01,-1.470478475093841553e-01,-3.789806365966796875e-02,4.625621140003204346e-01,-5.917359888553619385e-02,-3.656679391860961914e-02,1.282547861337661743e-01,1.795543432235717773e-01,-5.037148296833038330e-02,-2.262744307518005371e-01,2.088906317949295044e-01,1.690162718296051025e-01,-1.519134640693664551e-01,4.118688032031059265e-02,4.623203873634338379e-01,1.631511189043521881e-02,1.083014905452728271e-01,1.164739057421684265e-01,9.948756545782089233e-02,1.046067252755165100e-01,1.429140120744705200e-01,1.640332192182540894e-01,-9.074344485998153687e-02,-1.986197233200073242e-01
-3.319150954484939575e-02,1.659581065177917480e-02,5.315157398581504822e-02,1.027792617678642273e-01,1.232996210455894470e-01,-3.285456821322441101e-02,3.408887982368469238e-02,-5.927760899066925049e-02,1.290023326873779297e-01,4.601120576262474060e-02,-8.087238296866416931e-03,-4.095736518502235413e-02,-9.899448603391647339e-02,7.728622853755950928e-02,9.330947697162628174e-02,-2.260769531130790710e-02,-8.204651065170764923e-03,-7.477838546037673950e-02,-5.107179656624794006e-02,-5.355876870453357697e-03,-1.058503612875938416e-02,-2.971364557743072510e-02,5.857291072607040405e-02,3.296982869505882263e-02,-1.989242620766162872e-02,1.078664883971214294e-01,-3.233766183257102966e-02,5.896777380257844925e-03,1.007459983229637146e-01,-2.573429606854915619e-02,-1.327353715896606445e-01,4.440896585583686829e-02,-2.441824413836002350e-02,1.136966701596975327e-02,-6.888487190008163452e-02,1.036206334829330444e-01,-1.331673562526702881e-01,1.436493941582739353e-03,1.248281821608543396e-02,9.579319506883621216e-02,7.828531786799430847e-03,-1.858398616313934326e-01,5.729968100786209106e-02,8.747110515832901001e-02,-5.398471280932426453e-02,9.308489412069320679e-02,7.688070647418498993e-03,1.391213387250900269e-01,7.389353960752487183e-02,3.473803773522377014e-02,7.744961231946945190e-02,5.227806046605110168e-03,6.594329606741666794e-03,4.396957159042358398e-02,-1.724387705326080322e-01,-3.078349400311708450e-03,-5.361829698085784912e-02,-5.166092142462730408e-02,-5.556648224592208862e-02,5.132546648383140564e-02,7.526569068431854248e-02,6.742600351572036743e-02,-7.010219618678092957e-03,7.909467816352844238e-02,-1.680477894842624664e-02,-1.251301262527704239e-02,-7.902864366769790649e-03,2.937838900834321976e-03,5.370489135384559631e-02,1.584801971912384033e-01,1.072549968957901001e-01,2.997963503003120422e-02,-1.211166731081902981e-03,-6.007461808621883392e-03,-8.549587428569793701e-02,1.815483905375003815e-02,2.478165365755558014e-02,8.368000388145446777e-02,-5.785324051976203918e-02,8.262501098215579987e-03,3.735959529876708984e-02,2.335983514785766602e-02,8.658184856176376343e-02,3.344923630356788635e-02,8.372751623392105103e-02,1.924263872206211090e-02,3.798892349004745483e-02,1.502807717770338058e-02,2.683364413678646088e-02,-4.459131881594657898e-02,2.115477249026298523e-02,1.062198802828788757e-01,1.072668954730033875e-01,-4.859717562794685364e-02,8.055170997977256775e-03,1.300223767757415771e-01,1.548060029745101929e-01,4.765612259507179260e-02,4.055218026041984558e-02,2.655838988721370697e-02
9.190866351127624512e-02,-3.502146154642105103e-02,1.455998569726943970e-01,3.089161776006221771e-02,-1.470321696251630783e-02,-3.026033006608486176e-02,8.932481519877910614e-03,3.095325827598571777e-02,4.240861907601356506e-02,8.782289922237396240e-02,5.853314325213432312e-02,-4.639191925525665283e-02,-7.824713736772537231e-02,2.118434198200702667e-02,2.273239195346832275e-02,2.698784507811069489e-02,-6.486365199089050293e-02,2.964969165623188019e-02,6.733272969722747803e-02,2.431510761380195618e-02,1.185119803994894028e-02,-4.106619581580162048e-02,2.776093035936355591e-02,1.059508919715881348e-01,-5.057284235954284668e-02,8.906394988298416138e-02,5.756796151399612427e-02,4.010199755430221558e-02,3.813676536083221436e-02,1.311501860618591309e-02,-6.065598130226135254e-02,-5.826691165566444397e-02,4.248083382844924927e-02,3.014126420021057129e-02,2.444718033075332642e-02,2.241471968591213226e-02,-6.300006806850433350e-02,1.128823086619377136e-01,4.241815581917762756e-02,2.050709165632724762e-02,-5.590932816267013550e-02,-2.114860713481903076e-01,2.149750292301177979e-02,-3.855536133050918579e-02,-6.465449184179306030e-02,-5.885164136998355389e-05,-8.922716602683067322e-03,9.848221391439437866e-02,2.418596670031547546e-02,5.902823526412248611e-03,1.784997135400772095e-01,-6.472177803516387939e-02,-1.032675895839929581e-02,-3.088709153234958649e-02,-1.909105926752090454e-01,2.658267319202423096e-02,-3.475823625922203064e-02,-8.775940164923667908e-03,7.340920716524124146e-02,2.779285423457622528e-02,1.242825910449028015e-01,7.561465352773666382e-02,2.146461047232151031e-02,2.310809120535850525e-02,4.070036858320236206e-02,-7.276707142591476440e-02,-6.488494575023651123e-02,3.686561249196529388e-03,-4.788453876972198486e-02,9.082709252834320068e-02,2.711195871233940125e-02,8.990713208913803101e-02,-1.057102829217910767e-01,5.305015295743942261e-02,-7.380640506744384766e-02,5.594015121459960938e-02,9.476733952760696411e-02,-8.538670837879180908e-02,-2.866683900356292725e-02,2.679309435188770294e-02,-8.290669880807399750e-03,5.070592090487480164e-02,-5.143160372972488403e-02,4.406772553920745850e-02,6.314294785261154175e-02,7.923658937215805054e-02,1.428112238645553589e-01,1.006381586194038391e-01,1.335615366697311401e-01,-5.945583432912826538e-02,4.875541478395462036e-02,2.420804649591445923e-02,6.804055720567703247e-02,-9.580455720424652100e-02,3.678445518016815186e-02,8.771248906850814819e-02,6.091781705617904663e-02,8.598940074443817139e-02,2.989082969725131989e-02,7.546236366033554077e-02
1.505020260810852051e-01,-6.523003429174423218e-02,-3.806748613715171814e-02,9.925656765699386597e-02,3.188854753971099854e-01,1.937401592731475830e-01,1.107284277677536011e-01,-3.934604525566101074e-01,1.665533185005187988e-01,-3.500458970665931702e-02,-4.738709032535552979e-01,-2.998150885105133057e-01,3.308274447917938232e-01,-2.909176647663116455e-01,6.179969012737274170e-02,-1.429148077964782715e+00,-8.853530138731002808e-02,1.908717900514602661e-01,3.192282915115356445e-01,-3.798937425017356873e-02,-2.646580636501312256e-01,-1.061523914337158203e+00,3.243365883827209473e-01,7.159940898418426514e-02,-2.764325030148029327e-02,-2.696104161441326141e-02,-3.582879304885864258e-01,-8.398723602294921875e-02,8.598916232585906982e-02,-1.480523496866226196e-01,-9.362816065549850464e-02,-2.899203822016716003e-02,1.183683052659034729e-01,1.615717075765132904e-02,3.336715400218963623e-01,-6.976028084754943848e-01,1.620002090930938721e-01,2.040769159793853760e-01,8.532261103391647339e-02,-4.414671286940574646e-02,-4.596779588609933853e-03,1.465399742126464844e+00,-1.464428544044494629e+00,-5.183366313576698303e-02,8.471463620662689209e-02,2.579738199710845947e-01,3.880026936531066895e-01,5.364510789513587952e-02,7.912374287843704224e-02,-1.281418502330780029e-01,6.532777845859527588e-02,-1.060734689235687256e-01,-1.538843065500259399e-01,5.002615600824356079e-02,1.314637251198291779e-02,-4.226031899452209473e-01,3.055491149425506592e-01,-1.197944805026054382e-01,-6.651941537857055664e-01,-2.901929020881652832e-01,-1.161009669303894043e-01,-1.111171126365661621e+00,-8.447511196136474609e-01,-2.022071331739425659e-01,1.384725142270326614e-02,-1.263659596443176270e-01,2.383732944726943970e-01,-1.075051307678222656e+00,-2.694626152515411377e-02,1.925734132528305054e-01,-6.666458398103713989e-02,1.497029215097427368e-01,-1.676935106515884399e-01,1.537317931652069092e-01,-4.985164999961853027e-01,-6.008337438106536865e-02,3.305982947349548340e-01,3.130530416965484619e-01,1.168572306632995605e-01,4.776528105139732361e-02,1.275036334991455078e-01,-1.542622596025466919e-01,-2.992217540740966797e-01,5.097739398479461670e-02,2.550421953201293945e-01,1.912781745195388794e-01,9.506744891405105591e-02,1.444755941629409790e-01,-2.022053301334381104e-02,-3.822889029979705811e-01,2.091050595045089722e-01,-9.542340040206909180e-01,-5.414419770240783691e-01,-2.387865930795669556e-01,-8.873679637908935547e-01,-2.318245172500610352e-01,-3.792099282145500183e-02,-3.851770162582397461e-01,1.189890876412391663e-01,1.842604428529739380e-01
5.306515842676162720e-02,1.270765513181686401e-01,-4.098647832870483398e-02,-3.249710798263549805e-02,8.492615073919296265e-02,2.679600566625595093e-02,9.975808858871459961e-02,-9.184041619300842285e-02,3.868707269430160522e-02,-6.953456997871398926e-02,-4.522005841135978699e-02,2.756781689822673798e-02,2.402119152247905731e-02,2.920209197327494621e-03,4.330540075898170471e-02,-1.040363311767578125e-01,3.861784934997558594e-02,-5.364907532930374146e-02,1.915144175291061401e-02,1.179952733218669891e-02,3.365442901849746704e-02,-2.182608656585216522e-02,3.653589263558387756e-02,5.859803408384323120e-02,3.961122408509254456e-02,-4.159455746412277222e-02,-3.174858540296554565e-02,1.674972102046012878e-02,-5.289005860686302185e-02,-4.330213740468025208e-02,-1.924309581518173218e-01,2.371204085648059845e-02,1.256571412086486816e-01,1.041302531957626343e-01,-1.043258085846900940e-01,-6.240466982126235962e-02,-2.872662059962749481e-02,1.572690457105636597e-01,5.939876288175582886e-02,6.019627209752798080e-03,1.501602702774107456e-03,-3.120526075363159180e-01,5.890427157282829285e-02,-3.184436820447444916e-03,-2.568339556455612183e-02,6.814404577016830444e-02,-1.265444755554199219e-01,8.078730851411819458e-02,6.971530616283416748e-02,-8.700082451105117798e-02,9.180212020874023438e-02,5.635827779769897461e-02,9.101524204015731812e-02,-2.688712440431118011e-02,-2.297294586896896362e-01,5.569653958082199097e-02,7.527823001146316528e-02,7.914867252111434937e-03,3.400164470076560974e-02,9.859894216060638428e-02,1.445410847663879395e-01,-3.750934451818466187e-02,9.036827832460403442e-02,9.652172029018402100e-02,3.073473833501338959e-02,-1.773707419633865356e-01,-1.061641126871109009e-01,-6.706426851451396942e-03,-1.209680736064910889e-01,-1.790692657232284546e-02,7.464820519089698792e-03,1.117968633770942688e-01,-1.043628230690956116e-01,-3.769470006227493286e-02,-6.451453547924757004e-03,7.532864063978195190e-02,8.133992552757263184e-02,8.323707431554794312e-02,-8.478558808565139771e-02,3.564158454537391663e-02,-3.848122805356979370e-02,1.429967135190963745e-01,1.138883307576179504e-01,5.408345535397529602e-02,8.349186182022094727e-02,1.005420312285423279e-01,2.691069617867469788e-02,6.326277554035186768e-02,7.695378270000219345e-03,-3.735643997788429260e-02,6.877946853637695312e-02,6.093306466937065125e-02,9.505696594715118408e-02,-5.829077214002609253e-02,2.519745193421840668e-02,1.281610578298568726e-01,1.766026765108108521e-01,-3.732946468517184258e-03,-1.376647967845201492e-02,1.254374533891677856e-01
2.028873413801193237e-01,-6.739206612110137939e-02,-4.018423855304718018e-01,2.080032229423522949e-02,1.987014710903167725e-01,1.292553693056106567e-01,-1.600789465010166168e-02,3.304002806544303894e-03,-2.975107133388519287e-01,-7.684324681758880615e-02,-3.038672357797622681e-02,9.845648705959320068e-02,-9.022866189479827881e-02,1.585396379232406616e-02,-1.579865813255310059e-01,-1.275649964809417725e-01,-2.207061946392059326e-01,5.818806588649749756e-02,-6.517075002193450928e-02,-1.031152997165918350e-02,1.915369182825088501e-01,4.181371331214904785e-01,-1.323465853929519653e-01,2.189149111509323120e-01,-1.583112478256225586e-01,3.000098168849945068e-01,6.834176182746887207e-02,-4.790108203887939453e-01,1.716723591089248657e-01,1.565584391355514526e-01,-1.329209059476852417e-01,-1.150960102677345276e-01,-4.732379615306854248e-01,6.769106537103652954e-02,3.653640672564506531e-02,1.400744318962097168e-01,1.523083150386810303e-01,1.541056185960769653e-01,-9.007713198661804199e-02,1.319073885679244995e-01,1.444526165723800659e-01,4.354611784219741821e-02,-2.502314150333404541e-01,4.330123960971832275e-02,-2.167702279984951019e-02,-1.259183436632156372e-01,2.112051472067832947e-02,-6.803391575813293457e-01,-4.528426826000213623e-01,-4.954813420772552490e-02,1.303379051387310028e-02,2.652424275875091553e-01,-2.527054250240325928e-01,8.923938125371932983e-02,6.617398560047149658e-02,2.219287604093551636e-01,-3.321424424648284912e-01,-4.468300193548202515e-02,4.890068620443344116e-02,1.890845894813537598e-01,-2.798195555806159973e-02,-4.119184911251068115e-01,5.691488087177276611e-02,1.037737703882157803e-03,-1.345672272145748138e-02,1.477982476353645325e-02,3.671948313713073730e-01,1.764258742332458496e-01,-4.544002877082675695e-06,-1.985042989253997803e-01,-1.982393860816955566e-01,-1.230671331286430359e-01,-1.968231201171875000e-01,1.892211139202117920e-01,-4.933368861675262451e-01,9.573995321989059448e-02,3.725272715091705322e-01,1.813625991344451904e-01,2.481049597263336182e-01,-2.009928524494171143e-01,-1.197946295142173767e-01,-4.118236005306243896e-01,1.308923363685607910e-01,-3.097466230392456055e-01,-2.604444026947021484e-01,-6.167649030685424805e-01,-7.761736214160919189e-02,1.768930405378341675e-01,-5.600828528404235840e-01,1.070613786578178406e-02,-3.851598501205444336e-02,-3.436469733715057373e-01,-1.954951435327529907e-01,4.275325238704681396e-01,-3.114616870880126953e-01,-2.607255578041076660e-01,-2.196970880031585693e-01,1.907831132411956787e-01,-9.445188194513320923e-02,-9.860069304704666138e-02
6.652709096670150757e-03,-3.603444695472717285e-01,1.049500927329063416e-01,-2.312327548861503601e-02,7.521013170480728149e-02,-2.664518542587757111e-02,9.171334654092788696e-02,-2.159371972084045410e-02,1.361837685108184814e-01,-9.722612053155899048e-02,4.450771585106849670e-02,3.569810092449188232e-02,1.285367310047149658e-01,-1.154477447271347046e-01,-2.124329656362533569e-02,6.947154551744461060e-02,-1.111478209495544434e-01,2.045554816722869873e-01,-5.482557043433189392e-02,-1.719321496784687042e-02,8.787124603986740112e-02,9.872581809759140015e-02,1.356237679719924927e-01,-1.914318464696407318e-02,-1.189578324556350708e-01,1.335020810365676880e-01,1.137167289853096008e-01,-9.357041679322719574e-03,1.187314614653587341e-01,-3.313304483890533447e-02,-2.257959842681884766e-01,-1.010765060782432556e-01,1.561446785926818848e-01,-6.024253368377685547e-02,8.850477635860443115e-02,7.297563552856445312e-02,8.980803936719894409e-02,1.774697601795196533e-01,1.746998727321624756e-02,1.161294952034950256e-01,1.108160391449928284e-01,-3.525567352771759033e-01,-1.810534447431564331e-01,7.493153214454650879e-02,-2.659078873693943024e-02,2.005560994148254395e-01,1.559357196092605591e-01,1.013507694005966187e-01,6.701895594596862793e-02,-1.026847437024116516e-01,5.437164008617401123e-02,7.385332882404327393e-02,-6.952438503503799438e-02,-3.268851339817047119e-02,-6.088553741574287415e-02,1.087449342012405396e-01,1.374146714806556702e-02,-5.521191749721765518e-03,7.268699351698160172e-03,-2.692010439932346344e-02,-1.414902806282043457e-01,-8.506947755813598633e-02,-4.907654598355293274e-02,2.725317608565092087e-03,-7.150693237781524658e-02,7.596584409475326538e-02,1.618630439043045044e-01,7.098283153027296066e-03,-6.763345748186111450e-02,2.127537727355957031e-01,1.850396208465099335e-02,-1.558797806501388550e-01,-9.566094726324081421e-02,4.563935846090316772e-02,-7.731920480728149414e-02,3.377067670226097107e-02,7.416005432605743408e-02,2.444569468498229980e-01,-3.341973200440406799e-02,2.306162714958190918e-01,1.388408336788415909e-02,1.136618480086326599e-01,6.196226179599761963e-02,1.149342730641365051e-01,2.028170973062515259e-03,-2.667332999408245087e-03,7.062556594610214233e-02,1.874825954437255859e-01,4.121885821223258972e-02,-7.550214976072311401e-02,-3.518227040767669678e-01,-5.568909272551536560e-02,-2.030497789382934570e-02,6.501089036464691162e-02,-7.868073880672454834e-02,4.268308356404304504e-02,1.013076379895210266e-01,-6.572297960519790649e-02,-1.195718348026275635e-02,1.045883223414421082e-01
8.886554837226867676e-02,2.363591343164443970e-01,-4.159385859966278076e-01,2.999003045260906219e-02,-3.567692339420318604e-01,8.101858943700790405e-02,-1.659735143184661865e-01,5.937644466757774353e-02,-5.470426082611083984e-01,5.489297583699226379e-02,2.543281614780426025e-01,1.696279346942901611e-01,-5.696088075637817383e-01,-1.362119149416685104e-02,9.636405110359191895e-02,1.048627421259880066e-01,-4.591750726103782654e-02,-1.866717189550399780e-01,-2.719943225383758545e-01,7.840996980667114258e-02,4.453808441758155823e-02,1.630652248859405518e-01,-2.607631981372833252e-01,2.864068746566772461e-01,-1.703725941479206085e-02,-5.160302519798278809e-01,-1.096515432000160217e-01,1.040429323911666870e-01,-6.902083754539489746e-02,3.462899327278137207e-01,-2.477162331342697144e-01,2.370149083435535431e-02,-3.763613402843475342e-01,1.282258480787277222e-01,2.167567908763885498e-01,1.551986038684844971e-01,2.245416194200515747e-01,-2.083870023488998413e-01,-1.730739139020442963e-02,2.557857036590576172e-01,-5.384237766265869141e-01,-6.124253571033477783e-02,7.193665206432342529e-02,1.071850731968879700e-01,3.149937987327575684e-01,-8.303127437829971313e-02,2.231580913066864014e-01,-2.564839720726013184e-01,-6.146898865699768066e-01,-2.658304572105407715e-01,3.435993194580078125e-02,7.566770911216735840e-02,-3.904495015740394592e-02,2.004353404045104980e-01,-1.266080737113952637e-01,-5.676364060491323471e-03,-4.255205094814300537e-01,-1.229327693581581116e-01,2.708749771118164062e-01,6.600940227508544922e-02,2.968687117099761963e-01,-2.121216952800750732e-01,2.840902209281921387e-01,1.484774202108383179e-01,-1.418394446372985840e-01,4.553919285535812378e-02,3.006544522941112518e-02,1.446184962987899780e-01,-3.791735693812370300e-02,-2.609059214591979980e-01,6.556579470634460449e-02,8.990536630153656006e-02,-4.644709825515747070e-02,-1.225827541202306747e-02,-1.167419627308845520e-01,-1.639912277460098267e-01,-1.228835135698318481e-01,2.426364272832870483e-01,-4.374916255474090576e-01,8.775456994771957397e-02,-2.818267345428466797e-01,-3.464100882411003113e-02,3.472856804728507996e-02,3.339097276329994202e-02,1.141069829463958740e-01,-2.373692691326141357e-01,1.287812143564224243e-01,4.821600914001464844e-01,-9.340856224298477173e-02,1.642322391271591187e-01,2.476340979337692261e-01,-2.667369842529296875e-01,2.538932673633098602e-02,6.626336276531219482e-02,-3.464599549770355225e-01,-5.096105858683586121e-02,-9.078831970691680908e-02,2.917374670505523682e-01,4.452662076801061630e-03,-2.593627870082855225e-01
1.116960495710372925e-01,-9.810354094952344894e-04,7.710488885641098022e-02,1.063559204339981079e-01,1.188853979110717773e-01,7.323787361383438110e-02,2.258549258112907410e-02,2.952114492654800415e-02,8.516028523445129395e-02,-1.166300754994153976e-02,1.042949482798576355e-01,-2.154825488105416298e-03,6.541370600461959839e-02,1.123650968074798584e-01,6.275685876607894897e-02,1.333639724180102348e-03,-6.608389317989349365e-02,-8.786961436271667480e-02,2.101822569966316223e-02,1.295472830533981323e-01,-4.066911712288856506e-02,-7.539670169353485107e-02,8.014102280139923096e-02,6.929996609687805176e-02,-2.477978914976119995e-02,-2.278750296682119370e-03,1.597972027957439423e-02,5.021613463759422302e-02,-2.202888391911983490e-02,-3.851232305169105530e-02,-8.545956760644912720e-02,-5.839846283197402954e-02,-3.301058337092399597e-02,5.277226865291595459e-02,-1.552228480577468872e-01,-1.415785960853099823e-02,-1.767184352502226830e-03,-3.638966754078865051e-02,-2.281455136835575104e-02,-4.111662507057189941e-02,-7.671364396810531616e-02,-2.032937258481979370e-01,5.998768657445907593e-02,-3.961237519979476929e-02,-3.016924113035202026e-02,1.214506253600120544e-01,-6.366623193025588989e-02,8.501535654067993164e-02,-3.393318876624107361e-02,-3.939678892493247986e-02,6.065150722861289978e-02,4.036093875765800476e-02,6.360260397195816040e-02,8.601232618093490601e-02,-1.486352384090423584e-01,-3.818614408373832703e-02,-6.801658868789672852e-02,5.022210255265235901e-02,-4.894108697772026062e-02,7.712070643901824951e-02,3.865686431527137756e-02,3.304802253842353821e-02,6.848084926605224609e-02,9.304437786340713501e-02,5.436791852116584778e-02,-5.381133034825325012e-02,1.777577586472034454e-02,-4.141227900981903076e-02,1.559115666896104813e-02,2.944284304976463318e-02,-5.927210301160812378e-02,-2.475304529070854187e-02,-9.823607653379440308e-02,-9.893165528774261475e-02,-7.579180598258972168e-02,1.228381022810935974e-01,2.093154564499855042e-02,-4.061027616262435913e-02,1.417639851570129395e-02,-3.444503620266914368e-02,1.270921081304550171e-01,5.436969175934791565e-02,2.116831764578819275e-02,-4.754693061113357544e-02,1.193883642554283142e-01,1.506370604038238525e-01,1.769035011529922485e-01,4.860867559909820557e-02,1.510175764560699463e-01,8.358983695507049561e-02,-3.167416900396347046e-02,-3.005364723503589630e-02,-2.941210381686687469e-02,-3.599115833640098572e-02,6.209383904933929443e-02,7.425447553396224976e-02,1.930601894855499268e-01,3.147358074784278870e-02,-2.072382718324661255e-02,8.373094350099563599e-02
-3.346682759001851082e-03,5.880156531929969788e-02,6.766229122877120972e-02,-1.740727573633193970e-02,6.172718107700347900e-02,-5.178951192647218704e-03,6.085949763655662537e-02,3.428302239626646042e-03,-2.382597513496875763e-02,9.856505692005157471e-02,-5.490789189934730530e-02,2.031586878001689911e-02,-3.394792228937149048e-02,-8.432876318693161011e-03,8.783661574125289917e-02,-8.662269450724124908e-03,-1.880384632386267185e-03,1.612043194472789764e-02,-6.231018155813217163e-02,1.807567663490772247e-02,-6.266571115702390671e-03,8.617989718914031982e-02,7.206606119871139526e-02,6.221983581781387329e-02,2.071997523307800293e-02,9.892671369016170502e-03,4.408817738294601440e-02,-1.302388496696949005e-02,-1.559842936694622040e-02,-2.832949720323085785e-02,-8.262731879949569702e-02,-1.001569703221321106e-01,-3.328904858790338039e-04,5.799848586320877075e-02,-2.115225791931152344e-02,-6.231018528342247009e-02,-9.457928687334060669e-02,2.978194877505302429e-02,-6.088302284479141235e-02,7.654742151498794556e-02,-2.182870544493198395e-02,-2.674670815467834473e-01,4.688948392868041992e-03,2.399612218141555786e-02,7.005187869071960449e-02,1.503496170043945312e-01,1.189865544438362122e-02,1.141297891736030579e-01,1.133811324834823608e-01,-1.924980618059635162e-02,1.735086292028427124e-01,1.090232133865356445e-01,2.964213863015174866e-02,-1.738430187106132507e-02,-1.482326239347457886e-01,-7.584355026483535767e-02,-6.675036251544952393e-02,-7.205283641815185547e-02,-2.466849423944950104e-02,-2.456488646566867828e-02,5.266476795077323914e-02,6.197223067283630371e-02,6.881481036543846130e-03,6.300422549247741699e-02,5.980756506323814392e-02,-6.522800028324127197e-02,-1.201190054416656494e-02,-7.780903577804565430e-02,-6.234905496239662170e-02,-1.290428801439702511e-03,-2.512917481362819672e-02,9.322014637291431427e-03,-7.283426076173782349e-02,-1.035276800394058228e-01,-3.884204104542732239e-02,-1.855432614684104919e-02,-2.033041417598724365e-02,8.718752115964889526e-02,4.286333173513412476e-02,-3.692543506622314453e-02,1.285578012466430664e-01,7.518839091062545776e-02,1.359000653028488159e-01,7.709228992462158203e-02,9.440393000841140747e-02,6.970500200986862183e-02,1.230327785015106201e-01,6.663748621940612793e-02,9.881641715764999390e-02,1.203525345772504807e-02,7.793910056352615356e-02,9.750728309154510498e-02,9.093388915061950684e-02,-1.792812719941139221e-02,5.423201993107795715e-02,4.081203415989875793e-02,9.828224778175354004e-02,7.030347734689712524e-02,7.691262662410736084e-02,6.616444140672683716e-02
3.614588081836700439e-02,1.774109452962875366e-01,8.739996701478958130e-02,1.377559150569140911e-03,7.702951133251190186e-02,3.606926277279853821e-02,-1.711683720350265503e-02,1.577280834317207336e-02,6.702838093042373657e-02,-3.676018118858337402e-02,1.106561496853828430e-01,1.348266936838626862e-02,3.348330780863761902e-02,-3.632953763008117676e-02,1.443656086921691895e-01,-4.223949089646339417e-02,8.271829783916473389e-02,-5.646339803934097290e-02,4.495130851864814758e-02,1.446230150759220123e-02,5.009433627128601074e-02,-2.050755172967910767e-02,5.226063728332519531e-02,8.839011937379837036e-02,5.780706554651260376e-02,3.220561146736145020e-02,9.938748553395271301e-03,5.780096352100372314e-02,-7.915670983493328094e-03,7.582883536815643311e-02,-1.255607306957244873e-01,-1.095824539661407471e-01,1.140819713473320007e-01,-4.863142967224121094e-02,-5.425788089632987976e-02,1.497527118772268295e-02,-7.416309416294097900e-02,1.249912679195404053e-01,-1.327849738299846649e-02,3.493419289588928223e-02,4.861199855804443359e-02,-2.316501289606094360e-01,1.138872802257537842e-01,-3.413348272442817688e-02,8.600475639104843140e-02,1.229593455791473389e-01,-6.178648397326469421e-02,8.637803047895431519e-02,1.018415614962577820e-01,2.754751034080982208e-02,1.378430575132369995e-01,1.552859786897897720e-02,-7.360988855361938477e-02,2.191061154007911682e-02,-2.001709938049316406e-01,-3.614142909646034241e-02,1.813273504376411438e-02,5.029465258121490479e-02,-4.504856094717979431e-02,-6.373082846403121948e-02,5.133998021483421326e-02,-2.181095257401466370e-02,4.288346320390701294e-02,-9.216839820146560669e-02,5.728662386536598206e-02,-8.289708942174911499e-02,-9.761083871126174927e-02,3.880211710929870605e-02,-2.445112355053424835e-02,3.059951961040496826e-02,-2.601081039756536484e-03,-6.883252412080764771e-02,-1.400069743394851685e-01,-4.034820199012756348e-02,-8.820107579231262207e-02,3.029275871813297272e-02,6.457915157079696655e-02,3.582209348678588867e-02,-4.641852527856826782e-02,3.586413338780403137e-02,1.263030767440795898e-01,-1.084479968994855881e-02,6.532432138919830322e-02,4.518483951687812805e-02,1.085221171379089355e-01,5.877045169472694397e-02,-6.919275037944316864e-03,7.960812002420425415e-02,1.711736619472503662e-02,5.194791778922080994e-02,5.706255324184894562e-03,-7.267908658832311630e-03,4.635685309767723083e-02,-4.464676976203918457e-02,1.313806176185607910e-01,-3.814883157610893250e-02,1.038220897316932678e-01,-8.482075482606887817e-02,-5.931075196713209152e-03,7.720763236284255981e-02
6.526125967502593994e-02,-1.004457920789718628e-01,7.614686340093612671e-02,1.062797755002975464e-01,3.484025225043296814e-02,9.914858266711235046e-03,8.601242303848266602e-02,-1.026672031730413437e-02,5.663554370403289795e-02,1.211797222495079041e-01,-2.289307489991188049e-02,-3.734084218740463257e-02,2.633627317845821381e-02,-3.684522211551666260e-02,1.162972077727317810e-01,-6.967306882143020630e-02,-3.842633590102195740e-02,4.658758640289306641e-02,-8.305421471595764160e-02,-2.401264943182468414e-02,6.759000569581985474e-02,-9.113336354494094849e-02,1.363334059715270996e-02,-6.015751510858535767e-02,-6.694962084293365479e-02,8.029974251985549927e-02,9.353180974721908569e-02,4.941506683826446533e-02,-5.752499401569366455e-02,1.909240335226058960e-02,-1.410431563854217529e-01,2.290654182434082031e-02,1.768321357667446136e-02,-8.962853811681270599e-03,-1.055348366498947144e-01,7.979793846607208252e-02,-7.020281255245208740e-02,6.704391539096832275e-02,-4.381809383630752563e-02,7.020812481641769409e-02,-1.392943598330020905e-02,-1.651487499475479126e-01,6.897725164890289307e-02,7.583173364400863647e-02,3.645404428243637085e-02,4.502203688025474548e-02,-1.971666887402534485e-02,1.111828312277793884e-01,-4.366504028439521790e-03,4.095249623060226440e-02,1.431523356586694717e-02,-1.299260370433330536e-02,3.626573458313941956e-02,-7.048285007476806641e-02,-1.988223940134048462e-01,-7.189620286226272583e-02,8.050972223281860352e-02,-8.015937358140945435e-02,9.243898093700408936e-02,6.566049903631210327e-02,1.083523556590080261e-01,-6.279792636632919312e-02,7.417935132980346680e-02,5.065237358212471008e-02,-7.568965665996074677e-03,-8.324158936738967896e-02,-5.945082381367683411e-02,-1.611838676035404205e-02,-5.434477701783180237e-02,5.132059752941131592e-02,-5.276117846369743347e-02,6.890062987804412842e-02,-5.987336486577987671e-02,-9.322217851877212524e-02,-4.006225615739822388e-02,-3.689873963594436646e-02,6.223414093255996704e-02,1.004935279488563538e-01,5.230378732085227966e-02,-2.048875577747821808e-02,3.031113417819142342e-03,-3.375296667218208313e-02,9.952523559331893921e-02,1.153719872236251831e-01,2.645788714289665222e-02,4.420794546604156494e-02,5.970687419176101685e-02,1.008131355047225952e-01,4.790274053812026978e-02,7.183524221181869507e-02,2.526081353425979614e-02,1.046790555119514465e-01,4.978378117084503174e-02,-1.219819635152816772e-01,2.401353046298027039e-02,1.286874711513519287e-01,1.726957857608795166e-01,1.038130372762680054e-01,7.259799540042877197e-02,3.320939466357231140e-02
4.244657605886459351e-02,-2.782725356519222260e-02,9.482099860906600952e-02,-8.911196887493133545e-02,-9.003482460975646973e-01,7.644630968570709229e-02,-7.464131712913513184e-01,-3.340856730937957764e-02,6.136358529329299927e-02,-2.972721159458160400e-01,1.274065375328063965e-01,1.644353270530700684e-01,6.014739349484443665e-02,6.465286761522293091e-02,-3.101013600826263428e-01,2.890038788318634033e-01,5.076189339160919189e-02,-4.154053702950477600e-02,-5.076874792575836182e-02,-7.542701810598373413e-02,-1.795254275202751160e-02,-1.365013606846332550e-02,-2.875865809619426727e-02,1.209686174988746643e-01,-1.849098056554794312e-01,-5.867171883583068848e-01,1.223008185625076294e-01,-1.823571622371673584e-01,8.660550229251384735e-04,-2.649046946316957474e-03,-2.830856740474700928e-01,-1.143444478511810303e-01,5.018089711666107178e-02,-1.448440998792648315e-01,-3.475068509578704834e-02,6.383287161588668823e-02,4.235896468162536621e-02,-4.734102189540863037e-01,6.155842170119285583e-02,1.655164659023284912e-01,-3.433778136968612671e-02,-1.219990327954292297e-01,9.094381332397460938e-02,-9.513142704963684082e-02,-6.670922785997390747e-02,-1.962640732526779175e-01,1.461041867733001709e-01,-9.573756158351898193e-02,1.351726502180099487e-01,3.255272507667541504e-01,-1.539633512496948242e+00,4.109214991331100464e-02,7.074212282896041870e-02,1.785492002964019775e-01,-7.020103186368942261e-02,7.196610420942306519e-02,1.877377331256866455e-01,3.234070837497711182e-01,2.213540673255920410e-01,-1.415311358869075775e-02,8.815156668424606323e-02,1.934231966733932495e-01,1.329987049102783203e-01,-6.239472329616546631e-02,3.269899263978004456e-02,-1.577190160751342773e-01,-4.694055020809173584e-01,-3.922665026038885117e-03,-9.381277114152908325e-02,-1.018207818269729614e-01,-4.418298602104187012e-02,5.352560058236122131e-02,-1.106225177645683289e-01,1.197793558239936829e-01,1.598570942878723145e-01,-2.392039168626070023e-03,-2.696381807327270508e-01,-1.356356218457221985e-02,-5.531963109970092773e-01,-3.020004630088806152e-01,7.811608165502548218e-02,3.840348124504089355e-02,7.469807565212249756e-02,3.257335722446441650e-02,-4.319510608911514282e-02,4.119312018156051636e-02,-1.065989255905151367e+00,1.232965569943189621e-02,6.710395216941833496e-02,1.857872493565082550e-02,-1.130278110504150391e-01,2.091083973646163940e-01,7.651320844888687134e-02,-5.855464935302734375e-02,1.640655249357223511e-01,1.172305345535278320e-01,-1.742674827575683594e+00,3.930717334151268005e-02,-6.774228066205978394e-02,-1.004765853285789490e-01
