-7.782680541276931763e-02,4.504539668560028076e-01,-5.374220758676528931e-02,9.865510463714599609e-02,7.356287539005279541e-02,5.561409890651702881e-02,-1.248678043484687805e-01,-6.926893442869186401e-02,-5.332598462700843811e-03,7.303227484226226807e-02,-3.124009445309638977e-02,-1.142659336328506470e-01,-3.660602495074272156e-02,-3.786744549870491028e-02,2.678979560732841492e-02,-6.942222826182842255e-03,-8.623565733432769775e-02,7.236985117197036743e-02,-7.703448086977005005e-02,1.397612243890762329e-01,-1.556860934942960739e-02,5.473067518323659897e-03,1.243941411375999451e-01,1.004680339246988297e-02,-7.735329866409301758e-02,1.226256340742111206e-01,1.153343170881271362e-01,2.209521979093551636e-01,-2.571226097643375397e-02,-5.324549507349729538e-03,3.341145440936088562e-02,-1.406535804271697998e-01,1.190796494483947754e-02,1.060078740119934082e-01,1.044431924819946289e-01,3.029986843466758728e-02,3.218473121523857117e-02,3.555360436439514160e-02,-1.027963906526565552e-01,-3.760502114892005920e-02,1.757134050130844116e-01,6.328472495079040527e-02,-8.614332228899002075e-02,1.932458430528640747e-01,2.535232901573181152e-02,3.957816064357757568e-01,8.339851163327693939e-03,-2.576556801795959473e-02,-2.896371483802795410e-01,2.543156445026397705e-01,1.901493072509765625e-01,-1.595428795553743839e-03,2.661445923149585724e-02,1.927013248205184937e-01,5.701812729239463806e-02,-6.449482589960098267e-02,-5.051327124238014221e-02,8.893640339374542236e-02,3.755889087915420532e-02,2.814688347280025482e-02,2.064727741526439786e-04,1.638776957988739014e-01,1.080821007490158081e-01,3.797365352511405945e-02,1.873142272233963013e-01,-4.042743146419525146e-02,1.571928523480892181e-02,3.447813540697097778e-02,2.207326889038085938e-01,1.414967887103557587e-02,1.493923515081405640e-01,3.810149803757667542e-02,-1.023431867361068726e-01,-3.286378458142280579e-02,9.293748438358306885e-02,3.780994564294815063e-02,-1.330288499593734741e-01,6.063695996999740601e-02,2.910332977771759033e-01,3.037535957992076874e-02,-1.227701976895332336e-01,6.515822559595108032e-02,7.604321092367172241e-02,3.126217052340507507e-02,2.145808637142181396e-01,6.917540729045867920e-02,-3.578485548496246338e-02,-7.250425964593887329e-02,-1.011342629790306091e-01,-3.690301999449729919e-02,3.407020866870880127e-02,1.406482756137847900e-01,-2.309381961822509766e-01,9.518347680568695068e-02,-8.342508971691131592e-02,-1.898752450942993164e-01,-2.813217937946319580e-01,-4.031567275524139404e-02,-8.360776305198669434e-02,1.598122119903564453e-01,2.723598107695579529e-02,-2.584220468997955322e-02,-1.437997817993164062e-02,9.387744218111038208e-02,3.338489681482315063e-02,1.296006739139556885e-01,9.070674329996109009e-02,8.301701396703720093e-02,-6.826348602771759033e-02,7.998792082071304321e-02,1.672372571192681789e-03,7.048214226961135864e-02,3.222783654928207397e-02,2.471115998923778534e-02,-4.153262451291084290e-02,1.184280961751937866e-01,-3.263028860092163086e-01,-3.897468000650405884e-02,2.029768424108624458e-03,7.781891524791717529e-02,-2.707474865019321442e-02,6.855726242065429688e-02,2.254466265439987183e-01,-5.682668834924697876e-02,-1.537784840911626816e-02,5.536144375801086426e-01,-2.405284717679023743e-02,-1.800495758652687073e-02,4.833095520734786987e-02,-1.160432770848274231e-02,9.876795113086700439e-03,4.445176571607589722e-02,1.693522674031555653e-03,2.254503220319747925e-02,3.639107570052146912e-02,3.888036608695983887e-01,-1.896221935749053955e-01,3.668227046728134155e-02,1.442582458257675171e-01,-1.480963677167892456e-01,-1.616710051894187927e-02,3.491539508104324341e-02,7.488626241683959961e-02,4.036168381571769714e-02,7.735305698588490486e-04,-8.453698828816413879e-03,-3.002314567565917969e-01,7.836557179689407349e-02,9.778608381748199463e-02,4.433972239494323730e-01,7.142058014869689941e-02,-1.708908565342426300e-02,1.918485313653945923e-01,-7.525984197854995728e-02,1.149649452418088913e-02,1.400803774595260620e-01,4.869656637310981750e-02,6.295453757047653198e-02,1.724437810480594635e-02,-4.806512035429477692e-03,-6.409685313701629639e-02,-5.097392201423645020e-02,4.115194082260131836e-02,-9.842831641435623169e-02,-2.339913882315158844e-02,-3.225544095039367676e-02,4.774195328354835510e-02,4.816231504082679749e-02,3.932687938213348389e-01,1.016468629240989685e-01,1.366331800818443298e-02,1.643579453229904175e-01,3.128781169652938843e-02,-1.655139843933284283e-03,-7.043084502220153809e-02,1.275534629821777344e-01,3.888704255223274231e-02,-1.556272953748703003e-01,-5.903018712997436523e-01,2.988821454346179962e-02,1.816131770610809326e-01,-1.109764799475669861e-01,-1.230135262012481689e-01,-5.171750485897064209e-02,-8.279266953468322754e-02,-4.135033115744590759e-02,1.030205711722373962e-01,5.032000318169593811e-02,2.617107629776000977e-01,-6.572045385837554932e-04,-8.286608755588531494e-02,-3.257604688405990601e-02,-6.466840207576751709e-02,-3.715929016470909119e-02,-5.469650626182556152e-01,2.549708783626556396e-01,-1.899820864200592041e-01,8.472947776317596436e-02,2.667473442852497101e-02,-4.036814719438552856e-02,1.991052925586700439e-02,4.923082515597343445e-02,9.015068411827087402e-02,1.080220118165016174e-01,-4.993315413594245911e-02,3.010657243430614471e-02,-6.905163079500198364e-02,6.094318628311157227e-02,1.197240501642227173e-01,1.906139999628067017e-01,7.025547791272401810e-03,-1.311246156692504883e-01,7.980208843946456909e-02,1.394482403993606567e-01,6.934259086847305298e-02,1.023312807083129883e-01,-7.021962106227874756e-02,-2.754978649318218231e-02,-1.457165554165840149e-02,1.132269054651260376e-01,2.492633881047368050e-03,-2.706886827945709229e-02,-1.904574334621429443e-01,-1.176385581493377686e-01,-5.501785874366760254e-02,1.270823329687118530e-01,-4.491548612713813782e-02,-7.708230055868625641e-03,-3.826481848955154419e-02,7.077692449092864990e-02,3.899909555912017822e-02,8.484925329685211182e-02,1.835901439189910889e-01,2.712384425103664398e-02,1.381300389766693115e-01,3.469957783818244934e-02,1.359129846096038818e-01,3.069996833801269531e-01,1.282116472721099854e-01,-1.165026426315307617e-01,-2.815235592424869537e-02,-9.021742641925811768e-02,5.938893556594848633e-02,7.135273516178131104e-02,6.120426207780838013e-02,3.133544325828552246e-02,6.882927566766738892e-02,-6.288748383522033691e-01,7.845456153154373169e-02,-7.840427756309509277e-02,1.302917003631591797e-01,-2.701774798333644867e-02,-1.747428178787231445e-01,-1.574962772428989410e-02,5.774271115660667419e-02,-2.727023325860500336e-02,-1.825947128236293793e-02,7.907240837812423706e-02,-1.024100407958030701e-01,8.257135003805160522e-02,-1.038347035646438599e-01,6.566756963729858398e-02,2.416441887617111206e-01,1.608830243349075317e-01,-8.099177479743957520e-02,-1.978214085102081299e-02,4.291311278939247131e-02,3.339467570185661316e-02,-8.689695596694946289e-02,6.204711645841598511e-02,-3.263369575142860413e-02,-1.431867629289627075e-01,-1.520028412342071533e-01,1.676157563924789429e-01,-4.629706218838691711e-02,2.885557711124420166e-02,-2.856624424457550049e-01,7.125525921583175659e-02,6.308923661708831787e-02,-3.148292750120162964e-02,-8.051940798759460449e-02,7.777917664498090744e-03,2.606043815612792969e-01,-8.841419592499732971e-03,7.446033507585525513e-02,3.765313187614083290e-03,-7.147805392742156982e-02,-8.245759457349777222e-02,8.949543535709381104e-02,7.650249172002077103e-04,1.399386674165725708e-01,3.651728853583335876e-02,1.274844408035278320e-01,-4.969185590744018555e-02,3.839613497257232666e-02,-9.045112133026123047e-02,-3.050523065030574799e-02,-4.911855794489383698e-03,-1.201608180999755859e-01,-1.424397528171539307e-02,1.309713572263717651e-01,-1.013500466942787170e-01,1.085106208920478821e-01,1.006854772567749023e-01,-1.750333793461322784e-02,-5.486373789608478546e-03,1.015850529074668884e-01,-4.061722755432128906e-02,1.815056242048740387e-02,-2.525507211685180664e-01,2.827796153724193573e-02,1.902258545160293579e-01,2.795679271221160889e-01,2.477619796991348267e-01,-4.512383788824081421e-02,2.080946229398250580e-02,-3.157353997230529785e-01,1.181959286332130432e-01,1.513537466526031494e-01,-1.519242078065872192e-01,1.283936947584152222e-01,-5.512393638491630554e-02,1.107597574591636658e-01,-3.040815331041812897e-02,5.338449403643608093e-02,-4.396342858672142029e-02,1.501676887273788452e-01,-9.868965297937393188e-02,2.673962712287902832e-01,-1.311264634132385254e-01,1.257347911596298218e-01,4.776271060109138489e-02,-2.529109641909599304e-02,-2.276742644608020782e-02,2.178018242120742798e-01,-1.724762320518493652e-01,-1.241395696997642517e-01,1.173652261495590210e-01,1.057994663715362549e-01,4.592042043805122375e-02,-3.338061645627021790e-02,-6.158889085054397583e-02,-7.144094258546829224e-02,-8.647214621305465698e-02,-1.128394529223442078e-01,1.411737650632858276e-01,-1.586396843194961548e-01,7.629529386758804321e-02,-5.921562016010284424e-02,-1.316433399915695190e-01,-1.469731181859970093e-01,8.391111344099044800e-02,5.626892298460006714e-02,6.162805855274200439e-02,-4.393854178488254547e-03,1.200104653835296631e-01,-4.580304026603698730e-02,-1.897218637168407440e-02,8.322482928633689880e-03,-3.262366354465484619e-02,7.317483425140380859e-02,2.819325309246778488e-03,1.249720435589551926e-02,-5.077343434095382690e-02,-1.742126047611236572e-01,6.146987155079841614e-02,2.143100947141647339e-01,-1.263187676668167114e-01,-8.985023200511932373e-02,-4.712075367569923401e-02,-5.620675534009933472e-02,-6.363252550363540649e-02,1.833037734031677246e-01,-1.629894785583019257e-02,5.728974938392639160e-02,6.130842491984367371e-03,7.827687263488769531e-02,3.962318599224090576e-02,-8.592688292264938354e-02,3.635858744382858276e-02,1.473037339746952057e-02,4.606288298964500427e-02,2.164753228425979614e-01,5.772465094923973083e-02,8.471722155809402466e-02,-2.014189399778842926e-02,-4.429390281438827515e-02,-3.216594830155372620e-02,7.959367334842681885e-02,1.215723380446434021e-01,6.450192630290985107e-02,-1.984585821628570557e-01,6.769649684429168701e-02,-6.267099082469940186e-02,-9.868006408214569092e-02,1.914609223604202271e-01,1.122554019093513489e-01,-9.161715209484100342e-02,-4.684793204069137573e-02,-4.239547625184059143e-02
-8.757449686527252197e-02,-2.830151654779911041e-02,2.877764031291007996e-02,-1.054396666586399078e-02,-1.928678303956985474e-01,-2.524159848690032959e-01,-9.529297798871994019e-02,7.514634728431701660e-02,-3.285283222794532776e-02,-1.979706063866615295e-02,-1.169887036085128784e-01,-7.495167851448059082e-02,4.448013007640838623e-02,-5.130260717123746872e-03,-1.308068912476301193e-02,3.536309301853179932e-02,5.831286683678627014e-02,-6.564150750637054443e-02,6.549876183271408081e-02,-2.448378503322601318e-01,-2.138991951942443848e-01,-4.870560485869646072e-03,3.757992014288902283e-02,3.216256946325302124e-02,4.174482822418212891e-02,-2.304140329360961914e-01,-5.225819721817970276e-02,-1.130821928381919861e-01,4.558516293764114380e-02,-4.913829267024993896e-02,1.449299510568380356e-03,5.068277940154075623e-02,9.138547629117965698e-02,9.124904125928878784e-02,8.749705553054809570e-02,5.802632309496402740e-03,2.859210409224033356e-02,1.653150916099548340e-01,4.854284226894378662e-02,-2.075013816356658936e-01,-4.203269481658935547e-01,1.844470202922821045e-02,-5.692048743367195129e-02,-6.770139187574386597e-02,-5.425941571593284607e-02,-3.090895712375640869e-01,7.517062127590179443e-02,-5.455493181943893433e-02,2.614209949970245361e-01,1.007808968424797058e-01,-1.011767014861106873e-01,3.831604868173599243e-02,4.340738058090209961e-02,8.137036114931106567e-02,-3.225860744714736938e-02,1.467583775520324707e-01,-1.017444059252738953e-01,7.015853375196456909e-02,1.456591784954071045e-01,3.982881456613540649e-02,7.678887993097305298e-02,7.133959978818893433e-02,-3.561736047267913818e-01,2.988570556044578552e-02,-2.633540928363800049e-01,-8.079760521650314331e-02,-4.299562051892280579e-02,-3.393299877643585205e-02,7.041746377944946289e-02,6.860830634832382202e-02,-7.647893577814102173e-02,-8.826660364866256714e-02,-2.614908665418624878e-02,-2.092670835554599762e-02,-6.975829601287841797e-03,-4.186222702264785767e-02,-1.579736620187759399e-01,-1.897746026515960693e-01,-1.165547370910644531e-01,-4.694057703018188477e-01,9.671521931886672974e-02,3.231380134820938110e-02,-1.518892943859100342e-01,2.433008048683404922e-03,1.114958003163337708e-01,-1.074726972728967667e-02,-2.931706234812736511e-02,-6.237901747226715088e-02,1.519392132759094238e-01,1.779330521821975708e-02,1.616992801427841187e-01,1.368185970932245255e-02,7.753966748714447021e-02,1.231452450156211853e-01,2.316065281629562378e-01,6.902593374252319336e-02,1.477445065975189209e-01,8.207248896360397339e-02,-6.614936050027608871e-03,-5.528775975108146667e-03,1.513981632888317108e-02,3.643476590514183044e-02,9.883183985948562622e-02,-6.311541888862848282e-03,5.772655084729194641e-02,-2.141337655484676361e-02,-8.231952041387557983e-02,-2.048476934432983398e-01,1.866374723613262177e-02,7.003566622734069824e-02,5.746776238083839417e-03,-5.835098028182983398e-02,2.087039686739444733e-02,4.579937830567359924e-02,-3.333254158496856689e-02,-2.333035916090011597e-01,8.964151144027709961e-03,-6.843270361423492432e-02,5.056562647223472595e-02,-9.538488835096359253e-02,1.235941424965858459e-02,1.395722199231386185e-02,-1.983087062835693359e-01,-2.798410132527351379e-02,2.745747193694114685e-02,-1.705869913101196289e+00,9.931211359798908234e-03,1.337257325649261475e-01,3.475936502218246460e-02,5.890776403248310089e-03,-2.986690960824489594e-03,6.914630532264709473e-02,9.559687972068786621e-02,-2.043888531625270844e-02,1.053692400455474854e-01,-1.683609485626220703e-01,7.191124558448791504e-02,1.389263272285461426e-01,3.227912634611129761e-02,6.953793019056320190e-02,1.525375060737133026e-02,9.558199346065521240e-02,3.163820505142211914e-02,4.613810032606124878e-02,5.130366608500480652e-02,2.390911802649497986e-02,4.280475080013275146e-01,1.078326925635337830e-01,-3.653223216533660889e-01,2.866113781929016113e-01,2.737998776137828827e-02,1.707847863435745239e-01,-8.811068534851074219e-02,-2.002325803041458130e-01,-1.353389322757720947e-01,1.048626378178596497e-01,9.924066066741943359e-02,9.718376398086547852e-02,4.989672079682350159e-02,-1.865230053663253784e-01,-4.722759127616882324e-02,-1.432424485683441162e-01,-1.898590475320816040e-01,1.212630644440650940e-01,8.460383117198944092e-02,-5.540711339563131332e-03,1.297148168087005615e-01,2.841596305370330811e-01,-3.592235743999481201e-01,-2.899987809360027313e-02,4.805956408381462097e-02,-1.058465316891670227e-01,8.728148043155670166e-02,4.813755303621292114e-02,5.438045039772987366e-02,1.994381248950958252e-01,-3.388048112392425537e-01,-2.853695154190063477e-01,-1.844156533479690552e-02,-3.427460615057498217e-04,-4.531798139214515686e-02,1.351231783628463745e-01,2.137094140052795410e-01,-7.515628635883331299e-02,2.074259370565414429e-01,-6.087351124733686447e-03,-2.689702995121479034e-02,-9.624273516237735748e-03,-5.230386853218078613e-01,-6.011229753494262695e-02,-3.731846064329147339e-02,-4.768959060311317444e-02,1.788673177361488342e-02,-8.689858019351959229e-02,1.046271622180938721e-01,1.135285347700119019e-01,-4.765425994992256165e-02,-3.258475959300994873e-01,1.178923994302749634e-02,-2.320272475481033325e-02,1.484245508909225464e-01,-9.037715941667556763e-02,-2.386127561330795288e-01,1.114976778626441956e-01,3.598665818572044373e-03,4.272991046309471130e-02,-6.891504675149917603e-02,-8.885852992534637451e-02,7.946668192744255066e-04,-7.814851403236389160e-02,5.301646515727043152e-02,4.577057361602783203e-01,-3.174435347318649292e-02,-1.114027351140975952e-01,-1.514919549226760864e-01,-5.374132469296455383e-02,-1.074660047888755798e-01,-3.031936474144458771e-02,-6.598708033561706543e-02,-9.181759506464004517e-02,2.005462907254695892e-02,-1.488823443651199341e-01,-5.030257701873779297e-01,-8.309465646743774414e-02,5.116002634167671204e-02,-4.254022240638732910e-02,1.720104739069938660e-02,-6.803632713854312897e-03,6.669122958555817604e-04,4.681979492306709290e-02,-9.582358598709106445e-02,-1.703051924705505371e-01,5.929954349994659424e-04,5.765077099204063416e-02,-2.027580142021179199e-01,-2.652710303664207458e-03,-7.483329623937606812e-02,-1.897098422050476074e-01,-1.034207567572593689e-01,1.885690987110137939e-01,2.666771709918975830e-01,1.533556282520294189e-01,-1.877702958881855011e-02,1.115778982639312744e-01,7.928417995572090149e-03,-1.062368750572204590e-01,1.255932170897722244e-02,-1.231233552098274231e-01,-8.124791830778121948e-02,1.381896138191223145e-01,-8.422704786062240601e-02,-1.278188079595565796e-02,5.561937391757965088e-02,6.269625574350357056e-02,-1.935605518519878387e-02,9.369686990976333618e-02,-1.515089124441146851e-01,-1.357420682907104492e-01,2.052338793873786926e-02,8.877430111169815063e-02,3.172967582941055298e-03,9.832610189914703369e-02,-1.390395015478134155e-01,-7.167987525463104248e-02,4.105040058493614197e-02,6.525773555040359497e-02,-1.867574639618396759e-02,2.149227447807788849e-02,6.128811463713645935e-02,1.698481291532516479e-01,2.240953408181667328e-02,-4.780129343271255493e-02,3.329131868667900562e-04,-2.630791962146759033e-01,-1.405697464942932129e-01,1.568665802478790283e-01,1.954865753650665283e-01,1.557325124740600586e-01,-2.522344887256622314e-01,-6.416944414377212524e-02,9.086930193006992340e-03,1.021122410893440247e-01,-1.246251240372657776e-01,-1.182437539100646973e-01,1.059015616774559021e-01,8.346676081418991089e-02,-1.047732606530189514e-01,-2.675398997962474823e-02,-9.715842083096504211e-03,-5.329868197441101074e-02,-2.344956994056701660e-02,4.915391560643911362e-03,-4.243924468755722046e-02,1.156162247061729431e-01,1.165301054716110229e-01,-7.344139157794415951e-04,-3.599765151739120483e-02,4.807286337018013000e-02,6.384568661451339722e-02,-1.210156753659248352e-01,1.586662828922271729e-01,1.112062633037567139e-01,6.416522711515426636e-02,1.653390079736709595e-01,8.027041703462600708e-02,1.091817952692508698e-02,-1.003923453390598297e-02,-5.234761908650398254e-02,-3.941024094820022583e-02,-5.673477426171302795e-02,-4.156768694519996643e-02,-1.436676979064941406e-01,-4.146690070629119873e-01,-4.134796187281608582e-02,6.018278747797012329e-02,-1.133763417601585388e-01,-6.440351158380508423e-02,4.044251143932342529e-02,5.197811126708984375e-02,-1.755280536599457264e-04,-3.119888342916965485e-02,1.341474205255508423e-01,-8.326025307178497314e-02,3.976294025778770447e-02,3.600431839004158974e-03,-1.644833683967590332e-01,6.869453936815261841e-02,7.169579714536666870e-02,-7.584878057241439819e-02,-5.803352221846580505e-02,-2.174031920731067657e-02,2.124960869550704956e-01,6.137805804610252380e-02,-6.455597281455993652e-02,-5.483594909310340881e-02,1.533926650881767273e-02,7.919233292341232300e-02,4.576557874679565430e-02,-1.148777231574058533e-01,-5.387770384550094604e-02,1.485069841146469116e-01,7.841017097234725952e-02,-5.969179049134254456e-02,3.432898595929145813e-02,3.491332232952117920e-01,1.028709858655929565e-01,-4.092510789632797241e-02,-2.042893618345260620e-01,4.916722327470779419e-02,-6.960766017436981201e-02,1.404375731945037842e-01,5.024074763059616089e-02,2.493051253259181976e-02,-4.517753422260284424e-02,2.805815637111663818e-02,1.035688817501068115e-01,9.002684382721781731e-04,8.539203554391860962e-02,-1.295395940542221069e-02,1.706032603979110718e-01,-6.081575900316238403e-02,5.439972877502441406e-02,-6.483616679906845093e-02,1.702989190816879272e-01,-7.419040054082870483e-02,2.486784942448139191e-02,-1.487015783786773682e-01,1.006555929780006409e-01,6.831062585115432739e-02,4.444746077060699463e-01,1.221166029572486877e-01,1.625066623091697693e-02,-3.131418824195861816e-01,5.229232087731361389e-02,2.315823175013065338e-02,-2.015427686274051666e-03,-6.587043404579162598e-02,1.031986996531486511e-01,-1.016284897923469543e-02,-1.476142555475234985e-01,-8.834247291088104248e-02,1.293948441743850708e-01,4.752605035901069641e-02,-1.049261726438999176e-02,7.349784020334482193e-03,-1.324539631605148315e-01,1.970214098691940308e-01,-3.141366317868232727e-02,-2.508014142513275146e-01,-1.577111929655075073e-01,7.083235681056976318e-02,3.311218619346618652e-01,4.713058099150657654e-02,2.068780064582824707e-01,1.976432502269744873e-01,1.305989027023315430e-01,-3.833321928977966309e-01,5.432992242276668549e-03,7.139342278242111206e-02,-2.884578704833984375e-01
6.588725000619888306e-02,2.139074029400944710e-03,1.411995440721511841e-01,-4.578136652708053589e-02,1.812457591295242310e-01,-3.825876861810684204e-02,-6.496061384677886963e-02,-1.516204178333282471e-01,-8.734091371297836304e-02,-7.593616843223571777e-02,2.963142693042755127e-01,2.777771651744842529e-02,-2.897193729877471924e-01,1.020376831293106079e-01,2.001155763864517212e-01,-9.448184631764888763e-03,-1.068507693707942963e-02,3.053434938192367554e-02,1.011394485831260681e-01,-2.431009709835052490e-01,7.386112213134765625e-01,1.149374991655349731e-01,-1.084110066294670105e-01,-1.258637011051177979e-01,-2.030072957277297974e-01,-1.431802213191986084e-01,1.397107094526290894e-01,3.496671617031097412e-01,-8.328336477279663086e-02,1.205344870686531067e-01,-1.220304742455482483e-01,8.146220445632934570e-02,5.191516876220703125e-02,3.399938046932220459e-01,-1.817833036184310913e-01,9.573267102241516113e-01,1.702253147959709167e-02,-5.297568440437316895e-02,-3.913697600364685059e-02,9.957725554704666138e-02,3.673571646213531494e-01,7.129425555467605591e-02,-1.473786383867263794e-01,3.037284910678863525e-01,-1.836132258176803589e-01,5.332308411598205566e-01,-1.736468076705932617e-02,-7.164120674133300781e-02,1.847883760929107666e-01,1.359333992004394531e-01,4.331078827381134033e-01,6.757690012454986572e-02,-2.799979150295257568e-01,5.599075555801391602e-02,1.586868166923522949e-01,2.293804883956909180e-01,4.922713041305541992e-01,4.655833840370178223e-01,-3.440984189510345459e-01,-1.518675386905670166e-01,9.601112455129623413e-02,2.181416451930999756e-01,1.615977883338928223e-01,-6.437022238969802856e-02,1.025369644165039062e+00,3.398732841014862061e-01,-2.376106232404708862e-01,-1.377349719405174255e-02,-3.924933373928070068e-01,-2.464804612100124359e-02,1.395072937011718750e-01,-5.209487676620483398e-02,5.841286182403564453e-01,5.220011249184608459e-02,1.163811832666397095e-01,1.315615326166152954e-01,1.931699179112911224e-02,7.172596454620361328e-02,1.451635509729385376e-01,3.498450517654418945e-01,-6.829147040843963623e-02,-9.810221195220947266e-02,1.659787297248840332e-01,-2.492848597466945648e-02,8.069920539855957031e-01,1.016627177596092224e-01,-3.251231834292411804e-02,-2.858476154506206512e-02,-2.102496325969696045e-01,4.335712268948554993e-02,-4.169783890247344971e-01,3.379985392093658447e-01,2.350893914699554443e-01,-5.059844255447387695e-02,-3.650084137916564941e-01,-2.314654141664505005e-01,-4.953138828277587891e-01,-1.188685670495033264e-01,4.508670791983604431e-02,-1.114683598279953003e-01,-4.231616482138633728e-02,-2.684052288532257080e-01,1.490545831620693207e-02,7.123789191246032715e-02,-1.076733842492103577e-01,-1.249694824218750000e-01,1.572836562991142273e-02,2.558408677577972412e-01,-1.768252700567245483e-01,2.973686531186103821e-02,6.479013711214065552e-03,1.977246105670928955e-01,-3.612059354782104492e-01,-6.809517741203308105e-02,-1.535992324352264404e-01,-7.484728097915649414e-02,2.061897218227386475e-01,-1.631367951631546021e-01,1.530603170394897461e-01,-5.022946745157241821e-02,4.356139153242111206e-02,8.192674256861209869e-03,2.864023745059967041e-01,-5.946289747953414917e-03,-4.338209517300128937e-03,-1.421600431203842163e-01,1.469219848513603210e-02,3.744722902774810791e-02,1.948252879083156586e-02,1.267792284488677979e-01,2.701250277459621429e-02,-4.757466912269592285e-01,2.610666453838348389e-01,-5.414310842752456665e-03,4.388986527919769287e-01,6.021922826766967773e-01,-1.331731379032135010e-01,-1.025288999080657959e-01,1.701096892356872559e-01,-1.797009557485580444e-01,-1.507014334201812744e-01,-2.569247782230377197e-01,1.289964914321899414e-01,4.326118528842926025e-02,2.434536255896091461e-02,1.111971214413642883e-01,-3.244074583053588867e-01,6.039798855781555176e-01,7.868562638759613037e-02,-9.562920928001403809e-01,-5.338256713002920151e-03,4.085041582584381104e-02,5.584863424301147461e-01,2.378406375646591187e-01,1.831200271844863892e-01,6.647305190563201904e-02,-2.885655760765075684e-01,-2.405509650707244873e-01,-2.960391640663146973e-01,-1.614040508866310120e-02,4.048126190900802612e-02,5.928445607423782349e-02,2.188301980495452881e-01,-3.216299712657928467e-01,7.962110638618469238e-02,-9.485318511724472046e-02,1.030918359756469727e-01,1.983509361743927002e-01,4.695759117603302002e-01,2.952505946159362793e-01,2.103923559188842773e-01,-8.509860932826995850e-02,-1.916646026074886322e-02,1.733078062534332275e-02,-4.845858812332153320e-01,-2.019403576850891113e-01,1.130809634923934937e-01,1.149004474282264709e-01,-3.933125361800193787e-02,-6.538335233926773071e-02,2.351419478654861450e-01,-9.076849371194839478e-02,2.545034587383270264e-01,1.596178859472274780e-01,-1.932301968336105347e-01,9.154179692268371582e-02,2.986271977424621582e-01,-2.362107634544372559e-01,3.453565239906311035e-01,-7.998147606849670410e-02,1.819840967655181885e-01,5.404559969902038574e-01,-7.203868031501770020e-02,1.857668012380599976e-01,-9.447152912616729736e-02,-3.311925232410430908e-01,8.039264380931854248e-02,2.595807611942291260e-01,3.109254539012908936e-01,4.134359583258628845e-02,-1.283100694417953491e-01,1.497450768947601318e-01,3.356116414070129395e-01,-1.094404757022857666e-01,-8.747286349534988403e-02,-1.143948584794998169e-01,5.245907604694366455e-02,1.875755637884140015e-01,1.066701710224151611e-01,2.952765226364135742e-01,3.417223095893859863e-01,-1.933214664459228516e-01,-1.415828466415405273e-01,-1.451093405485153198e-01,2.275414615869522095e-01,1.979192495346069336e-01,5.723895877599716187e-02,1.627042517066001892e-02,-1.169361080974340439e-02,6.310325115919113159e-03,-2.687800228595733643e-01,1.024082824587821960e-01,8.648655563592910767e-02,-1.260347217321395874e-01,-2.517119646072387695e-01,1.921353787183761597e-01,-2.462292788550257683e-03,-6.374278105795383453e-03,8.802088350057601929e-02,-1.051508188247680664e-01,-1.005818229168653488e-02,1.007937788963317871e-01,3.515289723873138428e-01,-2.479330636560916901e-02,1.952499896287918091e-01,-1.639496982097625732e-01,-4.109202027320861816e-01,2.808648720383644104e-02,1.977371275424957275e-01,-4.625489562749862671e-02,-2.552389726042747498e-02,1.445383876562118530e-01,-3.869812488555908203e-01,-1.658738404512405396e-01,-3.084743022918701172e-02,-1.787178069353103638e-01,-1.384939849376678467e-01,6.344174742698669434e-01,1.733668595552444458e-01,-1.571904420852661133e-01,-1.110907122492790222e-01,6.213046982884407043e-02,1.051289588212966919e-01,-8.337928354740142822e-02,1.021867394447326660e-01,-2.888111174106597900e-01,-1.368148624897003174e-01,-7.543782889842987061e-02,-1.231101006269454956e-01,1.179363578557968140e-01,-8.254988491535186768e-02,-1.688514500856399536e-01,6.354906558990478516e-01,4.571363329887390137e-02,-2.667905986309051514e-01,1.711841374635696411e-01,2.155236303806304932e-01,-2.454610913991928101e-01,1.775879412889480591e-01,-6.867240369319915771e-02,9.141243249177932739e-02,9.171724319458007812e-02,-2.866693735122680664e-01,2.112862914800643921e-01,-4.117149412631988525e-01,9.051260352134704590e-02,-9.088635444641113281e-02,-1.125663295388221741e-01,4.982338473200798035e-02,1.804313063621520996e-01,1.141162812709808350e-01,7.373265689238905907e-04,2.043949961662292480e-01,2.354585975408554077e-01,-2.213848680257797241e-01,1.796325445175170898e-01,-1.019317582249641418e-01,1.014327034354209900e-01,-1.113331019878387451e-01,1.257994025945663452e-02,1.857842803001403809e-01,1.145228967070579529e-01,1.328507065773010254e-01,-1.012873370200395584e-02,-4.832433909177780151e-02,8.191502839326858521e-02,-2.358434945344924927e-01,1.192616075277328491e-01,2.069423496723175049e-01,5.258166790008544922e-02,2.027813047170639038e-01,-1.377659291028976440e-01,2.061431258916854858e-01,3.732192516326904297e-02,-1.163544580340385437e-01,7.804912049323320389e-03,1.966249197721481323e-01,-3.233085572719573975e-02,2.185100913047790527e-01,-9.396283328533172607e-02,-5.588785558938980103e-02,4.509773254394531250e-01,5.241583585739135742e-01,3.678266108036041260e-01,-1.193844676017761230e-01,1.211174353957176208e-01,9.963344037532806396e-02,-2.927755704149603844e-03,2.655091285705566406e-01,1.764766424894332886e-01,3.434270620346069336e-01,-1.293905675411224365e-01,1.718908734619617462e-02,-1.034734025597572327e-01,4.724719524383544922e-01,-2.031847983598709106e-01,3.484678268432617188e-02,1.877501234412193298e-02,6.415444612503051758e-01,3.004726581275463104e-02,-7.110749930143356323e-02,-3.530896008014678955e-01,-2.019961625337600708e-01,9.106905758380889893e-02,2.760100960731506348e-01,-1.956737935543060303e-01,1.345605403184890747e-02,-7.896506041288375854e-02,1.474321186542510986e-01,1.743463724851608276e-01,-1.162666529417037964e-01,-4.111747071146965027e-02,-3.680558130145072937e-02,-2.052390277385711670e-01,-1.726071685552597046e-01,-2.990511059761047363e-01,-1.740723103284835815e-01,5.893526971340179443e-02,3.337218612432479858e-02,-2.202736139297485352e-01,1.191094797104597092e-02,4.333062097430229187e-02,-1.066430583596229553e-01,2.924205269664525986e-03,4.904273897409439087e-02,1.165121942758560181e-01,-1.054107993841171265e-01,-3.704921901226043701e-01,-1.670452393591403961e-02,-1.020608120597898960e-03,-4.477094858884811401e-02,-8.784025907516479492e-02,5.254754796624183655e-02,1.066207587718963623e-01,-1.169670224189758301e-01,1.607133001089096069e-01,8.068020939826965332e-01,-4.157702326774597168e-01,-2.252009324729442596e-02,4.009910523891448975e-01,-1.344560738652944565e-02,-1.394545938819646835e-02,-2.803138457238674164e-02,-8.143720775842666626e-02,2.497234940528869629e-01,-1.249531209468841553e-01,-2.205239683389663696e-01,-5.558253452181816101e-02,1.561650913208723068e-02,1.205946430563926697e-01,-1.962432414293289185e-01,1.958893686532974243e-01,1.713162362575531006e-01,-2.485701739788055420e-01,-1.173951849341392517e-01,1.878786832094192505e-01,-1.499321460723876953e-01,1.655827462673187256e-01,6.399289369583129883e-01,1.105520725250244141e-01,-6.364483386278152466e-02,-1.072454974055290222e-01,-1.788342185318470001e-02,-5.763722956180572510e-02,-2.102874666452407837e-01,2.453016638755798340e-01,1.652293056249618530e-01,-1.423336714506149292e-01,-2.181256115436553955e-01,9.548961371183395386e-02
3.836082667112350464e-02,2.125792354345321655e-01,-3.740792348980903625e-02,-1.404062658548355103e-02,9.042810648679733276e-02,9.636929631233215332e-02,4.445559531450271606e-02,3.585960716009140015e-02,2.077199369668960571e-01,4.088715463876724243e-02,-4.791609197854995728e-02,1.072035208344459534e-01,-1.881998404860496521e-02,-8.957339078187942505e-02,-1.035841032862663269e-01,8.805631846189498901e-02,-1.377883255481719971e-01,3.109020367264747620e-02,-1.457570940256118774e-01,1.474560499191284180e-01,4.005875438451766968e-02,6.075498834252357483e-02,-2.909258380532264709e-02,3.209259733557701111e-02,4.423452168703079224e-02,3.132705092430114746e-01,5.856620892882347107e-02,6.499452888965606689e-02,7.939512282609939575e-02,-1.759294047951698303e-02,-4.206763207912445068e-02,-5.134988948702812195e-02,-8.966471254825592041e-02,-1.374207902699708939e-02,2.625417709350585938e-02,-6.385388225317001343e-02,-1.135323662310838699e-02,-6.452627480030059814e-02,3.477839007973670959e-02,6.779567897319793701e-02,2.302900552749633789e-01,-2.708077616989612579e-02,6.822250783443450928e-02,1.646237671375274658e-01,5.244729295372962952e-02,1.667746901512145996e-01,2.157633379101753235e-02,5.975604057312011719e-02,-1.845776438713073730e-01,1.108999177813529968e-01,8.831315487623214722e-02,-3.863642457872629166e-03,-3.054600907489657402e-03,1.208103597164154053e-01,8.071294426918029785e-02,-1.502318829298019409e-01,-5.546344444155693054e-02,-1.163509711623191833e-01,2.078626537695527077e-03,5.558715783990919590e-04,-9.346046485006809235e-03,-2.243263274431228638e-02,3.602910414338111877e-02,3.087735176086425781e-02,-2.701990865170955658e-02,-1.654579304158687592e-02,-4.244463890790939331e-02,-4.063465073704719543e-02,5.857655033469200134e-02,8.627010136842727661e-02,1.667469590902328491e-01,5.027482658624649048e-02,-8.473138511180877686e-02,2.620674110949039459e-02,5.722008273005485535e-02,-3.040052950382232666e-02,-1.242098957300186157e-02,1.593857705593109131e-01,1.021814644336700439e-01,1.063411030918359756e-02,-2.595667913556098938e-02,3.987187892198562622e-02,7.034032046794891357e-02,5.158943682909011841e-02,1.677549444139003754e-02,-4.792400822043418884e-02,3.000190295279026031e-02,3.581457585096359253e-02,-6.408444046974182129e-02,1.159285306930541992e-01,-4.117951169610023499e-02,-2.110087499022483826e-02,-3.000858724117279053e-01,-5.768814682960510254e-02,-5.937040969729423523e-02,1.711511239409446716e-02,-1.316973268985748291e-01,1.085357181727886200e-02,-3.305257856845855713e-02,1.236782968044281006e-02,-2.312759496271610260e-02,-6.115967035293579102e-02,-1.381049491465091705e-02,5.722601711750030518e-02,-2.433864399790763855e-02,1.494432240724563599e-01,5.693149566650390625e-02,8.122225850820541382e-02,-1.976660825312137604e-02,-4.107242822647094727e-02,-1.768129691481590271e-02,-5.085587128996849060e-02,3.441205248236656189e-02,5.814732611179351807e-02,2.875571139156818390e-02,1.471917927265167236e-01,-3.097494244575500488e-01,3.180792555212974548e-02,-1.374631524085998535e-01,9.904090315103530884e-02,2.424612641334533691e-02,-1.472706813365221024e-02,6.749473512172698975e-02,6.681897491216659546e-02,-9.987690299749374390e-02,4.328148961067199707e-01,-3.698633238673210144e-02,-2.926114201545715332e-02,-4.175099357962608337e-02,-1.918895170092582703e-03,6.609718501567840576e-02,1.856815367937088013e-01,-7.258542347699403763e-03,7.615481317043304443e-02,-1.279766298830509186e-02,1.682611852884292603e-01,-6.246651709079742432e-02,2.488344535231590271e-02,1.094914600253105164e-01,-1.982013322412967682e-02,-6.083974614739418030e-03,-4.667462781071662903e-02,1.080310437828302383e-02,1.676067151129245758e-02,1.471840292215347290e-01,9.933342039585113525e-02,-2.230544686317443848e-01,3.750586416572332382e-03,1.132992878556251526e-01,5.182302594184875488e-01,6.356123089790344238e-02,-3.072288446128368378e-02,1.116204485297203064e-01,-2.084628641605377197e-01,-3.765830071642994881e-03,6.920412927865982056e-02,5.975879356265068054e-02,3.908407688140869141e-02,-2.082323655486106873e-03,7.846631854772567749e-02,1.820757053792476654e-02,7.309164106845855713e-02,1.751737445592880249e-01,1.186058297753334045e-02,-1.085562631487846375e-01,-4.264301806688308716e-02,4.493098706007003784e-02,-1.624372601509094238e-01,2.131090015172958374e-01,-6.507576256990432739e-02,-3.975383937358856201e-02,1.435260623693466187e-01,-4.193861410021781921e-02,4.583780840039253235e-02,5.842198058962821960e-02,-1.188033632934093475e-02,-4.239528253674507141e-02,-2.412657625973224640e-02,-1.487332582473754883e-01,3.034773282706737518e-02,9.031391143798828125e-02,-7.026585936546325684e-02,-3.356226906180381775e-02,1.154770702123641968e-01,-1.255560070276260376e-01,-8.106915652751922607e-02,6.131402403116226196e-02,5.820548161864280701e-03,3.446192145347595215e-01,-1.617404073476791382e-02,2.708041481673717499e-02,2.104803919792175293e-02,-6.247275322675704956e-02,2.371004410088062286e-02,-4.139758050441741943e-01,1.012543141841888428e-01,2.593216719105839729e-03,7.267485372722148895e-03,-4.517443850636482239e-02,-4.063373198732733727e-04,-9.209199249744415283e-02,8.033969439566135406e-03,8.970393799245357513e-03,3.795083612203598022e-02,-4.254566505551338196e-03,-1.654358766973018646e-02,8.374520391225814819e-02,1.439753025770187378e-01,-4.151143878698348999e-02,1.196530237793922424e-01,3.598953410983085632e-02,-1.709495186805725098e-01,-4.557184502482414246e-02,2.158825993537902832e-01,5.988682433962821960e-02,-9.053595364093780518e-03,1.952522061765193939e-02,7.215756177902221680e-02,6.879913806915283203e-02,5.392190068960189819e-02,5.786793306469917297e-02,1.919310986995697021e-01,2.463139891624450684e-01,6.586974859237670898e-02,-2.324143052101135254e-02,8.704063296318054199e-02,-5.805434659123420715e-02,-3.702603047713637352e-03,1.195108797401189804e-02,7.642932981252670288e-02,1.553968936204910278e-01,9.860096126794815063e-02,-4.125325381755828857e-02,2.180298976600170135e-02,1.336645632982254028e-01,-6.137074157595634460e-02,2.089737653732299805e-01,3.213559687137603760e-01,8.071482926607131958e-02,-1.264468878507614136e-01,-3.458460047841072083e-02,-1.477863937616348267e-01,1.835233159363269806e-02,-2.761166170239448547e-02,2.256896259495988488e-04,-3.820409625768661499e-02,4.643204808235168457e-02,-3.906385898590087891e-01,2.071774192154407501e-02,-8.805710077285766602e-02,1.455309428274631500e-02,1.981204189360141754e-02,-9.352432191371917725e-02,-3.177466988563537598e-02,-6.831704522483050823e-04,9.171817451715469360e-02,1.289392560720443726e-01,4.378306865692138672e-02,1.835477910935878754e-02,2.684901992324739695e-04,5.061685806140303612e-04,-6.047475337982177734e-02,-3.100101649761199951e-02,-2.813848480582237244e-02,-5.250634625554084778e-02,-1.020675301551818848e-01,4.784952476620674133e-02,3.376587480306625366e-02,8.308052271604537964e-02,-5.226346850395202637e-02,4.308728501200675964e-03,3.764148429036140442e-02,8.388993330299854279e-03,2.508025765419006348e-01,5.436455458402633667e-02,-9.036615490913391113e-02,-6.705238670110702515e-02,-4.263877123594284058e-02,5.971372127532958984e-02,-6.310503929853439331e-02,-7.915280759334564209e-02,1.041175704449415207e-02,4.274044930934906006e-02,-2.076699212193489075e-02,-6.922245770692825317e-02,2.329961955547332764e-02,8.002728968858718872e-02,1.001584678888320923e-01,4.077528044581413269e-02,8.748183399438858032e-02,-8.288773242384195328e-04,6.512452848255634308e-03,6.971560418605804443e-02,8.357855491340160370e-03,-6.546230521053075790e-03,-6.377740949392318726e-02,4.991521686315536499e-02,-2.307968027889728546e-02,-4.327782243490219116e-02,-4.499476402997970581e-03,-1.938794702291488647e-01,-2.301793079823255539e-03,1.144064813852310181e-01,3.706615418195724487e-02,-2.975074015557765961e-02,-1.717875339090824127e-02,-7.514975965023040771e-02,2.084500528872013092e-02,1.438081171363592148e-02,-5.671918392181396484e-02,4.423711821436882019e-02,3.379977345466613770e-01,9.802471846342086792e-02,4.419603571295738220e-02,1.530069671571254730e-02,-3.243520855903625488e-02,-6.121924519538879395e-01,-2.662343904376029968e-02,-9.686516225337982178e-02,-1.580195128917694092e-02,6.570898741483688354e-02,4.803728312253952026e-02,-2.308047562837600708e-02,1.532891672104597092e-02,8.583727478981018066e-02,5.041300505399703979e-02,-5.728987511247396469e-03,-1.291020214557647705e-02,8.661105483770370483e-02,5.201885476708412170e-02,1.023641321808099747e-02,-6.404517590999603271e-02,-2.898908592760562897e-02,4.329302534461021423e-02,7.190027832984924316e-02,-1.446237135678529739e-02,-6.406720727682113647e-02,8.139418065547943115e-02,1.351397335529327393e-01,-4.389201640151441097e-04,-3.509721532464027405e-02,8.785144425928592682e-03,-3.232209244742989540e-03,-3.701772540807723999e-02,-1.415814757347106934e-01,4.689073562622070312e-02,-7.679972797632217407e-02,1.342302560806274414e-01,-8.171340823173522949e-02,3.721415251493453979e-02,-1.513152420520782471e-01,-2.741063944995403290e-02,-3.495691716670989990e-02,7.055010646581649780e-02,-7.000961154699325562e-02,-9.457827359437942505e-02,-3.501883475109934807e-03,-2.634975872933864594e-02,-3.390788286924362183e-02,-9.683773852884769440e-03,1.154682934284210205e-01,1.270456891506910324e-02,6.253719329833984375e-02,-1.595506221055984497e-01,7.199723273515701294e-02,7.884725928306579590e-02,4.978736862540245056e-02,-1.092879772186279297e-01,-4.013018216937780380e-03,-7.941250503063201904e-02,-5.114812031388282776e-02,-2.976710535585880280e-02,8.728490024805068970e-02,-1.668908633291721344e-02,1.695978082716464996e-02,2.008979767560958862e-02,-2.547645941376686096e-02,1.767199933528900146e-01,2.975797513499855995e-03,5.328476428985595703e-02,1.697641760110855103e-01,-3.356308862566947937e-02,8.673354983329772949e-02,4.279185831546783447e-02,8.033090084791183472e-02,4.970693495124578476e-03,-4.690909385681152344e-02,1.853878796100616455e-02,1.452832221984863281e-01,4.023041576147079468e-02,-2.829868160188198090e-02,-3.173765540122985840e-01,9.975843131542205811e-02,-3.234817832708358765e-02,-2.895465306937694550e-02,4.806543141603469849e-02,1.349352449178695679e-01,-4.588809236884117126e-02,5.558228120207786560e-03,-2.659197524189949036e-02
-6.259635835886001587e-02,2.341652363538742065e-01,-5.489722639322280884e-02,8.059720695018768311e-02,9.311898797750473022e-02,5.615885555744171143e-02,7.277827709913253784e-02,1.041977107524871826e-02,1.075179949402809143e-01,-3.885169327259063721e-02,1.332788448780775070e-02,-1.230143103748559952e-02,5.635337904095649719e-02,-5.112678930163383484e-02,-5.304912477731704712e-02,9.650304913520812988e-03,-5.284690111875534058e-02,-3.934910055249929428e-04,-1.258476525545120239e-01,5.878954008221626282e-02,2.602478563785552979e-01,5.960673093795776367e-02,-1.219773478806018829e-02,4.495315253734588623e-02,1.206164285540580750e-01,3.328110575675964355e-01,1.023894771933555603e-01,1.462865322828292847e-01,2.159629203379154205e-02,-7.657583802938461304e-02,-8.460135757923126221e-02,-1.263406574726104736e-01,-4.059021919965744019e-02,7.358249276876449585e-02,5.567822232842445374e-02,-4.535328596830368042e-02,-7.958217756822705269e-04,-4.343680664896965027e-02,-5.880036950111389160e-02,-2.950049377977848053e-02,1.689282506704330444e-01,1.490689720958471298e-02,9.688054025173187256e-02,2.776715457439422607e-01,3.077873028814792633e-02,5.178286507725715637e-02,-2.753009274601936340e-02,4.538372159004211426e-02,-3.680121898651123047e-01,-3.452146798372268677e-02,1.316906660795211792e-01,6.125455256551504135e-03,-4.990902170538902283e-02,1.192315071821212769e-01,1.956180930137634277e-01,5.640522763133049011e-02,2.237851917743682861e-01,1.402899250388145447e-02,-4.198971763253211975e-02,-5.775168910622596741e-02,-8.209208399057388306e-02,-2.499783970415592194e-02,2.016706950962543488e-02,-3.907344862818717957e-02,9.983878582715988159e-02,6.512579321861267090e-02,4.867058619856834412e-02,7.010927423834800720e-03,9.374263137578964233e-02,1.586319357156753540e-01,1.585377752780914307e-01,2.168487943708896637e-02,4.491193220019340515e-02,-2.232727967202663422e-02,7.465171068906784058e-02,2.421341463923454285e-02,-4.523437470197677612e-02,1.225405633449554443e-01,3.417804464697837830e-02,5.220768228173255920e-02,-7.285695523023605347e-02,8.088449388742446899e-02,3.242965415120124817e-02,1.098696440458297729e-01,5.965848639607429504e-02,-9.819367900490760803e-03,-4.101827740669250488e-03,2.889408916234970093e-02,1.669933646917343140e-02,2.265362814068794250e-02,-3.409185260534286499e-02,5.363040417432785034e-02,-1.616003662347793579e-01,-6.587573140859603882e-02,-8.399687707424163818e-02,-7.238084077835083008e-02,-2.657689452171325684e-01,-2.741636894643306732e-02,-8.014082908630371094e-03,-1.980120502412319183e-02,-3.110895119607448578e-02,-7.746629416942596436e-02,4.804032668471336365e-02,4.465822875499725342e-02,7.316818460822105408e-03,1.023688912391662598e-01,1.015514880418777466e-01,1.699258089065551758e-01,4.911060258746147156e-02,-4.277369007468223572e-02,-4.258264973759651184e-02,2.173559740185737610e-02,-5.205583572387695312e-02,2.933010831475257874e-02,1.656553591601550579e-03,1.629166305065155029e-01,-4.402962923049926758e-01,-1.379505079239606857e-02,-9.199970215559005737e-02,6.854971498250961304e-02,-1.412609219551086426e-02,1.231250260025262833e-02,1.125503052026033401e-02,2.999532222747802734e-02,-9.015912073664367199e-04,1.716189533472061157e-01,-3.602260723710060120e-02,-5.906317755579948425e-02,-3.336010128259658813e-02,-4.698220640420913696e-02,3.935061860829591751e-03,2.033836692571640015e-01,-1.825084723532199860e-02,1.612476259469985962e-01,3.021783381700515747e-02,1.052263826131820679e-01,-1.206154003739356995e-01,8.467244915664196014e-03,1.150938570499420166e-01,-2.395862899720668793e-02,-1.000259164720773697e-02,-1.545232348144054413e-02,-2.938501350581645966e-02,3.727981820702552795e-02,4.190814122557640076e-02,4.183446988463401794e-02,-2.186627835035324097e-01,-4.806472361087799072e-02,6.790198385715484619e-02,1.539708971977233887e-01,-8.910771459341049194e-03,-1.458311639726161957e-02,8.844643086194992065e-02,-6.114692240953445435e-02,1.003080327063798904e-02,1.091871708631515503e-01,6.185819953680038452e-02,7.033607363700866699e-02,-1.556597836315631866e-02,4.129366949200630188e-02,4.981699585914611816e-02,2.961594611406326294e-02,1.034360975027084351e-01,-3.411154448986053467e-02,-7.442808896303176880e-02,4.133493825793266296e-02,1.199166104197502136e-02,-1.428423374891281128e-01,2.624991834163665771e-01,-4.884535074234008789e-02,-2.128466032445430756e-02,1.194421872496604919e-01,-7.910434901714324951e-02,-2.327133901417255402e-02,-1.982746273279190063e-02,6.103723123669624329e-02,2.336559295654296875e-01,-9.711694717407226562e-02,-3.197377175092697144e-02,-2.110285311937332153e-02,-2.914405241608619690e-02,-3.382317721843719482e-02,-1.583049893379211426e-01,7.287953048944473267e-02,-7.638251781463623047e-02,-7.873856276273727417e-02,2.465877123177051544e-02,-4.904429242014884949e-02,2.546253800392150879e-01,-5.778942629694938660e-02,-3.384917601943016052e-02,2.609340474009513855e-02,-1.040764972567558289e-01,1.072035208344459534e-01,-5.836111307144165039e-01,8.111082762479782104e-02,9.693674510344862938e-04,-4.261199384927749634e-02,-3.460745885968208313e-02,-2.367036789655685425e-02,-4.359478503465652466e-02,1.660989969968795776e-02,-2.670042589306831360e-02,5.922103673219680786e-02,7.789121009409427643e-04,-3.857077565044164658e-03,3.842231631278991699e-02,1.452770382165908813e-01,-5.325318127870559692e-02,2.752311229705810547e-01,7.686169445514678955e-02,-3.430501818656921387e-01,-3.087119758129119873e-02,2.453151494264602661e-01,5.248047783970832825e-02,-1.550392620265483856e-02,1.360149830579757690e-01,-7.828448899090290070e-03,-4.497559368610382080e-02,8.172083646059036255e-02,-1.715103909373283386e-02,2.073733955621719360e-01,2.592557072639465332e-01,8.624284714460372925e-02,-7.277274131774902344e-02,1.409022957086563110e-01,-8.410409837961196899e-02,3.409568220376968384e-02,-5.763224512338638306e-02,3.900063782930374146e-02,1.265872567892074585e-01,1.566712372004985809e-02,3.926159068942070007e-02,1.036061421036720276e-01,1.618597358465194702e-01,-4.469935223460197449e-02,1.326485425233840942e-01,3.384318351745605469e-01,1.460224092006683350e-01,6.499997526407241821e-02,6.340087205171585083e-02,-1.133770942687988281e-01,6.503477692604064941e-02,1.751207187771797180e-02,-1.969727315008640289e-02,-5.024535581469535828e-02,6.222449243068695068e-02,-3.563382923603057861e-01,7.770771533250808716e-02,-8.705827593803405762e-02,-3.612401336431503296e-02,1.711415313184261322e-02,-1.774242520332336426e-01,-6.234192475676536560e-02,3.323853760957717896e-02,1.431224402040243149e-02,9.789780527353286743e-02,1.289190817624330521e-02,-2.780235372483730316e-02,6.633524596691131592e-02,-1.497881580144166946e-02,-7.071426371112465858e-04,2.622920572757720947e-01,-1.807148754596710205e-02,-4.805208742618560791e-02,3.438126668334007263e-02,4.797578975558280945e-02,5.194281414151191711e-02,3.327204659581184387e-02,-2.748735807836055756e-02,-2.591023780405521393e-02,-1.778357103466987610e-02,-1.566419154405593872e-01,2.192115634679794312e-01,2.695586532354354858e-02,-2.052900381386280060e-02,-2.571785449981689453e-01,1.133170071989297867e-02,3.694798052310943604e-02,-6.934617459774017334e-02,-6.180501729249954224e-02,3.358687832951545715e-02,1.399410068988800049e-01,3.455811738967895508e-02,1.720823161303997040e-02,-2.041880274191498756e-03,4.691037535667419434e-02,4.266089573502540588e-02,8.629692601971328259e-04,2.491438761353492737e-02,1.841683872044086456e-02,-2.399810403585433960e-02,1.777539588510990143e-02,-3.504636883735656738e-02,2.351856604218482971e-02,-3.977874293923377991e-02,-2.740085683763027191e-02,5.950606986880302429e-02,-3.001008555293083191e-02,-5.774560570716857910e-02,-2.168455123901367188e-01,4.992758110165596008e-02,1.516052149236202240e-02,8.130043745040893555e-02,-9.484326839447021484e-02,-7.244927342981100082e-03,-7.632199674844741821e-03,3.228719159960746765e-02,2.257448388263583183e-03,-6.097561493515968323e-02,-3.765999898314476013e-02,2.214441150426864624e-01,1.343497335910797119e-01,1.084923446178436279e-01,8.636946789920330048e-03,6.722947210073471069e-02,-1.702467948198318481e-01,-6.846782565116882324e-02,-6.267675757408142090e-02,-3.014274872839450836e-02,1.230997592210769653e-01,1.070363521575927734e-01,1.051776781678199768e-01,2.116924151778221130e-02,1.024219244718551636e-01,7.875505089759826660e-02,6.987757980823516846e-02,-3.717885166406631470e-02,1.921610981225967407e-01,6.148793268948793411e-03,6.770569086074829102e-02,-4.648418352007865906e-02,8.991771936416625977e-02,1.496079191565513611e-02,1.575146019458770752e-01,-3.810004144906997681e-02,-1.085442900657653809e-01,8.329448103904724121e-02,8.612281084060668945e-02,3.261113911867141724e-02,-1.196629833430051804e-02,5.704258009791374207e-02,-6.411104649305343628e-02,-8.600475639104843140e-02,-9.637471288442611694e-02,-2.496084570884704590e-02,-1.217456609010696411e-01,6.759364157915115356e-02,-5.723571777343750000e-02,-3.112783189862966537e-03,-1.122775524854660034e-01,-6.080836802721023560e-02,3.129862993955612183e-02,1.583776995539665222e-02,-6.307555828243494034e-03,-3.881622850894927979e-02,1.600609347224235535e-02,8.560016006231307983e-02,-1.683143898844718933e-02,-5.480016395449638367e-02,8.376444876194000244e-02,-2.489929646253585815e-02,1.255449801683425903e-01,-1.404768675565719604e-01,-2.330547757446765900e-02,-1.643926370888948441e-03,1.386234462261199951e-01,-1.579369977116584778e-02,-4.670567810535430908e-02,-4.649600014090538025e-02,-7.155846338719129562e-03,-5.808119103312492371e-02,8.185083419084548950e-02,-4.507898911833763123e-02,6.205952912569046021e-02,-3.241490572690963745e-02,-3.416733816266059875e-03,1.480495929718017578e-01,-1.044494360685348511e-01,5.446285754442214966e-02,9.737320244312286377e-03,3.410484269261360168e-02,8.477679640054702759e-02,3.666709735989570618e-02,1.326856464147567749e-01,4.506790637969970703e-02,-2.597188018262386322e-02,3.335035592317581177e-02,2.066708505153656006e-01,1.141619011759757996e-01,4.492547363042831421e-02,-1.681225895881652832e-01,1.189946085214614868e-01,-8.848784863948822021e-02,-2.899841777980327606e-02,1.012697219848632812e-01,6.138953939080238342e-02,-8.555011451244354248e-02,-1.729747839272022247e-02,-2.481593191623687744e-02
-1.386025827378034592e-02,-4.301460087299346924e-02,-1.574966609477996826e-01,7.976008951663970947e-02,1.008620187640190125e-01,-1.755682937800884247e-02,-2.282221429049968719e-02,-1.496356129646301270e-01,-1.716055721044540405e-01,-1.581228226423263550e-01,-2.756629884243011475e-01,-1.420576870441436768e-01,-3.787063062191009521e-02,1.910056546330451965e-02,4.231448471546173096e-02,3.439151449128985405e-03,4.188381601125001907e-03,-5.045909434556961060e-02,6.313437223434448242e-02,-5.404380708932876587e-02,1.404163539409637451e-01,6.505807489156723022e-02,-5.582036916166543961e-03,4.452193155884742737e-02,1.131168529391288757e-01,-2.211370319128036499e-02,-9.577451646327972412e-02,7.957575470209121704e-02,-1.324501484632492065e-01,-9.943471103906631470e-02,-1.034934595227241516e-01,1.051304265856742859e-01,1.610331237316131592e-01,-3.471457585692405701e-02,6.803345680236816406e-02,1.359162107110023499e-02,-1.181579474359750748e-02,5.811182409524917603e-02,-3.591986605897545815e-03,1.356262434273958206e-02,-1.258282512426376343e-01,1.339543238282203674e-02,-1.136039644479751587e-01,-8.674992620944976807e-02,-4.844230785965919495e-02,3.744352608919143677e-02,-3.840428218245506287e-02,-3.654448315501213074e-02,1.756984274834394455e-03,-8.331805467605590820e-02,5.219179391860961914e-02,1.527693122625350952e-01,-4.349041357636451721e-02,-3.239008784294128418e-01,1.521692872047424316e-01,2.027129009366035461e-02,5.349322557449340820e-01,9.776176512241363525e-02,-9.293060749769210815e-02,-2.535923011600971222e-02,-2.394037842750549316e-01,-1.430345773696899414e-01,-1.240706145763397217e-01,-1.498420140706002712e-03,-1.482959240674972534e-01,2.939480245113372803e-01,7.996930507943034172e-04,-2.411347068846225739e-02,-1.951049715280532837e-01,1.923450678586959839e-01,-5.607025697827339172e-02,-4.829377681016921997e-02,-9.571758657693862915e-02,-4.202564060688018799e-02,7.812049239873886108e-02,-4.571253061294555664e-02,-1.055630370974540710e-01,1.161999702453613281e-01,7.267874665558338165e-03,-2.143034189939498901e-01,-7.949529215693473816e-03,1.143409498035907745e-02,-2.774567306041717529e-01,1.289025545120239258e-01,-3.480585813522338867e-01,6.976883113384246826e-02,-6.519223749637603760e-02,-7.142518460750579834e-02,4.122311249375343323e-02,2.328693568706512451e-01,1.017708256840705872e-01,-1.006266660988330841e-02,3.682755529880523682e-01,-1.627129614353179932e-01,-9.925734251737594604e-02,-2.094149291515350342e-01,-6.705170124769210815e-02,7.901409268379211426e-02,-3.276636078953742981e-02,8.895131759345531464e-03,-2.781530469655990601e-02,1.541134528815746307e-02,5.289172008633613586e-02,-5.127822980284690857e-02,1.293126400560140610e-02,4.673403128981590271e-02,1.050797775387763977e-01,2.757937833666801453e-02,3.876720741391181946e-02,7.246585190296173096e-02,9.567079693078994751e-02,8.411291986703872681e-02,3.743087500333786011e-02,-4.389318823814392090e-02,4.000942409038543701e-02,-7.450312376022338867e-02,1.899407245218753815e-02,4.473463632166385651e-03,3.484171628952026367e-02,3.812533989548683167e-02,-4.771010950207710266e-02,-1.079334877431392670e-02,-6.368172168731689453e-02,-6.018811464309692383e-02,5.006932839751243591e-02,-5.204076170921325684e-01,3.279665857553482056e-02,-2.043455466628074646e-02,3.999941423535346985e-02,-7.508862297981977463e-03,3.581813350319862366e-02,-2.115119695663452148e-01,-6.602916866540908813e-02,1.258343905210494995e-01,5.813431739807128906e-02,-1.547631770372390747e-01,7.938446849584579468e-02,-6.886456906795501709e-02,-1.041066646575927734e-01,-3.394997119903564453e-02,-2.232517302036285400e-01,3.303302079439163208e-02,6.210960820317268372e-02,2.154873916879296303e-03,-1.735190749168395996e-01,-1.203277185559272766e-01,4.332418143749237061e-01,-3.072121441364288330e-01,1.998644508421421051e-02,-9.769049882888793945e-01,6.826459895819425583e-03,7.901138812303543091e-02,-2.373097240924835205e-01,-1.473320275545120239e-01,8.106028288602828979e-02,1.237358078360557556e-01,3.082500025629997253e-02,2.378982305526733398e-02,4.394473880529403687e-02,8.721388876438140869e-04,1.074531376361846924e-01,1.103965099900960922e-02,7.449442148208618164e-02,-1.033093128353357315e-02,4.815102368593215942e-02,-6.515485048294067383e-02,1.446353504434227943e-03,-3.491776287555694580e-01,1.487569510936737061e-01,-2.093601226806640625e-02,1.289449334144592285e-01,-1.610569953918457031e-01,3.677238943055272102e-03,3.453701036050915718e-03,1.048336625099182129e-01,2.344696782529354095e-02,3.027583658695220947e-01,2.566644549369812012e-02,3.558480739593505859e-01,6.655416637659072876e-02,-8.631873130798339844e-02,2.120677381753921509e-02,4.571766778826713562e-02,-8.240940421819686890e-02,2.617977559566497803e-01,2.081933766603469849e-01,4.221753403544425964e-02,3.152981400489807129e-02,-3.545676171779632568e-01,-2.641495689749717712e-02,1.552463620901107788e-01,-6.583710312843322754e-01,-7.219418883323669434e-02,1.167177259922027588e-01,1.759085655212402344e-01,-8.142238110303878784e-02,6.230248510837554932e-02,-1.441161483526229858e-01,3.902065381407737732e-02,8.680703118443489075e-03,5.134321376681327820e-02,5.624716728925704956e-02,5.124004185199737549e-02,-1.668760776519775391e-01,7.177815586328506470e-02,5.635268986225128174e-02,-1.018821373581886292e-01,9.149874746799468994e-02,-1.627038568258285522e-01,-2.319592423737049103e-02,-2.832116186618804932e-01,1.070548370480537415e-01,-2.913817018270492554e-02,4.290015101432800293e-01,-4.299591854214668274e-02,-7.258929777890443802e-03,2.569100856781005859e-01,7.280651479959487915e-02,-8.365842700004577637e-02,-6.689991801977157593e-02,-2.154755741357803345e-01,7.622845470905303955e-02,-4.741129577159881592e-01,2.612944692373275757e-02,1.146724969148635864e-01,2.843565866351127625e-02,1.119176819920539856e-01,1.375504862517118454e-02,3.667407855391502380e-02,4.550359025597572327e-02,-2.762552909553050995e-02,-1.792506873607635498e-01,-1.168077886104583740e-01,-1.085099880583584309e-03,2.051519230008125305e-02,4.650226980447769165e-02,-8.938336372375488281e-02,-2.798552811145782471e-02,-3.046602308750152588e-01,1.458203792572021484e-01,1.744227260351181030e-01,1.369958072900772095e-01,8.862063288688659668e-03,5.322976410388946533e-02,-5.448012053966522217e-02,-4.676035791635513306e-02,5.174622312188148499e-02,2.741931974887847900e-01,2.549378946423530579e-02,-1.020546555519104004e-01,-5.535857006907463074e-02,4.568860307335853577e-02,1.431441865861415863e-02,-2.947090193629264832e-02,1.395979803055524826e-02,4.414313938468694687e-03,-8.972002565860748291e-02,-9.744624048471450806e-02,2.334611862897872925e-02,7.190701365470886230e-02,3.649554029107093811e-02,1.067931652069091797e-01,-1.653668582439422607e-01,-1.107172295451164246e-02,1.250210916623473167e-03,1.980663686990737915e-01,1.107686460018157959e-01,-8.885961025953292847e-02,7.046691328287124634e-02,-3.605349455028772354e-03,-1.376112848520278931e-01,-5.507066100835800171e-02,3.917790204286575317e-02,1.377174910157918930e-02,-6.359915435314178467e-02,6.134797632694244385e-02,-6.678061932325363159e-02,-1.675203293561935425e-01,-2.897328324615955353e-02,1.080695763230323792e-01,1.258770078420639038e-01,3.540718555450439453e-02,4.619373381137847900e-02,2.710892856121063232e-01,6.183364242315292358e-02,-7.060802076011896133e-03,-3.540670499205589294e-02,-2.965801395475864410e-02,-3.416356444358825684e-02,2.023990498855710030e-03,-5.800741910934448242e-02,5.061721429228782654e-02,-1.457441449165344238e-01,-1.465052273124456406e-02,-7.591708749532699585e-02,-7.769935578107833862e-02,-2.531299181282520294e-02,-2.862830180674791336e-03,1.252761781215667725e-01,-4.795790184289216995e-03,5.298875272274017334e-02,1.890589855611324310e-02,-1.586672961711883545e-01,-6.273953709751367569e-03,-1.955997571349143982e-02,2.252368442714214325e-02,-1.667524874210357666e-02,1.186093688011169434e-01,1.793977618217468262e-02,1.567156910896301270e-01,-7.233317196369171143e-02,-3.637404143810272217e-01,2.598363161087036133e-01,-1.590349972248077393e-01,1.009196937084197998e-01,6.667520850896835327e-02,8.223779797554016113e-01,-1.190193518996238708e-01,2.204995602369308472e-02,1.433953046798706055e-01,-1.205923408269882202e-01,-1.486482005566358566e-02,1.229512095451354980e-01,1.014821417629718781e-02,-1.190700381994247437e-01,7.486415561288595200e-03,1.564085781574249268e-01,8.530975133180618286e-02,1.818325370550155640e-01,4.258060082793235779e-02,5.850195512175559998e-02,1.258060038089752197e-01,1.963594108819961548e-01,5.159742757678031921e-02,-8.596818894147872925e-02,-2.118749730288982391e-02,-9.537273645401000977e-02,-3.498210338875651360e-03,-1.531811151653528214e-02,-1.032437663525342941e-02,-6.410793960094451904e-02,7.687938958406448364e-02,-6.245515123009681702e-02,5.128701403737068176e-02,6.588580459356307983e-02,-1.764889657497406006e-01,9.676846675574779510e-03,6.880124658346176147e-02,1.935842484235763550e-01,7.948274910449981689e-02,1.471116244792938232e-01,-1.315510272979736328e-01,-2.087517678737640381e-01,5.308466032147407532e-02,9.671978652477264404e-02,1.160070151090621948e-01,9.007447957992553711e-02,9.669309109449386597e-02,5.979837477207183838e-02,4.199144616723060608e-02,-3.540051355957984924e-02,1.164253875613212585e-01,-7.741124182939529419e-02,9.006730467081069946e-02,1.352659910917282104e-01,-1.539569199085235596e-01,-2.256408631801605225e-01,1.086929291486740112e-01,8.745906502008438110e-02,1.112671643495559692e-01,3.458143770694732666e-02,8.039268106222152710e-02,-8.980026096105575562e-02,3.630421310663223267e-02,2.452114364132285118e-03,8.188381791114807129e-03,1.129841133952140808e-01,4.036072641611099243e-02,-5.821270123124122620e-02,1.182381287217140198e-01,-2.771016061305999756e-01,-4.880575928837060928e-03,-6.245406717061996460e-02,-2.975925989449024200e-02,-4.926885291934013367e-02,1.179584413766860962e-01,-2.608737349510192871e-01,1.219352334737777710e-02,-1.341008543968200684e-01,-1.784792542457580566e-02,-2.403229102492332458e-02,4.791367799043655396e-02,5.894925445318222046e-02,1.550810933113098145e-01,1.481799967586994171e-02,1.649731956422328949e-02,-7.344990223646163940e-02,9.809205308556556702e-03,-2.429910236969590187e-04,-1.828261837363243103e-02
5.946622416377067566e-02,-9.024611115455627441e-02,-1.938382536172866821e-01,1.915470361709594727e-01,1.190972328186035156e-01,4.481331445276737213e-03,1.416035443544387817e-01,8.651079982519149780e-02,1.970828920602798462e-01,2.242689253762364388e-03,-2.443649023771286011e-01,-5.791323259472846985e-02,-6.632442772388458252e-02,3.676673397421836853e-02,9.519658237695693970e-02,-1.939454488456249237e-02,-5.269186804071068764e-04,-1.529370434582233429e-02,-3.035981394350528717e-02,-2.614482045173645020e-01,4.584326744079589844e-01,4.774885624647140503e-02,-1.235026866197586060e-01,-8.106660097837448120e-02,1.521419268101453781e-02,-1.840593665838241577e-01,6.731598824262619019e-02,1.393426582217216492e-02,9.833809733390808105e-02,2.629023604094982147e-02,-5.213162675499916077e-02,3.568292781710624695e-02,1.014908403158187866e-01,1.312929391860961914e-01,-2.046338319778442383e-01,3.825290501117706299e-01,1.386991050094366074e-02,-5.134089291095733643e-02,1.111849490553140640e-02,-2.288939356803894043e-01,-6.446123868227005005e-02,2.279872074723243713e-02,2.588797733187675476e-02,2.274247854948043823e-01,5.951865387032739818e-05,2.045386731624603271e-01,-4.245269112288951874e-03,1.149619277566671371e-02,-1.700782775878906250e-01,1.621814817190170288e-01,2.028974145650863647e-01,7.586793601512908936e-02,6.229570508003234863e-02,-1.963520348072052002e-01,1.415450125932693481e-01,-1.939022094011306763e-01,5.636345148086547852e-01,-1.848266460001468658e-03,-5.502086877822875977e-02,4.211182519793510437e-02,-1.459236443042755127e-01,-1.873476244509220123e-02,3.900158032774925232e-02,4.293162003159523010e-02,6.533913612365722656e-01,2.895792722702026367e-01,-6.763311475515365601e-02,3.272227197885513306e-02,-4.374897852540016174e-02,1.199519783258438110e-01,1.135559156537055969e-01,8.049155026674270630e-02,-3.655437007546424866e-02,4.066989570856094360e-02,2.551102936267852783e-01,1.462889164686203003e-01,-3.669426217675209045e-02,1.101628392934799194e-01,8.083523064851760864e-02,5.483399331569671631e-02,1.030112653970718384e-01,3.140591457486152649e-02,-6.396045535802841187e-02,3.230790793895721436e-02,-4.079973399639129639e-01,-1.540880501270294189e-01,7.069288194179534912e-02,9.730934351682662964e-02,-2.844989672303199768e-02,3.469193577766418457e-01,-9.713600389659404755e-03,-2.129933536052703857e-01,3.215394541621208191e-02,-3.231756761670112610e-02,-3.793459534645080566e-01,-9.980957955121994019e-02,-1.211429573595523834e-02,-9.628153592348098755e-02,1.099473983049392700e-01,-5.052307993173599243e-02,-8.355472236871719360e-03,-2.571071311831474304e-02,4.458223655819892883e-02,-6.273395568132400513e-02,8.452324569225311279e-02,-1.888503134250640869e-01,1.061592549085617065e-01,8.377365767955780029e-02,-1.626727879047393799e-01,6.927593052387237549e-02,-9.284919127821922302e-03,1.415309403091669083e-02,1.658006943762302399e-02,8.955622464418411255e-02,2.609634026885032654e-02,5.200841650366783142e-02,1.105769798159599304e-01,-2.038344591856002808e-01,-1.241732090711593628e-01,4.793376475572586060e-02,4.174836724996566772e-02,-2.345219627022743225e-02,-4.512941837310791016e-02,9.845896810293197632e-02,3.524722158908843994e-02,-4.254401922225952148e-01,-4.042229056358337402e-02,2.075215987861156464e-02,3.844234347343444824e-02,4.488211870193481445e-02,-6.795695424079895020e-02,-2.716744244098663330e-01,-6.786227226257324219e-02,1.892329752445220947e-01,1.931812614202499390e-01,7.662205398082733154e-02,6.374559551477432251e-02,-9.559398144483566284e-02,1.902758032083511353e-01,-1.640158742666244507e-01,-1.193218976259231567e-01,-8.120750635862350464e-02,8.494744449853897095e-02,1.373300701379776001e-01,3.016897104680538177e-02,-7.165754586458206177e-02,-1.176756434142589569e-02,5.564920306205749512e-01,1.403278559446334839e-01,-4.257122874259948730e-01,5.442159995436668396e-02,-1.959435641765594482e-02,5.401796102523803711e-02,9.456004947423934937e-02,1.155246347188949585e-01,-1.943355984985828400e-02,-1.090542506426572800e-02,-5.201371014118194580e-02,8.917416632175445557e-02,1.299316287040710449e-01,2.652349509298801422e-02,3.487508371472358704e-02,1.867839992046356201e-01,3.626872599124908447e-02,-2.701619872823357582e-03,-2.141147293150424957e-02,-1.289608031511306763e-01,-1.291805952787399292e-01,-2.009477466344833374e-01,9.463041089475154877e-03,7.574060559272766113e-02,9.387829340994358063e-03,1.545368507504463196e-02,-2.719691395759582520e-02,2.306001484394073486e-01,-9.136977791786193848e-02,5.956588983535766602e-01,2.262103408575057983e-01,1.917499005794525146e-01,1.043404787778854370e-01,3.958268463611602783e-02,-1.845744438469409943e-02,1.867349445819854736e-01,-8.402560651302337646e-02,9.533504396677017212e-02,-5.826827138662338257e-02,-5.379496887326240540e-02,-6.245280615985393524e-03,5.233187228441238403e-02,-3.885809704661369324e-02,1.690976619720458984e-01,-4.257869124412536621e-01,-3.004140593111515045e-02,1.397135406732559204e-01,5.365741252899169922e-01,-4.802256226539611816e-01,-1.725338846445083618e-01,6.456362456083297729e-02,1.208081841468811035e-01,1.148584485054016113e-01,4.836223646998405457e-02,3.899813815951347351e-02,1.005956009030342102e-01,-5.011931657791137695e-01,2.054231055080890656e-02,-4.220673814415931702e-02,-6.901248358190059662e-03,-5.376351997256278992e-02,-2.622380852699279785e-02,-2.201344370841979980e-01,2.963996231555938721e-01,-4.059275388717651367e-01,-2.671551704406738281e-02,3.020906746387481689e-01,2.638716809451580048e-02,5.626719444990158081e-02,1.012669280171394348e-01,2.083676680922508240e-02,2.517284080386161804e-02,3.211513394489884377e-03,-4.692126438021659851e-02,-1.570346355438232422e-01,-1.816832721233367920e-01,-1.365052461624145508e-01,-2.682102099061012268e-02,2.980991452932357788e-02,1.815732941031455994e-02,-3.488372266292572021e-02,1.628351509571075439e-01,2.188768610358238220e-02,-3.298338875174522400e-02,7.764127571135759354e-03,3.506495803594589233e-02,-8.125849999487400055e-04,-3.581305965781211853e-02,2.160588279366493225e-02,-1.922153979539871216e-01,2.791428864002227783e-01,-3.695445507764816284e-02,-3.142586648464202881e-01,-9.280905127525329590e-02,7.851589471101760864e-02,-1.301608830690383911e-01,-1.514108777046203613e-01,1.589400693774223328e-02,-3.273824462667107582e-03,-6.289981305599212646e-02,1.710357069969177246e-01,1.179510280489921570e-01,-8.577948063611984253e-02,-1.014844402670860291e-01,-1.054717320948839188e-02,1.188851892948150635e-01,-3.545292466878890991e-02,8.028876036405563354e-02,-1.022680029273033142e-01,4.317121952772140503e-02,-3.181413188576698303e-02,1.764484308660030365e-02,1.988463662564754486e-02,7.787305861711502075e-02,3.271196037530899048e-02,-2.997212111949920654e-01,-1.312757730484008789e-01,2.424528636038303375e-02,-5.241857469081878662e-02,2.128232866525650024e-01,-7.676453888416290283e-02,8.611028641462326050e-02,-3.537568822503089905e-02,-3.628927841782569885e-02,-2.202869020402431488e-02,-2.295299172401428223e-01,7.265127450227737427e-02,2.454155869781970978e-02,1.471532732248306274e-01,8.904204517602920532e-02,-1.161740198731422424e-01,1.516687422990798950e-01,1.556329876184463501e-01,2.023922652006149292e-02,-9.678530506789684296e-03,7.695966213941574097e-02,-4.961339756846427917e-02,-2.311964482069015503e-01,1.829598098993301392e-01,1.315642148256301880e-01,-4.950334876775741577e-02,-3.808447346091270447e-02,1.209924444556236267e-01,-4.967526346445083618e-02,1.092406176030635834e-02,1.395851671695709229e-01,-8.996756747364997864e-03,-5.117421504110097885e-03,1.095513552427291870e-01,3.803338110446929932e-02,6.443398445844650269e-02,5.096400156617164612e-02,5.590206384658813477e-02,5.591686815023422241e-02,3.429940342903137207e-02,3.350794548168778419e-03,-6.640119850635528564e-02,-6.262604147195816040e-02,4.801904782652854919e-02,1.739057898521423340e-02,8.078328520059585571e-02,8.634239435195922852e-03,-2.476468086242675781e-01,-2.315795794129371643e-02,1.105387974530458450e-02,2.466901093721389771e-01,2.187522128224372864e-03,1.787643693387508392e-02,-3.875963017344474792e-02,3.613612055778503418e-01,-4.370744153857231140e-02,1.416299194097518921e-01,-7.683707773685455322e-02,-1.491312030702829361e-02,-8.266125805675983429e-03,-1.878292858600616455e-01,-2.979127166327089071e-04,1.593707054853439331e-01,7.019063830375671387e-02,-5.265187844634056091e-02,6.067098304629325867e-02,4.794311225414276123e-01,1.663560718297958374e-01,-6.936330813914537430e-03,-4.477218259125947952e-03,1.221194341778755188e-01,9.067302197217941284e-02,1.274672746658325195e-01,-9.744987636804580688e-02,-3.410565480589866638e-02,-1.039503663778305054e-01,5.388913303613662720e-02,1.626594215631484985e-01,-1.478858292102813721e-01,-1.436091214418411255e-01,6.787046790122985840e-02,3.790147230029106140e-02,-4.216552246361970901e-03,-1.481745857745409012e-02,1.125620305538177490e-01,-9.509928524494171143e-02,2.065826356410980225e-01,-7.375459372997283936e-02,8.773575723171234131e-02,-6.141007691621780396e-02,-1.441462244838476181e-02,-2.425412274897098541e-02,1.832443289458751678e-02,5.697445943951606750e-02,1.142851915210485458e-02,-9.598637372255325317e-02,4.023621976375579834e-02,-2.790566682815551758e-01,-1.427771151065826416e-01,1.103155240416526794e-01,2.336781919002532959e-01,9.921899437904357910e-02,7.827879488468170166e-02,3.361011296510696411e-02,-1.274088621139526367e-01,7.779051363468170166e-02,1.119816824793815613e-01,4.311926960945129395e-01,1.205151528120040894e-01,9.943057596683502197e-02,6.028641760349273682e-02,4.370104521512985229e-02,4.528467729687690735e-02,-1.706722192466259003e-02,-6.391358375549316406e-02,-5.440474674105644226e-02,-2.835891209542751312e-02,2.178423553705215454e-01,-4.845982417464256287e-02,2.160190604627132416e-02,-6.905279587954282761e-03,-9.352485090494155884e-02,-2.526372671127319336e-02,-2.371304482221603394e-02,-1.618040651082992554e-01,9.230055660009384155e-02,2.758677862584590912e-02,1.292499303817749023e-01,1.088361372239887714e-03,-1.426720023155212402e-01,-4.751317575573921204e-02,2.129256278276443481e-01,-1.865407824516296387e-01,-3.349800035357475281e-02,-1.559827029705047607e-01,-5.772182345390319824e-02,-5.490717664361000061e-02,4.509806260466575623e-02
-5.395147204399108887e-02,1.189650967717170715e-01,-9.490843117237091064e-02,1.136034205555915833e-01,1.772016584873199463e-01,4.907640442252159119e-02,4.198503866791725159e-02,-1.338648498058319092e-01,-2.831881493330001831e-02,-3.503210842609405518e-02,-2.128200829029083252e-01,-1.404959410429000854e-01,4.091036040335893631e-03,7.622258365154266357e-02,8.072035014629364014e-02,-1.163424849510192871e-01,5.934268236160278320e-02,5.178168043494224548e-02,3.916938323527574539e-03,-3.969577327370643616e-02,3.704785406589508057e-01,4.056242108345031738e-02,-9.496741741895675659e-02,-1.300424188375473022e-01,-1.852974109351634979e-02,-1.105750203132629395e-01,1.351585239171981812e-01,1.272811293601989746e-01,6.213617324829101562e-02,5.594908073544502258e-02,-1.566305011510848999e-01,2.227826416492462158e-02,1.575263403356075287e-02,1.028493568301200867e-01,-1.221622899174690247e-01,4.384942948818206787e-01,1.997529901564121246e-02,2.161866426467895508e-02,-1.205317303538322449e-02,-1.391959283500909805e-02,7.651644945144653320e-02,2.037237398326396942e-02,-8.744230866432189941e-02,5.872733145952224731e-02,-8.512523770332336426e-02,2.986566126346588135e-01,-1.162635907530784607e-02,5.933265388011932373e-02,-1.587250269949436188e-02,7.745686173439025879e-02,2.280376106500625610e-01,1.255228966474533081e-01,-3.039695508778095245e-02,-2.703289091587066650e-01,5.164014920592308044e-02,-4.623692110180854797e-02,4.536535739898681641e-01,1.735086590051651001e-01,-6.745741516351699829e-02,7.065088301897048950e-02,-3.155075013637542725e-02,-3.694637492299079895e-02,1.080482229590415955e-01,-3.138498961925506592e-02,7.033606767654418945e-01,2.619326412677764893e-01,-5.467078089714050293e-02,-3.560086339712142944e-02,-5.571934208273887634e-02,2.400919049978256226e-02,7.134808599948883057e-02,-4.485242534428834915e-03,2.072817236185073853e-01,-6.741149723529815674e-02,1.319973468780517578e-01,1.063279584050178528e-01,-4.564218223094940186e-02,1.871121823787689209e-01,-1.732103712856769562e-02,-1.202002051286399364e-03,3.248082101345062256e-02,-2.509314566850662231e-02,-1.140499785542488098e-01,2.203682065010070801e-02,-8.855970948934555054e-02,-5.184735357761383057e-02,4.359152168035507202e-02,-3.767358511686325073e-02,-8.496897667646408081e-02,2.813695967197418213e-01,-9.323921054601669312e-02,-1.339841336011886597e-01,5.336354672908782959e-02,-1.692640334367752075e-01,-3.578821122646331787e-01,-2.659981846809387207e-01,-1.611490696668624878e-01,-1.409268975257873535e-01,2.877043560147285461e-02,-2.685919590294361115e-02,-8.835292421281337738e-03,7.733978796750307083e-03,-2.138301730155944824e-02,-5.872486904263496399e-02,-2.675900235772132874e-02,-3.760844096541404724e-02,1.066800281405448914e-01,2.140644788742065430e-01,-4.113109782338142395e-02,-2.401605993509292603e-02,2.944736741483211517e-02,8.165890723466873169e-02,-2.959103137254714966e-02,-7.424082607030868530e-02,2.929425798356533051e-02,-2.233150415122509003e-02,6.005010008811950684e-02,-1.173900738358497620e-01,7.621468603610992432e-02,9.582721628248691559e-03,7.983926683664321899e-02,-6.059554964303970337e-02,1.794795244932174683e-01,3.980951011180877686e-02,1.348723843693733215e-02,-5.609173774719238281e-01,-7.119660824537277222e-02,-2.750129671767354012e-03,8.156521618366241455e-02,-4.176048561930656433e-03,-4.049850255250930786e-02,-1.348427087068557739e-01,-4.904621466994285583e-02,9.401620924472808838e-02,1.712464839220046997e-01,2.400355935096740723e-01,-3.211048617959022522e-02,-1.557058244943618774e-01,1.177500262856483459e-01,-8.776596933603286743e-02,-8.916588127613067627e-02,-2.951482124626636505e-02,3.937357291579246521e-02,1.034433990716934204e-01,-1.163218840956687927e-01,-1.196447908878326416e-01,1.021265760064125061e-01,2.503383755683898926e-01,1.957876980304718018e-01,-7.539507746696472168e-01,-6.680883467197418213e-02,-6.278479099273681641e-02,-1.435470022261142731e-02,-1.545130088925361633e-02,9.071053564548492432e-02,8.136139251291751862e-03,2.164766378700733185e-02,-7.051113992929458618e-03,-7.063335925340652466e-02,8.287368714809417725e-02,8.302651345729827881e-02,5.910376459360122681e-02,2.591516971588134766e-01,-2.094220221042633057e-01,-2.170949708670377731e-03,-1.437006238847970963e-02,-1.503296792507171631e-01,-1.800260096788406372e-01,1.625434756278991699e-01,1.022029221057891846e-01,1.566549241542816162e-01,-1.208107024431228638e-01,-4.131902381777763367e-02,-4.610920697450637817e-02,-9.601036086678504944e-03,-6.657221168279647827e-02,3.621695935726165771e-01,2.161079943180084229e-01,-8.246570825576782227e-02,1.202241554856300354e-01,1.353359222412109375e-01,-5.407130718231201172e-02,1.123491227626800537e-01,-1.659377366304397583e-01,1.254018992185592651e-01,1.130552124232053757e-02,1.258357334882020950e-02,-1.434250152669847012e-03,1.268874704837799072e-01,-4.393538460135459900e-02,1.699975132942199707e-01,-3.328754901885986328e-01,-2.890238910913467407e-02,9.320435672998428345e-02,3.767605423927307129e-01,-2.236005812883377075e-01,-4.194486513733863831e-02,1.493770927190780640e-01,1.925237625837326050e-01,2.939082309603691101e-02,2.870898693799972534e-02,1.245651915669441223e-01,9.945952147245407104e-02,-3.917025923728942871e-01,-5.984056368470191956e-02,1.401966437697410583e-02,-8.289976418018341064e-02,4.410181567072868347e-02,-1.422276813536882401e-02,-1.271639317274093628e-01,-6.593166291713714600e-02,-1.914323866367340088e-01,-6.081776693463325500e-02,1.850768476724624634e-01,4.639391601085662842e-02,6.174874678254127502e-02,9.845422208309173584e-02,-3.299813345074653625e-02,6.486422568559646606e-02,-8.409392088651657104e-02,-1.034516096115112305e-01,3.999223187565803528e-02,-4.511365201324224472e-03,-7.803456485271453857e-02,-5.570415034890174866e-02,1.368541568517684937e-01,-5.677046719938516617e-03,-7.114039268344640732e-03,4.890188574790954590e-02,3.791741654276847839e-02,-1.119282320141792297e-01,1.822137646377086639e-02,3.353102831169962883e-03,-2.708271332085132599e-02,9.998214989900588989e-02,2.904401160776615143e-02,-2.315122485160827637e-01,4.446202516555786133e-02,-1.797181665897369385e-01,-3.377747535705566406e-01,-1.217719241976737976e-01,8.210951834917068481e-02,-1.017936319112777710e-01,-1.617960631847381592e-01,3.081647492945194244e-02,-4.556862264871597290e-02,-5.211759731173515320e-02,4.646941721439361572e-01,1.171782091259956360e-01,-3.420659154653549194e-02,-2.338453568518161774e-02,4.713785648345947266e-02,4.154778644442558289e-02,-6.263871677219867706e-03,4.035471379756927490e-02,-1.593522727489471436e-01,3.167401300743222237e-03,-4.252356290817260742e-02,3.033196367323398590e-02,9.786184877157211304e-02,8.983046561479568481e-02,-8.075314573943614960e-03,-1.788452118635177612e-01,-1.319493204355239868e-01,-6.235124915838241577e-02,4.130560439079999924e-03,1.628832072019577026e-01,-1.058080717921257019e-01,9.494698792695999146e-02,-5.146824941039085388e-02,-1.064886823296546936e-01,3.346603363752365112e-02,-2.102732062339782715e-01,5.223026499152183533e-02,-1.674387454986572266e-01,1.553501039743423462e-01,-5.754249915480613708e-02,-2.415449321269989014e-01,4.901304095983505249e-02,8.235087245702743530e-02,6.677297502756118774e-02,7.885465770959854126e-02,6.030772626399993896e-02,1.570752114057540894e-01,-1.040764302015304565e-01,1.488128453493118286e-01,9.597191214561462402e-02,-1.036473661661148071e-01,-5.015383288264274597e-02,7.617293298244476318e-02,-8.186548203229904175e-02,-5.634787492454051971e-03,7.226724177598953247e-02,-5.550288408994674683e-02,-3.780727088451385498e-02,8.921406418085098267e-02,-1.442995481193065643e-02,7.370406761765480042e-03,-1.936013996601104736e-02,8.892492949962615967e-02,1.468549519777297974e-01,2.625820040702819824e-02,-7.749025523662567139e-02,-1.836926676332950592e-02,1.667604036629199982e-02,3.146557137370109558e-02,1.540849208831787109e-01,6.217508018016815186e-02,6.979891657829284668e-02,2.383309416472911835e-02,-7.728653401136398315e-02,9.780789166688919067e-02,2.777259349822998047e-01,4.516011849045753479e-02,-1.866817474365234375e-02,1.380393397994339466e-03,5.183479189872741699e-01,1.011248305439949036e-01,1.350064128637313843e-01,1.024456471204757690e-01,1.240945653989911079e-03,-6.420845538377761841e-02,-1.840040646493434906e-02,1.356742717325687408e-02,1.405892968177795410e-01,4.513614811003208160e-03,-3.849211335182189941e-02,1.287197321653366089e-01,3.753128945827484131e-01,9.830194711685180664e-02,6.366315484046936035e-02,-1.140038073062896729e-01,-2.023038268089294434e-02,1.009214892983436584e-01,1.219235435128211975e-01,-1.001680791378021240e-01,-1.210667416453361511e-01,-7.927736639976501465e-02,1.366653293371200562e-02,9.583034366369247437e-02,-1.650280058383941650e-01,-5.168846249580383301e-02,3.192981332540512085e-02,1.125441584736108780e-02,-1.118995342403650284e-02,-1.156222075223922729e-01,3.722228854894638062e-02,9.625281393527984619e-02,1.229477971792221069e-01,-4.935286194086074829e-02,-4.871868994086980820e-03,-5.467757955193519592e-02,-6.172843277454376221e-02,7.569365948438644409e-02,6.293722242116928101e-02,1.567339003086090088e-01,-2.181501314043998718e-02,-5.547792837023735046e-02,5.194881558418273926e-02,-1.214232444763183594e-01,-8.213349431753158569e-02,7.441120594739913940e-02,9.638608992099761963e-02,1.206234246492385864e-01,4.751288518309593201e-02,-4.651338979601860046e-02,2.167049609124660492e-02,-7.930689305067062378e-02,-1.740467920899391174e-02,3.580305576324462891e-01,-8.743263781070709229e-03,4.100378975272178650e-02,-2.945753000676631927e-02,-4.484781995415687561e-02,-3.900300711393356323e-02,-4.551213979721069336e-02,1.766667515039443970e-02,-1.572856605052947998e-01,6.064008548855781555e-02,2.465991973876953125e-01,-2.750493586063385010e-01,-1.268810965120792389e-02,6.324379146099090576e-02,-5.437181890010833740e-02,-6.740410625934600830e-02,1.478646546602249146e-01,-1.137686371803283691e-01,1.469056494534015656e-02,1.044570505619049072e-01,1.250434964895248413e-01,-7.433125376701354980e-02,6.739948689937591553e-02,1.238148380070924759e-02,1.036709621548652649e-01,-1.228837892413139343e-01,5.658751819282770157e-03,1.345029920339584351e-01,-7.535453885793685913e-02,-6.258950382471084595e-02,1.127706021070480347e-01
-7.727366685867309570e-02,-2.442955374717712402e-01,-3.975798934698104858e-02,7.289417833089828491e-02,-1.318165808916091919e-01,-2.285233289003372192e-01,2.634775079786777496e-02,-2.015033923089504242e-02,-1.339079588651657104e-01,-5.187617614865303040e-02,-2.373472303152084351e-01,-2.528158575296401978e-02,8.051090687513351440e-02,3.846807405352592468e-02,-1.615634709596633911e-01,-6.120046228170394897e-02,-4.796477779746055603e-02,-3.525740653276443481e-02,5.226721614599227905e-02,-9.102747589349746704e-02,-5.501504242420196533e-02,-2.951098419725894928e-02,2.539842203259468079e-02,-5.156653746962547302e-02,1.244142465293407440e-02,-1.521535068750381470e-01,-4.777232930064201355e-02,-8.937165141105651855e-02,3.706961497664451599e-02,-1.132740452885627747e-02,7.336571346968412399e-03,5.077613145112991333e-02,5.782073736190795898e-02,-2.884847819805145264e-01,4.274531826376914978e-02,-1.375653445720672607e-01,3.252670541405677795e-02,1.683291047811508179e-01,4.771313816308975220e-02,-3.039341270923614502e-01,-3.863743841648101807e-01,3.027237020432949066e-02,-1.669166535139083862e-01,-9.054396301507949829e-02,-2.569735748693346977e-03,-9.442725032567977905e-02,-5.065298173576593399e-03,-2.516775578260421753e-02,1.696930527687072754e-01,-6.880760192871093750e-02,-1.056338623166084290e-01,-3.785970434546470642e-02,1.036086976528167725e-01,-1.419198960065841675e-01,-1.810801401734352112e-02,-2.202101945877075195e-01,-3.612940199673175812e-04,-7.707247883081436157e-02,9.207178652286529541e-02,1.867404021322727203e-02,7.290347665548324585e-02,-2.317046932876110077e-02,-1.431399434804916382e-01,-1.800045371055603027e-02,-1.725382953882217407e-01,1.735487282276153564e-01,5.915267020463943481e-02,3.800598159432411194e-02,-6.689275056123733521e-02,1.232196539640426636e-01,-1.140853017568588257e-01,7.979194633662700653e-03,-5.465691909193992615e-02,-5.908686295151710510e-02,-6.163852289319038391e-03,2.486995235085487366e-02,1.786692999303340912e-02,-9.322248399257659912e-02,-1.433610469102859497e-01,-5.275624990463256836e-01,4.923437163233757019e-02,2.618675678968429565e-02,-3.415674567222595215e-01,-2.701244689524173737e-02,-1.870672553777694702e-01,-1.640967279672622681e-01,5.190395191311836243e-02,-5.764308944344520569e-02,1.528613269329071045e-01,2.124180048704147339e-01,1.589356362819671631e-01,-3.404627740383148193e-02,1.818705946207046509e-01,6.259444355964660645e-02,9.101576358079910278e-02,-8.143499493598937988e-02,1.967364400625228882e-01,1.074787825345993042e-01,7.114065811038017273e-03,5.463874340057373047e-02,1.371026039123535156e-01,9.882616251707077026e-02,8.197659254074096680e-02,-4.497061483561992645e-03,1.239115297794342041e-01,2.075393311679363251e-02,9.463975438848137856e-04,-2.384395003318786621e-01,9.760645031929016113e-02,8.085439354181289673e-02,1.197075173258781433e-01,1.040371600538492203e-02,1.159932985901832581e-01,6.055443547666072845e-03,5.965445935726165771e-02,-1.690842211246490479e-01,4.102476537227630615e-01,1.361900568008422852e-01,4.547773301601409912e-02,-2.295618876814842224e-02,3.386294702067971230e-03,-1.594701707363128662e-01,-1.233808174729347229e-01,-1.091009378433227539e-02,-2.089580148458480835e-02,-9.248116612434387207e-01,-1.751124113798141479e-02,-5.084927659481763840e-03,2.221892215311527252e-02,-5.710713565349578857e-02,-2.847779542207717896e-02,-1.475401222705841064e-03,3.300284221768379211e-02,1.835374534130096436e-02,-6.552526727318763733e-03,-1.720498502254486084e-01,5.339776352047920227e-02,7.513426244258880615e-02,-1.284543275833129883e-01,8.092274516820907593e-02,-2.420322597026824951e-02,2.810485847294330597e-02,1.920943334698677063e-02,-9.551473893225193024e-03,-4.280522465705871582e-02,-1.164978891611099243e-01,4.143638610839843750e-01,4.818385466933250427e-02,-8.500580489635467529e-02,-2.337132692337036133e-01,-9.595943242311477661e-02,1.194062307476997375e-01,-2.215179800987243652e-01,-6.594599038362503052e-02,5.438624322414398193e-02,-5.690000951290130615e-02,1.023018360137939453e-01,1.303816288709640503e-01,3.015836142003536224e-02,-6.816966831684112549e-02,-4.630019515752792358e-02,2.578316628932952881e-02,-2.485973089933395386e-01,1.075586304068565369e-01,7.212264090776443481e-02,-1.256338972598314285e-02,-2.425973303616046906e-02,1.445093601942062378e-01,-3.933255970478057861e-01,1.001221090555191040e-01,1.842137984931468964e-02,-1.726996153593063354e-01,9.156392514705657959e-02,-2.767269127070903778e-02,4.400530457496643066e-02,7.881995290517807007e-02,1.395812034606933594e-01,-1.267650909721851349e-02,-1.644858159124851227e-02,-1.785748079419136047e-02,-6.639824714511632919e-04,1.766396164894104004e-01,7.411386072635650635e-02,-1.900884062051773071e-01,3.123900890350341797e-01,5.345276370644569397e-02,-8.155850693583488464e-03,2.707853727042675018e-02,-5.314269661903381348e-01,-2.043358981609344482e-02,1.021139919757843018e-01,-1.982822567224502563e-01,3.184303268790245056e-02,-1.232290267944335938e-01,4.413736462593078613e-01,1.619793474674224854e-01,-1.241458207368850708e-01,-2.105392217636108398e-01,-2.737775817513465881e-02,2.462499309331178665e-03,1.587223708629608154e-01,8.474600501358509064e-03,-7.746771723031997681e-02,-8.166374638676643372e-03,-2.416621893644332886e-02,1.317064650356769562e-02,-8.061958104372024536e-02,-1.403148472309112549e-01,5.782227218151092529e-02,-2.036551535129547119e-01,3.526918590068817139e-02,5.084920525550842285e-01,4.440827667713165283e-02,2.537457039579749107e-03,-1.315268129110336304e-01,3.538210317492485046e-02,1.074490696191787720e-01,5.262181907892227173e-02,-5.547089874744415283e-02,-6.395626813173294067e-02,-1.121973022818565369e-01,-1.478437036275863647e-01,-4.379194080829620361e-01,7.097216695547103882e-02,4.856099560856819153e-02,-1.822184175252914429e-01,5.631872639060020447e-02,-1.213483326137065887e-02,3.748700022697448730e-02,8.872683346271514893e-02,-6.188536435365676880e-02,-3.214230239391326904e-01,-1.288110613822937012e-01,2.637466788291931152e-02,-2.415070831775665283e-01,7.157811522483825684e-02,-1.574568748474121094e-01,-2.015809416770935059e-01,-1.708651781082153320e-01,1.986791193485260010e-01,5.548782646656036377e-02,1.437236815690994263e-01,1.260775923728942871e-01,7.559213787317276001e-02,8.260505856014788151e-04,-1.109320446848869324e-01,-4.536287859082221985e-02,-1.402697414159774780e-01,-1.328117866069078445e-02,1.056866869330406189e-01,-1.557016512379050255e-03,1.197083329316228628e-04,-8.956539630889892578e-02,1.022077351808547974e-01,-3.980734571814537048e-02,9.794013947248458862e-02,-3.482976928353309631e-02,-1.444382220506668091e-01,3.504705429077148438e-02,-7.094201445579528809e-02,7.880571484565734863e-02,1.357810944318771362e-01,-2.909922301769256592e-01,-3.264625370502471924e-02,5.956183001399040222e-02,-7.500644028186798096e-02,4.673613701015710831e-03,-9.118958562612533569e-02,1.944147632457315922e-03,2.914236113429069519e-02,-6.807649880647659302e-02,-4.958166182041168213e-02,5.731293559074401855e-02,-2.658178210258483887e-01,2.613803558051586151e-02,1.900207400321960449e-01,1.169184148311614990e-01,8.779300004243850708e-02,-4.521648399531841278e-03,6.855425308458507061e-04,8.479788899421691895e-02,6.259129196405410767e-02,-1.140049993991851807e-01,-1.194609422236680984e-02,7.322074472904205322e-02,7.874836027622222900e-02,4.023320227861404419e-02,-5.702092498540878296e-02,-2.004273794591426849e-02,7.352381944656372070e-02,-2.858369797468185425e-02,3.539670258760452271e-02,-1.580266952514648438e-01,3.598528355360031128e-02,5.779196321964263916e-02,-6.423663347959518433e-02,6.119662430137395859e-03,3.120696917176246643e-02,-4.443056881427764893e-02,2.991122007369995117e-02,-4.878224432468414307e-02,6.095252558588981628e-02,-1.932626776397228241e-02,-1.170647144317626953e-02,1.022254750132560730e-01,2.126438543200492859e-02,-6.987757235765457153e-02,-5.556708667427301407e-03,5.128850694745779037e-03,4.032085090875625610e-02,-8.757546544075012207e-02,-4.201696515083312988e-01,-3.554085791110992432e-01,-5.509485602378845215e-01,1.124453917145729065e-01,2.699976973235607147e-02,8.178350925445556641e-01,-5.563887581229209900e-02,4.700464755296707153e-02,7.158924825489521027e-03,-7.884040474891662598e-02,5.536114796996116638e-02,-5.228047445416450500e-02,7.719739526510238647e-02,-4.274161159992218018e-01,-1.305521279573440552e-01,4.954438284039497375e-02,9.562218934297561646e-02,-2.121006697416305542e-01,-4.277117177844047546e-02,1.533532282337546349e-03,2.257772535085678101e-01,4.249786213040351868e-02,-5.974480882287025452e-02,-1.852175593376159668e-01,1.453879475593566895e-02,1.095712855458259583e-01,-3.471905738115310669e-02,-7.452432997524738312e-03,-8.420573174953460693e-02,-3.389948979020118713e-02,4.996076971292495728e-02,-2.355919918045401573e-03,1.264603883028030396e-01,3.054460883140563965e-01,-1.133170723915100098e-01,2.093662917613983154e-01,-1.760397106409072876e-01,1.036825627088546753e-01,1.466339975595474243e-01,1.040124967694282532e-01,-1.721996697597205639e-03,-1.299017854034900665e-02,-3.238875791430473328e-02,2.989198081195354462e-02,7.620440423488616943e-02,1.157684065401554108e-02,4.979976266622543335e-02,3.383734449744224548e-02,5.672571249306201935e-03,-1.046539619565010071e-01,1.004743278026580811e-01,-2.339088544249534607e-02,-8.954402804374694824e-02,1.296424865722656250e-01,-1.630498170852661133e-01,-2.720324993133544922e-01,1.854138225317001343e-01,1.245622634887695312e-01,1.673312634229660034e-01,4.996559023857116699e-02,2.487585879862308502e-02,-2.628704309463500977e-01,3.070701099932193756e-02,1.926682330667972565e-02,1.362493843771517277e-03,2.953470870852470398e-02,-9.300306439399719238e-02,-9.383488446474075317e-03,-3.741351887583732605e-02,-5.639426782727241516e-02,2.286434173583984375e-03,2.899385057389736176e-02,-1.625571772456169128e-02,-1.444522663950920105e-02,-8.330244570970535278e-02,-1.514697521924972534e-01,-2.815328910946846008e-02,-2.792053222656250000e-01,5.322371143847703934e-03,4.605605080723762512e-02,1.894907653331756592e-01,9.752138704061508179e-02,4.233940690755844116e-02,2.096545547246932983e-01,2.711882069706916809e-02,-1.729291975498199463e-01,8.908907324075698853e-02,4.130843654274940491e-02,-1.197991296648979187e-01
