-1.317188050597906113e-02,-3.707007504999637604e-03,1.038307789713144302e-02,1.867596246302127838e-02,-1.725577004253864288e-02,-2.025581523776054382e-02,-1.939428225159645081e-02,3.998515382409095764e-02,2.382415719330310822e-02,-1.533747185021638870e-02,8.662238717079162598e-03,-1.659139990806579590e-02,-1.953390799462795258e-02,-5.146429874002933502e-03,2.484434470534324646e-02,-7.101799827069044113e-03,3.057099319994449615e-02,-2.497821301221847534e-02,-5.181661807000637054e-03,-2.147593349218368530e-02,3.119084052741527557e-02,5.500459577888250351e-03,-3.648874536156654358e-02,3.733295947313308716e-02,-3.681830316781997681e-02,2.334980294108390808e-02,-3.616794943809509277e-02,1.824076659977436066e-02,4.360117390751838684e-02,2.449050173163414001e-02,1.833089813590049744e-02,-4.557368904352188110e-02,-2.026543952524662018e-02,-2.988744154572486877e-02,9.209543466567993164e-03,-2.387114055454730988e-02,4.761349409818649292e-02,2.931874711066484451e-03,-3.229878097772598267e-02,8.715814910829067230e-03,3.888133913278579712e-03,3.427466377615928650e-02,4.524750635027885437e-02,-1.628401130437850952e-02,1.319855265319347382e-02,2.542392723262310028e-02,2.940403297543525696e-02,1.065206946805119514e-03,3.437320142984390259e-02,2.114068903028964996e-02,3.664534911513328552e-02,2.956554666161537170e-02,-2.601158246397972107e-02,3.636269643902778625e-02,1.571590267121791840e-02,-4.648574627935886383e-03,-6.111854221671819687e-03,-2.916429378092288971e-02,5.897096358239650726e-03,-6.135216914117336273e-03,-3.487094491720199585e-02,-9.496352635324001312e-03,-1.887178048491477966e-02,-2.200407907366752625e-02,-7.357553113251924515e-03,-2.198941446840763092e-02,3.536171093583106995e-02,-1.414493843913078308e-02,3.594779223203659058e-02,1.726032351143658161e-03,2.922268025577068329e-02,3.117220848798751831e-02,1.720419712364673615e-02,2.122071757912635803e-02,-1.085986662656068802e-02,-1.540014520287513733e-02,2.643346413969993591e-02,-1.154243014752864838e-02,-2.486155182123184204e-02,3.104926273226737976e-02,8.616377599537372589e-03,1.146897673606872559e-02,-3.094898536801338196e-02,-8.074502460658550262e-03,-1.026090048253536224e-02,-4.924111999571323395e-03,2.102354541420936584e-02,-3.301772847771644592e-02,-1.309047639369964600e-02,-3.159281983971595764e-02,-3.115088678896427155e-02,3.207018971443176270e-02,1.963321864604949951e-02,-3.325217962265014648e-02,-3.565508173778653145e-03,-8.096518926322460175e-03,3.846538811922073364e-02,4.352642688900232315e-03,-3.790971823036670685e-03,-7.950362749397754669e-03,-1.001153048127889633e-02,-1.884022727608680725e-02,5.504779517650604248e-03,-1.833037286996841431e-02,6.350131588988006115e-04,1.465532928705215454e-02,9.332989342510700226e-03,6.257421802729368210e-03,-4.181367531418800354e-02,2.810220979154109955e-02,1.615137048065662384e-02,4.692166112363338470e-03,-3.377902903594076633e-04,-3.066294640302658081e-02,-3.346963971853256226e-02,-3.683856874704360962e-02,2.054413408041000366e-02,2.171455696225166321e-02,1.209555473178625107e-02,-8.379010483622550964e-03,-1.088326424360275269e-02,-2.772711589932441711e-02,3.097205981612205505e-02,-9.511352516710758209e-03,5.974045395851135254e-02,4.481989890336990356e-02,-1.152995601296424866e-02,4.248231276869773865e-02,5.919908173382282257e-03,-2.377332933247089386e-02,-6.589128170162439346e-03,-5.221793428063392639e-03,7.555779535323381424e-03,2.966798096895217896e-02,4.344637691974639893e-02,-1.859673485159873962e-02,-2.525014802813529968e-02,3.336151689291000366e-02,4.490021988749504089e-02,-2.174103632569313049e-02,-4.474464058876037598e-02,3.967322409152984619e-02,-2.203487604856491089e-02,9.811882860958576202e-03,-1.962474174797534943e-02,7.791284006088972092e-03,3.482433035969734192e-02,5.813297815620899200e-03,-1.327788922935724258e-02,1.869452744722366333e-02,-2.069081552326679230e-02,-1.557128154672682285e-03,-1.344907190650701523e-02,2.699870616197586060e-02,2.263377793133258820e-02,-5.184417963027954102e-02,2.662382274866104126e-02,-2.185994759202003479e-02,-3.953824751079082489e-03,5.486350040882825851e-03,-3.147629648447036743e-02,3.500052914023399353e-02,1.614195667207241058e-02,9.836881421506404877e-03,2.982109086588025093e-03,-1.446785288862884045e-03,-2.192049473524093628e-02,-1.770844683051109314e-02,-2.636083215475082397e-02,-3.793685883283615112e-02,-1.941085094586014748e-03,3.652887418866157532e-02,-6.838858593255281448e-03,-4.076958820223808289e-02,1.278989017009735107e-02,-2.581575885415077209e-02,-2.224720641970634460e-02,4.148961976170539856e-02,-1.814950257539749146e-02,2.510304190218448639e-02,4.630983748938888311e-04,-1.739119365811347961e-02,3.407798334956169128e-02,1.550765056163072586e-02,4.034477472305297852e-02,-4.496057704091072083e-02,6.728749722242355347e-03,1.850426569581031799e-02,2.238519489765167236e-02,4.623588174581527710e-03,-2.730150707066059113e-02,5.390022695064544678e-02,-2.538635767996311188e-02,2.182877808809280396e-02,1.831478998064994812e-02,3.201239183545112610e-02,-2.725288830697536469e-02,1.769233867526054382e-02,1.416588667780160904e-02,-3.375953063368797302e-02,-3.073360770940780640e-02,-2.714648470282554626e-02,2.065962925553321838e-02,-3.684149309992790222e-02,2.661957032978534698e-02,1.092525850981473923e-02,3.657970204949378967e-02,-2.759540081024169922e-02,1.402905909344553947e-03,-2.659601345658302307e-02,-2.149283140897750854e-02,1.304092444479465485e-02,-1.284334063529968262e-02,-5.954009480774402618e-03,3.927944600582122803e-02,2.247196249663829803e-02,-1.071798056364059448e-02,2.937172912061214447e-02,3.978343680500984192e-02,4.076731950044631958e-02,-3.424161672592163086e-02,7.243807613849639893e-02,-3.110350295901298523e-02,4.075143020600080490e-03,1.277269329875707626e-02,-2.760286629199981689e-02,-2.802299894392490387e-02,3.957594186067581177e-02,-6.937032099813222885e-03,1.348814181983470917e-02,3.977214545011520386e-02,4.550457745790481567e-02,3.994061425328254700e-02,-4.056155681610107422e-03,-4.670400917530059814e-02,2.540148235857486725e-02,4.004123061895370483e-02,-3.120375610888004303e-02,7.329626823775470257e-04,2.485748194158077240e-02,2.244952321052551270e-02,3.465209156274795532e-02,-2.367337234318256378e-02,2.828393690288066864e-02,4.598329309374094009e-03,1.970777101814746857e-02,2.088985219597816467e-02,2.124463580548763275e-02,-2.200842462480068207e-02,8.794042281806468964e-03,3.462901338934898376e-02,6.530162878334522247e-03,-2.725756168365478516e-02,-4.021865129470825195e-02,3.481562063097953796e-02,1.258248277008533478e-02,-3.629419952630996704e-02,4.163111373782157898e-02,1.947106607258319855e-02,7.082791998982429504e-03,3.334253653883934021e-02,4.162736609578132629e-02,-3.004570677876472473e-02,3.036729246377944946e-02,4.583357367664575577e-03,4.322788491845130920e-02,3.612817451357841492e-02,-1.190323289483785629e-02,1.865975931286811829e-02,-2.910642884671688080e-02,-1.609374769032001495e-02,-2.382659295108169317e-04,7.118965964764356613e-03,5.355388391762971878e-03,2.049360983073711395e-02,3.160068532451987267e-03,1.312732603400945663e-02,-4.366526380181312561e-03,4.616990312933921814e-02,-7.029345724731683731e-03,-2.453227341175079346e-02,-8.574925363063812256e-03,-1.813191547989845276e-02,3.521868214011192322e-02,1.059689465910196304e-02,1.687927171587944031e-02,-2.041147463023662567e-02,3.752304613590240479e-02,2.752700820565223694e-02,-2.357951179146766663e-02,-2.416855283081531525e-02,1.754529960453510284e-02,-1.991242915391921997e-02,-3.785600420087575912e-03,1.413952838629484177e-02,-3.114450722932815552e-02,2.496735006570816040e-02,-4.034970700740814209e-02,-2.415698394179344177e-02,-6.455626804381608963e-03,-7.197938975878059864e-04,-8.025470189750194550e-03,1.863678731024265289e-02,-3.935714811086654663e-02,-1.781666651368141174e-02,4.773810971528291702e-03,1.468672696501016617e-02,-1.691983453929424286e-02,9.305064566433429718e-03,1.454486697912216187e-02,3.884469345211982727e-02,3.823289275169372559e-02,1.368937268853187561e-02,2.471895515918731689e-02,-3.505095466971397400e-02,1.283029559999704361e-02,-2.395597286522388458e-02,-2.264831587672233582e-02,5.003997310996055603e-02,-2.884278446435928345e-02,-3.476284444332122803e-02,-3.456286340951919556e-02,1.932300068438053131e-02,-2.728195860981941223e-02,-1.250693574547767639e-02,8.305260911583900452e-03,1.442368701100349426e-02,3.760376572608947754e-02,2.901848405599594116e-02,1.915639266371726990e-02,-1.093205250799655914e-02,4.069124814122915268e-03,-7.771938107907772064e-03,-1.505938079208135605e-02,-3.541204333305358887e-02,-3.066372498869895935e-02,3.664041683077812195e-02,3.461231291294097900e-02,-3.476833552122116089e-02,-3.252920508384704590e-02,2.807683125138282776e-02,-3.555024042725563049e-02,-1.288631092756986618e-02,3.253449127078056335e-02,6.708255503326654434e-03,4.544266685843467712e-02,3.559970855712890625e-02,-1.511142682284116745e-02,-3.070455417037010193e-02,-2.254898287355899811e-02,-3.586187725886702538e-03,-6.229111924767494202e-03,-1.832122169435024261e-02,-3.293495997786521912e-02,1.172342896461486816e-02,-3.201275691390037537e-02,3.509926423430442810e-02,-2.102087624371051788e-02,-1.046904269605875015e-02,4.483851604163646698e-03,-2.803850919008255005e-02,1.153528131544589996e-02,-2.905529737472534180e-02,3.813765943050384521e-02,-4.095859453082084656e-02,7.988850586116313934e-03,1.664690300822257996e-02,-2.726761624217033386e-02,-1.317320577800273895e-02,-1.154638919979333878e-02,-1.651945151388645172e-02,1.264229323714971542e-02,3.501394018530845642e-02,-3.553397953510284424e-02,3.380306065082550049e-02,-2.454350888729095459e-02,3.775006905198097229e-02,-2.857712469995021820e-02,3.408235963433980942e-03,2.657007193192839622e-03,2.771491184830665588e-02,-8.517248556017875671e-03,3.657653927803039551e-02,-3.064279630780220032e-02,2.991563081741333008e-02,2.257512882351875305e-02,-2.803977020084857941e-02,-1.711241900920867920e-02,-2.299466170370578766e-02,1.627727784216403961e-02,9.964209748432040215e-04,-1.141439937055110931e-02,2.429999224841594696e-02,3.868447244167327881e-02,4.210334271192550659e-02,2.369773201644420624e-02,6.948115304112434387e-03,2.335052937269210815e-02,-1.074952073395252228e-02,3.600612655282020569e-02
