-1.042608637362718582e-02,-2.808395773172378540e-02,-3.964631259441375732e-02,-1.192304268479347229e-01,8.963350206613540649e-02,1.903300359845161438e-02,2.264523878693580627e-03,1.210414767265319824e-01,7.070595026016235352e-02,4.728325456380844116e-02,1.149368137121200562e-01,-2.248633466660976410e-02,5.124164372682571411e-02,1.174390967935323715e-02,-4.289953410625457764e-02,2.415170893073081970e-02,4.944701492786407471e-02,6.471920758485794067e-02,8.477536588907241821e-02,-1.540538519620895386e-01,2.841796167194843292e-02,-6.614769995212554932e-02,5.482456833124160767e-02,5.894690752029418945e-02,5.089541524648666382e-02,9.996796399354934692e-02,-5.209334939718246460e-02,-5.203822255134582520e-02,-7.263933122158050537e-02,-1.931306347250938416e-02,-3.568989038467407227e-02,-1.363267749547958374e-02,-1.824101060628890991e-02,-9.803319722414016724e-02,-6.034849956631660461e-02,-4.015563055872917175e-02,8.550367504358291626e-02,6.580540537834167480e-02,-1.075290068984031677e-01,-4.825044423341751099e-02,-1.151865124702453613e-01,-1.584982499480247498e-02,1.495908480137586594e-02,-5.549638718366622925e-02,4.918215051293373108e-02,4.003285616636276245e-02,-3.017943724989891052e-02,1.681313216686248779e-01,8.198119699954986572e-02,-4.314943775534629822e-02,1.737831905484199524e-02,3.506349399685859680e-02,8.971144258975982666e-02,1.131184026598930359e-01,-8.347125723958015442e-03,5.609191954135894775e-02
