-3.279175609350204468e-02,-5.655587464570999146e-02,-3.880712389945983887e-02,-7.797794416546821594e-03,5.032144486904144287e-02,-1.033178195357322693e-01,4.300151485949754715e-03,3.628218546509742737e-02,-1.619015354663133621e-03,2.561026066541671753e-02,-8.375807106494903564e-02,1.460245903581380844e-02,4.130918998271226883e-03,1.677060127258300781e-02,-4.751775413751602173e-02,2.081600762903690338e-02,9.743186831474304199e-02,3.020239435136318207e-02,-1.257338561117649078e-02,-7.344167679548263550e-03,3.291847556829452515e-02,5.462044104933738708e-02,-3.262015804648399353e-02,9.544326923787593842e-03,1.060336455702781677e-02,2.099960111081600189e-02,2.755523659288883209e-02,6.757834553718566895e-02,6.922274082899093628e-02,-4.647447541356086731e-02,4.676267877221107483e-02,2.944761514663696289e-02,7.251897454261779785e-02,-5.477954447269439697e-02,3.437951207160949707e-02,-3.178691491484642029e-02,6.580446660518646240e-02,-2.869858872145414352e-03,1.670465432107448578e-02,1.869692205218598247e-04,1.871468313038349152e-02,-5.026655271649360657e-03,3.419077396392822266e-02,-2.590417675673961639e-02,-3.152716532349586487e-02,-2.423143759369850159e-02,1.618626862764358521e-01,-7.606657594442367554e-02,-2.584422752261161804e-02,-5.628774873912334442e-03,-3.281411156058311462e-02,4.276006668806076050e-02,1.087997406721115112e-01,-5.653358250856399536e-02,5.132699012756347656e-02,3.113932721316814423e-02,2.979156933724880219e-02,6.770600378513336182e-02,-3.283883258700370789e-02,2.330623753368854523e-02,-5.452830810099840164e-03,-7.134998589754104614e-02,3.162916377186775208e-02,1.801486127078533173e-02,5.162736866623163223e-03,-3.062139078974723816e-02,3.983476385474205017e-02,-2.402976900339126587e-02,-8.818743377923965454e-02,1.402266789227724075e-02,2.439586818218231201e-02,-1.195961516350507736e-02,-6.322397384792566299e-03,1.280610077083110809e-02,-4.306287318468093872e-02,1.005718205124139786e-02,3.733076900243759155e-02,-2.877723053097724915e-02,-5.790389701724052429e-02,-2.012031711637973785e-02,3.864839673042297363e-02,1.021595299243927002e-02,-6.802978366613388062e-02,-5.685282126069068909e-02,1.101696863770484924e-02,-1.125061977654695511e-02,4.356094822287559509e-02,-8.202829957008361816e-02,5.180487642064690590e-04,-4.896674677729606628e-02,4.783040285110473633e-02,-5.751135945320129395e-02,1.008299291133880615e-01,2.810090966522693634e-02,1.492380201816558838e-01,-7.829937152564525604e-03,-5.705846101045608521e-02,-6.592591851949691772e-02,-2.329332195222377777e-02,1.747831515967845917e-02
