2.343145571649074554e-02,-3.221992030739784241e-02,-1.758253388106822968e-02,7.447726279497146606e-02,2.627327851951122284e-02,5.168870836496353149e-02,4.818446934223175049e-02,6.351497024297714233e-02,7.717915810644626617e-03,3.578285872936248779e-02,9.707977995276451111e-03,2.151499688625335693e-02,-5.602319538593292236e-02,4.452839121222496033e-02,-7.059292495250701904e-02,6.318949908018112183e-02,1.544338744133710861e-02,-8.846221491694450378e-03,1.072145532816648483e-02,6.415343843400478363e-03,8.516895025968551636e-02,5.060708895325660706e-02,-6.713953334838151932e-03,7.592088729143142700e-02,-5.014564096927642822e-02,-7.125230878591537476e-02,2.330690855160355568e-03,-8.807612210512161255e-02,4.427598416805267334e-02,-8.068018592894077301e-03,5.268265679478645325e-02,-5.460457876324653625e-03,3.331160172820091248e-02,6.536433473229408264e-03,-7.447319477796554565e-02,-4.275742173194885254e-02,8.215100318193435669e-02,1.859420351684093475e-02,4.314482957124710083e-02,3.427973017096519470e-02,7.762929797172546387e-02,7.121331989765167236e-02,-4.110811650753021240e-02,8.616572618484497070e-02,2.445525862276554108e-02,4.855922237038612366e-02,2.706496417522430420e-02,4.180055856704711914e-02,3.424212709069252014e-02,-2.854692004621028900e-02,7.457637693732976913e-04,6.262674927711486816e-02,-6.427887082099914551e-02,-2.858701720833778381e-02,-4.669195041060447693e-02,-4.199741408228874207e-02,-1.261936500668525696e-03,7.586277276277542114e-02,7.031221687793731689e-02,7.085677981376647949e-02,7.006538659334182739e-02,-4.475311376154422760e-03,1.302139181643724442e-02,-7.265569269657135010e-02,-6.731298565864562988e-02,9.577929228544235229e-02,-1.831352710723876953e-02,4.953168705105781555e-02,-6.400503963232040405e-02,1.034030690789222717e-02,1.653284271014854312e-04,-2.929402515292167664e-02,7.852008193731307983e-02,9.886679053306579590e-02,5.496093630790710449e-02,-1.775943674147129059e-02,-2.039431966841220856e-02,-4.714059084653854370e-02,-2.899115718901157379e-02,-9.964473545551300049e-03,2.893998101353645325e-02,3.063851222395896912e-02,-8.637003600597381592e-03,3.256043419241905212e-02,7.138520479202270508e-02,-5.158780142664909363e-02,5.755443125963211060e-03,9.304364770650863647e-02,2.425555139780044556e-02,8.737476915121078491e-02,-2.532743476331233978e-02,3.061865863855928183e-04,3.490949794650077820e-02,-3.637026622891426086e-02,6.276478618383407593e-02,-4.294217750430107117e-02,-3.019731119275093079e-02,-4.150484746787697077e-04,9.174152463674545288e-02,7.915047556161880493e-02,7.741031795740127563e-02,-5.115696415305137634e-02,2.185714803636074066e-02,-5.606053397059440613e-02,-2.318177372217178345e-02,4.534180834889411926e-02,3.585116937756538391e-02,6.295316666364669800e-02,3.170900791883468628e-02,-2.265735343098640442e-02,9.091076254844665527e-02,-3.947769850492477417e-02,-2.618128992617130280e-02,-6.668189167976379395e-02,9.020927548408508301e-02,-1.706126891076564789e-02,-6.156984344124794006e-02,-2.646557614207267761e-02,6.012444943189620972e-02,-1.834457553923130035e-02,-2.447564899921417236e-02,5.028832331299781799e-02,6.415466964244842529e-02,4.318733513355255127e-02,-2.923377417027950287e-02,4.987251013517379761e-02,9.573980234563350677e-03,2.658057957887649536e-02,-1.140484679490327835e-02,-5.233262199908494949e-03,-7.749178260564804077e-02,3.963013365864753723e-02,-6.371118128299713135e-02,-2.691197954118251801e-02,1.263283658772706985e-02,5.504256486892700195e-02,-2.070746943354606628e-02,-7.233196496963500977e-02,7.524396479129791260e-02,-2.286487817764282227e-02,8.841617405414581299e-02,-2.591112442314624786e-02,7.408033311367034912e-02,-1.202967204153537750e-02,4.730201140046119690e-02,-2.611419185996055603e-02,-2.880476601421833038e-02,2.123434655368328094e-02,-3.759184479713439941e-02,5.622713267803192139e-02,-8.863982558250427246e-02,1.034696213901042938e-02,5.670777335762977600e-02,6.406939774751663208e-02,-7.310468703508377075e-02,-3.306627646088600159e-02,-5.629911646246910095e-02,-5.544605478644371033e-02,-2.162953605875372887e-03,-3.222569450736045837e-02,-6.658012419939041138e-02,-4.950636997818946838e-02,5.858006700873374939e-02,-1.513945963233709335e-02,-3.066522069275379181e-02,8.877291530370712280e-02,-3.714220970869064331e-02,3.357669338583946228e-02,6.316351145505905151e-02,-4.486462846398353577e-02,6.569132208824157715e-02,4.680066928267478943e-02,5.531435459852218628e-02,7.211378961801528931e-02,-1.870496571063995361e-02,7.799462229013442993e-02,2.535457164049148560e-02,-4.860341548919677734e-02,-8.000801503658294678e-02,-4.346918687224388123e-02,7.710532099008560181e-02,1.365741156041622162e-02,-2.620935998857021332e-02,-1.642586104571819305e-02,1.067307963967323303e-01,4.261313006281852722e-02,6.275830324739217758e-03,2.235158346593379974e-02,7.931365072727203369e-02,1.312215626239776611e-02,-1.139027345925569534e-02,6.033448502421379089e-02,-1.542372908443212509e-02,-1.323488075286149979e-02,8.499578386545181274e-02,8.930686116218566895e-02,-2.101629972457885742e-02,5.906465649604797363e-02,-1.364068873226642609e-02,7.332123350352048874e-04,-5.320803448557853699e-02,-8.892947807908058167e-03,7.208400964736938477e-02,-3.809561952948570251e-02,-5.566162243485450745e-02,-1.277326140552759171e-02,-4.728770628571510315e-02,-3.696637600660324097e-02,-3.272297605872154236e-02,-2.093273960053920746e-02,-5.835574492812156677e-02,-2.617294341325759888e-02,-4.366027715150266886e-04,-3.101877495646476746e-02,-4.317406192421913147e-02,1.035598367452621460e-01,9.167166799306869507e-02,7.037253677845001221e-02,-6.815988570451736450e-02,1.324766408652067184e-02,6.280633062124252319e-02,-4.080046713352203369e-02,8.089942485094070435e-02,-6.580223888158798218e-02,9.090729057788848877e-02,6.406611949205398560e-02,2.428309293463826180e-03,7.038751989603042603e-02,7.786096632480621338e-02,4.655114188790321350e-02,-2.078473940491676331e-02,-6.624646484851837158e-02,4.746913909912109375e-02,6.134946271777153015e-02,-7.075029611587524414e-02,-2.394598163664340973e-02,-5.434093996882438660e-02,2.054759301245212555e-03,2.583114057779312134e-02,8.000105619430541992e-02,-6.407303363084793091e-02,2.538569271564483643e-02,-6.498892605304718018e-02,-1.376042049378156662e-02,8.916710317134857178e-02,1.158008072525262833e-02,-1.219359040260314941e-02,7.462092489004135132e-02,8.124300837516784668e-02,-5.456504225730895996e-02,2.115586074069142342e-03,-7.207068149000406265e-03,2.489621378481388092e-02,5.131831765174865723e-02,1.340505480766296387e-02,2.280744351446628571e-02,-4.709088057279586792e-02,-5.118459463119506836e-02,-7.910884171724319458e-02,6.799117475748062134e-02,9.358116425573825836e-03,5.525356158614158630e-02,-1.778513751924037933e-02,2.527266927063465118e-02,5.798221752047538757e-02,5.884852726012468338e-03,6.851873546838760376e-02,5.574854090809822083e-03,4.273616895079612732e-02,4.247999936342239380e-02,6.685826927423477173e-02,-3.818107768893241882e-02,-1.574505120515823364e-02,5.858772248029708862e-02,2.642096951603889465e-02,-4.897360876202583313e-02,7.944751530885696411e-03,5.656087771058082581e-02,-4.863381758332252502e-02,-4.324448481202125549e-02,7.173462957143783569e-02,6.882233172655105591e-02,-7.700969465076923370e-03,-6.873903423547744751e-02,-4.558043181896209717e-02,-7.721182703971862793e-02,-7.704286836087703705e-03,-2.828359417617321014e-02,3.982772119343280792e-03,2.754539251327514648e-02,-4.366019368171691895e-02,-4.785860702395439148e-02,3.994792327284812927e-02,6.078028306365013123e-02,6.652204785495996475e-03,3.804662730544805527e-03,7.553188502788543701e-02,-9.916182607412338257e-03,-5.579144880175590515e-02,1.996934413909912109e-02,-1.820657029747962952e-02,-6.947445869445800781e-02,1.567648164927959442e-02,9.293453395366668701e-02,-7.737991958856582642e-02,4.618741199374198914e-02,-2.848012372851371765e-02,8.121600002050399780e-02,7.909689843654632568e-02,-3.650376945734024048e-02,-6.078417599201202393e-02,-6.788744777441024780e-02,-4.480594396591186523e-02,1.796641573309898376e-02,-5.603426694869995117e-02,-4.103121161460876465e-02,-3.782637789845466614e-02,-3.825134783983230591e-02,-3.505588695406913757e-02,-3.521312400698661804e-02,8.798760175704956055e-02,-2.962261810898780823e-02,1.632209308445453644e-02,7.621766626834869385e-02,-1.196261961013078690e-02,1.050889212638139725e-02,5.919519066810607910e-02,7.169685512781143188e-02,7.273027300834655762e-02,-1.239554770290851593e-02,-6.224352866411209106e-02,4.678830504417419434e-02,8.078072220087051392e-02,-1.746515184640884399e-02,-3.487950656563043594e-03,-6.183164566755294800e-02,3.904168307781219482e-02,-5.819035694003105164e-02,-6.698305159807205200e-02,2.946193143725395203e-02,2.626840397715568542e-02,-7.432207465171813965e-02,6.012883037328720093e-02,7.365619391202926636e-02,1.098020281642675400e-02,2.610686793923377991e-02,3.757502511143684387e-02,-2.367948926985263824e-02,-3.431279584765434265e-02,-4.726325348019599915e-02,-4.947033151984214783e-02,7.189272344112396240e-02,4.836290702223777771e-02,5.394546780735254288e-03,8.463272452354431152e-02,3.934243693947792053e-03,4.739851877093315125e-02,-6.578785926103591919e-02,3.246846422553062439e-02,-8.727739751338958740e-02,3.045625751838088036e-03,4.548131674528121948e-02,5.099203810095787048e-02,4.384873434901237488e-02,5.826368927955627441e-02,2.611818537116050720e-02,-4.898211732506752014e-02,-4.037303104996681213e-02,9.158176928758621216e-02,-7.875698059797286987e-02,6.997566670179367065e-02,5.847001448273658752e-02,-3.772141411900520325e-02,-5.796048790216445923e-02,1.085614971816539764e-02,-2.980284020304679871e-02,1.891353912651538849e-02,3.473071753978729248e-02,4.881226271390914917e-02,-7.259964197874069214e-02,-2.385493181645870209e-02,1.268607471138238907e-02,5.597352609038352966e-02,-3.888341411948204041e-02,-3.757803514599800110e-02,8.952252566814422607e-03,-2.213345281779766083e-02,4.590191692113876343e-02,2.734737657010555267e-02,4.205294884741306305e-03,6.603270303457975388e-03,1.356677990406751633e-02,1.476611569523811340e-02,7.302526384592056274e-02,7.645588368177413940e-02,6.425655912607908249e-03,-6.703465431928634644e-02,2.624000422656536102e-02,-4.147277399897575378e-02,-2.810915000736713409e-03,8.977664262056350708e-02,3.561659902334213257e-02,1.038374900817871094e-01,6.270343065261840820e-02,-3.477589416434057057e-05,-5.389562994241714478e-02,-9.956165216863155365e-03,7.808668166399002075e-02,5.233949795365333557e-02,3.448630124330520630e-02,3.504723310470581055e-02,-5.910200998187065125e-02,7.399743888527154922e-03,5.473799258470535278e-02,3.572344407439231873e-02,3.732383623719215393e-02,-2.519643306732177734e-02,-5.687080696225166321e-02,3.215888142585754395e-02,1.587197883054614067e-03,5.946442484855651855e-02,-1.119865104556083679e-02,-1.047299616038799286e-02,2.959200553596019745e-02,-3.242763131856918335e-02,5.343595519661903381e-03,-4.096099361777305603e-02,3.544354438781738281e-02,7.915010303258895874e-02,8.672289550304412842e-02,-6.282446533441543579e-02,5.831826478242874146e-02,-4.504633694887161255e-02,3.193846903741359711e-03,3.228386864066123962e-02,2.050991170108318329e-02,2.499164640903472900e-02,-6.445702165365219116e-02,-4.813034832477569580e-02,3.872779011726379395e-02,5.388192459940910339e-02,-2.307865023612976074e-02,7.523837685585021973e-02,-1.688405498862266541e-02,6.475571542978286743e-02,6.089135259389877319e-02,1.384348981082439423e-02,-8.042044937610626221e-03,4.434636980295181274e-02,-2.324022725224494934e-02,-4.400167986750602722e-02,-4.477348551154136658e-02,-1.775887608528137207e-02,8.309900760650634766e-02,8.035872876644134521e-02,-6.899826228618621826e-02,-2.066811546683311462e-03,-5.891140550374984741e-02,-9.099789895117282867e-04,-5.103665217757225037e-02,4.507707059383392334e-02,-7.319314777851104736e-02,6.914640963077545166e-02,-3.177741169929504395e-02,4.308165237307548523e-02,4.472859576344490051e-02,9.725470840930938721e-02,-3.315396606922149658e-02,-3.915988653898239136e-02,-9.206092916429042816e-03,5.727742239832878113e-02,4.461696743965148926e-02,6.590839475393295288e-02,2.337376214563846588e-02,-5.579556524753570557e-02,-6.312368786893785000e-04,5.052745714783668518e-02,6.628697365522384644e-02,5.367494374513626099e-02,3.425674140453338623e-02,6.962091475725173950e-02,6.746983528137207031e-02,8.442632853984832764e-02,3.118960186839103699e-02,1.048797965049743652e-01,8.044762909412384033e-02,1.717496849596500397e-02,-4.075965285301208496e-02,9.010887891054153442e-02,-5.111150071024894714e-02,7.853359729051589966e-02,4.547146335244178772e-02,1.094713588827289641e-04,-6.969221681356430054e-02,-1.394806429743766785e-02,8.343633264303207397e-02,-5.810072645545005798e-03,7.575935125350952148e-02,5.393085628747940063e-02,-3.433826938271522522e-02,-1.812508888542652130e-02,5.952890589833259583e-02,-1.444696076214313507e-02,7.295431196689605713e-02,-7.591960579156875610e-02,3.699479624629020691e-02,-3.746234625577926636e-02,7.873208075761795044e-02,-5.780272558331489563e-02,2.521998435258865356e-02,-5.812237039208412170e-02,3.664356470108032227e-02,-2.924694865942001343e-02,-7.542272657155990601e-02,1.596950739622116089e-02,6.318363547325134277e-02,-8.044540137052536011e-02,2.759096026420593262e-02,-2.741141989827156067e-02,5.191832035779953003e-02,-2.805116400122642517e-02,-3.813478723168373108e-02,-6.955538690090179443e-02,-1.616505347192287445e-02,-3.595590591430664062e-02,-3.930649161338806152e-02,2.460084296762943268e-02,7.823883742094039917e-02,6.853628903627395630e-02,-5.104572325944900513e-02,-2.159698866307735443e-02,4.082054272294044495e-02,5.470169708132743835e-02,4.526536166667938232e-02,-3.824519366025924683e-02,-3.802684694528579712e-02,-3.194821253418922424e-02,2.779084444046020508e-02,-4.598358646035194397e-02,6.802228838205337524e-02,-3.346019610762596130e-02,-1.317198481410741806e-02,-6.330556422472000122e-02,-3.059369046241044998e-03,-6.131142750382423401e-02,4.737778380513191223e-02,7.459453493356704712e-02,8.226260542869567871e-02,7.080461084842681885e-02,4.055636748671531677e-02,2.376315183937549591e-02,-3.587621077895164490e-02,-4.115871712565422058e-02,-3.904741257429122925e-02,-2.835020422935485840e-02,5.872945487499237061e-02,2.357282489538192749e-02,8.617617189884185791e-03,-6.702088564634323120e-02,8.479056507349014282e-02,7.566738873720169067e-02,-6.650201231241226196e-02,-3.094889409840106964e-02,7.333945482969284058e-02,5.036823078989982605e-02,9.974118322134017944e-02,-4.706396162509918213e-02,5.460546538233757019e-02,-4.917863756418228149e-02,2.925402671098709106e-02,-4.028852283954620361e-02,5.353755876421928406e-02,-4.317105934023857117e-02,-2.899449691176414490e-02,-4.587351158261299133e-02,-6.847353279590606689e-02,-5.529814213514328003e-02,-1.815931685268878937e-02,-7.250083237886428833e-02,-3.166772425174713135e-02,7.592970132827758789e-02,2.026010677218437195e-02,-5.935581866651773453e-03,-9.370936080813407898e-03,7.771820574998855591e-02,-3.990456089377403259e-02,5.575973913073539734e-02,4.760508611798286438e-02,6.684368103742599487e-02,1.015337835997343063e-02,-2.673092670738697052e-02,4.302394017577171326e-02,-3.149447590112686157e-02,3.645534068346023560e-02,-3.313237102702260017e-03,-2.439804002642631531e-02,5.908992141485214233e-02,5.318535491824150085e-02,5.995576269924640656e-03,1.285211089998483658e-02,2.046992443501949310e-02,3.892826661467552185e-02,-6.161499768495559692e-02,-3.603826835751533508e-02,4.167856648564338684e-02,-4.212256520986557007e-02,3.490987047553062439e-02,4.825118929147720337e-03,8.894570916891098022e-02,8.362032473087310791e-02,-7.964356243610382080e-02,-1.739504002034664154e-02,8.374526351690292358e-02,4.497922956943511963e-02,-2.213988191215321422e-04,-3.639622032642364502e-02,-4.813091829419136047e-02,4.831440374255180359e-02,7.376051973551511765e-03,1.577440463006496429e-02,-4.298622533679008484e-02,2.740046568214893341e-02,1.096689701080322266e-02,6.548890471458435059e-02,1.161115244030952454e-02,3.665975853800773621e-02,9.181099385023117065e-02,3.396231681108474731e-02,-5.583139136433601379e-02,-4.081739112734794617e-02,8.599068969488143921e-03,-7.998242042958736420e-03,7.463391125202178955e-02,7.511155307292938232e-02,7.477368414402008057e-02,-4.655558988451957703e-02,4.443040490150451660e-02,-6.815170496702194214e-02,-1.302535180002450943e-02,4.329655319452285767e-02,9.220927604474127293e-04,-4.008433595299720764e-02,5.077808350324630737e-02,-7.766909152269363403e-02,-3.822654113173484802e-02,1.782808080315589905e-02,6.028591096401214600e-02,7.242006063461303711e-02,-6.352709233760833740e-02,-4.631892219185829163e-02,1.478721201419830322e-02,6.792930513620376587e-02,-4.114982485771179199e-02,-6.680046021938323975e-02,9.461984783411026001e-02,2.336505241692066193e-02,-2.306615002453327179e-02,4.269736632704734802e-02,3.075763769447803497e-02,1.616009697318077087e-02,-1.103547308593988419e-02,4.359281435608863831e-02,-8.184636384248733521e-02,-6.210789084434509277e-02,1.283026207238435745e-02,2.198845148086547852e-02,2.000795444473624229e-03,3.092935075983405113e-03,-6.595224887132644653e-02,2.810402028262615204e-02,1.397240161895751953e-02,-5.046590045094490051e-02,2.439141506329178810e-03,3.063859231770038605e-02,-6.426700949668884277e-02,-2.989622391760349274e-02,1.924375444650650024e-02,3.753491863608360291e-02,2.992564067244529724e-02,-1.622234587557613850e-03,6.088816560804843903e-03,-2.238280838355422020e-03,-4.008635506033897400e-02,-6.460107117891311646e-02,7.932324707508087158e-02,-9.041599929332733154e-03,3.148524463176727295e-02,-1.206211093813180923e-02,-2.102032117545604706e-02,4.742917139083147049e-03,1.125198788940906525e-02,-7.101755589246749878e-02,3.743572393432259560e-03,2.869162149727344513e-02,5.839815363287925720e-02,-3.143168613314628601e-02,9.492029994726181030e-02,-4.234446212649345398e-02,7.542574405670166016e-02,9.406287223100662231e-03,2.816000021994113922e-02,-2.303656376898288727e-02,7.158902939409017563e-03,1.066077686846256256e-02,-1.795135997235774994e-02,5.795961245894432068e-02,3.964065015316009521e-02,4.389376565814018250e-02,-2.715143561363220215e-02,1.148078739643096924e-01,1.332198642194271088e-02,6.683627516031265259e-02,3.747381502762436867e-03,3.334791213274002075e-02,-1.468979194760322571e-02,6.903631985187530518e-02,2.224980294704437256e-02,5.890644341707229614e-02,2.881992422044277191e-02,4.866296797990798950e-02,-2.877747826278209686e-02,-1.428419444710016251e-02,3.844582289457321167e-02,7.877504825592041016e-02,6.727052479982376099e-02,3.508082777261734009e-02,3.844724223017692566e-02,-2.833238802850246429e-03,3.191812708973884583e-02,-6.918606162071228027e-02,-2.516165375709533691e-02,-6.483318656682968140e-02,-8.001280575990676880e-02,-4.194852337241172791e-02,7.915885001420974731e-02,-2.964438125491142273e-02,2.856023050844669342e-02,-1.323100272566080093e-02,8.268592506647109985e-02,-4.429145716130733490e-03,1.149411592632532120e-02,6.008347496390342712e-02,6.057180091738700867e-02,6.342743337154388428e-02,-3.109259903430938721e-02,3.379818052053451538e-02,5.482072010636329651e-02,-3.578620031476020813e-02,-6.778065860271453857e-02,4.438148811459541321e-03,2.622156590223312378e-02,7.317207008600234985e-02,-2.431338839232921600e-02,5.750842019915580750e-02,3.025766834616661072e-02,4.505879804491996765e-02,-2.635746076703071594e-02,-7.990374416112899780e-02,1.181643735617399216e-02,3.356807678937911987e-02,-3.462205454707145691e-02,4.460333660244941711e-02,-2.388700842857360840e-02,5.108554661273956299e-02,-5.519319698214530945e-02,-4.208429157733917236e-02,7.429262250661849976e-02,4.203216731548309326e-02,-9.803605265915393829e-03,9.162147529423236847e-03,-7.015026360750198364e-02,3.624243661761283875e-02,2.215941902250051498e-03,-6.860692054033279419e-02,-1.865942031145095825e-02,-5.811781808733940125e-02,-1.049421261996030807e-02,6.412619352340698242e-02,-5.855258926749229431e-02,4.422181472182273865e-02,-1.050968468189239502e-02,4.094396904110908508e-02,-7.181784603744745255e-03,-1.426678616553544998e-02,-9.428577614016830921e-04,-7.716427091509103775e-03,-1.842852681875228882e-02,5.052734538912773132e-02,3.878734260797500610e-02,-2.376850321888923645e-02,4.129290580749511719e-02,2.061672694981098175e-02,6.219103932380676270e-02,-2.139891497790813446e-02,8.441451936960220337e-02,-6.393050402402877808e-02,7.008095085620880127e-02,2.682117559015750885e-02,2.136086113750934601e-02,7.834457606077194214e-02
