-2.684142999351024628e-02,3.178286924958229065e-02,-9.197918698191642761e-04,-2.938564866781234741e-03,2.742819860577583313e-02,-8.356645703315734863e-03,2.536367624998092651e-02,3.389870747923851013e-02,2.889227867126464844e-02,2.172083407640457153e-02,1.205271668732166290e-02,2.605304308235645294e-02,2.160367928445339203e-02,1.992250420153141022e-02,-2.106008864939212799e-02,2.895318157970905304e-02,2.645828202366828918e-02,-3.238718258216977119e-03,-2.727360092103481293e-02,3.664123266935348511e-02,-1.327103003859519958e-02,-2.317520603537559509e-02,-2.699455432593822479e-02,1.859783008694648743e-02,1.498210243880748749e-02,-2.281845547258853912e-02,2.437118999660015106e-02,2.832341007888317108e-02,-1.372389495372772217e-02,-1.955397985875606537e-02,-2.934420248493552208e-03,8.073186501860618591e-03,-3.012157790362834930e-02,-1.916175708174705505e-02,3.738280385732650757e-02,-1.583030261099338531e-02,-3.805271815508604050e-03,9.540800005197525024e-03,-2.498925663530826569e-02,-5.455994512885808945e-03,3.093138895928859711e-02,-2.392476983368396759e-02,-1.452661491930484772e-02,-5.274773575365543365e-03,-3.113710135221481323e-02,3.534647822380065918e-02,2.344137988984584808e-02,-1.772286742925643921e-02,8.795145899057388306e-03,3.404235094785690308e-02,-2.431963337585330009e-03,-6.819441448897123337e-03,3.061781637370586395e-02,-2.738200686872005463e-02,2.750954404473304749e-02,-2.300869487226009369e-02,3.323606774210929871e-02,-7.874160073697566986e-03,-4.544038383755832911e-04,-1.611866056919097900e-02,1.426997315138578415e-02,-2.448257990181446075e-02,-2.978740632534027100e-02,1.567489351145923138e-03,1.337873470038175583e-02,3.610141575336456299e-02,4.482365027070045471e-02,1.797776436433196068e-03,-1.072896365076303482e-02,-2.091928757727146149e-02,-3.397737443447113037e-02,4.103263199795037508e-04,-1.600773655809462070e-03,2.153045125305652618e-02,2.852426469326019287e-02,-1.645814254879951477e-02,-1.941526308655738831e-02,3.640462830662727356e-02,4.715097602456808090e-03,-3.316657617688179016e-02,-2.816472016274929047e-02,3.986991941928863525e-03,1.869953237473964691e-02,-3.457313776016235352e-02,2.491435222327709198e-02,2.075980044901371002e-02,-2.347335033118724823e-02,3.587580053135752678e-03,1.385315321385860443e-02,3.083423152565956116e-02,-2.033620700240135193e-02,-7.046072278171777725e-04,3.142985701560974121e-02,-2.178076887503266335e-03,-5.650307051837444305e-03,-2.271687239408493042e-02,-2.419473044574260712e-02,-8.611857891082763672e-03,3.378989547491073608e-02,-9.522768668830394745e-03,-9.830353781580924988e-03,2.104490529745817184e-03,-3.319893404841423035e-02,2.555441483855247498e-02,3.436904773116111755e-02,3.507691994309425354e-02,-2.720171399414539337e-02,1.247279997915029526e-02,-1.573793776333332062e-02,6.132995709776878357e-03,-1.746066700434312224e-04,2.298923954367637634e-02,-2.253333106637001038e-02,2.271036431193351746e-02,8.377261459827423096e-03,-1.552610471844673157e-02,2.487917803227901459e-02,-1.192901656031608582e-02,-2.520348317921161652e-02,-2.807233296334743500e-02,1.703329570591449738e-02,8.799144998192787170e-03,1.105082128196954727e-02,1.717417268082499504e-03,-7.099142298102378845e-03,-2.023429237306118011e-02,-2.979381242766976357e-03,1.302607450634241104e-02,1.335412729531526566e-02,-2.369071729481220245e-02,-2.096324041485786438e-02,-2.391003444790840149e-02,7.172388490289449692e-03,7.557374425232410431e-03,-1.316012814640998840e-02,1.636158674955368042e-03,3.908775746822357178e-03,6.105989683419466019e-03,-1.924019493162631989e-02,2.273155935108661652e-02,-8.994706906378269196e-03,-1.306140795350074768e-02,2.618364430963993073e-02,-2.719071507453918457e-02,-2.859106985852122307e-03,2.157640410587191582e-03,1.112339552491903305e-02,2.572016417980194092e-02,-2.443261817097663879e-02,-3.448976436629891396e-03,2.321876399219036102e-02,-3.794429078698158264e-02,1.673330366611480713e-02,-2.228968404233455658e-02,-1.767668873071670532e-02,7.084285840392112732e-03,2.999081462621688843e-02,3.648523939773440361e-03,1.455830782651901245e-02,4.408771637827157974e-03,2.957363240420818329e-02,-1.880601420998573303e-02,-2.351674484089016914e-03,-3.002785146236419678e-02,2.767297253012657166e-02,-3.503382205963134766e-03,-2.593492530286312103e-02,-3.941648174077272415e-03,3.451748564839363098e-02,-1.006075367331504822e-02,2.357225678861141205e-02,-1.198832690715789795e-02,-1.767982356250286102e-02,1.825224049389362335e-02,1.629996672272682190e-02,3.219062089920043945e-02,1.111093256622552872e-02,3.399349749088287354e-02,1.092923898249864578e-02,2.678764751181006432e-03,-3.875632304698228836e-03,-2.747515775263309479e-02,2.680486254394054413e-02,1.433356292545795441e-02,2.075708657503128052e-02,2.277444861829280853e-02,-2.837428078055381775e-02,-5.694923922419548035e-03,-8.782723918557167053e-03,2.859886735677719116e-02,-2.051245421171188354e-03,-2.186059020459651947e-02,7.583980448544025421e-03,3.722504712641239166e-03,-2.181841991841793060e-02,-2.160064410418272018e-03,1.344144158065319061e-02,2.006659843027591705e-02,-2.355552744120359421e-03,2.908693393692374229e-03,-2.024932019412517548e-02,-8.282847702503204346e-03,-4.760217387229204178e-03,-2.734057419002056122e-02,4.674389027059078217e-03,-2.501936862245202065e-03,1.893381401896476746e-02,1.379758864641189575e-02,-2.120109274983406067e-02,2.365949191153049469e-02,6.628301460295915604e-03,2.629715204238891602e-02,5.633010528981685638e-03,2.935208380222320557e-02,-2.821053005754947662e-02,-1.340865343809127808e-02,2.892514690756797791e-02,1.307679992169141769e-02,-3.368638828396797180e-02,3.516405448317527771e-02,-4.850667901337146759e-03,-3.365352377295494080e-02,-3.702807053923606873e-02,2.506899461150169373e-02,9.949613362550735474e-03,-1.943976432085037231e-02,-3.133048489689826965e-02,-8.366824127733707428e-03,2.654348686337471008e-02,1.591904275119304657e-02,3.699974156916141510e-03,-3.322852402925491333e-02,-3.091518208384513855e-02,-2.772100083529949188e-02,-1.123477797955274582e-02,3.132085874676704407e-02,5.474255885928869247e-03,-1.063355617225170135e-02,4.471525177359580994e-02,1.185621507465839386e-02,-2.199183963239192963e-02,5.735830403864383698e-03,-8.482782170176506042e-03,1.573832705616950989e-02,2.085810154676437378e-02,1.704312674701213837e-02,1.054465956985950470e-02,2.066145837306976318e-02,-1.562046003527939320e-03,1.977340504527091980e-02,1.554443128407001495e-02,-1.701770536601543427e-02,1.042170356959104538e-02,-1.631656847894191742e-02,1.130848191678524017e-02,-1.601649820804595947e-02,1.128323259763419628e-03,-1.862202584743499756e-02,1.846187375485897064e-02,2.298399433493614197e-02,-2.606653422117233276e-02,-9.465220384299755096e-03,-2.308471128344535828e-02,2.118215337395668030e-02,-1.562394108623266220e-02,-1.171296648681163788e-02,1.706096716225147247e-02,2.235489198938012123e-03,5.537213874049484730e-04,2.257556281983852386e-02,4.104787483811378479e-02,-2.502919733524322510e-02,-1.619662716984748840e-02,-3.042179904878139496e-02,-2.113384194672107697e-02,-6.683859508484601974e-03,3.142353892326354980e-02,-4.052128642797470093e-03,6.761965341866016388e-03,1.264555379748344421e-02,2.357252128422260284e-02,3.423425555229187012e-02,3.228583559393882751e-02,-1.694116182625293732e-02,-1.916394382715225220e-02,-6.023450754582881927e-03,-2.273788675665855408e-02,1.626454852521419525e-02,3.112048842012882233e-03,-2.062950842082500458e-02,2.326586842536926270e-02,3.700302541255950928e-02,-8.603236638009548187e-03,-1.619170233607292175e-02,-1.863818615674972534e-02,2.757076360285282135e-02,2.057758532464504242e-02,-2.061139047145843506e-02,3.691648691892623901e-02,2.225408144295215607e-02,-1.872885972261428833e-02,-3.503019362688064575e-02,-1.323994528502225876e-02,9.003031067550182343e-03,3.157714754343032837e-02,1.798241026699542999e-02,-4.452841356396675110e-03,-2.389053441584110260e-02,2.766030468046665192e-02,1.896935142576694489e-02,3.600137680768966675e-02,-2.962156385183334351e-02,2.431389689445495605e-02,-2.127521857619285583e-02,-1.049711555242538452e-02,1.308548450469970703e-02,3.309437260031700134e-02,-9.627639316022396088e-03,-3.863556077703833580e-03,-1.506178453564643860e-02,-8.902520872652530670e-03,-3.375803679227828979e-02,8.025577408261597157e-04,2.524753217585384846e-04,3.014559671282768250e-02,1.080427970737218857e-02,1.817286573350429535e-02,2.317305043106898665e-04,6.634300108999013901e-03,-2.111898921430110931e-02,2.138668484985828400e-02,5.817716009914875031e-03,-3.504810854792594910e-02,3.119540773332118988e-02,3.258888050913810730e-02,3.676152846310287714e-04,-1.866418309509754181e-02,3.175189020112156868e-03,-2.740914560854434967e-02,1.840932108461856842e-02,-2.681552059948444366e-02,1.384893618524074554e-02,1.061918213963508606e-02,-1.800164580345153809e-02,-2.179085649549961090e-02,-2.828372269868850708e-02,-1.013593561947345734e-02,3.322156518697738647e-02,-3.087510354816913605e-02,6.343320012092590332e-03,-2.433922141790390015e-02,-2.623924054205417633e-02,-6.140144541859626770e-03,1.029564719647169113e-02,-9.549986571073532104e-03,-6.711988709867000580e-03,2.142941579222679138e-03,2.747202105820178986e-02,7.806616835296154022e-03,-2.301476150751113892e-02,9.277920238673686981e-03,1.655295863747596741e-02,9.409912861883640289e-03,-1.709284260869026184e-02,4.163520038127899170e-02,-1.470072567462921143e-02,-1.488287746906280518e-02,1.360647007822990417e-02,8.934445795603096485e-04,-1.122807618230581284e-02,-1.995749399065971375e-02,-1.948464894667267799e-03,-1.858268864452838898e-02,-1.477439887821674347e-02,-7.676874753087759018e-03,-2.176825329661369324e-02,3.694221959449350834e-04,1.500244438648223877e-02,2.632704749703407288e-02,-2.823860570788383484e-02,-1.390834152698516846e-02,3.449582308530807495e-02,-1.191081479191780090e-02,2.600689232349395752e-02,1.093712449073791504e-02,3.772214800119400024e-02,1.237399759702384472e-03,7.945474237203598022e-03,3.514975309371948242e-03,-2.024490386247634888e-02,-1.928039453923702240e-02,3.769650310277938843e-02,1.380172837525606155e-02,-3.157775849103927612e-02,3.116316907107830048e-02,2.797222882509231567e-02,-3.315073624253273010e-02,2.478080801665782928e-02,-3.389067482203245163e-03,3.311257436871528625e-02,-1.842535287141799927e-02,-2.544435113668441772e-02,2.959696762263774872e-02,1.881626201793551445e-03,-3.811130591202527285e-05,-2.323135174810886383e-02,1.437576860189437866e-02,-2.398381568491458893e-02,-1.985020749270915985e-02,-2.763316407799720764e-02,3.629429265856742859e-02,4.549415607471019030e-04,3.149985522031784058e-02,8.561123162508010864e-03,-3.246541321277618408e-02,-2.725125849246978760e-02,-1.578416302800178528e-02,-2.377665601670742035e-02,1.205335278064012527e-02,2.236695028841495514e-02,-1.864576339721679688e-02,8.070688694715499878e-03,-2.919864095747470856e-02,-5.769699811935424805e-03,8.752156980335712433e-03,3.045624680817127228e-02,1.595289632678031921e-02,-6.514735519886016846e-03,2.989925071597099304e-02,2.334990166127681732e-02,2.181601710617542267e-02,2.483538724482059479e-02,-9.499710053205490112e-03,-7.545340806245803833e-03,-2.429600246250629425e-02,-6.760094780474901199e-03,-2.372078783810138702e-02,1.037495676428079605e-02,7.280432619154453278e-03,2.911485545337200165e-02,2.090004831552505493e-02,1.940478757023811340e-02,-1.038046553730964661e-02,4.725420381873846054e-03,-2.316400036215782166e-02,3.600851446390151978e-02,2.991305850446224213e-02,2.719591930508613586e-02,3.379559889435768127e-02,-9.937291033565998077e-03,-2.512093074619770050e-02,-2.456174418330192566e-02,-3.177159465849399567e-03,-2.612669765949249268e-02,2.153840288519859314e-02,1.236583665013313293e-02,2.522906102240085602e-02,-1.704115048050880432e-02,9.596995078027248383e-03,1.586640067398548126e-02,2.901453152298927307e-02,2.062270417809486389e-02,-2.603728510439395905e-02,7.888575200922787189e-04,-1.792937517166137695e-02,-2.680561691522598267e-02,2.370356395840644836e-02,1.051672641187906265e-02,3.751460462808609009e-03,1.151307299733161926e-02,6.260859780013561249e-03,-2.682996727526187897e-02,-1.498131267726421356e-02,-2.822710014879703522e-02,1.425409317016601562e-02,-2.998649887740612030e-02,-2.268853038549423218e-02,-2.688393369317054749e-02,2.283236756920814514e-02,3.525659814476966858e-02,2.636135555803775787e-02,3.482599928975105286e-02,-6.246446631848812103e-03,1.799861551262438297e-03,3.379989415407180786e-02,3.341871872544288635e-02,-2.259743772447109222e-02,-2.871226891875267029e-02,-2.601571194827556610e-02,-1.024305261671543121e-02,-1.241727825254201889e-02,-2.756911329925060272e-02,1.789376512169837952e-02,3.342582657933235168e-02,-2.192173525691032410e-02,-2.200127951800823212e-02,-2.712649106979370117e-02,-3.411047160625457764e-02,-2.144475653767585754e-02,1.634026411920785904e-03,-1.684092171490192413e-02,-1.028534024953842163e-02,3.478580620139837265e-03,1.240827236324548721e-02,1.449328102171421051e-02,1.671782461926341057e-03,2.147935889661312103e-02,3.098151274025440216e-02,1.482615154236555099e-02,-2.500073611736297607e-02,-2.588793076574802399e-02,-3.641375806182622910e-03,7.021598052233457565e-03,-1.379131898283958435e-02,-1.647560112178325653e-02,-2.228188328444957733e-02,-2.199555188417434692e-02,-8.128931745886802673e-03,2.690928429365158081e-02,9.720862843096256256e-03,-3.914684057235717773e-03,1.088468637317419052e-02,-2.707719616591930389e-02,-2.641897089779376984e-02,2.702592406421899796e-03,-6.834909785538911819e-03,1.869994029402732849e-02,1.560699380934238434e-02,-4.921081126667559147e-04,3.107139468193054199e-02,3.270040825009346008e-02,-9.788190945982933044e-03,-2.820763736963272095e-02,3.225217014551162720e-02,3.383499756455421448e-02,3.078301250934600830e-02,3.243810310959815979e-02,2.845355542376637459e-03,3.424187004566192627e-02,2.262133173644542694e-02,-2.211666479706764221e-02,-2.624997124075889587e-02,2.029104158282279968e-02,3.984063863754272461e-02,1.435571000911295414e-03,-6.052720826119184494e-03,-1.449366100132465363e-02,3.513081744313240051e-02,1.023738179355859756e-02,-3.055907599627971649e-02,-8.689388632774353027e-03,-2.767567522823810577e-02,2.510853856801986694e-02,-9.405455552041530609e-03,2.986348979175090790e-02,-1.044828724116086960e-02,-6.711219903081655502e-03,2.893851138651371002e-02,-1.856059394776821136e-02,-1.861830428242683411e-02,-2.857834100723266602e-02,-2.695282362401485443e-02,-1.476321741938591003e-02,2.551008760929107666e-02,-1.428432587999850512e-04,-2.685598470270633698e-02,-3.358829393982887268e-02,-3.093841485679149628e-02,2.320061251521110535e-02,-4.559660796076059341e-03,-7.903833757154643536e-04,-9.444508701562881470e-03,2.875878289341926575e-02,2.653900533914566040e-02,-1.741219498217105865e-02,-1.748619414865970612e-02,-8.988076820969581604e-03,3.559428453445434570e-02,-1.765224523842334747e-02,-2.645244821906089783e-02,-2.933536097407341003e-02,-1.606987416744232178e-02,-2.936192043125629425e-02,-1.635648310184478760e-02,8.498258888721466064e-03,1.512373890727758408e-02,-2.649585157632827759e-02,-5.189385265111923218e-03,2.759397402405738831e-02,8.269076235592365265e-03,1.523772813379764557e-02,1.929221861064434052e-02,-3.038787469267845154e-02,-1.428598817437887192e-02,1.325917709618806839e-02,3.477794304490089417e-02,3.183091059327125549e-02,-2.679446712136268616e-02,-1.165580749511718750e-02,1.532127521932125092e-02
