5.532164592295885086e-03,3.621788695454597473e-02,1.213498786091804504e-02,6.812228239141404629e-04,2.406564168632030487e-02,6.033808365464210510e-02,-1.539878640323877335e-02,-6.670330767519772053e-04,1.099955290555953979e-02,1.113900076597929001e-02,2.188177034258842468e-02,4.193693026900291443e-02,1.369416248053312302e-03,2.985457144677639008e-02,1.241104397922754288e-02,7.557029370218515396e-03,-3.593941405415534973e-02,-1.437160465866327286e-02,1.167915109544992447e-02,-5.790314450860023499e-02,-3.187309205532073975e-02,2.739754039794206619e-03,-3.546260297298431396e-02,7.560811191797256470e-02,-2.472578547894954681e-02,4.343910040915943682e-05,-1.210739370435476303e-02,-2.239499799907207489e-02,-2.398875914514064789e-02,-1.998255588114261627e-02,-2.208369038999080658e-02,-4.436948522925376892e-02,1.865644566714763641e-02,5.015993025153875351e-03,-2.035805024206638336e-02,-3.144397586584091187e-02,-1.786201144568622112e-03,1.738298498094081879e-02,2.562971785664558411e-03,-4.688936844468116760e-02,4.691080376505851746e-02,-9.172417223453521729e-03,-8.812237530946731567e-03,5.007056146860122681e-02,2.718156669288873672e-03,2.648099698126316071e-02,-4.323278740048408508e-02,-4.102117195725440979e-02,1.427625399082899094e-02,2.906007133424282074e-02,-5.055941641330718994e-02,1.673765294253826141e-02,2.332269027829170227e-02,2.740798704326152802e-02,1.207749173045158386e-02,2.463917620480060577e-02,-9.972708299756050110e-03,7.259876001626253128e-03,-4.762805998325347900e-02,5.624087899923324585e-02,-1.150194788351655006e-03,3.496940061450004578e-02,1.910672523081302643e-02,5.231399834156036377e-02,5.384576693177223206e-02,1.727228425443172455e-02,4.016450792551040649e-02,-2.332137664780020714e-03,1.369307376444339752e-02,3.008014708757400513e-02,5.926290992647409439e-03,5.064300075173377991e-02,3.159438818693161011e-02,-5.788023769855499268e-02,-2.027446031570434570e-02,-4.211938753724098206e-02,-3.548484668135643005e-02,-1.687967590987682343e-02,2.522321604192256927e-02,-4.503041133284568787e-02,1.980571262538433075e-02,8.711374364793300629e-03,3.356570750474929810e-02,-5.710940435528755188e-02,4.078676551580429077e-02,-7.771354168653488159e-03,-1.612489484250545502e-02,5.019586533308029175e-02,-1.882315264083445072e-03,3.239492326974868774e-02,-1.737833581864833832e-02,-4.524674266576766968e-02,1.149669103324413300e-02,-9.080641902983188629e-03,6.677499413490295410e-02,2.361876517534255981e-02,2.836993336677551270e-02,-5.605527386069297791e-02,-1.391641516238451004e-02,5.310473591089248657e-02,-1.624663546681404114e-02,5.251861363649368286e-02,9.745650924742221832e-03,2.291573770344257355e-02,3.569421544671058655e-02,-4.975955188274383545e-02,-7.287297397851943970e-03,-2.326706424355506897e-02,3.096024692058563232e-02,1.802313700318336487e-02,-8.367450907826423645e-03,-4.180680215358734131e-02,-5.668956041336059570e-02,8.436555415391921997e-02,-1.930027455091476440e-02,-5.797938443720340729e-03,3.455859422683715820e-02,7.521039340645074844e-03,-3.511218726634979248e-02,-2.197024412453174591e-02,6.340001523494720459e-02,-1.701998710632324219e-02,2.218472957611083984e-02,3.298231214284896851e-02,-9.347143582999706268e-03,-9.061585180461406708e-03,7.958099246025085449e-02,3.192932158708572388e-02,-1.025785971432924271e-02,-1.575755141675472260e-02,2.915332093834877014e-02,3.957043215632438660e-02,2.443219907581806183e-02,-4.361664131283760071e-02,-3.518154146149754524e-03,7.854794152081012726e-03,3.015809133648872375e-02,-1.322979386895895004e-02,9.546822868287563324e-03,-1.498140953481197357e-02,-2.185607701539993286e-02,-3.029091842472553253e-02,3.599974885582923889e-02,-2.977715618908405304e-02,3.004149533808231354e-02,-2.820716239511966705e-02,-6.463322043418884277e-02,6.026810966432094574e-03,8.679324761033058167e-03,-2.270671539008617401e-02,1.388244796544313431e-02,1.675994694232940674e-02,2.701778523623943329e-02,-4.536227136850357056e-02,3.296334296464920044e-02,-3.839871380478143692e-03,4.128656908869743347e-02,4.811532795429229736e-02,3.606761991977691650e-02,2.383633889257907867e-02,-2.378980442881584167e-02,3.318636678159236908e-03,5.178067833185195923e-02,3.730639815330505371e-02,3.084989078342914581e-02,-4.193992912769317627e-02,-2.921481151133775711e-03,1.417271699756383896e-02,2.132693864405155182e-02,4.151111468672752380e-02,2.569321542978286743e-02,1.579155586659908295e-02,2.878993516787886620e-03,1.639153994619846344e-02,1.740647247061133385e-03,1.254711672663688660e-02,-1.501336414366960526e-02,-8.464953862130641937e-03,4.035193100571632385e-02,-2.635212987661361694e-02,-4.259822890162467957e-02,3.715933486819267273e-02,-2.111125504598021507e-03,5.756307020783424377e-02,-4.291839152574539185e-02,-2.182111330330371857e-02,-2.380347996950149536e-02,3.283735737204551697e-02,-2.862367965281009674e-02,1.017775107175111771e-02,1.925307512283325195e-02,3.901426494121551514e-02,1.164946984499692917e-02,-2.821839042007923126e-02,-3.880177857354283333e-03,1.008716039359569550e-02,2.847434207797050476e-02,-1.089285686612129211e-02,2.672029845416545868e-02,8.064846508204936981e-03
