-4.463634919375181198e-03,4.286032542586326599e-02,-8.678678423166275024e-03,9.437210112810134888e-02,8.946522325277328491e-02,-7.307311892509460449e-02,6.908906251192092896e-02,-1.626401580870151520e-02,9.318751841783523560e-02,-5.633874610066413879e-02,-2.511573955416679382e-03,-7.453489303588867188e-02,1.169245615601539612e-01,-6.680371612310409546e-02,9.403123706579208374e-02,-1.681855693459510803e-02,-3.680564835667610168e-02,-5.041081830859184265e-02,8.163022994995117188e-02,1.876597292721271515e-02,8.789338916540145874e-02,4.375992715358734131e-02,1.219052746891975403e-01,1.019632369279861450e-01,-9.675210714340209961e-02,-2.737562544643878937e-02,5.737159028649330139e-02,4.429374262690544128e-02,9.487660974264144897e-02,6.640686839818954468e-02,-6.499038636684417725e-02,5.190333351492881775e-02,-5.550328176468610764e-03,1.267242729663848877e-01,-8.139442652463912964e-03,4.406150802969932556e-02,5.111610889434814453e-02,-1.406856067478656769e-02,3.556190058588981628e-02,-7.838287949562072754e-02,1.100930348038673401e-01,-9.048754721879959106e-02,-2.599129080772399902e-02,-8.304513990879058838e-02,1.336399279534816742e-02,-6.454141810536384583e-03,-3.976155444979667664e-02,-4.354341328144073486e-02,-1.773777231574058533e-02,5.295305512845516205e-03,-2.870079316198825836e-02,-1.076993346214294434e-02,2.576168626546859741e-02,6.800282001495361328e-02,3.353176638484001160e-03,3.103974275290966034e-02,2.054627053439617157e-02,3.799516707658767700e-02,5.696617439389228821e-02,-7.599790394306182861e-02,-2.531485259532928467e-02,1.071816608309745789e-01,-4.143491014838218689e-02,-8.082618564367294312e-02,2.748805284500122070e-02,7.704897224903106689e-02,-3.561558201909065247e-02,5.256377533078193665e-02,-9.215562790632247925e-02,1.346802115440368652e-01,-5.202511325478553772e-02,-6.035948544740676880e-02,-2.404345571994781494e-02,-4.576968401670455933e-02,-7.178516685962677002e-02,2.967707812786102295e-02,-8.721977472305297852e-03,3.114897198975086212e-02,1.129315141588449478e-02,-8.713347837328910828e-03,8.539139479398727417e-02,3.232661262154579163e-02,4.080040752887725830e-02,9.735099971294403076e-02,3.725003823637962341e-02,4.397233575582504272e-02,-9.103821590542793274e-03,-6.285493075847625732e-02,-3.752420470118522644e-02,-1.719540730118751526e-02,1.306301355361938477e-02,4.052574187517166138e-02,7.791371643543243408e-02,1.407195162028074265e-02,1.008449681103229523e-02,1.196515783667564392e-01,1.158704310655593872e-01,-1.398361381143331528e-02,1.059706136584281921e-01,7.776529341936111450e-02
-2.392982505261898041e-02,-2.739493735134601593e-03,4.005008563399314880e-02,-1.362973637878894806e-02,-1.424344927072525024e-01,-3.549483790993690491e-02,-9.602534770965576172e-02,-1.423960626125335693e-01,1.405689865350723267e-01,-2.544464357197284698e-02,1.184899508953094482e-01,4.882242903113365173e-02,1.286838203668594360e-02,4.401396587491035461e-02,1.302370801568031311e-02,-5.763967707753181458e-02,-1.466283947229385376e-01,-1.451899707317352295e-01,-3.661724273115396500e-03,-4.278116673231124878e-02,-2.181600034236907959e-02,2.349222078919410706e-02,-2.991843223571777344e-02,1.709670387208461761e-02,1.268836408853530884e-01,-2.835483290255069733e-02,1.421899255365133286e-02,1.547864973545074463e-01,-4.360790848731994629e-01,1.348722428083419800e-01,7.535482943058013916e-02,-5.876434594392776489e-02,-5.487748980522155762e-02,7.559527456760406494e-02,-2.092660218477249146e-01,6.291785836219787598e-02,-7.880217581987380981e-02,9.824850410223007202e-02,1.083171227946877480e-03,-9.080506116151809692e-02,1.902626454830169678e-02,1.405784785747528076e-01,1.189332008361816406e-01,2.303488850593566895e-01,9.062606841325759888e-02,7.022259384393692017e-02,2.672673761844635010e-01,2.677540853619575500e-02,1.078797653317451477e-01,3.852451965212821960e-02,-1.481188088655471802e-01,2.036100951954722404e-03,1.295326501131057739e-01,2.103175222873687744e-01,1.550202518701553345e-01,-9.762370586395263672e-02,5.782727524638175964e-02,8.352759480476379395e-02,6.960579007863998413e-02,-5.454728007316589355e-02,1.015126481652259827e-01,9.619304537773132324e-02,-3.109891340136528015e-02,6.770793814212083817e-03,-1.081017777323722839e-01,-9.950590878725051880e-02,1.347667276859283447e-01,-3.563684225082397461e-02,1.704498752951622009e-02,7.350786775350570679e-02,2.093175984919071198e-02,-3.083640476688742638e-03,-9.285201877355575562e-02,1.891916543245315552e-01,9.228901565074920654e-02,3.376521542668342590e-02,2.236247994005680084e-02,-5.642748624086380005e-02,6.856736540794372559e-02,6.759445369243621826e-02,-5.591542124748229980e-01,1.796668469905853271e-01,1.153821051120758057e-01,-7.785276509821414948e-03,1.119049042463302612e-01,4.415002837777137756e-02,-1.079208869487047195e-02,2.282588975504040718e-03,1.794353276491165161e-01,-5.607996135950088501e-02,1.488671600818634033e-01,4.988387972116470337e-02,-5.058912187814712524e-02,2.941781282424926758e-01,-1.152824610471725464e-01,-1.009846031665802002e-01,1.026390641927719116e-01,7.378061767667531967e-03,-3.378417193889617920e-01,1.518084704875946045e-01
1.741830259561538696e-01,-4.040111089125275612e-04,-3.411753103137016296e-02,-1.298515647649765015e-01,3.106239996850490570e-02,-1.071934774518013000e-02,6.418233364820480347e-02,3.963596373796463013e-02,-2.240626327693462372e-02,1.295835226774215698e-01,-3.540613222867250443e-03,1.351550966501235962e-01,-2.268650941550731659e-02,5.840661376714706421e-02,-9.645380824804306030e-02,1.854027435183525085e-02,-3.728818148374557495e-02,1.990796439349651337e-02,2.453771978616714478e-02,8.408180624246597290e-02,-4.336669296026229858e-02,4.440858960151672363e-02,-4.591601714491844177e-02,5.046802759170532227e-02,1.202856153249740601e-01,1.108614429831504822e-01,7.077233493328094482e-02,6.968614459037780762e-02,-8.265670388936996460e-02,-7.367172837257385254e-02,9.718880988657474518e-03,7.132024317979812622e-02,-6.896506249904632568e-02,8.003564924001693726e-02,-5.943746306002140045e-03,-2.563530765473842621e-02,-2.185686975717544556e-01,1.527154743671417236e-01,-9.866203367710113525e-02,-3.369867429137229919e-02,-5.035477690398693085e-03,5.676835030317306519e-02,6.653501093387603760e-02,-1.675699353218078613e-01,-4.477457702159881592e-02,4.136233404278755188e-02,9.536406397819519043e-02,1.111609116196632385e-01,1.294323354959487915e-01,-8.339406549930572510e-02,8.894051611423492432e-02,9.298887103796005249e-02,1.247747614979743958e-02,-1.181578729301691055e-02,-3.182408958673477173e-02,5.444312840700149536e-02,-5.494358390569686890e-02,-6.995946913957595825e-02,3.426776453852653503e-02,1.213996857404708862e-01,4.279369860887527466e-02,7.720772176980972290e-02,-9.508652985095977783e-02,-5.029714084230363369e-04,-5.654800683259963989e-02,8.716381341218948364e-02,7.310213893651962280e-02,-3.008622676134109497e-02,-6.875251978635787964e-02,-4.763698577880859375e-02,-6.538628041744232178e-02,-7.582049816846847534e-02,-3.218127787113189697e-02,7.212293893098831177e-02,5.762834846973419189e-02,9.189696051180362701e-03,1.298512667417526245e-01,4.448382928967475891e-02,1.080043613910675049e-02,-6.079971790313720703e-02,5.029163137078285217e-02,-5.242324620485305786e-02,-1.760779768228530884e-01,-3.685973584651947021e-02,7.286449521780014038e-02,9.884175658226013184e-02,-1.506605446338653564e-01,-1.476600915193557739e-01,-2.868114225566387177e-02,-1.198605522513389587e-01,-8.839365839958190918e-02,-1.340735405683517456e-01,7.042732089757919312e-02,6.142839323729276657e-03,-4.088023677468299866e-02,-7.335348427295684814e-02,1.403040736913681030e-01,3.815295174717903137e-02,-1.134343519806861877e-01,-2.324135042726993561e-02
-2.246757149696350098e-01,-2.299077659845352173e-01,1.135181821882724762e-02,-5.563794821500778198e-02,6.769338250160217285e-02,9.250116348266601562e-02,-2.577766180038452148e-01,8.593041449785232544e-03,-1.635051816701889038e-01,-2.209976911544799805e-01,-2.146590799093246460e-01,-3.317730128765106201e-01,-1.766564548015594482e-01,1.202611848711967468e-01,-1.777403652667999268e-01,-2.298144996166229248e-01,3.342314437031745911e-02,-3.021113015711307526e-02,6.274660676717758179e-02,2.317054010927677155e-02,-1.651184856891632080e-01,2.613208256661891937e-02,-2.171741575002670288e-01,-1.105556413531303406e-01,-2.980261147022247314e-01,-2.796210348606109619e-01,-2.928718924522399902e-01,-1.331742107868194580e-01,-6.663333624601364136e-02,-9.032956510782241821e-02,3.882938623428344727e-02,-2.329196482896804810e-01,1.571090519428253174e-02,-4.068241119384765625e-01,-8.625605702400207520e-02,-2.617253959178924561e-01,-1.902170628309249878e-01,-1.270470470190048218e-01,1.363955065608024597e-02,-2.067834138870239258e-01,-1.219146996736526489e-01,-1.240005940198898315e-01,-1.437614709138870239e-01,-1.709653288125991821e-01,-1.610393822193145752e-01,-1.466512084007263184e-01,1.854361407458782196e-02,-6.093499064445495605e-02,-1.918618977069854736e-01,-2.080145925283432007e-01,1.145348474383354187e-01,-1.441865116357803345e-01,3.842094913125038147e-02,9.381887316703796387e-02,-2.718964219093322754e-01,1.533348858356475830e-01,-1.303524821996688843e-01,-1.412315368652343750e-01,-2.853028774261474609e-01,9.458824247121810913e-02,-2.604532837867736816e-01,-1.733267493546009064e-02,2.048464305698871613e-02,-1.108389124274253845e-01,-1.978253871202468872e-01,-1.353417485952377319e-01,-9.504008293151855469e-02,-2.448337525129318237e-01,-1.750801205635070801e-01,-1.016043499112129211e-01,1.933245360851287842e-02,1.827510744333267212e-01,-7.721052318811416626e-02,-1.023528426885604858e-01,-5.715213716030120850e-02,1.248331740498542786e-02,-2.909086411818861961e-03,-1.500796675682067871e-01,-2.026783376932144165e-01,-1.434301286935806274e-01,-1.492359489202499390e-01,-1.267038434743881226e-01,3.653372079133987427e-02,1.389570254832506180e-02,-7.752415537834167480e-02,-1.385169923305511475e-01,-2.204582691192626953e-01,-1.038519740104675293e-01,-1.799666881561279297e-01,1.668454706668853760e-01,-2.642551250755786896e-02,-1.553568094968795776e-01,-1.250854320824146271e-02,9.690631181001663208e-02,-4.157546535134315491e-02,-1.048195883631706238e-01,-2.915604114532470703e-01,-1.273607313632965088e-01,7.085309922695159912e-02,1.435042023658752441e-01
1.921291090548038483e-02,-2.985653281211853027e-01,-1.029759794473648071e-01,1.129618659615516663e-02,9.645292162895202637e-02,-6.276915222406387329e-02,-4.993879199028015137e-01,5.973423365503549576e-03,-7.342213392257690430e-02,-2.158585488796234131e-01,-7.738700509071350098e-02,3.510558977723121643e-02,-1.592492759227752686e-01,-1.104480121284723282e-02,1.656281203031539917e-01,-3.081977963447570801e-01,-2.145166546106338501e-01,9.480134397745132446e-02,-6.843902170658111572e-02,-4.062637388706207275e-01,-6.672455370426177979e-02,-1.265859603881835938e-01,-6.432841718196868896e-02,-3.653250336647033691e-01,-8.110724389553070068e-02,-1.546106487512588501e-01,-3.590027093887329102e-01,5.025905743241310120e-02,2.094451710581779480e-02,1.825742423534393311e-01,-1.417325884103775024e-01,1.225257851183414459e-02,5.912524461746215820e-02,9.714642912149429321e-02,1.190412044525146484e-01,-4.413506761193275452e-02,5.006223544478416443e-02,-2.471243590116500854e-01,1.823007501661777496e-02,-3.182680159807205200e-02,4.382726550102233887e-02,-8.661020547151565552e-02,-3.731848672032356262e-03,2.462392747402191162e-01,-3.519719541072845459e-01,-1.650749593973159790e-01,5.548457056283950806e-02,-1.938254386186599731e-01,-1.817846000194549561e-01,1.186337471008300781e-01,1.793069951236248016e-02,7.230272144079208374e-02,-2.661477327346801758e-01,-8.894241601228713989e-02,-2.837795019149780273e-01,-5.661101266741752625e-02,-2.663551867008209229e-01,-1.011430472135543823e-02,2.225292026996612549e-01,-1.788821071386337280e-01,-2.349758744239807129e-01,-5.982301384210586548e-02,4.537412151694297791e-02,2.065163701772689819e-01,3.167258575558662415e-02,4.091784940101206303e-04,-2.653476893901824951e-01,-3.253319859504699707e-01,-6.493306159973144531e-02,-2.093724459409713745e-01,-1.184879168868064880e-01,1.185184493660926819e-01,-4.926851093769073486e-01,-3.864097222685813904e-02,-4.239555895328521729e-01,4.828267171978950500e-02,3.474953770637512207e-02,-3.870028257369995117e-01,-1.298185586929321289e-01,-3.358218073844909668e-01,-1.214935630559921265e-02,-1.969860494136810303e-01,-2.347225695848464966e-01,-5.306994169950485229e-02,-5.559171363711357117e-02,-2.380620837211608887e-01,7.504697889089584351e-02,-2.594675421714782715e-01,-1.372413635253906250e-01,6.628306210041046143e-02,1.113231666386127472e-02,-2.114808559417724609e-01,-6.072390452027320862e-02,1.437291689217090607e-02,1.160977408289909363e-01,4.987071081995964050e-02,-4.365530908107757568e-01,2.662313170731067657e-02,4.914538189768791199e-02,-2.869485318660736084e-02
-1.384233385324478149e-01,-2.591261267662048340e-01,-5.359021946787834167e-03,1.522326562553644180e-02,-1.605296693742275238e-02,4.131462424993515015e-02,-2.403760999441146851e-01,8.858429640531539917e-02,-1.051406264305114746e-01,-1.290183048695325851e-02,-2.004470080137252808e-01,-2.179320752620697021e-01,2.652308717370033264e-02,8.602390997111797333e-03,-8.746292442083358765e-02,-1.938484758138656616e-01,6.269749253988265991e-02,7.877562940120697021e-02,1.351207643747329712e-01,-6.371820718050003052e-02,-6.130367890000343323e-02,4.277848079800605774e-02,-7.947265356779098511e-02,-1.602624505758285522e-01,-6.892644613981246948e-02,-1.754691153764724731e-01,-1.386005580425262451e-01,-6.688035279512405396e-02,4.638243466615676880e-03,-2.037064284086227417e-01,5.118192732334136963e-02,-2.372564971446990967e-01,-1.173593383282423019e-02,-3.766775131225585938e-01,-1.219789963215589523e-02,-3.164649903774261475e-01,-1.995232105255126953e-01,-4.902181681245565414e-03,-3.190282359719276428e-02,-1.272127181291580200e-01,-6.361589580774307251e-02,-7.740765810012817383e-02,-2.462590038776397705e-01,-7.791021466255187988e-02,-2.170526534318923950e-01,-3.104817867279052734e-01,4.339212551712989807e-02,-6.278039515018463135e-02,-3.193645179271697998e-02,-1.208006665110588074e-01,1.464357972145080566e-01,-5.487062036991119385e-02,1.049712002277374268e-01,-9.236326068639755249e-02,-9.985526651144027710e-02,1.043374165892601013e-01,-7.480543106794357300e-02,-8.507529646158218384e-02,-1.886939257383346558e-01,3.050960972905158997e-02,-1.029809564352035522e-01,6.990375369787216187e-02,1.406823396682739258e-01,-1.653641909360885620e-01,-1.230425685644149780e-01,-1.189703270792961121e-01,-2.101364731788635254e-01,-1.888146102428436279e-01,-1.494550406932830811e-01,-1.113281771540641785e-01,8.847016841173171997e-02,1.602240949869155884e-01,-1.777084469795227051e-01,-5.804633349180221558e-02,-1.259880959987640381e-01,-1.689427345991134644e-01,-7.243182975798845291e-03,3.191841766238212585e-02,-2.478222697973251343e-01,-1.816190332174301147e-01,-4.745590686798095703e-02,-2.512171566486358643e-01,-7.651715725660324097e-02,-3.408956155180931091e-02,-4.743225872516632080e-02,-9.751044213771820068e-02,-1.509868204593658447e-01,-1.257930845022201538e-01,-9.287110716104507446e-02,7.090288400650024414e-02,-3.517105802893638611e-02,-1.325796693563461304e-01,5.628093145787715912e-03,-1.340012550354003906e-01,6.308837234973907471e-02,-5.183510482311248779e-02,-2.491042464971542358e-01,3.099684417247772217e-02,-5.898300930857658386e-02,2.368444018065929413e-02
-1.789223849773406982e-01,-8.558530360460281372e-02,-2.144017815589904785e-02,-7.163610309362411499e-02,1.126233674585819244e-02,1.175725385546684265e-01,-2.505618631839752197e-01,2.877629734575748444e-02,-9.464155137538909912e-02,-2.179649621248245239e-01,-2.001665383577346802e-01,-9.170922636985778809e-02,-9.465882927179336548e-02,1.003820747137069702e-01,5.556698516011238098e-02,-1.817861944437026978e-01,-4.792512580752372742e-02,4.724669270217418671e-03,9.366046637296676636e-03,-8.962397277355194092e-02,-2.061983495950698853e-01,-2.638503350317478180e-02,-6.614802777767181396e-02,-2.153336852788925171e-01,-2.567921280860900879e-01,-1.678307056427001953e-01,-2.435367256402969360e-01,-2.064179629087448120e-01,-1.025736704468727112e-01,-2.554532289505004883e-01,-8.919692598283290863e-03,-2.319364249706268311e-01,-1.069849133491516113e-01,-4.088726639747619629e-01,3.261856734752655029e-03,-3.855012357234954834e-01,-4.907569661736488342e-02,4.526169970631599426e-02,1.539162993431091309e-01,-1.455924957990646362e-01,-1.706874221563339233e-01,-2.085278034210205078e-01,-1.367391794919967651e-01,-4.717539250850677490e-02,-2.312109023332595825e-01,-1.040370315313339233e-01,-3.774132346734404564e-03,-1.902954280376434326e-01,-1.087908074259757996e-01,-2.088693380355834961e-01,7.697825133800506592e-02,9.796284884214401245e-02,1.239674538373947144e-01,5.500314384698867798e-02,-3.479623794555664062e-02,-2.845669910311698914e-02,-9.584123641252517700e-02,2.884186245501041412e-02,-4.102473258972167969e-01,-1.342628523707389832e-02,-1.438254863023757935e-01,-2.780073694884777069e-02,1.398998647928237915e-01,7.564343512058258057e-02,-3.216094970703125000e-01,-2.261576205492019653e-01,-1.436422467231750488e-01,-1.940121054649353027e-01,-1.775428205728530884e-01,-9.415499120950698853e-02,8.927368372678756714e-02,1.083642169833183289e-01,-2.360013872385025024e-01,-4.389297589659690857e-02,-2.441649883985519409e-01,-9.368716925382614136e-02,-3.208173066377639771e-02,-7.766665518283843994e-02,-1.020703762769699097e-01,-1.088280528783798218e-01,9.043742716312408447e-02,-1.059386283159255981e-01,1.036659553647041321e-01,-4.507594183087348938e-02,-1.365111488848924637e-02,-1.303942799568176270e-01,-2.195082157850265503e-01,-6.797560025006532669e-03,-1.357527375221252441e-01,4.817363619804382324e-02,-2.770335786044597626e-02,-6.291513144969940186e-02,1.042457371950149536e-01,-3.397809714078903198e-02,-2.112941443920135498e-02,-7.630671560764312744e-02,-2.031602263450622559e-01,-2.787796556949615479e-01,2.063360065221786499e-02,3.014958091080188751e-02
1.534077674150466919e-01,7.176385819911956787e-02,-1.372719854116439819e-01,-1.100217550992965698e-01,-3.368430212140083313e-02,-2.733249589800834656e-02,1.561643183231353760e-01,8.755135536193847656e-02,-5.503821745514869690e-02,-4.668420553207397461e-02,8.885699510574340820e-02,1.990563869476318359e-01,1.139234844595193863e-02,3.510367125272750854e-02,4.493185132741928101e-02,1.693708077073097229e-02,4.242664203047752380e-02,6.521414965391159058e-02,-8.628259599208831787e-02,1.176601871848106384e-01,-5.095474421977996826e-02,1.194001659750938416e-01,-1.519990712404251099e-01,9.850361198186874390e-02,-6.865637749433517456e-02,1.312369555234909058e-01,1.490373909473419189e-02,7.275043986737728119e-03,4.231650382280349731e-02,-4.363191127777099609e-02,5.261822417378425598e-02,-1.006593629717826843e-01,1.534359343349933624e-02,-4.446331411600112915e-02,-3.163646906614303589e-02,-5.574848502874374390e-02,-1.962106972932815552e-01,2.786111831665039062e-02,-4.820886999368667603e-02,-4.689311981201171875e-02,-1.248047649860382080e-01,-6.580243259668350220e-02,7.872033864259719849e-02,-1.641954630613327026e-01,1.850741542875766754e-02,1.717522181570529938e-02,-5.090442672371864319e-02,4.674476571381092072e-03,7.219894975423812866e-02,6.741558760404586792e-02,-5.135178938508033752e-02,-3.446487337350845337e-02,9.868411347270011902e-03,-6.832399964332580566e-02,-4.540358856320381165e-02,3.015192411839962006e-02,6.666500121355056763e-02,9.408345818519592285e-02,-6.533264368772506714e-02,8.509906381368637085e-02,7.921617478132247925e-03,-1.249589398503303528e-01,-9.393994510173797607e-02,-5.733609199523925781e-02,-3.485257923603057861e-02,-5.966487899422645569e-02,1.253165956586599350e-02,-4.861367400735616684e-03,3.077959083020687103e-02,7.855404913425445557e-02,7.149740308523178101e-02,1.080774795264005661e-02,-7.396063208580017090e-02,8.961883932352066040e-02,1.111872047185897827e-01,-8.891954272985458374e-02,5.121070519089698792e-02,-2.424291335046291351e-02,-8.970474451780319214e-02,-3.074424806982278824e-03,-1.204861104488372803e-01,-5.623223632574081421e-02,-3.352482020854949951e-01,-7.506520301103591919e-02,1.503358781337738037e-01,6.019961088895797729e-02,-2.281300425529479980e-01,-1.059955731034278870e-01,-1.818563044071197510e-02,-1.413909643888473511e-01,7.495408505201339722e-02,-2.965174848213791847e-03,1.681513339281082153e-01,1.136028394103050232e-01,-4.303126037120819092e-02,3.937828913331031799e-02,1.201406046748161316e-01,-1.708941757678985596e-01,-1.588869392871856689e-01,-1.462752223014831543e-01
-1.316587626934051514e-01,5.921773239970207214e-02,-3.774046301841735840e-01,1.240010857582092285e-01,-2.372659444808959961e-01,1.243344396352767944e-01,9.245448559522628784e-02,-9.757512807846069336e-02,1.525651216506958008e-01,-4.240136593580245972e-02,9.438173472881317139e-02,-1.476078759878873825e-02,2.994768507778644562e-02,-8.365394920110702515e-02,-1.436068564653396606e-01,4.945501685142517090e-02,1.622660309076309204e-01,-1.041859239339828491e-01,1.551976799964904785e-01,1.763886213302612305e-01,9.907007962465286255e-02,-1.840421706438064575e-01,3.227777406573295593e-02,8.749311417341232300e-02,1.127231866121292114e-01,4.213937744498252869e-02,2.123571746051311493e-02,-1.573412492871284485e-02,-3.289723396301269531e-01,-2.075425237417221069e-01,1.126171424984931946e-01,8.805354125797748566e-03,1.348074525594711304e-01,-9.247276932001113892e-02,-3.883623480796813965e-01,-1.366917788982391357e-01,8.092306554317474365e-02,2.301387041807174683e-01,-1.365601569414138794e-01,2.687437273561954498e-02,1.119825839996337891e-01,1.528370566666126251e-02,-2.911282889544963837e-02,-3.097935020923614502e-01,1.316172629594802856e-01,7.369934767484664917e-02,2.570173740386962891e-01,1.998677104711532593e-01,-5.281668528914451599e-02,-2.464489452540874481e-02,2.099920362234115601e-01,-8.160848170518875122e-02,-1.872462481260299683e-01,-4.071652889251708984e-02,2.636735700070858002e-02,1.545128971338272095e-01,2.118348330259323120e-01,-6.806753575801849365e-02,9.782793931663036346e-03,-9.259419888257980347e-02,-2.988779172301292419e-02,1.189233660697937012e-01,-3.372880220413208008e-01,1.041970178484916687e-01,1.702217757701873779e-02,1.134410053491592407e-01,1.084549054503440857e-01,-3.800880536437034607e-02,1.277444064617156982e-01,1.492118537425994873e-01,-2.977671660482883453e-02,1.465815007686614990e-01,1.113377660512924194e-01,5.461742635816335678e-03,1.185179203748703003e-01,-3.961013630032539368e-02,-1.446853131055831909e-01,1.249793618917465210e-01,2.489527221769094467e-03,2.161790579557418823e-01,8.276554942131042480e-02,-1.993961334228515625e-01,1.493482142686843872e-01,-8.213981986045837402e-02,-8.910425752401351929e-02,3.240950405597686768e-02,-7.505846023559570312e-02,2.777582705020904541e-01,-2.307503372430801392e-01,-2.583548054099082947e-02,-2.622251510620117188e-01,5.491046980023384094e-02,7.603780925273895264e-02,3.455941081047058105e-01,-9.804369509220123291e-02,-1.136017069220542908e-01,6.333903409540653229e-03,5.094090476632118225e-02,6.575322151184082031e-02,2.091820836067199707e-01
9.237223863601684570e-02,-1.524735242128372192e-01,-8.058952167630195618e-03,6.136394664645195007e-02,4.827984794974327087e-02,-4.524584114551544189e-02,-1.185154020786285400e-01,2.013044655323028564e-01,2.187228383263573050e-04,5.591587722301483154e-02,-2.745024161413311958e-03,-3.298955783247947693e-02,-4.570783302187919617e-02,-1.158394441008567810e-01,3.804385289549827576e-02,8.930473588407039642e-03,-3.052167966961860657e-02,8.768767863512039185e-02,-3.751736506819725037e-02,-3.075285553932189941e-01,-1.978502422571182251e-01,1.743270903825759888e-01,-7.756321132183074951e-02,-1.928278952836990356e-01,1.072429642081260681e-01,-1.959715634584426880e-01,1.343387831002473831e-02,-5.715868994593620300e-02,4.125887155532836914e-02,-6.090792268514633179e-02,-3.403885662555694580e-02,4.296212282497435808e-04,6.580767035484313965e-02,-4.816186428070068359e-02,-4.546181485056877136e-02,-8.701495826244354248e-02,-1.887763738632202148e-01,-2.335757166147232056e-01,-8.621142059564590454e-02,-4.426614195108413696e-02,-1.350390911102294922e-01,1.483432017266750336e-02,-2.684823572635650635e-01,9.330523200333118439e-03,-1.206100955605506897e-01,-2.328189462423324585e-01,5.528574064373970032e-02,-9.620381891727447510e-02,-5.933445319533348083e-02,-1.442863643169403076e-01,-4.303495585918426514e-02,1.512157917022705078e-01,6.348736584186553955e-02,-1.394213140010833740e-01,-2.774155698716640472e-02,-5.065729469060897827e-02,-6.295784562826156616e-02,-8.234743028879165649e-03,9.870949201285839081e-03,-2.061895094811916351e-02,-3.520135954022407532e-02,-8.124949038028717041e-02,-1.369728744029998779e-01,-1.477614343166351318e-01,-6.787405908107757568e-02,-1.388625800609588623e-01,-1.968046128749847412e-01,-1.416566073894500732e-01,-5.145207792520523071e-02,-4.116465151309967041e-01,1.263142973184585571e-01,-4.014452919363975525e-02,-5.928456783294677734e-02,-8.708526194095611572e-02,-3.775676786899566650e-01,-1.783606857061386108e-01,5.510531365871429443e-02,-1.211436241865158081e-01,-3.445993065834045410e-01,-1.227845400571823120e-01,-9.078198671340942383e-02,-1.599733680486679077e-01,-1.998443752527236938e-01,-1.978894025087356567e-01,-1.035671308636665344e-01,-1.267058104276657104e-01,1.490674819797277451e-02,-3.014712333679199219e-01,-1.272677332162857056e-01,-2.748429961502552032e-02,-1.739316880702972412e-01,6.719815731048583984e-02,-8.039472252130508423e-02,-1.367086470127105713e-01,1.635998040437698364e-01,2.612855657935142517e-02,-1.150335446000099182e-01,-1.997201591730117798e-01,-1.296371519565582275e-01,-7.351778447628021240e-02
3.603961318731307983e-02,-2.898966670036315918e-01,-2.128399442881345749e-03,4.742726311087608337e-02,5.144901946187019348e-02,4.496210068464279175e-02,3.750947117805480957e-02,-3.371259942650794983e-02,-3.286857530474662781e-02,-1.665140315890312195e-02,-2.211603075265884399e-01,-1.606588065624237061e-01,-9.321755170822143555e-02,1.670348644256591797e-02,6.393984705209732056e-02,-2.160032838582992554e-02,9.161152690649032593e-02,3.782853251323103905e-03,-6.420583277940750122e-02,-9.499243646860122681e-02,-4.224433377385139465e-02,-1.010117530822753906e-01,-7.896411418914794922e-02,-2.312591075897216797e-01,-3.043882548809051514e-02,-1.890066862106323242e-01,-6.367890536785125732e-02,-7.375320792198181152e-02,5.130779370665550232e-02,-1.070317775011062622e-01,6.531385239213705063e-03,5.068038403987884521e-02,2.500547841191291809e-02,3.652160614728927612e-02,1.446912735700607300e-01,-1.755234668962657452e-03,-1.012754142284393311e-01,-1.784676462411880493e-01,-1.086566075682640076e-01,-8.826795220375061035e-02,6.482005119323730469e-02,-6.232789903879165649e-02,-1.595509052276611328e-01,2.353915572166442871e-01,-1.542058587074279785e-01,-9.096149355173110962e-02,2.419782616198062897e-02,4.770429432392120361e-02,-1.490028854459524155e-02,-7.291892170906066895e-02,8.047542651183903217e-04,6.971640139818191528e-02,-1.332499273121356964e-02,-9.565692394971847534e-02,-1.488011330366134644e-01,-4.572394769638776779e-03,-1.095683407038450241e-02,4.797683283686637878e-02,-2.337584644556045532e-02,-1.817792467772960663e-02,-1.561385542154312134e-01,5.817773938179016113e-02,-4.121607542037963867e-02,-3.965412825345993042e-02,4.408702719956636429e-03,-5.697197094559669495e-02,-1.406386792659759521e-01,-2.132402546703815460e-02,8.829656988382339478e-02,-1.295544356107711792e-01,-7.977786660194396973e-02,1.098163612186908722e-02,2.251219749450683594e-02,-8.134519308805465698e-02,-2.405444532632827759e-01,-4.479887709021568298e-02,-2.109624072909355164e-02,-5.180758237838745117e-02,-2.347978353500366211e-01,-7.394136488437652588e-02,9.399243444204330444e-02,-3.172559142112731934e-01,-1.464870870113372803e-01,1.505378354340791702e-02,-1.262345314025878906e-01,-2.392196059226989746e-01,1.566703803837299347e-02,-2.077273130416870117e-01,-2.634515166282653809e-01,5.725562199950218201e-02,-2.465975880622863770e-01,3.223887458443641663e-02,-8.729538321495056152e-02,3.463622415438294411e-03,1.295280903577804565e-01,-6.644029915332794189e-02,-1.740806996822357178e-01,7.726249843835830688e-02,2.478724718093872070e-02,-2.995010465383529663e-02
9.874809533357620239e-02,7.487683743238449097e-02,1.318958699703216553e-01,-2.089417129755020142e-01,-2.841819077730178833e-02,-8.796622604131698608e-02,3.486328199505805969e-02,-1.693191975355148315e-01,7.877478003501892090e-02,-2.832681313157081604e-02,1.083195134997367859e-01,4.927422106266021729e-02,-1.303263008594512939e-01,-2.192328125238418579e-02,-1.349432915449142456e-01,5.770351737737655640e-02,-8.996228873729705811e-02,-1.824344843626022339e-01,-4.179070889949798584e-02,-3.082067705690860748e-02,-3.220361098647117615e-02,5.754682049155235291e-02,7.708153687417507172e-03,-5.150852724909782410e-02,1.046721786260604858e-01,1.044181808829307556e-01,7.040935009717941284e-02,1.498169451951980591e-01,-3.017437458038330078e-01,1.305111050605773926e-01,-3.333000093698501587e-02,-4.493331536650657654e-02,-1.201950535178184509e-01,4.210545122623443604e-02,-6.727166473865509033e-02,-1.967903412878513336e-02,5.447642505168914795e-02,1.468980163335800171e-01,1.867077648639678955e-01,-1.258168965578079224e-01,-6.678389012813568115e-02,1.756541430950164795e-01,5.442240461707115173e-02,3.885105848312377930e-01,4.246194660663604736e-02,9.680205583572387695e-02,1.975192874670028687e-01,6.250134855508804321e-02,-4.409914091229438782e-02,-3.304253518581390381e-02,-7.587172091007232666e-02,-9.886029176414012909e-03,9.291858971118927002e-02,1.539818197488784790e-01,1.339842081069946289e-01,7.340430747717618942e-03,-6.067015230655670166e-02,7.038853317499160767e-02,9.409496188163757324e-02,2.368324901908636093e-03,1.004802733659744263e-01,-1.259955670684576035e-02,-2.140459865331649780e-01,1.346427053213119507e-01,-5.319802835583686829e-02,-1.257248520851135254e-01,1.690941452980041504e-01,5.849772132933139801e-03,-1.243566647171974182e-01,1.257266551256179810e-01,-1.072326861321926117e-02,-3.221863135695457458e-02,-1.049795467406511307e-02,1.225619763135910034e-01,-7.254840433597564697e-02,-5.783687531948089600e-02,-9.760692715644836426e-02,-5.380101129412651062e-02,1.358444392681121826e-01,1.530964523553848267e-01,-4.908813536167144775e-01,1.385271996259689331e-01,-3.367546200752258301e-02,4.617468640208244324e-02,1.130297407507896423e-01,1.354424506425857544e-01,7.849853485822677612e-02,-7.748940587043762207e-02,1.701277494430541992e-01,-1.144966017454862595e-02,1.400221735239028931e-01,-2.984767034649848938e-02,-1.807776279747486115e-02,2.279709726572036743e-01,2.535750716924667358e-02,1.346257142722606659e-02,1.202860772609710693e-01,5.311497487127780914e-03,-2.800877392292022705e-01,2.202861607074737549e-01
8.707679808139801025e-02,1.542544085532426834e-02,-7.898511737585067749e-02,-5.105359852313995361e-02,4.190003126859664917e-02,-9.731379151344299316e-02,-3.840751945972442627e-02,1.656325608491897583e-01,-5.613414570689201355e-02,5.933910980820655823e-02,1.058297529816627502e-01,-1.008091960102319717e-02,7.410595566034317017e-02,-1.085142716765403748e-01,2.794276177883148193e-02,-2.129872515797615051e-02,4.829252511262893677e-02,-3.882375312969088554e-03,-9.680382162332534790e-02,4.501922428607940674e-02,-1.226003281772136688e-02,2.686261013150215149e-02,-3.609742969274520874e-02,7.015415281057357788e-02,9.264786541461944580e-02,2.542679721955209970e-04,6.881424039602279663e-02,1.687685251235961914e-01,-1.518582738935947418e-02,-2.916556596755981445e-02,3.969476372003555298e-02,1.046964675188064575e-01,3.488387539982795715e-02,1.522943079471588135e-01,4.160669445991516113e-02,4.824383184313774109e-02,-2.367389202117919922e-01,6.484756618738174438e-02,-1.244404464960098267e-01,-9.444656223058700562e-02,1.371630094945430756e-02,2.803272753953933716e-02,5.447418242692947388e-02,-7.859142497181892395e-03,4.350655525922775269e-02,3.188288211822509766e-02,4.677190259099006653e-02,8.371884375810623169e-02,-1.418614573776721954e-02,-2.946990355849266052e-02,4.152247682213783264e-02,-4.543523490428924561e-02,9.336873888969421387e-02,-1.158322021365165710e-01,2.058817259967327118e-02,-2.240798436105251312e-02,9.174874983727931976e-03,-4.236673563718795776e-02,-9.992383420467376709e-02,-5.562034621834754944e-02,3.621651232242584229e-02,6.333007663488388062e-02,7.040173560380935669e-02,-8.947096019983291626e-02,-1.012468785047531128e-01,3.357823565602302551e-02,2.836884558200836182e-02,1.732273027300834656e-03,-3.070524334907531738e-02,-1.141112744808197021e-01,-9.550360031425952911e-03,-4.402810242027044296e-03,2.617297507822513580e-02,9.456288069486618042e-02,-2.085883356630802155e-02,-5.822293087840080261e-02,4.653270170092582703e-02,9.479248523712158203e-02,5.254939198493957520e-02,-5.116163566708564758e-02,-3.133176267147064209e-02,-2.773649618029594421e-02,-3.130912482738494873e-01,-5.891580134630203247e-02,3.291051462292671204e-02,8.869335055351257324e-02,-1.694266200065612793e-01,-5.155847221612930298e-02,8.190978318452835083e-02,7.859554886817932129e-02,-1.564456522464752197e-01,-1.243382692337036133e-01,2.964916452765464783e-02,-4.144021868705749512e-02,-3.796245530247688293e-02,9.301085770130157471e-02,1.394473910331726074e-01,-2.858451008796691895e-02,-1.871235519647598267e-01,3.388002747669816017e-03
1.012158952653408051e-02,4.472270607948303223e-02,2.899673581123352051e-01,-9.528849273920059204e-02,-3.543975576758384705e-02,-9.296522289514541626e-02,1.405629664659500122e-01,5.051895976066589355e-02,-2.836008071899414062e-01,6.336880475282669067e-02,-3.848993405699729919e-02,5.274894647300243378e-03,-3.424773812294006348e-01,-2.335906773805618286e-02,1.790194213390350342e-01,1.017039939761161804e-01,1.976249925792217255e-02,-5.041875317692756653e-02,-2.569267712533473969e-02,1.524547487497329712e-01,-2.928653359413146973e-01,-2.568181417882442474e-02,-2.485094815492630005e-01,1.195265054702758789e-01,4.081998020410537720e-02,1.008809879422187805e-01,1.310379654169082642e-01,-2.477307338267564774e-03,7.070126384496688843e-02,-1.321420352905988693e-02,-9.063304215669631958e-02,-8.745976537466049194e-02,2.998603694140911102e-02,-4.456251859664916992e-02,1.157579645514488220e-01,-2.293707728385925293e-01,5.030076578259468079e-02,7.781988382339477539e-02,9.436104446649551392e-02,-3.204563558101654053e-01,-1.910275220870971680e-01,2.001214772462844849e-01,9.551263600587844849e-02,-3.553636372089385986e-03,6.362620741128921509e-02,7.435372471809387207e-02,3.911472484469413757e-02,-1.240429952740669250e-01,-2.712890505790710449e-01,-7.672843057662248611e-03,-4.518258571624755859e-02,-7.634276896715164185e-02,3.816809505224227905e-02,-1.278026867657899857e-02,6.423056870698928833e-02,3.717957064509391785e-02,-7.202699035406112671e-02,1.423609536141157150e-02,-1.002764254808425903e-01,1.080430597066879272e-01,1.963903754949569702e-01,-9.565066546201705933e-02,-8.286488056182861328e-02,-1.814074665307998657e-01,-1.407953947782516479e-01,-3.028673827648162842e-01,2.179235368967056274e-01,1.335828304290771484e-01,-1.575065590441226959e-02,1.506476849317550659e-01,-8.092314004898071289e-02,-1.140986196696758270e-02,6.580259650945663452e-02,-4.440650343894958496e-02,1.509619057178497314e-01,-1.479218751192092896e-01,8.419508114457130432e-03,-4.849097505211830139e-02,1.599994748830795288e-01,-9.184169024229049683e-02,1.466283109039068222e-02,1.517726033926010132e-01,-2.384624779224395752e-01,-3.776168823242187500e-01,-1.147260591387748718e-01,7.948485016822814941e-02,4.626301303505897522e-02,4.062613844871520996e-02,2.570593953132629395e-01,-4.333205148577690125e-02,8.972261846065521240e-02,-4.573026299476623535e-02,2.646808326244354248e-02,7.122674584388732910e-02,-1.159311830997467041e-01,4.850240796804428101e-02,7.954685389995574951e-02,-2.744518518447875977e-01,9.814376384019851685e-02,3.708706796169281006e-02
1.274489611387252808e-01,1.790850982069969177e-02,-9.075853228569030762e-02,-9.466167539358139038e-02,7.052083313465118408e-02,3.182252123951911926e-02,-6.801946461200714111e-02,2.377659082412719727e-02,5.786343663930892944e-02,2.897075936198234558e-02,4.600960761308670044e-02,-2.182866260409355164e-02,3.199695795774459839e-02,-5.013785883784294128e-02,-1.895692199468612671e-02,2.290352247655391693e-02,-3.251395002007484436e-02,2.745652012526988983e-02,2.209076890721917152e-03,-1.592956297099590302e-02,3.475114330649375916e-02,3.904826194047927856e-02,1.060051769018173218e-01,8.262558281421661377e-02,1.642472296953201294e-02,3.034124709665775299e-02,-7.849813997745513916e-02,8.092213422060012817e-02,8.652488142251968384e-02,-3.956823796033859253e-02,-1.236469596624374390e-01,1.147462055087089539e-02,8.129265904426574707e-02,1.696780323982238770e-02,-2.719115279614925385e-02,1.087703704833984375e-01,5.996594578027725220e-02,2.240365929901599884e-02,6.936138123273849487e-02,-4.712099954485893250e-02,1.322316825389862061e-01,-1.111855432391166687e-01,1.820404268801212311e-02,-5.882561672478914261e-03,9.491344541311264038e-02,4.845748469233512878e-02,-1.243610680103302002e-01,3.916781395673751831e-02,1.528320312500000000e-01,-5.919498577713966370e-02,3.906431049108505249e-02,9.126953035593032837e-02,-1.360937859863042831e-02,3.824290633201599121e-02,8.804300427436828613e-02,-5.867176875472068787e-02,7.679259032011032104e-02,-5.338294804096221924e-02,5.076004564762115479e-02,1.025233939290046692e-01,-2.596301585435867310e-02,-1.751355454325675964e-02,-2.491727657616138458e-02,1.637315750122070312e-02,-2.054246142506599426e-02,7.025934755802154541e-03,-3.649629279971122742e-02,1.150085255503654480e-01,-4.386392980813980103e-02,5.972364172339439392e-02,-6.381551921367645264e-02,-5.480733513832092285e-02,-4.471886903047561646e-02,3.008403256535530090e-02,-4.618490114808082581e-02,4.187938570976257324e-02,4.770355299115180969e-02,-2.380322897806763649e-03,-4.254966974258422852e-02,-1.258456110954284668e-01,1.686482578516006470e-01,8.060152083635330200e-02,1.331913378089666367e-02,-3.278179839253425598e-02,-7.089690864086151123e-02,-3.980711102485656738e-02,2.028778009116649628e-02,-2.722982876002788544e-02,8.001604676246643066e-02,2.357030473649501801e-02,7.489229738712310791e-02,-9.551056474447250366e-02,1.105103045701980591e-01,-6.634882092475891113e-02,-2.708295546472072601e-02,-1.136623043566942215e-02,-4.553531855344772339e-02,6.129423901438713074e-02,1.031012535095214844e-01,1.167281493544578552e-01
-4.116211086511611938e-02,2.942502312362194061e-02,-1.601011841557919979e-03,-7.799539715051651001e-02,-4.922809079289436340e-02,-7.195572555065155029e-02,5.043341219425201416e-02,2.191774174571037292e-02,6.512528657913208008e-02,9.796883910894393921e-02,4.593128710985183716e-02,-7.018812745809555054e-02,8.986208587884902954e-02,-1.216520145535469055e-01,1.327074915170669556e-01,6.197635829448699951e-02,5.064304172992706299e-02,-6.067796424031257629e-02,2.441158145666122437e-02,8.709979802370071411e-02,6.274469941854476929e-02,1.199941188097000122e-01,2.943502925336360931e-02,-1.109889429062604904e-02,-3.063509473577141762e-03,-5.915409699082374573e-02,-1.808330602943897247e-02,9.112463891506195068e-02,1.145483180880546570e-01,-5.751679837703704834e-02,2.436146140098571777e-02,1.088935211300849915e-01,-1.183956116437911987e-02,-2.133405208587646484e-02,-6.036685779690742493e-02,-1.048054918646812439e-02,-6.570643186569213867e-02,-1.380408108234405518e-01,3.138566389679908752e-02,-2.817735448479652405e-02,7.021936029195785522e-02,-9.343080967664718628e-02,3.034962154924869537e-02,-2.051440812647342682e-02,-4.317444935441017151e-02,5.563567578792572021e-02,-3.540655598044395447e-02,-1.471722219139337540e-02,1.394220739603042603e-01,-8.561810106039047241e-02,-6.401931494474411011e-02,1.136501133441925049e-01,5.039216950535774231e-02,-1.720397546887397766e-02,-2.310557104647159576e-02,-1.084801107645034790e-01,8.884830772876739502e-02,-6.183368619531393051e-03,3.291296586394309998e-02,-9.678936749696731567e-02,-2.873560646548867226e-03,-4.123932495713233948e-02,6.493023037910461426e-02,4.067045077681541443e-02,1.251782476902008057e-01,1.416681110858917236e-01,1.377056469209492207e-03,-1.465580426156520844e-02,5.036850646138191223e-02,-5.867938511073589325e-03,1.010546088218688965e-02,-8.143278211355209351e-02,5.012235045433044434e-02,6.615476310253143311e-02,1.000798940658569336e-01,-3.317132219672203064e-02,-4.037359356880187988e-02,-1.830185949802398682e-02,7.529376447200775146e-02,-3.679663175716996193e-03,1.077832281589508057e-01,7.646074146032333374e-02,7.158578187227249146e-02,-2.465434744954109192e-02,1.898120529949665070e-02,1.763364113867282867e-02,4.418951272964477539e-02,-1.247443631291389465e-01,6.029307469725608826e-02,-2.774921059608459473e-02,8.680975437164306641e-02,-5.465073511004447937e-02,8.252133429050445557e-02,-4.288000240921974182e-02,4.189125820994377136e-02,9.496493637561798096e-02,-5.234579741954803467e-02,1.265934109687805176e-01,-1.390367466956377029e-02,4.048366099596023560e-03
-1.030781790614128113e-01,1.527590751647949219e-01,8.735649287700653076e-02,-6.074640527367591858e-02,-1.216939240694046021e-01,6.014586612582206726e-02,-9.444906562566757202e-02,-1.348959207534790039e-01,4.464053735136985779e-02,-3.358531370759010315e-02,-2.049604430794715881e-02,5.821473430842161179e-03,-8.651844412088394165e-02,-1.805639453232288361e-02,5.666200071573257446e-02,-1.225034296512603760e-01,-4.185243323445320129e-02,-1.417387872934341431e-01,-6.025960296392440796e-02,8.592420071363449097e-02,8.885229378938674927e-02,-1.140501257032155991e-02,-8.255302906036376953e-02,-7.646341808140277863e-03,2.137901037931442261e-01,9.567731618881225586e-02,-3.582428023219108582e-02,1.338065117597579956e-01,-3.749506771564483643e-01,2.240985929965972900e-01,2.499148435890674591e-02,-2.380333654582500458e-02,-3.876442322507500648e-03,1.576654165983200073e-01,-1.234821081161499023e-01,-6.645926833152770996e-02,-4.777178913354873657e-02,1.865517497062683105e-01,-1.452762037515640259e-01,-2.099945675581693649e-03,2.495385706424713135e-02,1.526602655649185181e-01,1.296103894710540771e-01,1.721221357583999634e-01,-6.760773062705993652e-02,1.217322647571563721e-01,3.500024378299713135e-01,4.154014214873313904e-02,-5.915796011686325073e-02,1.532902121543884277e-01,-1.290198415517807007e-01,-1.256904751062393188e-01,5.443686968646943569e-04,1.197835803031921387e-01,-2.580019086599349976e-02,1.048520579934120178e-02,1.070833131670951843e-01,4.321616142988204956e-02,8.721394836902618408e-02,1.291490346193313599e-01,-2.433519810438156128e-02,1.197253912687301636e-02,-2.641721367835998535e-01,1.176318153738975525e-01,5.935966968536376953e-02,-1.245553195476531982e-01,1.100004985928535461e-01,-6.166643649339675903e-02,2.434625849127769470e-02,9.075617790222167969e-02,1.371120363473892212e-01,-1.139116361737251282e-01,-9.483718127012252808e-02,2.168983966112136841e-01,7.141691446304321289e-02,2.426691539585590363e-02,3.104473091661930084e-02,-8.358443528413772583e-02,1.461483389139175415e-01,1.334069967269897461e-01,-4.272612631320953369e-01,1.158459112048149109e-01,-2.210334688425064087e-01,-8.027216047048568726e-02,2.266731113195419312e-01,5.100433528423309326e-02,1.529820077121257782e-02,4.766702279448509216e-02,2.113472968339920044e-01,-2.503802999854087830e-02,1.119026914238929749e-01,1.761286333203315735e-02,2.188036590814590454e-02,2.747051417827606201e-01,-1.596723794937133789e-01,5.153724178671836853e-02,-5.437074974179267883e-02,1.245997194200754166e-02,-2.698435783386230469e-01,1.319555044174194336e-01
2.560347616672515869e-01,2.208495512604713440e-02,-5.268305540084838867e-02,-9.125653654336929321e-02,-2.292227745056152344e-02,-2.174258604645729065e-02,1.184502020478248596e-01,8.755957707762718201e-03,1.603761315345764160e-01,1.582623720169067383e-01,2.505860850214958191e-02,-7.248928304761648178e-03,1.341298571787774563e-03,-6.965459324419498444e-03,-5.540645495057106018e-02,-5.762545391917228699e-02,3.353646397590637207e-02,1.149137392640113831e-01,-7.435358315706253052e-02,-4.668857157230377197e-02,-1.111169606447219849e-01,9.530954062938690186e-02,-1.247994825243949890e-01,6.892983615398406982e-02,2.007770538330078125e-01,5.106138996779918671e-03,-7.049293816089630127e-02,1.491800546646118164e-01,-5.552277341485023499e-02,1.027433425188064575e-01,5.532262101769447327e-02,-1.831811107695102692e-02,2.843817509710788727e-02,5.810444802045822144e-02,1.014610156416893005e-01,1.189158186316490173e-01,-1.425927728414535522e-01,7.629089057445526123e-02,-1.804582923650741577e-01,6.709999591112136841e-02,-8.302962779998779297e-02,5.437396466732025146e-03,-1.304249744862318039e-02,-2.696355879306793213e-01,9.893835335969924927e-02,-5.973800644278526306e-02,4.211398959159851074e-02,1.473419517278671265e-01,-6.112066283822059631e-02,-1.246255934238433838e-01,9.734551422297954559e-03,7.613925635814666748e-02,1.044453755021095276e-01,-2.962667122483253479e-02,5.533788725733757019e-02,-1.206145361065864563e-01,8.731283247470855713e-02,8.876352570950984955e-03,2.946244552731513977e-02,1.493996381759643555e-01,6.529726833105087280e-02,-6.699079275131225586e-02,-7.173397392034530640e-02,1.890310645103454590e-02,-2.824061736464500427e-02,5.559288710355758667e-02,5.136601999402046204e-02,-2.505201846361160278e-02,7.027343660593032837e-02,8.165271580219268799e-02,1.447249650955200195e-01,-5.842779949307441711e-02,2.555215544998645782e-02,4.659586399793624878e-02,-4.467347636818885803e-02,-1.028016060590744019e-01,-8.602126501500606537e-03,-2.438073977828025818e-03,1.244669593870639801e-02,2.162150666117668152e-02,7.013582438230514526e-02,-3.356613963842391968e-02,-5.379638075828552246e-01,-1.381385177373886108e-01,1.061256527900695801e-01,-3.331716870889067650e-03,-6.099997833371162415e-02,-4.463271424174308777e-02,-4.744361713528633118e-02,-2.719144895672798157e-02,-8.157164603471755981e-02,-1.724943667650222778e-01,4.153994098305702209e-02,-2.741688862442970276e-02,-3.107374906539916992e-02,-5.420068651437759399e-02,7.330482453107833862e-02,-6.527741253376007080e-02,-9.544914960861206055e-02,-1.191107109189033508e-01
1.113127842545509338e-01,9.415272623300552368e-02,3.077859580516815186e-01,-1.294772475957870483e-01,-1.506609469652175903e-02,-9.605538100004196167e-02,1.238870546221733093e-01,7.453252375125885010e-02,-3.087093234062194824e-01,6.564890593290328979e-02,7.066144794225692749e-02,6.744105368852615356e-02,-3.251172602176666260e-01,1.179933473467826843e-01,6.946422904729843140e-02,1.280126273632049561e-01,1.482924353331327438e-02,-2.576742134988307953e-02,-2.336367731913924217e-03,8.354667574167251587e-02,-2.030546665191650391e-01,2.936702407896518707e-02,-2.878099977970123291e-01,1.227866485714912415e-01,6.691370904445648193e-02,-5.655182525515556335e-02,1.310413777828216553e-01,-1.045617833733558655e-01,6.721787154674530029e-02,9.797513484954833984e-02,1.565816551446914673e-01,-6.883677095174789429e-02,-6.513144820928573608e-02,-1.173723042011260986e-01,1.408118605613708496e-01,-2.064504027366638184e-01,-6.546553969383239746e-02,9.866365045309066772e-02,-6.231835111975669861e-02,-3.225205838680267334e-01,-2.158030718564987183e-01,1.709503382444381714e-01,2.951398678123950958e-02,1.215660385787487030e-02,-3.602524101734161377e-02,-1.557893026620149612e-02,6.498397141695022583e-02,-2.007014155387878418e-01,-2.295703589916229248e-01,4.014150425791740417e-02,1.942953094840049744e-02,-4.534713551402091980e-02,9.402386844158172607e-03,-5.294152349233627319e-02,1.733905971050262451e-01,9.106557816267013550e-02,-1.294603496789932251e-01,-3.051495179533958435e-02,-3.575489670038223267e-02,6.231151893734931946e-02,1.514229923486709595e-01,-9.437367320060729980e-02,2.793894894421100616e-02,-4.053952172398567200e-02,-1.309987753629684448e-01,-3.296335041522979736e-01,1.791169643402099609e-01,2.067413330078125000e-01,-1.118927076458930969e-01,1.814206391572952271e-01,-7.483804225921630859e-02,2.014415711164474487e-02,5.502484366297721863e-02,-7.567266374826431274e-02,1.355808973312377930e-01,-1.165114715695381165e-01,-1.151045132428407669e-02,1.081055328249931335e-01,1.964627057313919067e-01,5.003954842686653137e-02,4.475838318467140198e-02,1.619354337453842163e-01,-3.442306816577911377e-01,-3.906663954257965088e-01,-9.044089354574680328e-03,1.440144032239913940e-01,-1.548451483249664307e-01,8.371845819056034088e-03,3.335050046443939209e-01,9.380514919757843018e-02,4.616971313953399658e-02,-5.399200692772865295e-02,-7.712358981370925903e-02,3.405593708157539368e-02,-6.682159006595611572e-02,-8.339013904333114624e-02,1.002284958958625793e-01,-2.004947215318679810e-01,1.660229265689849854e-02,1.345216482877731323e-01
-6.924220323562622070e-01,-1.215841695666313171e-01,3.283364772796630859e-01,-3.226082623004913330e-01,-3.868010044097900391e-01,3.602057695388793945e-01,-5.305545032024383545e-02,-6.961339116096496582e-01,-2.577855885028839111e-01,-4.412187039852142334e-01,-3.386246562004089355e-01,-4.064266085624694824e-01,-9.807805716991424561e-02,2.482409328222274780e-01,-3.658939599990844727e-01,-2.684544026851654053e-01,7.531306147575378418e-02,-3.119342923164367676e-01,2.745269834995269775e-01,8.803457021713256836e-02,-1.743979305028915405e-01,-1.114918142557144165e-01,-7.153414189815521240e-02,5.333627387881278992e-02,-5.147988200187683105e-01,-9.590166062116622925e-02,5.815862491726875305e-02,-3.881408572196960449e-01,-3.755429387092590332e-01,-2.369453012943267822e-01,4.146430790424346924e-01,1.649111136794090271e-02,-4.689533114433288574e-01,-2.239887863397598267e-01,-8.000919818878173828e-01,-3.092962801456451416e-01,7.581355422735214233e-02,-7.752553373575210571e-02,4.776886701583862305e-01,-2.949873507022857666e-01,-4.155243337154388428e-01,-3.183288574218750000e-01,-1.476731151342391968e-01,-3.248563110828399658e-01,1.289368569850921631e-01,1.225385516881942749e-01,2.451569437980651855e-01,-1.105877980589866638e-01,9.065336547791957855e-03,-2.307787090539932251e-01,-1.343971192836761475e-01,-2.941751778125762939e-01,6.322213448584079742e-03,7.623908668756484985e-02,9.887830913066864014e-02,3.801628947257995605e-01,-2.134769409894943237e-01,-3.676615953445434570e-01,-3.930046856403350830e-01,3.887334838509559631e-02,-2.932527363300323486e-01,1.943038254976272583e-01,6.061737239360809326e-02,5.697906762361526489e-02,-4.991104602813720703e-01,-2.494221366941928864e-02,-5.541517585515975952e-02,5.497570335865020752e-02,-6.679932475090026855e-01,-2.029922045767307281e-02,-1.551025658845901489e-01,3.254122734069824219e-01,-1.626501232385635376e-02,-2.577498853206634521e-01,-1.600448638200759888e-01,3.122247457504272461e-01,-2.149259299039840698e-01,-1.264640837907791138e-01,-1.650831401348114014e-01,-1.298022419214248657e-01,-7.709168642759323120e-02,-1.058318242430686951e-01,4.100138843059539795e-01,-1.358229517936706543e-01,-2.229048162698745728e-01,-5.600841343402862549e-02,-1.246618106961250305e-01,-1.222977042198181152e-01,-2.213708907365798950e-01,4.135912954807281494e-01,2.442776262760162354e-01,-1.542006880044937134e-01,3.236785158514976501e-02,2.061265856027603149e-01,7.157532572746276855e-01,-7.934392094612121582e-01,-2.697860300540924072e-01,-3.899982869625091553e-01,-1.596365571022033691e-01,2.965319156646728516e-01
-9.630166459828615189e-04,4.080786556005477905e-02,-2.690489590167999268e-02,-5.731513723731040955e-02,1.398870628327131271e-02,-1.001518592238426208e-01,2.424527658149600029e-03,8.617510087788105011e-03,-1.652548834681510925e-02,-6.810237467288970947e-02,6.916409358382225037e-03,8.762149512767791748e-02,8.933353424072265625e-02,4.178610630333423615e-03,-2.949513308703899384e-02,-3.796584159135818481e-02,-3.121696412563323975e-02,8.578635752201080322e-02,-8.655641227960586548e-02,9.082113206386566162e-02,5.381708964705467224e-02,3.934628143906593323e-02,1.199627742171287537e-01,4.704235494136810303e-02,-4.918816685676574707e-02,-2.661259146407246590e-03,-5.070066824555397034e-02,-5.148208700120449066e-03,8.463601022958755493e-02,6.744913756847381592e-02,5.947799235582351685e-02,1.192656755447387695e-01,-5.291694775223731995e-02,-6.866733729839324951e-02,9.262119978666305542e-02,5.267169326543807983e-03,1.243623532354831696e-02,-9.157396107912063599e-02,2.254520170390605927e-02,5.736762285232543945e-02,1.428051851689815521e-02,-8.079663664102554321e-02,8.872248977422714233e-02,1.923710666596889496e-02,-1.228760520461946726e-04,8.123487979173660278e-02,-5.455866828560829163e-02,2.238236740231513977e-02,3.074206039309501648e-02,-6.563792377710342407e-02,9.125124663114547729e-02,1.033931598067283630e-01,6.776828318834304810e-02,4.230526462197303772e-02,3.523010388016700745e-02,2.595016546547412872e-02,-5.959803611040115356e-02,2.470785938203334808e-02,1.026773229241371155e-01,-1.038923561573028564e-01,5.187147483229637146e-02,3.113043308258056641e-02,-3.004369512200355530e-02,6.957624852657318115e-02,3.122626803815364838e-02,1.966360770165920258e-02,3.523641079664230347e-02,1.178596615791320801e-01,-3.673237189650535583e-02,-5.482760071754455566e-02,3.841292113065719604e-03,-4.327262565493583679e-02,1.177068501710891724e-01,5.679737403988838196e-02,-7.765523344278335571e-02,3.419429436326026917e-02,-3.233818709850311279e-02,1.121105253696441650e-02,1.243200618773698807e-02,1.983809284865856171e-02,4.713843390345573425e-02,1.153970360755920410e-01,-7.904682308435440063e-02,1.013774871826171875e-01,2.423477172851562500e-02,1.890374906361103058e-02,-5.596690252423286438e-02,-1.279427856206893921e-01,-4.254039749503135681e-02,3.909224271774291992e-02,-1.484154816716909409e-02,8.249774575233459473e-02,-6.514305714517831802e-03,-2.094127051532268524e-02,2.403714279353152961e-05,9.321466833353042603e-02,6.067829206585884094e-02,1.909521035850048065e-02,4.506709054112434387e-02,3.947180137038230896e-02
9.551691263914108276e-02,-8.217822760343551636e-02,-1.257832497358322144e-01,-1.939030922949314117e-02,7.318694144487380981e-02,-1.705794478766620159e-03,-1.695302315056324005e-02,-9.571712464094161987e-03,1.084328815340995789e-01,-1.902695745229721069e-03,6.945973634719848633e-02,-3.944566100835800171e-02,1.860478334128856659e-02,3.691086545586585999e-02,3.732519596815109253e-02,5.415856093168258667e-02,-1.038816478103399277e-02,2.931269258260726929e-02,4.067013412714004517e-02,-8.385733515024185181e-02,6.931203603744506836e-02,7.402302324771881104e-02,1.932093687355518341e-02,-1.033039484173059464e-02,-1.006696894764900208e-01,4.060040786862373352e-02,1.183123886585235596e-01,4.811156913638114929e-02,7.608023285865783691e-02,1.089684218168258667e-01,3.966259211301803589e-02,3.299407660961151123e-02,1.129132658243179321e-01,1.125995814800262451e-01,2.068920731544494629e-01,2.377646788954734802e-02,-4.956712201237678528e-02,2.839576639235019684e-02,-1.413680613040924072e-01,3.114104084670543671e-02,2.425916027277708054e-03,2.436277084052562714e-02,1.277628839015960693e-01,-6.920704990625381470e-02,2.074034139513969421e-02,1.821947284042835236e-02,2.289217337965965271e-02,1.576802134513854980e-01,1.237376704812049866e-01,-1.371610313653945923e-01,-3.116540983319282532e-02,-1.137545425444841385e-02,-8.186212927103042603e-02,-1.861937530338764191e-02,-7.618328183889389038e-02,-1.204969733953475952e-01,8.308631181716918945e-02,9.612730890512466431e-02,2.220586407929658890e-03,4.725014441646635532e-04,-3.715815022587776184e-02,2.954371273517608643e-02,7.174834143370389938e-03,8.157520554959774017e-03,4.055533185601234436e-02,-2.142885699868202209e-02,-5.618954822421073914e-02,4.863090871367603540e-04,1.027953252196311951e-01,6.674838066101074219e-02,4.351863637566566467e-02,2.099482342600822449e-02,-9.377530217170715332e-02,4.270951449871063232e-02,-6.465034186840057373e-02,1.045318990945816040e-01,1.017069891095161438e-01,9.383364766836166382e-02,6.559946388006210327e-02,-4.739019274711608887e-02,1.023268252611160278e-01,1.403525937348604202e-02,-2.582725584506988525e-01,4.230716452002525330e-02,8.216284960508346558e-02,7.255387306213378906e-02,-1.669121719896793365e-02,-8.819948136806488037e-02,-5.013648420572280884e-02,-1.147341877222061157e-01,-5.661936942487955093e-03,-7.555928081274032593e-02,9.690933674573898315e-02,-6.333108246326446533e-02,-1.009710654616355896e-01,4.061264917254447937e-02,1.217274926602840424e-02,-4.324087128043174744e-02,2.284052036702632904e-02,-2.664060564711689949e-03
8.707188814878463745e-02,8.816456049680709839e-02,-5.385579541325569153e-02,-3.099475800991058350e-02,8.771311491727828979e-02,2.730759419500827789e-02,3.846439532935619354e-03,-4.950284585356712341e-02,-2.593785896897315979e-02,-7.073000073432922363e-03,-4.364779591560363770e-02,7.107295095920562744e-02,3.415386890992522240e-03,1.623190939426422119e-02,6.640786677598953247e-02,3.761561587452888489e-02,-2.110417746007442474e-02,-1.433649752289056778e-02,2.260921709239482880e-02,7.755780965089797974e-02,3.326932340860366821e-02,4.077349603176116943e-02,-6.240063346922397614e-03,-6.442272663116455078e-02,-4.419598728418350220e-02,4.195632413029670715e-02,-5.950377508997917175e-02,-3.121811524033546448e-02,2.856227941811084747e-02,3.512784605845808983e-03,-4.551615566015243530e-02,1.310446299612522125e-02,2.635531825944781303e-03,6.534631550312042236e-02,-6.667154282331466675e-02,5.359619855880737305e-02,-2.625620067119598389e-01,2.138936705887317657e-02,-7.970722019672393799e-02,-2.486610971391201019e-02,9.689601138234138489e-04,7.000178098678588867e-02,-4.010029882192611694e-02,-3.136696293950080872e-02,4.257208108901977539e-02,-4.453302547335624695e-02,7.357519119977951050e-02,-1.240211538970470428e-02,-8.021495491266250610e-02,2.964851818978786469e-02,-7.170977443456649780e-02,7.807396352291107178e-03,5.335355177521705627e-02,-1.189318746328353882e-01,-5.506427958607673645e-02,-2.097326330840587616e-02,1.096680015325546265e-01,-5.388998985290527344e-02,-3.339544683694839478e-02,8.859703689813613892e-02,5.171483382582664490e-02,4.153190925717353821e-02,-3.470223024487495422e-02,5.521435290575027466e-02,-1.102997288107872009e-01,-7.764624059200286865e-02,1.533687412738800049e-01,1.324364542961120605e-01,-2.992636058479547501e-03,-4.468640685081481934e-02,6.567922886461019516e-03,-5.340450629591941833e-02,-9.305366314947605133e-03,1.792617440223693848e-01,8.074017241597175598e-03,3.483243519440293312e-03,7.692518085241317749e-02,6.707503646612167358e-02,9.246860444545745850e-02,1.025415584444999695e-01,-7.026644796133041382e-02,9.919108450412750244e-02,-2.252310514450073242e-01,-1.136971414089202881e-01,1.403157562017440796e-01,1.254565268754959106e-01,-1.572881639003753662e-01,8.179899305105209351e-02,-4.684722051024436951e-02,-6.321741640567779541e-02,-3.317456692457199097e-02,-1.300650835037231445e-02,1.135308742523193359e-01,8.497907966375350952e-02,-7.325141876935958862e-02,4.210428893566131592e-02,5.750714614987373352e-02,-1.798989325761795044e-01,-9.019278734922409058e-02,-1.687523871660232544e-01
-1.691882461309432983e-01,-2.996168471872806549e-02,-3.204754292964935303e-01,5.988425388932228088e-02,-2.383349388837814331e-01,1.095258444547653198e-01,1.437280923128128052e-01,-1.414101421833038330e-01,1.335297524929046631e-01,-8.113251626491546631e-02,5.802692100405693054e-02,5.624957010149955750e-02,1.374226361513137817e-01,-8.880043029785156250e-02,-2.521709799766540527e-01,4.280301555991172791e-02,2.019291818141937256e-01,-2.232121117413043976e-02,9.982755780220031738e-02,1.899355053901672363e-01,8.233650773763656616e-02,-2.477040439844131470e-01,-8.715562522411346436e-02,8.799005299806594849e-02,8.633885532617568970e-02,2.063974179327487946e-02,5.385727435350418091e-02,6.748505681753158569e-02,-3.192443847656250000e-01,-2.562294304370880127e-01,1.123028844594955444e-01,-4.077865928411483765e-02,1.202792003750801086e-01,2.203272469341754913e-02,-2.696507573127746582e-01,3.226318210363388062e-02,1.107703596353530884e-01,2.525386810302734375e-01,-2.055354714393615723e-01,4.653446003794670105e-02,3.142408328130841255e-03,-2.733705006539821625e-02,-3.947799280285835266e-02,-3.350726962089538574e-01,9.502629190683364868e-02,1.142757236957550049e-01,2.507637739181518555e-01,2.036331892013549805e-01,3.540590405464172363e-02,-4.049804806709289551e-02,1.473080962896347046e-01,-8.107972890138626099e-02,-1.734829246997833252e-01,5.420188233256340027e-02,-5.587656795978546143e-02,1.067038625478744507e-01,2.115930169820785522e-01,-1.577740609645843506e-01,-1.242608651518821716e-01,3.890202566981315613e-02,1.194426789879798889e-01,7.848896831274032593e-02,-3.567286729812622070e-01,1.185007672756910324e-02,4.353845119476318359e-02,-8.272711187601089478e-02,1.307500153779983521e-01,1.384061723947525024e-01,1.740161329507827759e-01,6.597298197448253632e-03,3.542830701917409897e-03,-6.873611826449632645e-03,1.071976572275161743e-01,1.017171889543533325e-01,5.776868388056755066e-02,3.867386654019355774e-02,-1.001767218112945557e-01,4.762814566493034363e-02,-1.096737980842590332e-01,2.054701596498489380e-01,2.430550381541252136e-02,-1.870134770870208740e-01,5.550474673509597778e-02,1.059658378362655640e-01,-1.118619740009307861e-01,4.565071314573287964e-02,-3.818903351202607155e-03,2.455718815326690674e-01,-1.931893825531005859e-01,8.837854862213134766e-02,-2.803704738616943359e-01,1.543027907609939575e-01,-2.497977577149868011e-02,3.507207632064819336e-01,-1.950569897890090942e-01,-1.840461976826190948e-02,-8.408336341381072998e-02,1.155608985573053360e-02,3.042575903236865997e-02,2.835367321968078613e-01
1.614982038736343384e-01,5.361223965883255005e-02,6.448110938072204590e-02,-3.326289355754852295e-02,-2.886683866381645203e-02,-2.307267487049102783e-02,1.710969507694244385e-01,7.563892286270856857e-03,-1.150863245129585266e-01,4.103457182645797729e-02,7.105296105146408081e-02,1.039025336503982544e-01,-7.956038415431976318e-02,-3.036331944167613983e-02,6.591533869504928589e-02,1.053966358304023743e-01,7.156190276145935059e-02,7.029709219932556152e-02,-3.165800496935844421e-02,-1.436462905257940292e-02,-1.839856356382369995e-01,9.238733351230621338e-02,-1.180699020624160767e-01,-3.093525767326354980e-03,1.900277733802795410e-01,3.929305449128150940e-02,8.301014080643653870e-03,1.610153466463088989e-01,4.590513557195663452e-02,-6.765867769718170166e-02,3.411079570651054382e-02,-1.703443750739097595e-02,1.913860253989696503e-02,1.327682733535766602e-01,6.405698508024215698e-02,-8.504738658666610718e-02,-3.261587917804718018e-01,8.331446349620819092e-02,-1.589371077716350555e-02,-9.682112187147140503e-02,-1.684238910675048828e-01,1.089478433132171631e-01,1.560952216386795044e-01,-1.155526041984558105e-01,1.503513455390930176e-01,1.677595525979995728e-01,1.419974267482757568e-01,1.943578571081161499e-01,-1.160584464669227600e-01,-1.143222004175186157e-01,2.598508074879646301e-02,-4.850784782320261002e-03,5.809525400400161743e-02,-2.752824127674102783e-01,1.114964485168457031e-02,3.607584629207849503e-03,-7.779701799154281616e-02,6.098906323313713074e-02,8.909155614674091339e-03,1.198886856436729431e-01,1.429933756589889526e-01,2.686711773276329041e-02,-2.128309607505798340e-01,-1.771241128444671631e-01,-7.370009273290634155e-02,-2.370383888483047485e-01,7.065755128860473633e-02,9.455970674753189087e-02,1.656981557607650757e-02,9.897812455892562866e-02,9.363361448049545288e-02,6.382496654987335205e-02,3.462274791672825813e-03,1.144799441099166870e-01,-1.522296108305454254e-02,-4.304871857166290283e-01,4.239732772111892700e-02,7.477238774299621582e-02,-6.603405624628067017e-02,-5.022044479846954346e-02,-7.316602766513824463e-02,-4.244137555360794067e-03,-5.750215649604797363e-01,-3.262789845466613770e-01,-1.141033601015806198e-02,8.687644265592098236e-03,3.510095924139022827e-02,-1.537817120552062988e-01,8.904636651277542114e-02,-8.541031926870346069e-02,3.448724513873457909e-03,7.005725800991058350e-02,-6.097373738884925842e-02,-8.582407981157302856e-02,-1.235341504216194153e-01,-6.668810546398162842e-02,1.341854035854339600e-01,-1.581789404153823853e-01,-3.649934753775596619e-02,4.744077101349830627e-02
1.966067850589752197e-01,-2.055547386407852173e-02,1.101756393909454346e-01,4.344818647950887680e-03,1.226023733615875244e-01,-6.391722708940505981e-02,1.322564184665679932e-01,2.923706546425819397e-02,-2.205826938152313232e-01,1.904056668281555176e-01,-1.240272074937820435e-01,4.085094854235649109e-02,-1.197933852672576904e-01,1.015054285526275635e-01,-6.806197017431259155e-02,1.643180102109909058e-01,-1.575734652578830719e-02,1.013200134038925171e-01,9.553869813680648804e-02,9.933602064847946167e-03,-3.093726634979248047e-01,1.433777362108230591e-01,-1.334750354290008545e-01,4.465981945395469666e-02,-1.045362204313278198e-01,1.143967285752296448e-01,1.007210090756416321e-01,9.060209244489669800e-02,-6.369733065366744995e-02,-8.442782610654830933e-02,9.276191890239715576e-02,-8.545924909412860870e-03,4.504925012588500977e-02,6.892070639878511429e-03,-9.725827723741531372e-03,-1.038046851754188538e-01,-1.827046722173690796e-01,4.296268895268440247e-02,-9.351981431245803833e-02,-1.290010213851928711e-01,-1.061518117785453796e-01,-4.403142631053924561e-02,3.141758963465690613e-02,1.656899228692054749e-02,4.184783250093460083e-02,1.900834031403064728e-02,1.225483044981956482e-01,-1.128549873828887939e-01,-6.528027355670928955e-02,-1.030398458242416382e-01,-1.174416840076446533e-01,2.152722887694835663e-02,-5.963959544897079468e-02,-4.683384671807289124e-02,7.717478275299072266e-02,-7.474815100431442261e-02,-8.369165658950805664e-02,-9.384654462337493896e-03,-1.825128048658370972e-01,4.374074563384056091e-02,-2.144337072968482971e-02,1.049519851803779602e-01,-3.184452280402183533e-02,-9.222066402435302734e-02,-9.731760621070861816e-02,-4.212017729878425598e-02,-8.085638284683227539e-02,-3.545123711228370667e-02,-2.692062407732009888e-02,-1.509062107652425766e-02,1.203345432877540588e-01,-3.816575743257999420e-03,-6.244331970810890198e-02,2.992034330964088440e-02,-1.940404437482357025e-02,-6.544529646635055542e-02,-6.760635226964950562e-02,1.253606677055358887e-01,7.490659505128860474e-02,-1.005580872297286987e-01,5.944639444351196289e-02,3.989411890506744385e-02,-3.225768208503723145e-01,-1.656296104192733765e-01,9.657187014818191528e-02,9.742482751607894897e-02,-1.503063142299652100e-01,-1.413159817457199097e-01,6.212221086025238037e-02,4.173877090215682983e-02,1.167333777993917465e-02,1.627284567803144455e-03,-4.365128651261329651e-02,6.693429499864578247e-02,-9.648283571004867554e-02,-4.211744666099548340e-02,2.578819915652275085e-02,-2.978805899620056152e-01,-8.415475487709045410e-02,-4.953559488058090210e-02
2.345726126804947853e-03,6.731903553009033203e-02,-7.242463529109954834e-02,-1.212503015995025635e-01,-4.969748482108116150e-02,4.503213986754417419e-02,1.575911045074462891e-02,1.018609032034873962e-01,-4.098546691238880157e-03,-7.765066623687744141e-02,2.932338044047355652e-03,2.549994364380836487e-02,-3.578838706016540527e-02,-9.771534055471420288e-02,4.472656920552253723e-02,1.771405152976512909e-02,-9.837739169597625732e-02,5.230920389294624329e-02,-1.094706431031227112e-01,8.809178322553634644e-02,7.697165012359619141e-02,6.187079846858978271e-02,1.236115992069244385e-01,-2.561348862946033478e-02,-8.013894408941268921e-02,1.190449576824903488e-02,8.648024499416351318e-02,2.459467574954032898e-02,8.531446009874343872e-02,9.756825119256973267e-02,-8.809711784124374390e-02,6.714995205402374268e-02,-8.090693503618240356e-03,1.478438973426818848e-01,2.277795821428298950e-01,4.791356623172760010e-03,3.640102222561836243e-02,1.915042474865913391e-02,-2.330323457717895508e-01,1.019363254308700562e-01,-3.310668841004371643e-02,-1.049752235412597656e-01,1.287030056118965149e-02,-5.207752436399459839e-02,1.140119433403015137e-01,5.009033158421516418e-02,-4.898536205291748047e-02,-3.911780565977096558e-02,6.302230060100555420e-02,1.366066001355648041e-02,-4.201454110443592072e-03,-6.834307312965393066e-02,5.258692894130945206e-03,-8.734375238418579102e-02,5.334816873073577881e-02,-1.121142208576202393e-01,1.081689894199371338e-01,9.541649371385574341e-02,1.141421347856521606e-01,-9.112496674060821533e-02,-1.339177191257476807e-01,8.552868664264678955e-02,1.526424288749694824e-02,-2.934320364147424698e-03,1.425661146640777588e-01,9.813393466174602509e-03,1.011220924556255341e-02,4.599806666374206543e-02,6.917987018823623657e-02,1.155143752694129944e-01,7.472793012857437134e-02,1.028607636690139771e-01,-1.036578193306922913e-01,-3.486414998769760132e-02,6.068620085716247559e-02,1.300691813230514526e-01,6.985995173454284668e-02,9.768697619438171387e-02,-9.461075812578201294e-02,-6.061027571558952332e-02,9.790403395891189575e-02,1.467351466417312622e-01,-8.751332759857177734e-02,-2.470750175416469574e-02,6.642554700374603271e-02,7.516644150018692017e-02,-8.086250722408294678e-02,-2.835566736757755280e-02,-3.921953588724136353e-02,3.452949598431587219e-02,-2.056020125746726990e-02,-8.162541687488555908e-02,-1.017166897654533386e-01,1.141237244009971619e-01,-1.090551987290382385e-01,2.902995236217975616e-02,-1.711391843855381012e-02,-2.754633314907550812e-02,5.305386334657669067e-02,4.874655604362487793e-02
7.665572315454483032e-02,5.417710915207862854e-02,-1.309569925069808960e-02,3.015113435685634613e-02,-2.970561198890209198e-02,3.521674126386642456e-02,-5.408499762415885925e-02,7.672579586505889893e-02,-1.829003356397151947e-02,-5.880628526210784912e-02,3.872517868876457214e-02,1.915987115353345871e-03,2.582618780434131622e-02,-4.173991456627845764e-02,8.360455930233001709e-02,9.583564475178718567e-03,-3.479851782321929932e-02,8.091953583061695099e-03,5.843285471200942993e-02,1.161344796419143677e-01,1.358769834041595459e-01,8.108567446470260620e-02,5.226465687155723572e-02,-5.513571202754974365e-02,-1.735873706638813019e-02,-2.449681796133518219e-02,-3.875789791345596313e-02,2.296958118677139282e-02,1.113474518060684204e-01,3.959115967154502869e-02,-4.625164344906806946e-02,9.586767107248306274e-02,4.759851843118667603e-02,-2.472971379756927490e-02,6.264253705739974976e-02,4.042586684226989746e-02,1.131380647420883179e-01,-7.176701724529266357e-02,9.317238815128803253e-03,-8.017099462449550629e-03,-3.505879640579223633e-02,-8.324898779392242432e-03,7.579990476369857788e-02,-4.454046487808227539e-02,3.803742676973342896e-02,1.164456084370613098e-01,-5.279368907213211060e-02,1.085954532027244568e-02,5.424879025667905807e-03,-2.218842506408691406e-02,-2.574208192527294159e-02,3.840076923370361328e-02,-4.275104496628046036e-03,-6.275211274623870850e-02,-7.025387138128280640e-02,-5.071199685335159302e-02,-5.630676634609699249e-03,-3.558650240302085876e-02,1.970756426453590393e-02,5.405582860112190247e-02,-5.379914492368698120e-02,-1.079940237104892731e-02,1.133679300546646118e-01,-4.743857309222221375e-02,-2.350304089486598969e-02,1.087496057152748108e-01,1.313525252044200897e-03,4.904405027627944946e-02,1.198544818907976151e-02,1.023151427507400513e-01,6.429250538349151611e-02,-8.385759778320789337e-03,3.758713603019714355e-02,1.173420771956443787e-01,-3.884324431419372559e-02,2.764779515564441681e-02,1.001406908035278320e-01,6.345532089471817017e-02,2.904337085783481598e-02,-2.053758874535560608e-02,1.014609113335609436e-01,9.144274145364761353e-02,4.709193855524063110e-02,1.479985564947128296e-01,8.646558225154876709e-02,-2.256343699991703033e-02,-6.354629248380661011e-02,-2.524189883843064308e-03,-4.875928536057472229e-02,-1.461662817746400833e-02,2.921669930219650269e-02,-3.437569539528340101e-04,-5.980581790208816528e-02,-3.454779088497161865e-02,4.580743610858917236e-02,-2.652025723364204168e-04,1.511916611343622208e-02,4.188853781670331955e-03,-9.724738448858261108e-02,-9.668679535388946533e-02
1.182984933257102966e-01,1.273352839052677155e-02,-1.163596473634243011e-02,-6.239319592714309692e-02,1.556180138140916824e-02,-5.273371934890747070e-02,1.644193753600120544e-02,8.998918533325195312e-02,2.618271298706531525e-02,4.227821901440620422e-02,5.173165723681449890e-02,-3.672337392345070839e-03,4.620855301618576050e-02,6.089235097169876099e-02,4.717769846320152283e-02,4.091632738709449768e-02,6.714912597090005875e-03,3.088988363742828369e-02,6.755620241165161133e-02,-8.615087717771530151e-03,2.453546412289142609e-02,-1.984770037233829498e-02,1.264920830726623535e-01,4.009461775422096252e-02,-4.675561562180519104e-02,-3.830539807677268982e-02,-3.754384815692901611e-03,-4.889593645930290222e-02,1.365280151367187500e-01,7.935538887977600098e-02,1.311888359487056732e-02,-3.277508541941642761e-02,4.314225912094116211e-02,1.096768602728843689e-01,5.661800503730773926e-03,3.300774097442626953e-02,-1.371594052761793137e-02,-8.296722173690795898e-02,1.649066992104053497e-02,1.219904348254203796e-01,-2.851414680480957031e-02,-2.194446744397282600e-03,-3.716574981808662415e-02,-9.413626790046691895e-02,8.975230902433395386e-02,7.447768002748489380e-02,-4.114875197410583496e-02,-1.305516157299280167e-02,1.102118268609046936e-01,-4.498159512877464294e-02,1.250526756048202515e-01,5.826620757579803467e-02,5.559023842215538025e-02,1.091736555099487305e-01,1.668063737452030182e-02,4.113983362913131714e-03,6.914410740137100220e-02,-4.475731402635574341e-02,6.772733479738235474e-02,8.691735565662384033e-02,-1.146208196878433228e-01,-4.516151919960975647e-02,-7.126589771360158920e-03,-4.930928698740899563e-04,-1.133723370730876923e-02,1.202763468027114868e-01,5.516869202256202698e-02,3.574834018945693970e-02,-1.882851310074329376e-02,1.198087483644485474e-01,-8.305279910564422607e-02,-2.883500605821609497e-02,8.147580549120903015e-03,1.898799650371074677e-02,-4.214685410261154175e-02,1.262855976819992065e-01,6.663085427135229111e-03,-3.039891831576824188e-03,6.110155209898948669e-02,-5.999087169766426086e-02,7.565961033105850220e-02,1.674330607056617737e-02,3.489125147461891174e-02,1.443365365266799927e-01,-2.132951468229293823e-02,-6.767909042537212372e-03,-5.965934693813323975e-02,-9.953262656927108765e-02,6.861820071935653687e-02,-5.299679189920425415e-02,3.822217509150505066e-02,-2.220931462943553925e-02,-1.583258248865604401e-02,5.906470865011215210e-02,-1.702479086816310883e-02,-1.439737249165773392e-02,-1.907915249466896057e-02,-3.692439943552017212e-02,-1.774105802178382874e-02,-4.609916359186172485e-02
-2.071676403284072876e-01,4.824252799153327942e-02,-2.077614963054656982e-01,2.163457870483398438e-01,1.847184449434280396e-02,-3.755737096071243286e-02,-8.758760988712310791e-02,-5.383307859301567078e-02,-2.852625548839569092e-01,5.514372140169143677e-02,6.693957746028900146e-02,-1.107406243681907654e-01,1.113531813025474548e-01,-1.125763654708862305e-01,-6.175852194428443909e-02,1.556744128465652466e-01,-7.996489852666854858e-02,6.002329662442207336e-02,-6.772172451019287109e-02,-1.171149238944053650e-01,1.022607684135437012e-01,-1.413525342941284180e-01,1.384441256523132324e-01,-6.262849271297454834e-02,5.934088490903377533e-03,1.044187322258949280e-01,1.287583447992801666e-02,-4.292853176593780518e-01,-2.524524629116058350e-01,-6.424687057733535767e-02,-4.773381352424621582e-02,-9.548726677894592285e-02,1.385663747787475586e-01,-4.022262990474700928e-01,-8.978344500064849854e-02,-3.224219381809234619e-02,1.742946058511734009e-01,-3.055967986583709717e-01,4.922833666205406189e-02,1.258513517677783966e-02,1.047511771321296692e-01,-5.165085196495056152e-01,-3.583450913429260254e-01,-3.378921747207641602e-01,-2.105495035648345947e-01,3.763019805774092674e-03,2.062309533357620239e-02,-2.467735558748245239e-01,1.390897184610366821e-01,4.934387281537055969e-02,1.455595195293426514e-01,1.621289253234863281e-01,-6.908925622701644897e-02,-4.636747180484235287e-04,7.721573859453201294e-02,-2.925591357052326202e-02,-3.128039836883544922e-01,9.030945599079132080e-02,7.065780460834503174e-03,3.921633958816528320e-02,-3.072742521762847900e-01,-1.524700224399566650e-01,1.040194630622863770e-01,-1.696780882775783539e-02,2.997620403766632080e-02,-5.087490007281303406e-02,-2.448837906122207642e-01,-4.566160030663013458e-03,7.686155289411544800e-02,-3.770629763603210449e-01,1.458640247583389282e-01,1.374096274375915527e-01,7.357730716466903687e-02,-3.971946537494659424e-01,9.108193963766098022e-02,5.048957839608192444e-02,9.620164334774017334e-02,-4.542464390397071838e-02,1.188710555434226990e-01,-5.843511596322059631e-02,1.426585465669631958e-01,-3.764737248420715332e-01,3.560268878936767578e-01,1.078808158636093140e-01,-8.116395026445388794e-02,-1.552992463111877441e-01,1.494203507900238037e-01,8.505432866513729095e-03,-5.087494850158691406e-01,-1.248496174812316895e-01,1.431307345628738403e-01,1.792737692594528198e-01,9.583740681409835815e-02,-2.373499125242233276e-01,4.624935612082481384e-02,1.565116345882415771e-01,-4.874217510223388672e-01,1.443962752819061279e-01,1.657377779483795166e-01,-1.355518996715545654e-01
-6.773767992854118347e-03,3.397697955369949341e-02,-4.391863197088241577e-02,4.822529852390289307e-02,-2.454899996519088745e-02,3.407593816518783569e-02,8.048487454652786255e-02,-1.324358768761157990e-02,8.054693043231964111e-02,4.581944271922111511e-02,-7.335762679576873779e-02,-1.981845684349536896e-02,-8.331449935212731361e-04,-9.689908474683761597e-02,7.069777697324752808e-02,7.426872104406356812e-02,-3.515670448541641235e-02,-2.301991917192935944e-02,5.979346483945846558e-02,6.936033815145492554e-02,1.009238660335540771e-01,5.795958638191223145e-02,1.564961224794387817e-01,-1.776271499693393707e-02,-7.264176965691149235e-04,-4.678313061594963074e-02,3.803287819027900696e-02,2.075768820941448212e-02,8.713551610708236694e-02,-5.130193009972572327e-02,6.366521120071411133e-02,7.905377447605133057e-02,1.842700503766536713e-02,1.229609102010726929e-01,7.748962938785552979e-02,8.921601623296737671e-02,9.389912337064743042e-02,-5.008672550320625305e-02,-3.782951086759567261e-02,7.305246591567993164e-02,-1.752713695168495178e-02,-1.089091692119836807e-02,-2.885501272976398468e-02,-2.665191888809204102e-03,-3.888277336955070496e-02,-2.452935464680194855e-02,-1.038001924753189087e-01,1.588712446391582489e-02,1.225781366229057312e-01,1.608313620090484619e-02,8.280751854181289673e-02,1.624528504908084869e-02,1.980350725352764130e-02,1.349743157625198364e-01,1.368021685630083084e-02,-4.074422270059585571e-02,1.425315625965595245e-02,4.578838869929313660e-02,1.116790249943733215e-01,-1.859800703823566437e-02,2.323537692427635193e-02,-2.146670967340469360e-02,6.305328011512756348e-02,-6.660762429237365723e-02,3.240557014942169189e-02,5.271973088383674622e-02,-2.327579073607921600e-02,-6.503059715032577515e-02,-4.407863318920135498e-02,1.140638813376426697e-01,4.530571773648262024e-02,3.697818890213966370e-02,6.800150964409112930e-03,-1.796949189156293869e-03,1.272988691926002502e-02,1.030519604682922363e-01,1.220594719052314758e-01,9.862703084945678711e-02,2.180366590619087219e-02,-6.767398118972778320e-02,8.598101325333118439e-03,1.475797444581985474e-01,-3.061988018453121185e-02,-1.820750348269939423e-02,-2.314429171383380890e-02,-3.769637271761894226e-02,-3.128549456596374512e-02,-1.158248167484998703e-03,1.032353565096855164e-02,-5.572555586695671082e-02,-2.860639803111553192e-02,-1.008346751332283020e-01,4.687680676579475403e-02,1.981874927878379822e-02,1.026216521859169006e-01,-4.833375662565231323e-02,9.947818703949451447e-03,-2.711044438183307648e-02,-1.791316643357276917e-02,-2.875045873224735260e-02
5.358829349279403687e-02,1.499005854129791260e-01,1.816526651382446289e-01,-3.216750919818878174e-02,-9.320674836635589600e-02,1.777694374322891235e-02,2.103301137685775757e-01,5.763101950287818909e-02,-2.876302897930145264e-01,1.480340212583541870e-01,1.500471681356430054e-01,-3.567569423466920853e-03,-2.200596332550048828e-01,-6.717674434185028076e-02,-1.330305635929107666e-01,1.610258221626281738e-01,1.566655933856964111e-02,-1.810001581907272339e-01,4.138437658548355103e-02,1.164023280143737793e-01,-3.035665452480316162e-01,5.260543152689933777e-02,-1.641097515821456909e-01,1.638669073581695557e-01,-9.023188054561614990e-02,7.763589918613433838e-02,2.181817963719367981e-02,-2.560326829552650452e-02,2.159203290939331055e-01,-2.705228980630636215e-03,1.213763356208801270e-01,-2.622366249561309814e-01,-1.139039639383554459e-02,-5.842933803796768188e-02,1.742138713598251343e-01,-7.665790617465972900e-02,-2.694892585277557373e-01,-4.728848114609718323e-02,1.445290297269821167e-01,-2.063845992088317871e-01,-2.155216932296752930e-01,2.436584532260894775e-01,-1.184558459499385208e-05,1.949729584157466888e-02,9.880318492650985718e-02,1.991325803101062775e-02,-2.903332710266113281e-01,-7.553027570247650146e-02,-2.788914740085601807e-01,2.221232652664184570e-01,-8.255077898502349854e-02,7.856969535350799561e-02,5.183844827115535736e-03,-3.536739349365234375e-01,1.005098596215248108e-01,7.822644710540771484e-02,-2.119835615158081055e-01,-1.586195230484008789e-01,-2.154231965541839600e-01,1.521573960781097412e-01,2.119930088520050049e-01,-1.240321695804595947e-01,3.259405791759490967e-01,-2.546961903572082520e-01,-3.637498021125793457e-01,-2.571579813957214355e-01,8.708982914686203003e-02,6.215557083487510681e-02,7.440423220396041870e-02,1.382748037576675415e-01,8.460600674152374268e-02,2.495815157890319824e-01,2.511622011661529541e-01,-4.116754644201137125e-05,2.001941800117492676e-01,-4.356639683246612549e-01,-1.398049592971801758e-01,1.314111053943634033e-01,1.500270813703536987e-01,1.010050252079963684e-01,-1.609323620796203613e-01,-4.556951299309730530e-02,-1.270086318254470825e-01,-1.280464977025985718e-01,-2.992805540561676025e-01,4.889061208814382553e-03,-7.815030217170715332e-02,3.066785633563995361e-01,1.739529669284820557e-01,-4.963216558098793030e-02,-1.575752496719360352e-01,1.998169869184494019e-01,9.802509844303131104e-02,4.897899553179740906e-02,1.513145118951797485e-01,6.050993129611015320e-02,2.049717456102371216e-01,-3.163981139659881592e-01,-1.519301235675811768e-01,1.863873749971389771e-01
1.651242002844810486e-02,1.314621269702911377e-01,1.341546624898910522e-01,1.980812251567840576e-01,2.940656803548336029e-02,-3.499434888362884521e-02,9.560547769069671631e-02,-2.392802946269512177e-02,3.791838511824607849e-02,-5.659674853086471558e-02,-2.291951328516006470e-02,1.237063854932785034e-01,8.199510723352432251e-02,-1.111586242914199829e-01,-5.414518341422080994e-02,2.733615227043628693e-02,4.855423048138618469e-02,-1.079732179641723633e-01,-1.336382627487182617e-01,4.194044694304466248e-02,5.709310621023178101e-02,4.995023459196090698e-02,2.592224813997745514e-02,3.302529454231262207e-02,-5.307089164853096008e-02,8.729899674654006958e-02,6.512175314128398895e-03,-8.869459480047225952e-02,-1.801166385412216187e-01,-2.635736763477325439e-02,-3.505516797304153442e-02,6.856384128332138062e-02,1.285360157489776611e-01,-1.756950467824935913e-01,1.373632345348596573e-02,6.005335599184036255e-02,4.956481233239173889e-02,-1.067484542727470398e-01,2.656501829624176025e-01,1.481809318065643311e-01,5.972800031304359436e-02,1.599249802529811859e-02,6.696052104234695435e-02,-3.458281159400939941e-01,1.129853427410125732e-01,-9.675541520118713379e-02,-6.435582786798477173e-02,1.625481247901916504e-02,-4.006073996424674988e-02,3.345294296741485596e-02,9.536240994930267334e-02,1.490263827145099640e-02,3.108444437384605408e-02,1.121519505977630615e-01,7.622689008712768555e-02,3.081243671476840973e-02,-4.121679440140724182e-02,3.169252350926399231e-02,1.180716697126626968e-02,4.934400320053100586e-02,-1.792841404676437378e-01,-6.330184638500213623e-02,1.638630032539367676e-01,-3.164090216159820557e-03,6.066421046853065491e-02,3.275370970368385315e-02,-4.899936262518167496e-03,-5.131306499242782593e-02,3.393794596195220947e-02,4.362285509705543518e-02,8.385736495256423950e-02,4.583589360117912292e-02,3.347766399383544922e-02,-4.721410945057868958e-02,1.605857759714126587e-01,-5.925173684954643250e-02,3.371453285217285156e-02,-2.019722713157534599e-03,7.013525813817977905e-02,-4.039922356605529785e-02,2.973049320280551910e-02,-4.519986733794212341e-02,3.091794550418853760e-01,6.624665111303329468e-02,-1.322617679834365845e-01,-1.027931272983551025e-01,1.567036472260951996e-02,-2.328871376812458038e-02,-3.549679741263389587e-02,-2.823819173499941826e-03,1.132947206497192383e-01,1.018033549189567566e-01,-1.897436380386352539e-02,-1.275724321603775024e-01,5.554786697030067444e-02,1.594948768615722656e-01,-6.385219097137451172e-02,7.006982713937759399e-02,-8.168157190084457397e-03,-4.152543470263481140e-02
2.124211192131042480e-01,1.536262687295675278e-02,3.622981309890747070e-01,-1.113862767815589905e-01,2.333000302314758301e-03,-8.294789493083953857e-02,1.169747635722160339e-01,1.155624240636825562e-01,-9.211228042840957642e-02,1.366047561168670654e-01,4.976304993033409119e-02,5.163371190428733826e-02,-1.663115918636322021e-01,8.070892095565795898e-02,3.559444472193717957e-02,3.872537240386009216e-02,2.592069283127784729e-02,-1.576414704322814941e-01,4.901049286127090454e-02,8.699393947608768940e-04,-2.641331255435943604e-01,1.041968259960412979e-02,-2.172405719757080078e-01,1.638610213994979858e-01,6.034050136804580688e-02,3.478224948048591614e-02,1.178056523203849792e-01,1.022526472806930542e-01,5.708078667521476746e-02,-1.079150289297103882e-02,-4.090853407979011536e-02,-1.352735310792922974e-01,2.065720327664166689e-04,-6.135842949151992798e-02,2.474936246871948242e-01,-1.009635105729103088e-01,-1.507191807031631470e-01,1.392889022827148438e-01,2.919263206422328949e-02,-1.902747601270675659e-01,-2.513355910778045654e-01,1.106721311807632446e-01,-1.247573061846196651e-03,7.289116084575653076e-02,9.689137339591979980e-02,6.499721854925155640e-02,7.400776445865631104e-02,-8.738960325717926025e-02,-2.908938229084014893e-01,1.977702230215072632e-02,2.735382318496704102e-02,-3.073818050324916840e-02,5.988486483693122864e-02,-1.369742602109909058e-01,1.091427505016326904e-01,2.599044702947139740e-02,-1.249161139130592346e-01,-4.806495830416679382e-02,-1.506384741514921188e-02,1.374184638261795044e-01,2.113190740346908569e-01,9.279835969209671021e-02,6.767486780881881714e-02,-1.083447262644767761e-01,-1.589193642139434814e-01,-2.202840894460678101e-01,2.209391146898269653e-01,4.496524855494499207e-02,-1.356666833162307739e-01,3.248642012476921082e-02,7.679022848606109619e-02,1.185784488916397095e-01,1.325960457324981689e-01,-1.446058601140975952e-02,1.545179188251495361e-01,-7.604083418846130371e-02,-1.793946623802185059e-01,1.127616316080093384e-01,1.564898490905761719e-01,5.166275054216384888e-02,-8.922158181667327881e-02,9.555118530988693237e-02,-3.425272107124328613e-01,-2.979704141616821289e-01,-1.696980558335781097e-02,8.929926902055740356e-02,-9.809015691280364990e-02,1.547769457101821899e-01,1.764527857303619385e-01,1.057986542582511902e-01,-8.281262964010238647e-02,-8.304049819707870483e-02,1.209741458296775818e-02,-5.142103135585784912e-02,6.614254415035247803e-02,5.284056812524795532e-02,1.239478886127471924e-01,-1.950695812702178955e-01,1.900520548224449158e-02,6.061067804694175720e-02
6.513559818267822266e-02,1.326237712055444717e-02,-4.986675828695297241e-02,-7.106580585241317749e-02,1.336340308189392090e-01,3.749185428023338318e-02,-8.128663897514343262e-02,3.252360597252845764e-02,3.103027120232582092e-02,8.079772442579269409e-02,-1.020419746637344360e-01,9.139967709779739380e-02,6.003642082214355469e-02,2.900428138673305511e-02,-1.640986651182174683e-02,-2.871373435482382774e-03,-4.642092436552047729e-02,1.092007160186767578e-01,-1.187800988554954529e-01,-2.718393225222826004e-03,-5.185911431908607483e-03,6.964491307735443115e-02,-4.161886125802993774e-02,2.459527179598808289e-02,2.929147891700267792e-02,2.942546643316745758e-02,5.386243015527725220e-02,8.259093016386032104e-02,8.318132907152175903e-02,-8.183258771896362305e-02,-1.198197901248931885e-01,9.591749310493469238e-02,3.787858411669731140e-02,1.156243532896041870e-01,9.806513786315917969e-03,1.045567821711301804e-02,-7.738254219293594360e-02,-1.220029145479202271e-01,-1.457286626100540161e-02,9.950947016477584839e-02,-1.192390732467174530e-02,-1.983836665749549866e-02,1.929933496285229921e-04,-3.606978058815002441e-02,8.182944357395172119e-02,-6.620473694056272507e-03,-1.033784970641136169e-01,2.216032519936561584e-02,4.719123616814613342e-02,1.271629612892866135e-02,6.912111770361661911e-03,-1.184295397251844406e-03,-5.724323168396949768e-02,7.822169363498687744e-02,1.134863123297691345e-01,-2.367744781076908112e-02,3.480692580342292786e-02,-2.869348973035812378e-03,-4.874856024980545044e-02,9.074305742979049683e-02,2.507076039910316467e-02,1.161470264196395874e-02,9.582074731588363647e-02,3.880816325545310974e-02,3.644188866019248962e-02,7.991113513708114624e-02,5.264667049050331116e-02,1.433300506323575974e-02,6.843174993991851807e-02,1.002358272671699524e-01,2.135624364018440247e-02,-1.023308709263801575e-01,-4.269209504127502441e-02,3.381730616092681885e-02,3.781188651919364929e-02,1.229576170444488525e-01,-4.311266168951988220e-02,-8.825226686894893646e-03,-5.177097767591476440e-02,-4.399459436535835266e-02,7.932907342910766602e-02,-6.534762680530548096e-02,5.551258474588394165e-02,1.202648356556892395e-01,-8.638205379247665405e-02,8.447237312793731689e-02,1.113190595060586929e-02,-1.542513221502304077e-01,-8.353035897016525269e-03,-1.538290269672870636e-02,1.234629824757575989e-01,-1.132751405239105225e-01,-8.969560265541076660e-03,2.762824855744838715e-02,3.462814167141914368e-02,-2.031683549284934998e-02,1.085041370242834091e-02,1.190168634057044983e-01,6.856174767017364502e-02,4.653611406683921814e-02
5.444299802184104919e-02,-6.058133020997047424e-02,-1.733396574854850769e-02,5.516660213470458984e-02,-5.812422372400760651e-03,-1.203372422605752945e-02,-1.276056980714201927e-03,-7.908989675343036652e-03,-5.426719412207603455e-02,-7.386781275272369385e-02,7.571378350257873535e-02,-4.361179843544960022e-02,1.483231186866760254e-01,-7.274683099240064621e-03,-2.264124900102615356e-02,8.647891879081726074e-02,3.667067736387252808e-02,7.414302229881286621e-02,5.367751047015190125e-02,-5.871830508112907410e-02,1.220600455999374390e-01,2.594038844108581543e-02,5.500612407922744751e-02,5.650420114398002625e-02,-1.193552762269973755e-01,-6.310766935348510742e-02,8.141500502824783325e-02,-1.460015866905450821e-02,1.068958789110183716e-01,4.705756902694702148e-02,-8.667231351137161255e-02,1.012118253856897354e-02,-4.947764798998832703e-03,2.332963049411773682e-02,7.243995368480682373e-02,-2.868995629251003265e-02,-1.893715746700763702e-02,-2.410262823104858398e-02,-1.676647737622261047e-02,6.585111469030380249e-02,4.908045753836631775e-02,1.303618657402694225e-03,1.241029426455497742e-01,3.327319398522377014e-02,8.486594259738922119e-02,2.364670112729072571e-02,-9.016818553209304810e-02,-1.927157677710056305e-02,2.216346375644207001e-02,4.013356938958168030e-02,-5.973377823829650879e-02,-2.904006280004978180e-02,8.422485738992691040e-02,9.537628851830959320e-03,-5.327932909131050110e-02,-1.085219606757164001e-01,3.289566375315189362e-04,-2.399006858468055725e-02,9.235127945430576801e-04,8.398225903511047363e-02,-3.196862339973449707e-02,-1.368486434221267700e-01,4.561451822519302368e-02,-9.535874426364898682e-02,6.839090585708618164e-02,1.185889914631843567e-01,-1.061574835330247879e-02,3.826661780476570129e-02,4.886289685964584351e-02,1.076005324721336365e-01,-7.664997130632400513e-02,-1.889752447605133057e-01,7.316873967647552490e-02,5.028948187828063965e-02,-3.258679434657096863e-02,3.624666482210159302e-03,6.187081709504127502e-02,-3.250218182802200317e-02,-8.564057201147079468e-02,9.158979356288909912e-02,8.686277433298528194e-04,7.424767315387725830e-02,-1.748354523442685604e-03,8.507621288299560547e-02,8.031839877367019653e-02,1.988911256194114685e-02,4.955644160509109497e-02,-1.247952654957771301e-01,5.293636023998260498e-02,-1.220724955201148987e-01,1.308629512786865234e-01,-1.022525653243064880e-01,6.543654203414916992e-02,3.012131713330745697e-02,-4.158692806959152222e-02,4.255324229598045349e-02,-3.085787780582904816e-02,-2.806894481182098389e-03,6.495066732168197632e-02,7.063001394271850586e-02
-1.519869361072778702e-02,-4.217443522065877914e-03,-4.484905675053596497e-02,5.974007071927189827e-04,1.176259443163871765e-01,-3.687421604990959167e-02,2.417945861816406250e-02,2.305737882852554321e-02,-3.336411714553833008e-02,2.895492501556873322e-02,-2.460504136979579926e-02,5.185148864984512329e-02,8.691482990980148315e-02,-4.330654442310333252e-02,3.451459482312202454e-02,-7.986889779567718506e-02,6.835658103227615356e-02,3.167466819286346436e-02,-9.927372634410858154e-02,1.234965845942497253e-01,-3.439535573124885559e-02,1.250698566436767578e-01,-3.650271892547607422e-02,7.052271068096160889e-02,4.463732615113258362e-02,6.877382844686508179e-02,-3.497199341654777527e-02,5.835425481200218201e-02,1.171962637454271317e-02,4.810852184891700745e-02,-5.220113322138786316e-02,1.028333455324172974e-01,1.159730553627014160e-01,2.051689289510250092e-02,6.024152040481567383e-02,4.391648620367050171e-02,3.623811155557632446e-02,1.682889647781848907e-02,3.644297644495964050e-02,2.671870216727256775e-02,1.522365212440490723e-01,-1.079676747322082520e-01,-4.794440418481826782e-02,-7.276742160320281982e-02,-5.023061856627464294e-02,9.426955878734588623e-02,-1.326695382595062256e-01,-3.867064788937568665e-02,-2.205041470006108284e-03,-4.468328133225440979e-02,-6.513755768537521362e-02,1.122216805815696716e-01,-1.375620346516370773e-02,3.740160167217254639e-02,-3.048479184508323669e-02,-4.350565373897552490e-02,4.806790128350257874e-02,-1.635694503784179688e-02,1.086032465100288391e-01,-1.026672646403312683e-01,-7.584583014249801636e-02,8.916449546813964844e-02,-5.483716353774070740e-02,-6.951344013214111328e-02,-3.271070774644613266e-03,2.391892299056053162e-02,-5.559363961219787598e-02,1.133599579334259033e-01,-3.795343637466430664e-02,2.828987129032611847e-02,-2.865401096642017365e-02,-6.011526286602020264e-02,-1.667197979986667633e-02,1.529785711318254471e-02,6.977806985378265381e-02,-2.591770840808749199e-03,7.444291375577449799e-03,5.555582791566848755e-02,-2.487525716423988342e-02,-2.074021287262439728e-02,3.760533034801483154e-02,1.272486895322799683e-01,4.233084991574287415e-02,1.365103423595428467e-01,9.588492661714553833e-02,-5.152048170566558838e-02,4.308007284998893738e-02,-1.280213594436645508e-01,9.708151966333389282e-02,-3.652793169021606445e-02,1.910417154431343079e-02,-1.160250753164291382e-01,2.621264196932315826e-02,4.105788096785545349e-02,5.496311932802200317e-02,-2.024371735751628876e-02,-1.146459369920194149e-03,5.971841886639595032e-02,-8.327439427375793457e-03,3.848654031753540039e-02
2.672449499368667603e-02,5.331825092434883118e-02,-1.136665698140859604e-02,-6.949666142463684082e-02,-4.775100946426391602e-02,-1.152564734220504761e-01,-1.944913342595100403e-02,7.213450968265533447e-02,2.785374037921428680e-02,6.635021418333053589e-02,5.612497031688690186e-02,-4.974691197276115417e-02,7.582390308380126953e-02,-7.950592041015625000e-02,-4.437713325023651123e-02,5.886733531951904297e-02,-9.442658722400665283e-02,-1.486395392566919327e-02,-4.387667030096054077e-02,5.098276957869529724e-02,1.499340832233428955e-01,6.145392730832099915e-02,1.296261399984359741e-01,4.745661094784736633e-02,3.636614605784416199e-02,-1.540968660265207291e-02,-4.008800908923149109e-02,4.786355048418045044e-02,1.033605188131332397e-01,3.346900269389152527e-02,3.117488324642181396e-02,8.498027920722961426e-02,6.448213011026382446e-03,4.516399279236793518e-02,1.636039651930332184e-02,4.095387179404497147e-03,3.689579665660858154e-02,-4.898975044488906860e-02,2.908581867814064026e-02,-3.932423517107963562e-02,1.204321384429931641e-01,4.671608656644821167e-02,3.952328860759735107e-02,-3.671828657388687134e-02,7.790718227624893188e-02,-6.069982424378395081e-02,-1.134245470166206360e-01,-5.576515570282936096e-02,-9.374681860208511353e-03,-6.421700119972229004e-02,2.662552148103713989e-02,8.073373883962631226e-02,5.209438130259513855e-02,-8.872452192008495331e-03,4.631901904940605164e-02,-8.872295916080474854e-02,5.718804523348808289e-02,-1.768375001847743988e-02,3.416936099529266357e-02,-8.458699285984039307e-02,-6.922560185194015503e-02,-8.309306204319000244e-02,-3.743854910135269165e-02,-9.379342198371887207e-02,-4.893911257386207581e-02,1.568625867366790771e-01,-9.101730771362781525e-03,6.506957113742828369e-02,2.293828129768371582e-02,-4.782930016517639160e-02,-8.627226948738098145e-02,-4.729104414582252502e-02,7.412607222795486450e-02,5.041512474417686462e-02,-3.523747622966766357e-02,3.625744208693504333e-02,1.330273151397705078e-01,-5.218411982059478760e-02,-3.313001990318298340e-02,-7.941121608018875122e-02,5.684689432382583618e-02,2.317919628694653511e-03,-1.105871400795876980e-03,6.023604422807693481e-03,8.969717472791671753e-02,4.692196100950241089e-02,5.087935179471969604e-02,-5.740201845765113831e-02,3.804015368223190308e-02,-8.015785366296768188e-02,5.391722172498703003e-02,-6.092842668294906616e-02,8.335128426551818848e-02,7.550048828125000000e-02,-2.511960826814174652e-02,6.622760742902755737e-02,-7.850356400012969971e-02,-5.842780694365501404e-02,3.739194944500923157e-02,1.968536525964736938e-02
2.410706802038475871e-04,7.709211111068725586e-02,-1.137659996747970581e-01,9.793384931981563568e-03,4.540454223752021790e-02,4.856212437152862549e-02,-7.860893756151199341e-02,-1.204623207449913025e-01,3.907817974686622620e-02,8.035062998533248901e-02,1.270506232976913452e-01,9.048774838447570801e-02,-6.953362841159105301e-03,3.123650094494223595e-03,-2.374991960823535919e-02,-7.644518464803695679e-02,-1.827475130558013916e-01,-1.843026429414749146e-01,1.864771358668804169e-02,1.189283281564712524e-02,8.804774284362792969e-02,1.287868171930313110e-01,5.151987075805664062e-02,7.587424665689468384e-02,1.821742355823516846e-01,1.194661557674407959e-01,5.082325264811515808e-02,1.010051071643829346e-01,-4.776623845100402832e-01,5.287561938166618347e-02,-3.752997890114784241e-02,-1.661455817520618439e-02,-1.225510686635971069e-01,4.885853081941604614e-02,-1.935971677303314209e-01,3.917580842971801758e-02,-6.708581745624542236e-02,8.868245780467987061e-02,1.316848583519458771e-02,1.830499991774559021e-02,-4.663648083806037903e-02,-1.435546111315488815e-02,1.568314582109451294e-01,2.003380656242370605e-01,5.971035361289978027e-02,-3.495562076568603516e-02,1.937123835086822510e-01,5.741970986127853394e-02,-4.752179374918341637e-04,1.078154370188713074e-01,-1.627011597156524658e-01,-6.895101815462112427e-02,6.205366551876068115e-02,1.408037990331649780e-01,-2.149799838662147522e-02,-6.564114242792129517e-02,1.088582351803779602e-01,7.487475126981735229e-02,-6.143285892903804779e-03,5.588915664702653885e-03,1.010307520627975464e-01,1.096626073122024536e-01,-6.813339143991470337e-02,1.355151981115341187e-01,-6.384960561990737915e-02,-2.039908990263938904e-02,1.795265525579452515e-01,3.435547277331352234e-02,6.824785470962524414e-02,1.637397706508636475e-01,1.172229945659637451e-01,3.358365595340728760e-02,-7.953771948814392090e-02,1.518221944570541382e-01,-2.324049174785614014e-02,-9.326530992984771729e-02,-9.540383517742156982e-02,-6.746301800012588501e-02,3.890488669276237488e-02,1.987397857010364532e-02,-5.993847250938415527e-01,1.954925507307052612e-01,-7.072240579873323441e-03,5.715254694223403931e-02,1.527714580297470093e-01,1.314310356974601746e-02,1.217912137508392334e-01,-2.308190986514091492e-02,9.382628649473190308e-02,-6.127119436860084534e-02,2.368667423725128174e-01,-4.582613334059715271e-02,-1.035283133387565613e-01,2.753961384296417236e-01,-3.977391868829727173e-02,-7.262904942035675049e-02,1.449034065008163452e-01,-5.613590404391288757e-02,-1.786270886659622192e-01,2.976932823657989502e-01
