-1.230052951723337173e-02,2.545013092458248138e-02,2.705401368439197540e-02,-2.683152817189693451e-02,1.072290446609258652e-02,4.271819069981575012e-02,-4.038890451192855835e-02,2.805286645889282227e-02,2.012392133474349976e-02,1.633524708449840546e-02,-3.584077954292297363e-02,4.088910296559333801e-02,-1.891446113586425781e-02,3.443495184183120728e-02,1.020986307412385941e-02,3.901842981576919556e-02,9.565141052007675171e-03,1.879141852259635925e-02,-2.695151139050722122e-03,-2.915235795080661774e-02,-1.330390665680170059e-02,1.340185198932886124e-02,-3.441192209720611572e-02,-2.351492270827293396e-02,1.335955318063497543e-02,6.391617655754089355e-02,-1.702680625021457672e-02,-2.279934473335742950e-03,-4.788797348737716675e-02,-1.211361028254032135e-03,-3.629327565431594849e-02,-1.864791288971900940e-02,1.480612251907587051e-02,-6.903564091771841049e-03,-5.810756236314773560e-02,6.080664694309234619e-03,-3.028748184442520142e-02,3.628912195563316345e-02,1.261697988957166672e-02,6.129817571491003036e-03,1.252904441207647324e-02,1.414129696786403656e-02,2.587304636836051941e-02,-3.339686244726181030e-02,-1.414065342396497726e-02,1.687945611774921417e-02,3.824324533343315125e-02,3.164485096931457520e-02,-3.883350640535354614e-02,1.795464567840099335e-02,3.186169639229774475e-02,2.515743859112262726e-02,-2.303244732320308685e-02,3.651106031611561775e-03,-3.797072218731045723e-03,6.183567270636558533e-02,5.110064148902893066e-02,2.308644913136959076e-02,1.542981993407011032e-02,-1.158070750534534454e-02,-2.785062603652477264e-02,-2.668373659253120422e-02,2.060841768980026245e-02,-1.214745934703387320e-04,-2.201302163302898407e-02,2.502678148448467255e-02,2.212106995284557343e-02,-3.511431440711021423e-02,2.739709988236427307e-02,-4.849147517234086990e-04,-2.818089723587036133e-02,3.642954677343368530e-02,-1.946270093321800232e-02,4.082057275809347630e-04,2.760673128068447113e-02,-2.781056798994541168e-02,2.162453159689903259e-02,-3.592034801840782166e-02,1.903994008898735046e-03,-3.891702368855476379e-02,-5.091511458158493042e-02,5.404715612530708313e-02,-1.580013893544673920e-02,1.421115454286336899e-02,4.056465625762939453e-02,3.885922953486442566e-02,3.718539327383041382e-02,1.001794543117284775e-02,-4.388631880283355713e-02,4.123742133378982544e-02,-4.003469948656857014e-04,1.517607737332582474e-02,-1.792503334581851959e-02,-1.427473127841949463e-02,4.301070049405097961e-02,2.166769281029701233e-02,2.839597873389720917e-02,-1.676447503268718719e-02,-4.414583370089530945e-02,-1.172862295061349869e-02,-1.194771938025951385e-02,-2.793099917471408844e-02,-1.682027615606784821e-02,-4.760457668453454971e-03,4.962255805730819702e-02,-1.029251795262098312e-02,-3.231611475348472595e-02,-4.730401933193206787e-02,-7.262557744979858398e-03,-1.743707805871963501e-02,-3.571945428848266602e-02,1.373813487589359283e-02,2.870259620249271393e-02,-8.085505105555057526e-03,1.882841996848583221e-02,2.309045288711786270e-03,1.208666618913412094e-02,2.970306761562824249e-02,-3.224219754338264465e-02,-6.203168630599975586e-02,-2.073449082672595978e-02,-3.331943973898887634e-02,-1.546397712081670761e-02,3.876068443059921265e-02,-1.627836190164089203e-02,4.092117398977279663e-02,1.310105342417955399e-02,-6.416563410311937332e-03,5.350352823734283447e-02,-2.558642439544200897e-02,3.133363323286175728e-03,5.850020330399274826e-03,3.764025494456291199e-02,-3.062916919589042664e-02,-1.333416439592838287e-02,3.204488381743431091e-02,-1.182942558079957962e-02,-1.762576401233673096e-02,-3.785600652918219566e-03,-6.102736806496977806e-04,3.961363807320594788e-02,-2.366078458726406097e-02,2.813758701086044312e-02,8.566187694668769836e-03,4.009175673127174377e-02,1.434236019849777222e-02,5.816741660237312317e-02,-1.227800454944372177e-02,-3.950868919491767883e-02,1.366814132779836655e-03,3.676658496260643005e-02,4.072529077529907227e-02,-3.466637432575225830e-02,-8.391459472477436066e-03,3.185638785362243652e-02,3.708516806364059448e-02,3.048289753496646881e-02,-1.919064088724553585e-03,-3.786114975810050964e-02,5.571050569415092468e-03,-2.422353019937872887e-03,2.718671597540378571e-02,-2.957111597061157227e-02,-7.318014279007911682e-03,1.493465504609048367e-03,9.189103730022907257e-03,-4.261857271194458008e-02,5.460421741008758545e-02,2.742395550012588501e-02,5.485412478446960449e-02,1.139623392373323441e-02,-1.088404469192028046e-02,1.591750606894493103e-02,-2.331055514514446259e-02,-5.949753336608409882e-03,-4.929573275148868561e-03,3.581669554114341736e-02,8.990008383989334106e-03,1.223133131861686707e-02,-7.885306142270565033e-03,-4.735863953828811646e-02,3.444452583789825439e-02,-1.678729243576526642e-02,-2.242793142795562744e-02,9.911089204251766205e-03,2.490043826401233673e-02,-9.074565023183822632e-03,-9.067820385098457336e-03,4.188347235321998596e-02,3.312725946307182312e-02,-4.391171410679817200e-02,3.989253193140029907e-02,-1.359845278784632683e-03,-8.351508527994155884e-03,-2.142160898074507713e-03,-1.678438484668731689e-02,-2.476098202168941498e-02,-2.597319334745407104e-02,7.964127697050571442e-03,-1.391564216464757919e-02,1.557471789419651031e-02,5.176457110792398453e-03,-3.199927136301994324e-02,6.744249258190393448e-04,-1.574756763875484467e-02,-2.272901870310306549e-02,-1.065164688043296337e-03,-9.878938086330890656e-03,-1.777732558548450470e-02,-1.085024140775203705e-02,-1.305278670042753220e-02,-2.121992222964763641e-02,-2.704634703695774078e-02,3.893588110804557800e-02,-1.626560091972351074e-02,2.515043504536151886e-02,2.060396596789360046e-03,-3.842489328235387802e-03,-3.446047380566596985e-02,1.448443252593278885e-02,2.955222874879837036e-02,-8.476810529828071594e-03,-4.319985862821340561e-03,-5.822657048702239990e-02,1.219225488603115082e-02,1.961968839168548584e-02,-6.057519093155860901e-02,1.345150358974933624e-02,1.110681425780057907e-02,8.059545420110225677e-03,-3.410241799429059029e-03,8.149167988449335098e-04,-2.532237768173217773e-02,-6.952345371246337891e-03,-6.198072806000709534e-02,-2.686071395874023438e-02,1.707050018012523651e-02,-1.784773170948028564e-02,1.172528252936899662e-03,2.679870836436748505e-02,-2.860090695321559906e-02,-2.108494378626346588e-02,3.457127138972282410e-02,2.440253086388111115e-02,1.822908967733383179e-02,-2.634055726230144501e-02,5.011982098221778870e-02,-2.535555325448513031e-02,5.879958719015121460e-02,5.144732072949409485e-02,-2.099737897515296936e-02,-2.723416686058044434e-02,-2.161078900098800659e-02,-3.398697823286056519e-03,2.452520281076431274e-02,4.819634836167097092e-03,1.524166855961084366e-02,-1.093325670808553696e-02,3.953517600893974304e-02,-1.652970537543296814e-02,-1.106057129800319672e-02,1.117634028196334839e-02,-3.217906132340431213e-02,2.533548884093761444e-02,3.480739891529083252e-02,-1.719968765974044800e-02,8.255983702838420868e-03,1.306564640253782272e-02,5.115954205393791199e-02,1.421336084604263306e-02,1.898180693387985229e-02,2.686969190835952759e-02,2.035412751138210297e-02,-4.717363044619560242e-02,4.538569599390029907e-02,-2.422372344881296158e-03,6.932170595973730087e-03,-2.388720586895942688e-02,3.198172897100448608e-02,-6.278699263930320740e-03,3.261563554406166077e-02,3.802616521716117859e-02,2.784118428826332092e-02,-1.917611435055732727e-02,-2.253811806440353394e-02,-4.861661791801452637e-02,-2.542172744870185852e-02,9.456811472773551941e-03,-5.282073467969894409e-02,-2.662417106330394745e-02,4.172074608504772186e-03,-2.743192715570330620e-03,1.665936037898063660e-02,-3.169703483581542969e-02,-2.948210388422012329e-02,-1.639716140925884247e-02,-4.042426124215126038e-02,5.194974318146705627e-02,-3.476038202643394470e-02,2.033232897520065308e-02,3.353819251060485840e-02,-1.628267765045166016e-02,-1.237908471375703812e-02,1.402769470587372780e-03,2.187036722898483276e-02,-6.042687222361564636e-03,-1.320501882582902908e-02,2.440660260617733002e-03,2.067754231393337250e-02,-1.159779168665409088e-02,2.355786412954330444e-02,2.905414206907153130e-03,-2.353236824274063110e-02,4.162831977009773254e-02,-1.091573759913444519e-02,4.026243090629577637e-02,3.656789660453796387e-02,-2.759652025997638702e-02,1.051626261323690414e-02,-1.480697561055421829e-02,3.400433808565139771e-02,8.987086266279220581e-02,-2.198706381022930145e-02,2.950665913522243500e-02,2.194434963166713715e-02,-9.275209158658981323e-03,-3.255512937903404236e-02,3.134994581341743469e-02,-3.373315557837486267e-02,1.174251083284616470e-02,-4.189510364085435867e-03,3.556349873542785645e-02,-2.736233547329902649e-02,5.470886826515197754e-03,-1.943499781191349030e-02,-3.158175572752952576e-02,-2.780089527368545532e-02,-8.414071984589099884e-03,2.941363118588924408e-02,2.564026229083538055e-02,-2.983176521956920624e-02,3.158773295581340790e-03,-3.862962126731872559e-02,2.722711302340030670e-02,-3.691983968019485474e-02,-1.989738456904888153e-02,4.214423522353172302e-02,2.100912667810916901e-02,-4.647640883922576904e-02,-2.404611557722091675e-02,5.761416628956794739e-03,-1.077121472917497158e-03,-7.569571491330862045e-03,-2.775583602488040924e-02,-1.868816651403903961e-02,-1.491536386311054230e-02,-4.434071853756904602e-02,1.319959387183189392e-02,-1.772960647940635681e-02,5.005003418773412704e-03,-2.401568368077278137e-02,4.043127596378326416e-02,-3.740480542182922363e-02,4.465801641345024109e-03,2.006478793919086456e-02,3.457463532686233521e-02,-6.314487662166357040e-03,3.126472607254981995e-02,-2.356524392962455750e-02,-2.705121645703911781e-03,1.330894976854324341e-02,2.346926741302013397e-02,6.185507029294967651e-02,4.011067375540733337e-02,2.187118306756019592e-02,4.017316736280918121e-03,2.167585492134094238e-02,1.150692813098430634e-02,1.852825842797756195e-02,4.745956044644117355e-03,-8.835412561893463135e-03,1.985201425850391388e-02,2.343429997563362122e-02,-8.736437186598777771e-03,3.222737088799476624e-02,3.749792277812957764e-02,2.921463223174214363e-03,2.839580923318862915e-02,4.471663851290941238e-03,2.920939587056636810e-02,1.712919212877750397e-02,-2.424961654469370842e-03,4.550249129533767700e-02,2.602638443931937218e-03,-2.500902675092220306e-02,-4.671481903642416000e-03,-3.344730660319328308e-02,3.578040748834609985e-02,1.885671983473002911e-03,2.006688527762889862e-02
