8.596476167440414429e-03,-2.223636768758296967e-02,3.442651033401489258e-02,2.383443340659141541e-02,-2.420236170291900635e-02,-1.907709799706935883e-02,4.811768594663590193e-04,2.929010801017284393e-02,-6.167277228087186813e-03,2.160648442804813385e-02,-4.406334832310676575e-03,-3.707722947001457214e-02,2.135097747668623924e-03,1.291280984878540039e-02,-1.441480417270213366e-04,1.669397018849849701e-02,2.594169601798057556e-02,-1.179784187115728855e-03,-1.100852154195308685e-02,3.069894015789031982e-02,-1.434805244207382202e-02,-3.034956380724906921e-02,-1.451272424310445786e-02,1.443251129239797592e-02,-1.509005948901176453e-02,7.132745813578367233e-03,-1.816034130752086639e-02,-1.270843669772148132e-02,2.442821115255355835e-02,-1.836779643781483173e-03,2.128872834146022797e-02,3.044056519865989685e-02,3.108193166553974152e-02,-1.730086281895637512e-02,1.004484668374061584e-02,1.521092839539051056e-02,-1.886535063385963440e-02,-1.951335556805133820e-02,8.621362037956714630e-03,-1.027718372642993927e-02,1.307333726435899734e-02,3.449588641524314880e-02,1.835359446704387665e-02,-1.375205721706151962e-02,1.217181328684091568e-02,-1.268956810235977173e-02,8.636687882244586945e-03,3.656347095966339111e-02,-5.459437146782875061e-03,2.396180666983127594e-02,2.686381107196211815e-03,-2.831147052347660065e-02,-2.997768344357609749e-03,3.119044750928878784e-02,2.695259451866149902e-02,-1.142895407974720001e-02,-3.363816440105438232e-02,2.971711009740829468e-02,3.318698704242706299e-02,2.705397456884384155e-02,2.313783764839172363e-02,2.758330851793289185e-02,-6.803564727306365967e-03,6.873873062431812286e-04,-2.236197143793106079e-02,-2.153556421399116516e-02,3.769663721323013306e-02,-1.767986826598644257e-02,-3.042075224220752716e-02,2.799911983311176300e-02,6.683649495244026184e-03,-1.041140314191579819e-02,-1.858741603791713715e-02,1.019807811826467514e-02,4.046050831675529480e-02,-5.704663228243589401e-03,-1.356708537787199020e-02,-8.194206282496452332e-03,1.800997555255889893e-02,-1.824733801186084747e-02,-1.824870891869068146e-02,-3.380050137639045715e-02,2.407427690923213959e-02,8.323037996888160706e-03,-1.812086068093776703e-02,-3.299895324744284153e-04,5.609895102679729462e-03,2.985769696533679962e-02,1.352095883339643478e-02,3.622652031481266022e-03,-3.574391454458236694e-02,4.901081789284944534e-03,-2.937895618379116058e-02,-4.189395904541015625e-02,1.397568080574274063e-02,-1.696321927011013031e-02,-6.460206117480993271e-03,1.335461903363466263e-02,-1.917361840605735779e-02,-3.092353697866201401e-03,2.749964408576488495e-02,8.876467123627662659e-03,-2.196965925395488739e-02,-1.592767052352428436e-02,1.366626098752021790e-02,3.023746982216835022e-02,-2.946804836392402649e-02,2.572047710418701172e-02,2.038804255425930023e-02,3.109569847583770752e-02,3.151518478989601135e-02,-2.097308449447154999e-02,-1.887843757867813110e-02,-6.696687545627355576e-03,-1.035330630838871002e-02,2.792972140014171600e-02,-2.562081813812255859e-02,1.022883132100105286e-02,1.436811289750039577e-03,-1.136338803917169571e-02,2.453100681304931641e-02,3.280233219265937805e-02,3.073485754430294037e-02,-1.168572111055254936e-03,-1.870174892246723175e-02,1.812125556170940399e-02,1.448844652622938156e-02,2.722425945103168488e-02,-1.931253261864185333e-02,1.860523968935012817e-02,2.950311452150344849e-02,-1.846683584153652191e-02,-2.627725526690483093e-02,-7.129343692213296890e-03,3.012987971305847168e-02,4.463413357734680176e-02,-1.742197014391422272e-02,1.779247424565255642e-03,-3.585281223058700562e-02,4.749531857669353485e-03,3.032493591308593750e-02,-4.853610321879386902e-02,2.106981351971626282e-02,-5.493258591741323471e-03,6.609527044929563999e-04,-1.262239273637533188e-02,5.014139693230390549e-03,7.888160645961761475e-03,1.449034828692674637e-02,-4.515411332249641418e-03,3.614574670791625977e-02,-1.907084323465824127e-02,2.129447460174560547e-02,-4.341385792940855026e-03,5.762805812992155552e-04,-2.944232337176799774e-02,-6.303567904978990555e-03,-3.851943620247766376e-05,2.243158780038356781e-02,2.916277153417468071e-03,3.579500690102577209e-02,4.008555412292480469e-02,1.740070991218090057e-02,-2.434829063713550568e-02,2.396354079246520996e-02,2.437391504645347595e-02,3.316307067871093750e-02,-3.009532019495964050e-02,-1.222498528659343719e-02,-2.511613257229328156e-02,1.466475613415241241e-02,1.926877535879611969e-02,-2.936794981360435486e-02,1.756486482918262482e-02,2.333293296396732330e-02,-2.882031910121440887e-02,3.996530175209045410e-02,-3.028189297765493393e-03,2.002158202230930328e-02,2.437687665224075317e-02,2.957941778004169464e-02,-1.735357567667961121e-02,-4.700471833348274231e-02,6.206189282238483429e-03,2.694227546453475952e-02,2.554986439645290375e-02,2.018108218908309937e-02,2.845904417335987091e-02,2.666341699659824371e-02,1.700214296579360962e-02,3.615846799220889807e-04,-3.648933023214340210e-02,1.177327521145343781e-02,1.901464909315109253e-02,2.109750360250473022e-02,-2.206055261194705963e-02,-2.325629629194736481e-02,2.771220356225967407e-02,2.268161997199058533e-02,1.565722189843654633e-02,-1.745426096022129059e-02,-2.884948067367076874e-02,-1.094417087733745575e-02,-2.453349158167839050e-02,4.044154286384582520e-02,3.619059547781944275e-02,3.007556125521659851e-02,3.150876611471176147e-02,-2.106775064021348953e-03,-1.341404393315315247e-02,-2.571411244571208954e-02,2.926601469516754150e-02,-7.817987352609634399e-03,-2.689691446721553802e-02,-2.756135910749435425e-02,1.970049925148487091e-02,-2.283179899677634239e-03,-1.358771603554487228e-02,-1.586998440325260162e-02,3.645528480410575867e-02,-2.178120240569114685e-02,-3.004378080368041992e-02,1.280360389500856400e-02,-6.583393085747957230e-03,2.981126680970191956e-02,-2.186645939946174622e-02,-6.744261365383863449e-03,-2.888193726539611816e-02,-1.279194932430982590e-02,2.486961148679256439e-02,4.983454942703247070e-03,2.567043527960777283e-02,-1.778796501457691193e-02,-1.533217728137969971e-02,4.493033979088068008e-03,-1.127357501536607742e-02,-4.065980610903352499e-04,-5.685009993612766266e-03,-1.842638105154037476e-02,-2.552493102848529816e-02,4.688143264502286911e-03,-4.732538945972919464e-03,1.363999862223863602e-02,-2.026889659464359283e-02,-4.416636191308498383e-03,3.382733464241027832e-02,-4.368710797280073166e-03,-5.910180043429136276e-03,-1.154272351413965225e-02,1.588411442935466766e-02,9.999937377870082855e-03,2.245753817260265350e-02,2.079360373318195343e-02,1.225040946155786514e-02,2.773792110383510590e-02,2.051425538957118988e-02,1.174829993396997452e-02,-1.924058306030929089e-03,-1.367676258087158203e-02,2.019064687192440033e-02,1.687642000615596771e-02,-1.400408986955881119e-02,2.235621586441993713e-02,5.782596766948699951e-03,1.514926087111234665e-03,7.605109363794326782e-03,2.981696277856826782e-02,1.344575546681880951e-02,-6.363966502249240875e-03,9.324669837951660156e-03,-8.690853603184223175e-03,8.347518742084503174e-03,1.766413450241088867e-02,1.162012666463851929e-02,2.221698872745037079e-03,-1.213649101555347443e-02,3.143318369984626770e-02,-2.510913275182247162e-02,4.227482713758945465e-04,4.807912558317184448e-02,9.790007956326007843e-03,3.879313543438911438e-02,8.206724189221858978e-03,2.712120488286018372e-02,8.688541129231452942e-04,-4.155788570642471313e-02,4.889516625553369522e-03,5.390812177211046219e-03,2.888660132884979248e-02,3.526526689529418945e-02,3.044920274987816811e-03,3.587872907519340515e-02,-5.987766198813915253e-03,4.224718734622001648e-02,-1.788848266005516052e-02,3.187396796420216560e-03,-3.860022500157356262e-02,1.268292404711246490e-02,1.728024892508983612e-02,3.483944013714790344e-02,6.703799590468406677e-03,4.029294103384017944e-02,-4.471444711089134216e-02,2.301370911300182343e-02,2.369366586208343506e-02,-1.382909156382083893e-02,3.127761557698249817e-02,2.740570344030857086e-02,-1.550886686891317368e-02,-8.243618533015251160e-03,-1.522770803421735764e-02,-2.031248807907104492e-02,-5.589317530393600464e-03,-3.205116093158721924e-02,4.390773363411426544e-03,1.580477319657802582e-02,-8.264759555459022522e-03,2.344341576099395752e-02,1.216674456372857094e-03,3.320904821157455444e-02,1.314898952841758728e-02,1.011013169772922993e-03,1.149074733257293701e-02,-3.107623755931854248e-02,9.981800802052021027e-03,7.512744516134262085e-03,-2.081645652651786804e-03,-2.403223887085914612e-02,1.253171265125274658e-02,-1.923705800436437130e-03,3.125221654772758484e-02,-1.064849738031625748e-02,-2.430453337728977203e-02,-3.251308947801589966e-02,-4.656522534787654877e-03,-1.603406108915805817e-02,3.071632049977779388e-02,-2.984542958438396454e-02,-5.716076586395502090e-03,-3.244196623563766479e-02,3.259421512484550476e-02,-2.340929023921489716e-02,-2.746172808110713959e-02,3.327228361740708351e-03,-1.312641985714435577e-02,-1.198965217918157578e-02,2.595553733408451080e-02,1.580103673040866852e-02,-2.403432130813598633e-02,-2.966523170471191406e-03,-4.192081093788146973e-02,-8.019333705306053162e-03,2.332144789397716522e-02,-3.093536710366606712e-03,2.792522124946117401e-02,-1.759249716997146606e-02,4.361961036920547485e-02,2.045254968106746674e-02,2.843488566577434540e-02,1.834364049136638641e-02,-2.577828988432884216e-02,3.236003965139389038e-02,1.035826839506626129e-02,2.013099752366542816e-02,3.067720122635364532e-02,4.498025402426719666e-03,-4.969088826328516006e-03,3.228317946195602417e-02,-1.441611535847187042e-02,1.447389600798487663e-03,-7.941407151520252228e-03,2.860679477453231812e-02,2.112490683794021606e-02,1.238541211932897568e-03,-3.120075166225433350e-02,-3.397810738533735275e-03,-4.723529517650604248e-02,-3.617113456130027771e-02,1.612970791757106781e-02,-2.437609061598777771e-02,2.067709714174270630e-02,-1.918143592774868011e-02,-2.902033552527427673e-02,-2.908437699079513550e-02,-6.282407324761152267e-03,3.851182013750076294e-02,1.858735457062721252e-02,-1.660387590527534485e-02,3.067769575864076614e-04,-3.539797291159629822e-02,-3.170859813690185547e-02,2.348405867815017700e-02,-2.892247401177883148e-03,-6.298263557255268097e-03,2.459561452269554138e-02,3.812865354120731354e-03,-2.744439058005809784e-02,9.566510096192359924e-03,2.407676354050636292e-02,3.318184986710548401e-02,3.293731436133384705e-02,-3.155637299641966820e-03,2.960715908557176590e-03,2.086342126131057739e-02,-2.347574941813945770e-02,-2.411353588104248047e-02,3.709980845451354980e-02,-3.424372524023056030e-02,-2.667322696652263403e-04,-1.948943547904491425e-02,-9.189967997372150421e-03,7.301451638340950012e-03,3.990822937339544296e-03,1.739674806594848633e-02,3.803940862417221069e-02,1.548526901751756668e-02,-1.870925165712833405e-02,1.865697558969259262e-03,1.615964248776435852e-02,-1.416834164410829544e-02,-1.153286360204219818e-02,2.301758900284767151e-02,-2.644424512982368469e-02,-2.265672571957111359e-02,-2.953628078103065491e-02,2.398237586021423340e-02,-3.532358631491661072e-02,4.199311509728431702e-02,-3.212893009185791016e-02,2.356446115300059319e-03,-1.978065632283687592e-02,-4.187385365366935730e-02,-1.665059290826320648e-02,3.660249337553977966e-02,1.324032898992300034e-02,3.685928508639335632e-02,-5.619461182504892349e-03,-3.824160667136311531e-03,2.345859073102474213e-02,8.120774291455745697e-03,-3.007613308727741241e-02,-2.039523329585790634e-03,3.295753896236419678e-02,-3.270860761404037476e-02,3.015640750527381897e-02,-2.389657683670520782e-02,-1.290931977564468980e-04,3.520417213439941406e-02,3.496480733156204224e-02,-2.738287858664989471e-02,-2.561049163341522217e-02,1.905837841331958771e-02,-2.618400193750858307e-02,3.243180736899375916e-02,8.902816101908683777e-03,1.040073297917842865e-02,1.250757556408643723e-02,-3.334809467196464539e-02,-3.115019574761390686e-02,1.275015762075781822e-03,-2.841763384640216827e-02,4.411720484495162964e-02,1.237288583070039749e-02,3.433237597346305847e-02,-1.688358001410961151e-02,-3.862481191754341125e-02,2.773705497384071350e-02,-5.681452341377735138e-03,2.166293561458587646e-02,-2.506444416940212250e-02,-1.626797579228878021e-02,1.536341570317745209e-02,2.961451373994350433e-02,-3.009396232664585114e-02,3.975192084908485413e-02,8.865755051374435425e-03,-2.358595607802271843e-03,6.181945558637380600e-03,-1.595496758818626404e-02,8.593010716140270233e-03,-2.656498737633228302e-02,1.510985777713358402e-03,-1.902794837951660156e-02,-3.197035565972328186e-02,4.846740514039993286e-03,1.814641058444976807e-02,2.869508601725101471e-02,-8.981913328170776367e-03,1.455801259726285934e-02,2.320378273725509644e-02,1.570136169902980328e-03,-7.438120897859334946e-03,1.836170256137847900e-02,-4.740625247359275818e-02,1.822046935558319092e-02,-1.433549355715513229e-02,-3.451843932271003723e-02,-3.235331922769546509e-02,1.838221587240695953e-02,1.375175453722476959e-02,2.519421279430389404e-02,2.481705509126186371e-02,2.671073004603385925e-02,8.863902650773525238e-03,-3.670904785394668579e-02,-1.202884246595203876e-03,1.998276263475418091e-02,-1.295601017773151398e-02,5.664405180141329765e-04,-8.377032354474067688e-03,3.711497038602828979e-02,4.568821564316749573e-02,-1.891046948730945587e-02,1.717349141836166382e-02,-2.864160202443599701e-02,-1.710790582001209259e-02,-1.242162752896547318e-02,-6.157421041280031204e-03,6.382826250046491623e-03,3.887063264846801758e-02,-1.857928559184074402e-02,4.107961058616638184e-02,-1.313826255500316620e-02,1.890938170254230499e-02,2.629255503416061401e-02,-1.432943623512983322e-02,-1.903607160784304142e-03,2.465898729860782623e-02,2.494930662214756012e-02,-2.584233880043029785e-02,2.562108077108860016e-02,2.867195196449756622e-02,-8.402840467169880867e-04,1.713437773287296295e-02,-1.094155665487051010e-02,2.937382273375988007e-02,8.804736658930778503e-03,-2.359889447689056396e-02,-3.625742346048355103e-02,1.456344034522771835e-02,2.826675027608871460e-02,2.359387092292308807e-02,-4.067166894674301147e-02,3.119127824902534485e-03,2.838840149343013763e-02,2.965846471488475800e-02,-2.007631957530975342e-02,-2.886114409193396568e-03,8.049686439335346222e-03,2.951601520180702209e-02,-3.559199720621109009e-02,-1.938667730428278446e-03,-2.244683913886547089e-02,-2.123695099726319313e-03,2.044038660824298859e-02,-2.458452619612216949e-02,-2.746785432100296021e-02,3.305723518133163452e-02,-2.807066310197114944e-03,-1.478414516896009445e-02,4.845059290528297424e-02,-2.225821092724800110e-02,3.738246113061904907e-02,-1.462315116077661514e-02,2.947587892413139343e-02,-1.702814362943172455e-02,-2.292947471141815186e-02,1.924326898006256670e-05,-5.722321104258298874e-03,2.051674760878086090e-02,1.696885749697685242e-02,3.519662842154502869e-02,2.144112065434455872e-02,-2.961991413030773401e-04,-2.769717574119567871e-02,2.035039104521274567e-02,-1.481726579368114471e-02,2.684353291988372803e-02,-1.471640262752771378e-02,1.359487604349851608e-02,-2.976750023663043976e-02,1.985583454370498657e-02,2.785617113113403320e-02,-3.184885531663894653e-02,-3.499459102749824524e-02,-1.487624831497669220e-03,-5.998002365231513977e-03,6.641651038080453873e-03,-2.270281402161344886e-04,-1.215823460370302200e-02,1.235696393996477127e-02,4.314040299504995346e-03,3.368711471557617188e-02,2.557848580181598663e-02,5.332150962203741074e-03,-2.859820052981376648e-02,1.378498738631606102e-03,-2.497017942368984222e-02,1.168968528509140015e-02,3.837478905916213989e-02
