3.873444348573684692e-02,-2.141488902270793915e-02,1.256985869258642197e-02,-5.287878215312957764e-02,4.220715537667274475e-02,-3.324793651700019836e-02,-3.237251937389373779e-02,-1.149157993495464325e-02,8.558927476406097412e-02,-3.782735392451286316e-02,-2.070228010416030884e-02,3.984502330422401428e-02,-7.131975889205932617e-02,6.100333854556083679e-02,8.945762965595349669e-05,-1.517880149185657501e-02,6.969476491212844849e-02,7.436634600162506104e-02,-8.253172785043716431e-02,-2.250618301331996918e-02,-4.520795773714780807e-03,8.848779648542404175e-02,-3.779785707592964172e-02,-1.760359667241573334e-02,4.662539437413215637e-02,4.924305155873298645e-02,1.586100831627845764e-02,1.853829436004161835e-02,1.045216619968414307e-01,-6.650953739881515503e-02,4.573539644479751587e-02,5.810040235519409180e-02,7.603596150875091553e-02,1.022643968462944031e-01,-8.262657374143600464e-02,-1.526235695928335190e-02,8.657830208539962769e-02,3.356156125664710999e-02,-5.488963797688484192e-03,-6.652662903070449829e-02,5.165775865316390991e-02,-2.346130460500717163e-02,-5.815433710813522339e-02,9.724998474121093750e-02,7.931727916002273560e-02,3.493988653644919395e-03,-3.508955985307693481e-02,-5.596225336194038391e-02,-2.391604939475655556e-03,4.188450053334236145e-02,-4.821967706084251404e-02,1.861505676060914993e-03,-8.931916952133178711e-02,3.117962181568145752e-02,-6.448465585708618164e-02,7.922966033220291138e-02,8.372618257999420166e-02,5.212650634348392487e-03,6.392575055360794067e-02,-2.113692834973335266e-02,5.783304199576377869e-02,1.328425481915473938e-03,-5.613378435373306274e-02,-6.457386165857315063e-02,2.817636355757713318e-02,1.495451945811510086e-02,2.088228240609169006e-02,-3.677105903625488281e-02,1.180087625980377197e-01,2.302369475364685059e-02,8.714643120765686035e-02,-1.775406859815120697e-02,1.702076569199562073e-02,-4.516302049160003662e-02,3.588669374585151672e-02,4.906864464282989502e-02,3.284507244825363159e-02,1.202362403273582458e-02,-5.467092245817184448e-02,1.055768970400094986e-02,-4.239210393279790878e-03,-9.331309236586093903e-03,8.461192995309829712e-02,7.175534218549728394e-02,-7.981114089488983154e-03,-7.512481417506933212e-03,-1.879449933767318726e-02,7.400596886873245239e-02,-5.327168852090835571e-02,7.405134290456771851e-02,-1.074159983545541763e-02,3.425535187125205994e-02,2.123223245143890381e-02,1.473200134932994843e-02,9.550096094608306885e-02,-4.051405563950538635e-02,1.906825415790081024e-02,-5.854637920856475830e-02,2.308196388185024261e-02,4.353631287813186646e-02,3.091470338404178619e-02,2.596369478851556778e-03,-6.355063989758491516e-03,-6.452183425426483154e-02,3.670252859592437744e-02,6.938418000936508179e-02,2.919762046076357365e-04,-7.662195712327957153e-02,-4.708806052803993225e-02,2.306005358695983887e-02,5.177839100360870361e-02,4.098497331142425537e-02,8.184234052896499634e-02,7.257985882461071014e-03,-6.018069107085466385e-03,3.403626009821891785e-02,-4.265277460217475891e-02,-1.301571261137723923e-02,2.982205711305141449e-02,5.720386654138565063e-02,7.550603896379470825e-02,-7.236112654209136963e-02,2.481108903884887695e-02,2.506748214364051819e-02,-5.076459050178527832e-02,-5.556523427367210388e-02,7.407853007316589355e-02,-6.640653312206268311e-02,-2.870933711528778076e-02,-1.205946900881826878e-03,5.106323212385177612e-02,-5.314883217215538025e-02,-1.272717416286468506e-01,3.097808547317981720e-02,3.302987664937973022e-02,-3.517873585224151611e-02,-7.257436960935592651e-02,-4.802209325134754181e-03,9.032065421342849731e-02,-2.486901730298995972e-01,5.176195502281188965e-02,-5.635986849665641785e-02,2.036106213927268982e-02,-2.205521427094936371e-02,-1.906836219131946564e-02,3.256872063502669334e-03,2.007905393838882446e-02,6.524591892957687378e-02,-3.446224145591259003e-03,-8.211061358451843262e-03,2.791824378073215485e-02,-7.134491950273513794e-02,-2.697884477674961090e-02,9.320174902677536011e-02,6.017476692795753479e-02,-1.517395209521055222e-02,-4.583286866545677185e-02,-1.484286785125732422e-02,1.930582453496754169e-03,2.592589706182479858e-02,8.001527935266494751e-02,2.373789623379707336e-02,-2.482347004115581512e-02,-1.816948689520359039e-02,-5.260507762432098389e-02,-3.078481415286660194e-03,-7.235488295555114746e-02,9.703747928142547607e-02,1.089931093156337738e-02,7.224325090646743774e-02,1.234085019677877426e-02,3.988255187869071960e-02,5.459304433315992355e-03,-4.873686656355857849e-02,8.350076526403427124e-02,-3.385834395885467529e-02,-4.303701967000961304e-02,2.436374500393867493e-02,-4.557535797357559204e-02,-4.209954291582107544e-02,9.576614201068878174e-02,-6.634414196014404297e-02,4.515254124999046326e-02,3.809586167335510254e-02,-2.589146606624126434e-02,-4.034340009093284607e-02,5.436829105019569397e-02,3.669801726937294006e-02,7.770805060863494873e-02,8.546175807714462280e-02,5.784992390545085073e-05,-8.162523061037063599e-02,3.711548075079917908e-02,6.929039210081100464e-02,7.957790791988372803e-02,2.155972644686698914e-02,-2.959993667900562286e-03,-8.384738117456436157e-03,-1.133753266185522079e-02,-3.310791030526161194e-02,-6.519273668527603149e-02,4.537059739232063293e-02,6.369664799422025681e-03,1.495703030377626419e-02,5.802298337221145630e-02,-5.360770970582962036e-02,-2.071207202970981598e-02,-4.469075426459312439e-02,-6.849620491266250610e-02,-7.952503510750830173e-04,7.803896069526672363e-02,-1.885002106428146362e-02,-6.443441659212112427e-02,3.888163715600967407e-02,-3.769162297248840332e-02,-1.459363964386284351e-03,-4.236938059329986572e-02,2.087892778217792511e-02,-2.886693552136421204e-02,-2.020863443613052368e-02,-1.529058814048767090e-02,3.645450249314308167e-02,-3.356130048632621765e-02,-3.275121748447418213e-02,-4.522673413157463074e-02,5.789843946695327759e-02,-6.473036110401153564e-02,9.111864864826202393e-02,6.918700784444808960e-02,4.245173186063766479e-02,-2.641371451318264008e-02,8.081222884356975555e-03,9.562444686889648438e-02,7.112504541873931885e-02,-3.317175805568695068e-02,-3.905811160802841187e-02,-1.355122588574886322e-02,4.521901533007621765e-02,-4.278804361820220947e-02,1.032200641930103302e-03,6.843551993370056152e-02,7.455573230981826782e-02,8.013169467449188232e-02,3.832699963822960854e-03,1.803177222609519958e-02,8.803460747003555298e-02,8.543346822261810303e-02,1.604750938713550568e-02,2.363285608589649200e-02,-4.909673333168029785e-02,3.996170684695243835e-02,-4.321526736021041870e-02,-4.790107533335685730e-02,-1.956283673644065857e-02,2.100977580994367599e-03,8.373598754405975342e-02,2.494210563600063324e-02,-3.694968298077583313e-02,6.970345973968505859e-02,7.982393354177474976e-02,-3.423937037587165833e-02,3.944347053766250610e-02,-1.327485218644142151e-02,-6.187627837061882019e-02,-3.907976672053337097e-02,8.295903354883193970e-02,1.881798729300498962e-02,8.218593895435333252e-02,2.364275977015495300e-02,1.640195026993751526e-02,4.240463674068450928e-02,7.741452753543853760e-02,3.717462718486785889e-02,-2.303025685250759125e-02,-6.608367711305618286e-02,6.355872750282287598e-02,-2.425923198461532593e-02,7.119660824537277222e-02,-6.003256142139434814e-02,8.240661583840847015e-03,-2.196107991039752960e-03,1.351610105484724045e-02,-2.928051911294460297e-02,6.933780387043952942e-03,6.561121344566345215e-02,4.864026606082916260e-02,7.393442094326019287e-02,-7.625047117471694946e-03,-5.442210659384727478e-02,5.962865799665451050e-02,-7.471311092376708984e-02,5.092260614037513733e-02,-5.426018685102462769e-02,-2.648563869297504425e-02,6.271015107631683350e-02,-7.993055880069732666e-02,-3.389654308557510376e-02,5.678470060229301453e-02,6.691272556781768799e-02,2.676447154954075813e-03,-5.160819739103317261e-02,-5.291603878140449524e-02,4.265445098280906677e-02,7.352095842361450195e-02,-3.172541409730911255e-02,-5.391818657517433167e-02,3.748897463083267212e-02,3.091999329626560211e-02,5.142107233405113220e-02,4.728326201438903809e-02,-4.248979687690734863e-02,-4.853814467787742615e-02,-1.988786831498146057e-02,5.823810026049613953e-02,9.838848374783992767e-03,-5.104244872927665710e-02,2.986142411828041077e-02,-2.751112915575504303e-02,-2.402136661112308502e-02,-5.508459359407424927e-02,-5.020559579133987427e-02,6.771046668291091919e-02,7.339385896921157837e-02,3.035507537424564362e-02,7.144560664892196655e-02,7.907194644212722778e-02,3.035382926464080811e-02,-1.421519555151462555e-02,-5.038820579648017883e-02,-4.486867040395736694e-02,5.269474536180496216e-02,-5.552713572978973389e-02,5.038875341415405273e-02,-1.033445727080106735e-02,8.209334313869476318e-02,3.961274400353431702e-02,-2.498886315152049065e-03,-3.134714066982269287e-02,-6.208877079188823700e-03,-4.532111436128616333e-02,-3.060588799417018890e-02,-5.114181339740753174e-02,2.573329024016857147e-02,7.153033465147018433e-02,-1.119713112711906433e-02,5.874373391270637512e-02,7.813588529825210571e-02,-1.101285871118307114e-02,3.211951628327369690e-02,3.803714364767074585e-02,1.037807902321219444e-03,2.963759750127792358e-02,8.614783734083175659e-02,-3.031615354120731354e-02,1.237777154892683029e-02,-3.188095241785049438e-02,1.710276678204536438e-02,7.615680992603302002e-02,-4.140709713101387024e-02,2.026813291013240814e-02,7.645041495561599731e-02,2.317883260548114777e-02,-3.303842619061470032e-02,-2.767005003988742828e-02,-6.819533556699752808e-02,1.985991187393665314e-02,3.593396022915840149e-02,-5.119450762867927551e-02,4.992331936955451965e-02,-1.769705116748809814e-02,1.843437552452087402e-02,-5.293194577097892761e-02,-6.379724945873022079e-03,6.390093266963958740e-02,4.481041803956031799e-03,2.935607358813285828e-02,-5.881021171808242798e-02,1.003331691026687622e-01,1.775216124951839447e-02,-3.236644342541694641e-02,7.734251022338867188e-02,4.106018692255020142e-02,5.195074900984764099e-02,5.705578252673149109e-02,-6.398696452379226685e-02,7.713855803012847900e-02,-1.060318318195641041e-03,-3.399423509836196899e-02,-3.423246322199702263e-03,1.044761296361684799e-02,9.252902865409851074e-02,-3.915784880518913269e-02,7.028431445360183716e-02,4.726457595825195312e-02,2.500696107745170593e-02,6.564763188362121582e-02,-2.585188858211040497e-02,5.832952633500099182e-02,5.095210671424865723e-02,-2.341364510357379913e-02,7.884273678064346313e-02,-1.973231881856918335e-02,-2.237955294549465179e-02,2.382323332130908966e-02,-9.114989079535007477e-03,-3.791651502251625061e-02,-6.513687223196029663e-02,-2.447360940277576447e-02,3.980277478694915771e-02,8.631763607263565063e-02,2.083376422524452209e-02,-6.053731217980384827e-02,6.312116980552673340e-02,2.096245065331459045e-02,-4.998277872800827026e-02,-5.351633951067924500e-02,-2.112917415797710419e-02,9.994198381900787354e-02,1.822500023990869522e-03,5.756495520472526550e-04,8.735249191522598267e-02,3.594987094402313232e-02,-2.574939653277397156e-02,8.201188594102859497e-02,-5.112094059586524963e-02,6.958179175853729248e-02,4.763536527752876282e-02,1.053502708673477173e-01,-4.622219502925872803e-02,1.946562342345714569e-02,-5.449686199426651001e-02,5.546254664659500122e-02,4.535468667745590210e-02,1.579970121383666992e-02,-6.743564270436763763e-03,6.083341687917709351e-02,-9.749300777912139893e-03,4.474402964115142822e-02,6.642341613769531250e-02,1.783106103539466858e-02,-2.539807558059692383e-02,-3.362493962049484253e-02,4.482551664113998413e-02,5.874318629503250122e-02,9.279141202569007874e-03,-6.874891370534896851e-02,-1.255168346688151360e-03,2.146972157061100006e-02,6.339414417743682861e-02,5.214535817503929138e-02,-5.709936469793319702e-02,-3.882367536425590515e-02,-5.624069599434733391e-04,2.395036816596984863e-02,1.593277603387832642e-02,8.123201876878738403e-02,-8.090093731880187988e-02,9.200054407119750977e-02,8.988136053085327148e-02,-7.183229923248291016e-02,-1.583955064415931702e-02,7.080227136611938477e-02,1.419305335730314255e-02,-7.501026988029479980e-02,-4.762681946158409119e-02,-7.366016972810029984e-03,3.079540468752384186e-02,4.584069177508354187e-02,-1.603778451681137085e-02,4.901895299553871155e-03,2.263481356203556061e-02,5.651127547025680542e-02,2.505913376808166504e-02,-3.399680554866790771e-02,8.218071609735488892e-02,4.143771529197692871e-02,3.322784090414643288e-03,5.690103769302368164e-02,4.038982558995485306e-03,-2.144517004489898682e-02,3.210944682359695435e-02,-3.846880048513412476e-02,8.116704970598220825e-02,6.513565033674240112e-02,4.373377561569213867e-02,-5.616053193807601929e-02,8.899269998073577881e-02,-1.391446217894554138e-02,8.398841321468353271e-02,-7.806060463190078735e-02,5.515748169273138046e-03,-4.635175690054893494e-02,3.919540718197822571e-02,3.565051779150962830e-02,9.275057166814804077e-02,-3.721846640110015869e-02,3.581140562891960144e-02,-5.518145486712455750e-02,-8.913519233465194702e-02,-5.467816069722175598e-02,-9.126951918005943298e-03,-1.185039803385734558e-02,3.259594738483428955e-02,-3.999923169612884521e-02,8.209832757711410522e-02,5.374396964907646179e-02,3.457756340503692627e-02,-3.027808107435703278e-02,-8.645127527415752411e-03,3.779495880007743835e-02,-4.098958149552345276e-02,8.595854975283145905e-03,5.602680519223213196e-02,-4.527970775961875916e-02,-6.341096013784408569e-02,9.483071416616439819e-02,5.845230538398027420e-03,4.872586950659751892e-02,1.174872368574142456e-02,4.206546023488044739e-02,-5.844891071319580078e-02,3.585401549935340881e-02,-5.968708544969558716e-02,1.141942106187343597e-02,4.337437450885772705e-02,2.194801531732082367e-02,1.565405726432800293e-02,7.509583979845046997e-02,-3.511593118309974670e-02,7.072759326547384262e-03,-1.698375493288040161e-02,-1.486353576183319092e-02,5.086838081479072571e-02,6.454693526029586792e-02,-5.209644138813018799e-02,-4.695520177483558655e-02,5.002713948488235474e-02,1.128570735454559326e-02,4.159653931856155396e-02,2.845503389835357666e-03,7.116121798753738403e-02,7.596527691930532455e-03,-4.430316761136054993e-02,-6.429105252027511597e-02,7.374452054500579834e-02,4.253987967967987061e-02,1.041909586638212204e-02,-5.427920818328857422e-02,7.765910774469375610e-02,3.423929959535598755e-02,2.779741212725639343e-02,5.544124916195869446e-02,-5.955910682678222656e-02,5.731755495071411133e-02,9.294562041759490967e-03,1.074380241334438324e-02,7.650656253099441528e-02,7.360160350799560547e-02,-2.354244142770767212e-02,2.865405753254890442e-02,-8.019052445888519287e-02,-1.376976724714040756e-02,1.039295690134167671e-03,4.779911786317825317e-02,1.407736795954406261e-03,-5.443362146615982056e-02,3.459757193922996521e-02,-1.385676325298845768e-03,2.679131180047988892e-02,-2.784980833530426025e-02,-2.918303757905960083e-02,1.896131224930286407e-02,-4.924533516168594360e-02,-2.647054754197597504e-02,5.054340884089469910e-02,5.246007442474365234e-02,3.913703560829162598e-02,6.683336943387985229e-02,8.049284224398434162e-04,-3.597520664334297180e-02,7.708283513784408569e-02,7.088194042444229126e-02,1.141743212938308716e-01,-7.568178698420524597e-03,3.326406702399253845e-02,-8.347208052873611450e-02,-5.728132650256156921e-02,-8.691709488630294800e-02,5.985148623585700989e-02,-6.287089735269546509e-02,-1.073393318802118301e-02,-7.130655925720930099e-03,-3.323760256171226501e-02,9.664635360240936279e-02,8.859874308109283447e-02,3.463733196258544922e-02,-4.348614439368247986e-02,9.727704524993896484e-02,1.651195436716079712e-02,6.570143252611160278e-02,-3.891660645604133606e-02,1.132155768573284149e-02,-9.821320883929729462e-03,-1.061007613316178322e-03,1.954131573438644409e-02,4.044887423515319824e-02,-1.208816375583410263e-02,6.877714395523071289e-02,-7.130323350429534912e-02,-3.030234389007091522e-02,-1.704210788011550903e-02,2.794335409998893738e-02,7.112568709999322891e-03,-7.136577367782592773e-02,6.926656514406204224e-02,1.257218513637781143e-02,4.651057347655296326e-02,4.952058196067810059e-03,-3.157681226730346680e-02,1.239817216992378235e-02,8.811613917350769043e-02,-6.894724816083908081e-02,7.833776623010635376e-02,-1.043677330017089844e-02,-2.447086386382579803e-02,5.500667542219161987e-02,-5.051380395889282227e-02,-7.554192841053009033e-02,3.954284265637397766e-02,1.203073421493172646e-03,-6.480028480291366577e-02,4.262943565845489502e-02,5.956764146685600281e-02,3.678282722830772400e-02,9.349779784679412842e-02,-2.414575964212417603e-02,-1.021070498973131180e-02,-4.818760789930820465e-03,-3.364621475338935852e-02,2.602471597492694855e-02,-1.914316043257713318e-02,-1.444966904819011688e-02,-2.252448163926601410e-02,8.863496780395507812e-02,5.014031752943992615e-02,-5.534613877534866333e-02,2.367239817976951599e-02,9.193599224090576172e-02,8.174554258584976196e-02,6.894369423389434814e-02,-1.124743092805147171e-02,2.965201810002326965e-02,-1.871125586330890656e-02,4.040906671434640884e-03,5.178085714578628540e-02,7.496190816164016724e-02,-1.201218739151954651e-02,-4.078911989927291870e-02,-6.897692382335662842e-02,-7.389877736568450928e-02,-9.054043143987655640e-02,-5.137115344405174255e-02,-2.235725335776805878e-02,-8.294972777366638184e-02,7.845385372638702393e-02,2.055906690657138824e-02,-4.228979349136352539e-02,7.210148870944976807e-02,-7.664713263511657715e-02,7.898800075054168701e-02,6.836474407464265823e-03,1.495703216642141342e-02,2.981631644070148468e-02,9.881538897752761841e-02,-3.391215950250625610e-02,-1.342206913977861404e-02,1.550867315381765366e-02,2.856188267469406128e-02,-5.454161390662193298e-02,4.704269766807556152e-02,7.834532856941223145e-02,5.758638028055429459e-03,-5.472519621253013611e-02,-5.020650103688240051e-02,-6.107535213232040405e-02,6.430650502443313599e-02,-4.467763751745223999e-02,4.526470601558685303e-02,5.164429545402526855e-02,4.781199246644973755e-02,9.412386268377304077e-02,-4.373773932456970215e-02,5.396308377385139465e-02,6.298235058784484863e-02,3.422556817531585693e-02,5.900102853775024414e-02,-2.866679802536964417e-02,-7.330819033086299896e-03,-8.640100248157978058e-03,8.161874860525131226e-02,1.762018166482448578e-02,8.776629716157913208e-02,7.811237871646881104e-02,4.893332347273826599e-02,-3.145915642380714417e-02,5.226312787272036076e-04,-1.984645053744316101e-02,8.942592144012451172e-02,6.217865273356437683e-02,2.364869415760040283e-02,5.649787187576293945e-02,3.712587058544158936e-02,6.675828248262405396e-02,-3.410487994551658630e-02,-5.967476591467857361e-02,5.135358497500419617e-02,5.300425365567207336e-02,1.985369622707366943e-02,9.094332158565521240e-02,-3.200911357998847961e-02,-4.947558417916297913e-02,3.637510165572166443e-02,-2.874380350112915039e-02,2.840714156627655029e-02,8.017587661743164062e-02,-4.456965625286102295e-02,3.862167149782180786e-02,4.996943101286888123e-02,-1.220326963812112808e-02,4.839663952589035034e-02,-1.476975157856941223e-02,4.887891560792922974e-02,1.400643959641456604e-02,6.406760215759277344e-02,1.908581703901290894e-02,-4.979139566421508789e-02,9.017633274197578430e-03,-8.508262038230895996e-02,8.910723030567169189e-02,4.375833272933959961e-02,-4.292990639805793762e-02,5.484274402260780334e-02,-2.944400906562805176e-02,5.135390162467956543e-02,8.872291445732116699e-02,-6.179402396082878113e-02,-3.303350508213043213e-02,9.396876208484172821e-03,-5.118699371814727783e-02,5.426127091050148010e-02,2.715054433792829514e-03,1.171929575502872467e-02,3.900162130594253540e-02,9.509710967540740967e-02,-5.340775474905967712e-02,3.993103280663490295e-02,2.563183568418025970e-02,4.861014429479837418e-03,-3.803932666778564453e-02,2.883912064135074615e-02,-8.515841327607631683e-04,1.033257097005844116e-01,7.326080650091171265e-02,-5.245201662182807922e-02,-2.289440296590328217e-02,-2.446990646421909332e-02,6.188633386045694351e-03,7.572531700134277344e-02,-6.192731857299804688e-02,-5.094437673687934875e-02,9.491299837827682495e-02,8.280970901250839233e-02,6.890877336263656616e-02,9.256371110677719116e-02,7.545883208513259888e-02,6.370023638010025024e-02,6.624303013086318970e-02,-2.417097799479961395e-02,-4.462665878236293793e-03,3.494493663311004639e-02,1.971323415637016296e-02,6.606667488813400269e-02,-3.188625350594520569e-02,-7.229404896497726440e-02,-3.758496791124343872e-02,4.588170722126960754e-02,5.184775963425636292e-02,-3.708526864647865295e-02,-6.815773248672485352e-02,-1.129206363111734390e-02,6.262060999870300293e-02,1.031831186264753342e-02,2.059119008481502533e-02,-1.739309541881084442e-02,4.624459892511367798e-02,9.515137411653995514e-03,-1.529516186565160751e-02,-2.572070434689521790e-02,7.033833116292953491e-02,-2.911393903195858002e-02
