-3.013378381729125977e-02,9.577137418091297150e-03,6.615101546049118042e-02,-1.387224495410919189e-01,1.081483718007802963e-02,-8.782969415187835693e-02,2.120164223015308380e-02,-1.417325902730226517e-02,5.947563052177429199e-02,2.528294175863265991e-02,-9.301270358264446259e-03,3.520950302481651306e-02,4.161635786294937134e-02,4.105046391487121582e-02,9.048857726156711578e-03,4.827133379876613617e-04,-3.151940181851387024e-02,-9.242879599332809448e-02,-9.591239504516124725e-03,-3.671250492334365845e-02,4.422462731599807739e-02,5.636047571897506714e-02,-4.577149450778961182e-02,5.003466829657554626e-02,2.874562703073024750e-02,-3.918312117457389832e-02,3.629340603947639465e-02,3.400985151529312134e-02,5.133820697665214539e-02,-2.279008366167545319e-02,-7.536589354276657104e-02,5.986695177853107452e-03,2.276749908924102783e-02,1.775295101106166840e-02,8.500032871961593628e-02,1.067819911986589432e-02,-4.320095106959342957e-02,-5.121703818440437317e-02,5.388318002223968506e-02,3.132055327296257019e-02,-4.897612705826759338e-02,1.782820373773574829e-02,1.722645759582519531e-02,-9.771654009819030762e-02,2.688548341393470764e-02,-3.962412104010581970e-02,-2.393539249897003174e-02,-2.014010213315486908e-02,-1.650572009384632111e-02,-3.624897508416324854e-04,-3.341574594378471375e-02,-4.906058683991432190e-02,1.801838539540767670e-02,1.046303752809762955e-02,4.528407938778400421e-03,2.875054813921451569e-02,-5.707783997058868408e-02,-2.389345690608024597e-02,5.751470848917961121e-02,-2.085421001538634300e-03,-1.980321295559406281e-02,3.396913409233093262e-02,4.503575339913368225e-02,7.104779593646526337e-03,-3.386363014578819275e-02,-2.884236164391040802e-02,2.513242512941360474e-02,5.888266861438751221e-02,9.876627475023269653e-03,3.227958083152770996e-02,-9.774927049875259399e-02,1.607497036457061768e-02,-4.880279302597045898e-03,4.260832443833351135e-03,-3.299578092992305756e-03,3.043644316494464874e-02,-2.302859537303447723e-02,-3.856526454910635948e-03,-4.660598933696746826e-02,1.226939819753170013e-02,-2.109603397548198700e-02,-3.867211565375328064e-02,-5.146356299519538879e-02,4.100799188017845154e-02,-3.097463399171829224e-02,1.484688278287649155e-02,3.141515329480171204e-02,-2.548849955201148987e-02,9.744688868522644043e-03,-1.132318470627069473e-02,-5.517046898603439331e-02,1.076540444046258926e-02,3.048294410109519958e-02,2.049059141427278519e-03,2.778278850018978119e-02,1.907224953174591064e-02,-4.825897887349128723e-02,1.201458461582660675e-02,1.832817494869232178e-02,-2.883030474185943604e-02,2.829255908727645874e-02,2.480302192270755768e-02,-3.126628324389457703e-02,-1.453826203942298889e-03,2.560822665691375732e-02,2.361528016626834869e-02,2.591068297624588013e-02,6.348785478621721268e-03,2.985317446291446686e-02,1.748289167881011963e-02,-5.555475130677223206e-02,1.193480007350444794e-02,-4.938863217830657959e-02,4.876891896128654480e-02,-1.328304968774318695e-02,1.079719606786966324e-02,1.895706728100776672e-02,2.054242603480815887e-02,4.249008372426033020e-02,-2.533650957047939301e-02,-3.472548350691795349e-02,-2.528070658445358276e-02,1.375482883304357529e-02,1.025230586528778076e-01,-6.488315761089324951e-03,8.415086194872856140e-03,-9.699260815978050232e-03,7.760088890790939331e-02,-3.178821504116058350e-02,-4.602270200848579407e-03,-9.028594009578227997e-03,1.406044326722621918e-02,-1.352684851735830307e-02,-2.027062512934207916e-02,3.407982364296913147e-02,1.021824032068252563e-02,6.039324775338172913e-02,3.618620336055755615e-02,-7.159927859902381897e-03,5.083706229925155640e-02,-6.610988080501556396e-02,1.135236211121082306e-02,1.511859707534313202e-02,-2.334677986800670624e-02,-6.695873290300369263e-02,3.272112831473350525e-02,3.842180222272872925e-02,2.139103412628173828e-02,-5.657067149877548218e-02,-4.246100783348083496e-02,8.880258537828922272e-03,4.447127133607864380e-02,-3.004396148025989532e-02,1.839512027800083160e-02,5.390492454171180725e-02,2.649975195527076721e-02,5.086505040526390076e-02,-2.791848778724670410e-02,-6.904757115989923477e-03,-2.674826420843601227e-02,-5.689359735697507858e-03,1.063068024814128876e-02,-9.394028224050998688e-03,3.405468910932540894e-02,-2.615165710449218750e-02,-7.792694866657257080e-02,-1.102328021079301834e-02,2.825624868273735046e-02,8.925589732825756073e-03,1.660647056996822357e-02,-3.608296066522598267e-02,-4.320964217185974121e-02,-3.013281151652336121e-02,-7.217753212898969650e-03,2.788875624537467957e-02,-6.572288274765014648e-02,-3.460676595568656921e-02,4.746976122260093689e-02,-1.872612163424491882e-02,-2.930512651801109314e-03,-4.383090138435363770e-02,-2.900226740166544914e-03,4.469954874366521835e-03,2.426706440746784210e-02,-6.041331589221954346e-02,3.614487871527671814e-02,1.851793564856052399e-02,-2.894111908972263336e-02,1.245901640504598618e-02,-1.451268605887889862e-02,2.550487779080867767e-02,6.375191360712051392e-02,3.920854255557060242e-02,-7.477441430091857910e-02,-1.387345045804977417e-02,1.761343888938426971e-02,-4.892283305525779724e-02,-1.170328259468078613e-02,4.836592450737953186e-02,-2.432788163423538208e-02
