-4.426406696438789368e-02,-1.140883844345808029e-02,-3.430715203285217285e-02,-5.895707756280899048e-02,5.913799256086349487e-02,-1.170879080891609192e-01,3.780004335567355156e-03,-3.263450413942337036e-02,6.515403091907501221e-02,-2.298081666231155396e-02,-5.031675100326538086e-02,1.716288365423679352e-02,1.408590823411941528e-01,-8.302751183509826660e-02,-3.838974609971046448e-02,-3.476706892251968384e-02,-2.595403976738452911e-02,-2.575749903917312622e-02,6.142342090606689453e-02,6.655351817607879639e-02,-1.236616517417132854e-03,-3.357328101992607117e-02,-3.702374547719955444e-02,4.353566095232963562e-02,-3.333132714033126831e-03,-2.169718407094478607e-02,-4.422186687588691711e-02,1.202796213328838348e-02,1.813071593642234802e-02,-6.262736022472381592e-02,-9.234934113919734955e-03,6.802478805184364319e-03,-5.971884727478027344e-02,8.393502235412597656e-02,1.060981210321187973e-02,-4.229102656245231628e-02,-1.736376667395234108e-03,-3.717936202883720398e-02,-1.093486621975898743e-01,-4.678595811128616333e-02,4.716322943568229675e-02,5.851923674345016479e-02,-5.841969326138496399e-02,-2.325086109340190887e-02,-4.023584723472595215e-02,-1.054241657257080078e-01,-8.161080628633499146e-02,-6.896139681339263916e-02,2.733225002884864807e-02,-1.644594781100749969e-02,-6.539988517761230469e-02,-5.768441781401634216e-02,9.713350981473922729e-02,3.637459874153137207e-02,-6.978262215852737427e-02,-5.458535626530647278e-02
