-3.105897828936576843e-02,4.628876596689224243e-02,1.004456505179405212e-01,-1.165131926536560059e-01,-9.261578321456909180e-02,4.518759250640869141e-02,2.402213588356971741e-02,1.375119835138320923e-01,2.592135407030582428e-02,-8.123939484357833862e-02,-1.951664313673973083e-02,3.892574086785316467e-02,4.739136248826980591e-02,-5.294930562376976013e-02,6.920449435710906982e-02,3.942097350955009460e-02,-1.017294917255640030e-02,3.589697182178497314e-02,-4.604858532547950745e-02,2.866211906075477600e-02,-2.486371248960494995e-02,-2.511434815824031830e-02,-4.258340690284967422e-03,4.905646294355392456e-02,2.505370974540710449e-02,1.810753159224987030e-02,-5.314645171165466309e-02,-1.014377735555171967e-02,-3.663632646203041077e-02,-7.465240359306335449e-02,-2.695678174495697021e-02,-4.645237699151039124e-02,-1.999771967530250549e-02,1.717131584882736206e-02,-2.726493962109088898e-02,-2.730221860110759735e-02,-8.758364617824554443e-02,-2.472880855202674866e-02,1.353416293859481812e-01,1.318911761045455933e-01,-1.448086351156234741e-01,1.284120976924896240e-01,5.769035592675209045e-02,-1.834765449166297913e-02,-4.821931570768356323e-02,-4.400980472564697266e-02,3.614281862974166870e-02,6.706220097839832306e-03,-2.266013808548450470e-02,2.273055538535118103e-02,1.087291240692138672e-01,1.557091437280178070e-02,1.634737104177474976e-02,2.866906579583883286e-03,-6.657582521438598633e-02,-3.169347997754812241e-03
