4.828453809022903442e-02,-1.733868941664695740e-02,-2.558218501508235931e-02,-3.061063773930072784e-02,-2.318702638149261475e-02,1.725978404283523560e-02,-5.066760256886482239e-02,-2.439768239855766296e-02,-4.663663357496261597e-02,5.793784931302070618e-02,8.466295152902603149e-02,2.526288107037544250e-02,8.712889254093170166e-02,-4.794599488377571106e-02,3.769079223275184631e-02,4.340382292866706848e-02,2.627483196556568146e-02,6.830921769142150879e-02,4.960758239030838013e-02,2.249488793313503265e-02,-4.547670856118202209e-02,7.804245501756668091e-02,3.216493874788284302e-02,1.863743551075458527e-02,2.333341864868998528e-03,-1.662424951791763306e-02,-3.216377273201942444e-02,-7.173396646976470947e-02,5.836808308959007263e-02,3.915625065565109253e-02,-9.153862297534942627e-02,-4.270702973008155823e-02,-3.790590539574623108e-02,9.939229348674416542e-04,2.809124439954757690e-02,7.062657922506332397e-02,-9.467817842960357666e-02,7.529023103415966034e-03,2.255064807832241058e-02,3.252098709344863892e-02,-2.132454700767993927e-02,4.082974791526794434e-02,-3.920927643775939941e-02,7.140971720218658447e-02,-4.320580046623945236e-03,-1.519029214978218079e-02,-7.136810570955276489e-03,-1.649507903493940830e-03,1.244615297764539719e-02,-1.562453061342239380e-02,8.846998214721679688e-02,6.433123722672462463e-03,8.485564030706882477e-03,3.727833926677703857e-02,7.227217406034469604e-02,2.750321477651596069e-02,9.072929620742797852e-02,3.100104257464408875e-02,1.507710665464401245e-02,-8.091849274933338165e-03,6.800554692745208740e-02,-5.714413896203041077e-02,-7.998567819595336914e-02,1.822412386536598206e-02,-5.765699222683906555e-02,5.740762129426002502e-02,4.681315331254154444e-04,-2.201734110713005066e-02,1.125929784029722214e-02,-2.258192561566829681e-02,-4.825339838862419128e-02,6.385181844234466553e-02,5.921836569905281067e-02,6.289973109960556030e-02,-4.562768712639808655e-02,2.515278570353984833e-02,9.279113262891769409e-03,4.431757703423500061e-02,2.448423020541667938e-02,9.912246605381369591e-04,-4.076927527785301208e-02,-1.543715503066778183e-02,6.008050963282585144e-02,7.013101875782012939e-02,-5.340897664427757263e-02,-2.282869257032871246e-02,8.817108720541000366e-02,-2.689719572663307190e-02,4.530951753258705139e-02,-7.997062057256698608e-02,4.365667328238487244e-02,-2.171693742275238037e-02,2.588887698948383331e-02,-7.039985060691833496e-02,-2.009373717010021210e-02,9.383296221494674683e-02,1.801102794706821442e-02,5.450151860713958740e-02,8.677402511239051819e-04,-1.845362596213817596e-02
