8.703802525997161865e-02,4.156470298767089844e-02,2.325094491243362427e-02,1.276748022064566612e-03,3.121497668325901031e-02,6.893334537744522095e-02,1.883868500590324402e-02,8.045447058975696564e-03,-5.233335832599550486e-05,4.939181730151176453e-02,-4.723427817225456238e-02,2.025334164500236511e-02,-3.358089178800582886e-02,5.970799550414085388e-02,4.251633305102586746e-03,-1.387116219848394394e-02,5.455594137310981750e-02,-2.719796076416969299e-02,-4.216195270419120789e-02,5.348674580454826355e-02,-2.642746828496456146e-02,-7.755400985479354858e-02,3.547246009111404419e-02,-2.603173255920410156e-02,-1.222379412502050400e-02,-3.193566575646400452e-03,8.107900619506835938e-02,6.358918547630310059e-02,6.956733763217926025e-02,-1.537715736776590347e-02,2.294820733368396759e-02,-5.570719763636589050e-02,-2.995703555643558502e-02,8.490768074989318848e-02,6.524925678968429565e-02,-2.114454470574855804e-02,7.196526229381561279e-02,5.862986668944358826e-02,9.959020465612411499e-02,1.022389903664588928e-02,-2.597889397293329239e-03,-1.333654741756618023e-03,-3.283434361219406128e-02,3.276883810758590698e-02,1.000762358307838440e-02,2.023217454552650452e-02,-6.392756104469299316e-02,1.806273125112056732e-02,-3.753534704446792603e-02,-4.843060299754142761e-02,-7.066908478736877441e-02,-4.344675317406654358e-02,-5.218589678406715393e-02,6.112103164196014404e-02,-2.300895191729068756e-02,-2.936111390590667725e-02,8.531720936298370361e-02,-3.755967319011688232e-02,-1.985289342701435089e-02,-6.686093658208847046e-02,-1.184929162263870239e-02,-3.924632817506790161e-02,-6.030332297086715698e-02,-4.573724046349525452e-02,2.591310068964958191e-02,-2.893545106053352356e-02,-3.139401553198695183e-03,6.818419694900512695e-02,5.154499039053916931e-02,3.122729249298572540e-02,4.687815159559249878e-02,-1.287986524403095245e-02,-7.113254815340042114e-02,-6.829664576798677444e-03,6.994931027293205261e-03,4.947241768240928650e-02,3.593937959522008896e-03,-2.113706432282924652e-02,-4.150532931089401245e-02,-4.335581883788108826e-02,3.223564103245735168e-02,-3.369168192148208618e-02,1.598761533387005329e-03,7.234735530801117420e-04,-3.285840153694152832e-02,4.156297072768211365e-02,-8.878500014543533325e-02,-1.363916788250207901e-03,-7.061292976140975952e-02,8.669152855873107910e-02,-5.191962793469429016e-02,4.966689646244049072e-02,1.023432426154613495e-02,-2.536745741963386536e-02,6.854631751775741577e-02,6.403791904449462891e-02,4.915199801325798035e-02,5.877526011317968369e-03,-4.411903023719787598e-02,-3.666129335761070251e-02,-2.010069973766803741e-02,4.171600192785263062e-02,5.338355153799057007e-02,2.291608788073062897e-02,2.553436532616615295e-02,-2.504232898354530334e-02,-6.343730539083480835e-02,7.548011094331741333e-02,-1.666210405528545380e-02,-1.633084192872047424e-02,8.353044092655181885e-02,6.970534473657608032e-02,7.568590342998504639e-02,-6.665590219199657440e-03,3.525093942880630493e-02,8.048213273286819458e-02,7.986782491207122803e-02,-2.988853864371776581e-02,-1.155248470604419708e-02,1.738500222563743591e-02,8.469911664724349976e-02,7.722466252744197845e-03,-3.701599547639489174e-03,5.859221145510673523e-02,3.590061888098716736e-02,2.174988947808742523e-02,1.946735195815563202e-02,4.585356265306472778e-02,7.641430944204330444e-02,-4.167187586426734924e-02,1.385959144681692123e-02,-5.892762914299964905e-02,7.175271213054656982e-02,-2.677534893155097961e-02,-1.654689200222492218e-02,4.385738074779510498e-02,5.199680849909782410e-02,-6.055613048374652863e-03,-3.814193233847618103e-02,-6.241645198315382004e-03,4.659963026642799377e-02,-2.257013320922851562e-02,-4.940027371048927307e-02,-6.140943989157676697e-02,4.342910647392272949e-02,3.816468268632888794e-02,4.259033128619194031e-02,-3.224603831768035889e-02,8.018440008163452148e-02,-3.513460233807563782e-02,5.969218909740447998e-02,5.937315896153450012e-02,1.987309940159320831e-02,5.038573965430259705e-02,1.460880413651466370e-02,-1.217976314364932477e-04,5.213541910052299500e-02,6.887283921241760254e-02,-4.330231621861457825e-02,-4.272136092185974121e-02,6.529642641544342041e-02,6.093814969062805176e-02,-1.990048401057720184e-02,1.518035121262073517e-02,8.576574921607971191e-02,-4.202372953295707703e-02,6.444766372442245483e-02,4.790190607309341431e-02,-1.648833602666854858e-02,-5.016253888607025146e-02,-4.542869329452514648e-02,-2.816469967365264893e-02,-6.933500617742538452e-02,1.846993528306484222e-02,-5.810965318232774734e-03,3.349841386079788208e-02,-2.920738793909549713e-02,-1.015323027968406677e-02,-3.916520252823829651e-02,-5.047064274549484253e-03,4.071522876620292664e-02,3.892715275287628174e-02,-1.328298356384038925e-02,1.556053105741739273e-02,6.234341114759445190e-02,6.773865222930908203e-02,-1.162496674805879593e-02,-4.864266514778137207e-02,-3.449540818110108376e-03,-5.710620805621147156e-02,7.065844535827636719e-02,-4.959582537412643433e-02,8.596865832805633545e-02,-4.874247312545776367e-02,-1.846509985625743866e-02,7.026521116495132446e-02,2.390252240002155304e-02,-4.349517077207565308e-02,7.495643943548202515e-02,-3.481910005211830139e-02,5.470358207821846008e-02,-1.546168047934770584e-02,-1.737632974982261658e-02,3.473530989140272141e-03,9.397035837173461914e-02,1.147781265899538994e-03,-9.086599573493003845e-03,9.524376131594181061e-03,5.068193748593330383e-02,5.822775512933731079e-02,4.530835896730422974e-02,9.035633876919746399e-03,6.664596498012542725e-02,6.971711665391921997e-02,3.530047461390495300e-02,6.061803549528121948e-03,6.670369207859039307e-02,8.177882432937622070e-02,-7.209233194589614868e-02,7.210116833448410034e-02,3.756531700491905212e-02,-1.752487570047378540e-02,2.708110213279724121e-02,-4.697391018271446228e-02,1.756784319877624512e-02,-5.591251701116561890e-02,-8.598616346716880798e-03,-2.910330705344676971e-02,8.645255863666534424e-02,3.927563875913619995e-02,3.051560558378696442e-02,7.369248569011688232e-02,4.128406569361686707e-02,6.651072204113006592e-02,-5.365669354796409607e-02,-3.315177559852600098e-02,-4.990048334002494812e-02,-3.284208104014396667e-02,6.071727350354194641e-02,6.934736855328083038e-03,5.361768603324890137e-02,1.026290562003850937e-02,-1.355027686804533005e-02,2.713356539607048035e-02,-1.352883176878094673e-03,-6.604424118995666504e-02,8.606871962547302246e-02,-7.980371266603469849e-02,7.594938576221466064e-02,1.868587918579578400e-02,-5.301645398139953613e-02,-8.694801479578018188e-03,5.929972603917121887e-02,-8.513662964105606079e-03,-1.853979192674160004e-02,4.019119217991828918e-02,9.244240075349807739e-02,-2.893459238111972809e-02,-7.366255670785903931e-02,1.368707162328064442e-04,7.693645078688859940e-03,1.811918243765830994e-02,-4.689048603177070618e-02,-1.213365979492664337e-02,-3.584016114473342896e-02,-4.603251069784164429e-02,-5.327681079506874084e-02,3.408643603324890137e-02,-6.585758179426193237e-02,5.916156247258186340e-02,5.427147448062896729e-02,-4.620767384767532349e-02,-3.240491077303886414e-02,8.115990459918975830e-02,5.644153058528900146e-02,7.825307548046112061e-02,-3.992562368512153625e-02,1.291402895003557205e-02,3.826262429356575012e-02,-1.229075482115149498e-03,8.022902905941009521e-02,5.959731712937355042e-02,2.855641208589076996e-02,-1.102931424975395203e-02,8.479058742523193359e-02,-4.494803771376609802e-02,-3.466204507276415825e-04,-1.812280528247356415e-02,5.967269465327262878e-02,6.738078594207763672e-02,-3.388920053839683533e-02,-2.878210693597793579e-02,1.908757723867893219e-02,6.334136426448822021e-02,2.927625086158514023e-03,-5.474932864308357239e-02,3.842137753963470459e-02,-4.344810172915458679e-02,2.228336594998836517e-02,3.837166354060173035e-02,-8.164110593497753143e-03,-1.654080487787723541e-02,5.512289330363273621e-02,9.739646920934319496e-04,-5.347053334116935730e-02,-4.954053834080696106e-02,-4.940028116106987000e-02,4.410286433994770050e-03,-4.225425794720649719e-02,7.597782462835311890e-02,-2.826159447431564331e-02,4.519846662878990173e-02,2.944879233837127686e-02,5.390322767198085785e-03,-1.278762589208781719e-03,-1.507212780416011810e-02,6.384199112653732300e-02,-3.409110382199287415e-02,-4.200014099478721619e-02,4.606718569993972778e-02,-1.925206184387207031e-02,-2.128024771809577942e-02,5.057609826326370239e-02,-1.373176462948322296e-03,-1.794339902698993683e-02,-2.701994031667709351e-02,5.113128572702407837e-02,7.797321677207946777e-02,5.150267854332923889e-03,8.053747564554214478e-02,1.161070540547370911e-02,-3.951440006494522095e-02,-3.524054586887359619e-02,1.828622259199619293e-02,-3.351914230734109879e-03,-1.709682866930961609e-02,8.177250623703002930e-02,8.823858946561813354e-02,-1.490400079637765884e-02,-5.165568366646766663e-02,2.387474849820137024e-02,-5.845592543482780457e-02,-6.605406105518341064e-02,-3.897127881646156311e-02,4.003712162375450134e-02,2.293563447892665863e-04,-2.710907161235809326e-02,1.044777408242225647e-01,-3.043694421648979187e-03,-7.179531455039978027e-02,-1.517196837812662125e-02,6.817311048507690430e-02,-3.220868855714797974e-02,-7.788644731044769287e-02,-6.919128820300102234e-03,5.511944368481636047e-02,8.722687512636184692e-02,3.058931790292263031e-02,-1.608777232468128204e-02,6.859605014324188232e-02,-3.219734132289886475e-02,-1.171030942350625992e-02,-2.104038372635841370e-02,2.643722854554653168e-02,-8.746656030416488647e-02,-5.315569415688514709e-02,5.031619593501091003e-02,-1.402159780263900757e-02,-9.258838370442390442e-03,-3.054524213075637817e-02,-4.881351813673973083e-02,-3.783988207578659058e-02,4.849950224161148071e-02,3.681705798953771591e-03,-4.616740345954895020e-02,-6.729886680841445923e-02,-1.234842091798782349e-02,-3.778062388300895691e-02,2.659009397029876709e-02,2.232933416962623596e-02,-2.557624597102403641e-03,3.929789178073406219e-03,2.973642759025096893e-02,-5.349401012063026428e-02,-3.037166595458984375e-02,5.390863120555877686e-02,-2.065611816942691803e-02,4.277029633522033691e-02,-5.018393695354461670e-02,-1.469209510833024979e-02,-1.876582624390721321e-03,-6.915476173162460327e-02,-4.403641447424888611e-03,6.394948344677686691e-03,-3.111566416919231415e-02,-1.974141970276832581e-02,7.108614593744277954e-02,-6.822220515459775925e-03,3.015785105526447296e-02,-5.809370800852775574e-02,6.523916870355606079e-02,-3.704746067523956299e-02,-2.430354803800582886e-02,-8.359455317258834839e-02,2.524147927761077881e-02,-2.420563437044620514e-02,-1.354064140468835831e-02,2.797208912670612335e-02,-2.344646677374839783e-02,-5.748971924185752869e-02,7.518310844898223877e-02,5.218503624200820923e-02,2.414440037682652473e-03,1.592367328703403473e-02,7.212343811988830566e-02,1.761640235781669617e-02,-5.095457285642623901e-02,-3.705122694373130798e-02,2.760284813120961189e-03,-5.756828561425209045e-02,-2.841806225478649139e-02,-3.317883238196372986e-02,6.394722312688827515e-02,-6.447421759366989136e-02,2.648990415036678314e-02,-4.882156476378440857e-02,-4.847098514437675476e-02,3.448878228664398193e-02,5.773530527949333191e-02,-2.876462787389755249e-02,-4.342146962881088257e-02,-1.684485003352165222e-02,4.093609005212783813e-02,-4.650669544935226440e-02,6.954901665449142456e-02,-2.576608210802078247e-02,-6.015698611736297607e-02,3.954533953219652176e-03,9.577643126249313354e-03,-5.545121058821678162e-02,-5.101555585861206055e-02,9.191209077835083008e-02,1.376425614580512047e-03,-1.703062653541564941e-02,8.162295818328857422e-02,5.273964256048202515e-02,5.151123553514480591e-02,-2.134709991514682770e-02,5.236156657338142395e-02,6.441260874271392822e-02,-9.299883618950843811e-03,-1.485027279704809189e-02,-5.529093742370605469e-02,-5.197224393486976624e-02,-6.342371553182601929e-02,6.120361760258674622e-02,3.830943955108523369e-03,-5.671789124608039856e-02,5.914008244872093201e-02,6.817524880170822144e-02,1.184555981308221817e-02,-1.523927692323923111e-02,-3.122732043266296387e-02,1.011863816529512405e-02,7.292382419109344482e-02,2.169697731733322144e-02,-4.586616531014442444e-02,-1.032720692455768585e-02,-6.067986413836479187e-02,5.259969085454940796e-02,8.044090121984481812e-02,8.577523380517959595e-02,2.655443921685218811e-02,-2.447825856506824493e-02,-1.748217083513736725e-02,4.141537100076675415e-02,2.422347292304039001e-02,4.324371740221977234e-02,1.242378726601600647e-02,2.446285262703895569e-02,3.767942078411579132e-03,-4.004528000950813293e-02,-2.886617556214332581e-02,-3.628583997488021851e-02,-7.852301932871341705e-03,-6.704752147197723389e-02,-7.766290009021759033e-02,-5.471007153391838074e-02,7.219504565000534058e-02,4.864163324236869812e-02,-9.489829652011394501e-03,-7.154240459203720093e-02,2.971526794135570526e-02,-6.580148637294769287e-02,-8.529336005449295044e-02,2.032902650535106659e-02,5.535710230469703674e-02,-3.159501403570175171e-02,-3.422639891505241394e-02,-1.017102412879467010e-02,8.335510641336441040e-02,9.614696353673934937e-02,3.986069560050964355e-02,-3.027113154530525208e-02,2.871233504265546799e-03,-6.650695949792861938e-02,-1.029206439852714539e-03,-1.944436924532055855e-03,3.387195058166980743e-03,8.317318558692932129e-02,5.372396670281887054e-03,2.627012506127357483e-02,-6.501848995685577393e-02,4.431537538766860962e-02,7.445026189088821411e-02,6.742291152477264404e-02,-7.350911200046539307e-02,-2.287439629435539246e-02,-2.770728245377540588e-02,-5.735592916607856750e-02,-5.872035399079322815e-02,-6.063821166753768921e-02,-4.987784102559089661e-02,-1.869187876582145691e-02,1.576445065438747406e-02,8.134853839874267578e-02,-1.121578644961118698e-02,5.620630923658609390e-03,7.642266154289245605e-02,3.666032478213310242e-02,2.783802896738052368e-02,4.514809697866439819e-02,3.587039932608604431e-02,6.415140628814697266e-02,-4.875300079584121704e-02,-4.148893803358078003e-02,4.159442335367202759e-02,-4.258324950933456421e-02,-2.137118717655539513e-03,-2.698991680517792702e-03,-7.265932857990264893e-02,2.763242460787296295e-03,8.604073524475097656e-02,8.764445036649703979e-02,4.465357214212417603e-02,-2.929962426424026489e-02,-6.175676733255386353e-02,2.184915542602539062e-02,5.154098197817802429e-02,-1.412549521774053574e-03,8.940466493368148804e-02,-2.897083386778831482e-02,-4.617009311914443970e-02,9.077388048171997070e-02,9.314326196908950806e-02,8.173771202564239502e-02,2.380824089050292969e-02,1.587948948144912720e-02,4.372566938400268555e-02,-6.205324083566665649e-02,-2.602177672088146210e-02,9.862165153026580811e-02,3.890395164489746094e-02,4.576002806425094604e-02,5.684252828359603882e-02,-6.174014508724212646e-02,1.378673780709505081e-02,-3.426501154899597168e-02,6.931580603122711182e-02,9.496306627988815308e-02,-1.645103842020034790e-02,3.103787777945399284e-03,3.132767975330352783e-02,7.079158723354339600e-02,-1.743627525866031647e-02,3.687572851777076721e-02,3.331864625215530396e-02,5.256424844264984131e-02,-3.606777638196945190e-02,-7.338278740644454956e-02,-1.068647857755422592e-02,-4.957173392176628113e-02,2.467132732272148132e-02,3.043388947844505310e-02,-2.376081421971321106e-02,-6.248218566179275513e-02,4.145409911870956421e-02,-4.852445423603057861e-02,-6.509031355381011963e-02,-5.101459473371505737e-02,1.713296212255954742e-02,5.112210055813193321e-04,4.272833839058876038e-02,5.018841102719306946e-02,1.783385314047336578e-02,-8.414390683174133301e-02,-4.118410870432853699e-02,6.763660162687301636e-02,-6.244956515729427338e-03,1.845111255533993244e-03,-3.743866831064224243e-02,4.156740754842758179e-02,4.147361963987350464e-02,9.517845511436462402e-02,5.417498294264078140e-03,3.231518343091011047e-02,-6.609547883272171021e-02,-3.445135802030563354e-02,4.443563148379325867e-02,5.101704597473144531e-02,-1.305634994059801102e-02,7.901815325021743774e-02,-9.532599896192550659e-02,5.762794520705938339e-03,-5.340142175555229187e-02,6.836211681365966797e-02,-5.362921953201293945e-02,-6.725413352251052856e-02,2.858474664390087128e-02,-4.084184393286705017e-02,-1.399606466293334961e-02,-7.849013060331344604e-02,3.001693869009613991e-03,-3.236669301986694336e-02,2.634858898818492889e-02,-6.848310679197311401e-02,1.399828121066093445e-02,-2.599465660750865936e-02,3.876414149999618530e-02,3.138604015111923218e-02,-3.010565973818302155e-02,-6.590243428945541382e-03,6.237212195992469788e-02,-3.324121981859207153e-02,-1.929434947669506073e-02,4.171351715922355652e-02,-6.585858762264251709e-02,1.383529230952262878e-02,-6.144944205880165100e-02,2.060995437204837799e-02,-6.474822759628295898e-02,-6.693484634160995483e-02,2.232171595096588135e-02,6.753646582365036011e-02,-5.677649378776550293e-02,2.849068259820342064e-03,-4.002938792109489441e-02,-7.591506093740463257e-02,4.507571831345558167e-02,-1.707547344267368317e-02,6.488558650016784668e-02,8.350013196468353271e-02,2.353848516941070557e-02,3.307755291461944580e-02,3.167950734496116638e-02,2.541582472622394562e-02,-5.991546437144279480e-02,-7.339493930339813232e-02,7.169185578823089600e-02,7.244309782981872559e-02,6.259881705045700073e-02,1.851768232882022858e-02,3.203347697854042053e-02,-8.092401549220085144e-03,-7.750907540321350098e-02,8.042193949222564697e-02,-6.039582565426826477e-02,6.070362031459808350e-02,-6.330158561468124390e-02,-1.394471526145935059e-02,-2.102420330629684031e-05,-2.897231094539165497e-02,5.769052729010581970e-02,8.267418295145034790e-02,-4.008886590600013733e-02,4.326751921325922012e-03,-2.133984491229057312e-02,-2.611551992595195770e-02,-9.768201038241386414e-03,-4.258641228079795837e-02,5.350974947214126587e-02,-7.187434285879135132e-02,6.660193949937820435e-02,5.415972322225570679e-02,-3.258014842867851257e-02,6.576073169708251953e-02,2.768480964004993439e-02,-2.210206910967826843e-02,4.047343507409095764e-02,1.551652327179908752e-02,-1.025021821260452271e-02,4.727334901690483093e-02,1.047033147187903523e-04,-1.196024660021066666e-02,-7.474821992218494415e-03,3.639500960707664490e-02,-2.623601071536540985e-02,-4.470993205904960632e-02,-6.420365720987319946e-02,-1.967540010809898376e-02,5.567993596196174622e-02,-4.207360744476318359e-02,5.231759324669837952e-02,-7.967124879360198975e-02,8.062393963336944580e-02,-2.600247273221611977e-03,-4.591113701462745667e-02,6.199965998530387878e-02,8.167181164026260376e-02,-6.587372720241546631e-02,3.087271004915237427e-02,-4.931133985519409180e-02,2.154992660507559776e-03,-8.126115053892135620e-02,-9.443438611924648285e-03,1.064906455576419830e-02,-7.086335122585296631e-02,-3.387534245848655701e-02,5.861749500036239624e-02,-1.499888952821493149e-03,-9.441404836252331734e-04,6.620595604181289673e-02,2.104235067963600159e-02,-6.060189008712768555e-02,-3.401578217744827271e-02,-2.195840328931808472e-02,4.171845316886901855e-02,-6.562975794076919556e-02,1.721958070993423462e-02,9.220469743013381958e-02,7.533854246139526367e-02,-1.344457827508449554e-02,4.418138787150382996e-02,-1.656773034483194351e-03,-6.279461830854415894e-02,9.009691327810287476e-02,4.652566742151975632e-03,-1.086063496768474579e-02,2.492030896246433258e-02,6.107435002923011780e-02,3.802737966179847717e-02,5.789001658558845520e-02,3.702263534069061279e-02,-8.941536769270896912e-03,4.126157984137535095e-02,1.216380298137664795e-02,2.977503277361392975e-02,7.087720930576324463e-02,-5.860472843050956726e-02,-3.022249601781368256e-02,9.423422068357467651e-02,8.802445232868194580e-02,-2.463326090946793556e-03,6.579230725765228271e-02,6.459119170904159546e-02,6.801224779337644577e-03,3.763877786695957184e-03,3.949142992496490479e-02,8.136274665594100952e-02,-6.494347006082534790e-02,-7.722611725330352783e-02,5.752079933881759644e-02,3.298127651214599609e-02,-3.067964874207973480e-02,6.199617683887481689e-02,8.232372254133224487e-02,8.477195352315902710e-02,-6.842790544033050537e-02,-8.802150376141071320e-03,7.537598162889480591e-02,3.772196359932422638e-03,1.126274373382329941e-02,-3.534788265824317932e-02,7.771127671003341675e-02,-6.242587044835090637e-02,2.545959316194057465e-02,-2.764984592795372009e-02,4.611868411302566528e-03,5.672917515039443970e-02,-5.816647782921791077e-02,-5.739843007177114487e-03,4.611972719430923462e-02,4.277717322111129761e-02,-6.483140587806701660e-02,-3.272096440196037292e-02,4.013787582516670227e-02,-7.851703464984893799e-02,-3.434864431619644165e-02,-5.651218816637992859e-02,4.650495201349258423e-02,1.232540793716907501e-02,9.438231587409973145e-02,-5.676118656992912292e-02,-4.776238650083541870e-02,5.813339352607727051e-02,7.476779818534851074e-02,5.709116533398628235e-02,-7.275684177875518799e-02,-3.958863019943237305e-02,-2.149031497538089752e-02
