-5.042462050914764404e-02,-9.356677532196044922e-02,-1.440301910042762756e-02,2.679095836356282234e-03,-1.777002401649951935e-02,4.243564233183860779e-02,5.680285021662712097e-02,-6.070772651582956314e-03,-6.256798654794692993e-02,1.416377574205398560e-01,2.703682333230972290e-02,3.042100556194782257e-02,9.158135950565338135e-02,1.048767589963972569e-03,-4.217806458473205566e-02,-4.016401711851358414e-03,1.401584446430206299e-01,1.953928545117378235e-02,3.641910105943679810e-02,-7.043469697237014771e-02,1.607468724250793457e-02,1.676657050848007202e-01,6.080803927034139633e-03,4.575289785861968994e-03,-4.703060165047645569e-02,-7.325678318738937378e-02,-4.421534389257431030e-02,5.069357156753540039e-02,-3.576239570975303650e-02,-4.550012573599815369e-02,2.202916294336318970e-01,4.188701882958412170e-02,2.963412925601005554e-02,-8.546815067529678345e-02,-1.549197547137737274e-02,4.333017766475677490e-02,1.700969878584146500e-04,-1.286621554754674435e-03,2.455428428947925568e-02,1.653833389282226562e-01,-7.913257181644439697e-02,-6.045470759272575378e-02,2.443242818117141724e-02,1.927925944328308105e-01,4.238830506801605225e-01,2.128085680305957794e-02,1.907045394182205200e-02,1.365978922694921494e-02,-1.315992325544357300e-01,4.266588389873504639e-02,-1.130605489015579224e-01,7.304064184427261353e-02,8.477040380239486694e-02,1.561235040426254272e-01,3.100351057946681976e-02,-7.309214212000370026e-03,6.804774701595306396e-02,2.182244062423706055e-01,1.059101894497871399e-01,1.075359582901000977e-01,-2.284284122288227081e-02,2.482370100915431976e-02,7.633485365658998489e-03,1.147617120295763016e-03,-5.037801712751388550e-02,-7.085878401994705200e-02,3.910878300666809082e-02,1.437527984380722046e-01,9.518620371818542480e-02,7.357060909271240234e-02,1.541160233318805695e-02,2.195799909532070160e-02,7.984501868486404419e-02,-2.408297359943389893e-01,5.143722891807556152e-02,-4.100912064313888550e-02,3.846338763833045959e-02,-9.079652279615402222e-02,-1.181077491492033005e-02,-5.583276972174644470e-03,-3.957580029964447021e-02,-1.802543103694915771e-01,2.228205651044845581e-01,-1.098224986344575882e-02,1.506354361772537231e-01,5.870425328612327576e-02,-5.005432665348052979e-02,-3.146977687720209360e-04,9.509769082069396973e-02,-3.896465897560119629e-02,6.578930467367172241e-02,9.202028810977935791e-02,4.600906744599342346e-02,7.210309267975389957e-04,2.701723203063011169e-02,4.009785130620002747e-02,-2.864105068147182465e-02,2.165875770151615143e-02,7.148046046495437622e-02,-3.346671164035797119e-02,8.293334394693374634e-02,3.873120993375778198e-02,-2.274697460234165192e-02,7.160060852766036987e-02,6.460380391217768192e-04,2.505969628691673279e-02,1.318550258874893188e-01,-5.004750099033117294e-03,4.183350875973701477e-02,5.267837643623352051e-02,-5.791079252958297729e-02,-8.577028661966323853e-02,6.542382389307022095e-02,2.979847975075244904e-02,4.119689762592315674e-02,6.015380471944808960e-02,1.096327751874923706e-01,3.048164770007133484e-02,2.281851321458816528e-01,8.011114783585071564e-03,-3.271018341183662415e-02,6.662030518054962158e-02,8.691673725843429565e-02,2.756230235099792480e-01,8.614372462034225464e-02,7.810682989656925201e-03,-3.626379743218421936e-02,7.299010455608367920e-02,2.882254719734191895e-01,1.347870379686355591e-01,-1.841502338647842407e-01,-2.170412242412567139e-02,5.484115704894065857e-02,1.733960397541522980e-02,7.141409069299697876e-02,-2.952071605250239372e-03,3.965414687991142273e-02,7.361980527639389038e-02,1.189089640974998474e-01,-7.558315992355346680e-02,-1.252841651439666748e-01,9.457111358642578125e-02,6.669700145721435547e-02,1.590530574321746826e-02,-7.075075060129165649e-03,8.357939869165420532e-02,1.161029338836669922e-01,5.247978027909994125e-03,2.086854279041290283e-01,8.034966886043548584e-03,4.176052659749984741e-02,6.572129577398300171e-02,2.726529836654663086e-01,2.208194881677627563e-01,1.697415113449096680e-01,-1.040458604693412781e-01,-2.370262984186410904e-03,-8.755690418183803558e-03,-7.039036601781845093e-02,-5.928790569305419922e-02,-3.675254434347152710e-02,1.969697475433349609e-01,7.362577319145202637e-02,-6.542417686432600021e-03,6.779089570045471191e-02,-1.261512041091918945e-01,-1.278982907533645630e-01,-6.315924227237701416e-02,1.918621659278869629e-01,-1.135667189955711365e-01,1.794031858444213867e-01,6.309441924095153809e-01,1.142396330833435059e-01,-6.033822521567344666e-02,1.166623756289482117e-01,3.010566905140876770e-02,-2.755590677261352539e-01,2.540381252765655518e-02,-5.909400805830955505e-02,-3.914383426308631897e-02,9.539767168462276459e-03,-1.008342113345861435e-02,-1.665473915636539459e-02,-2.270314376801252365e-03,1.101999878883361816e-01,1.334353536367416382e-01,4.463916644454002380e-02,-5.226135253906250000e-02,-9.754142910242080688e-02,-1.519708987325429916e-02,1.817759275436401367e-01,9.508007764816284180e-02,6.457973271608352661e-02,-1.031578257679939270e-01,3.363515809178352356e-02,6.577081233263015747e-02,3.084849379956722260e-02,3.073342442512512207e-01,-4.418605938553810120e-02,1.149569526314735413e-01,-9.864119440317153931e-02,4.395332559943199158e-02,-6.065785419195890427e-04,-3.377839177846908569e-02,5.757049471139907837e-02,1.383832991123199463e-01,-1.963679678738117218e-04,6.592527031898498535e-03,-6.130837649106979370e-02,5.683372169733047485e-02,-3.296944499015808105e-02,-1.268513202667236328e-01,9.138614684343338013e-02,8.790972828865051270e-02,-8.228240907192230225e-02,1.089397002942860126e-03,8.648419380187988281e-02,2.342149801552295685e-02,8.472646027803421021e-02,1.569251716136932373e-02,-8.963044965639710426e-04,1.445770114660263062e-01,5.266303196549415588e-02,-5.860287323594093323e-02,1.743411123752593994e-01,2.531766518950462341e-02,4.291183128952980042e-02,1.221420392394065857e-01,2.096225321292877197e-02,6.803046166896820068e-02,8.031192421913146973e-02,-6.701192818582057953e-03,7.792509347200393677e-02,5.850589275360107422e-02,5.174565315246582031e-02,3.387317806482315063e-02,1.448028981685638428e-01,1.374500691890716553e-01,-7.940297946333885193e-03,2.389198392629623413e-01,-5.166435148566961288e-03,5.571452155709266663e-02,4.295936226844787598e-02,2.233530580997467041e-01,1.381412264890968800e-03,-4.574847221374511719e-02,-6.002977490425109863e-02,4.488877207040786743e-02,1.155181042850017548e-02,-6.297983229160308838e-02,-3.909469395875930786e-02,-2.255997620522975922e-02,5.794285982847213745e-02,-1.293665021657943726e-01,-8.912665396928787231e-02,2.816794905811548233e-03,2.139977738261222839e-02,7.074896246194839478e-02,7.574135810136795044e-02,-2.562124654650688171e-02,6.165915355086326599e-02,-1.361586619168519974e-02,6.612642854452133179e-02,-1.598002202808856964e-02,3.015423119068145752e-01,1.127154659479856491e-02,2.144873142242431641e-02,2.288793958723545074e-02,-2.036108225584030151e-01,-1.323321135714650154e-03,3.026997447013854980e-01,3.242550045251846313e-02,-3.066881187260150909e-02,-5.232590809464454651e-02,-3.393615037202835083e-02,9.586039930582046509e-02,2.245800383388996124e-02,-2.391351200640201569e-02,-4.333685711026191711e-02,-2.392752468585968018e-02,-7.355380803346633911e-02,-1.587808132171630859e-01,-3.468672186136245728e-02,1.012847870588302612e-01,5.832136794924736023e-02,-5.804586224257946014e-03,-3.279635682702064514e-02,3.087210282683372498e-02,1.251485496759414673e-01,6.158310174942016602e-02,1.365397274494171143e-01,-1.840223371982574463e-02,2.067183516919612885e-02,5.891467258334159851e-02,8.671884983777999878e-02,-2.167446911334991455e-02,1.696501858532428741e-02,9.768973290920257568e-02,7.112246751785278320e-02,1.514025498181581497e-02,-2.728606201708316803e-02,-3.272239863872528076e-02,3.013562224805355072e-02,1.952682808041572571e-02,1.003239583224058151e-02,6.114780530333518982e-02,-4.544003680348396301e-02,2.674154005944728851e-02,2.862752042710781097e-02,7.439475506544113159e-02,3.103278763592243195e-02,-4.725175723433494568e-02,4.412554576992988586e-02,1.823595613241195679e-01,4.169917479157447815e-02,1.869047135114669800e-01,7.107652723789215088e-03,-2.321557141840457916e-02,-1.854784190654754639e-01,5.794154852628707886e-02,1.509228628128767014e-02,-7.295177131891250610e-02,-1.302560567855834961e-01,1.175160333514213562e-01,-5.835664272308349609e-02,8.336715400218963623e-02,-9.208357078023254871e-04,5.685245245695114136e-02,-6.997694820165634155e-02,1.690035164356231689e-01,4.271959140896797180e-02,-8.770024031400680542e-02,-5.266770720481872559e-02,5.364303477108478546e-03,2.544554322957992554e-02,-2.615340352058410645e-01,-4.597866162657737732e-02,6.734782457351684570e-02,-2.468319982290267944e-02,8.537412434816360474e-02,3.235331177711486816e-02,7.945031858980655670e-03,3.581286221742630005e-02,4.976117610931396484e-02,-3.454469516873359680e-02,-1.784700900316238403e-02,-1.519180536270141602e-01,3.399023413658142090e-02,2.611381001770496368e-02,3.546840324997901917e-02,4.228919371962547302e-02,-4.805611446499824524e-02,-1.492065936326980591e-01,1.107698082923889160e-01,1.046253591775894165e-01,8.845420181751251221e-02,-1.891883015632629395e-01,-4.786118119955062866e-02,1.641694828867912292e-02,6.804660707712173462e-02,7.655315846204757690e-02,1.970305442810058594e-01,7.063317298889160156e-02,2.993723005056381226e-02,3.863807022571563721e-02,1.391246635466814041e-02,9.590607136487960815e-02,2.283221632242202759e-01,3.072146177291870117e-01,1.391611900180578232e-02,2.525972761213779449e-02,4.898569360375404358e-02,5.518203973770141602e-02,1.476194560527801514e-01,7.105661183595657349e-02,6.932150572538375854e-02,-8.817799389362335205e-03,-1.486248970031738281e-01,-9.581831982359290123e-04,3.434412479400634766e-01,1.497619412839412689e-02,-3.343737684190273285e-03,-8.417891710996627808e-02,2.907350957393646240e-01,-4.157402366399765015e-02,1.164626237004995346e-02,-1.447741407901048660e-02,1.954051107168197632e-02,3.476957231760025024e-02,4.683756828308105469e-02,4.865264147520065308e-02,-9.088932722806930542e-02,3.761741798371076584e-03,-4.079082235693931580e-02,-5.070438981056213379e-02,-2.148208022117614746e-02,6.740121543407440186e-02,6.411471217870712280e-02,-6.604927778244018555e-02,1.184103414416313171e-01
6.835415959358215332e-02,4.981482774019241333e-02,5.719719920307397842e-04,-1.605529785156250000e-01,6.048072129487991333e-02,-4.997386597096920013e-03,-1.085155904293060303e-01,-5.269114673137664795e-02,-1.032478809356689453e-01,-3.640353307127952576e-02,1.017786040902137756e-01,5.584872514009475708e-02,-2.182892709970474243e-01,4.960159957408905029e-02,-1.662506349384784698e-02,7.706987089477479458e-04,3.679980710148811340e-02,3.145635128021240234e-02,-1.792398095130920410e-01,1.586100086569786072e-02,-6.601639091968536377e-02,-9.634551405906677246e-02,2.134152315557003021e-02,8.436724543571472168e-02,4.391821473836898804e-02,1.557465922087430954e-02,5.236371979117393494e-02,-2.621549554169178009e-02,4.330953210592269897e-02,9.920692443847656250e-02,-1.646170467138290405e-01,-7.448763586580753326e-03,4.197874665260314941e-02,-5.798685923218727112e-02,9.062686935067176819e-03,2.912477403879165649e-02,8.568987995386123657e-02,3.823485970497131348e-02,-2.461884357035160065e-02,8.103512972593307495e-02,8.550706505775451660e-02,-1.888528019189834595e-01,-8.082224428653717041e-02,-9.385067969560623169e-02,-2.760983109474182129e-01,5.182977393269538879e-02,-3.307069465517997742e-02,-6.085278466343879700e-02,-8.732585608959197998e-02,2.185829170048236847e-02,1.068367287516593933e-01,-6.618125736713409424e-02,7.653380744159221649e-03,-1.013773772865533829e-02,7.645459473133087158e-02,-3.092634677886962891e-01,-8.446089923381805420e-02,-1.855175383388996124e-02,8.892349898815155029e-02,-6.312405318021774292e-02,1.392055749893188477e-01,3.986912220716476440e-02,-3.285833448171615601e-02,-1.223520785570144653e-01,1.741490885615348816e-02,8.004926145076751709e-02,-1.851670071482658386e-02,-2.494550347328186035e-01,-5.439526215195655823e-02,5.107353627681732178e-02,-3.143579512834548950e-02,1.621277481317520142e-01,3.131514042615890503e-02,1.958766728639602661e-01,3.833752870559692383e-02,-1.655038504395633936e-04,3.269855305552482605e-02,3.431721776723861694e-02,2.250699140131473541e-02,-5.813281610608100891e-02,5.704979225993156433e-02,1.350941210985183716e-01,-7.620814442634582520e-02,2.939471974968910217e-02,2.524274401366710663e-02,3.273376077413558960e-02,-2.769221924245357513e-02,-3.869700944051146507e-03,6.572683900594711304e-02,1.888414844870567322e-02,5.031599476933479309e-02,1.320806331932544708e-02,2.268036603927612305e-01,9.731750003993511200e-03,2.665293961763381958e-02,7.980911992490291595e-03,2.093813009560108185e-02,-3.040326759219169617e-02,2.819305956363677979e-01,-4.185180366039276123e-02,-5.806903913617134094e-02,-1.584252566099166870e-01,7.643495500087738037e-02,1.426897495985031128e-01,1.636451929807662964e-01,-1.749857515096664429e-02,-1.592569649219512939e-01,-4.969692975282669067e-02,-3.478194028139114380e-02,-5.144296959042549133e-02,-4.268135502934455872e-02,4.117781296372413635e-03,2.018999904394149780e-01,3.983786329627037048e-02,2.124593406915664673e-01,-2.676511183381080627e-03,-5.201085284352302551e-02,-1.099054887890815735e-01,-3.756383955478668213e-01,-2.768143080174922943e-02,-7.817472331225872040e-03,-1.347467899322509766e-01,-3.090416081249713898e-02,-7.987336069345474243e-02,1.269182562828063965e-01,2.335051447153091431e-01,2.539247833192348480e-02,-2.145069986581802368e-01,4.646284878253936768e-02,8.195050060749053955e-03,-3.892155364155769348e-02,1.675499379634857178e-01,1.774006709456443787e-02,-5.308461189270019531e-02,3.506249561905860901e-02,-5.135692283511161804e-02,5.896124243736267090e-02,7.136180251836776733e-02,-1.047340855002403259e-01,4.989774525165557861e-02,1.916516423225402832e-01,3.536367416381835938e-02,5.100614577531814575e-02,6.231714785099029541e-02,-1.170757692307233810e-02,2.928684651851654053e-02,9.052077657543122768e-04,-3.494410589337348938e-02,6.689409911632537842e-02,5.046192184090614319e-02,1.046854853630065918e-01,1.788943111896514893e-01,4.322190284729003906e-01,-1.385084986686706543e-01,-4.890426248311996460e-02,-9.206900000572204590e-02,4.358820244669914246e-02,-1.994599029421806335e-02,-3.715788200497627258e-02,-7.023706287145614624e-02,6.917952001094818115e-02,-8.546342141926288605e-03,8.865293115377426147e-03,7.057238370180130005e-02,-6.174112856388092041e-02,-1.575060486793518066e-01,9.017745405435562134e-02,-2.251867204904556274e-02,-1.212253272533416748e-01,1.115312948822975159e-01,2.655244171619415283e-01,-2.399916015565395355e-02,-1.059985533356666565e-01,7.849951274693012238e-03,3.206752613186836243e-02,-9.392653405666351318e-02,1.282090786844491959e-02,1.263910718262195587e-02,-7.926626713015139103e-04,-9.123040735721588135e-02,1.084159389138221741e-01,3.780440241098403931e-02,1.045558527112007141e-01,-2.801277935504913330e-01,1.934131979942321777e-02,-4.378321394324302673e-02,-1.925555765628814697e-01,9.242939949035644531e-02,3.749845176935195923e-02,-1.291321367025375366e-01,1.451286952942609787e-02,4.544537141919136047e-02,8.636541897431015968e-04,4.108585044741630554e-02,-5.332178622484207153e-02,3.630270808935165405e-02,1.506687793880701065e-02,-9.887498803436756134e-03,7.445231080055236816e-02,1.056649982929229736e-01,5.060200393199920654e-02,8.584351092576980591e-02,9.630734473466873169e-02,2.085466086864471436e-01,3.987827152013778687e-02,-1.462256461381912231e-01,4.201728105545043945e-02,-5.824888497591018677e-02,-1.989831924438476562e-01,5.743737146258354187e-02,1.941956579685211182e-01,1.185921207070350647e-01,-1.962309330701828003e-01,1.399384997785091400e-02,1.193406060338020325e-01,3.590510785579681396e-02,-1.047686859965324402e-01,-3.588062152266502380e-02,8.321838825941085815e-02,-3.268114477396011353e-02,-9.840930998325347900e-02,2.567168138921260834e-02,6.274981051683425903e-02,9.426269680261611938e-02,-2.615086920559406281e-02,-1.922674030065536499e-01,7.398231327533721924e-02,2.826393395662307739e-02,-8.665579557418823242e-02,-4.680153727531433105e-02,6.246715784072875977e-02,4.822665359824895859e-03,1.257749497890472412e-01,-2.384918928146362305e-02,4.456135910004377365e-03,8.777138590812683105e-02,-2.086080461740493774e-01,3.475400432944297791e-02,6.425751745700836182e-02,6.955451518297195435e-02,-6.592942401766777039e-03,-1.972673228010535240e-03,-9.286224842071533203e-02,-8.321632444858551025e-02,1.149821132421493530e-01,-4.923576861619949341e-02,8.301293477416038513e-03,-6.545323878526687622e-02,4.352201148867607117e-02,-9.102423675358295441e-03,1.394691765308380127e-01,-1.710717007517814636e-02,1.700091809034347534e-01,2.626887056976556778e-03,1.976546272635459900e-02,-2.001941353082656860e-01,3.446907922625541687e-02,7.471392303705215454e-02,6.158549711108207703e-02,4.437606781721115112e-02,7.778126746416091919e-02,4.098732396960258484e-02,4.945647716522216797e-02,-4.266937077045440674e-02,-4.246317446231842041e-01,4.236432537436485291e-02,1.141365393996238708e-01,2.575997821986675262e-02,1.319852918386459351e-01,1.484130322933197021e-01,-9.791997075080871582e-02,-1.020192075520753860e-02,9.102983027696609497e-02,4.932641237974166870e-02,2.767554670572280884e-02,-1.457591056823730469e-01,2.199320495128631592e-02,-3.942818194627761841e-02,2.044434845447540283e-02,-6.549141556024551392e-02,5.353119969367980957e-02,-6.017062813043594360e-02,6.092654168605804443e-02,-4.706863313913345337e-02,1.732890726998448372e-03,-8.377574384212493896e-02,1.183799430727958679e-01,2.016197517514228821e-02,-3.562394157052040100e-02,2.151731587946414948e-02,-9.718835353851318359e-02,8.635897189378738403e-02,3.609663993120193481e-02,-1.981141418218612671e-02,1.566359587013721466e-02,-1.744170635938644409e-01,-5.357091315090656281e-03,1.143370792269706726e-01,5.088970065116882324e-02,-4.860692843794822693e-02,-1.234327722340822220e-02,3.602766245603561401e-02,1.863147318363189697e-01,5.677395500242710114e-03,1.238808631896972656e-01,4.665541648864746094e-02,-8.220819383859634399e-02,6.352512538433074951e-02,1.401913911104202271e-02,2.911480516195297241e-02,6.209596246480941772e-02,-2.834589481353759766e-01,-4.849797114729881287e-02,-8.445402979850769043e-02,7.188244163990020752e-02,-1.026473790407180786e-01,-9.156291186809539795e-02,-1.348780095577239990e-01,1.188731044530868530e-01,-4.591090604662895203e-02,-1.436247769743204117e-02,4.066864401102066040e-02,1.557796597480773926e-01,-1.658188104629516602e-01,-4.839713871479034424e-02,2.743496745824813843e-02,6.712836772203445435e-02,8.817317895591259003e-03,6.524602323770523071e-02,-3.767124190926551819e-02,1.908451765775680542e-01,1.264583915472030640e-01,3.369788452982902527e-02,-2.653664164245128632e-02,4.658085480332374573e-02,3.980988860130310059e-01,-6.992513313889503479e-03,-4.181915149092674255e-02,3.625742346048355103e-02,1.214045733213424683e-01,-2.941860258579254150e-01,6.871008872985839844e-02,3.874095156788825989e-02,1.352405250072479248e-01,1.089357212185859680e-01,3.270445391535758972e-02,7.679744064807891846e-02,7.095701992511749268e-02,9.210059419274330139e-03,-1.559281535446643829e-02,-2.224255204200744629e-01,2.345094084739685059e-02,-4.145320132374763489e-02,-4.947565868496894836e-02,1.545743737369775772e-02,-3.338840231299400330e-02,-7.981136441230773926e-03,-2.641144581139087677e-02,2.668726146221160889e-01,8.327650278806686401e-02,-2.452298551797866821e-01,5.273169651627540588e-02,6.802379339933395386e-02,-4.821073263883590698e-03,4.692872241139411926e-02,5.640457198023796082e-02,-8.113170415163040161e-02,-5.479445680975914001e-02,5.328092724084854126e-02,5.571047961711883545e-02,-2.639849111437797546e-02,8.562219887971878052e-02,8.685341477394104004e-02,5.006456747651100159e-02,-1.192829571664333344e-02,2.155832052230834961e-01,-7.491575088351964951e-03,3.586288541555404663e-02,4.519744217395782471e-02,-1.188369542360305786e-01,3.545291954651474953e-03,1.059259660542011261e-02,-1.881682872772216797e-02,1.757626235485076904e-01,1.052776724100112915e-01,-4.420970380306243896e-02,-3.759220987558364868e-02,5.492942035198211670e-02,6.758350133895874023e-02,-1.893226243555545807e-02,8.543096482753753662e-02,5.852573364973068237e-02,-5.952161271125078201e-03,8.936773240566253662e-02,5.365386605262756348e-02,-5.214926600456237793e-02,-4.144704341888427734e-02,-3.348284959793090820e-02,-3.577665612101554871e-02,-4.091695696115493774e-02
4.220367968082427979e-02,6.491726730018854141e-03,2.818232029676437378e-02,1.678185760974884033e-01,-7.497548591345548630e-03,8.171181194484233856e-03,-2.418809197843074799e-02,-4.517672210931777954e-02,1.602068729698657990e-02,2.611602656543254852e-02,-8.442982286214828491e-02,5.790103692561388016e-03,1.254062503576278687e-01,4.850080236792564392e-02,6.878935545682907104e-02,-1.059330161660909653e-02,-8.574911952018737793e-02,-2.593213133513927460e-02,7.788415253162384033e-02,-2.978663519024848938e-02,5.082243680953979492e-02,2.110788598656654358e-02,-2.797158434987068176e-02,2.327641099691390991e-02,-2.462800219655036926e-02,4.921726882457733154e-02,2.671163901686668396e-02,-7.101874053478240967e-02,6.162602454423904419e-02,1.680216565728187561e-02,5.988821759819984436e-02,4.994362592697143555e-02,4.011241719126701355e-02,7.139884680509567261e-02,-2.927644178271293640e-02,8.054484426975250244e-02,-4.418812692165374756e-02,1.933626830577850342e-02,5.434947460889816284e-02,-4.445826634764671326e-02,-9.602502733469009399e-02,1.059479787945747375e-01,-2.215489186346530914e-02,-4.245358332991600037e-02,1.578629910945892334e-01,4.659032821655273438e-02,9.187675081193447113e-03,7.152083516120910645e-02,-7.524968124926090240e-03,-2.676691673696041107e-02,7.064247503876686096e-03,5.606048554182052612e-02,-1.567061431705951691e-02,6.447858642786741257e-03,-1.921418495476245880e-02,2.681813538074493408e-01,1.833193898200988770e-01,-1.136485934257507324e-01,-5.917225405573844910e-02,1.430064346641302109e-02,-1.225844174623489380e-01,-2.395618706941604614e-02,8.255980163812637329e-02,2.205609232187271118e-01,1.763988658785820007e-02,-7.820972055196762085e-02,-3.484216332435607910e-02,3.042956814169883728e-02,1.462462842464447021e-01,-6.007432192564010620e-02,8.713044226169586182e-02,-1.071086339652538300e-02,-4.332600533962249756e-02,-6.888844817876815796e-02,-3.559567406773567200e-02,2.451846934854984283e-02,5.511636286973953247e-02,-3.785295039415359497e-02,4.297412186861038208e-02,8.184319734573364258e-02,-1.013527661561965942e-01,5.819496000185608864e-04,1.776768863201141357e-01,4.330485686659812927e-02,4.132065549492835999e-02,-9.043660014867782593e-03,2.730462886393070221e-02,3.305929899215698242e-02,-9.521410614252090454e-02,4.771383851766586304e-02,-6.300766766071319580e-02,-7.612014561891555786e-02,-1.906560659408569336e-01,2.710168622434139252e-02,6.263426691293716431e-02,3.288720920681953430e-02,-1.796542853116989136e-02,4.100888594985008240e-02,-1.559796184301376343e-01,6.448223441839218140e-02,4.857571423053741455e-02,2.877234518527984619e-01,-4.909113422036170959e-02,-4.140381887555122375e-02,-5.371932685375213623e-02,5.042067542672157288e-02,8.415587246417999268e-02,1.061242353171110153e-02,1.522440183907747269e-02,1.184954419732093811e-01,-1.060867235064506531e-01,2.833282575011253357e-02,-1.355371773242950439e-01,5.849632248282432556e-02,-6.674415618181228638e-02,-3.628008766099810600e-03,-4.977263882756233215e-02,7.549496740102767944e-02,1.857253611087799072e-01,1.703031547367572784e-02,-2.116207964718341827e-02,6.069137528538703918e-02,3.107291087508201599e-02,2.892693504691123962e-02,-3.664755448698997498e-02,-1.700852364301681519e-01,4.143611341714859009e-02,-4.904886242002248764e-03,-2.158924043178558350e-01,6.196834519505500793e-02,2.234379947185516357e-01,1.676590740680694580e-02,1.962859369814395905e-02,2.402951940894126892e-02,-1.533621363341808319e-02,7.056380622088909149e-03,-1.422726735472679138e-02,1.168986927950754762e-04,-6.422346085309982300e-02,-4.852745309472084045e-02,-1.139742285013198853e-01,-2.528570406138896942e-02,2.412195550277829170e-03,-4.129302874207496643e-02,-2.192173525691032410e-02,2.172280475497245789e-02,2.278450410813093185e-03,3.320676973089575768e-03,-1.742687635123729706e-02,2.629216760396957397e-02,-1.515439338982105255e-02,-7.262454181909561157e-02,-3.551158607006072998e-01,-1.282072253525257111e-02,7.413158565759658813e-02,1.456645578145980835e-01,6.949921604245901108e-03,6.930157542228698730e-02,4.326909780502319336e-02,1.014254763722419739e-01,-2.248539216816425323e-02,1.087065041065216064e-01,4.178052023053169250e-02,-5.691207945346832275e-02,7.084267586469650269e-02,1.055031195282936096e-01,3.308165445923805237e-02,1.031915172934532166e-01,2.178823500871658325e-01,-7.618207018822431564e-03,-2.335964739322662354e-01,-2.182409465312957764e-01,1.439897865056991577e-01,-2.642761543393135071e-02,-8.245248463936150074e-04,5.794571712613105774e-02,2.776862382888793945e-01,-4.004368185997009277e-02,-3.774972259998321533e-02,1.153176464140415192e-02,4.129583761096000671e-02,-9.043063968420028687e-03,2.759530209004878998e-02,7.291191071271896362e-02,-2.994648925960063934e-02,7.314283400774002075e-02,4.831728525459766388e-03,-2.947074919939041138e-02,3.536355867981910706e-02,6.922670453786849976e-02,3.153942152857780457e-02,-2.561025694012641907e-02,1.123335305601358414e-02,3.109501861035823822e-02,6.021746993064880371e-02,1.812192425131797791e-02,-9.027086198329925537e-03,-3.692029044032096863e-03,6.121750921010971069e-02,-7.741875201463699341e-02,-2.263359352946281433e-02,-2.214385941624641418e-02,-1.937202364206314087e-02,-1.927907466888427734e-01,1.624122494831681252e-03,8.778649568557739258e-02,-1.646903157234191895e-02,5.016697943210601807e-02,2.012446522712707520e-01,-1.345961820334196091e-02,6.398630794137716293e-03,2.116508316248655319e-03,6.360056996345520020e-02,9.491924196481704712e-02,-1.185902431607246399e-01,5.015877075493335724e-03,1.543178856372833252e-01,4.202034324407577515e-02,-3.743032738566398621e-02,4.264306649565696716e-02,5.495186895132064819e-02,-7.101323455572128296e-02,-2.848871052265167236e-03,-2.313660457730293274e-02,-1.593594066798686981e-02,1.756193637847900391e-01,-6.249152868986129761e-02,-3.884664177894592285e-02,1.903966069221496582e-02,9.958641231060028076e-02,-5.024895071983337402e-02,-1.718611456453800201e-02,-3.387468159198760986e-01,5.853823851794004440e-03,1.856261864304542542e-02,-5.339699983596801758e-02,7.905695587396621704e-02,1.239444967359304428e-02,1.407807692885398865e-02,-1.028866097331047058e-01,-4.865258466452360153e-03,3.844293206930160522e-02,3.770384192466735840e-02,-5.553904548287391663e-02,-6.074023619294166565e-02,-5.322422087192535400e-02,-1.741481013596057892e-02,1.752750724554061890e-01,2.190923318266868591e-02,5.292642489075660706e-02,-7.461008429527282715e-02,3.013426624238491058e-02,-1.204839870333671570e-01,1.272026151418685913e-01,1.442244648933410645e-01,1.766415387392044067e-01,-2.476360090076923370e-02,-8.834379725158214569e-03,-3.206999599933624268e-02,9.930015541613101959e-03,-3.897272050380706787e-02,4.060528799891471863e-02,3.381801769137382507e-02,9.126178175210952759e-02,2.959164381027221680e-01,3.248104080557823181e-02,-5.357935279607772827e-02,-1.322808396071195602e-02,-2.021889016032218933e-02,2.793344482779502869e-02,-6.311496347188949585e-02,8.270028978586196899e-03,-3.211158886551856995e-02,-6.380957551300525665e-03,-1.491421740502119064e-02,-7.930763065814971924e-02,7.186389714479446411e-02,8.412837237119674683e-02,2.734930813312530518e-02,2.032159455120563507e-02,1.134369894862174988e-02,4.260757565498352051e-02,-4.629099369049072266e-02,-7.831524312496185303e-02,-4.808275029063224792e-02,-7.607968989759683609e-03,-1.217449456453323364e-01,-1.767307706177234650e-02,-3.421792387962341309e-02,-2.233364246785640717e-02,1.385846585035324097e-01,-1.909914240241050720e-02,2.196555957198143005e-02,4.302798956632614136e-02,6.884442269802093506e-02,1.351309269666671753e-01,-5.179579369723796844e-03,-3.634649142622947693e-02,-4.402783885598182678e-02,-5.420468747615814209e-02,1.744585298001766205e-02,6.450762599706649780e-02,-1.664243340492248535e-01,-2.364991419017314911e-02,-1.094021797180175781e-01,-6.760250031948089600e-02,9.673124551773071289e-02,-1.796322525478899479e-03,8.612937293946743011e-03,-1.436022818088531494e-01,2.170686423778533936e-02,7.526817917823791504e-02,-4.460367839783430099e-03,8.410524576902389526e-03,-3.419575095176696777e-02,8.291278779506683350e-02,1.373729668557643890e-02,1.019142642617225647e-01,1.318055298179388046e-02,2.152740582823753357e-02,1.774186827242374420e-02,-2.364554442465305328e-02,7.212927192449569702e-02,1.228901073336601257e-01,7.348416745662689209e-02,-9.169869124889373779e-03,-1.517957728356122971e-02,-2.031305059790611267e-02,1.243163365870714188e-02,-3.837746754288673401e-02,-2.318824678659439087e-01,-4.984109476208686829e-02,3.585678711533546448e-02,-1.244408544152975082e-02,-4.590012505650520325e-02,-1.756677329540252686e-01,-1.152959093451499939e-02,1.908460631966590881e-02,-1.502320822328329086e-02,1.786036044359207153e-02,1.855499148368835449e-01,5.101994797587394714e-02,9.649536572396755219e-03,-5.314999073743820190e-02,2.234113030135631561e-02,-4.454472102224826813e-03,6.758430600166320801e-02,3.158552199602127075e-02,-4.352950304746627808e-02,4.873233661055564880e-02,2.042515575885772705e-02,4.271770268678665161e-02,-2.504030987620353699e-02,2.153619425371289253e-03,6.301292777061462402e-02,-5.877312272787094116e-03,1.266584247350692749e-01,-1.096698921173810959e-02,-2.230247706174850464e-01,-1.692803651094436646e-01,1.418042927980422974e-01,-2.199817262589931488e-02,-5.906782299280166626e-02,3.103952482342720032e-02,-5.016664788126945496e-02,-4.329770058393478394e-02,7.490418106317520142e-02,3.682065010070800781e-02,2.714348584413528442e-02,-6.168251484632492065e-02,2.913103625178337097e-02,-3.525185957551002502e-02,4.577991738915443420e-02,-1.030199453234672546e-01,2.334273047745227814e-02,1.286637596786022186e-02,2.768410556018352509e-02,4.756414517760276794e-02,-1.395893283188343048e-03,4.322579875588417053e-02,-4.036908596754074097e-02,-1.729050464928150177e-02,8.844156563282012939e-02,-7.168906182050704956e-02,-5.480502173304557800e-02,6.491794437170028687e-02,-3.496015816926956177e-02,-1.108543016016483307e-02,1.479823514819145203e-02,2.245672233402729034e-02,-4.197926446795463562e-02,3.839448839426040649e-02,-1.929036714136600494e-02,3.838121518492698669e-02,3.935125842690467834e-02,3.810643404722213745e-02,-6.144745275378227234e-02,-2.384069375693798065e-03,4.540325328707695007e-02,2.664658427238464355e-02
-2.043248713016510010e-02,-9.947881102561950684e-02,-1.451305765658617020e-02,4.128150641918182373e-02,-1.291679684072732925e-02,2.818872593343257904e-02,-1.139139607548713684e-01,-4.251565411686897278e-02,-8.410812169313430786e-02,-4.686679691076278687e-03,8.457253128290176392e-02,-3.949208557605743408e-02,1.245264112949371338e-01,1.040734648704528809e-01,1.094732731580734253e-01,1.355419121682643890e-02,7.759283296763896942e-03,-2.143420651555061340e-02,-4.648447036743164062e-02,7.623601239174604416e-03,1.203834712505340576e-01,-1.274682581424713135e-01,9.211848676204681396e-02,5.361344292759895325e-02,7.994674891233444214e-02,7.399889081716537476e-02,8.112518116831779480e-03,-1.527163386344909668e-01,1.072549819946289062e-01,4.996531829237937927e-02,7.379138469696044922e-02,-6.097547337412834167e-02,7.997556775808334351e-02,2.832268476486206055e-01,-2.440075278282165527e-01,5.495737493038177490e-02,-1.890012435615062714e-02,-6.388522684574127197e-02,5.088361352682113647e-02,-2.201009169220924377e-02,-9.570416063070297241e-02,-8.012724667787551880e-02,-1.226452812552452087e-01,2.238199859857559204e-01,1.128410249948501587e-01,1.341361552476882935e-01,-1.337393075227737427e-01,-9.635076858103275299e-03,8.986729383468627930e-02,-4.480911418795585632e-02,3.598669916391372681e-02,2.767629548907279968e-02,-5.789981782436370850e-02,-9.304294735193252563e-02,-1.110414639115333557e-01,-4.292950779199600220e-02,3.098563551902770996e-01,-1.223491951823234558e-01,2.045124769210815430e-01,7.064021658152341843e-03,-1.335131525993347168e-01,2.096167206764221191e-02,-5.026924610137939453e-02,7.532560080289840698e-02,5.523037631064653397e-03,5.012806039303541183e-03,7.538792211562395096e-03,-3.218148350715637207e-01,2.894209921360015869e-01,9.866341948509216309e-03,4.625857993960380554e-02,2.354167550802230835e-01,-7.963655143976211548e-02,1.493924856185913086e-01,-9.674247354269027710e-03,5.264099314808845520e-02,1.206714734435081482e-01,7.659406960010528564e-02,6.554468721151351929e-02,7.881138008087873459e-04,6.678014248609542847e-02,2.717686630785465240e-02,1.129116788506507874e-01,8.945378474891185760e-03,1.489471793174743652e-01,-2.798200026154518127e-02,-4.605639353394508362e-02,-1.910586655139923096e-02,-2.590544223785400391e-01,7.934638857841491699e-02,-5.164908990263938904e-02,-2.015426941215991974e-02,-3.602172061800956726e-02,-1.149821951985359192e-01,1.925991661846637726e-02,-1.033012010157108307e-02,4.960655234754085541e-03,1.385926362127065659e-02,2.095086574554443359e-01,2.603073790669441223e-02,2.607626281678676605e-02,1.612806022167205811e-01,4.258856922388076782e-02,3.412502408027648926e-01,7.127844542264938354e-02,6.138824671506881714e-02,-9.563542157411575317e-02,-6.616188585758209229e-02,3.380264714360237122e-02,3.261607140302658081e-02,-2.520479559898376465e-01,2.106658555567264557e-02,5.624716728925704956e-02,1.283708661794662476e-01,1.599772274494171143e-01,-1.559310965240001678e-02,2.747114002704620361e-02,-8.157280832529067993e-02,-1.160901263356208801e-01,-3.489954397082328796e-02,6.580185890197753906e-02,-9.462225437164306641e-02,1.551350764930248260e-02,4.097284078598022461e-01,-1.076140999794006348e-01,1.355416327714920044e-01,1.813453435897827148e-01,6.213359534740447998e-02,4.465977102518081665e-02,4.308028519153594971e-02,2.562773227691650391e-01,8.341594040393829346e-02,-3.618119284510612488e-02,1.587320119142532349e-01,4.400772228837013245e-02,8.786039054393768311e-02,1.168234366923570633e-02,9.883299469947814941e-02,-2.845963239669799805e-01,6.312651187181472778e-02,2.273800522089004517e-01,9.806383401155471802e-03,-6.735506467521190643e-03,4.818635527044534683e-03,6.715103983879089355e-02,5.584798380732536316e-02,1.459683477878570557e-01,-3.733034431934356689e-02,-3.100612461566925049e-01,1.791224442422389984e-02,1.332487016916275024e-01,-3.269018232822418213e-02,-3.429600894451141357e-01,-2.340253815054893494e-02,2.171445451676845551e-02,6.966141518205404282e-03,1.070790067315101624e-01,6.080176681280136108e-02,-2.968153357505798340e-02,1.598508358001708984e-01,6.055744737386703491e-02,-3.755427002906799316e-01,8.855592459440231323e-03,-1.842382550239562988e-02,-7.731965184211730957e-02,-8.416502177715301514e-02,-1.571293920278549194e-02,6.553355604410171509e-02,5.825170502066612244e-02,1.170105189085006714e-01,1.281020939350128174e-01,-1.217376142740249634e-01,-1.638330519199371338e-01,6.427530944347381592e-02,6.629609316587448120e-02,1.164754405617713928e-01,1.255176067352294922e-01,-1.364307384938001633e-02,-3.294657170772552490e-02,-2.297702878713607788e-01,-1.123332139104604721e-02,8.480717986822128296e-02,6.941619515419006348e-02,3.431483358144760132e-02,-3.830242156982421875e-02,1.255709677934646606e-01,-5.226752161979675293e-01,-1.269691437482833862e-01,4.441757220774888992e-03,6.343092769384384155e-02,-9.690725058317184448e-02,-2.897357642650604248e-01,6.337161362171173096e-02,-1.027832329273223877e-01,-2.218693047761917114e-01,-3.436602279543876648e-02,6.856229901313781738e-02,-7.746636867523193359e-02,3.404788672924041748e-01,4.633899405598640442e-02,-3.747026249766349792e-02,3.573105856776237488e-02,9.643229097127914429e-02,8.949840068817138672e-02,9.944433718919754028e-02,2.282481193542480469e-01,9.787543863058090210e-02,-1.129193827509880066e-01,1.789578646421432495e-01,1.227964460849761963e-02,2.039974629878997803e-01,8.108094334602355957e-02,-1.639832109212875366e-01,-2.221669554710388184e-01,-1.989111304283142090e-01,-3.383888676762580872e-02,1.151488423347473145e-01,5.081257224082946777e-02,1.349471211433410645e-01,-1.007346659898757935e-01,-7.702019810676574707e-02,1.084310933947563171e-01,1.829788982868194580e-01,-4.689672961831092834e-03,3.200574591755867004e-02,-1.128564327955245972e-01,6.909700110554695129e-03,8.906284719705581665e-02,3.440328314900398254e-02,1.442360877990722656e-01,1.186159253120422363e-02,9.946012496948242188e-02,1.445288509130477905e-01,-1.414662972092628479e-02,6.410363130271434784e-03,-5.858330428600311279e-02,4.070753976702690125e-02,5.900831893086433411e-02,1.435213815420866013e-02,2.923380769789218903e-02,-9.848406538367271423e-03,-1.286637969315052032e-02,-9.289789944887161255e-02,1.360331773757934570e-01,9.169371426105499268e-02,-1.561338007450103760e-01,-1.127750650048255920e-01,1.856160014867782593e-01,-2.187202684581279755e-02,-3.595820441842079163e-02,-5.501207429915666580e-03,3.846810013055801392e-02,1.000615805387496948e-01,-1.026723161339759827e-01,1.340898573398590088e-01,1.146378964185714722e-01,-2.888829447329044342e-02,1.161582767963409424e-01,5.801972001791000366e-02,5.712300911545753479e-02,3.819376975297927856e-02,6.840670108795166016e-02,7.821837812662124634e-02,8.014194667339324951e-02,1.343078017234802246e-01,-3.425608277320861816e-01,3.649630816653370857e-03,-5.339092016220092773e-02,1.788323223590850830e-01,9.991186112165451050e-02,-2.420672774314880371e-02,-1.890492290258407593e-01,3.363560140132904053e-02,4.380636662244796753e-02,-4.585685092024505138e-04,-2.238316386938095093e-01,3.434495627880096436e-02,-1.571571640670299530e-02,3.572565317153930664e-02,-9.368786215782165527e-02,1.195077821612358093e-01,2.172858268022537231e-01,5.261265113949775696e-02,-1.814118921756744385e-01,-3.557198122143745422e-02,-2.758558392524719238e-01,9.141521900892257690e-02,-1.191585734486579895e-01,-3.926796838641166687e-02,-5.820750817656517029e-02,2.595159709453582764e-01,-6.514227390289306641e-02,6.467848271131515503e-02,4.820657148957252502e-02,6.944084074348211288e-03,1.557719558477401733e-01,8.059093728661537170e-03,6.774280220270156860e-02,-1.054098270833492279e-02,-3.830243274569511414e-02,-2.652009204030036926e-02,-5.001556873321533203e-02,-1.873330771923065186e-01,1.730089932680130005e-01,6.280808895826339722e-02,5.192619189620018005e-02,-5.746813490986824036e-02,4.402508214116096497e-02,-3.223325312137603760e-02,-4.828055948019027710e-02,3.498784080147743225e-02,-1.716757267713546753e-01,-1.083482280373573303e-01,-2.640771307051181793e-02,-4.281640052795410156e-02,-1.104143708944320679e-01,-1.495547443628311157e-01,-2.720827795565128326e-02,-3.142236173152923584e-02,4.626886919140815735e-02,6.343431305140256882e-03,-1.365659087896347046e-01,1.176873892545700073e-01,1.366557776927947998e-01,3.904096782207489014e-02,4.261082410812377930e-02,-4.527697712182998657e-02,2.416099235415458679e-02,2.751177176833152771e-02,-1.474730670452117920e-02,3.019755422428715974e-05,-2.080033123493194580e-01,4.255033656954765320e-02,6.936102174222469330e-03,2.066539600491523743e-02,-5.230212956666946411e-02,8.545329794287681580e-03,-3.647373989224433899e-02,1.113061513751745224e-02,3.026889264583587646e-01,-7.484505884349346161e-03,-3.529380774125456810e-03,2.097277790307998657e-01,1.810145676136016846e-01,7.184024900197982788e-02,-5.934708938002586365e-02,-3.586539067327976227e-03,2.626472339034080505e-02,3.358207643032073975e-02,6.006620451807975769e-02,6.819105148315429688e-02,7.361078262329101562e-02,-2.992610447108745575e-02,-3.700673580169677734e-02,2.894810438156127930e-01,1.148912962526082993e-02,1.856657415628433228e-01,-1.717683374881744385e-01,-3.129123449325561523e-01,-3.428297042846679688e-01,1.546150296926498413e-01,-2.913259863853454590e-01,2.495635859668254852e-02,5.452587828040122986e-02,5.895669758319854736e-02,5.483036860823631287e-02,-2.199574001133441925e-02,2.620435059070587158e-01,2.760268107522279024e-04,3.567542135715484619e-02,-2.934014052152633667e-02,1.621478423476219177e-02,-1.432767137885093689e-02,-2.114306762814521790e-02,7.085099816322326660e-02,5.915695056319236755e-02,-6.977471709251403809e-02,-4.277602955698966980e-02,1.129326447844505310e-01,2.197956293821334839e-01,5.865268781781196594e-02,-9.918755851686000824e-03,-1.833614557981491089e-01,-2.512311041355133057e-01,-1.881396323442459106e-01,3.776155412197113037e-02,-4.693767055869102478e-02,4.583004489541053772e-02,3.690249100327491760e-02,-8.719555288553237915e-02,7.539688050746917725e-02,5.844970792531967163e-02,4.323740303516387939e-02,-8.802047371864318848e-02,-2.660955674946308136e-02,1.632367447018623352e-02,-8.258907496929168701e-02,-1.466452889144420624e-02,2.158727124333381653e-02,-1.046361308544874191e-02
-1.122354436665773392e-02,1.166990958154201508e-02,-4.231058433651924133e-02,-1.645782589912414551e-01,9.426539763808250427e-03,-2.056767232716083527e-02,1.946278102695941925e-02,5.195610597729682922e-02,9.496368467807769775e-02,-5.045210570096969604e-02,3.347071353346109390e-03,9.342078864574432373e-02,-2.355184406042098999e-01,3.247601538896560669e-02,-1.713000088930130005e-01,3.770432993769645691e-02,5.955312028527259827e-02,3.194914758205413818e-02,-1.535628736019134521e-01,-2.839431632310152054e-03,-1.125627234578132629e-01,3.862769901752471924e-02,2.815066464245319366e-02,3.010850958526134491e-02,8.896064013242721558e-02,-4.396452009677886963e-02,-3.177676722407341003e-02,1.054079979658126831e-01,-9.353078203275799751e-04,-1.142076123505830765e-02,-4.768812656402587891e-02,2.055501379072666168e-02,4.960757493972778320e-02,-8.537781983613967896e-02,-2.781916642561554909e-03,3.790440782904624939e-02,7.752277702093124390e-02,-5.038029048591852188e-03,5.579490214586257935e-02,4.213581606745719910e-02,9.047641605138778687e-02,5.279479082673788071e-03,1.582859084010124207e-02,-4.522018879652023315e-02,-1.253207176923751831e-01,2.360073477029800415e-02,1.134499236941337585e-01,-2.067011781036853790e-02,-1.691092252731323242e-01,-1.234956318512558937e-03,-6.207204610109329224e-02,1.617663656361401081e-03,7.248732447624206543e-02,2.017531171441078186e-02,8.682184666395187378e-02,-1.357644796371459961e-01,-2.041630744934082031e-01,-2.564652450382709503e-02,1.034585461020469666e-01,-6.010634824633598328e-02,7.209174335002899170e-02,5.049455538392066956e-02,1.025945506989955902e-02,-5.433959886431694031e-02,3.879581764340400696e-02,1.782041937112808228e-01,-1.379161328077316284e-02,-6.185466051101684570e-02,-1.439443379640579224e-01,2.847711183130741119e-02,-4.404142871499061584e-02,4.177545383572578430e-02,8.875935524702072144e-02,4.485190659761428833e-02,-1.494518481194972992e-02,3.747688606381416321e-02,2.726776991039514542e-03,1.070440709590911865e-01,2.551649510860443115e-02,-7.738268375396728516e-02,2.026506140828132629e-02,6.416794657707214355e-02,-1.421727985143661499e-01,-6.020462606102228165e-03,-5.680854618549346924e-02,-2.353872358798980713e-02,2.701890841126441956e-02,-1.697527803480625153e-02,1.136460229754447937e-01,-2.606237772852182388e-03,4.486688971519470215e-02,1.489348709583282471e-02,2.399186193943023682e-01,-7.431447505950927734e-02,-2.494901651516556740e-03,8.973491378128528595e-03,-1.080370694398880005e-02,1.300595235079526901e-02,9.651108831167221069e-02,-3.673750907182693481e-02,-3.038886748254299164e-02,-1.065702512860298157e-01,4.631558433175086975e-03,3.717742487788200378e-02,1.120421811938285828e-01,4.255356639623641968e-02,-1.064478978514671326e-01,8.362461626529693604e-02,-6.749751511961221695e-03,-4.825302213430404663e-02,1.303805857896804810e-01,-7.726754993200302124e-02,1.632236093282699585e-01,4.659171216189861298e-03,1.236638724803924561e-01,-1.781924813985824585e-02,-9.212370961904525757e-02,1.128310989588499069e-02,-2.547065615653991699e-01,-7.361121010035276413e-03,7.438132166862487793e-02,-3.513971343636512756e-02,-7.113716006278991699e-02,-1.591507643461227417e-01,-7.241155952215194702e-02,8.065116405487060547e-02,3.204246237874031067e-02,-4.892643541097640991e-02,1.340245157480239868e-01,-4.827503487467765808e-02,-1.834318041801452637e-01,5.781190842390060425e-02,-2.289211563766002655e-02,7.659388211322948337e-05,6.676115095615386963e-03,-2.474197931587696075e-02,1.840844005346298218e-02,4.057258740067481995e-02,1.742319762706756592e-01,5.207233503460884094e-02,5.405750125646591187e-02,5.487320199608802795e-02,-1.495210174471139908e-02,9.915011934936046600e-03,1.443572225980460644e-03,-4.972565546631813049e-02,-4.050887376070022583e-02,-3.747163712978363037e-02,5.690024048089981079e-02,4.412079229950904846e-02,1.814730092883110046e-02,8.291204273700714111e-02,2.699678242206573486e-01,-1.068487018346786499e-02,5.262424051761627197e-02,-1.155996322631835938e-01,5.260382592678070068e-02,1.123649161309003830e-02,-5.450378358364105225e-02,-5.807682871818542480e-02,1.896989159286022186e-02,2.598191238939762115e-02,4.662938043475151062e-02,4.447154328227043152e-02,-9.653671085834503174e-02,-1.313869655132293701e-01,5.818283185362815857e-02,-7.857663184404373169e-02,-1.514009833335876465e-01,-1.564251258969306946e-02,1.630529761314392090e-01,2.553259432315826416e-01,-8.242297917604446411e-02,8.682190626859664917e-02,-5.822579935193061829e-02,-5.152475461363792419e-02,-2.135350108146667480e-01,1.371585018932819366e-02,4.915862157940864563e-02,-1.068132929503917694e-02,8.588222414255142212e-02,8.399519138038158417e-03,7.460471242666244507e-02,-4.936644434928894043e-02,-2.677407581359148026e-03,-2.741275727748870850e-02,-1.530974209308624268e-01,5.363335087895393372e-02,-2.586835622787475586e-02,-1.030891016125679016e-02,-7.568340748548507690e-02,9.535445272922515869e-02,4.172658920288085938e-02,-8.274822682142257690e-02,-1.446245610713958740e-02,-2.055908925831317902e-02,4.300120752304792404e-03,1.337301731109619141e-02,-1.213863193988800049e-01,1.371808648109436035e-01,5.732459574937820435e-02,4.819801822304725647e-02,8.718112111091613770e-02,9.744362533092498779e-02,-1.979074627161026001e-02,-1.909478455781936646e-01,3.729932010173797607e-02,1.617798209190368652e-02,3.002509661018848419e-02,3.129222244024276733e-02,4.356205090880393982e-02,9.984549134969711304e-02,6.763903051614761353e-02,-2.425348199903964996e-02,2.564492523670196533e-01,-1.298622693866491318e-02,-1.385955214500427246e-01,4.889167472720146179e-02,-4.885861277580261230e-02,-3.383679687976837158e-02,-6.541195511817932129e-02,-1.078213378787040710e-02,7.742596417665481567e-02,5.766867846250534058e-02,-1.237978041172027588e-01,-1.850244998931884766e-01,1.528000533580780029e-01,-1.807882264256477356e-02,-2.248671278357505798e-02,-2.023122310638427734e-01,3.557317703962326050e-02,1.364466641098260880e-02,-6.884918361902236938e-02,-3.293916210532188416e-02,-2.931626979261636734e-03,2.052212506532669067e-02,-2.165095657110214233e-01,-6.766377016901969910e-03,6.694617122411727905e-02,-5.913943052291870117e-02,-7.391769438982009888e-02,4.453846067190170288e-02,-7.311525195837020874e-02,2.882619574666023254e-02,-1.843632012605667114e-02,-2.085823751986026764e-02,2.183629572391510010e-02,-1.877741217613220215e-01,6.705065723508596420e-03,1.892188005149364471e-02,9.874661266803741455e-02,-9.176435880362987518e-03,1.294129192829132080e-01,-3.676319494843482971e-02,-2.124974504113197327e-02,4.377576708793640137e-02,4.958540946245193481e-02,-1.713164336979389191e-02,1.300991177558898926e-01,3.671729564666748047e-02,3.015340119600296021e-02,1.411209069192409515e-02,6.804466992616653442e-02,-6.670598685741424561e-02,-3.200182914733886719e-01,7.661441713571548462e-02,9.110507369041442871e-02,-5.059644952416419983e-02,1.089164521545171738e-02,1.710982760414481163e-04,-1.868294179439544678e-02,1.003460511565208435e-01,2.553556114435195923e-02,9.625082835555076599e-03,2.904406748712062836e-02,-1.069819107651710510e-01,-1.771268434822559357e-02,-4.104940686374902725e-03,1.123290415853261948e-02,-5.490472912788391113e-02,1.516533643007278442e-02,-1.019854173064231873e-01,4.601753130555152893e-02,5.072702094912528992e-02,2.151541225612163544e-02,-6.797329336404800415e-02,1.144387796521186829e-01,6.253852695226669312e-02,4.756493866443634033e-02,-2.987985685467720032e-02,-5.742814391851425171e-02,6.675060838460922241e-02,3.969220072031021118e-02,2.685243636369705200e-02,-4.490580409765243530e-02,-1.372410506010055542e-01,3.088746778666973114e-02,4.946805164217948914e-02,2.401674166321754456e-03,4.070262983441352844e-02,7.822236418724060059e-02,3.724113479256629944e-02,1.598911732435226440e-01,4.299063608050346375e-02,1.253593564033508301e-01,7.473318278789520264e-02,-3.232218325138092041e-02,9.880342986434698105e-04,-1.205234322696924210e-02,2.134044468402862549e-01,1.479693222790956497e-02,-6.294513493776321411e-02,1.408766806125640869e-01,-6.027909740805625916e-02,2.763549797236919403e-02,-5.958015844225883484e-02,-3.983234986662864685e-02,-1.067551672458648682e-01,-2.817978709936141968e-02,-4.598822817206382751e-02,4.334918782114982605e-02,-1.148912683129310608e-02,5.287757515907287598e-02,-2.006437778472900391e-01,-1.132197827100753784e-01,3.410784900188446045e-02,2.497682534158229828e-02,-3.871157392859458923e-02,-7.042086799629032612e-04,1.341168303042650223e-02,1.977448910474777222e-01,4.927385225892066956e-02,2.132430113852024078e-02,9.199712076224386692e-04,1.567214354872703552e-02,3.306532800197601318e-01,1.394505891948938370e-02,1.024696230888366699e-02,1.584042049944400787e-02,8.663452416658401489e-02,-2.691441215574741364e-02,5.774777010083198547e-02,-2.545989304780960083e-02,5.135781690478324890e-02,3.762517496943473816e-02,4.375945311039686203e-03,1.436456944793462753e-02,6.515040993690490723e-02,7.028288394212722778e-02,-5.514921247959136963e-02,-8.874670602381229401e-04,6.041568517684936523e-02,3.842839039862155914e-03,-4.709260538220405579e-02,-1.617597192525863647e-01,5.392992123961448669e-02,-4.226946830749511719e-02,1.215087473392486572e-01,2.086684107780456543e-01,2.493886798620223999e-01,-2.329253256320953369e-01,-2.295512892305850983e-02,7.278317958116531372e-02,-1.790478453040122986e-02,3.558544069528579712e-02,4.960021376609802246e-02,-1.895703002810478210e-02,-1.409639716148376465e-01,7.626369595527648926e-02,6.559178233146667480e-02,4.363492503762245178e-02,2.190098725259304047e-02,3.693430498242378235e-02,1.121179014444351196e-01,-3.589022159576416016e-02,-1.159055158495903015e-01,6.693176180124282837e-02,9.570718556642532349e-02,-1.927197352051734924e-02,-2.123606204986572266e-01,-4.156937822699546814e-03,3.020523861050605774e-02,-8.215319365262985229e-02,7.719998061656951904e-02,1.021975874900817871e-01,-4.127767309546470642e-02,-2.886335365474224091e-03,-9.966745972633361816e-03,-1.171714253723621368e-02,9.576529264450073242e-03,-4.329232033342123032e-03,2.466066367924213409e-02,-9.974951297044754028e-02,-7.965645752847194672e-03,5.185414850711822510e-02,-1.231217477470636368e-02,-1.284223049879074097e-02,-1.209394447505474091e-02,-8.188256993889808655e-03,1.912728999741375446e-03
-1.894567534327507019e-02,5.094562098383903503e-02,3.061082772910594940e-02,1.700066924095153809e-01,-4.909346625208854675e-02,3.444327507168054581e-03,-2.285939902067184448e-01,-1.207808405160903931e-02,-3.974639996886253357e-02,4.625332355499267578e-02,7.503929082304239273e-03,-5.833043530583381653e-02,1.789426356554031372e-01,1.036001443862915039e-01,2.328348755836486816e-01,2.270178496837615967e-02,1.290570497512817383e-01,-5.314165726304054260e-02,5.676372349262237549e-02,5.155212804675102234e-02,2.724120393395423889e-03,-1.253005117177963257e-01,3.152235178276896477e-03,-6.537052243947982788e-02,-1.099988445639610291e-02,1.551584452390670776e-01,1.039046887308359146e-02,-2.978374660015106201e-01,-4.277309402823448181e-02,1.299668941646814346e-02,-2.430605143308639526e-01,-2.504883892834186554e-02,6.126789376139640808e-02,-6.303288787603378296e-02,-1.179617550224065781e-02,5.533928051590919495e-02,7.201071083545684814e-02,2.238123118877410889e-02,-2.956166677176952362e-02,-7.045558094978332520e-02,-1.639400720596313477e-01,-2.383179962635040283e-02,2.750492095947265625e-02,-2.016104012727737427e-02,-2.095125913619995117e-01,8.261708170175552368e-02,-1.962194293737411499e-01,8.563371002674102783e-02,8.069745451211929321e-02,2.444838732481002808e-02,-9.756063111126422882e-03,5.590088292956352234e-02,-7.089830189943313599e-02,-1.348093966953456402e-03,1.311761420220136642e-02,-9.869716316461563110e-02,3.157124221324920654e-01,-3.763413697015494108e-04,-9.630656242370605469e-02,2.135344780981540680e-02,7.103741168975830078e-02,-6.392396986484527588e-02,-6.006101518869400024e-02,4.040550068020820618e-02,-7.004865910857915878e-03,-9.804283827543258667e-02,3.677819669246673584e-02,-1.853265464305877686e-01,1.676147878170013428e-01,3.244901448488235474e-02,2.616673707962036133e-02,2.305233478546142578e-02,-1.240996494889259338e-01,-4.060451313853263855e-02,-2.013059519231319427e-02,-6.247198954224586487e-02,3.311583027243614197e-02,-4.294672980904579163e-02,9.014622867107391357e-02,1.455475836992263794e-01,1.596454232931137085e-01,-9.874504059553146362e-03,1.858605444431304932e-02,4.196992889046669006e-02,9.487213939428329468e-02,5.848686397075653076e-02,-1.921872794628143311e-02,2.395588159561157227e-02,-4.126449674367904663e-02,4.208600148558616638e-02,7.580664940178394318e-03,-1.081157177686691284e-01,-5.691720545291900635e-02,1.150262951850891113e-01,5.216768756508827209e-02,1.786054298281669617e-02,-1.044667232781648636e-02,8.985993266105651855e-02,-6.896979361772537231e-02,9.094063937664031982e-02,-4.712745547294616699e-02,1.257134526968002319e-01,-1.067200023680925369e-02,4.323541000485420227e-02,-3.091014456003904343e-03,6.585075985640287399e-03,-2.932655252516269684e-02,-1.942810267210006714e-01,9.184597060084342957e-03,-2.083470486104488373e-02,-1.988619416952133179e-01,1.118843257427215576e-01,-2.081224769353866577e-01,5.784931406378746033e-02,-4.978695511817932129e-02,-7.009180728346109390e-03,1.197203770279884338e-01,-7.844253629446029663e-02,-1.543466746807098389e-01,-3.445556759834289551e-02,-3.392044920474290848e-03,-3.907701745629310608e-02,8.497169613838195801e-02,3.054608702659606934e-01,6.036530062556266785e-02,-8.595716953277587891e-02,-6.296228617429733276e-02,-1.049570962786674500e-01,-7.354428619146347046e-02,2.039282582700252533e-02,2.089916318655014038e-01,4.614318162202835083e-02,9.205485694110393524e-04,-1.384214125573635101e-02,-7.344355434179306030e-02,-1.112986914813518524e-02,-4.719498008489608765e-02,-2.418262511491775513e-02,-1.967100352048873901e-01,1.798780821263790131e-02,2.427478879690170288e-02,-1.082720048725605011e-02,-7.046411186456680298e-02,-4.112534224987030029e-02,-3.199035301804542542e-02,-6.435690075159072876e-02,-8.063220977783203125e-02,1.904943212866783142e-02,-1.789139211177825928e-02,1.373148057609796524e-02,3.368133306503295898e-02,-1.167450696229934692e-01,1.001097708940505981e-01,3.303119540214538574e-02,-4.712041467428207397e-03,1.235404983162879944e-01,-7.830927148461341858e-03,2.956429868936538696e-02,1.058838069438934326e-01,7.364412397146224976e-02,-2.445939369499683380e-02,9.991767583414912224e-04,-2.844382449984550476e-02,2.502079494297504425e-02,1.593038253486156464e-02,1.507960706949234009e-01,8.995475247502326965e-03,-8.055315352976322174e-03,7.260038703680038452e-02,7.787756621837615967e-02,3.677992150187492371e-02,-1.889649480581283569e-01,-3.668587654829025269e-02,-9.905485808849334717e-02,1.916871964931488037e-02,4.137996956706047058e-02,2.029618620872497559e-01,-1.039275154471397400e-01,-1.829728931188583374e-01,1.580046303570270538e-02,-1.035024970769882202e-01,1.054497361183166504e-01,2.796617150306701660e-02,1.725750975310802460e-02,-2.627576328814029694e-02,8.368075639009475708e-02,-9.933710098266601562e-02,1.067867223173379898e-02,7.519315183162689209e-02,1.051602214574813843e-01,5.699278041720390320e-02,-8.682441711425781250e-02,-4.086941853165626526e-02,8.318243175745010376e-02,-1.160692307166755199e-03,5.741141270846128464e-03,5.540659278631210327e-02,3.290472179651260376e-02,7.399367541074752808e-02,-7.710576802492141724e-02,4.509029537439346313e-02,6.330506410449743271e-03,2.399039082229137421e-02,-4.101202264428138733e-02,7.731463760137557983e-02,-6.054221093654632568e-02,-1.476373150944709778e-02,-8.411838859319686890e-02,1.424764562398195267e-02,3.531240299344062805e-02,7.290264964103698730e-02,-3.448056429624557495e-02,-1.916314363479614258e-01,2.477071946486830711e-03,-1.636699736118316650e-01,4.365365579724311829e-02,6.972011644393205643e-03,-5.054963007569313049e-02,8.684287220239639282e-02,1.527944207191467285e-01,-4.144788533449172974e-02,1.389006078243255615e-01,3.277297317981719971e-02,6.141853332519531250e-02,3.666420280933380127e-02,3.128129243850708008e-02,-5.943176522850990295e-02,-8.119275420904159546e-02,-4.469508677721023560e-02,1.337391883134841919e-01,-1.101273000240325928e-01,2.993781305849552155e-02,2.296530604362487793e-01,2.618257142603397369e-02,-1.172904018312692642e-02,1.155751943588256836e-01,-1.085924953222274780e-01,3.248101100325584412e-02,-1.048325747251510620e-02,2.308959811925888062e-01,8.776000142097473145e-02,-5.381653457880020142e-02,2.799259964376688004e-03,-1.366717517375946045e-01,5.863131582736968994e-02,1.529349833726882935e-01,-1.944695599377155304e-03,-1.137457136064767838e-02,5.650759115815162659e-02,-4.635226354002952576e-02,3.648927807807922363e-02,-3.131213784217834473e-02,2.953160321339964867e-03,-1.152336690574884415e-02,4.081325605511665344e-02,-7.391493022441864014e-02,-9.778530150651931763e-02,1.107174381613731384e-01,-3.610315024852752686e-01,3.488179296255111694e-02,-9.882710874080657959e-03,-8.026733249425888062e-02,3.014249354600906372e-02,1.382676512002944946e-01,1.412132829427719116e-01,-5.968550220131874084e-02,-1.216499134898185730e-01,-5.817976966500282288e-02,9.220164269208908081e-02,1.348087936639785767e-01,1.053263619542121887e-01,-4.622918367385864258e-02,2.043955773115158081e-02,-2.914496138691902161e-02,6.209821254014968872e-02,1.379644423723220825e-01,-1.016847342252731323e-01,3.165078535676002502e-02,1.870835199952125549e-02,1.115713384933769703e-03,7.331348210573196411e-02,1.685215532779693604e-01,-8.453220874071121216e-02,-1.587691307067871094e-01,-8.035390824079513550e-02,-9.723231941461563110e-02,-1.976842060685157776e-03,-3.925552219152450562e-02,-7.318983972072601318e-02,3.806846588850021362e-02,9.002434462308883667e-02,-8.049163222312927246e-02,3.461040183901786804e-02,2.340199798345565796e-02,-1.402340363711118698e-02,7.942691445350646973e-02,-3.935157880187034607e-02,-1.589783839881420135e-02,1.750400662422180176e-02,2.492907829582691193e-02,-1.111482307314872742e-01,7.337265461683273315e-02,4.871180746704339981e-03,-3.393776342272758484e-02,-1.834822297096252441e-01,-7.587947882711887360e-03,-5.903563275933265686e-02,3.106977604329586029e-02,-8.437742292881011963e-02,-1.978885084390640259e-01,2.186248637735843658e-02,-7.992457598447799683e-03,-2.893701493740081787e-01,-3.038643859326839447e-02,-8.164726197719573975e-02,5.156034603714942932e-02,7.653348892927169800e-02,1.667041480541229248e-01,7.346948981285095215e-02,6.371430307626724243e-02,2.140763029456138611e-02,-5.199516192078590393e-02,8.408887311816215515e-03,1.694303750991821289e-01,1.188094690442085266e-01,2.988522872328758240e-02,7.663988508284091949e-03,2.488253172487020493e-03,-5.903974175453186035e-02,3.351882472634315491e-02,-6.754294037818908691e-02,1.988926380872726440e-01,-3.750334680080413818e-02,-6.997387111186981201e-02,-5.742596834897994995e-02,-1.654094755649566650e-01,-5.279266834259033203e-02,4.123988375067710876e-02,-3.697565943002700806e-02,-1.440018117427825928e-01,1.629548333585262299e-02,5.095209926366806030e-03,-1.037160083651542664e-01,6.718071550130844116e-02,-1.107699051499366760e-02,-5.636946484446525574e-02,-2.041204599663615227e-03,1.418214570730924606e-02,-1.648068726062774658e-01,5.620256066322326660e-02,-4.300364479422569275e-02,3.986999019980430603e-02,-1.440806314349174500e-02,6.451969593763351440e-02,1.194535642862319946e-01,-1.719658225774765015e-01,-2.036815509200096130e-02,-7.772549241781234741e-02,-1.941211335361003876e-02,-1.614614874124526978e-01,-1.357461363077163696e-01,5.882928892970085144e-02,-8.158155530691146851e-02,2.753901481628417969e-02,-1.041037868708372116e-02,6.484145671129226685e-02,-4.196693748235702515e-02,1.972291469573974609e-01,-9.977176785469055176e-02,-1.865661442279815674e-01,-1.129758078604936600e-02,2.762473654001951218e-03,2.796304039657115936e-02,-1.145293563604354858e-01,1.341631561517715454e-01,2.395264804363250732e-01,1.755167171359062195e-02,-3.216432407498359680e-02,6.660095602273941040e-02,-1.367993056774139404e-01,-4.996920749545097351e-02,-3.822209686040878296e-02,1.287347357720136642e-02,-1.262630224227905273e-01,2.046483196318149567e-02,-5.094031803309917450e-03,-5.992932710796594620e-03,3.192153200507164001e-02,5.553229898214340210e-02,2.197857946157455444e-02,1.437081992626190186e-01,8.557141572237014771e-02,4.282983765006065369e-02,7.665836066007614136e-02,2.166591770946979523e-02,-8.932949975132942200e-03,-2.963140010833740234e-01,-1.758618652820587158e-01,1.836569607257843018e-02,-3.703712485730648041e-03
6.441760808229446411e-02,6.856089830398559570e-02,-1.966377906501293182e-02,2.170274704694747925e-01,4.680469632148742676e-02,3.042637370526790619e-02,-4.296327009797096252e-02,-1.678803861141204834e-01,-1.347206383943557739e-01,4.478251561522483826e-02,-1.717027975246310234e-03,-6.741502135992050171e-02,9.264346212148666382e-02,3.522267192602157593e-02,2.660615146160125732e-01,4.756432399153709412e-02,-7.569372653961181641e-02,-2.581550367176532745e-02,1.173126231878995895e-02,-5.206754896789789200e-03,1.598623767495155334e-02,-1.014182195067405701e-01,-4.959741607308387756e-02,-5.116602778434753418e-02,-1.457607652992010117e-02,9.445731341838836670e-02,1.133744884282350540e-02,-1.339919716119766235e-01,2.784252539277076721e-02,7.373164594173431396e-02,-7.124546170234680176e-02,-3.269823268055915833e-03,1.498418208211660385e-02,2.716005407273769379e-02,-1.008518971502780914e-02,8.151247352361679077e-02,-1.310755610466003418e-01,-9.982982650399208069e-03,7.754491176456212997e-03,-8.279788494110107422e-02,-1.795730553567409515e-02,-4.560832679271697998e-02,-1.093140169978141785e-01,-3.806227445602416992e-02,-1.074944734573364258e-01,9.257063269615173340e-02,-1.547036468982696533e-01,1.242979913949966431e-01,1.536170393228530884e-01,-3.436316549777984619e-02,1.171983852982521057e-01,-6.005584076046943665e-02,-4.552081599831581116e-02,2.571660839021205902e-02,-4.186893929727375507e-04,8.790419995784759521e-02,2.614137530326843262e-01,-9.673153609037399292e-02,-2.534111030399799347e-02,8.722994476556777954e-02,-7.691821083426475525e-03,-5.214929953217506409e-02,3.384068235754966736e-02,1.784222573041915894e-01,-3.821208700537681580e-02,-7.650358974933624268e-02,3.585670888423919678e-02,-5.952375009655952454e-02,2.880339026451110840e-01,-9.266619570553302765e-03,6.911481916904449463e-02,-2.799105457961559296e-02,-8.026956766843795776e-02,-1.462133694440126419e-02,6.085198745131492615e-02,2.515173703432083130e-02,7.787122577428817749e-02,4.221745207905769348e-02,1.414803564548492432e-01,1.334619969129562378e-01,1.631383970379829407e-02,3.970265015959739685e-02,1.191146969795227051e-01,4.397479817271232605e-02,1.619470492005348206e-02,2.365422248840332031e-02,2.064415626227855682e-02,8.598675951361656189e-03,-1.220731511712074280e-01,1.785758882761001587e-02,-9.696447849273681641e-02,-2.195133641362190247e-02,-2.558131515979766846e-01,-2.491606585681438446e-02,6.894586980342864990e-02,1.520660298410803080e-04,3.934505581855773926e-02,9.658955037593841553e-02,-1.392764300107955933e-01,1.004046425223350525e-01,7.882922142744064331e-02,3.024317920207977295e-01,-1.559971179813146591e-02,-4.670663923025131226e-02,-1.059155166149139404e-01,1.832200679928064346e-03,1.397149520926177502e-03,-1.124140769243240356e-01,-1.898160763084888458e-02,2.639265172183513641e-02,-1.117805987596511841e-01,1.686755716800689697e-01,-2.000717371702194214e-01,5.134212598204612732e-02,-9.556754678487777710e-02,-1.432519685477018356e-02,-9.183158725500106812e-02,5.918722972273826599e-02,-1.643724367022514343e-02,3.673165291547775269e-02,-1.565657556056976318e-02,8.771264553070068359e-02,2.085249312222003937e-02,1.446660310029983521e-01,3.986474126577377319e-02,-7.286680489778518677e-02,-1.305965613573789597e-02,-1.641917787492275238e-02,-2.000964730978012085e-01,5.300743132829666138e-02,2.899041771888732910e-01,-2.643349766731262207e-02,3.151866793632507324e-02,5.347600090317428112e-04,-3.090557083487510681e-02,1.280219703912734985e-01,-6.118136923760175705e-03,1.628889143466949463e-02,-1.519811153411865234e-01,2.663922868669033051e-02,3.951705992221832275e-02,4.710144177079200745e-02,-1.993066258728504181e-02,2.869211323559284210e-02,2.782536484301090240e-02,3.080485947430133820e-02,5.472692474722862244e-02,6.296238861978054047e-03,-2.968377433717250824e-02,5.372329428791999817e-02,-4.236338660120964050e-02,5.551274120807647705e-02,-3.562019467353820801e-01,-8.971910923719406128e-02,6.177838146686553955e-02,2.522021532058715820e-01,3.589183464646339417e-02,8.049989491701126099e-02,3.273960575461387634e-02,8.526369184255599976e-02,1.755251921713352203e-02,-2.913844585418701172e-02,-2.169245481491088867e-02,2.700118348002433777e-02,1.849455386400222778e-02,2.175268530845642090e-01,5.362573638558387756e-02,8.057088404893875122e-02,9.081730991601943970e-02,1.143250986933708191e-01,-1.354944258928298950e-01,-4.205822944641113281e-01,2.778973430395126343e-02,1.994299702346324921e-02,3.034101985394954681e-02,3.367272764444351196e-02,4.231170117855072021e-01,-3.915142267942428589e-02,-5.297993496060371399e-02,-8.180665783584117889e-03,1.697876118123531342e-02,6.686937063932418823e-02,2.541890926659107208e-02,7.245691120624542236e-02,1.659188419580459595e-02,-6.386746186763048172e-03,1.166728674434125423e-03,2.264571608975529671e-03,1.650939323008060455e-02,-8.899765089154243469e-03,-1.166413351893424988e-01,-1.911705732345581055e-01,3.454184532165527344e-02,1.678594201803207397e-01,-2.575319074094295502e-02,6.876232568174600601e-03,2.689395472407341003e-02,-9.673427790403366089e-02,1.237776577472686768e-01,-1.467909812927246094e-01,2.072630822658538818e-02,-2.212758921086788177e-02,-6.824748218059539795e-02,-1.578771173954010010e-01,-7.702204165980219841e-04,3.180779516696929932e-02,5.463792011141777039e-02,3.413448855280876160e-02,1.387119889259338379e-01,2.290959097445011139e-02,7.410021871328353882e-02,9.988506883382797241e-02,-8.606187254190444946e-02,9.684182703495025635e-03,-1.419464945793151855e-01,4.761999472975730896e-02,8.922240138053894043e-02,-7.993455231189727783e-02,-3.180143609642982483e-02,1.153238192200660706e-01,6.297083199024200439e-02,-9.565994888544082642e-02,-2.196011133491992950e-02,7.734704762697219849e-02,-4.466334357857704163e-02,8.859433233737945557e-02,-5.197638645768165588e-02,-6.887256354093551636e-02,2.801016904413700104e-02,9.016232192516326904e-02,1.217158511281013489e-02,2.967830561101436615e-02,-8.252193778753280640e-02,2.445740811526775360e-02,-3.277653083205223083e-02,-2.377259917557239532e-02,-4.636384081095457077e-03,-3.486628457903862000e-02,6.268317997455596924e-02,-9.088660590350627899e-03,1.426945477724075317e-01,-3.186851739883422852e-03,-4.679917171597480774e-02,-4.745909199118614197e-02,2.565233595669269562e-02,3.437794744968414307e-02,-2.804732136428356171e-02,2.119153589010238647e-01,6.003924459218978882e-02,9.354873560369014740e-03,-3.010611794888973236e-02,4.267048835754394531e-02,-3.930776938796043396e-02,1.006772592663764954e-01,1.681308448314666748e-01,6.820300966501235962e-02,3.807693347334861755e-02,9.101357311010360718e-02,-7.110980153083801270e-02,-9.945422410964965820e-03,4.198849946260452271e-02,1.803795434534549713e-02,-2.158156596124172211e-02,2.641322910785675049e-01,1.240597814321517944e-01,-2.115143276751041412e-02,-3.077938035130500793e-02,4.614239931106567383e-02,8.551975712180137634e-03,4.904649406671524048e-02,-1.089949011802673340e-01,-6.116862222552299500e-02,-4.378639161586761475e-02,2.547147311270236969e-02,5.845075473189353943e-02,-6.746173650026321411e-02,-1.156325731426477432e-02,3.613711893558502197e-02,-1.110260654240846634e-02,2.269126940518617630e-03,5.028420314192771912e-02,5.215544253587722778e-02,4.138334840536117554e-02,-1.433224380016326904e-01,-3.877046331763267517e-02,-5.980567634105682373e-02,-1.098373904824256897e-02,-1.127286106348037720e-01,-1.677518524229526520e-02,-7.637221366167068481e-03,1.322008371353149414e-01,1.782832853496074677e-02,6.175201013684272766e-02,7.065069675445556641e-02,7.893986254930496216e-02,1.193885579705238342e-01,-3.594685345888137817e-02,-1.056179776787757874e-01,-2.423562481999397278e-02,-3.161789476871490479e-02,-1.002630740404129028e-01,9.593753516674041748e-02,-1.904978454113006592e-01,5.761895328760147095e-03,-5.893067270517349243e-02,-3.795935586094856262e-02,6.803823262453079224e-02,4.093478620052337646e-02,-5.436689592897891998e-03,-1.818658411502838135e-01,5.882105976343154907e-02,-1.292183697223663330e-01,-7.927458733320236206e-02,-1.059406772255897522e-01,-3.269738703966140747e-02,-1.616127043962478638e-02,-1.059916539816185832e-04,6.053192168474197388e-02,6.188908591866493225e-02,8.807176351547241211e-02,3.671497851610183716e-02,-3.991334885358810425e-02,8.498243242502212524e-02,6.828847527503967285e-02,1.462480872869491577e-01,4.690065979957580566e-02,2.633172832429409027e-02,3.440856467932462692e-03,2.915832912549376488e-03,-6.067856028676033020e-02,-1.690960973501205444e-01,-4.909827373921871185e-03,-2.921426296234130859e-02,3.330513089895248413e-02,-5.076795059721916914e-05,-6.066468730568885803e-02,-4.881922528147697449e-02,5.686733871698379517e-03,6.273291260004043579e-02,-2.993060834705829620e-02,1.079002991318702698e-01,6.694002449512481689e-02,-1.003111228346824646e-01,-5.192910879850387573e-02,2.619077824056148529e-02,-3.177080303430557251e-02,1.240317150950431824e-02,-1.583057804964482784e-03,-6.078805401921272278e-02,3.131560608744621277e-02,-1.760407835245132446e-01,3.792925039306282997e-03,4.674386978149414062e-02,-2.787013910710811615e-02,1.710569411516189575e-01,-5.089322477579116821e-02,2.163037061691284180e-01,1.872799545526504517e-02,-1.456337273120880127e-01,-2.836776971817016602e-01,1.049664318561553955e-01,2.340616472065448761e-02,-1.849030256271362305e-01,-1.148451864719390869e-02,3.517757868394255638e-03,-3.901183977723121643e-02,9.509260207414627075e-02,7.250528037548065186e-02,-8.071640878915786743e-02,-1.305390708148479462e-02,5.854203552007675171e-02,2.261373586952686310e-02,6.925762444734573364e-02,-1.804459095001220703e-01,5.264857411384582520e-02,1.298261433839797974e-01,-3.203814476728439331e-02,6.671375595033168793e-03,5.141956731677055359e-02,-1.256687492132186890e-01,-4.684141278266906738e-02,-3.989405930042266846e-03,8.650223910808563232e-02,-1.372691988945007324e-01,4.495365172624588013e-02,-1.479449868202209473e-02,-2.680252119898796082e-02,5.240898579359054565e-02,7.855044305324554443e-02,6.154596805572509766e-02,-2.810445986688137054e-02,1.030944213271141052e-01,8.119258284568786621e-02,8.257972449064254761e-02,3.414033725857734680e-02,8.369996398687362671e-02,-1.248387023806571960e-01,3.346378449350595474e-03,6.774362176656723022e-02,4.256938397884368896e-02
1.124916151165962219e-01,-8.674217760562896729e-02,-5.730488151311874390e-02,8.323060721158981323e-02,-3.009183146059513092e-02,2.582694217562675476e-02,9.155010432004928589e-02,3.396549522876739502e-01,3.392457962036132812e-02,1.065438240766525269e-01,-2.169012650847434998e-02,-1.876437477767467499e-02,1.684203743934631348e-01,6.126173585653305054e-02,2.601488959044218063e-03,8.377921581268310547e-02,9.294199198484420776e-02,-2.594194933772087097e-02,-1.859858930110931396e-01,-3.409110009670257568e-02,-2.105465829372406006e-01,7.348828017711639404e-02,-2.371101640164852142e-03,-6.000639125704765320e-02,9.088698774576187134e-02,1.258645090274512768e-03,1.244026143103837967e-02,1.004796177148818970e-01,3.443495556712150574e-02,3.776588663458824158e-02,6.803166121244430542e-02,1.170083507895469666e-01,1.502750813961029053e-02,-2.285371422767639160e-01,-1.885587275028228760e-01,-9.932476095855236053e-03,-8.717069029808044434e-02,-1.852886565029621124e-02,2.615670487284660339e-02,1.003174856305122375e-01,-1.373163759708404541e-01,-2.978479955345392227e-03,1.077872887253761292e-01,1.040215194225311279e-01,-1.155578717589378357e-02,1.215770319104194641e-01,6.650783121585845947e-02,1.654882449656724930e-03,1.161004081368446350e-01,1.135542243719100952e-01,-1.179335936903953552e-01,-2.375109679996967316e-02,8.816832304000854492e-02,1.160529926419258118e-01,5.914656072854995728e-02,5.979432538151741028e-02,-1.914178878068923950e-01,-1.610822528600692749e-01,-1.811985820531845093e-01,2.584047056734561920e-02,-5.148800089955329895e-02,1.166045889258384705e-01,2.794668078422546387e-02,9.370903670787811279e-02,1.687603769823908806e-03,-3.714307770133018494e-02,-3.360617533326148987e-02,-1.988336294889450073e-01,-4.541693329811096191e-01,-5.273112328723073006e-04,-7.068738341331481934e-02,-1.921159178018569946e-01,5.089005082845687866e-02,-1.795698553323745728e-01,6.643564440310001373e-03,-8.821333199739456177e-02,-1.613945811986923218e-01,-2.611907199025154114e-02,1.076540127396583557e-01,-2.012138999998569489e-02,-6.871987134218215942e-02,-7.814364880323410034e-02,3.204563632607460022e-02,2.109417133033275604e-02,-6.887190788984298706e-02,2.696883119642734528e-02,-2.197001129388809204e-03,3.296534344553947449e-02,2.109616063535213470e-02,-2.988918125629425049e-02,-1.760262101888656616e-01,3.272827016189694405e-03,3.271397650241851807e-01,1.664353311061859131e-01,-7.929531857371330261e-03,1.352963447570800781e-01,2.263397909700870514e-02,9.646225720643997192e-02,-2.081353962421417236e-01,1.196454390883445740e-01,-1.289310306310653687e-02,2.050698548555374146e-02,-4.579056426882743835e-02,-1.908507645130157471e-01,3.898599743843078613e-02,9.815139696002006531e-03,-1.727771311998367310e-01,-5.295782536268234253e-02,1.139906141906976700e-02,6.439335644245147705e-02,5.316156893968582153e-02,2.514192461967468262e-02,-8.559368550777435303e-02,9.120042435824871063e-03,3.296675393357872963e-03,1.538032945245504379e-02,-1.332333087921142578e-01,7.415777444839477539e-02,-3.005811572074890137e-01,8.324670605361461639e-03,9.758835658431053162e-03,-1.005659326910972595e-01,4.603002220392227173e-03,-2.370407991111278534e-02,-8.879781514406204224e-02,-1.627684757113456726e-02,-1.014720723032951355e-01,-1.559119820594787598e-01,1.847434341907501221e-01,-2.479027025401592255e-02,-5.777093395590782166e-02,-2.764383517205715179e-02,7.952287793159484863e-02,-1.035747081041336060e-01,8.484234660863876343e-02,3.149706870317459106e-02,1.856462564319372177e-03,-1.384786516427993774e-02,2.071507126092910767e-01,9.611778706312179565e-02,-2.502060234546661377e-01,-8.255518972873687744e-03,3.716146573424339294e-02,2.200584486126899719e-02,-3.389198705554008484e-02,1.436627097427845001e-02,8.533479273319244385e-02,-4.466907307505607605e-02,1.024368703365325928e-01,3.963517770171165466e-02,-4.846564680337905884e-02,5.756797036156058311e-04,1.968319267034530640e-01,7.612317800521850586e-02,2.432896494865417480e-01,3.522667586803436279e-01,-3.691114857792854309e-02,2.351245656609535217e-02,-1.436237692832946777e-01,-8.313179761171340942e-02,1.934434473514556885e-02,2.191830724477767944e-01,9.392322599887847900e-02,7.123681716620922089e-03,-2.576154172420501709e-01,2.255656123161315918e-01,4.378898814320564270e-02,-9.366816282272338867e-02,-7.172044366598129272e-02,-1.521510770544409752e-03,7.531763613224029541e-02,4.120560884475708008e-01,-2.449580840766429901e-02,-8.367686718702316284e-02,-3.297317773103713989e-02,-1.191909518092870712e-02,-7.503348588943481445e-02,6.161056458950042725e-02,-1.461938172578811646e-01,6.906770169734954834e-02,-7.598350755870342255e-03,-1.411222852766513824e-02,-1.163598820567131042e-01,3.527172505855560303e-01,1.336862891912460327e-01,-2.050475180149078369e-01,-2.688280045986175537e-01,-9.301128797233104706e-03,-9.220145642757415771e-02,-8.621158450841903687e-02,3.273671865463256836e-02,2.585485875606536865e-01,-3.226234391331672668e-02,1.969097554683685303e-01,-8.368780836462974548e-03,-8.293256163597106934e-03,8.826281875371932983e-03,3.169477880001068115e-01,-3.643670082092285156e-01,-1.461836844682693481e-01,1.527293119579553604e-02,1.882737129926681519e-02,-4.143997095525264740e-03,-1.723542660474777222e-01,4.506987705826759338e-02,1.101544499397277832e-01,6.540047004818916321e-03,5.081288889050483704e-02,1.619221419095993042e-01,-3.863791748881340027e-02,3.284412622451782227e-02,4.236903414130210876e-02,2.423878610134124756e-01,6.515878252685070038e-03,5.022661089897155762e-01,-5.271417321637272835e-04,-2.189147621393203735e-01,-1.013678610324859619e-01,-1.481038928031921387e-01,1.184492632746696472e-01,-9.326329827308654785e-02,3.270788118243217468e-02,-1.977794431149959564e-02,9.906682372093200684e-02,2.728806249797344208e-02,-1.288145314902067184e-02,5.619556084275245667e-02,-6.204766780138015747e-02,-2.463935315608978271e-01,-3.607132285833358765e-02,2.333365380764007568e-02,5.218740087002515793e-03,1.047815084457397461e-01,7.162875682115554810e-02,9.555924683809280396e-03,1.213643047958612442e-02,-7.273849248886108398e-01,9.463804960250854492e-02,-3.024522028863430023e-02,1.825099140405654907e-01,1.042554527521133423e-01,1.617937237024307251e-01,3.139515966176986694e-02,6.022590398788452148e-02,-3.718830272555351257e-02,9.150356054306030273e-02,8.335535228252410889e-02,-1.166903227567672729e-01,-2.102867467328906059e-03,-7.630114257335662842e-02,1.057559922337532043e-01,1.565870828926563263e-02,2.254880964756011963e-02,1.541261002421379089e-02,2.821477316319942474e-02,1.979148685932159424e-01,1.024564206600189209e-01,-2.921533212065696716e-02,-7.089372724294662476e-02,4.012175649404525757e-02,1.475916802883148193e-01,-3.267724812030792236e-02,3.214465081691741943e-02,3.967379033565521240e-02,-2.805108428001403809e-01,5.605410411953926086e-02,6.409797817468643188e-03,5.161290057003498077e-03,-1.453877091407775879e-01,3.468172391876578331e-03,-4.720629379153251648e-02,2.054868787527084351e-01,4.047081619501113892e-02,-4.116641730070114136e-02,2.851859899237751961e-03,-9.614053368568420410e-02,-1.525023952126502991e-02,2.454413287341594696e-02,1.868137903511524200e-02,-8.493225276470184326e-02,7.395500433631241322e-04,-7.535453885793685913e-02,-4.973864555358886719e-02,2.134259194135665894e-01,5.318772420287132263e-02,-2.776188254356384277e-01,-3.963644802570343018e-02,7.124647498130798340e-02,-1.519843935966491699e-01,-1.546675805002450943e-02,-3.318408504128456116e-02,2.605642378330230713e-02,7.555279135704040527e-02,-2.875616401433944702e-02,-2.039449289441108704e-02,4.603482782840728760e-02,3.689439967274665833e-02,-3.444141149520874023e-02,-4.695781320333480835e-02,-2.366149798035621643e-02,-1.785857789218425751e-02,4.417223855853080750e-02,4.546249508857727051e-01,-1.690762862563133240e-02,-1.262598205357789993e-02,1.323856711387634277e-01,3.628509864211082458e-02,2.378186769783496857e-02,-8.421342819929122925e-03,2.289828956127166748e-01,-6.730334460735321045e-02,7.493666559457778931e-02,1.480632126331329346e-01,-3.765498474240303040e-02,6.323494017124176025e-02,-1.672396622598171234e-02,5.391161516308784485e-02,-2.104497887194156647e-02,8.140592835843563080e-04,-3.493157029151916504e-02,-4.641284793615341187e-02,4.820888489484786987e-02,-1.028405949473381042e-01,-7.352348417043685913e-02,-8.110424131155014038e-02,-2.144403196871280670e-02,8.929317817091941833e-03,5.163241922855377197e-02,1.518093142658472061e-02,5.844311416149139404e-02,-3.686524182558059692e-02,-1.353339105844497681e-01,2.478652261197566986e-02,3.493911772966384888e-02,5.430107563734054565e-02,2.752621658146381378e-03,-2.204108797013759613e-02,1.445034444332122803e-01,7.783784717321395874e-02,4.831677302718162537e-02,1.880945116281509399e-01,5.429067183285951614e-03,-2.762908935546875000e-01,-3.644740581512451172e-02,5.997492745518684387e-02,6.999193131923675537e-02,-1.022824570536613464e-01,1.677991449832916260e-02,-6.428560614585876465e-02,4.584406316280364990e-02,2.090495973825454712e-01,-3.569575399160385132e-02,-7.311704009771347046e-02,1.390854921191930771e-02,-2.750749289989471436e-01,-3.092125058174133301e-02,-9.033701568841934204e-02,9.232773631811141968e-02,-8.598196506500244141e-02,1.006059944629669189e-01,-4.270233213901519775e-01,-1.142451539635658264e-01,-9.306035935878753662e-02,-1.484812796115875244e-02,1.149227377027273178e-02,1.271079853177070618e-02,1.518828095868229866e-03,5.188029631972312927e-02,1.180832684040069580e-01,5.713304877281188965e-02,1.054445058107376099e-01,1.007904186844825745e-01,7.034271210432052612e-02,2.071630507707595825e-01,6.538203358650207520e-02,-1.152321025729179382e-01,-2.336096391081809998e-02,2.023332752287387848e-02,-3.889460582286119461e-03,-4.738632142543792725e-01,3.756141662597656250e-02,3.345049917697906494e-02,2.645645476877689362e-02,1.008735820651054382e-01,3.663856908679008484e-02,-2.559412457048892975e-02,-5.950886383652687073e-02,-7.451055198907852173e-02,1.627521705813705921e-03,5.661381781101226807e-02,4.091342911124229431e-02,-5.683435872197151184e-02,-1.856408119201660156e-01,2.517543733119964600e-02,6.668218411505222321e-03,-3.938880283385515213e-03,-1.436274796724319458e-01,-5.670886114239692688e-02,4.767350107431411743e-02,-4.015469923615455627e-02
-4.731474816799163818e-02,-1.842312887310981750e-02,3.252999484539031982e-02,-2.187909930944442749e-01,8.381516486406326294e-02,2.772937715053558350e-02,-1.092548295855522156e-02,2.858213149011135101e-02,8.656951785087585449e-02,2.462058514356613159e-02,2.716233395040035248e-02,2.407907880842685699e-02,-1.862966269254684448e-01,5.021424591541290283e-02,-1.687470972537994385e-01,-1.563727296888828278e-02,6.714531779289245605e-02,9.400848299264907837e-02,-1.241730973124504089e-01,5.468685645610094070e-03,1.658580452203750610e-02,4.771894589066505432e-02,-3.389473259449005127e-02,4.408592358231544495e-02,7.888581603765487671e-02,-1.062944158911705017e-01,-2.299436740577220917e-02,6.547052413225173950e-02,1.480959728360176086e-02,2.188251726329326630e-02,3.118942305445671082e-02,7.395233958959579468e-02,1.214545127004384995e-02,1.754936575889587402e-01,-1.063003540039062500e-01,-5.758414790034294128e-02,8.819720149040222168e-02,-8.280523121356964111e-02,4.472967609763145447e-02,1.211403682827949524e-01,8.163506537675857544e-02,4.456275328993797302e-02,-9.394060820341110229e-02,-7.626304775476455688e-02,2.464152500033378601e-02,-3.985287621617317200e-02,4.598520323634147644e-02,-1.067965924739837646e-01,-2.067640721797943115e-01,2.605061605572700500e-02,2.339662984013557434e-02,-3.181546181440353394e-02,4.481863975524902344e-02,-2.289232611656188965e-02,-2.748117037117481232e-02,-2.090999111533164978e-02,-1.108234450221061707e-01,3.838144987821578979e-02,2.244379967451095581e-01,-2.859560307115316391e-03,-1.766183879226446152e-03,-5.007104016840457916e-03,2.283130027353763580e-02,-1.600933372974395752e-01,5.006365850567817688e-02,1.394005566835403442e-01,5.845944210886955261e-02,-1.042747050523757935e-01,-4.357172176241874695e-02,2.006291784346103668e-02,-3.556513786315917969e-02,9.574123471975326538e-02,2.955649606883525848e-02,2.154213190078735352e-02,4.880334809422492981e-02,7.659413665533065796e-02,-7.307157665491104126e-02,1.029332801699638367e-01,-9.853912144899368286e-02,-5.448143184185028076e-02,2.455754391849040985e-02,9.027094393968582153e-02,-7.192008942365646362e-02,-3.068189602345228195e-03,9.038681164383888245e-03,-2.418031543493270874e-02,-4.738339036703109741e-02,3.039919026196002960e-02,1.226669251918792725e-01,1.290731690824031830e-02,1.152379438281059265e-01,1.047733426094055176e-01,1.168725565075874329e-01,-1.410594135522842407e-01,2.832847461104393005e-02,3.515901789069175720e-02,-1.849996484816074371e-02,1.960352994501590729e-02,3.163921833038330078e-01,-3.754570335149765015e-02,2.444131672382354736e-02,-7.828203588724136353e-02,1.574216969311237335e-02,1.599251627922058105e-01,7.589043676853179932e-02,4.092357680201530457e-02,4.861041158437728882e-02,1.006315127015113831e-01,7.413065433502197266e-02,-6.923784315586090088e-02,9.347186423838138580e-03,-7.585027720779180527e-03,2.287607342004776001e-01,1.577247306704521179e-02,1.813271492719650269e-01,-3.372195363044738770e-02,-2.990740351378917694e-02,-9.541062265634536743e-02,-9.934449940919876099e-02,-2.195135876536369324e-02,5.442253872752189636e-02,-9.427184611558914185e-02,4.588310141116380692e-03,-2.160036005079746246e-02,7.484516128897666931e-03,4.848048835992813110e-02,1.953052915632724762e-02,1.320260465145111084e-01,1.430251002311706543e-01,-4.529883517534472048e-05,-2.226985991001129150e-01,7.749212533235549927e-02,5.919094383716583252e-02,4.487843811511993408e-02,3.506847098469734192e-02,7.182607799768447876e-02,6.646210700273513794e-02,8.362095803022384644e-02,1.164532005786895752e-01,-1.008019596338272095e-02,1.255472302436828613e-01,1.556383538991212845e-02,5.925695598125457764e-02,-1.959843933582305908e-02,1.186828687787055969e-02,6.139168515801429749e-02,1.719327457249164581e-02,3.798475861549377441e-02,-7.177288085222244263e-02,2.792393043637275696e-02,1.111387982964515686e-01,-1.425496302545070648e-03,1.819738298654556274e-01,-2.394531667232513428e-02,1.261350959539413452e-01,-1.581472754478454590e-01,2.298200689256191254e-02,7.629528176039457321e-03,-7.515952736139297485e-02,4.805602133274078369e-02,1.445553749799728394e-01,-6.681936979293823242e-02,5.385394021868705750e-02,5.026268307119607925e-03,5.282527208328247070e-02,-1.819285899400711060e-01,-5.556067917495965958e-03,-7.241962105035781860e-02,-5.357322096824645996e-02,-4.622180946171283722e-03,3.180182278156280518e-01,3.089374899864196777e-01,7.129588723182678223e-02,6.015868857502937317e-02,2.977348864078521729e-02,-4.480615630745887756e-02,-3.016802668571472168e-01,1.734677143394947052e-02,8.687219023704528809e-02,-1.072322353720664978e-01,6.068290397524833679e-02,-6.755554582923650742e-03,6.489566713571548462e-02,-1.490879058837890625e-01,-1.414683554321527481e-02,7.912275195121765137e-02,-2.893468551337718964e-02,7.406714558601379395e-02,-4.448511078953742981e-02,-6.273131817579269409e-02,-4.014805704355239868e-02,-1.527391839772462845e-02,3.629177808761596680e-02,-2.037332803010940552e-01,-6.666029337793588638e-03,3.250180557370185852e-02,-2.228833548724651337e-02,3.594647347927093506e-02,1.668359190225601196e-01,1.727917343378067017e-01,2.378425188362598419e-02,1.505436841398477554e-02,9.575154632329940796e-02,2.319778352975845337e-01,3.567707911133766174e-02,-1.325410306453704834e-01,4.601336549967527390e-03,-1.859032921493053436e-02,-4.552523791790008545e-02,-1.633784919977188110e-02,-1.910516992211341858e-03,4.007815569639205933e-02,-1.963154179975390434e-03,-7.879620045423507690e-02,-1.875342801213264465e-02,-6.649619340896606445e-02,2.764114737510681152e-02,8.429879322648048401e-03,7.851795107126235962e-02,-1.596340537071228027e-01,7.363495416939258575e-03,1.234518066048622131e-01,8.771482110023498535e-02,7.544759195297956467e-03,-4.223214462399482727e-02,-1.617881208658218384e-01,9.727580100297927856e-02,2.452154830098152161e-02,1.223530154675245285e-02,-8.508271723985671997e-02,-3.161877393722534180e-03,5.858455970883369446e-02,-4.597743600606918335e-02,3.604796528816223145e-02,7.933108718134462833e-04,4.851150140166282654e-02,1.638909280300140381e-01,-1.725197397172451019e-02,6.929647177457809448e-02,-5.433826521039009094e-02,-8.636218309402465820e-02,5.348987504839897156e-02,-9.244211949408054352e-03,1.514864414930343628e-01,1.127726398408412933e-02,-5.116229876875877380e-02,-6.026265211403369904e-03,-4.465394094586372375e-02,-4.574019461870193481e-03,1.957377232611179352e-02,5.006001889705657959e-02,-2.998797222971916199e-02,2.349729686975479126e-01,-6.724826991558074951e-02,-3.145325928926467896e-02,7.390622049570083618e-02,2.402618899941444397e-02,2.371267229318618774e-02,1.145197898149490356e-01,-4.139512404799461365e-02,-1.662691123783588409e-02,-2.466459013521671295e-02,4.240807890892028809e-02,1.557072810828685760e-02,-8.068668842315673828e-02,-2.319831959903240204e-02,1.570751965045928955e-01,-5.078683421015739441e-02,-9.269692935049533844e-03,-3.596016392111778259e-02,2.894819714128971100e-02,-4.159268736839294434e-02,1.232667919248342514e-02,-1.780417398549616337e-03,4.695313691627234221e-04,7.743790745735168457e-02,1.095935329794883728e-02,4.830053076148033142e-02,2.584506571292877197e-02,-9.219254553318023682e-02,9.805340087041258812e-04,-3.931128233671188354e-02,7.779417932033538818e-02,-3.757785260677337646e-02,7.997097074985504150e-02,-5.533794686198234558e-02,8.660244941711425781e-02,-3.621121123433113098e-02,8.601003885269165039e-02,2.533299475908279419e-02,-6.051613483577966690e-03,5.144280381500720978e-03,2.318282611668109894e-02,1.230569742619991302e-02,-9.486946277320384979e-03,-1.317713409662246704e-01,3.686762601137161255e-02,9.295304864645004272e-02,1.245035789906978607e-02,2.965464442968368530e-02,3.704047203063964844e-02,-6.283327192068099976e-02,8.604390919208526611e-02,1.257216334342956543e-01,1.792645752429962158e-01,3.954157233238220215e-02,-1.443452294915914536e-02,1.208655722439289093e-02,1.314597390592098236e-02,6.277217715978622437e-02,1.601962372660636902e-02,-1.880882233381271362e-01,8.431376516819000244e-02,5.117958039045333862e-02,3.605076670646667480e-02,2.260843291878700256e-03,-1.177789047360420227e-01,-1.745010167360305786e-01,-5.956078320741653442e-02,-1.294704433530569077e-02,5.033537000417709351e-02,-6.005414575338363647e-02,1.508841011673212051e-02,-5.794543027877807617e-02,5.077617242932319641e-03,3.542346134781837463e-02,6.794469896703958511e-03,-1.460135634988546371e-02,6.806617975234985352e-02,6.749463826417922974e-02,1.986102461814880371e-01,-5.849975720047950745e-02,-2.770232595503330231e-02,1.626516506075859070e-02,9.702370315790176392e-02,1.917164027690887451e-02,-1.077622175216674805e-02,-4.138065502047538757e-02,-3.131312318146228790e-03,1.964865624904632568e-01,-6.792634725570678711e-02,5.374269559979438782e-02,2.035837471485137939e-01,8.256971091032028198e-02,3.325683996081352234e-02,-3.884340822696685791e-02,-3.078180551528930664e-02,-9.583442471921443939e-03,1.490086168050765991e-01,1.031835563480854034e-02,-1.537017971277236938e-01,-7.177708204835653305e-03,-1.862796023488044739e-02,4.144765064120292664e-02,1.047349870204925537e-01,8.658904582262039185e-02,-1.293378323316574097e-01,2.049907669425010681e-02,-1.551931351423263550e-02,2.188009023666381836e-01,-4.805728793144226074e-02,-5.213768780231475830e-02,2.059242278337478638e-01,1.439333986490964890e-02,7.630806416273117065e-02,-2.156438492238521576e-02,-4.952768608927726746e-02,-1.050910502672195435e-01,1.027082353830337524e-01,1.140602156519889832e-01,-6.726329028606414795e-02,1.175425201654434204e-02,-3.255828469991683960e-02,1.553549319505691528e-01,-3.504819795489311218e-02,2.348803728818893433e-02,7.683590799570083618e-02,-4.053812101483345032e-02,4.748803749680519104e-02,2.253693491220474243e-01,3.069673478603363037e-02,-1.451821997761726379e-02,-1.394415050745010376e-01,1.462725847959518433e-01,5.671587586402893066e-02,1.882365322671830654e-03,-8.132944814860820770e-03,-1.182063296437263489e-02,2.597148343920707703e-02,-4.873330518603324890e-02,6.287933886051177979e-02,-5.100637301802635193e-02,1.067339815199375153e-02,-7.702071219682693481e-02,-4.033271968364715576e-02,-9.055869653820991516e-03,8.529552072286605835e-02,7.502270862460136414e-03,-3.350014612078666687e-02,-2.768253535032272339e-02
