7.131312787532806396e-02,1.102950144559144974e-02,6.331045180559158325e-02,-3.246534615755081177e-02,-3.467049822211265564e-02,-2.101459912955760956e-02,-7.777879387140274048e-02,3.072780091315507889e-03,-3.711985424160957336e-02,3.807438537478446960e-02,9.320868179202079773e-03,2.036914974451065063e-02,2.786744153127074242e-03,2.518092282116413116e-02,-6.389702856540679932e-02,-1.941464841365814209e-02,-3.106703609228134155e-02,-2.926576696336269379e-02,-2.233912236988544464e-02,-1.418134570121765137e-02,1.076855789870023727e-02,1.723765395581722260e-02,5.786563456058502197e-02,4.143053293228149414e-02,-1.404982525855302811e-02,5.825240910053253174e-02,5.663966387510299683e-02,1.151097379624843597e-02,8.934276551008224487e-02,-4.009950533509254456e-02,-2.246623300015926361e-02,-1.841164194047451019e-02,-4.973179474472999573e-02,5.307789146900177002e-02,-7.917600451037287712e-04,1.004924159497022629e-02,-1.195565797388553619e-02,-1.335058733820915222e-02,-3.843463584780693054e-02,9.594396688044071198e-03,4.352498427033424377e-02,1.713655702769756317e-02,4.606871400028467178e-03,4.358309786766767502e-03,-1.899831928312778473e-02,-3.429170325398445129e-02,-4.229962069075554609e-04,-4.528648778796195984e-02,-3.259070217609405518e-02,4.583930969238281250e-02,1.063201352953910828e-01,-1.605572104454040527e-01,-3.582374006509780884e-02,3.076577559113502502e-02,-1.374256797134876251e-02,7.959899306297302246e-02,6.537882238626480103e-02,-3.483559936285018921e-02,-8.949017524719238281e-02,1.988390088081359863e-02,4.092238098382949829e-02,5.472325906157493591e-02,-1.444511413574218750e-01,-8.732818998396396637e-03,-4.784949123859405518e-02,-5.627493560314178467e-02,2.253122813999652863e-02,-6.922774016857147217e-02,1.029250919818878174e-01,3.405788540840148926e-02,-4.607357084751129150e-02,7.086072117090225220e-02,2.995941787958145142e-02,6.594727747142314911e-03,4.888833686709403992e-02,5.560202151536941528e-02,2.774775261059403419e-03,9.963963180780410767e-02,8.941505849361419678e-02,8.751067332923412323e-03,8.579404652118682861e-02,-5.093185231089591980e-03,3.266786411404609680e-02,7.585790753364562988e-02,1.469821110367774963e-02,3.937940578907728195e-03,1.789461635053157806e-02,-7.728253956884145737e-03,-1.767455018125474453e-03,-7.065660506486892700e-02,4.020577762275934219e-03,3.680219501256942749e-02,9.501257538795471191e-02,9.188699722290039062e-02,2.777609042823314667e-02,2.803432522341609001e-03,7.654359936714172363e-02,-2.518862718716263771e-03,-3.981597721576690674e-03,5.604120716452598572e-02,1.273878011852502823e-02,-2.056978829205036163e-02,2.593195065855979919e-02,-4.828422795981168747e-03,7.182607799768447876e-02,-4.429736733436584473e-02,1.131890993565320969e-02,6.910672038793563843e-02,-4.495214205235242844e-03,6.803821027278900146e-02,1.024693548679351807e-01,9.367266297340393066e-02,-1.232683937996625900e-02,3.833409026265144348e-02,3.562080487608909607e-02,3.467199951410293579e-02,-3.670876100659370422e-02,-2.589163929224014282e-02,3.404133021831512451e-02,1.389910001307725906e-02,3.769766911864280701e-02,9.340292215347290039e-02,5.748221278190612793e-02,-4.801761358976364136e-02,2.039488591253757477e-02,-1.336369384080171585e-02,3.049736097455024719e-02,7.315094023942947388e-02,2.324403449892997742e-02,-7.722512632608413696e-02,-7.786987721920013428e-02,9.570176899433135986e-02,1.491000130772590637e-02,-4.174579307436943054e-02,-1.185660623013973236e-02,-1.333814300596714020e-02,-1.830780506134033203e-02,1.041336823254823685e-02,1.540197245776653290e-02,-5.797238275408744812e-02,5.292113055475056171e-04,3.027611039578914642e-02,-3.705982863903045654e-02
-4.647734016180038452e-02,5.391792580485343933e-02,2.219692431390285492e-02,3.310070559382438660e-02,3.265845403075218201e-02,-3.992064669728279114e-02,-7.290776818990707397e-03,-2.496901340782642365e-02,-1.849081367254257202e-02,-2.892155572772026062e-02,2.879047393798828125e-02,-6.230955477803945541e-03,8.452726900577545166e-02,-3.799772635102272034e-02,-3.357408568263053894e-02,1.784338383004069328e-03,4.124848172068595886e-02,-4.059641808271408081e-02,4.662724211812019348e-03,-6.240614503622055054e-02,5.333149433135986328e-02,-1.625583320856094360e-02,-2.076190523803234100e-02,5.084007605910301208e-02,1.805175654590129852e-02,4.126356914639472961e-02,2.634945698082447052e-02,-4.152957350015640259e-03,-8.753350004553794861e-03,2.707896754145622253e-02,4.397210478782653809e-02,3.135690838098526001e-02,3.428596630692481995e-02,4.330888390541076660e-02,4.338952898979187012e-02,-7.549379486590623856e-03,-1.382381748408079147e-02,2.513300813734531403e-02,-1.658590161241590977e-03,-1.388245727866888046e-02,-7.002843916416168213e-02,9.866159409284591675e-03,-4.349750000983476639e-03,4.938530176877975464e-02,6.302850670181214809e-04,-1.243952289223670959e-02,7.768377661705017090e-02,4.559541866183280945e-02,3.458953648805618286e-02,6.684812903404235840e-02,9.903630241751670837e-03,3.593336790800094604e-02,-2.044370956718921661e-02,-1.900083944201469421e-02,-1.620679348707199097e-02,4.592304676771163940e-02,6.202858686447143555e-02,3.583680838346481323e-02,1.247275397181510925e-01,1.386719848960638046e-02,-5.273865908384323120e-02,5.212591961026191711e-02,-2.750663831830024719e-02,-2.863600477576255798e-02,3.334883600473403931e-02,-4.462158773094415665e-03,-1.086146831512451172e-01,3.225663304328918457e-02,5.356786027550697327e-02,-2.064943127334117889e-02,4.431004822254180908e-02,7.363371551036834717e-02,-5.645169876515865326e-03,-3.816906828433275223e-03,2.602607198059558868e-02,7.477026432752609253e-02,6.218677386641502380e-02,-1.350579410791397095e-02,1.988345943391323090e-02,6.986063439399003983e-03,-1.206569653004407883e-02,-2.247717604041099548e-02,7.036094367504119873e-02,4.420554731041193008e-03,-1.166304014623165131e-02,-1.530393213033676147e-02,6.783633027225732803e-03,-5.975599959492683411e-02,-1.204096246510744095e-02,1.201375853270292282e-02,4.088318347930908203e-02,1.329582035541534424e-01,-1.662443727254867554e-01,-1.619836501777172089e-02,-2.603982575237751007e-02,-1.427340041846036911e-02,-2.597109787166118622e-02,2.967356471344828606e-03,8.289767056703567505e-02,5.462210252881050110e-02,-2.167903445661067963e-02,-4.620881006121635437e-02,-2.738790400326251984e-02,-2.506784163415431976e-02,9.302503615617752075e-02,1.104725990444421768e-02,3.492878004908561707e-02,3.792789205908775330e-02,7.140101492404937744e-02,7.595630735158920288e-02,-3.342193318530917168e-03,4.342994838953018188e-02,-4.842265695333480835e-02,3.370002284646034241e-02,4.535122215747833252e-02,2.770002745091915131e-02,5.743787065148353577e-02,8.250511251389980316e-03,-1.788552291691303253e-02,-6.213296204805374146e-03,7.689688354730606079e-02,-4.809055849909782410e-02,1.850050501525402069e-02,2.363188005983829498e-02,3.732085227966308594e-02,4.185790941119194031e-02,4.677145928144454956e-02,2.483980171382427216e-02,-7.981201261281967163e-02,-4.699385166168212891e-02,-1.076293289661407471e-01,-2.037558890879154205e-02,3.008310310542583466e-02,4.750160500407218933e-02,-5.262166634202003479e-02,-2.692690677940845490e-02,-1.102767977863550186e-02,1.285929083824157715e-01,-9.825200587511062622e-02,2.744625788182020187e-03,3.917029872536659241e-02,5.706153810024261475e-02,1.809479319490492344e-03
-1.283314824104309082e-02,1.135593652725219727e-02,-7.408986240625381470e-02,-8.232583291828632355e-03,-7.104261219501495361e-02,2.839491143822669983e-02,5.911196768283843994e-02,6.895630061626434326e-02,1.664767600595951080e-02,-1.842104271054267883e-02,-5.752008873969316483e-03,3.239044919610023499e-02,4.122699424624443054e-02,9.371425025165081024e-03,6.913006305694580078e-02,-1.390604116022586823e-02,2.667522616684436798e-02,2.607432659715414047e-03,4.010105133056640625e-02,8.453766256570816040e-02,4.187773540616035461e-02,4.082296416163444519e-02,9.031341224908828735e-02,-5.646605789661407471e-02,1.520359702408313751e-02,1.955185830593109131e-02,-6.420026719570159912e-02,-1.911719292402267456e-01,5.094224959611892700e-02,5.135257542133331299e-02,1.096896603703498840e-01,7.747712731361389160e-02,3.795780241489410400e-02,-4.362322390079498291e-02,-3.089129738509654999e-02,3.006008267402648926e-02,1.838359609246253967e-02,4.527932405471801758e-02,4.397665709257125854e-02,6.592173874378204346e-02,3.951982036232948303e-02,3.294708952307701111e-02,4.651895165443420410e-02,3.726362809538841248e-02,3.580106049776077271e-02,2.755455300211906433e-02,3.885156288743019104e-02,-1.857900433242321014e-02,-2.165328897535800934e-02,4.393230006098747253e-02,7.252929359674453735e-02,6.500193476676940918e-02,3.161178901791572571e-02,-6.447117775678634644e-02,-2.388105727732181549e-02,2.799357846379280090e-02,7.874499075114727020e-03,-1.072547212243080139e-01,8.282203972339630127e-02,1.323727071285247803e-01,3.880836069583892822e-02,4.572021961212158203e-02,4.489479120820760727e-03,8.569976687431335449e-02,8.302452415227890015e-02,5.390136316418647766e-02,-3.625715151429176331e-02,8.549448102712631226e-02,2.395324641838669777e-03,7.862103730440139771e-02,8.677234873175621033e-03,-6.744097173213958740e-02,-6.265306472778320312e-02,1.911738142371177673e-02,-4.153539240360260010e-02,-1.572877354919910431e-02,5.520418658852577209e-02,-7.610334455966949463e-02,6.057563796639442444e-02,3.759310021996498108e-02,-1.980031467974185944e-02,-6.752151250839233398e-02,-2.054004743695259094e-02,-4.761544987559318542e-02,9.895624592900276184e-03,-5.074348673224449158e-02,-4.674951359629631042e-02,-6.088302284479141235e-02,2.498498558998107910e-02,-1.564726978540420532e-02,-4.345276206731796265e-02,-7.606808096170425415e-02,-3.952470794320106506e-02,-4.168019816279411316e-02,6.422869116067886353e-02,2.777080796658992767e-02,-1.967577496543526649e-03,-1.200972546939738095e-04,5.501327663660049438e-02,3.668941184878349304e-02,3.911362495273351669e-03,7.201831042766571045e-02,-6.749326828867197037e-03,4.984711855649948120e-02,-5.398990958929061890e-02,-8.700457215309143066e-02,-2.709532156586647034e-03,5.590227246284484863e-02,4.167830571532249451e-02,3.586992621421813965e-02,-2.003221213817596436e-01,4.075846448540687561e-02,-3.862341865897178650e-02,2.233641687780618668e-03,-1.673683337867259979e-02,1.073797717690467834e-01,-6.984698027372360229e-02,1.175528094172477722e-01,-6.327559798955917358e-02,-4.994558170437812805e-02,1.071809530258178711e-01,5.476416647434234619e-02,-7.355073094367980957e-02,-3.960647061467170715e-02,5.925571918487548828e-02,3.950380906462669373e-02,-9.154231101274490356e-02,-2.784083224833011627e-02,-8.360566943883895874e-02,3.660582005977630615e-02,6.951177120208740234e-02,-2.290659025311470032e-02,4.338669776916503906e-02,-4.506327584385871887e-02,4.605318605899810791e-02,1.916489191353321075e-02,-1.928174123167991638e-02,5.872132256627082825e-02,-5.894322693347930908e-02,-3.834413364529609680e-02,-7.538895308971405029e-02,3.700686991214752197e-02,-1.616111211478710175e-02
-1.049838438630104065e-01,-1.440311968326568604e-01,7.725840061902999878e-02,-6.398372352123260498e-02,6.838544458150863647e-02,-5.236043035984039307e-02,5.369830504059791565e-02,-4.816909506916999817e-02,-4.127075590076856315e-05,4.128748178482055664e-02,1.135047432035207748e-02,8.954839780926704407e-03,-2.386412583291530609e-02,8.080041408538818359e-02,7.450083643198013306e-02,1.151497662067413330e-02,4.464345797896385193e-02,2.483563683927059174e-02,6.572563201189041138e-02,9.022211655974388123e-03,3.224451839923858643e-02,-2.929481118917465210e-02,5.415317416191101074e-02,3.648957610130310059e-02,5.868340376764535904e-03,1.093948376365005970e-03,7.588821649551391602e-02,1.271382421255111694e-01,5.915177986025810242e-02,5.921721085906028748e-02,2.550350129604339600e-02,-2.651012130081653595e-02,-8.573506027460098267e-02,3.489972651004791260e-02,2.078462019562721252e-02,9.246655739843845367e-03,-9.817801415920257568e-03,-1.313630398362874985e-02,-2.715376205742359161e-02,3.275081887841224670e-02,8.763558417558670044e-02,6.330733653157949448e-03,2.723148791119456291e-03,-8.137523382902145386e-02,4.577492177486419678e-02,-7.076527923345565796e-03,2.392304688692092896e-02,5.268109217286109924e-02,4.420346021652221680e-02,7.584808394312858582e-03,3.855606541037559509e-03,4.901798814535140991e-02,-4.031015187501907349e-02,-2.572922036051750183e-02,6.668590754270553589e-02,3.167922422289848328e-02,2.886524982750415802e-02,3.718843916431069374e-03,-5.212703719735145569e-02,-4.656603559851646423e-02,3.591189906001091003e-02,1.207405701279640198e-02,1.271817134693264961e-03,3.626497462391853333e-02,2.702508121728897095e-02,4.936826974153518677e-02,5.610876157879829407e-02,6.932419538497924805e-02,3.058450296521186829e-03,-1.672574505209922791e-02,1.184203755110502243e-02,5.560188088566064835e-03,3.312608692795038223e-03,6.958929449319839478e-02,-6.554267555475234985e-02,2.785921096801757812e-02,2.911910600960254669e-02,-3.844279795885086060e-02,-5.408186092972755432e-02,9.351801872253417969e-02,6.470663100481033325e-02,8.424115926027297974e-02,1.098568439483642578e-01,-3.705750778317451477e-02,2.412142045795917511e-02,1.313983649015426636e-01,1.353085786104202271e-02,1.442669774405658245e-03,2.473645471036434174e-02,-3.414813801646232605e-02,1.205003075301647186e-02,-6.522346287965774536e-02,8.269377797842025757e-02,5.005440115928649902e-02,2.323559857904911041e-02,1.061648689210414886e-02,1.155825611203908920e-02,-9.688217192888259888e-03,1.247358620166778564e-01,9.174662083387374878e-02,4.480189085006713867e-02,3.337866067886352539e-02,4.652504250407218933e-02,1.046294942498207092e-01,3.862133622169494629e-02,-2.244318276643753052e-02,-8.360573090612888336e-03,2.896102890372276306e-02,1.989460363984107971e-02,9.651641361415386200e-03,-1.228949893265962601e-02,-5.583051592111587524e-02,6.116759777069091797e-02,9.945689700543880463e-03,-6.402797251939773560e-02,1.807051524519920349e-02,-1.103647332638502121e-02,4.429006576538085938e-02,-1.003791671246290207e-02,-1.052699796855449677e-02,-1.950127631425857544e-02,3.155038505792617798e-02,4.444750770926475525e-02,4.032753407955169678e-02,2.982891537249088287e-02,8.681470900774002075e-02,-8.410453051328659058e-02,-1.573736034333705902e-02,9.806580841541290283e-03,-2.146561630070209503e-03,2.904995344579219818e-02,2.328922972083091736e-02,-3.412960469722747803e-02,-1.085070893168449402e-01,4.686097800731658936e-02,-3.045625798404216766e-02,1.005967333912849426e-01,-5.961623042821884155e-02,-2.613662369549274445e-02,-3.514545038342475891e-02,-1.140175610780715942e-01,5.684691946953535080e-03,-3.672080859541893005e-02
8.480276912450790405e-02,9.894032776355743408e-02,-3.298103809356689453e-02,-6.408663094043731689e-02,6.353686004877090454e-02,4.254154488444328308e-02,6.981264799833297729e-02,-4.239762946963310242e-02,3.964041918516159058e-02,1.125092850998044014e-03,4.075255990028381348e-02,5.709806084632873535e-02,5.122267641127109528e-03,-7.248108088970184326e-02,-2.433911152184009552e-02,8.384530432522296906e-03,-5.409783124923706055e-02,4.547157138586044312e-02,1.444243267178535461e-02,-9.485027752816677094e-03,2.960875071585178375e-02,-9.854082763195037842e-02,5.507566779851913452e-02,7.149979472160339355e-02,-7.119776308536529541e-02,-2.985949104186147451e-04,6.557761877775192261e-02,6.742087751626968384e-02,7.712084800004959106e-02,-7.589010894298553467e-02,-2.332960441708564758e-02,-1.211167406290769577e-02,-2.747128531336784363e-02,9.684725664556026459e-03,-3.168588876724243164e-02,-5.189348384737968445e-02,-3.644305095076560974e-02,-4.963575303554534912e-02,-6.849933415651321411e-02,-7.195631973445415497e-03,1.616246812045574188e-02,2.735918760299682617e-02,-8.945707231760025024e-02,-1.621968671679496765e-02,1.076168846338987350e-02,-3.332795947790145874e-02,-6.315191090106964111e-02,4.467605799436569214e-02,-3.658008947968482971e-02,-3.603678196668624878e-02,-3.398332744836807251e-02,-3.481818735599517822e-02,-2.481011115014553070e-02,8.412921801209449768e-03,-5.581162124872207642e-02,-4.372971132397651672e-02,2.500273473560810089e-02,-8.125593513250350952e-02,-5.945654585957527161e-02,3.236684948205947876e-02,5.894799530506134033e-02,-1.089027673006057739e-01,-5.960686597973108292e-03,-3.358219936490058899e-02,6.893032044172286987e-02,5.868152529001235962e-02,-9.965366125106811523e-02,5.216118320822715759e-02,9.220578707754611969e-03,-7.481681555509567261e-02,-5.420421808958053589e-02,2.796846255660057068e-02,1.633448712527751923e-02,-1.129026338458061218e-02,-3.688661009073257446e-02,-9.310646355152130127e-02,3.631652891635894775e-02,6.695973128080368042e-02,-4.717691987752914429e-02,4.367021843791007996e-02,3.063481114804744720e-02,8.654508739709854126e-02,-2.446530573070049286e-02,6.798586994409561157e-02,-8.424497395753860474e-02,4.039517417550086975e-02,-7.443241029977798462e-02,2.721283212304115295e-02,9.815810248255729675e-03,4.616557806730270386e-02,3.763728216290473938e-02,-2.283183299005031586e-02,5.763217061758041382e-02,4.391905292868614197e-02,-2.061131596565246582e-02,-4.331362992525100708e-02,1.069068908691406250e-02,-2.626345865428447723e-02,-5.073773488402366638e-02,4.210932180285453796e-02,-4.647954180836677551e-02,-2.324668876826763153e-02,-2.931520156562328339e-02,-6.895294785499572754e-02,3.071915172040462494e-02,-5.386384576559066772e-02,1.914998143911361694e-02,-2.745806239545345306e-02,-8.457385003566741943e-02,8.729983121156692505e-02,5.337913706898689270e-02,-8.404640853404998779e-02,-2.836958691477775574e-02,7.489728927612304688e-02,-3.934098035097122192e-02,-3.814905509352684021e-02,1.250724773854017258e-02,-5.320746079087257385e-02,-3.421962261199951172e-02,2.528353594243526459e-02,-3.446127101778984070e-02,5.701636895537376404e-02,-1.414700690656900406e-02,-2.028450742363929749e-02,4.925756249576807022e-03,1.823080517351627350e-02,-4.017566330730915070e-03,-4.389705881476402283e-02,-6.975160539150238037e-02,2.909555099904537201e-02,5.036260560154914856e-02,7.120051234960556030e-02,6.541404128074645996e-02,-4.445756226778030396e-02,-6.143632531166076660e-02,4.704184364527463913e-03,4.920349642634391785e-02,3.708539903163909912e-02,-3.626243397593498230e-02,6.163864210247993469e-02,2.289723232388496399e-02,-6.153139472007751465e-02,-1.681228913366794586e-02
-8.477677404880523682e-02,6.840047240257263184e-02,-2.177407965064048767e-02,3.689272329211235046e-02,-1.747667416930198669e-02,-1.184087432920932770e-02,4.652925208210945129e-02,-2.837646752595901489e-03,6.240161135792732239e-02,6.894301623106002808e-02,9.339874982833862305e-02,5.532954633235931396e-02,-3.711454628501087427e-04,9.160345047712326050e-02,8.313617110252380371e-02,2.531080506742000580e-03,1.665153056383132935e-01,-4.675130918622016907e-02,-9.960986673831939697e-03,4.753458127379417419e-02,-8.643648028373718262e-02,-8.811912685632705688e-02,2.295581065118312836e-02,7.714625447988510132e-02,-1.674826140515506268e-03,-8.346159942448139191e-03,-1.279195863753557205e-02,3.184142708778381348e-02,-2.614262746647000313e-03,-1.229337751865386963e-01,2.521275170147418976e-02,2.208160609006881714e-02,1.769608934409916401e-03,-6.939065456390380859e-02,1.751398108899593353e-02,-1.027898415923118591e-01,-9.483847767114639282e-02,-8.514664322137832642e-02,-4.758169874548912048e-02,-1.340062823146581650e-02,2.062505297362804413e-02,2.871118672192096710e-02,5.845816433429718018e-02,5.239981785416603088e-02,-4.099579155445098877e-02,3.941936418414115906e-02,-8.943545073270797729e-02,1.130383610725402832e-01,1.271648108959197998e-01,6.588595360517501831e-02,-4.612762946635484695e-03,-7.185138761997222900e-02,8.137053996324539185e-02,4.606560990214347839e-02,-9.673505090177059174e-03,3.086498240008950233e-03,2.729550236836075783e-03,9.647300466895103455e-03,8.341985940933227539e-02,8.379962295293807983e-02,2.645701728761196136e-02,-3.173575550317764282e-02,1.280212402343750000e-01,-8.998599648475646973e-02,-1.270150952041149139e-02,-1.382982730865478516e-02,-7.489963620901107788e-02,-6.632171571254730225e-02,6.805167347192764282e-02,2.867655269801616669e-02,-8.401736617088317871e-02,6.762081384658813477e-02,-4.875395074486732483e-02,-1.380121987313032150e-02,3.658259660005569458e-02,-2.444462291896343231e-02,4.623778164386749268e-02,3.586242720484733582e-02,4.401564225554466248e-02,3.808971866965293884e-02,5.684423819184303284e-02,1.440466344356536865e-01,7.400062680244445801e-02,6.839195638895034790e-02,1.029324233531951904e-01,-3.807429969310760498e-02,-4.836490750312805176e-02,-8.069254457950592041e-02,2.305447123944759369e-02,-5.536549910902976990e-02,-4.333204776048660278e-02,-5.601313710212707520e-02,-1.715987548232078552e-02,1.224017292261123657e-01,2.166461572051048279e-02,3.677084669470787048e-02,3.312244080007076263e-03,-9.634550660848617554e-04,5.413784459233283997e-02,-9.866428561508655548e-03,-4.049411416053771973e-02,1.392168924212455750e-02,-5.233710259199142456e-02,3.041971661150455475e-02,5.388176068663597107e-02,5.390518531203269958e-02,2.710751444101333618e-02,8.949958533048629761e-02,-1.293299440294504166e-02,-2.183846011757850647e-02,-3.954986575990915298e-03,-1.777639798820018768e-02,4.031006991863250732e-02,6.863375660032033920e-03,1.287968605756759644e-01,8.396133780479431152e-02,8.509381860494613647e-02,5.737630277872085571e-02,2.259721420705318451e-02,5.540939979255199432e-03,-6.709368899464607239e-03,1.960020978003740311e-03,-2.454776130616664886e-02,9.727972745895385742e-02,8.150016516447067261e-02,9.647551923990249634e-02,1.979173347353935242e-02,-6.115093082189559937e-02,7.774876058101654053e-02,-4.993604868650436401e-02,-5.945664271712303162e-02,1.281323581933975220e-01,2.541744895279407501e-02,-4.371600970625877380e-02,7.088851183652877808e-02,-3.596194460988044739e-02,-6.810889393091201782e-02,3.669218719005584717e-02,4.800489987246692181e-04,-1.068459544330835342e-02,-8.488493412733078003e-02,-7.583238766528666019e-04,4.400759935379028320e-02
5.433430895209312439e-02,4.958023875951766968e-02,-8.428844809532165527e-02,1.131373271346092224e-02,5.969170853495597839e-02,9.534537792205810547e-03,-6.992407888174057007e-02,-7.982678711414337158e-02,-1.315140444785356522e-02,-1.932032778859138489e-02,4.944682493805885315e-02,1.023425310850143433e-01,-5.766037851572036743e-03,-5.638699978590011597e-02,2.973274327814579010e-02,3.629234060645103455e-02,5.694601312279701233e-02,3.297525271773338318e-02,-5.938930436968803406e-03,6.067366525530815125e-02,5.900710076093673706e-02,8.104304969310760498e-02,1.725859765429049730e-04,-4.257796332240104675e-03,9.149941056966781616e-02,8.971998095512390137e-02,-1.536313146352767944e-01,-1.011799201369285583e-01,-1.335529983043670654e-01,-1.397791653871536255e-01,-1.868700049817562103e-02,6.402070075273513794e-02,7.554166764020919800e-02,-5.016119405627250671e-02,-1.579296737909317017e-01,3.247311711311340332e-02,4.767443984746932983e-02,6.803741306066513062e-02,1.012432575225830078e-01,2.056049183011054993e-02,2.832891047000885010e-02,-4.150151833891868591e-02,-1.532604545354843140e-02,-6.193701643496751785e-03,-5.023273825645446777e-02,4.376961290836334229e-02,-4.588721692562103271e-02,-6.837004423141479492e-02,-6.192718818783760071e-02,3.686114400625228882e-02,5.935369990766048431e-03,-1.907715201377868652e-02,4.191911965608596802e-02,-3.116562403738498688e-02,2.046659402549266815e-02,-2.231994122266769409e-01,6.601057946681976318e-02,7.006403058767318726e-02,-1.807100176811218262e-01,-5.606358870863914490e-03,7.780583202838897705e-02,-2.640001177787780762e-01,-3.337723761796951294e-02,2.367330249398946762e-03,1.456699520349502563e-01,-2.649093419313430786e-02,-4.516604170203208923e-02,4.949605464935302734e-02,-5.333148688077926636e-02,-3.367922455072402954e-02,1.531496737152338028e-02,-4.166747629642486572e-02,1.132097560912370682e-02,1.645655371248722076e-02,1.019502058625221252e-01,4.369091615080833435e-02,-2.255945354700088501e-01,-2.729382738471031189e-02,1.267952471971511841e-01,7.000285387039184570e-02,5.953290686011314392e-02,4.184845462441444397e-02,2.155408822000026703e-02,8.834536373615264893e-02,4.351631179451942444e-02,2.750632353127002716e-02,1.804463192820549011e-02,-6.961046718060970306e-03,1.424543838948011398e-02,-4.731630161404609680e-02,-4.665653780102729797e-02,6.557103991508483887e-02,3.670070320367813110e-02,2.566420473158359528e-02,-1.535362601280212402e-01,4.557671770453453064e-02,-2.147764712572097778e-02,2.131456322968006134e-02,-1.980961859226226807e-02,3.363581001758575439e-02,2.879962325096130371e-02,-1.653654966503381729e-03,3.368627652525901794e-02,-1.908158697187900543e-02,6.450413167476654053e-02,6.115737929940223694e-02,1.327560748904943466e-02,8.731891214847564697e-02,1.361776236444711685e-02,1.701203174889087677e-02,4.584577307105064392e-02,1.131434142589569092e-01,6.996835768222808838e-02,-1.521915569901466370e-02,-1.007970049977302551e-01,1.796794310212135315e-02,7.387216389179229736e-02,8.217748999595642090e-02,-8.742289245128631592e-02,-2.003364451229572296e-02,-7.696002721786499023e-02,2.606504969298839569e-02,-7.107979804277420044e-02,-6.469842046499252319e-02,6.862787157297134399e-02,-6.483584642410278320e-02,-4.803928732872009277e-02,-1.115926057100296021e-01,1.076631918549537659e-01,3.774790093302726746e-02,-2.038791216909885406e-02,6.540400534868240356e-02,-1.213861629366874695e-02,8.070319890975952148e-02,-5.859246477484703064e-02,7.708830758929252625e-03,-3.677279502153396606e-02,-8.268161863088607788e-02,-7.659164071083068848e-02,9.125439100898802280e-04,-8.257403969764709473e-02,2.245366107672452927e-03,-1.353906933218240738e-02
-5.202146247029304504e-03,-5.775208398699760437e-02,5.391917377710342407e-02,-4.525094479322433472e-02,4.398017004132270813e-02,2.295985119417309761e-03,7.446679472923278809e-02,-4.461978003382682800e-02,-2.317376807332038879e-02,2.981840074062347412e-02,-5.065056681632995605e-02,1.002919673919677734e-02,-1.210138052701950073e-01,-4.422002471983432770e-03,-9.709065780043601990e-03,4.743865225464105606e-03,6.349360942840576172e-02,2.157090976834297180e-02,-1.630858704447746277e-02,-2.284868992865085602e-02,1.964149251580238342e-02,1.296379230916500092e-02,1.800459064543247223e-02,-5.665364116430282593e-02,-9.354455769062042236e-02,-6.855855137109756470e-02,-2.468751370906829834e-02,8.255418390035629272e-02,3.821589797735214233e-02,-5.533889308571815491e-02,8.938638120889663696e-02,-3.969638422131538391e-02,5.071938782930374146e-02,-2.498023957014083862e-02,6.829977780580520630e-02,5.650811269879341125e-02,-9.193546138703823090e-03,-1.017665024846792221e-02,-1.836053282022476196e-02,1.361574605107307434e-02,3.708675503730773926e-02,3.772811219096183777e-02,1.723459549248218536e-02,-3.034896403551101685e-02,3.617776185274124146e-02,-1.874223724007606506e-02,2.123230323195457458e-02,2.442895434796810150e-02,-3.601961210370063782e-02,7.257755845785140991e-02,-4.769097268581390381e-02,-3.005134873092174530e-02,-2.273831702768802643e-02,5.837924405932426453e-02,5.233946256339550018e-03,1.534086558967828751e-02,1.138227581977844238e-01,-3.852258250117301941e-02,-8.055495098233222961e-03,1.083272770047187805e-01,-5.613976716995239258e-02,2.445258572697639465e-02,2.216134965419769287e-02,6.464514881372451782e-02,4.029744304716587067e-03,-1.891384646296501160e-02,-1.933413930237293243e-02,-3.995396196842193604e-02,-3.628022596240043640e-02,-5.591216031461954117e-03,-4.295032098889350891e-02,6.594880670309066772e-02,4.745204746723175049e-02,8.287874981760978699e-03,-4.219776391983032227e-02,-3.216902725398540497e-03,1.230903565883636475e-01,-2.120324596762657166e-02,-1.335475593805313110e-02,-2.135377675294876099e-01,8.585553616285324097e-02,1.194007098674774170e-01,-7.601599395275115967e-02,4.365320317447185516e-03,-3.334083408117294312e-02,5.158559605479240417e-02,-8.972363919019699097e-02,-1.854509674012660980e-02,-6.832222640514373779e-02,-5.523632094264030457e-02,-4.204096272587776184e-02,8.588308840990066528e-02,1.339566856622695923e-01,4.531851783394813538e-02,8.871287852525711060e-02,-3.359921649098396301e-02,-1.637182757258415222e-02,7.447885721921920776e-02,-5.922140926122665405e-02,-1.678246818482875824e-02,-2.423707582056522369e-02,-1.147873923182487488e-01,3.295677900314331055e-02,6.395155651262030005e-05,-2.651765383780002594e-02,1.136135589331388474e-02,4.469945281744003296e-02,-1.176166161894798279e-01,-1.514207944273948669e-02,4.355011507868766785e-02,3.871937468647956848e-02,1.675859093666076660e-02,8.536918088793754578e-03,4.812025651335716248e-02,-8.719477057456970215e-02,-3.316746652126312256e-02,-1.044422686100006104e-01,2.679487690329551697e-03,3.050789795815944672e-02,9.703116491436958313e-03,-7.017710804939270020e-02,-1.003725975751876831e-01,4.738554358482360840e-02,-1.170541439205408096e-02,9.203861653804779053e-02,-2.180414833128452301e-02,-4.032566398382186890e-02,-6.220426410436630249e-02,1.048696227371692657e-02,4.821383394300937653e-03,6.896186154335737228e-03,7.510533183813095093e-02,-2.446593530476093292e-02,6.336183845996856689e-02,-9.532512724399566650e-02,-1.392304245382547379e-02,3.134459257125854492e-02,-8.870790712535381317e-03,-5.995506420731544495e-02,4.309837147593498230e-02,7.580003887414932251e-02,-8.690762333571910858e-03,-5.890607368201017380e-03
-3.817977011203765869e-02,2.342624589800834656e-02,6.346986442804336548e-02,5.883200839161872864e-02,-5.002960190176963806e-02,-4.055284336209297180e-02,1.640688627958297729e-02,-9.766921401023864746e-02,-4.380589723587036133e-02,-6.686865538358688354e-02,-9.939726442098617554e-02,-9.613922797143459320e-03,1.077326387166976929e-01,-1.243042871356010437e-01,5.520876124501228333e-02,2.145983092486858368e-02,5.556208267807960510e-02,4.125611856579780579e-02,7.368537783622741699e-02,7.599514722824096680e-02,-1.635985262691974640e-02,8.610096760094165802e-03,1.995520852506160736e-02,6.546475738286972046e-02,7.515661418437957764e-02,9.439279884099960327e-02,5.312394350767135620e-02,-4.598204791545867920e-02,-1.058249399065971375e-01,9.184642881155014038e-02,1.210385784506797791e-01,2.581309340894222260e-02,1.284176260232925415e-01,-2.053504437208175659e-02,-1.134712547063827515e-01,7.842804491519927979e-02,9.782916307449340820e-02,1.560214608907699585e-01,1.791786700487136841e-01,-1.381310541182756424e-02,-1.470137983560562134e-01,-8.325599133968353271e-02,4.197283461689949036e-02,6.810865551233291626e-02,2.282201685011386871e-02,-7.578911632299423218e-02,-1.175856068730354309e-01,1.391535103321075439e-01,7.672688458114862442e-03,-1.614164561033248901e-01,5.871664360165596008e-02,-8.896957337856292725e-02,2.740356326103210449e-02,-1.877221018075942993e-01,-1.663977652788162231e-01,-9.679906070232391357e-02,-1.552344020456075668e-02,1.399541646242141724e-01,-1.616639085114002228e-02,1.835958659648895264e-02,1.184128690510988235e-02,3.357553109526634216e-02,-8.081153035163879395e-03,4.572356864809989929e-02,1.529107391834259033e-01,3.905819728970527649e-02,1.228647679090499878e-02,-5.867155641317367554e-02,-2.494321390986442566e-02,-1.456280983984470367e-02,6.414092332124710083e-02,-8.841055631637573242e-02,-3.531578928232192993e-02,1.131586264818906784e-02,3.482295898720622063e-03,1.766690984368324280e-02,-8.749086409807205200e-02,-1.332678645849227905e-01,-3.730823099613189697e-02,2.622155845165252686e-02,-1.365664042532444000e-02,5.783641338348388672e-02,-3.871082514524459839e-02,-1.494123190641403198e-01,3.897624835371971130e-02,-5.278049036860466003e-03,1.577240414917469025e-02,1.296383794397115707e-02,-2.732221595942974091e-02,-9.958897531032562256e-02,-6.878086179494857788e-02,-1.419118978083133698e-02,-6.317643914371728897e-03,5.936479941010475159e-02,-5.573515966534614563e-02,-6.347710639238357544e-02,-6.786604970693588257e-02,-2.414303459227085114e-02,-8.318546414375305176e-02,1.736079156398773193e-02,-8.329280465841293335e-02,3.330994769930839539e-02,3.398224245756864548e-03,4.922038316726684570e-02,-1.233585178852081299e-02,-3.213757590856403112e-04,1.399425137788057327e-02,-2.289408594369888306e-01,6.537321023643016815e-03,8.266577124595642090e-02,-6.370327621698379517e-02,2.933639101684093475e-02,2.300701104104518890e-02,5.344123579561710358e-03,2.283787820488214493e-03,-6.717206910252571106e-03,8.315211534500122070e-02,1.026198342442512512e-01,-5.924186855554580688e-02,2.993661165237426758e-02,1.052484214305877686e-01,-6.612745579332113266e-03,-4.871814697980880737e-02,4.550965130329132080e-02,-1.488221809267997742e-02,4.211986064910888672e-02,-8.603868633508682251e-02,6.584643572568893433e-02,1.188103109598159790e-01,-9.791526943445205688e-03,-1.342611480504274368e-02,2.080487832427024841e-02,-6.922245025634765625e-02,-2.168165892362594604e-02,-1.338009536266326904e-01,-4.049093648791313171e-02,4.176644235849380493e-02,-5.062241479754447937e-02,8.406116627156734467e-03,2.438780292868614197e-02,-3.288716543465852737e-03,1.502901688218116760e-02,-5.137560516595840454e-02
-5.368088185787200928e-02,-4.637818410992622375e-02,8.625099062919616699e-02,-9.116505086421966553e-02,7.905742526054382324e-02,1.089274510741233826e-01,-7.865045219659805298e-02,1.742116734385490417e-02,2.547243982553482056e-02,-1.909765228629112244e-02,1.093748491257429123e-02,-1.600795611739158630e-02,-1.942511647939682007e-02,-1.764086633920669556e-02,1.902612298727035522e-02,9.219313971698284149e-03,1.006377264857292175e-01,2.315459214150905609e-02,3.970423713326454163e-02,5.459801852703094482e-02,1.149061694741249084e-01,1.408017240464687347e-02,-1.542557310312986374e-02,3.965358063578605652e-02,2.734855003654956818e-02,3.216870874166488647e-02,3.125863522291183472e-02,5.514428019523620605e-02,7.820890098810195923e-02,-2.029348723590373993e-02,8.598970621824264526e-02,5.868300795555114746e-02,4.738898575305938721e-02,-5.511852912604808807e-03,4.136841744184494019e-02,1.775652542710304260e-02,1.429749559611082077e-02,1.521792355924844742e-02,3.318712487816810608e-02,1.147491782903671265e-01,8.833809942007064819e-02,3.727558255195617676e-02,2.526420168578624725e-02,4.594949260354042053e-02,6.648297607898712158e-02,5.837437510490417480e-02,7.347141206264495850e-02,5.254876986145973206e-02,9.094496257603168488e-03,4.136752337217330933e-02,2.287045493721961975e-02,-5.459367483854293823e-02,7.920198142528533936e-03,-4.951686784625053406e-02,8.379708975553512573e-03,3.304172307252883911e-02,-1.879799813032150269e-01,2.451963350176811218e-02,5.720783025026321411e-02,7.875973731279373169e-02,2.828875789418816566e-03,4.294891282916069031e-02,2.527246624231338501e-02,-8.915743976831436157e-02,1.421524793840944767e-03,-4.632885754108428955e-02,-4.171365872025489807e-02,-2.766813267953693867e-04,7.110279053449630737e-02,-5.258322507143020630e-02,-6.452923640608787537e-03,5.019283667206764221e-02,9.747803956270217896e-02,2.505267411470413208e-02,-1.716131716966629028e-02,-1.161039806902408600e-02,1.880572410300374031e-03,-6.515368819236755371e-03,3.781326860189437866e-02,2.868369594216346741e-02,4.441628232598304749e-02,-1.156754326075315475e-02,4.294869303703308105e-02,2.850903570652008057e-02,4.855327308177947998e-03,1.648627221584320068e-02,-1.124581545591354370e-01,-7.301984727382659912e-02,5.976254586130380630e-03,2.784461155533790588e-02,-3.292722254991531372e-02,4.214338213205337524e-02,-5.406015366315841675e-02,-1.897604465484619141e-01,-9.937481954693794250e-03,3.547033667564392090e-02,3.440727014094591141e-03,1.344074029475450516e-02,3.759144246578216553e-02,7.853313535451889038e-02,3.899648040533065796e-02,8.824457973241806030e-02,1.894235424697399139e-02,4.691662266850471497e-02,-8.361310511827468872e-02,5.632360279560089111e-02,3.841555118560791016e-02,-9.757266193628311157e-02,9.542976319789886475e-02,3.504943102598190308e-03,-2.126412652432918549e-02,7.696498930454254150e-02,6.001091003417968750e-02,4.203386604785919189e-02,1.525931153446435928e-02,-1.339408755302429199e-01,-2.195784589275717735e-03,2.575989440083503723e-02,2.467457577586174011e-02,1.133257523179054260e-01,5.182848498225212097e-02,5.909267067909240723e-02,4.974557831883430481e-02,-5.016819760203361511e-02,-9.946470707654953003e-02,3.012547735124826431e-03,3.824473172426223755e-02,4.628127440810203552e-02,-2.472778595983982086e-02,-3.515038266777992249e-02,-4.823266342282295227e-02,2.415568567812442780e-02,6.725796312093734741e-02,-2.879443392157554626e-02,-5.123396962881088257e-02,-6.420908868312835693e-02,5.374241992831230164e-02,-5.830168724060058594e-02,-1.913750618696212769e-01,1.005146801471710205e-01,5.619006231427192688e-02,-2.762401103973388672e-02,4.588918294757604599e-03
1.464718021452426910e-02,-4.832247644662857056e-02,-3.888508304953575134e-02,7.901893556118011475e-02,4.856806620955467224e-02,-3.535866737365722656e-02,5.292515270411968231e-03,4.572560265660285950e-02,4.912925511598587036e-02,1.684260554611682892e-02,-1.835059747099876404e-02,-1.646950654685497284e-02,3.218958154320716858e-02,-1.214113179594278336e-02,-2.483444102108478546e-02,-1.250556949526071548e-02,-4.024048149585723877e-02,3.067219629883766174e-02,-1.703043840825557709e-02,3.040394559502601624e-02,6.984104868024587631e-03,-5.020217224955558777e-02,2.040995098650455475e-02,-9.985269978642463684e-03,2.509347721934318542e-02,1.326708961278200150e-02,1.263810098171234131e-01,-1.978663727641105652e-02,3.064081817865371704e-02,-1.317750196903944016e-03,-9.351902641355991364e-03,1.095887366682291031e-02,6.244271993637084961e-02,-6.442354060709476471e-03,-1.826124498620629311e-03,1.818817481398582458e-02,3.152980282902717590e-02,-1.447576470673084259e-02,1.900553889572620392e-02,4.641371220350265503e-02,2.527053840458393097e-02,1.301979646086692810e-02,6.376696377992630005e-02,-1.852648146450519562e-02,1.302306656725704670e-03,-7.653443142771720886e-03,-2.314898744225502014e-02,7.164598256349563599e-02,3.305194154381752014e-02,7.317484915256500244e-02,4.190784692764282227e-02,-1.199201643466949463e-01,-4.573478177189826965e-02,7.490801811218261719e-02,8.102865517139434814e-02,1.186436228454113007e-02,-8.754690736532211304e-02,1.440127100795507431e-02,8.014016598463058472e-02,6.148931384086608887e-02,-2.024833671748638153e-02,9.217321872711181641e-03,7.217512931674718857e-03,-1.556647755205631256e-02,-6.113166362047195435e-02,-4.081008583307266235e-02,1.030780375003814697e-01,1.099669933319091797e-02,-2.938301675021648407e-02,3.918324410915374756e-02,-4.551981389522552490e-02,-1.472666673362255096e-02,-3.281323239207267761e-03,-3.618784248828887939e-02,-3.672409057617187500e-02,6.051791459321975708e-02,7.053781300783157349e-02,8.056679368019104004e-02,-4.737677052617073059e-02,8.086640387773513794e-02,-1.179464980959892273e-01,1.295714057050645351e-03,-6.419826298952102661e-02,1.290524099022150040e-02,-3.214863315224647522e-02,4.074010998010635376e-02,9.825084358453750610e-03,-3.831751644611358643e-03,-5.620496720075607300e-02,5.947566777467727661e-02,4.645653441548347473e-02,4.054678604006767273e-02,6.146213412284851074e-02,6.373946368694305420e-02,2.371879294514656067e-02,2.946784347295761108e-02,4.499420523643493652e-02,1.713950559496879578e-02,-3.684932366013526917e-02,1.399368885904550552e-02,2.160569652915000916e-02,8.857370167970657349e-02,1.505493838340044022e-02,1.017946675419807434e-01,-1.290479674935340881e-02,5.297248251736164093e-03,-5.352190136909484863e-02,-1.555453334003686905e-02,4.773629829287528992e-02,2.994607575237751007e-02,-6.048058159649372101e-03,-2.719237469136714935e-02,4.953474272042512894e-03,-1.011879295110702515e-01,-2.327475883066654205e-02,-8.011807501316070557e-02,-5.287469178438186646e-02,-2.752395719289779663e-02,7.410734146833419800e-02,-5.771136656403541565e-02,-1.538580507040023804e-01,-6.182680651545524597e-02,1.083035580813884735e-02,3.596840426325798035e-03,-2.580390311777591705e-02,8.462701737880706787e-02,3.081876412034034729e-02,2.297595143318176270e-02,5.209609493613243103e-02,6.829446554183959961e-02,9.906318783760070801e-02,1.349027641117572784e-02,-3.864502534270286560e-02,-9.447500109672546387e-02,-1.868482679128646851e-02,2.508225850760936737e-02,3.790014982223510742e-02,-5.377290025353431702e-02,1.131963655352592468e-01,7.697375863790512085e-02,4.124248400330543518e-02,1.351620629429817200e-02,-4.594218730926513672e-02
5.746988579630851746e-02,7.784968614578247070e-02,2.839227765798568726e-02,2.159812487661838531e-02,5.528190732002258301e-02,-6.286837160587310791e-02,-2.413666807115077972e-02,-6.180880963802337646e-02,-3.788243606686592102e-02,2.568954601883888245e-02,-1.599593833088874817e-02,-2.752954512834548950e-02,1.417514681816101074e-02,-2.536704950034618378e-02,-9.650257229804992676e-02,-8.047973737120628357e-03,4.031711444258689880e-02,-8.842179924249649048e-02,-1.524210423231124878e-01,2.988229133188724518e-02,-1.660866476595401764e-02,-7.167193293571472168e-02,8.553413301706314087e-02,5.097781494259834290e-02,-4.549505189061164856e-02,-4.779031127691268921e-02,-6.607748568058013916e-02,4.062856733798980713e-02,7.051452994346618652e-02,-7.961641252040863037e-02,9.145848453044891357e-02,-4.379545897245407104e-02,-7.934856414794921875e-02,-4.759553819894790649e-02,3.367030620574951172e-02,-2.495098859071731567e-02,-7.961636036634445190e-02,-4.336848109960556030e-02,2.463297545909881592e-02,-2.300118468701839447e-02,-5.522652342915534973e-02,-5.427938885986804962e-03,-1.362831983715295792e-02,-6.426223367452621460e-02,-1.453865133225917816e-02,2.276630140841007233e-02,-7.568171620368957520e-02,-4.752178117632865906e-02,-8.825178258121013641e-03,6.496053934097290039e-02,2.428083866834640503e-02,-4.653822630643844604e-02,-7.303904742002487183e-02,-3.515014424920082092e-02,5.555013194680213928e-03,-4.473934695124626160e-02,2.956108190119266510e-02,1.332040876150131226e-02,-1.142428349703550339e-02,9.867459535598754883e-02,-5.567254498600959778e-02,5.781757831573486328e-02,-1.405671089887619019e-01,-1.048453897237777710e-02,5.591684579849243164e-02,-2.429468929767608643e-02,-7.933355867862701416e-02,-8.592967875301837921e-03,-4.429149627685546875e-02,4.017210379242897034e-02,-7.576836273074150085e-03,2.868474647402763367e-02,9.324369952082633972e-03,-2.848523482680320740e-02,-2.140893973410129547e-02,-2.844824828207492828e-02,-1.943755708634853363e-02,7.366581261157989502e-02,-4.826775752007961273e-03,-1.671882718801498413e-02,2.631881460547447205e-02,3.760019689798355103e-02,9.327592328190803528e-03,-3.382442519068717957e-02,1.840037293732166290e-02,6.188368424773216248e-02,6.577056366950273514e-03,4.656202718615531921e-02,-2.886071801185607910e-02,-4.845917597413063049e-02,-7.971757650375366211e-02,-6.198272481560707092e-02,-2.095100469887256622e-02,2.184095978736877441e-02,-3.586110845208168030e-02,-9.081581607460975647e-03,-5.656619742512702942e-02,6.277032941579818726e-02,-9.104336053133010864e-02,-7.653511315584182739e-02,1.538379397243261337e-02,3.133546561002731323e-02,3.219823585823178291e-03,6.690520048141479492e-02,-9.169656783342361450e-02,-6.137135252356529236e-02,2.701596713450271636e-05,-6.079617515206336975e-02,5.188867449760437012e-02,-8.536208420991897583e-02,2.906058356165885925e-02,-4.381864145398139954e-02,-2.217788062989711761e-02,-2.626548893749713898e-02,1.267565996386110783e-03,7.444691844284534454e-03,-9.036062983796000481e-04,-2.681431919336318970e-02,-7.569291442632675171e-02,-1.233478933572769165e-01,-7.217427343130111694e-02,2.710410626605153084e-03,7.665580511093139648e-02,1.106815561652183533e-01,2.032738737761974335e-02,-1.139780692756175995e-02,-3.599106147885322571e-02,6.113530695438385010e-02,5.804559215903282166e-03,4.308968782424926758e-02,8.899030089378356934e-02,-7.862969487905502319e-02,9.213276207447052002e-02,1.894147694110870361e-02,4.121948964893817902e-03,-1.867374964058399200e-02,3.911103308200836182e-02,-1.492444574832916260e-01,6.825922429561614990e-02,-3.011710755527019501e-02,2.175489440560340881e-02,8.808072656393051147e-02,-3.639880940318107605e-02
5.020996183156967163e-02,-8.695178478956222534e-02,-3.927573561668395996e-02,-2.240869915112853050e-03,4.293044656515121460e-02,-6.604281812906265259e-02,2.802681922912597656e-02,3.214096277952194214e-02,-8.106483519077301025e-02,7.266201078891754150e-02,3.019114397466182709e-02,3.814710304141044617e-02,-5.443444103002548218e-02,4.548479616641998291e-02,-1.037727203220129013e-02,-6.008221954107284546e-02,-1.889424026012420654e-02,-7.362110540270805359e-03,-3.530899435281753540e-02,1.043620333075523376e-02,2.906184829771518707e-02,-3.796692704781889915e-03,-5.899196863174438477e-02,6.551852077245712280e-02,-1.109701842069625854e-01,-7.980677485466003418e-02,3.869572654366493225e-02,9.161474555730819702e-02,5.235414206981658936e-02,8.735869824886322021e-02,-9.809100069105625153e-03,4.197105020284652710e-02,1.523269526660442352e-02,2.810211852192878723e-02,-3.891518339514732361e-02,-6.960611790418624878e-02,-1.821918040513992310e-02,-3.032288700342178345e-02,-3.303279355168342590e-02,3.459368599578738213e-03,2.735575288534164429e-02,-6.696760654449462891e-03,-9.618476778268814087e-02,-4.890885204076766968e-02,-3.148635476827621460e-02,-1.361823175102472305e-02,-2.403147891163825989e-02,3.772973269224166870e-02,4.314797371625900269e-02,3.010946512222290039e-02,-1.351121533662080765e-02,-2.674298547208309174e-02,1.077505201101303101e-01,1.358382869511842728e-02,-6.391728669404983521e-02,5.467218533158302307e-02,1.442575175315141678e-02,-2.849918603897094727e-02,3.697916120290756226e-02,-6.550639122724533081e-02,-5.224169418215751648e-02,8.562794886529445648e-03,8.452786714769899845e-04,1.057838648557662964e-01,-3.649184480309486389e-02,7.350833714008331299e-02,1.298793684691190720e-02,8.085991255939006805e-03,-7.252375036478042603e-02,-6.314823869615793228e-03,1.329621858894824982e-02,2.792287059128284454e-02,3.983068838715553284e-02,-6.746082752943038940e-02,3.008224070072174072e-02,-4.763047397136688232e-02,2.438242547214031219e-02,6.359366327524185181e-02,-7.322678342461585999e-03,-1.287715695798397064e-02,-3.474702825769782066e-03,6.032300367951393127e-02,8.106585592031478882e-02,1.017484515905380249e-01,8.603897690773010254e-02,4.805840179324150085e-02,1.911966688930988312e-02,-3.551106527447700500e-02,-8.920165128074586391e-04,2.087766863405704498e-02,2.304619364440441132e-02,-1.246148813515901566e-02,1.282340008765459061e-02,-1.749323010444641113e-01,-8.510356396436691284e-02,3.889983147382736206e-02,7.704706862568855286e-03,-1.523535419255495071e-02,-1.245821476913988590e-03,-5.683718994259834290e-02,-5.806699395179748535e-02,2.399242296814918518e-02,-1.226958353072404861e-02,-3.037542337551712990e-03,2.024876186624169350e-03,3.366610407829284668e-02,4.361740499734878540e-02,3.370257467031478882e-02,7.929077744483947754e-02,-1.136152260005474091e-02,-6.229935213923454285e-03,-1.074887216091156006e-01,-5.293408036231994629e-02,1.186377182602882385e-02,1.028855331242084503e-02,3.514513000845909119e-02,2.353268302977085114e-02,1.475290581583976746e-02,-2.211243845522403717e-02,-1.128539815545082092e-01,1.901144569274038076e-04,-1.359799057245254517e-01,-6.227101385593414307e-02,2.597564365714788437e-03,-8.592571131885051727e-03,-8.918278850615024567e-03,-4.768259823322296143e-02,3.811394423246383667e-02,4.949703346937894821e-03,-4.178682714700698853e-02,1.175334006547927856e-01,7.159069646149873734e-03,7.971886545419692993e-02,9.465917013585567474e-03,-8.531898260116577148e-02,1.882005855441093445e-02,6.191423907876014709e-02,-1.361374408006668091e-01,2.628533169627189636e-02,6.925462279468774796e-03,-1.097077224403619766e-02,4.129942879080772400e-02,-1.890770345926284790e-02
-5.186872091144323349e-03,1.017623469233512878e-01,-3.660819306969642639e-02,-1.973367063328623772e-03,7.150813937187194824e-02,2.994642034173011780e-02,5.260837450623512268e-02,-3.648190293461084366e-03,6.134678423404693604e-02,4.611493274569511414e-02,3.709610179066658020e-02,5.097298324108123779e-02,2.178631490096449852e-03,-1.704813353717327118e-02,9.858534485101699829e-02,-2.901373989880084991e-02,8.212529122829437256e-02,-1.213817740790545940e-03,5.564926937222480774e-02,-3.868730738759040833e-02,-2.145300619304180145e-02,4.750423505902290344e-02,2.775461040437221527e-02,-3.795766085386276245e-02,3.391432762145996094e-02,6.345753557980060577e-03,7.044352591037750244e-03,-3.309161588549613953e-02,-1.057019755244255066e-01,1.231465954333543777e-02,7.464008033275604248e-02,5.498145893216133118e-02,5.755639821290969849e-02,-5.453736335039138794e-02,4.945056140422821045e-02,6.384506076574325562e-02,3.831320255994796753e-02,9.124469943344593048e-03,5.854770541191101074e-02,6.008490454405546188e-03,5.548102036118507385e-02,-5.535703897476196289e-02,-2.466827630996704102e-03,2.104490622878074646e-02,-3.386391559615731239e-03,1.397111266851425171e-02,6.815245747566223145e-02,2.252138778567314148e-02,2.751544117927551270e-02,4.862972348928451538e-02,9.407515637576580048e-03,-1.718791387975215912e-02,1.064212694764137268e-01,1.340637058019638062e-01,-5.006545409560203552e-02,-9.018120169639587402e-02,1.342126168310642242e-02,3.047593496739864349e-02,2.467345818877220154e-02,3.117799013853073120e-02,-4.065934196114540100e-02,-2.428994886577129364e-02,-6.787253916263580322e-02,1.038935035467147827e-02,-3.705151379108428955e-02,7.798141986131668091e-02,7.607700675725936890e-02,2.323470823466777802e-02,-2.842136099934577942e-02,3.370137885212898254e-02,-2.666297182440757751e-02,-3.240885213017463684e-02,2.464111149311065674e-02,1.722844690084457397e-02,4.622761160135269165e-02,6.281694024801254272e-02,-5.888020619750022888e-02,4.946511704474687576e-03,-1.541905105113983154e-03,7.805936038494110107e-02,9.426042437553405762e-02,8.309224247932434082e-02,2.135573327541351318e-02,9.332209825515747070e-02,2.147453278303146362e-02,4.824146255850791931e-02,-9.763009846210479736e-02,-1.412655413150787354e-02,1.950656250119209290e-02,-1.790291257202625275e-02,1.093646511435508728e-02,2.692582830786705017e-02,5.393383279442787170e-02,4.836537688970565796e-02,1.983972266316413879e-03,-3.080227039754390717e-02,-3.610020503401756287e-02,-3.367593884468078613e-02,2.818821370601654053e-02,-4.511409625411033630e-02,-1.107197906821966171e-02,-6.371262017637491226e-03,-5.954349413514137268e-02,-4.407529905438423157e-02,4.336196929216384888e-02,3.213604539632797241e-02,6.533314473927021027e-03,-8.036989718675613403e-02,3.484830260276794434e-02,-8.087936043739318848e-02,-6.340233236551284790e-02,5.267090722918510437e-02,4.288367554545402527e-02,3.854741901159286499e-02,-1.305655343458056450e-03,-1.892247051000595093e-02,1.268994659185409546e-01,4.702570289373397827e-02,5.202629137784242630e-03,8.486530743539333344e-03,-5.288710072636604309e-02,-3.097183816134929657e-02,-7.508106064051389694e-03,-1.339857093989849091e-02,-3.663354367017745972e-02,-3.680315613746643066e-02,-4.403521120548248291e-02,1.509594358503818512e-02,2.245251834392547607e-02,-1.735690049827098846e-02,-1.234966367483139038e-01,2.490812726318836212e-02,-3.664274141192436218e-02,-2.336140908300876617e-02,-8.585606515407562256e-02,-4.305506125092506409e-02,-3.712773695588111877e-02,4.810765013098716736e-02,5.349796265363693237e-02,-7.800122350454330444e-02,-3.828703612089157104e-02,6.873700022697448730e-02,-7.434636354446411133e-02
-3.831217437982559204e-02,2.740439085755497217e-04,-8.747700601816177368e-02,-1.437986455857753754e-02,-1.373170292936265469e-03,-4.860945045948028564e-02,9.535496681928634644e-02,-1.205124855041503906e-01,-5.317751690745353699e-02,-1.055627465248107910e-01,-8.282890915870666504e-02,-4.255511239171028137e-02,3.319784626364707947e-02,-1.359877735376358032e-01,1.317739039659500122e-01,1.504444330930709839e-01,1.654363572597503662e-01,-2.581901103258132935e-02,-1.119525730609893799e-02,-3.535253182053565979e-02,-6.311973184347152710e-02,5.196712911128997803e-02,7.484322413802146912e-03,-7.181924581527709961e-02,4.326723143458366394e-02,5.166713148355484009e-02,2.487037517130374908e-02,-6.425398588180541992e-02,1.191844865679740906e-01,1.002525910735130310e-01,6.291435658931732178e-02,6.096248514950275421e-03,-3.822416299954056740e-03,5.916736647486686707e-02,4.059017077088356018e-02,8.530203998088836670e-02,-1.600700244307518005e-02,3.071227984037250280e-04,2.671184204518795013e-02,6.212173029780387878e-02,-1.572026498615741730e-02,2.600648440420627594e-03,8.018478006124496460e-02,-1.797614619135856628e-02,3.744991496205329895e-02,3.068020939826965332e-02,-5.139211192727088928e-02,1.928312331438064575e-02,1.690121367573738098e-02,-3.378412500023841858e-02,1.752661354839801788e-02,9.931459277868270874e-02,-1.208688132464885712e-02,-4.822491109371185303e-02,-6.075647845864295959e-02,-3.720553591847419739e-02,-1.587155014276504517e-01,-7.339616864919662476e-02,4.301655292510986328e-02,4.338969290256500244e-02,4.489207267761230469e-02,-9.626677259802818298e-03,-5.339402332901954651e-02,4.833323881030082703e-02,7.725535333156585693e-02,2.165103517472743988e-02,-2.518904395401477814e-02,7.917483896017074585e-02,-2.591290685813874006e-04,5.784287117421627045e-03,-1.227061543613672256e-02,3.298532217741012573e-02,-3.489531576633453369e-03,-2.436029165983200073e-02,-4.305603727698326111e-02,-7.433498650789260864e-02,-8.721157908439636230e-02,-1.332874782383441925e-02,2.689293585717678070e-02,-9.674827754497528076e-02,2.888947725296020508e-02,-3.603665903210639954e-02,-5.228221789002418518e-02,6.194411218166351318e-02,-4.527888074517250061e-02,-4.435588791966438293e-02,1.667025089263916016e-01,8.111168630421161652e-03,-2.077584713697433472e-02,-1.734228688292205334e-03,-4.494259133934974670e-02,2.680784277617931366e-02,-1.456790417432785034e-02,-3.653862979263067245e-03,3.711862117052078247e-02,1.185623854398727417e-01,4.160836711525917053e-02,-1.270300149917602539e-02,3.738417848944664001e-02,-4.650659486651420593e-02,-1.152967102825641632e-02,-1.703915372490882874e-02,-1.000453066080808640e-02,8.674734830856323242e-02,-2.574344724416732788e-02,6.731279939413070679e-02,-4.536511376500129700e-02,-1.355825271457433701e-02,-1.196598485112190247e-01,-5.011132732033729553e-02,-1.030899882316589355e-01,-5.826578661799430847e-02,-7.752744853496551514e-02,-1.784267649054527283e-02,-3.158988058567047119e-02,-2.935806848108768463e-02,-1.599843427538871765e-02,2.168201468884944916e-02,1.003810577094554901e-02,-5.362152308225631714e-02,-7.603746373206377029e-03,-1.802479326725006104e-01,-3.294151648879051208e-02,4.482517763972282410e-02,4.570775199681520462e-03,-5.817990750074386597e-03,-5.343377962708473206e-02,-1.303651649504899979e-02,1.426993124186992645e-02,-9.400433301925659180e-02,4.922924563288688660e-02,7.634741812944412231e-02,-3.114940412342548370e-02,1.743807271122932434e-02,-1.155355498194694519e-01,2.227753028273582458e-02,1.268202788196504116e-03,-2.570127882063388824e-02,-5.646561831235885620e-02,-6.617729365825653076e-02,-5.794792436063289642e-03,3.863232955336570740e-02,9.759257547557353973e-03
8.916555345058441162e-02,1.058089584112167358e-01,-7.378411944955587387e-03,-6.105555593967437744e-02,6.338550895452499390e-02,5.735014006495475769e-02,-3.845211816951632500e-03,5.334546044468879700e-02,6.703814864158630371e-02,-5.394870042800903320e-02,3.620069101452827454e-02,5.999235063791275024e-02,6.648923456668853760e-02,-3.084496036171913147e-02,3.496006364002823830e-03,-4.111060407012701035e-03,4.120879992842674255e-02,1.250241044908761978e-02,9.744618833065032959e-02,5.469564720988273621e-02,-2.450449578464031219e-02,1.394649688154459000e-02,3.262037038803100586e-02,3.133385255932807922e-02,-5.382378119975328445e-03,-1.371928676962852478e-02,-7.027473300695419312e-02,1.463367324322462082e-02,6.289000809192657471e-02,5.550078675150871277e-02,-1.095648156479001045e-03,9.228264540433883667e-02,5.239317193627357483e-03,-4.849139600992202759e-02,3.635531524196267128e-03,1.850288547575473785e-02,5.893107131123542786e-02,3.327875584363937378e-02,3.527550771832466125e-02,3.733175341039896011e-03,-3.800446540117263794e-02,-1.403764635324478149e-02,-2.181056514382362366e-02,4.479740932583808899e-02,2.435495704412460327e-02,2.499197982251644135e-02,8.120227605104446411e-02,9.885804727673530579e-03,-2.301437035202980042e-02,-2.778537757694721222e-02,-1.524495705962181091e-02,2.594287320971488953e-02,4.570527374744415283e-02,-8.977200090885162354e-02,-1.654012873768806458e-02,-1.211178153753280640e-01,-4.522296413779258728e-02,1.378470286726951599e-02,-3.932994790375232697e-03,-3.099587373435497284e-02,1.334836985915899277e-02,-8.200519531965255737e-02,-1.361616849899291992e-01,7.211709022521972656e-02,1.167390793561935425e-01,-1.861081272363662720e-02,5.738801136612892151e-02,1.688302680850028992e-02,-6.384490430355072021e-02,5.758187919855117798e-02,1.047093328088521957e-02,-3.756906837224960327e-02,-3.856840357184410095e-02,8.030653744935989380e-02,2.531646285206079483e-03,-5.679041892290115356e-02,4.231800511479377747e-02,6.324496120214462280e-02,-1.097943820059299469e-02,-1.052456349134445190e-01,-7.373461965471506119e-03,-3.470245981588959694e-03,1.165258325636386871e-02,-3.519016876816749573e-02,-7.286307215690612793e-02,6.649914383888244629e-02,3.190790116786956787e-02,-8.145540207624435425e-02,5.372495204210281372e-02,4.851108882576227188e-03,-3.925566747784614563e-02,-1.329047791659832001e-02,-8.298900723457336426e-02,2.951349131762981415e-02,6.176871806383132935e-02,-4.719234630465507507e-02,5.767745524644851685e-02,-3.605489805340766907e-02,-6.680304557085037231e-02,1.789125800132751465e-02,4.126339033246040344e-02,2.165514975786209106e-02,3.632720559835433960e-02,-4.042644426226615906e-02,-6.024266034364700317e-02,4.069606587290763855e-02,-5.359281320124864578e-03,-1.208520773798227310e-02,-1.082761213183403015e-02,8.698353543877601624e-03,-7.017449289560317993e-02,-1.007436290383338928e-01,-2.181278832722455263e-04,2.084016054868698120e-02,-1.334564015269279480e-02,1.751342229545116425e-02,5.331144481897354126e-02,9.454767405986785889e-02,5.578738078474998474e-02,2.817590162158012390e-02,2.023270539939403534e-02,-1.633128337562084198e-02,-9.499040246009826660e-02,2.897904254496097565e-02,-2.508313767611980438e-02,-5.315253511071205139e-02,9.272820502519607544e-02,-7.429106533527374268e-02,3.324425220489501953e-02,-9.314960241317749023e-02,8.393051475286483765e-02,-1.262139379978179932e-01,1.702409423887729645e-02,-4.091969504952430725e-02,1.198392957448959351e-01,-5.787864699959754944e-02,1.153743918985128403e-02,1.617004722356796265e-02,5.793678760528564453e-02,4.767534323036670685e-03,-4.763061553239822388e-02,-1.435983926057815552e-01,-1.109998449683189392e-01
6.917364895343780518e-02,3.954024612903594971e-02,3.043989837169647217e-02,5.039277672767639160e-02,-3.067090176045894623e-02,2.712626382708549500e-02,6.278161704540252686e-02,2.630177326500415802e-02,6.107778474688529968e-02,-1.025914400815963745e-02,5.257404409348964691e-03,1.233952958136796951e-02,8.202281594276428223e-02,1.135267969220876694e-02,1.023015845566987991e-02,3.806887893006205559e-03,5.206876993179321289e-02,-5.457161460071802139e-04,-4.107260331511497498e-02,2.731963619589805603e-02,6.054359301924705505e-02,-1.489965897053480148e-02,7.024824619293212891e-02,3.918365016579627991e-02,6.445740163326263428e-02,2.329057268798351288e-02,-8.510332554578781128e-03,1.777629926800727844e-02,8.013714849948883057e-02,1.107444390654563904e-01,-7.126299664378166199e-03,-1.281771226786077023e-03,9.751084260642528534e-03,3.191946819424629211e-02,5.800198018550872803e-02,5.714775994420051575e-02,1.234998460859060287e-02,4.226046428084373474e-02,3.238529339432716370e-02,4.231522977352142334e-02,8.192805200815200806e-02,-5.007546860724687576e-03,-2.312190458178520203e-02,2.314598113298416138e-02,4.394655302166938782e-02,-7.258288096636533737e-03,3.387759625911712646e-02,8.203851059079170227e-03,-2.338366210460662842e-02,-7.594998925924301147e-03,9.579647332429885864e-03,4.219076037406921387e-02,7.379884272813796997e-02,-5.207361653447151184e-03,-3.455459326505661011e-02,-1.319247949868440628e-02,-2.894786885008215904e-03,4.513867944478988647e-02,-2.398163639008998871e-02,9.839016012847423553e-03,4.798640310764312744e-02,-2.744490280747413635e-03,3.066599182784557343e-02,7.539986819028854370e-02,1.951740309596061707e-02,-8.085193485021591187e-02,-7.094373553991317749e-02,6.649449933320283890e-03,-2.411619573831558228e-02,-4.227271676063537598e-02,5.131208151578903198e-02,-2.115765959024429321e-02,3.273332864046096802e-02,-1.535540260374546051e-02,-7.181460037827491760e-03,2.449911832809448242e-02,1.560532301664352417e-02,-1.696590520441532135e-02,7.330331206321716309e-02,-6.437889486551284790e-02,-4.080810397863388062e-02,-3.306244313716888428e-02,-3.789220005273818970e-02,5.943206325173377991e-02,-2.861936204135417938e-02,-1.438429113477468491e-03,4.070688784122467041e-02,-2.089409828186035156e-01,6.911449134349822998e-02,-3.299544379115104675e-02,-3.565550595521926880e-02,2.096240967512130737e-02,-7.670079916715621948e-02,-3.940488770604133606e-02,2.832084149122238159e-02,-1.043345499783754349e-02,6.620255112648010254e-02,4.754944145679473877e-02,-6.019775569438934326e-02,-4.334059730172157288e-02,-7.156235724687576294e-02,-1.673928648233413696e-02,8.317802101373672485e-03,2.284914441406726837e-02,3.873472288250923157e-02,1.199298445135354996e-02,2.927421033382415771e-02,3.066805377602577209e-02,-1.609147642739117146e-03,8.012047410011291504e-02,9.634154289960861206e-02,2.707230858504772186e-02,4.203273355960845947e-02,2.484959550201892853e-02,2.668417617678642273e-02,-1.559027004987001419e-02,9.201860427856445312e-02,-5.427340418100357056e-02,1.402234006673097610e-02,-5.013003945350646973e-03,-1.845776801928877831e-03,-1.019332930445671082e-02,-2.373765036463737488e-02,2.617039717733860016e-02,-2.203914336860179901e-02,-2.536834403872489929e-02,4.795150458812713623e-02,-1.226906254887580872e-01,2.049893699586391449e-02,-8.234249055385589600e-02,-4.258669540286064148e-02,5.269101355224847794e-03,2.030531503260135651e-02,2.725676458794623613e-04,-3.877170383930206299e-02,-4.128994420170783997e-02,2.599164843559265137e-02,8.182660490274429321e-02,9.305348992347717285e-02,-2.549304813146591187e-02,5.368129815906286240e-03,3.205602988600730896e-02,1.120545528829097748e-02
4.493179544806480408e-02,3.197504952549934387e-02,9.977842122316360474e-02,5.312275886535644531e-02,-7.559498399496078491e-02,-1.197706535458564758e-01,6.927778571844100952e-02,4.681549966335296631e-02,5.417916923761367798e-02,5.494728684425354004e-02,5.258493497967720032e-02,3.535973280668258667e-02,5.587065126746892929e-03,7.332336902618408203e-02,2.363199554383754730e-02,4.072018340229988098e-02,2.361088432371616364e-02,5.494349449872970581e-02,-4.372885450720787048e-02,7.630131207406520844e-03,4.143512248992919922e-02,-4.946818575263023376e-02,-5.450348928570747375e-02,-4.835836961865425110e-02,8.382898755371570587e-03,-7.083056494593620300e-03,9.669677354395389557e-03,7.522734813392162323e-03,2.775070955976843834e-03,5.608430504798889160e-02,-3.996730595827102661e-02,9.159928560256958008e-02,1.219115629792213440e-01,1.892562583088874817e-02,-1.296246051788330078e-01,4.809402301907539368e-02,3.069635666906833649e-02,3.479379415512084961e-02,6.180006265640258789e-02,-8.075904101133346558e-03,4.674099013209342957e-02,-4.791042953729629517e-02,-6.174665316939353943e-02,2.621559426188468933e-02,5.821153521537780762e-02,8.172994852066040039e-02,1.149096563458442688e-01,-1.086285188794136047e-01,-5.994933471083641052e-02,-4.399557411670684814e-02,-6.649479269981384277e-02,-4.691124334931373596e-02,4.148059710860252380e-02,-4.210432246327400208e-02,1.037106886506080627e-01,-6.135324761271476746e-02,-4.671040549874305725e-02,-5.741840600967407227e-02,1.602042280137538910e-02,-8.116353303194046021e-03,-2.716592885553836823e-02,2.615520358085632324e-02,8.443637192249298096e-02,1.714390888810157776e-02,-7.036296278238296509e-02,-7.242264691740274429e-03,3.841254115104675293e-02,-9.388459473848342896e-02,-6.858184188604354858e-02,-4.213710129261016846e-02,-3.328369185328483582e-02,6.521408259868621826e-02,7.005720585584640503e-02,6.735604256391525269e-02,-6.496630609035491943e-02,-8.352887816727161407e-03,-1.496317144483327866e-02,-5.205101892352104187e-02,-5.383607372641563416e-02,4.763546213507652283e-02,9.249870479106903076e-02,7.175765931606292725e-02,5.293498560786247253e-02,-2.631632611155509949e-02,5.154593661427497864e-02,-1.611720211803913116e-02,3.778025135397911072e-02,1.331952586770057678e-02,3.637825697660446167e-02,-7.257086783647537231e-02,-2.611724734306335449e-01,-2.586595155298709869e-02,-3.814156353473663330e-02,-1.003150418400764465e-01,-1.505091413855552673e-02,-6.687995977699756622e-03,2.896146615967154503e-03,7.429726421833038330e-02,-3.755854070186614990e-02,-9.325129911303520203e-03,5.221581086516380310e-03,-1.383655052632093430e-02,2.195105701684951782e-02,1.816803030669689178e-02,7.288604974746704102e-02,1.882751658558845520e-02,2.546573057770729065e-02,1.001688018441200256e-01,1.734397932887077332e-02,5.959348287433385849e-03,-3.336585685610771179e-02,-2.833774313330650330e-02,4.437011480331420898e-02,-1.090452075004577637e-03,-1.060790568590164185e-02,4.419093579053878784e-02,-1.530639361590147018e-02,4.954325407743453979e-02,3.700072318315505981e-02,7.316513359546661377e-02,2.876013889908790588e-02,1.176517549902200699e-02,9.574811160564422607e-02,1.986598037183284760e-02,8.379440009593963623e-02,1.218395754694938660e-01,1.701094061136245728e-01,6.213397905230522156e-02,6.674969196319580078e-02,5.917554348707199097e-02,-5.746096745133399963e-02,-1.057038679718971252e-01,1.463006716221570969e-02,-7.769558113068342209e-03,-2.784428000450134277e-02,-6.747543811798095703e-03,1.532858610153198242e-02,2.736233547329902649e-02,7.244331389665603638e-02,-5.283381789922714233e-02,7.621856033802032471e-02,-6.219365447759628296e-02,6.307308375835418701e-02
1.496750488877296448e-02,-2.668820694088935852e-02,6.219587288796901703e-03,-9.129699319601058960e-02,4.537798464298248291e-02,1.007332429289817810e-01,-4.445752501487731934e-02,4.331295937299728394e-02,-8.303982019424438477e-02,1.611073384992778301e-03,-1.104038092307746410e-03,1.493055280297994614e-02,5.643960833549499512e-02,-1.956262625753879547e-02,4.178168624639511108e-02,5.084533244371414185e-02,-1.076889485120773315e-01,1.160686649382114410e-02,8.009345829486846924e-02,3.710865229368209839e-02,9.102986194193363190e-03,7.748581469058990479e-02,7.075676321983337402e-02,5.152990669012069702e-02,3.601355478167533875e-02,2.703485824167728424e-02,-6.316821277141571045e-02,-5.620081350207328796e-02,2.006380446255207062e-02,-1.876615360379219055e-02,4.531165584921836853e-02,-8.452093601226806641e-02,2.375690825283527374e-02,-1.019677706062793732e-02,-5.818047560751438141e-03,5.156275629997253418e-02,3.204313293099403381e-02,3.325340151786804199e-02,3.557180985808372498e-02,-7.546486705541610718e-02,1.271771173924207687e-02,2.060323720797896385e-03,4.806765541434288025e-02,1.636807061731815338e-02,8.097036927938461304e-02,-7.314194925129413605e-03,-9.555256925523281097e-03,-6.443478050641715527e-04,-1.017675995826721191e-01,-8.446817286312580109e-03,-6.948369741439819336e-02,6.284403055906295776e-02,2.689107693731784821e-02,-6.292971223592758179e-02,-1.170678529888391495e-02,-4.552406817674636841e-02,4.071798175573348999e-02,4.127781465649604797e-02,3.276581410318613052e-03,1.948923431336879730e-02,2.495572343468666077e-02,-1.194489076733589172e-01,-7.048370689153671265e-02,8.955167979001998901e-02,1.414462774991989136e-01,1.465189456939697266e-02,2.793861739337444305e-02,-3.176078572869300842e-02,1.985092647373676300e-02,-7.751227356493473053e-03,6.960396189242601395e-03,4.191627725958824158e-02,3.514104336500167847e-02,4.716447740793228149e-02,4.432945698499679565e-02,6.431686133146286011e-02,5.221050977706909180e-02,-5.734067782759666443e-02,8.886800706386566162e-02,-7.900537550449371338e-02,-3.162268921732902527e-02,-2.102284431457519531e-01,1.180126890540122986e-02,-5.065484344959259033e-02,-4.122889041900634766e-02,-2.060887962579727173e-02,-1.253896206617355347e-01,-2.904653735458850861e-02,-5.125611275434494019e-02,2.333625406026840210e-02,2.558567002415657043e-02,-1.386153101921081543e-01,-1.135030463337898254e-01,-1.943130195140838623e-01,1.473953481763601303e-02,9.764441289007663727e-03,-1.726677455008029938e-02,-2.508794516324996948e-02,-4.766090959310531616e-02,-3.896363079547882080e-03,1.626451127231121063e-02,-4.760747775435447693e-02,-1.156524568796157837e-02,-4.421898350119590759e-02,2.959095686674118042e-02,5.737366154789924622e-03,7.607759442180395126e-03,2.581446617841720581e-02,-5.395359918475151062e-02,-7.215850800275802612e-02,2.972961217164993286e-02,-1.234589740633964539e-01,1.476799510419368744e-02,-2.607904933393001556e-02,5.940690636634826660e-02,9.737523645162582397e-02,-9.305870160460472107e-03,-1.298353374004364014e-01,8.959040790796279907e-02,9.888359345495700836e-03,4.168060794472694397e-02,-3.831954672932624817e-02,1.453798729926347733e-02,-9.860874153673648834e-03,4.960665851831436157e-02,1.232772506773471832e-02,-4.041691776365041733e-03,-2.467291429638862610e-02,-7.114434987306594849e-02,-8.760543912649154663e-02,-4.277213010936975479e-03,5.029813945293426514e-02,-7.584234233945608139e-03,-4.397027567028999329e-02,1.081264987587928772e-01,2.725220844149589539e-02,-1.437588129192590714e-02,3.759268298745155334e-02,-7.875541225075721741e-03,-8.180556446313858032e-02,6.811352819204330444e-02,3.196795284748077393e-02,5.325298383831977844e-02
4.068520292639732361e-02,-3.544704522937536240e-03,2.520914934575557709e-02,-7.289705425500869751e-02,-6.536509376019239426e-03,4.268619045615196228e-02,-7.036361098289489746e-02,6.935125589370727539e-02,-6.814666092395782471e-02,-1.511131320148706436e-02,-5.010181292891502380e-02,-5.816837772727012634e-03,2.611606940627098083e-02,2.544168196618556976e-02,1.009832695126533508e-02,1.235615368932485580e-02,-1.717060804367065430e-02,8.328508585691452026e-02,3.172513470053672791e-02,8.720708638429641724e-02,1.113249454647302628e-02,7.312518358230590820e-02,1.060101836919784546e-01,-4.840381443500518799e-03,3.802677616477012634e-02,-3.912562504410743713e-02,-8.337232470512390137e-02,1.483026891946792603e-03,-7.714717090129852295e-02,1.267956346273422241e-01,-9.643138200044631958e-02,-6.277060508728027344e-02,7.822847366333007812e-02,-6.138417124748229980e-02,-1.316224187612533569e-01,4.855890572071075439e-02,9.735275059938430786e-02,4.571577161550521851e-02,5.331454426050186157e-02,3.624807670712471008e-02,4.927296191453933716e-02,4.219016432762145996e-02,6.061020866036415100e-02,1.430738065391778946e-02,-1.337897777557373047e-01,4.553962498903274536e-02,-6.335842609405517578e-02,5.930643156170845032e-02,3.084903024137020111e-02,6.922046095132827759e-02,8.441825211048126221e-02,-2.639240399003028870e-02,7.007373869419097900e-02,7.753516733646392822e-02,4.394373670220375061e-02,3.628828749060630798e-02,1.525727752596139908e-02,3.564884420484304428e-03,8.372176438570022583e-03,5.135449394583702087e-02,-1.920583657920360565e-02,1.237190142273902893e-01,1.168758347630500793e-01,-8.246180601418018341e-03,-8.681503683328628540e-02,5.150995403528213501e-02,1.036466658115386963e-02,-3.651246661320328712e-03,-2.581674605607986450e-02,9.819043800234794617e-03,2.403856255114078522e-02,-7.170489430427551270e-02,-3.235017415136098862e-03,2.424525283277034760e-02,-9.971938282251358032e-02,4.314487054944038391e-02,4.958329722285270691e-03,2.800345979630947113e-02,-7.127955555915832520e-02,1.027671545743942261e-01,1.225495263934135437e-01,7.088550180196762085e-02,7.788713276386260986e-02,-4.019756987690925598e-02,1.254637632519006729e-02,-1.683585718274116516e-02,5.342306196689605713e-02,1.218375638127326965e-01,2.503123134374618530e-02,-1.097834482789039612e-01,-7.856906950473785400e-02,-1.392436865717172623e-02,-1.011682078242301941e-01,-1.169308796525001526e-01,9.392876178026199341e-02,2.764868736267089844e-02,5.185174569487571716e-02,8.444982022047042847e-02,8.333230018615722656e-02,1.084346994757652283e-01,3.016341477632522583e-02,5.601319950073957443e-03,5.828726291656494141e-02,-1.295630186796188354e-01,2.632836252450942993e-02,1.001188904047012329e-02,2.276029065251350403e-02,1.026439145207405090e-01,2.129627577960491180e-02,8.950079232454299927e-02,1.144424453377723694e-01,3.868754208087921143e-02,9.529116749763488770e-02,8.306248113512992859e-03,2.112534129992127419e-03,4.819642752408981323e-02,7.187146693468093872e-02,-1.635074317455291748e-01,5.947510898113250732e-02,9.635125100612640381e-02,-7.864177227020263672e-02,-1.039552385918796062e-03,3.803597390651702881e-02,3.665863350033760071e-02,4.471328109502792358e-03,1.874880678951740265e-02,9.316437691450119019e-02,8.290570229291915894e-02,9.253497421741485596e-02,-1.476852148771286011e-01,9.867183864116668701e-02,1.540986746549606323e-01,-5.364810116589069366e-03,-6.733649969100952148e-02,4.875445738434791565e-03,-2.570102550089359283e-02,-4.293360747396945953e-03,-7.178385555744171143e-02,-4.152995720505714417e-02,7.226397097110748291e-02,-7.170243561267852783e-02,-7.278609275817871094e-02,8.900446817278862000e-03
1.347196660935878754e-02,-3.840147331357002258e-02,8.566686511039733887e-02,5.537130311131477356e-02,-1.849229261279106140e-02,5.080628022551536560e-02,-5.143964290618896484e-02,-3.464845195412635803e-02,-3.847985342144966125e-02,6.962399929761886597e-02,8.131869137287139893e-02,6.844769697636365891e-03,4.319948703050613403e-02,3.421384841203689575e-02,-5.724323540925979614e-02,-5.741620808839797974e-02,-4.959272965788841248e-02,2.060325257480144501e-02,-6.875474005937576294e-02,-8.408581838011741638e-03,7.266794331371784210e-03,1.329854577779769897e-01,-1.249493584036827087e-01,-7.912271469831466675e-02,2.711567096412181854e-03,-3.295154124498367310e-02,-1.166746020317077637e-01,-5.213397368788719177e-02,-1.398143917322158813e-02,-6.536439806222915649e-02,-4.608531296253204346e-02,6.201753020286560059e-02,3.014965215697884560e-03,-1.748988591134548187e-02,-6.274487823247909546e-02,-2.034555375576019287e-02,2.611754462122917175e-02,5.017190240323543549e-03,3.280670195817947388e-02,2.791482023894786835e-03,3.155351430177688599e-02,-8.081958442926406860e-02,-4.416728392243385315e-03,2.426028065383434296e-02,2.483179094269871712e-03,-7.018719799816608429e-03,-5.726737901568412781e-02,-4.743774607777595520e-02,3.949246183037757874e-02,-4.646789282560348511e-02,-3.027971833944320679e-02,8.710797131061553955e-02,8.028428256511688232e-02,8.021228015422821045e-03,4.253188893198966980e-02,6.315801292657852173e-02,7.817932404577732086e-03,-1.268343329429626465e-01,-2.407639473676681519e-02,-4.373076185584068298e-02,-1.968199387192726135e-02,-4.618683084845542908e-02,1.369679067283868790e-02,-8.187807351350784302e-02,-8.875252306461334229e-02,2.328082360327243805e-02,-1.299386005848646164e-02,6.335350871086120605e-02,-1.501745171844959259e-02,5.786411091685295105e-02,1.425836235284805298e-02,1.692810840904712677e-02,-2.531640976667404175e-02,-2.451646327972412109e-02,-4.302142933011054993e-02,-2.988156862556934357e-02,3.816699841991066933e-03,7.198815699666738510e-03,-4.389433935284614563e-02,7.268439978361129761e-02,7.311207056045532227e-02,1.349249947816133499e-02,2.146313898265361786e-02,1.290298905223608017e-02,4.072155058383941650e-02,6.826974451541900635e-02,-6.581832468509674072e-02,1.546248234808444977e-02,-4.177505522966384888e-02,1.128102466464042664e-02,-7.112549617886543274e-03,-3.643353283405303955e-02,4.879342764616012573e-02,1.247528418898582458e-01,6.684806942939758301e-02,-2.508988790214061737e-02,-8.495562523603439331e-02,1.361755281686782837e-02,4.917062819004058838e-02,-6.327169388532638550e-02,6.059951335191726685e-02,-6.255406141281127930e-02,5.231631919741630554e-02,3.395267948508262634e-02,-1.093899179250001907e-02,1.387692335993051529e-02,-5.644832551479339600e-02,5.402744933962821960e-02,-1.377215795218944550e-02,9.149136394262313843e-02,-3.233225271105766296e-02,1.508865691721439362e-02,-2.602846547961235046e-02,3.163853660225868225e-02,-2.719759568572044373e-02,6.904882192611694336e-02,-4.884343594312667847e-02,1.637000963091850281e-02,-1.556188613176345825e-01,9.730376303195953369e-02,-1.773416250944137573e-02,1.092464029788970947e-01,5.428825318813323975e-02,3.605507686734199524e-02,1.700451411306858063e-02,-2.503066696226596832e-02,3.527592867612838745e-02,-5.991694703698158264e-02,2.611133828759193420e-02,-8.265803568065166473e-03,-1.878862967714667320e-03,2.067311853170394897e-02,4.349671304225921631e-02,1.055843662470579147e-03,7.819236256182193756e-03,5.979983508586883545e-02,-2.338099107146263123e-02,-3.446367010474205017e-02,-6.496720481663942337e-03,6.325536221265792847e-02,-1.005920469760894775e-01,-2.367193065583705902e-02,-4.987394437193870544e-03
7.595236413180828094e-03,-4.141959547996520996e-02,-3.978605940937995911e-02,-3.380199521780014038e-02,-1.041819807142019272e-02,-2.243386954069137573e-02,-3.084237128496170044e-02,-4.491612687706947327e-02,2.876987308263778687e-02,-2.859737491235136986e-03,4.790221806615591049e-03,2.996962144970893860e-02,9.178771078586578369e-02,-1.720819063484668732e-02,7.786077260971069336e-02,5.804226174950599670e-02,8.356431871652603149e-02,-7.266484666615724564e-03,2.379444241523742676e-02,6.796314846724271774e-03,-1.758408616296947002e-03,4.322064295411109924e-02,-4.347217082977294922e-02,7.630161941051483154e-02,1.276122778654098511e-01,-2.267152303829789162e-03,5.810559168457984924e-02,2.122433669865131378e-02,-8.582303673028945923e-02,-6.124413758516311646e-02,7.050333172082901001e-02,3.856918588280677795e-02,8.042483776807785034e-02,-1.219407469034194946e-02,4.218444600701332092e-02,5.241056531667709351e-02,6.129737943410873413e-02,9.590090066194534302e-02,2.770244330167770386e-02,1.214083936065435410e-02,5.019010975956916809e-02,3.320633247494697571e-02,3.779122233390808105e-02,5.706225056201219559e-03,5.836833640933036804e-02,2.769954502582550049e-02,4.538946971297264099e-02,4.119210317730903625e-02,-1.999103091657161713e-02,9.715218096971511841e-03,-4.470944404602050781e-02,-1.334410607814788818e-01,-7.239095121622085571e-02,-4.860462620854377747e-02,-6.968371570110321045e-02,2.397148497402667999e-02,-2.379401959478855133e-02,-3.505170345306396484e-02,1.096057817339897156e-01,5.126174539327621460e-02,4.229385405778884888e-02,-4.290929064154624939e-02,-3.037619590759277344e-02,2.151869935914874077e-03,4.988193139433860779e-02,-2.375655341893434525e-03,-1.727918721735477448e-02,-3.052357025444507599e-02,-9.154758602380752563e-02,4.437331575900316238e-03,-3.526791185140609741e-02,1.071118470281362534e-02,-5.377821624279022217e-02,5.026896670460700989e-02,6.071381270885467529e-02,-2.224675379693508148e-02,1.402884605340659618e-03,3.873372822999954224e-02,4.945348203182220459e-02,1.567897647619247437e-01,-6.871917843818664551e-02,1.610391139984130859e-01,-1.048198267817497253e-01,-1.191174760460853577e-01,-2.337961923331022263e-03,-7.245254516601562500e-02,-3.432440385222434998e-02,3.480777516961097717e-02,-3.768873214721679688e-02,-6.477478146553039551e-02,-6.751618813723325729e-03,-1.551423966884613037e-01,-1.210005879402160645e-01,-1.675077378749847412e-01,3.478493168950080872e-02,-1.669797115027904510e-02,6.052480638027191162e-02,-6.129145156592130661e-03,2.389719896018505096e-02,-6.314388662576675415e-02,2.394044771790504456e-02,-8.773650042712688446e-03,5.124953761696815491e-02,5.061927437782287598e-02,7.257260382175445557e-02,-1.663344167172908783e-02,-6.979098543524742126e-03,3.221330791711807251e-02,1.853877119719982147e-02,1.659715175628662109e-02,4.178123921155929565e-02,-2.853878587484359741e-02,-1.220699697732925415e-01,-8.091957867145538330e-02,3.014977462589740753e-02,-5.291084200143814087e-02,2.034040167927742004e-02,4.617176577448844910e-02,-6.772781163454055786e-02,-1.000421717762947083e-01,1.361986529082059860e-02,7.618097588419914246e-04,2.787554077804088593e-02,-1.100692525506019592e-02,-1.074828356504440308e-01,-1.926145167089998722e-03,-1.417271792888641357e-01,-1.184702515602111816e-01,2.393565513193607330e-02,-4.383683949708938599e-02,-1.805859245359897614e-02,-7.886201143264770508e-02,7.208346575498580933e-02,3.267950415611267090e-01,-7.830403745174407959e-03,-2.908553462475538254e-03,9.167583286762237549e-02,6.233445554971694946e-02,-2.635635808110237122e-02,-5.864258855581283569e-02,7.609503716230392456e-02,1.217801123857498169e-02,-2.929788827896118164e-02
4.746235534548759460e-02,-5.894618853926658630e-02,3.898931667208671570e-02,7.335589826107025146e-02,-1.355665549635887146e-02,-2.457265369594097137e-02,-5.414972454309463501e-02,-3.904756158590316772e-02,-5.662319809198379517e-02,7.375598419457674026e-03,3.189232945442199707e-02,1.333465985953807831e-02,2.588241733610630035e-02,6.663099676370620728e-02,-4.185727983713150024e-02,-5.117562413215637207e-02,-5.764938145875930786e-02,3.353591635823249817e-02,-2.013504318892955780e-02,-3.805924206972122192e-02,-6.983643770217895508e-02,2.041515335440635681e-02,-5.467858165502548218e-03,4.841472208499908447e-02,-2.390192076563835144e-02,1.260552741587162018e-02,4.654334113001823425e-02,2.197193168103694916e-02,6.747046113014221191e-02,6.042953953146934509e-02,6.429633498191833496e-02,6.645108107477426529e-03,6.817130744457244873e-02,2.459911629557609558e-02,3.076105937361717224e-02,9.711822494864463806e-03,-1.744703389704227448e-02,-6.378518417477607727e-03,6.738740205764770508e-02,-7.088648527860641479e-02,-2.087602391839027405e-02,3.419386968016624451e-02,-2.967094816267490387e-02,-3.678687661886215210e-02,3.308747336268424988e-02,1.779737137258052826e-02,6.815480999648571014e-03,6.558805704116821289e-02,9.249926358461380005e-02,-5.285251513123512268e-02,6.296214647591114044e-03,4.924333468079566956e-02,-5.569064617156982422e-02,1.415461674332618713e-02,5.527543276548385620e-02,1.330777816474437714e-02,3.787240758538246155e-02,-3.996723890304565430e-02,2.624792233109474182e-02,-1.204368919134140015e-01,-1.575523987412452698e-02,2.264859713613986969e-02,-2.492579817771911621e-02,-9.160057641565799713e-03,-1.077661141753196716e-01,8.031389862298965454e-02,6.318127363920211792e-02,7.821546494960784912e-02,-6.476284563541412354e-02,3.833112539723515511e-03,5.045133084058761597e-02,-2.426601946353912354e-02,-4.645979404449462891e-02,-1.157661620527505875e-02,-2.842218801379203796e-02,4.995856061577796936e-02,-4.752604290843009949e-02,-1.131308600306510925e-01,1.750436425209045410e-02,1.038716919720172882e-02,4.992132261395454407e-02,1.027458580210804939e-03,4.583828896284103394e-02,-7.928306609392166138e-02,3.429673088248819113e-04,1.396172642707824707e-01,1.110871788114309311e-02,4.104627668857574463e-02,3.142335265874862671e-02,-4.586703144013881683e-04,6.197044276632368565e-04,-1.388812065124511719e-02,-3.520447760820388794e-02,-1.430015079677104950e-02,7.732581347227096558e-02,2.014627121388912201e-02,-2.763279713690280914e-02,-2.210029959678649902e-02,-3.794686123728752136e-02,-7.777616381645202637e-02,-2.707565575838088989e-02,-3.507393971085548401e-02,-3.128530224785208702e-04,-4.620488733053207397e-03,6.305698305368423462e-02,8.078566193580627441e-02,6.885097920894622803e-02,6.713022291660308838e-02,-8.760212361812591553e-02,-4.477092623710632324e-02,3.291995823383331299e-02,5.373689159750938416e-02,3.527757897973060608e-02,-1.896283961832523346e-02,8.240712434053421021e-02,1.320132520049810410e-02,4.480978474020957947e-02,2.042245818302035332e-03,-1.376704871654510498e-01,-1.649664193391799927e-01,4.925785958766937256e-02,-4.705252125859260559e-02,-5.849899724125862122e-02,4.550618678331375122e-02,6.174140796065330505e-02,9.117035567760467529e-02,-3.720176219940185547e-02,1.331582851707935333e-02,5.055695772171020508e-03,1.636420749127864838e-02,-1.036316063255071640e-02,9.902819246053695679e-02,-9.004308283329010010e-02,4.346933960914611816e-02,-7.601951062679290771e-02,4.071167856454849243e-02,-3.446760773658752441e-02,7.941956818103790283e-02,2.773714810609817505e-02,9.984458237886428833e-02,1.092108562588691711e-01,-8.088354021310806274e-02,-5.808288231492042542e-03
1.429476309567689896e-02,5.470795184373855591e-02,6.042817234992980957e-02,-4.697232320904731750e-02,2.296895720064640045e-02,2.717623859643936157e-02,-1.819492317736148834e-02,-5.749033018946647644e-02,2.206703461706638336e-02,5.534726008772850037e-02,1.700024493038654327e-02,1.223186682909727097e-02,7.247619796544313431e-03,4.017562791705131531e-02,7.140210364013910294e-03,-6.234074383974075317e-02,-1.974359713494777679e-02,-2.878402173519134521e-02,2.645594067871570587e-02,1.539583690464496613e-02,-4.520574957132339478e-02,4.848369210958480835e-02,1.406580954790115356e-02,5.539185181260108948e-02,5.712098255753517151e-02,3.451786562800407410e-02,7.709343731403350830e-02,-1.965888589620590210e-02,5.090748146176338196e-02,4.115239530801773071e-02,-1.042991969734430313e-02,-4.998858273029327393e-02,3.081884235143661499e-02,4.111847653985023499e-02,8.564362302422523499e-03,4.462481942027807236e-03,-1.018839515745639801e-02,3.922878950834274292e-02,2.550785429775714874e-02,-2.478712424635887146e-02,-1.406498719006776810e-02,-1.209382526576519012e-02,-5.283770710229873657e-02,6.456312257796525955e-03,-1.370614208281040192e-02,-1.077666319906711578e-02,1.959139108657836914e-02,-3.761583566665649414e-02,-1.065353676676750183e-02,9.527726797387003899e-04,2.710488811135292053e-02,-2.229409292340278625e-02,6.524626165628433228e-02,-2.104034088551998138e-02,2.440146915614604950e-02,3.612484782934188843e-03,5.497667938470840454e-03,5.426318943500518799e-02,1.102735623717308044e-01,3.030506148934364319e-02,9.748614393174648285e-03,9.560634940862655640e-02,-3.125248104333877563e-02,-1.522031729109585285e-03,-2.020744979381561279e-02,4.367955401539802551e-02,7.518414407968521118e-02,1.041152179241180420e-01,-1.009957864880561829e-02,-6.688432395458221436e-02,-1.596491336822509766e-01,-4.936845041811466217e-03,-6.918676197528839111e-03,3.795672208070755005e-02,1.315920203924179077e-01,4.591182246804237366e-02,-1.779199838638305664e-01,9.338215738534927368e-02,9.738048166036605835e-02,-1.549605559557676315e-02,-2.892701141536235809e-02,1.098681148141622543e-02,-2.117760479450225830e-02,-1.049228105694055557e-02,4.674373194575309753e-02,-1.022246405482292175e-01,-1.378681045025587082e-02,6.492109596729278564e-02,4.195869900286197662e-03,-5.121228471398353577e-02,-1.543016918003559113e-02,6.739949434995651245e-02,-6.754233688116073608e-02,-7.983325421810150146e-02,-1.554786320775747299e-02,4.450945556163787842e-02,-7.228573411703109741e-02,-6.567490752786397934e-03,-2.181472629308700562e-02,-3.355998918414115906e-02,-4.726027697324752808e-02,-9.154242277145385742e-02,2.676530182361602783e-02,1.652251556515693665e-02,-1.669929735362529755e-02,-1.441500037908554077e-01,-2.195249870419502258e-02,-8.048351854085922241e-03,3.823045268654823303e-02,6.002211943268775940e-02,-1.497224867343902588e-01,2.357297390699386597e-02,8.708296343684196472e-03,3.694456245284527540e-04,2.109587658196687698e-03,-2.536191605031490326e-02,-5.611199513077735901e-02,-5.301512032747268677e-02,9.417115151882171631e-02,-1.193891745060682297e-03,9.272795170545578003e-02,-9.940997511148452759e-02,8.968587033450603485e-03,-2.889014407992362976e-02,-2.855600044131278992e-02,-4.979741945862770081e-02,-8.046826720237731934e-02,-4.640698432922363281e-02,-3.662964096292853355e-03,-5.898109078407287598e-02,-8.855000138282775879e-03,4.378240928053855896e-02,-2.642016299068927765e-02,8.874309062957763672e-02,5.324964597821235657e-02,3.413460776209831238e-02,3.470353409647941589e-02,3.036012873053550720e-02,5.901378463022410870e-04,5.272116512060165405e-02,3.750870376825332642e-02,3.550893440842628479e-02,-4.485104233026504517e-02
6.012978777289390564e-02,3.041287325322628021e-02,6.866228580474853516e-02,-5.992585420608520508e-02,-2.277001552283763885e-02,4.751677066087722778e-02,3.571826964616775513e-02,7.692734152078628540e-02,-3.058909624814987183e-02,5.096065253019332886e-02,-2.101482637226581573e-02,6.825981661677360535e-03,-1.570874266326427460e-02,6.413373351097106934e-02,-4.345381632447242737e-02,-3.607330098748207092e-02,-1.547144819051027298e-02,-6.650566309690475464e-02,-1.094413269311189651e-02,-2.101490274071693420e-02,-8.209533989429473877e-02,8.329091966152191162e-02,5.987260490655899048e-02,9.044804610311985016e-03,8.552903681993484497e-02,2.993352338671684265e-02,1.910773292183876038e-02,5.037845298647880554e-02,-4.166718944907188416e-02,-2.664518356323242188e-02,-1.636543124914169312e-02,-8.786821737885475159e-03,1.587023609317839146e-03,6.178323552012443542e-02,4.829684272408485413e-02,3.415418043732643127e-02,1.660889945924282074e-02,-1.768123358488082886e-02,5.445164069533348083e-02,-5.467023700475692749e-02,-1.140273176133632660e-03,4.220170155167579651e-02,3.966474905610084534e-02,6.997906416654586792e-02,6.521162390708923340e-02,2.555838041007518768e-02,5.840995907783508301e-02,6.175168231129646301e-02,4.933225736021995544e-02,1.116942707449197769e-02,-7.816436700522899628e-03,3.461841866374015808e-02,-2.606751210987567902e-02,2.335989475250244141e-02,3.897419199347496033e-03,1.539485715329647064e-02,-9.669186174869537354e-02,8.185379207134246826e-02,-4.566152393817901611e-02,6.027608737349510193e-02,-4.687710851430892944e-02,-1.745154522359371185e-02,-3.610815852880477905e-02,-5.155620723962783813e-02,-7.972894608974456787e-02,6.788039207458496094e-02,6.854635477066040039e-02,-1.833246648311614990e-02,1.211621798574924469e-02,4.578893631696701050e-02,5.475077778100967407e-02,2.906563878059387207e-02,-4.447777941823005676e-02,7.753596454858779907e-02,3.302610293030738831e-02,3.544452041387557983e-02,4.758480563759803772e-02,-2.921464107930660248e-02,-3.567503299564123154e-04,-1.215716078877449036e-01,-9.489607065916061401e-02,-5.744582414627075195e-02,-5.387657880783081055e-02,8.568744175136089325e-03,-5.513121187686920166e-02,1.020456943660974503e-02,4.212662205100059509e-02,4.467927385121583939e-03,4.635735601186752319e-02,1.092015486210584641e-02,4.635827988386154175e-02,4.479990899562835693e-02,5.681145563721656799e-02,6.951668113470077515e-02,3.943924978375434875e-02,-3.494546562433242798e-02,4.033263400197029114e-02,-3.615520894527435303e-02,-5.123625975102186203e-03,3.450779989361763000e-02,1.986681856215000153e-02,-2.838968485593795776e-02,-4.370895400643348694e-02,8.863906376063823700e-03,-6.808583158999681473e-03,1.416958495974540710e-02,4.928195476531982422e-02,9.049245715141296387e-02,3.737269714474678040e-02,4.968863353133201599e-02,-7.021346688270568848e-02,-1.830082759261131287e-02,1.330693438649177551e-02,-1.298865769058465958e-02,-1.121607981622219086e-02,-3.616332262754440308e-02,-2.760083600878715515e-02,1.141190622001886368e-02,1.370847970247268677e-02,-4.613304510712623596e-02,1.108990982174873352e-02,-8.370150811970233917e-03,7.984443008899688721e-02,-9.237438440322875977e-02,6.805314868688583374e-02,5.507938563823699951e-03,-1.204325184226036072e-01,-4.041324555873870850e-02,8.242643624544143677e-02,-8.169592916965484619e-02,-4.370369389653205872e-02,1.117164790630340576e-01,-3.486039116978645325e-02,-1.088300533592700958e-02,-5.285093560814857483e-02,2.053143084049224854e-02,3.512747213244438171e-02,-1.427732687443494797e-02,-1.345935016870498657e-01,-6.285770237445831299e-02,-6.137240212410688400e-03,6.870981305837631226e-02,-2.224784903228282928e-02
-7.610340137034654617e-03,1.751623861491680145e-02,5.565221235156059265e-02,6.525205913931131363e-03,4.212135449051856995e-03,1.147397421300411224e-02,2.729835920035839081e-02,-3.702368587255477905e-02,-1.753762923181056976e-02,6.189538538455963135e-02,4.527847096323966980e-02,6.314431130886077881e-02,1.111879572272300720e-01,5.123897269368171692e-02,2.138090692460536957e-02,1.320073264651000500e-03,-2.638887986540794373e-02,5.063275247812271118e-02,6.756129860877990723e-02,3.922590613365173340e-02,-1.022710427641868591e-01,2.943358756601810455e-02,1.864616945385932922e-02,-2.888242155313491821e-02,-2.450970709323883057e-01,1.737402677536010742e-01,1.256624758243560791e-01,-5.598489940166473389e-02,-1.248906925320625305e-01,-4.481605440378189087e-02,7.869043201208114624e-02,8.056862652301788330e-02,1.603513956069946289e-02,9.076940268278121948e-02,4.428535327315330505e-02,5.374106019735336304e-02,1.057698950171470642e-01,5.453970283269882202e-02,9.550727903842926025e-02,9.335697442293167114e-02,2.181079797446727753e-02,1.095963791012763977e-01,-2.204510197043418884e-02,9.812934696674346924e-02,4.249491542577743530e-02,1.260132342576980591e-01,1.241722032427787781e-01,6.170254945755004883e-02,4.416516423225402832e-02,-4.772797971963882446e-02,1.095519512891769409e-01,3.205263614654541016e-02,5.896905064582824707e-02,1.591837778687477112e-02,-5.949536338448524475e-02,5.101273953914642334e-02,1.521623283624649048e-01,5.953572224825620651e-03,-8.682022988796234131e-02,4.811589047312736511e-02,-3.006617166101932526e-02,1.098775044083595276e-01,1.366049349308013916e-01,1.254798322916030884e-01,6.944620981812477112e-03,-1.429493911564350128e-02,-5.708412453532218933e-02,-5.958307906985282898e-02,-1.029943674802780151e-01,-7.467872637789696455e-05,1.083761677145957947e-01,-1.994093134999275208e-02,-5.325608700513839722e-02,2.425535023212432861e-02,-3.653646633028984070e-02,-8.796372264623641968e-02,-7.765904068946838379e-02,-5.243582651019096375e-02,1.829964816570281982e-01,9.875436127185821533e-02,-2.820826694369316101e-02,2.686880715191364288e-02,3.340345993638038635e-02,-3.697324777022004128e-03,1.351023167371749878e-01,3.365596011281013489e-02,5.617646500468254089e-02,5.025720596313476562e-02,3.876330703496932983e-02,1.057775765657424927e-01,1.091310232877731323e-01,-5.183979496359825134e-02,-1.329593956470489502e-01,-3.873458504676818848e-02,-2.082036249339580536e-02,-2.923871204257011414e-02,-9.322267770767211914e-02,-3.765938431024551392e-02,-1.591058969497680664e-01,9.619635343551635742e-02,-1.577811092138290405e-01,-1.279577314853668213e-01,-1.717447042465209961e-01,-1.549753397703170776e-01,9.950709342956542969e-02,1.385484933853149414e-01,8.369978517293930054e-02,1.773447543382644653e-01,-7.853342592716217041e-02,-3.299000114202499390e-02,-2.537304349243640900e-02,-1.617187284864485264e-03,7.419477403163909912e-02,-2.838386036455631256e-02,8.648714423179626465e-02,1.835428327322006226e-01,5.894864723086357117e-02,-1.977559030055999756e-01,-3.710356354713439941e-02,2.125197499990463257e-01,-4.838132485747337341e-02,-6.155723705887794495e-02,6.382889300584793091e-02,1.867378503084182739e-01,-1.436819285154342651e-01,-5.911359563469886780e-02,6.896651536226272583e-02,1.225148886442184448e-01,-5.363690108060836792e-02,-1.790338009595870972e-01,5.534676834940910339e-03,7.002761214971542358e-02,-2.848603203892707825e-02,1.207084804773330688e-01,-5.264075472950935364e-02,1.303229201585054398e-02,-3.537933155894279480e-02,7.626961916685104370e-02,1.350754201412200928e-01,-1.006602868437767029e-01,-5.373570695519447327e-02,-5.322787538170814514e-02,-2.933868020772933960e-02
-9.907020628452301025e-02,1.282118409872055054e-01,4.065354913473129272e-02,6.577037274837493896e-02,3.541292995214462280e-02,3.019697032868862152e-03,-6.504706293344497681e-02,-2.156073041260242462e-02,6.169188395142555237e-02,-1.107244491577148438e-01,-7.167239487171173096e-02,-2.934869006276130676e-02,-2.644336223602294922e-02,-4.214129224419593811e-02,3.285416588187217712e-02,1.660544238984584808e-02,6.189843267202377319e-02,-1.166789308190345764e-01,-3.003517910838127136e-02,3.308752551674842834e-02,-5.460181459784507751e-02,-2.506598457694053650e-02,4.489247500896453857e-02,5.421863496303558350e-02,6.496831309050321579e-03,7.872268557548522949e-02,-8.991302549839019775e-02,4.140245914459228516e-02,8.119468390941619873e-02,1.181201729923486710e-02,-7.623680680990219116e-02,-1.234678737819194794e-02,1.059699729084968567e-01,8.285338431596755981e-02,-2.160385809838771820e-02,2.734097838401794434e-02,-1.983487792313098907e-02,-2.421687170863151550e-02,-1.590997166931629181e-02,-7.489720825105905533e-03,8.514905720949172974e-02,-4.196222499012947083e-02,-6.152192875742912292e-02,-1.713122241199016571e-02,1.025131624191999435e-02,-1.456227898597717285e-02,-4.577397182583808899e-02,-6.023584678769111633e-02,-1.070731207728385925e-01,7.825694046914577484e-03,1.173908710479736328e-01,-1.862091943621635437e-02,-4.894207790493965149e-02,7.952501624822616577e-02,2.671697875484824181e-03,4.054004326462745667e-02,-2.595167607069015503e-02,-9.088829904794692993e-02,-1.127107813954353333e-02,1.141311377286911011e-01,9.651026874780654907e-02,-2.192818559706211090e-02,5.281031876802444458e-02,-1.003446951508522034e-01,1.034748703241348267e-01,2.003653440624475479e-03,-8.069655299186706543e-02,6.607322394847869873e-02,5.880644917488098145e-02,1.712375320494174957e-02,-6.216632947325706482e-02,1.911950111389160156e-02,-4.399755224585533142e-02,-4.746070876717567444e-02,1.672755554318428040e-02,5.467131733894348145e-02,3.337493166327476501e-02,-4.876895807683467865e-03,8.871032856404781342e-03,-1.142196655273437500e-01,-1.038471907377243042e-01,-1.975928060710430145e-02,-4.127242788672447205e-02,2.296643517911434174e-02,-2.009833976626396179e-02,-2.544463612139225006e-03,-2.700688876211643219e-02,-3.901550173759460449e-02,4.341559857130050659e-02,-1.531350333243608475e-02,-7.127610594034194946e-02,-2.190668694674968719e-02,-4.543570335954427719e-03,3.588092699646949768e-02,-3.361777216196060181e-02,-6.014079973101615906e-02,-4.935767501592636108e-02,9.012329578399658203e-02,8.265303447842597961e-03,-4.037122055888175964e-02,3.309494629502296448e-02,4.130819812417030334e-02,4.558094218373298645e-02,-5.263258516788482666e-02,1.130319610238075256e-01,-5.489870160818099976e-02,3.454613313078880310e-02,-5.936287343502044678e-02,5.429773405194282532e-02,5.455606430768966675e-02,-7.809252291917800903e-02,-5.412819981575012207e-02,5.155468732118606567e-02,1.165780723094940186e-01,1.774806529283523560e-02,-3.967586532235145569e-02,-7.355375587940216064e-02,-4.793854802846908569e-02,1.150285173207521439e-02,-8.262079954147338867e-02,-3.404102474451065063e-02,5.315817147493362427e-02,4.064291715621948242e-03,-5.524354428052902222e-02,1.382945198565721512e-02,2.286253310739994049e-02,8.680798113346099854e-02,-3.148444741964340210e-02,-3.992598038166761398e-03,-9.284860640764236450e-02,1.138103827834129333e-01,-1.010714992880821228e-01,-4.333489015698432922e-02,-3.013320639729499817e-02,-9.165523946285247803e-02,-5.656167119741439819e-02,8.391687646508216858e-03,-2.020298689603805542e-01,-7.450598478317260742e-02,-4.230857826769351959e-03,8.455377072095870972e-02,1.092181876301765442e-01,9.223503619432449341e-02
