5.260313861072063446e-03,-3.015521448105573654e-03,2.296631969511508942e-02,4.371242597699165344e-02,4.892497509717941284e-02,2.916869707405567169e-02,1.215302385389804840e-02,7.561784586869180202e-04,-2.475713193416595459e-02,-4.612861201167106628e-03,2.268344163894653320e-02,-1.981945522129535675e-02,-1.710289344191551208e-02,-7.465664297342300415e-03,1.560497283935546875e-02,1.797487773001194000e-02,2.072184160351753235e-02,-2.287920564413070679e-02,-1.541388593614101410e-02,4.010621458292007446e-03,-2.758270315825939178e-02,8.029919117689132690e-03,-3.410571441054344177e-02,2.425774745643138885e-02,-4.941963125020265579e-03,2.450037188827991486e-02,3.530384739860892296e-03,2.534165047109127045e-02,4.784790426492691040e-02,1.772178336977958679e-02,-8.452200330793857574e-03,-4.439391195774078369e-03,-6.153131835162639618e-03,3.098686039447784424e-02,-1.828616484999656677e-02,3.520326316356658936e-02,4.375710617750883102e-03,3.543367236852645874e-02,6.467016413807868958e-03,-7.828786037862300873e-03,-4.098129924386739731e-03,-1.650770381093025208e-02,2.650723792612552643e-03,3.665206208825111389e-02,2.243336057290434837e-03,-1.159659214317798615e-02,-1.554347574710845947e-02,-8.009406737983226776e-03,5.884493584744632244e-04,-1.904404535889625549e-02,-6.077498663216829300e-03,3.417567908763885498e-02,-1.708422787487506866e-02,-3.258047392591834068e-03,6.065191118977963924e-04,3.342048497870564461e-03,2.505721524357795715e-02,4.232501378282904625e-04,3.849312290549278259e-02,3.392387926578521729e-02,-2.372995018959045410e-02,1.180665846914052963e-02,1.444704737514257431e-02,-3.353516384959220886e-02,3.507898375391960144e-02,-1.865313202142715454e-02,-3.425476700067520142e-02,-2.094197832047939301e-02,1.945007406175136566e-02,1.781479804776608944e-03,2.601502835750579834e-02,-5.210120696574449539e-03,-2.485770732164382935e-02,-1.992801763117313385e-02,2.529873885214328766e-02,-1.577929407358169556e-02,3.575563430786132812e-02,1.040364429354667664e-02,-5.197608843445777893e-02,3.598876297473907471e-02,-6.297836080193519592e-03,-1.392456353642046452e-03,2.958470582962036133e-02,3.130080923438072205e-02,1.291807420784607530e-04,-3.052222728729248047e-02,-3.174138814210891724e-02,6.900272797793149948e-03,-2.694543078541755676e-02,4.097670316696166992e-02,2.442137151956558228e-02,1.274084858596324921e-02,-2.203578688204288483e-02,-7.837016135454177856e-03,2.962306700646877289e-02,1.633307151496410370e-02,-3.837017575278878212e-03,-2.673421986401081085e-02,2.736557461321353912e-02,1.652310788631439209e-02,2.495436556637287140e-02,-3.637147694826126099e-02,-4.142342600971460342e-03,7.905960083007812500e-03,-8.728251792490482330e-03,-1.618643291294574738e-03,-4.322844091802835464e-03,4.163046553730964661e-02,6.706736050546169281e-03,-3.231877461075782776e-02,-4.746322520077228546e-03,3.549948707222938538e-02,-3.271136432886123657e-02,-2.217138651758432388e-03,4.620112944394350052e-03,1.292066834867000580e-02,2.693721093237400055e-02,8.204384706914424896e-03,2.292004413902759552e-02,3.106647916138172150e-02,5.363631621003150940e-02,4.051863029599189758e-02,4.108287021517753601e-02,-4.279013350605964661e-02,-9.219322353601455688e-03,4.936681687831878662e-02,-1.501965336501598358e-02,3.264296054840087891e-02,-2.871930599212646484e-02,-2.155098319053649902e-02,6.541314069181680679e-03,-3.384029725566506386e-03,-7.445793133229017258e-03,-3.421622887253761292e-02,-1.369434315711259842e-02,7.737920153886079788e-03,3.835524618625640869e-02,-1.273135561496019363e-02,-6.898706778883934021e-03,-5.109393596649169922e-02,-3.418597159907221794e-03,-2.568057365715503693e-02,-2.054850757122039795e-02,4.482665099203586578e-03,-2.751499041914939880e-02,-1.600560545921325684e-02,-2.404938079416751862e-02,2.438210695981979370e-02,-1.110788434743881226e-02,-2.859330177307128906e-02,1.411673333495855331e-02,2.229493483901023865e-02,-2.004500105977058411e-02,-8.662324398756027222e-03,-3.314599767327308655e-02,-2.850041352212429047e-02,2.021331898868083954e-02,-1.055405288934707642e-02,-5.938283633440732956e-03,-1.752700284123420715e-02,2.427053079009056091e-02,6.235677283257246017e-04,-3.791559115052223206e-02,9.876800701022148132e-03,-2.121992968022823334e-02,2.553960867226123810e-02,-4.825623705983161926e-03,-6.745258811861276627e-03,2.296088822185993195e-02,-3.444714471697807312e-02,3.175747022032737732e-02,2.147304825484752655e-03,-2.507077064365148544e-03,-2.876435220241546631e-02,4.558201134204864502e-02,1.611779630184173584e-02,-1.928373984992504120e-02,-8.398924954235553741e-03,-5.935161374509334564e-03,-2.443327941000461578e-02,-1.432312838733196259e-02,-2.739277435466647148e-03,-3.954579588025808334e-03,-1.944903656840324402e-02,-1.562501676380634308e-02,-2.128115156665444374e-03,1.311242580413818359e-02,4.728021565824747086e-03,-1.832148618996143341e-02,-9.267845191061496735e-03,-2.558314986526966095e-02,-2.995135635137557983e-02,3.557237237691879272e-02,-9.063554927706718445e-03,1.041094399988651276e-02,3.194260969758033752e-02,2.086616866290569305e-02,1.559539232403039932e-02,-4.384339228272438049e-02,-2.777476422488689423e-02,-1.119963242672383785e-03,-2.710226550698280334e-02,-1.897933706641197205e-02,-2.916444465517997742e-02,-7.585828658193349838e-03,-2.285443246364593506e-02,2.381809242069721222e-02,2.232641912996768951e-02,2.495091408491134644e-02,-1.352725457400083542e-02,1.510601211339235306e-02,-3.283419832587242126e-02,5.950016528367996216e-02,2.426264993846416473e-02,2.306326664984226227e-02,-2.818684279918670654e-02,7.616892922669649124e-03,-1.637674309313297272e-02,-3.123212978243827820e-02,-3.407176584005355835e-02,1.877527870237827301e-02,4.277714528143405914e-03,1.552539505064487457e-02,1.883018948137760162e-02,2.012076554819941521e-03,3.334056213498115540e-02,3.101910836994647980e-02,9.541993029415607452e-03,-1.989413052797317505e-02,-1.055206172168254852e-02,4.908306896686553955e-02,-7.237969897687435150e-03,-2.369006164371967316e-02,-1.556499768048524857e-02,-2.106088586151599884e-02,-1.218488905578851700e-02,-1.736833527684211731e-02,-2.493184804916381836e-02,3.879581019282341003e-02,-3.424785286188125610e-02,-7.260699290782213211e-03,-5.540748126804828644e-03,-1.859220303595066071e-02,2.806374989449977875e-02,2.756424993276596069e-02,-7.795969024300575256e-03,-5.461292807012796402e-03,-1.163794845342636108e-02,3.728263080120086670e-02,-5.615691654384136200e-03,2.986000292003154755e-02,1.028726156800985336e-02,3.297846019268035889e-02,1.153000537306070328e-02,-1.553278695791959763e-02,-2.489758422598242760e-03,-3.150136768817901611e-02,-1.262917183339595795e-03,-4.407781641930341721e-03,1.374138798564672470e-02,-1.736365724354982376e-03,-2.330239489674568176e-02,-1.278042886406183243e-02,3.485022857785224915e-02,4.501866921782493591e-02,3.556500002741813660e-02,-1.823860593140125275e-02,2.025284245610237122e-02,-3.687957301735877991e-02,5.756643041968345642e-02,1.295369770377874374e-02,4.122430400457233191e-04,-1.411568955518305302e-03,-1.305648009292781353e-03,-6.947515066713094711e-03,1.062961481511592865e-02,3.708094824105501175e-03,1.441554911434650421e-02,2.664531767368316650e-02,-2.827267628163099289e-03,2.086385525763034821e-02,4.385438188910484314e-02,-1.474738214164972305e-02,2.878930186852812767e-03,-1.596209034323692322e-02,-2.662657760083675385e-02,-2.766850031912326813e-02,1.142985559999942780e-02,8.695079013705253601e-03,-5.868363659828901291e-03,2.012482285499572754e-02,4.822779074311256409e-02,-2.249211771413683891e-03,-1.144789997488260269e-02,3.197513148188591003e-02,-1.010069344192743301e-02,-4.817585926502943039e-03,3.291753679513931274e-02,-4.013254493474960327e-02,-1.649871841073036194e-02,-1.578332274220883846e-03,2.351146005094051361e-02,2.137623541057109833e-02,-1.059297285974025726e-02,3.490631282329559326e-02,-4.232321865856647491e-03,-7.115898653864860535e-03,-3.325879946351051331e-02,7.312836125493049622e-03,7.586752064526081085e-03,-1.482822583056986332e-03,-1.519398018717765808e-02,-1.621808740310370922e-03,-4.073294252157211304e-02,1.269583776593208313e-02,5.885078571736812592e-03,2.310651540756225586e-02,-1.035839132964611053e-02,-2.364282263442873955e-03,-2.177542448043823242e-02,-2.630547061562538147e-02,2.807721123099327087e-02,-2.676633931696414948e-02,9.032540023326873779e-03,-1.549721881747245789e-02,7.427137345075607300e-03,1.584208942949771881e-02,-1.092331670224666595e-02,3.961727768182754517e-02,-2.307255566120147705e-02,-2.588716521859169006e-02,4.495003726333379745e-03,5.793080106377601624e-02,-1.516273617744445801e-02,1.604729332029819489e-02,2.978312969207763672e-02,-3.833110257983207703e-02,-7.969943806529045105e-03,3.524146974086761475e-02,2.651955001056194305e-02,2.595387585461139679e-02,1.994743710383772850e-03,-3.160784393548965454e-02,-3.130723536014556885e-02,2.912323689088225365e-03,9.265053085982799530e-03,-3.063303418457508087e-02,1.624163985252380371e-02,-1.324589457362890244e-02,-1.606930978596210480e-02,-9.883735328912734985e-03,-3.279065713286399841e-02,4.400781914591789246e-02,2.466168254613876343e-02,6.169288419187068939e-03,3.629338368773460388e-02,-1.236415933817625046e-03,1.197311561554670334e-02,-3.135078772902488708e-02,4.130429122596979141e-03,-1.650372892618179321e-02,-1.516737043857574463e-02,2.240643277764320374e-02,7.266093045473098755e-03,-3.779890388250350952e-02,-8.929273462854325771e-04,-4.894800018519163132e-03,5.798906553536653519e-03,3.023145720362663269e-02,1.194029673933982849e-02,3.619074355810880661e-03,3.890709718689322472e-03,-1.751450076699256897e-02,2.185314893722534180e-02,-2.730215340852737427e-02,-7.929301820695400238e-03,-3.133757784962654114e-02,4.067053645849227905e-02,-2.275683917105197906e-02,6.268661003559827805e-03,-3.832092508673667908e-02,-3.070960007607936859e-02,2.708883956074714661e-02,2.654219418764114380e-02,-3.041929006576538086e-02,4.510453343391418457e-02,-1.588642969727516174e-02,1.902390271425247192e-02,-2.527361735701560974e-02,-2.378004603087902069e-02,-1.627680286765098572e-02,1.149811409413814545e-02,3.486167639493942261e-02,6.008083932101726532e-03,-1.290444750338792801e-02,-2.662936598062515259e-02,-1.022685132920742035e-02,4.614681471139192581e-03,3.901902213692665100e-02,-7.075936067849397659e-03,-1.870653219521045685e-02,-1.571269705891609192e-02,9.953822009265422821e-03,-3.170664235949516296e-02,1.214202400296926498e-02,-3.484465181827545166e-02,-3.664133325219154358e-02,4.860484332311898470e-04,1.656611822545528412e-02,5.251265596598386765e-03,2.745232731103897095e-02,2.955659292638301849e-02,-2.265279367566108704e-02,3.631146252155303955e-02,-1.050598733127117157e-02,-4.220572859048843384e-02,-3.566076979041099548e-02,-1.641592569649219513e-02,2.100867684930562973e-03,-4.120582714676856995e-02,4.164867103099822998e-02,-7.481931243091821671e-03,-2.047517523169517517e-02,3.870569914579391479e-02,-3.488440299406647682e-03,-3.771183639764785767e-02,-2.638660557568073273e-02,3.493519872426986694e-02,-1.904530823230743408e-02,-1.200225297361612320e-02,-3.974812105298042297e-02,-1.030178647488355637e-02,-1.332187093794345856e-02,-3.171154239680618048e-04,3.723801299929618835e-02,-9.157772175967693329e-03,6.983540486544370651e-03,-9.670603089034557343e-03,2.000812441110610962e-02,-2.702929638326168060e-02,4.809721373021602631e-03,-1.355715910904109478e-03,-1.262980047613382339e-02,-4.072969779372215271e-02,3.198434412479400635e-02,-1.860994100570678711e-02,2.592748217284679413e-02,1.482933294028043747e-02,3.712316602468490601e-02,-5.127516388893127441e-02,-2.175587229430675507e-03,-2.427939511835575104e-02,3.889160230755805969e-02,-1.484236400574445724e-02,7.976113818585872650e-03,1.201404351741075516e-02,5.114795267581939697e-02,8.552083745598793030e-03,-1.582445204257965088e-02,1.648212037980556488e-02,4.320219904184341431e-02,3.822902962565422058e-02,1.893090084195137024e-02,1.087185181677341461e-02,3.631622344255447388e-02,3.884761035442352295e-02,3.476908057928085327e-02,1.398183964192867279e-02,2.477921172976493835e-02,-1.261010183952748775e-03,1.466238964349031448e-02,8.487502112984657288e-03,-7.097627036273479462e-03,1.293128542602062225e-02,2.116365358233451843e-03,3.408800810575485229e-03,4.162991419434547424e-02,2.519594319164752960e-02,-9.986795485019683838e-03,-2.844087034463882446e-02,2.470582723617553711e-02,1.562465680763125420e-03,4.912285599857568741e-03,-2.414678409695625305e-02,2.463431656360626221e-02,-1.833155751228332520e-02,-1.897560432553291321e-02,-1.487427111715078354e-02,3.103405795991420746e-02,-7.949021644890308380e-03,2.087534591555595398e-02,2.025678195059299469e-02,2.421654760837554932e-02,-2.644266467541456223e-03,-1.098849717527627945e-02,3.534552175551652908e-03,-1.224675029516220093e-02,-3.869961574673652649e-02,-4.499149974435567856e-03,-3.626849129796028137e-02,-1.118216197937726974e-02,-1.436777599155902863e-02,-2.822170592844486237e-02,1.066844165325164795e-02,2.601091749966144562e-02,1.106411451473832130e-03,3.831196576356887817e-02,9.587780572474002838e-03,1.839828677475452423e-02,1.945539936423301697e-02,2.946596650872379541e-04,3.805032745003700256e-02,-2.260137535631656647e-02,2.301225811243057251e-02,-1.104489620774984360e-02,-1.992847025394439697e-02,4.511660896241664886e-03,-1.249985955655574799e-02,2.306227758526802063e-02,-1.692206785082817078e-02,-1.816647313535213470e-02,1.573501154780387878e-02,3.244327008724212646e-02,-1.336724730208516121e-03,2.627186849713325500e-02,1.683479733765125275e-02,-2.862042002379894257e-02,-1.307491678744554520e-02,-3.294356167316436768e-03,-2.857752144336700439e-02,-3.009145706892013550e-02,2.990271023008972406e-04,-3.140509873628616333e-02,1.751633733510971069e-02,2.326202951371669769e-02,3.006162121891975403e-02,-2.688991138711571693e-03,3.171264007687568665e-02,4.853127989917993546e-03,3.711927309632301331e-02,4.143135994672775269e-02,1.760414242744445801e-02,9.249156340956687927e-03,3.493754938244819641e-02,2.028813958168029785e-02,3.236174955964088440e-02,-1.701939292252063751e-02,-1.728598400950431824e-02,1.722983084619045258e-02,-2.011494012549519539e-03,1.529390923678874969e-02,-2.471036650240421295e-02,-2.251132763922214508e-02,-1.426865160465240479e-02,6.760127376765012741e-03,-2.673752047121524811e-02,-1.231735665351152420e-02,-2.803934551775455475e-02,-2.994677517563104630e-03,-2.742280252277851105e-03,2.644753828644752502e-02,-2.887347154319286346e-02,6.704585161060094833e-03,-1.108430558815598488e-03,-3.109128773212432861e-02,2.657585032284259796e-02,5.430368706583976746e-03,-3.372820466756820679e-02,-2.708476968109607697e-02,-2.429454214870929718e-02,-2.982893958687782288e-02,-8.787598460912704468e-03,2.490453608334064484e-02,3.159474872518330812e-04,-2.380948141217231750e-02,9.367677383124828339e-03,-5.156992468982934952e-03,5.482101440429687500e-02,3.048600256443023682e-02,-3.491792827844619751e-03,4.981534089893102646e-03,3.859612345695495605e-02,3.982421755790710449e-02,1.468491274863481522e-02,1.862475462257862091e-02,1.696748845279216766e-02,-2.394319884479045868e-02,1.133681647479534149e-02,3.305646404623985291e-02,2.233658684417605400e-03,1.833745092153549194e-02,-3.730116784572601318e-02,7.978899404406547546e-03,2.508018398657441139e-03,-2.813550457358360291e-02,-1.393163762986660004e-02,-2.400837838649749756e-02,4.529731348156929016e-03,-1.491886842995882034e-02,1.047691144049167633e-02
