2.687872946262359619e-02,4.667881503701210022e-02,7.504163682460784912e-02,4.951217398047447205e-02,3.916011378169059753e-02,2.552128396928310394e-02,4.138900339603424072e-02,-5.503856390714645386e-02,-5.239202827215194702e-02,2.820030786097049713e-02,6.568965315818786621e-02,5.314736813306808472e-02,-5.214646225795149803e-04,-9.831810742616653442e-02,1.932902447879314423e-02,-6.476838886737823486e-02,-3.147537261247634888e-02,-3.085971809923648834e-02,4.846747219562530518e-02,9.832140803337097168e-02,-6.025331839919090271e-02,-1.889465935528278351e-02,5.121813341975212097e-02,7.403351832181215286e-03,1.142360866069793701e-01,1.018089056015014648e-01,5.588928982615470886e-02,2.707886695861816406e-02,1.816968200728297234e-03,-2.212534286081790924e-02,-3.764606267213821411e-02,-5.424912273883819580e-02,-3.614018484950065613e-02,-2.340180613100528717e-02,-6.219972297549247742e-02,2.392357029020786285e-02,1.665934734046459198e-02,-7.313315570354461670e-02,-2.442025765776634216e-02,-1.423142291605472565e-02,1.655335538089275360e-02,5.868094787001609802e-02,-4.913683980703353882e-02,5.437270272523164749e-03,5.102768912911415100e-02,2.399338968098163605e-02,4.401254281401634216e-02,4.472222179174423218e-02,6.560359895229339600e-02,3.801552206277847290e-02,8.423588424921035767e-02,-7.869017310440540314e-03,6.721024960279464722e-02,-6.983549892902374268e-02,3.839752823114395142e-02,1.935092732310295105e-02,5.651225522160530090e-02,9.937091171741485596e-02,-4.317133221775293350e-03,3.515787795186042786e-02,5.252365022897720337e-02,-6.904082745313644409e-02,6.997165083885192871e-02,-1.858433522284030914e-02,1.769168861210346222e-02,3.667768090963363647e-02,3.028607461601495743e-03,2.114034444093704224e-02,2.190019190311431885e-02,-1.136174872517585754e-01,-1.305232662707567215e-02,1.556584797799587250e-02,-4.478658735752105713e-02,-8.827848732471466064e-02,-3.353534964844584465e-03,5.212559551000595093e-02,5.507890507578849792e-02,6.770805269479751587e-02,5.207173898816108704e-02,9.677774459123611450e-02,-7.026304304599761963e-02,3.043532557785511017e-02,-6.555994600057601929e-02,3.390930220484733582e-02,-6.451677531003952026e-02,-2.086677402257919312e-02,-5.483339354395866394e-02,8.108373731374740601e-02,-5.922164395451545715e-02,2.953679859638214111e-02,-3.990507870912551880e-02,6.247550621628761292e-02,-2.576285600662231445e-02,8.866962045431137085e-02,-6.060073524713516235e-02,-7.674342393875122070e-02,-1.085175108164548874e-02,3.967199102044105530e-02,-4.728784784674644470e-02,-8.270496129989624023e-02,-6.918239407241344452e-03,3.321136906743049622e-02,3.391436859965324402e-02,4.325338080525398254e-02,-1.320767798461019993e-03,-6.537003815174102783e-02,2.140859514474868774e-02,-2.580656297504901886e-02,8.322745561599731445e-02,2.202090434730052948e-02,1.899891719222068787e-02,2.777017652988433838e-02,-4.363510757684707642e-03,6.266795843839645386e-02,-1.871836185455322266e-02,8.120218291878700256e-03,-1.113902078941464424e-03,-1.632430218160152435e-02,7.892845571041107178e-02,-3.799741715192794800e-02,-3.039209358394145966e-02,1.096217408776283264e-01,-3.446645289659500122e-02,-7.358101755380630493e-02,7.866097241640090942e-02,-4.677744582295417786e-02,-6.472154706716537476e-02,-4.266395419836044312e-02,1.185888200998306274e-01,3.419965505599975586e-02,-2.172454405808821321e-04,-4.074452444911003113e-03,8.818937093019485474e-02,8.124110102653503418e-02,-7.006090134382247925e-02,-6.827048212289810181e-02,5.095186084508895874e-02,2.574319392442703247e-02,7.850745692849159241e-03,7.589948922395706177e-02,9.146641194820404053e-02,9.991430491209030151e-02,6.933824717998504639e-02,-1.531336642801761627e-02,2.826589904725551605e-02,1.348699629306793213e-01,-4.136627539992332458e-02,-4.939350113272666931e-02,-8.003539592027664185e-02,-4.591548442840576172e-02,-3.300039563328027725e-03,-2.263061702251434326e-02,4.859718307852745056e-02,6.182070076465606689e-02,-5.731415003538131714e-02,4.240811616182327271e-02,-5.009374395012855530e-02,6.929015368223190308e-02,4.569899290800094604e-02,-6.982881575822830200e-02,2.022133767604827881e-02,-1.682472974061965942e-02,8.232283592224121094e-02,4.133627749979496002e-03,-4.953068867325782776e-02,2.018496580421924591e-02,5.475971847772598267e-02,7.110255211591720581e-02,6.982769817113876343e-02,5.643754452466964722e-02,5.458452738821506500e-03,-5.742622166872024536e-02,-7.027858495712280273e-02,-3.952974081039428711e-02,7.599684596061706543e-02,-3.527519293129444122e-03,-6.855675578117370605e-02,6.534069776535034180e-02,-8.733586966991424561e-02,-7.239247206598520279e-03,-5.071675404906272888e-02,5.098967626690864563e-02,2.310526557266712189e-02,1.403104793280363083e-02,1.716721802949905396e-02,-8.690774440765380859e-02,-3.928180318325757980e-03,7.151980698108673096e-02,5.808017402887344360e-02,-2.618552185595035553e-02,3.511522710323333740e-02,1.008999068289995193e-02,-8.684119582176208496e-02,-4.632692039012908936e-02,-7.943823933601379395e-03,1.127692032605409622e-02,-8.049064874649047852e-02,2.785729803144931793e-02,-3.736855834722518921e-02,-3.846991807222366333e-02,6.319586932659149170e-02,-4.684159904718399048e-02,3.261944279074668884e-02,2.513755112886428833e-02,-2.869864739477634430e-02,-3.613461507484316826e-03,4.769208654761314392e-02,-8.320584148168563843e-02,-8.197664469480514526e-02,7.839484512805938721e-02,6.180494278669357300e-02,6.716975569725036621e-02,3.595041856169700623e-02,7.043536752462387085e-02,-5.780252069234848022e-02,9.466376900672912598e-02,-5.291666835546493530e-02,-1.009106710553169250e-01,6.938558816909790039e-02,8.076918870210647583e-02,2.669751830399036407e-02,-4.017167165875434875e-02,-2.885267138481140137e-02,6.722360849380493164e-02,-1.010144036263227463e-02,-8.419004827737808228e-02,6.984983105212450027e-03,7.856631278991699219e-02,1.409455668181180954e-02,-5.404850840568542480e-02,3.385472670197486877e-02,-8.952782303094863892e-02,-4.877272620797157288e-02,-5.111056938767433167e-02,1.679318211972713470e-02,2.448268793523311615e-02,-2.326572127640247345e-02,5.040143430233001709e-02,-2.462420240044593811e-02,4.002449661493301392e-02,5.156655609607696533e-02,7.307037711143493652e-02,6.258928030729293823e-02,3.747436404228210449e-02,-7.538273930549621582e-02,6.317792832851409912e-02,8.432538062334060669e-02,-3.321393951773643494e-02,7.255266886204481125e-03,1.423278637230396271e-02,-2.481093071401119232e-02,-2.739009680226445198e-03,-2.797515317797660828e-02,6.154534406960010529e-03,1.103157084435224533e-02,-5.444827675819396973e-02,-1.029862370342016220e-02,8.351782709360122681e-02,-3.402936458587646484e-02,-6.526187062263488770e-02,1.481100358068943024e-02,-6.475134938955307007e-02,-5.040445178747177124e-02,3.061108291149139404e-02,-1.691398769617080688e-02,-4.545312002301216125e-02,-2.425479236990213394e-03,-1.991863921284675598e-02,1.002887189388275146e-01,9.533803910017013550e-03,4.570593300741165876e-04,-9.057710319757461548e-02,-5.101940408349037170e-02,2.187603525817394257e-02,1.863676682114601135e-02,-7.104381918907165527e-03,5.618823692202568054e-02,-3.016904182732105255e-02,-5.417162179946899414e-02,8.123058080673217773e-02,3.008848428726196289e-02,7.847284525632858276e-02,7.524717599153518677e-02,1.037508342415094376e-02,1.076119989156723022e-01,1.973484642803668976e-02,9.517666697502136230e-02,2.469220198690891266e-02,6.406717747449874878e-02,5.027792602777481079e-02,-7.792263478040695190e-02,6.385472416877746582e-02,-5.713881552219390869e-02,4.734850674867630005e-02,2.553083933889865875e-02,-7.536353915929794312e-02,6.503689289093017578e-02,7.515496015548706055e-02,-4.328247532248497009e-02,-7.082401961088180542e-02,-7.683748751878738403e-02,-4.288425296545028687e-02,-9.076370624825358391e-04,3.960724920034408569e-02,-6.095138937234878540e-02,-2.855725400149822235e-02,6.123579666018486023e-02,3.565627709031105042e-02,3.528779745101928711e-02,-7.380148023366928101e-02,3.291593492031097412e-02,-2.879850566387176514e-02,-2.053057216107845306e-02,-2.364177023991942406e-03,8.799863606691360474e-02,-4.561661183834075928e-02,-6.501161307096481323e-02,1.357610337436199188e-02,6.900043785572052002e-02,8.634560555219650269e-02,9.229091927409172058e-03,4.516043514013290405e-02,-6.481318175792694092e-02,-2.449351921677589417e-02,7.708886265754699707e-02,4.140170663595199585e-02,6.981721520423889160e-02,1.018670294433832169e-02,7.705380022525787354e-02,7.002522796392440796e-02,-6.085231527686119080e-02,4.091527685523033142e-02,-1.094631198793649673e-02,5.178033187985420227e-02,-5.634064227342605591e-02,3.112101368606090546e-02,7.556184381246566772e-02,8.267688751220703125e-02,4.038026183843612671e-02,7.082746922969818115e-02,1.764033548533916473e-02,1.008343622088432312e-01,4.048523306846618652e-02,-8.270420879125595093e-02,6.199667975306510925e-02,5.567260552197694778e-03,5.259690061211585999e-02,-1.561134159564971924e-01,-8.417572826147079468e-02,-6.918817013502120972e-02,-5.493789538741111755e-02,-4.063785076141357422e-02,-1.167237199842929840e-02,-5.027031060308218002e-03,3.213621303439140320e-02,6.392692029476165771e-02,-8.107245899736881256e-03,5.838792398571968079e-02,-3.796517476439476013e-02,3.926238976418972015e-03,5.908564478158950806e-02,9.865496307611465454e-02,6.436506658792495728e-02,7.917489856481552124e-03,5.289778485894203186e-02,-2.148016169667243958e-02,-3.482532873749732971e-02,-4.992099013179540634e-03,4.729209467768669128e-02,-6.182868406176567078e-02,-1.992434496060013771e-03,-6.419220007956027985e-04,-1.427959464490413666e-02,-6.193139031529426575e-02,5.294682458043098450e-03,4.710312560200691223e-02,-1.186460070312023163e-02,7.340038567781448364e-02,5.274265259504318237e-02,-1.361947413533926010e-02,1.029463633894920349e-01,-7.134062796831130981e-02,-1.115646213293075562e-02,-5.222274363040924072e-02,2.267385832965373993e-03,5.588012188673019409e-02,7.040019333362579346e-02,3.453214094042778015e-02,-2.482072636485099792e-02,1.261394172906875610e-01,1.881657168269157410e-02,7.595606893301010132e-02,-3.272245824337005615e-02,-3.653427958488464355e-02,6.271894276142120361e-02,-3.535620868206024170e-02,7.430072873830795288e-02,7.013335824012756348e-02,-5.527094379067420959e-02,-5.308501422405242920e-02,-3.747085481882095337e-02,3.794256970286369324e-02,-4.083683341741561890e-02,-1.897007040679454803e-02,5.650233104825019836e-02,3.234260901808738708e-02,4.829405248165130615e-02,7.487890124320983887e-02,-6.881241500377655029e-02,1.205126866698265076e-01,-5.357726663351058960e-02,2.114132046699523926e-03,8.683528751134872437e-02,7.088266313076019287e-02,4.282346740365028381e-02,-2.166718617081642151e-02,1.586172543466091156e-02,2.276735380291938782e-02,2.881198376417160034e-02,-6.277764588594436646e-02,-4.590835422277450562e-02,1.026163920760154724e-01,-6.832661479711532593e-02,8.514679223299026489e-02,5.448065698146820068e-02,-3.580305725336074829e-02,1.050151586532592773e-01,-7.171377539634704590e-02,-1.870577037334442139e-02,-8.570567518472671509e-02,5.596191436052322388e-02,-3.685340657830238342e-02,9.052643924951553345e-02,-1.219408959150314331e-02,-8.239159360527992249e-03,4.929864034056663513e-02,5.969804525375366211e-02,-3.306443989276885986e-02,-5.295730382204055786e-02,6.874956935644149780e-02,3.098314441740512848e-02,-3.999435156583786011e-02,9.005162864923477173e-02,6.502489745616912842e-02,1.767629524692893028e-03,-4.715307056903839111e-02,4.079528525471687317e-02,-1.357875168323516846e-01,2.242074348032474518e-03,3.608902171254158020e-02,-1.848650909960269928e-02,4.351747408509254456e-02,-5.131893232464790344e-02,1.308700349181890488e-02,3.142452985048294067e-02,3.940051421523094177e-02,-6.407164037227630615e-02,-1.479994691908359528e-02,5.731334164738655090e-02,7.148401346057653427e-03,4.402038827538490295e-02,9.119919687509536743e-02,1.455723494291305542e-02,6.417585164308547974e-02,-1.519486121833324432e-02,-8.108612149953842163e-03,6.193554028868675232e-02,-1.109015196561813354e-02,-3.550932556390762329e-02,-2.244144864380359650e-02,9.861720353364944458e-02,4.669815301895141602e-02,-6.951583921909332275e-02,8.371416479349136353e-02,-2.821766957640647888e-02,-4.869539663195610046e-02,-6.940559297800064087e-02,2.510653808712959290e-02,3.399180248379707336e-02,-1.463176030665636063e-02,4.892190173268318176e-02,1.466021779924631119e-02,-6.474173069000244141e-02,-1.314873062074184418e-02,7.824314385652542114e-02,1.072341203689575195e-01,4.847608879208564758e-02,3.244098043069243431e-03,-3.866084665060043335e-02,-7.147564738988876343e-02,2.354187145829200745e-02,2.609794586896896362e-02,-1.013727858662605286e-02,4.943649098277091980e-02,2.875325642526149750e-02,-8.145578205585479736e-02,3.788420557975769043e-02,-9.337725117802619934e-03,8.779136836528778076e-02,8.269464224576950073e-02,-3.477430716156959534e-02,8.570406585931777954e-02,-2.186650037765502930e-02,6.680010259151458740e-02,3.583826869726181030e-02,-7.259416580200195312e-02,-7.464300841093063354e-02,-4.035491123795509338e-02,-3.624416142702102661e-02,1.002581864595413208e-01,1.031949520111083984e-01,-6.299822032451629639e-02,1.526065543293952942e-02,-2.204974927008152008e-02,-2.460299432277679443e-02,5.363950505852699280e-02,7.763231545686721802e-02,-5.811240524053573608e-02,-3.492883220314979553e-02,-5.379448458552360535e-02,-5.027920007705688477e-03,8.631654083728790283e-02,5.130729079246520996e-02,9.075230360031127930e-02,-3.980608657002449036e-02,3.225184977054595947e-02,3.602942451834678650e-02,-6.027055531740188599e-02,1.276838709600269794e-03,-3.620041534304618835e-02,4.670022428035736084e-02,-1.884686015546321869e-02,3.427059575915336609e-02,-6.420877575874328613e-02,5.884957313537597656e-02,2.919980697333812714e-02,-2.134705148637294769e-02,-1.674161292612552643e-02,9.649526327848434448e-02,-2.514393068850040436e-03,-3.455586731433868408e-02,-1.490816753357648849e-02,8.017500489950180054e-02,-3.502733632922172546e-02,7.487285882234573364e-03,8.019457757472991943e-02,-5.990069359540939331e-02,-3.275296837091445923e-02,-4.899281263351440430e-02,9.925749152898788452e-02,-2.412168495357036591e-02,5.934716016054153442e-02,6.294918805360794067e-02,1.003361772745847702e-02,2.637920156121253967e-02,2.856879960745573044e-03,-1.545229461044073105e-02,-2.361540310084819794e-02,1.866878941655158997e-02,9.356836788356304169e-03,-5.371953547000885010e-02,-1.398651674389839172e-02,6.168831884860992432e-02,5.046201124787330627e-02,1.280158944427967072e-02,1.742479950189590454e-02,-3.528101369738578796e-02,6.233089417219161987e-02,7.875563204288482666e-02,3.416684642434120178e-02,3.238926455378532410e-02,1.074901595711708069e-02,1.744186878204345703e-01,6.047270074486732483e-02,5.752722173929214478e-02,1.220785900950431824e-01,-2.707675285637378693e-02,3.762847557663917542e-02,7.981771975755691528e-02,-3.943199664354324341e-02,7.853544503450393677e-02,8.506399579346179962e-03,-7.230820506811141968e-02,1.546423416584730148e-02,2.885380201041698456e-02,4.428525455296039581e-03,2.025358844548463821e-03,-5.578997731208801270e-02,-4.976463317871093750e-02,-5.457131192088127136e-02,-3.299320489168167114e-02,-5.364065617322921753e-02,5.622220411896705627e-02,7.671931385993957520e-02,-3.552861511707305908e-02,8.495614677667617798e-02,2.243093587458133698e-02,-3.538270667195320129e-02,1.990647055208683014e-03,-1.856422238051891327e-02,7.736176997423171997e-02,1.693182438611984253e-02,2.605174109339714050e-02,7.205329090356826782e-02,5.839627608656883240e-02,7.781009376049041748e-02,5.454635992646217346e-02,-2.080096863210201263e-02,-8.125462773023173213e-05,7.395504415035247803e-02,-2.857726532965898514e-03,-6.842782348394393921e-02,-4.912384226918220520e-02,-5.740164592862129211e-02,-9.552223235368728638e-02,2.602172456681728363e-02,5.478812847286462784e-03,5.301314592361450195e-02,1.705154776573181152e-02,1.031544208526611328e-01,-1.241583842784166336e-02,-5.943980813026428223e-02,-3.950728848576545715e-02,1.953057944774627686e-02,7.360120303928852081e-03,2.427179180085659027e-02,3.696028515696525574e-02,-4.485474526882171631e-02,2.732859225943684578e-03,-1.691527664661407471e-02,6.963197886943817139e-02,-2.646437659859657288e-02,5.257310811430215836e-03,-4.837255552411079407e-02,-2.959885401651263237e-03,-9.837865829467773438e-02,-7.759652566164731979e-03,-6.866103503853082657e-03,-7.846254855394363403e-02,3.146140649914741516e-02,4.570440948009490967e-02,-1.689661666750907898e-02,8.664486557245254517e-02,-1.007949709892272949e-01,-7.035173475742340088e-02,-8.376764506101608276e-02,-6.917701661586761475e-02,-6.307221204042434692e-02,-4.477811232209205627e-02,7.483541965484619141e-02,-7.379435747861862183e-02,-6.456264853477478027e-02,-9.980279952287673950e-03,-6.386800110340118408e-02,7.588606327772140503e-02,9.889969974756240845e-02,3.939368575811386108e-02,-6.640166044235229492e-02,7.267364114522933960e-02,7.142329961061477661e-02,6.583289057016372681e-02,8.099781349301338196e-03,1.168682575225830078e-01,1.022547930479049683e-01,-2.396331354975700378e-02,9.913048148155212402e-02,-3.847905620932579041e-02,-1.197240315377712250e-02,6.549583375453948975e-02,2.960671298205852509e-02,1.124866120517253876e-02,4.350614175200462341e-02,-3.764310851693153381e-02,-1.671061851084232330e-02,5.433553364127874374e-03,4.427611082792282104e-02,-7.569766603410243988e-03,-1.845581084489822388e-02,-2.674598246812820435e-02,1.837427541613578796e-02,-4.395652562379837036e-02,8.160033822059631348e-02,1.557505037635564804e-02,4.657601565122604370e-02,-2.662386372685432434e-02,-3.915831819176673889e-02,6.880521774291992188e-03,1.091308891773223877e-01,-4.345588386058807373e-03,-4.286250099539756775e-02,-2.709437161684036255e-03,-5.545343458652496338e-02,4.297649860382080078e-02,-1.662682369351387024e-02,9.083232842385768890e-03,-3.165442869067192078e-02,6.212527304887771606e-02,-3.850827366113662720e-02,-9.666541218757629395e-02,-6.906653195619583130e-02,4.321894422173500061e-02,5.258971080183982849e-02,8.507873862981796265e-02,5.056069791316986084e-02,-4.253613948822021484e-02,2.928748354315757751e-02,-1.111913006752729416e-02,-2.444886416196823120e-02,7.568786293268203735e-02,-6.153260543942451477e-02,3.505392000079154968e-02,1.825262047350406647e-02,-7.803316228091716766e-03,-7.197874784469604492e-02,7.927089184522628784e-02,-3.962934017181396484e-02,6.271186470985412598e-02,-7.433573482558131218e-04,6.643293052911758423e-02,5.036785826086997986e-02,-6.239182502031326294e-02,1.033967081457376480e-02,-7.760501652956008911e-02,3.518519178032875061e-02,3.644336014986038208e-02,6.420969963073730469e-02,-2.543641626834869385e-02,1.909827254712581635e-02,-4.306911304593086243e-02,-6.435983628034591675e-02,1.056545134633779526e-02,4.409242421388626099e-02,6.766614317893981934e-02,-1.069200225174427032e-02,7.047098875045776367e-02,1.006072461605072021e-01,6.221454590559005737e-02,-1.077007278800010681e-01,-4.235399886965751648e-02,5.721325054764747620e-02,9.561790525913238525e-02,-1.572205452248454094e-03,9.096973389387130737e-02,3.007061220705509186e-02,9.657712280750274658e-02,2.224407158792018890e-03,3.182981163263320923e-02,4.073980078101158142e-02,-5.092706903815269470e-02,-5.929574370384216309e-02,-4.486906807869672775e-03,8.794148452579975128e-03,2.893450297415256500e-02,3.948103312723105773e-06,-3.875201195478439331e-02,1.726739108562469482e-02,3.236902877688407898e-03,-1.296085864305496216e-01,1.457048580050468445e-03,5.917751230299472809e-03,-2.811332978308200836e-02,8.993238955736160278e-02,-6.917918473482131958e-02,8.108688145875930786e-02,-3.591106832027435303e-02,-6.851462274789810181e-02,7.212875783443450928e-02,6.271183490753173828e-02,2.723891846835613251e-02,8.191559463739395142e-02,8.426519483327865601e-02,-4.179860278964042664e-02,5.961848422884941101e-02,-6.655406206846237183e-02,6.200309470295906067e-02,1.063058376312255859e-01,-8.233797736465930939e-03,-2.604870311915874481e-02,-2.680728211998939514e-02,1.351001206785440445e-02,-1.048502512276172638e-03,5.131424218416213989e-02,-6.933525204658508301e-02,-4.130869358777999878e-02,5.139593407511711121e-02,1.143203005194664001e-01,-6.439051777124404907e-02,-6.837508175522089005e-03,6.347138434648513794e-02,4.760486539453268051e-03,8.389350958168506622e-03,2.971873804926872253e-02,-2.029772847890853882e-02,-6.715641170740127563e-02,3.738923743367195129e-02,5.553304404020309448e-02,-6.386674195528030396e-02,4.899518936872482300e-02,-7.625065743923187256e-03,4.502787813544273376e-02
