-2.738203620538115501e-03,2.652969397604465485e-02,-5.724658444523811340e-02,-4.064327478408813477e-02,7.319439947605133057e-02,-2.265414781868457794e-02,-3.673866018652915955e-02,1.257321797311306000e-03,-2.920607849955558777e-02,-1.430813595652580261e-02,4.464600607752799988e-02,6.412453949451446533e-02,-5.233044549822807312e-02,-4.187912121415138245e-02,-5.835256353020668030e-02,5.594186857342720032e-02,5.607796832919120789e-02,2.042709849774837494e-02,-3.121961653232574463e-02,-7.389871869236230850e-03,6.593797355890274048e-02,3.327880799770355225e-02,2.159304358065128326e-02,4.192396067082881927e-03,3.201444074511528015e-02,2.869416773319244385e-02,-5.569146573543548584e-02,1.494654826819896698e-02,1.046650856733322144e-02,2.944811247289180756e-02,-6.774873472750186920e-03,-9.896737756207585335e-04,2.648204565048217773e-02,4.844685900025069714e-04,-5.514802783727645874e-02,4.208356514573097229e-02,3.574538603425025940e-02,1.451414730399847031e-02,3.177968040108680725e-02,-7.744945585727691650e-02,9.085519122891128063e-04,1.324982475489377975e-02,3.578937379643321037e-03,-1.642154529690742493e-02,3.494065999984741211e-02,-5.280367657542228699e-02,4.505823832005262375e-03,6.804294884204864502e-03,5.821731314063072205e-02,5.513627454638481140e-02,5.448814854025840759e-02,2.740202238783240318e-03,5.535636842250823975e-02,-1.085764635354280472e-02,3.847337514162063599e-02,5.539765208959579468e-02,-3.021861426532268524e-02,-8.204009383916854858e-02,-2.753726951777935028e-02,-5.794766917824745178e-02,2.478038519620895386e-02,1.227387879043817520e-02,4.336905479431152344e-02,-5.094858631491661072e-02,4.507170990109443665e-02,1.671663485467433929e-02,2.298091538250446320e-02,4.897763207554817200e-02,-8.295137435197830200e-03,-1.150147523730993271e-03,-6.799303740262985229e-02,-4.087369889020919800e-02,5.832689628005027771e-02,-1.133562717586755753e-02,-1.492314320057630539e-02,2.534979209303855896e-02,3.710967674851417542e-02,1.067394688725471497e-01,-2.402065321803092957e-02,-5.148334428668022156e-02,9.909734129905700684e-03,1.997393788769841194e-03,-1.663639582693576813e-02,-1.360689848661422729e-02,-1.088477950543165207e-02,-4.268549755215644836e-02,-3.199040889739990234e-02,-1.473437994718551636e-03,-4.347072169184684753e-02,1.949396729469299316e-02,-3.906699270009994507e-02,-1.852177456021308899e-02,1.054472476243972778e-02,-1.100658923387527466e-01,-5.429497733712196350e-02,6.227358058094978333e-02,-7.478069048374891281e-03,1.031090319156646729e-01,6.883873045444488525e-02,8.138053119182586670e-02
