1.616586558520793915e-02,4.281506687402725220e-02,2.348964475095272064e-02,-3.465011832304298878e-04,-1.613629050552845001e-03,-4.164040088653564453e-02,-4.218966141343116760e-02,-1.426883880048990250e-02,-1.602342538535594940e-02,-2.039649523794651031e-02,1.666664145886898041e-02,6.360798329114913940e-02,-8.815158158540725708e-03,1.630865782499313354e-02,-4.204765893518924713e-03,-4.292987287044525146e-02,-2.929969131946563721e-02,3.602873533964157104e-02,4.575034976005554199e-02,-4.192875698208808899e-02,1.010234747081995010e-02,-2.707985974848270416e-02,-2.392486296594142914e-02,3.570169955492019653e-02,-3.299245610833168030e-02,-3.587708249688148499e-02,-2.742167003452777863e-02,1.008702162653207779e-02,-2.020640997216105461e-03,8.065682835876941681e-03,-4.267114773392677307e-02,-2.726780623197555542e-02,-3.182045742869377136e-02,3.715750202536582947e-02,2.699538506567478180e-02,-1.273377612233161926e-02,-1.696912012994289398e-02,-3.420718759298324585e-02,-4.777976311743259430e-03,-3.397497162222862244e-02,2.978416904807090759e-02,5.360561190173029900e-04,4.592669382691383362e-02,3.201130405068397522e-02,-2.001775242388248444e-02,-9.910910390317440033e-03,-4.629710689187049866e-03,3.493716940283775330e-02,-1.046649646013975143e-02,-2.417338453233242035e-02,-3.256457671523094177e-02,6.472441367805004120e-03,1.072225254029035568e-02,2.968829125165939331e-02,4.801452159881591797e-03,1.337440125644207001e-02,-5.514887161552906036e-03,-5.796349048614501953e-02,-2.659932151436805725e-02,1.082135643810033798e-02,3.321077302098274231e-02,3.274361416697502136e-02,-3.279017284512519836e-02,3.667586669325828552e-02,3.799841552972793579e-02,-2.539285831153392792e-02,-2.983327396214008331e-02,-4.939367249608039856e-02,3.501965105533599854e-02,-8.676539175212383270e-03,1.206927839666604996e-02,2.014704979956150055e-02,6.080961320549249649e-03,-3.236667439341545105e-02,-9.245652705430984497e-03,-1.385903568007051945e-03,3.380129486322402954e-02,-1.454051956534385681e-02,3.248097375035285950e-03,3.437213599681854248e-03,3.506548330187797546e-02,-3.838183358311653137e-02,-6.765115540474653244e-04,3.018462331965565681e-03,1.498966570943593979e-02,-3.423772007226943970e-02,2.695766091346740723e-02,-2.082543633878231049e-02,-1.871306262910366058e-02,1.240920182317495346e-02,-1.948891556821763515e-03,-1.485239807516336441e-02,8.812750689685344696e-03,-2.779326960444450378e-02,1.332372706383466721e-02,4.244152456521987915e-02,-1.100558135658502579e-02,1.087669190019369125e-02,2.577653387561440468e-03,1.502541452646255493e-02,-1.537808403372764587e-02,4.039908573031425476e-02,2.648178860545158386e-02,-1.905306428670883179e-02,1.364033203572034836e-02,4.531721398234367371e-02,-2.937921322882175446e-02,5.534804891794919968e-03,8.228433318436145782e-03,4.234394431114196777e-02,1.648180745542049408e-02,1.550777256488800049e-02,3.025444969534873962e-02,7.348604034632444382e-03,2.712923474609851837e-02,-3.965703770518302917e-02,-5.576729774475097656e-02,9.680384770035743713e-03,-3.194807469844818115e-02,-1.442909939214587212e-03,-1.065089739859104156e-02,-6.252697668969631195e-03,3.724770247936248779e-02,-2.229810133576393127e-02,-3.007572889328002930e-02,-4.663921147584915161e-02,2.307565137743949890e-02,-2.597447484731674194e-02,-2.806055173277854919e-02,4.251583293080329895e-02,1.306373625993728638e-02,3.019937872886657715e-02,1.701337471604347229e-02,2.903093397617340088e-02,-2.107047475874423981e-02,-4.607682116329669952e-03,1.938847824931144714e-02,-6.019992870278656483e-04,-2.549076452851295471e-02,3.742689639329910278e-02,-2.253149449825286865e-02,-5.066724121570587158e-02,-3.234616667032241821e-02,3.340055048465728760e-02,-7.449877914041280746e-03,-2.451550401747226715e-02,-2.579424344003200531e-02,-2.918310090899467468e-02,-2.641713432967662811e-02,9.207562543451786041e-03,-1.009568385779857635e-02,-2.442766353487968445e-02,-4.454857669770717621e-03,-3.865042328834533691e-02,1.139080524444580078e-02,-7.611580658704042435e-03,-9.821696206927299500e-03,1.196915283799171448e-02,1.619123481214046478e-02,3.329290822148323059e-02,1.441012043505907059e-02,2.478611655533313751e-02,2.595419762656092644e-03,4.768030345439910889e-02,-3.642904385924339294e-02,4.163244366645812988e-02,2.802016958594322205e-02,-4.365433380007743835e-02,-1.109301950782537460e-02,-1.174077205359935760e-02,-3.230334445834159851e-02,-2.014007233083248138e-02,1.502270810306072235e-02,-1.895395666360855103e-02,1.214071363210678101e-02,3.801240399479866028e-02,3.425781056284904480e-02,-1.721224188804626465e-02,1.449338905513286591e-02,1.051381230354309082e-02,4.421851038932800293e-02,2.002392895519733429e-02,-2.365991938859224319e-03,-1.639462448656558990e-02,3.288939595222473145e-02,4.489650204777717590e-02,-2.037126012146472931e-02,4.760182648897171021e-02,-2.742457017302513123e-02,-1.125818770378828049e-02,2.662483416497707367e-02,2.142469212412834167e-02,-6.568568758666515350e-03,-1.380489440634846687e-03,-2.416306920349597931e-02,2.298422623425722122e-03,-2.431309083476662636e-03,4.482859000563621521e-02,-4.282478243112564087e-02,1.933629997074604034e-02,-1.216669261339120567e-04,7.132853846997022629e-03,-2.969456836581230164e-02,-6.633822806179523468e-03,-2.069289423525333405e-02,1.877543888986110687e-02,2.830702811479568481e-02,-2.603414095938205719e-02,-1.020998577587306499e-03,1.737023331224918365e-02,1.383673585951328278e-02,3.247270733118057251e-02,7.255706936120986938e-03,1.285907812416553497e-03,1.715714856982231140e-02,-9.388069622218608856e-03,-3.858247399330139160e-02,1.801205985248088837e-02,3.819472715258598328e-02,2.702827379107475281e-02,7.711948361247777939e-03,2.709967643022537231e-02,2.444385178387165070e-02,-2.277120761573314667e-02,-4.048985429108142853e-03,2.700177580118179321e-02,-1.117007620632648468e-02,4.464010149240493774e-02,-1.133233774453401566e-02,-3.476727753877639771e-02,8.038523606956005096e-03,2.183917909860610962e-03,-3.400639817118644714e-02,5.203132517635822296e-03,-4.240287095308303833e-02,2.099848538637161255e-02,1.878540962934494019e-02,2.469284832477569580e-02,-1.976451463997364044e-02,3.450094908475875854e-02,2.743206173181533813e-02,-7.359865121543407440e-03,1.604232937097549438e-02,1.452429778873920441e-02,2.064870297908782959e-02,-2.049261331558227539e-02,2.797757089138031006e-02,-2.796009369194507599e-02,1.751476153731346130e-02,1.955503411591053009e-02,6.282777525484561920e-03,1.132587995380163193e-02,1.324626430869102478e-02,4.512357339262962341e-02,4.123211652040481567e-02,-3.454073099419474602e-03,2.404223196208477020e-02,1.368742785416543484e-03,2.684787474572658539e-02,2.449981123208999634e-02,3.248449042439460754e-02,-1.769802533090114594e-02,2.724543400108814240e-02,3.963432833552360535e-02,1.004986697807908058e-03,1.111255143769085407e-03,-3.606133908033370972e-02,4.670875146985054016e-02,-2.655977010726928711e-02,-7.752086967229843140e-02,3.788406774401664734e-02,4.611410573124885559e-02,-2.784666605293750763e-02,4.638935253024101257e-02,4.260949045419692993e-02,4.780780896544456482e-02,-3.678489848971366882e-02,3.305268287658691406e-02,-2.498283423483371735e-02,1.272142212837934494e-02,-1.658257655799388885e-02,3.124577924609184265e-02,1.842172630131244659e-02,3.535745665431022644e-02,-3.260142728686332703e-02,2.777509950101375580e-02,-1.773850060999393463e-02,3.119476512074470520e-02,-7.507187314331531525e-03,-9.285611100494861603e-03,-5.232356116175651550e-02,-2.323051681742072105e-03,1.145497150719165802e-02,3.934695199131965637e-02,8.042372646741569042e-04,9.569140151143074036e-03,8.615074679255485535e-03,-3.521804884076118469e-02,-2.387887053191661835e-02,3.625221550464630127e-02,3.847177699208259583e-02,1.718462631106376648e-02,8.913978002965450287e-03,3.530288813635706902e-03,3.608426824212074280e-02,3.280433267354965210e-02,-3.318320587277412415e-02,2.852451242506504059e-02,6.337162340059876442e-04,8.052037097513675690e-03,-6.310667376965284348e-03,4.206550493836402893e-02,-1.891068555414676666e-02,1.033790595829486847e-02,-2.249471470713615417e-02,7.101269904524087906e-03,4.100480582565069199e-03,-2.039542794227600098e-02,6.248030345886945724e-03,-3.886831551790237427e-02,2.897404506802558899e-02,-5.274531431496143341e-03,-3.189174085855484009e-02,-4.401033744215965271e-03,-1.574004068970680237e-02,2.658192627131938934e-02,-1.346788648515939713e-02,4.379753395915031433e-02,-3.069959394633769989e-02,-4.174728877842426300e-03,1.883839257061481476e-02,8.523531723767518997e-04,-2.335821464657783508e-02,3.387812525033950806e-02,-1.618847809731960297e-02,-1.814456842839717865e-02,2.520664595067501068e-02,-2.940368838608264923e-02,9.537938050925731659e-03,-3.115449845790863037e-02,3.373353183269500732e-02,7.944503799080848694e-03,-4.521100223064422607e-02,2.100211381912231445e-02,4.017391800880432129e-02,4.357453063130378723e-02,3.829954890534281731e-03,1.363096106797456741e-02,3.639311343431472778e-02,4.052405804395675659e-02,1.677698455750942230e-02,3.534877300262451172e-02,2.588906884193420410e-02,2.380434051156044006e-02,4.017762467265129089e-02,-3.391163423657417297e-02,-1.364688389003276825e-02,1.045536063611507416e-02,4.196218214929103851e-03,-3.374005481600761414e-02,-2.843233756721019745e-02,6.289413198828697205e-03,3.243535757064819336e-02,4.257539287209510803e-02,-1.627686200663447380e-03,2.380521036684513092e-02,3.809866309165954590e-02,-9.099525399506092072e-03,-1.527236781839746982e-05,-2.229961939156055450e-02,1.093938481062650681e-02,-1.176367164589464664e-03,1.923975907266139984e-02,6.457526236772537231e-03,5.627159401774406433e-02,2.735679410398006439e-02,1.858934015035629272e-02,1.790240989066660404e-03,3.159397840499877930e-02,3.352364897727966309e-02,2.282251976430416107e-02,4.457670822739601135e-02,2.652816008776426315e-03,8.621194399893283844e-03,1.482911314815282822e-02,-2.864475920796394348e-02,-3.301757620647549629e-03,3.952309198211878538e-04,4.916409775614738464e-02,4.228154942393302917e-02,4.064988344907760620e-02,-1.750585064291954041e-02,4.777599871158599854e-02,5.681725218892097473e-03,2.437505684792995453e-02,-1.294765342026948929e-02,-3.289178013801574707e-02,2.543611079454421997e-02,2.909712493419647217e-02,2.193871326744556427e-02
