2.252968214452266693e-02,1.171546895056962967e-02,9.212954342365264893e-02,-9.136237204074859619e-02,-1.205730214715003967e-01,8.082579076290130615e-02,1.610989309847354889e-02,-2.094463445246219635e-03,7.532621920108795166e-02,-6.427155807614326477e-03,-5.043093487620353699e-02,1.078358143568038940e-01,1.005095764994621277e-01,-1.185510214418172836e-02,-3.299618139863014221e-02,2.385854348540306091e-02,-5.705807730555534363e-02,9.375999867916107178e-02,-3.991266712546348572e-03,-6.789522618055343628e-02,1.207815203815698624e-02,3.875245526432991028e-02,-4.955454915761947632e-02,2.467739954590797424e-02,-2.787016564980149269e-03,2.342959679663181305e-02,4.100165143609046936e-02,6.454682443290948868e-04,-2.128638513386249542e-02,6.769994646310806274e-02,-6.004835292696952820e-02,6.413913518190383911e-02,-5.984632670879364014e-02,3.269799798727035522e-02,-1.905211620032787323e-02,2.358560636639595032e-02,5.047128349542617798e-02,-3.027609363198280334e-02,7.484088093042373657e-02,3.290853276848793030e-02,-2.646356634795665741e-02,-6.939367949962615967e-02,2.773089706897735596e-02,7.515375036746263504e-03,-8.696653880178928375e-03,3.267263248562812805e-02,-1.055034250020980835e-01,-5.879317969083786011e-02,-8.621859550476074219e-02,5.434101913124322891e-04,-3.140802308917045593e-02,3.650837764143943787e-02,-1.734018176794052124e-01,-7.239172235131263733e-03,-3.709217533469200134e-02,-1.232256833463907242e-02
