4.259940609335899353e-02,-2.849952783435583115e-03,3.322097659111022949e-02,2.467938885092735291e-02,-4.430039972066879272e-02,1.402090862393379211e-02,-8.628104813396930695e-03,3.463566303253173828e-02,1.883118972182273865e-02,9.950231760740280151e-03,-4.490447044372558594e-02,-5.028252676129341125e-02,1.767486683093011379e-03,1.760650612413883209e-02,2.291209297254681587e-03,-5.112007260322570801e-02,3.180333971977233887e-02,-4.879155661910772324e-03,-3.971968218684196472e-02,7.747967541217803955e-02,-1.979060284793376923e-02,5.807688459753990173e-02,4.528765007853507996e-02,-1.849100366234779358e-02,-1.692016422748565674e-02,1.806621439754962921e-02,-4.249183461070060730e-03,5.339989811182022095e-02,2.380234934389591217e-02,-3.221748396754264832e-02,-3.827197477221488953e-02,2.960902452468872070e-02,-1.358732767403125763e-02,7.225955370813608170e-03,3.629505261778831482e-02,2.686912007629871368e-02,4.041455313563346863e-02,9.867124259471893311e-03,5.101028457283973694e-02,6.250371783971786499e-02,2.781846001744270325e-02,1.886281743645668030e-02,-8.996302261948585510e-03,4.145664349198341370e-02,-1.554625341668725014e-04,-4.072911106050014496e-03,1.350958086550235748e-02,5.202449858188629150e-02,5.349196493625640869e-02,6.600967794656753540e-02,4.800373688340187073e-02,3.988545760512351990e-02,3.241150826215744019e-02,5.940229073166847229e-02,-1.277303323149681091e-03,1.437319070100784302e-02,-4.279421642422676086e-02,6.338801234960556030e-02,4.462524130940437317e-02,1.403219066560268402e-02,4.574987292289733887e-02,1.130836922675371170e-02,-1.279641035944223404e-02,7.129472494125366211e-02,3.226107731461524963e-02,6.704778224229812622e-02,3.390562534332275391e-02,2.523206174373626709e-02,-1.570101082324981689e-02,-2.750097541138529778e-03,-2.780404128134250641e-02,2.941288426518440247e-02,2.676653675734996796e-02,3.924471884965896606e-02,-4.714783746749162674e-03,-1.407125592231750488e-02,-2.182532334700226784e-03,3.001601807773113251e-02,-6.378270685672760010e-02,1.736315339803695679e-02,-2.201325632631778717e-02,5.215119570493698120e-02,5.502451583743095398e-02,-5.480175465345382690e-02,4.878649488091468811e-02,2.711765468120574951e-02,6.060304120182991028e-02,-1.076327636837959290e-02,1.344734220765531063e-03,8.081221953034400940e-03,4.241331294178962708e-02,-6.025560200214385986e-03,7.347371429204940796e-02,1.161507517099380493e-02,3.600287809967994690e-02,-1.383385714143514633e-02,1.306999707594513893e-03,-9.643500670790672302e-03,8.200779557228088379e-03,1.674325950443744659e-02,-1.974961534142494202e-02,1.635568961501121521e-02,1.763357594609260559e-02,4.871166497468948364e-02,4.176421836018562317e-02,4.742952063679695129e-02,3.594628348946571350e-02,2.828251942992210388e-02,-2.781193004921078682e-03,2.965132333338260651e-02,-9.461268782615661621e-03,7.317119836807250977e-02,-1.532463915646076202e-02,4.821022599935531616e-02,-2.479574410244822502e-03,-4.433135688304901123e-02,-4.323455318808555603e-02,5.606846138834953308e-02,-6.267188489437103271e-02,2.224075794219970703e-02,-2.401684597134590149e-02,3.167663887143135071e-02,4.379689693450927734e-02,5.724271386861801147e-02,6.233567744493484497e-02,-2.434725500643253326e-02,-3.334668651223182678e-02,-7.167346775531768799e-04,-2.783236093819141388e-02,3.294102614745497704e-03,3.210137784481048584e-02,-4.349972307682037354e-02,2.740780450403690338e-02,-2.620776928961277008e-02,2.751193940639495850e-02,1.311941724270582199e-02,2.519494481384754181e-02,1.557626761496067047e-02,6.203156430274248123e-03,6.156069692224264145e-03,4.530439898371696472e-02,3.224178031086921692e-02,4.720799997448921204e-02,-1.152624655514955521e-02,3.325103595852851868e-02,-4.129081964492797852e-02,9.040544927120208740e-02,1.367394998669624329e-02,1.969552040100097656e-02,-3.510602936148643494e-02,1.512095611542463303e-02,-2.129383757710456848e-02,6.396561861038208008e-03,4.448729008436203003e-02,3.093397244811058044e-02,-4.669292643666267395e-02,-2.679734863340854645e-02,4.582557082176208496e-02,4.480567947030067444e-02,5.719991028308868408e-02,-2.066370286047458649e-02,-1.051753852516412735e-02,5.223756656050682068e-02,-1.356607209891080856e-02,9.755784645676612854e-03,-3.581450507044792175e-02,3.098428249359130859e-02,-1.160603482276201248e-02,3.926579654216766357e-02,-4.201374948024749756e-03,3.552132099866867065e-02,7.974467240273952484e-03,-2.311727218329906464e-02,-1.404490601271390915e-02,-3.573561087250709534e-02,3.177267685532569885e-02,9.229061193764209747e-03,-2.529399096965789795e-02,7.109591364860534668e-02,-7.212791591882705688e-03,-3.673199936747550964e-02,1.491095498204231262e-02,6.361766159534454346e-02,5.083241686224937439e-02,-2.346177119761705399e-03,-1.974696479737758636e-02,2.880211547017097473e-02,5.471672862768173218e-02,-3.172482596710324287e-03,6.940129213035106659e-03,6.808739155530929565e-02,-1.897017122246325016e-03,-2.803572267293930054e-02,-1.389372162520885468e-02,1.094861980527639389e-02,1.135500613600015640e-02,2.925450913608074188e-02,7.674697041511535645e-02,-1.087335124611854553e-02,-4.025858268141746521e-02
