-4.250899888575077057e-03,7.717794924974441528e-02,6.067712232470512390e-02,5.914109200239181519e-02,7.708419114351272583e-02,2.006855420768260956e-02,-4.590119794011116028e-02,7.336541311815381050e-04,1.122753974050283432e-02,5.804634839296340942e-02,3.843304142355918884e-02,6.802729796618223190e-03,-3.584656491875648499e-02,2.671920880675315857e-02,1.437459327280521393e-02,-3.590755909681320190e-02,-9.961007535457611084e-02,2.273559104651212692e-03,-4.106668382883071899e-02,1.162514835596084595e-02,-3.757025348022580147e-03,5.921446532011032104e-02,-2.226799726486206055e-02,1.787709444761276245e-02,-2.129660546779632568e-02,-5.751333199441432953e-03,7.246068865060806274e-02,-1.000759974122047424e-01,-6.036660075187683105e-02,-5.256158858537673950e-02,-1.135774794965982437e-02,1.257162094116210938e-01,9.575780481100082397e-03,-1.104400902986526489e-01,4.548192769289016724e-02,2.184914797544479370e-02,4.472329467535018921e-02,4.446556046605110168e-02,3.037565574049949646e-02,3.699222952127456665e-02,3.294385224580764771e-02,7.047997787594795227e-03,3.427971526980400085e-02,1.772201620042324066e-02,8.139919489622116089e-02,1.059539616107940674e-02,-1.467722095549106598e-02,3.055685944855213165e-02,2.069128490984439850e-02,-1.840783283114433289e-02,-9.985342621803283691e-03,-7.047274708747863770e-02,-5.405016243457794189e-02,1.449949294328689575e-02,7.078080624341964722e-02,-4.719855636358261108e-02,3.049834817647933960e-02,9.016983211040496826e-02,-5.095205828547477722e-02,-1.137980669736862183e-01,-4.307153820991516113e-02,1.021000966429710388e-01,4.143863171339035034e-02,-7.030200958251953125e-02,-7.811409980058670044e-02,4.048668593168258667e-02,-4.843964427709579468e-02,-1.514448821544647217e-01,-4.509286489337682724e-03,5.675625428557395935e-02,-6.331245601177215576e-02,3.305257484316825867e-02,3.847028687596321106e-02,-6.825467944145202637e-02,4.469108209013938904e-02,-9.335527569055557251e-02,-1.021775677800178528e-01,-1.485872082412242889e-02,3.223626315593719482e-02,-2.744505368173122406e-02,-6.646630167961120605e-02,-9.763345122337341309e-02,5.009124055504798889e-02,-6.878596544265747070e-02,-6.588165462017059326e-02,-1.145436428487300873e-02,-4.807301983237266541e-02,-2.198903076350688934e-02,-6.762205064296722412e-02,-2.351401560008525848e-02,-2.455999888479709625e-02,-4.066967219114303589e-02,1.621173880994319916e-02,8.076258003711700439e-02,4.895764961838722229e-02,-6.639090925455093384e-02,-1.679561659693717957e-02,-1.651767455041408539e-02,-6.575518287718296051e-03,-2.891956642270088196e-02,-2.731055393815040588e-02,-1.611273176968097687e-02,-7.969891652464866638e-03,-1.587973558343946934e-03,-8.873189799487590790e-03,1.018702425062656403e-02,5.485123954713344574e-03,5.580166727304458618e-02,3.979099914431571960e-02,8.035380393266677856e-02,5.746523290872573853e-02,7.050372660160064697e-02,7.275459915399551392e-02,6.233511492609977722e-02,-3.047539852559566498e-02,5.996393784880638123e-02,4.586346819996833801e-02,1.379122398793697357e-02,-2.227569930255413055e-02,7.783655077219009399e-02,6.966005265712738037e-02,-5.739176273345947266e-02,3.362819179892539978e-02,3.840029006823897362e-03,-5.520582571625709534e-02,-3.913927450776100159e-02,1.902146451175212860e-02,2.786710113286972046e-02,1.285245120525360107e-01,-1.020041033625602722e-01,2.509137149900197983e-03,9.846216998994350433e-03,-6.327754817903041840e-05,3.331121802330017090e-02,-6.919443607330322266e-02,3.668646886944770813e-02,2.286213450133800507e-02,-7.748835533857345581e-02,3.981860727071762085e-02,1.900687813758850098e-03,4.665756598114967346e-02,-5.232190340757369995e-02,-4.419980570673942566e-02
1.941512152552604675e-02,-7.544086128473281860e-02,3.448080737143754959e-03,6.964097917079925537e-02,5.221474915742874146e-03,-3.038136847317218781e-02,-5.142509564757347107e-02,3.809271007776260376e-02,5.582254379987716675e-02,2.923730760812759399e-02,-2.204030193388462067e-02,-8.816204965114593506e-02,-1.487544924020767212e-02,2.191450260579586029e-02,1.207228824496269226e-01,9.088087081909179688e-02,1.127600222826004028e-01,-2.995007298886775970e-02,-3.292463719844818115e-02,-4.754105210304260254e-02,-3.219147026538848877e-02,-1.467319205403327942e-02,-5.126168951392173767e-02,4.177174717187881470e-02,7.663064636290073395e-03,5.168837308883666992e-02,-3.433510137256234884e-04,-4.502921551465988159e-02,-5.682976543903350830e-02,-6.464011967182159424e-02,-4.835529997944831848e-02,9.509615600109100342e-02,-4.591054096817970276e-02,-3.370407223701477051e-02,6.497525423765182495e-02,5.766948312520980835e-02,1.087619550526142120e-02,1.610316708683967590e-02,2.414502436295151711e-03,9.932756423950195312e-02,8.714994043111801147e-02,2.333570457994937897e-02,-2.326239272952079773e-02,-6.432799994945526123e-02,-4.580975323915481567e-02,1.040496770292520523e-02,-4.042374342679977417e-02,4.427973553538322449e-02,4.070999100804328918e-02,-1.575636863708496094e-02,7.119003683328628540e-02,1.746074855327606201e-02,-5.147031322121620178e-02,5.518210306763648987e-02,1.602575927972793579e-01,1.497211456298828125e-01,5.490996409207582474e-03,6.338208168745040894e-02,1.929110102355480194e-02,5.812977999448776245e-02,9.587831795215606689e-02,6.776922196149826050e-02,1.018560901284217834e-01,8.605121634900569916e-03,-3.941243514418601990e-02,6.428812444210052490e-02,3.856126219034194946e-02,-1.697153598070144653e-02,-4.393068701028823853e-02,4.007316008210182190e-02,-1.090178191661834717e-01,9.091601707041263580e-03,3.291610255837440491e-02,-4.049840196967124939e-02,6.999688223004341125e-03,-4.721800796687602997e-03,5.441199615597724915e-02,1.108200922608375549e-01,-4.962106794118881226e-02,1.004614159464836121e-01,1.334357708692550659e-01,9.808335453271865845e-02,5.835871770977973938e-02,1.880071163177490234e-01,4.209881648421287537e-02,1.165437772870063782e-01,-1.062854379415512085e-01,2.122176252305507660e-02,6.677842140197753906e-02,-7.009603828191757202e-02,-8.018596470355987549e-02,-3.413970395922660828e-02,8.142011612653732300e-02,-1.765962503850460052e-02,-1.916392892599105835e-02,9.869764745235443115e-02,-6.284815073013305664e-02,-3.083637170493602753e-02,3.799600154161453247e-02,-2.318913862109184265e-02,2.374529652297496796e-02,3.517392789945006371e-03,4.720613826066255569e-03,1.828201301395893097e-02,8.097485452890396118e-02,3.629613295197486877e-02,2.742659859359264374e-02,1.747635006904602051e-02,3.733662515878677368e-02,-1.150690577924251556e-02,1.070455610752105713e-01,-9.389460831880569458e-02,6.580246984958648682e-02,1.138033438473939896e-02,6.105470657348632812e-02,-5.416353791952133179e-02,-1.302551627159118652e-01,-3.352602124214172363e-01,2.660623984411358833e-03,3.059920854866504669e-02,1.929582841694355011e-02,6.689529120922088623e-02,-2.269173786044120789e-02,9.750925237312912941e-04,-1.231385767459869385e-02,-4.426191374659538269e-02,-8.573419600725173950e-02,-1.073649004101753235e-01,6.146916747093200684e-02,3.798013553023338318e-02,5.739059299230575562e-02,-2.291893213987350464e-02,2.314205467700958252e-02,-4.542803764343261719e-02,-7.786091417074203491e-02,2.782068587839603424e-02,-3.541134996339678764e-03,-5.142218992114067078e-02,-2.250331640243530273e-02,-4.482171684503555298e-02,7.986833341419696808e-03,-6.705559045076370239e-02,-5.022355169057846069e-02
-8.628956973552703857e-02,8.167150616645812988e-02,4.406787827610969543e-02,-1.940148696303367615e-02,-6.728335469961166382e-02,-6.101132556796073914e-02,-5.365606397390365601e-02,-2.684224210679531097e-02,-5.145116522908210754e-02,-3.120387531816959381e-02,8.220029994845390320e-03,8.231931179761886597e-02,1.077861338853836060e-02,-2.095886692404747009e-02,-2.623263187706470490e-02,4.203512519598007202e-02,-1.987887360155582428e-02,-1.386096887290477753e-02,1.668754382990300655e-03,4.743794444948434830e-03,1.565137319266796112e-02,-1.280259247869253159e-02,9.019801765680313110e-02,-4.777454584836959839e-02,5.807853490114212036e-02,1.387462671846151352e-02,-4.340656101703643799e-02,1.021299976855516434e-02,2.456182986497879028e-02,6.538704037666320801e-03,-3.474299446679651737e-04,3.042733483016490936e-02,7.119414955377578735e-02,-7.698513567447662354e-02,-5.014822352677583694e-03,6.364241708070039749e-03,3.210972994565963745e-02,-1.089163403958082199e-02,1.511847414076328278e-02,-1.453130040317773819e-02,-1.157366950064897537e-02,-5.859611928462982178e-02,-3.728685155510902405e-02,1.579951681196689606e-02,5.486904829740524292e-02,1.422945223748683929e-02,-9.022575803101062775e-03,-8.923360146582126617e-03,-1.763337291777133942e-02,6.063063442707061768e-02,3.828800842165946960e-02,7.759008556604385376e-03,-1.300312299281358719e-02,8.930155076086521149e-03,1.886766590178012848e-02,2.374682808294892311e-03,-2.097105793654918671e-02,-9.908151812851428986e-03,-2.164910174906253815e-02,4.211053624749183655e-02,6.464235484600067139e-02,-6.520008295774459839e-02,-4.107847635168582201e-04,-1.931111067533493042e-01,4.992267489433288574e-02,7.983873039484024048e-02,6.526527460664510727e-03,2.895362302660942078e-02,6.503694504499435425e-02,7.265319675207138062e-02,2.549650147557258606e-02,-6.040267273783683777e-02,-4.925057757645845413e-03,-3.454738855361938477e-02,-6.072025280445814133e-04,-1.746178418397903442e-02,6.306719034910202026e-02,-1.687515713274478912e-02,4.860479012131690979e-02,-1.055925711989402771e-02,7.275034487247467041e-02,6.684190779924392700e-02,1.386120915412902832e-02,-2.833396755158901215e-02,6.858748942613601685e-02,-6.898754509165883064e-04,-7.845858484506607056e-02,2.889543771743774414e-02,5.305394530296325684e-02,7.518015336245298386e-03,-4.183725640177726746e-02,-3.803851315751671791e-03,-3.835598751902580261e-02,-7.004038989543914795e-02,5.519639328122138977e-02,1.022372953593730927e-02,-2.033594250679016113e-02,-2.049976587295532227e-02,-1.407865900546312332e-03,-7.160558365285396576e-03,-2.783196046948432922e-02,-3.625447303056716919e-02,-2.082136273384094238e-02,-1.714273728430271149e-02,1.126876845955848694e-02,7.086559385061264038e-02,2.757383277639746666e-03,-8.989070542156696320e-03,4.539221152663230896e-02,1.054934114217758179e-01,-2.595857530832290649e-02,-9.770399332046508789e-02,3.282674401998519897e-02,4.205314442515373230e-02,1.586458459496498108e-02,4.281424358487129211e-02,1.040727943181991577e-01,2.724919095635414124e-02,-6.242388859391212463e-02,1.891928166151046753e-02,7.427480816841125488e-02,-1.940145157277584076e-02,-2.520217560231685638e-03,7.030186057090759277e-02,8.961455896496772766e-03,-4.647636786103248596e-02,-3.690722957253456116e-02,9.448940865695476532e-03,2.006966620683670044e-02,-1.133188046514987946e-02,4.308093339204788208e-02,5.348335579037666321e-02,-1.097552850842475891e-01,9.086378663778305054e-02,2.746510691940784454e-02,3.511736914515495300e-02,-4.021825268864631653e-02,3.502435982227325439e-02,-2.564802207052707672e-02,9.145782096311450005e-04,-4.217397794127464294e-02,-5.013994127511978149e-02,-6.487600505352020264e-02
-1.961944438517093658e-02,2.483896911144256592e-02,-9.684128314256668091e-02,6.231182720512151718e-03,8.600694686174392700e-02,2.849404234439134598e-03,5.161835998296737671e-02,-1.377177890390157700e-02,-6.775265187025070190e-02,6.778687238693237305e-02,7.908951491117477417e-02,3.825458884239196777e-02,-2.200779877603054047e-02,6.686910241842269897e-02,-8.223488926887512207e-02,-2.024491131305694580e-01,-1.289627403020858765e-01,-2.195414155721664429e-02,1.544032618403434753e-02,6.704603880643844604e-02,-6.438594311475753784e-02,-1.194205600768327713e-02,2.126173824071884155e-01,3.387003205716609955e-03,3.028786368668079376e-02,3.520200029015541077e-02,9.703334420919418335e-02,1.217468827962875366e-01,1.104911044239997864e-01,1.218419373035430908e-01,-1.351043134927749634e-01,1.032207533717155457e-01,8.889956772327423096e-02,7.249372452497482300e-02,2.608115971088409424e-02,-7.096759043633937836e-03,-8.668993599712848663e-03,-9.740037843585014343e-03,-1.091320719569921494e-02,-5.191567912697792053e-02,-5.739739537239074707e-02,-2.272932976484298706e-02,-6.695062853395938873e-03,4.374395310878753662e-02,-2.286038920283317566e-02,2.146020345389842987e-02,2.460529841482639313e-02,-2.304771170020103455e-02,-4.419239703565835953e-03,-1.387557107955217361e-02,-3.942411020398139954e-02,8.633904904127120972e-02,3.364462032914161682e-02,1.220810860395431519e-01,-2.273545861244201660e-01,-6.041378527879714966e-02,1.424016803503036499e-01,-6.480301171541213989e-02,-2.854399569332599640e-02,-2.701118402183055878e-02,-1.463808715343475342e-01,-2.138311564922332764e-01,-8.739072084426879883e-02,-1.475106477737426758e-01,-4.441340640187263489e-02,2.249759435653686523e-02,2.680175378918647766e-02,-1.511973589658737183e-01,-5.051093548536300659e-02,-7.085252553224563599e-02,-6.448018550872802734e-02,-3.665821254253387451e-02,-4.729814827442169189e-03,4.767140839248895645e-03,1.245299261063337326e-02,6.445568054914474487e-03,5.819524079561233521e-02,7.221360504627227783e-02,-8.070638403296470642e-03,1.303414702415466309e-01,9.214353561401367188e-02,1.437632739543914795e-01,1.201161667704582214e-01,2.196522662416100502e-03,2.745724841952323914e-02,1.220383942127227783e-01,4.546914622187614441e-02,-1.882324963808059692e-01,-6.496006995439529419e-02,2.037589065730571747e-02,2.181254094466567039e-03,-4.526358097791671753e-02,-2.603119611740112305e-02,3.904444351792335510e-02,2.259047888219356537e-02,6.639613304287195206e-03,-9.740427881479263306e-02,7.759047206491231918e-03,1.611558496952056885e-01,-8.594307303428649902e-02,4.376656934618949890e-02,2.011360786855220795e-02,2.670181915163993835e-02,2.435950748622417450e-02,1.134896948933601379e-01,1.250435411930084229e-01,1.091840416193008423e-01,1.027206145226955414e-02,-5.644383374601602554e-03,3.134650364518165588e-02,2.856597863137722015e-02,2.610262017697095871e-03,1.199019327759742737e-01,9.897639602422714233e-02,5.978681519627571106e-02,1.145538315176963806e-01,1.059718988835811615e-02,-5.322101991623640060e-03,9.815612435340881348e-02,3.902817144989967346e-02,3.287433087825775146e-02,-1.293746475130319595e-02,3.386034443974494934e-02,1.177273243665695190e-01,3.732847794890403748e-02,3.346570581197738647e-02,4.960384592413902283e-02,5.801876261830329895e-02,-6.631686538457870483e-02,5.479618534445762634e-02,-8.260581642389297485e-03,-6.866795569658279419e-02,5.730639025568962097e-02,-1.499825529754161835e-02,4.742468148469924927e-02,9.776879847049713135e-02,8.908642828464508057e-02,-1.004014015197753906e-01,-4.390541464090347290e-03,3.072790801525115967e-02,2.038948610424995422e-02,1.323542743921279907e-01,1.439333111047744751e-01
-1.153071504086256027e-02,-5.480193719267845154e-02,3.412304818630218506e-02,9.603340923786163330e-02,-5.277347285300493240e-03,-7.105561438947916031e-03,-2.164703095331788063e-03,-1.246896293014287949e-02,-6.895571202039718628e-02,5.265383515506982803e-03,2.897574566304683685e-02,2.717477083206176758e-02,-1.196374371647834778e-02,3.451662510633468628e-02,5.101982131600379944e-02,5.235635489225387573e-02,7.820113748311996460e-02,4.742724075913429260e-02,-3.143515903502702713e-03,-7.311053574085235596e-03,1.007892191410064697e-01,-5.062836036086082458e-02,-6.729745119810104370e-02,2.968936413526535034e-02,-6.246324628591537476e-04,2.128350548446178436e-02,5.853004753589630127e-02,1.081901267170906067e-01,3.209677711129188538e-02,8.421739935874938965e-02,-7.555286865681409836e-04,2.702817320823669434e-02,9.349071979522705078e-02,9.593912214040756226e-02,-2.492536092177033424e-03,-2.770481444895267487e-02,-3.269235789775848389e-02,-2.617147006094455719e-02,-2.779633738100528717e-02,9.575368463993072510e-02,5.215390026569366455e-02,2.170616947114467621e-02,4.412312805652618408e-02,-9.397023357450962067e-03,-3.275784105062484741e-02,-3.130985796451568604e-02,-6.388748437166213989e-02,-1.191810355521738529e-03,1.854122057557106018e-02,3.010636568069458008e-02,-3.435932099819183350e-02,3.687090938910841942e-04,1.074039656668901443e-02,6.333509087562561035e-02,3.175929561257362366e-02,1.213179379701614380e-01,-4.789357259869575500e-02,-1.757224835455417633e-02,-1.102120950818061829e-01,1.621732488274574280e-02,-6.083441898226737976e-02,-1.147182192653417587e-02,-8.876313222572207451e-04,2.836423926055431366e-02,-2.581975131761282682e-04,-8.877692371606826782e-02,7.012224197387695312e-02,4.729789867997169495e-02,-8.709630370140075684e-02,4.709473624825477600e-02,4.947717115283012390e-02,4.357230290770530701e-02,6.891051679849624634e-02,-2.407161664450541139e-04,2.232288755476474762e-02,5.618229135870933533e-02,3.709326684474945068e-02,2.159312739968299866e-02,-8.057597093284130096e-03,5.043695494532585144e-02,-1.399857643991708755e-02,-3.489134088158607483e-02,4.156280681490898132e-02,-1.201651804149150848e-02,2.224026434123516083e-02,3.441759198904037476e-02,1.041076481342315674e-01,2.062203921377658844e-02,6.888555735349655151e-02,1.572449505329132080e-02,4.155024141073226929e-02,8.490188419818878174e-02,1.742422394454479218e-02,-8.622992783784866333e-03,4.154232516884803772e-02,-4.966962337493896484e-02,6.256669014692306519e-02,-5.519995000213384628e-03,1.394614130258560181e-01,-2.807138860225677490e-02,-3.371926397085189819e-02,5.495530087500810623e-03,-8.132260292768478394e-03,-2.044043736532330513e-03,1.055753510445356369e-02,-1.300897262990474701e-02,3.750102361664175987e-03,-2.347385743632912636e-03,-3.776077181100845337e-02,-3.862851113080978394e-02,4.474435746669769287e-02,7.878913544118404388e-03,-2.296786755323410034e-02,-2.012337371706962585e-02,-2.486266382038593292e-02,3.664127085357904434e-03,7.013848423957824707e-02,3.262760862708091736e-02,1.643598894588649273e-03,3.173358738422393799e-02,-4.430711735039949417e-03,4.285747930407524109e-02,3.693185374140739441e-02,6.961066741496324539e-03,8.360222913324832916e-03,2.012327127158641815e-02,3.384576737880706787e-02,-5.207281932234764099e-02,-1.446326673030853271e-01,-7.565188221633434296e-03,-1.328357011079788208e-01,-1.005208045244216919e-01,-4.931336268782615662e-02,4.308526217937469482e-02,-6.072128936648368835e-02,-7.566466461867094040e-03,9.203928709030151367e-02,3.639811417087912560e-03,-4.229605570435523987e-02,7.665717601776123047e-02,-1.425603870302438736e-02,5.513903498649597168e-02,1.070191264152526855e-01
4.283595364540815353e-03,-1.802357286214828491e-02,-2.067509144544601440e-01,-1.355152428150177002e-01,-4.492162726819515228e-03,2.567152492702007294e-02,-7.073043286800384521e-02,-6.158071756362915039e-02,-1.856499165296554565e-02,5.994093790650367737e-02,1.427680812776088715e-02,-2.359079942107200623e-02,-3.274591581430286169e-04,5.455876886844635010e-02,7.373219728469848633e-02,5.957779288291931152e-02,9.325948357582092285e-02,1.161566823720932007e-01,-1.380404736846685410e-02,2.817997895181179047e-02,8.607066422700881958e-02,5.635163560509681702e-02,8.052425086498260498e-02,-2.660210244357585907e-02,-2.072754316031932831e-02,6.850575096905231476e-03,4.365263879299163818e-02,2.137505635619163513e-02,-1.090274751186370850e-01,-3.674435662105679512e-03,1.003117579966783524e-02,5.287819076329469681e-03,6.646934896707534790e-03,1.357482373714447021e-01,-7.480174768716096878e-03,7.895937189459800720e-03,2.468636073172092438e-02,1.061446685343980789e-02,2.017061691731214523e-03,1.197111234068870544e-01,1.036850064992904663e-01,8.102816343307495117e-02,5.469284951686859131e-02,1.153486408293247223e-02,2.329499647021293640e-02,-1.447633840143680573e-02,-5.626057460904121399e-02,8.698995411396026611e-02,7.782556116580963135e-02,4.987450316548347473e-02,9.350939840078353882e-02,4.294612631201744080e-02,7.616117596626281738e-02,-2.694154083728790283e-01,1.537283696234226227e-02,-3.941704332828521729e-02,4.327784106135368347e-02,3.551485762000083923e-02,8.385012298822402954e-02,2.566169202327728271e-02,2.485505118966102600e-02,-1.437555905431509018e-02,-2.004316635429859161e-02,-1.814640909433364868e-01,-4.847789183259010315e-02,-1.722932979464530945e-02,2.296587452292442322e-02,-1.046368405222892761e-01,6.659349799156188965e-02,1.865591155365109444e-03,7.365113496780395508e-02,1.310037076473236084e-01,-5.142483487725257874e-02,-5.422500520944595337e-02,9.176985174417495728e-02,4.786998033523559570e-02,3.348636254668235779e-02,5.343816056847572327e-02,9.437545388936996460e-02,1.511068735271692276e-02,6.058427318930625916e-02,-3.765849396586418152e-02,3.416500613093376160e-02,-1.569164730608463287e-02,-5.339480005204677582e-03,-6.416758149862289429e-02,5.695621017366647720e-03,7.049699872732162476e-02,-5.429055169224739075e-02,4.357063025236129761e-02,4.367439821362495422e-02,1.862411573529243469e-02,2.750616148114204407e-02,5.364542827010154724e-02,3.072250261902809143e-02,-2.765448950231075287e-02,4.805262014269828796e-02,3.987788036465644836e-02,1.545994281768798828e-01,-4.030045494437217712e-02,6.394007708877325058e-03,-4.667974542826414108e-03,2.891040872782468796e-03,1.101238280534744263e-02,-1.084084361791610718e-01,-7.678721845149993896e-02,3.055666200816631317e-02,1.197751984000205994e-02,-4.071075841784477234e-02,2.791935577988624573e-02,1.175206154584884644e-02,3.371054679155349731e-02,1.043976098299026489e-02,-1.270211418159306049e-03,-3.949500154703855515e-03,5.953039228916168213e-02,1.062997430562973022e-01,6.994380801916122437e-02,4.620968177914619446e-02,7.907659560441970825e-02,-6.338518857955932617e-02,-1.851584576070308685e-02,-1.356601994484663010e-02,1.601029336452484131e-01,-1.891464926302433014e-02,7.511544041335582733e-03,5.152466148138046265e-02,2.612187899649143219e-02,-1.269954070448875427e-02,-1.010536774992942810e-01,3.376312088221311569e-03,2.066743373870849609e-02,-2.117946371436119080e-02,-2.435050159692764282e-02,-1.107308641076087952e-01,3.904167935252189636e-02,-8.405888080596923828e-02,3.463981151580810547e-01,2.531720697879791260e-01,1.459718495607376099e-02,-1.091395169496536255e-01,3.606041148304939270e-02,-7.349520176649093628e-02
9.713357314467430115e-03,2.311476506292819977e-03,8.076895028352737427e-02,9.210398048162460327e-02,-6.038859114050865173e-02,-3.675732389092445374e-02,2.096492424607276917e-02,7.059444487094879150e-02,-8.067158609628677368e-02,-5.236503109335899353e-02,7.460308261215686798e-04,9.451102465391159058e-02,1.525032147765159607e-02,-1.835937611758708954e-02,-1.127509307116270065e-02,4.172403737902641296e-02,-7.727915793657302856e-02,1.092161238193511963e-01,1.513084769248962402e-02,-7.993666082620620728e-02,8.212645351886749268e-02,4.946124181151390076e-02,-5.009416863322257996e-02,7.711463421583175659e-02,4.197496920824050903e-02,3.913671709597110748e-03,6.662364304065704346e-02,-1.989209465682506561e-02,-2.316067554056644440e-02,6.047980487346649170e-02,-4.502133466303348541e-03,-1.342675276100635529e-02,-6.142121180891990662e-02,-3.521690377965569496e-04,9.267958998680114746e-02,6.190721178427338600e-04,-1.025501452386379242e-02,7.819185964763164520e-03,7.471949327737092972e-03,2.822850085794925690e-02,4.295288398861885071e-02,2.163506858050823212e-02,6.035329401493072510e-02,2.222996205091476440e-02,-2.700859121978282928e-02,-3.484290093183517456e-03,3.943543881177902222e-03,5.668251216411590576e-02,5.577151849865913391e-02,1.036020889878273010e-01,6.423450261354446411e-02,-4.754415526986122131e-02,3.235289454460144043e-02,-6.325086206197738647e-02,-3.695007041096687317e-02,2.761892974376678467e-02,5.957274138927459717e-02,7.499732822179794312e-02,5.606316775083541870e-02,5.024662986397743225e-02,2.515412308275699615e-02,-2.575436048209667206e-02,3.540358319878578186e-02,-2.591816522181034088e-02,8.543476462364196777e-02,-8.726845681667327881e-02,-3.032720275223255157e-02,-4.105050489306449890e-02,-4.161792621016502380e-02,-1.376058906316757202e-02,-4.848063737154006958e-02,4.536949098110198975e-02,3.278680145740509033e-02,-4.979290813207626343e-02,3.240732103586196899e-02,5.454067513346672058e-02,-1.456425059586763382e-02,1.048178877681493759e-02,5.705909058451652527e-02,-6.811331491917371750e-03,4.569428041577339172e-02,-1.436834037303924561e-02,2.194010466337203979e-02,-1.235752180218696594e-02,-6.757225841283798218e-02,-1.684788055717945099e-02,2.210955321788787842e-02,2.759189344942569733e-02,-4.842101410031318665e-02,5.177692696452140808e-02,4.090083017945289612e-02,1.841669529676437378e-02,-9.317792952060699463e-02,-5.116700753569602966e-02,5.430568009614944458e-02,-1.396653335541486740e-02,-2.424087747931480408e-02,-7.282391935586929321e-02,7.980133406817913055e-03,-2.745287306606769562e-02,4.106489568948745728e-02,-1.483402028679847717e-02,4.846399649977684021e-02,7.227023132145404816e-03,-2.878407388925552368e-02,-3.071582643315196037e-03,3.230807371437549591e-03,-1.859590644016861916e-03,5.136289075016975403e-02,2.150446549057960510e-02,7.702016830444335938e-02,7.250415626913309097e-03,6.179276388138532639e-03,3.692758083343505859e-02,-1.730614341795444489e-02,-8.660944295115768909e-04,5.070852581411600113e-03,1.823283173143863678e-02,6.169579550623893738e-02,4.869811236858367920e-02,-8.371984213590621948e-02,-2.405996769666671753e-01,4.866565763950347900e-02,7.826067507266998291e-02,-4.652564227581024170e-02,-4.149933904409408569e-02,5.536519363522529602e-02,3.560276329517364502e-02,-3.147391974925994873e-01,-4.684724658727645874e-02,6.836308538913726807e-02,1.295026987791061401e-01,-2.469010092318058014e-02,2.674883231520652771e-02,3.842281550168991089e-02,5.506280064582824707e-02,-6.789126899093389511e-03,-2.004313655197620392e-02,6.503188610076904297e-02,7.330846972763538361e-03,-1.783765852451324463e-01,-1.140481308102607727e-01,-9.771772474050521851e-02
2.411980368196964264e-02,5.046531558036804199e-02,-1.249380186200141907e-01,1.002521812915802002e-01,4.538621008396148682e-02,5.504680424928665161e-02,-7.583574205636978149e-02,1.151060312986373901e-01,-4.372937604784965515e-02,-1.829573884606361389e-02,-9.173167869448661804e-03,-5.016870424151420593e-02,7.353324443101882935e-02,5.392217263579368591e-02,6.917291879653930664e-02,9.413508698344230652e-03,-4.707160592079162598e-02,5.710811167955398560e-02,5.406243354082107544e-02,3.360394760966300964e-02,2.421597391366958618e-02,1.820920780301094055e-02,3.485734760761260986e-02,-7.478933036327362061e-02,4.933968931436538696e-02,6.756245344877243042e-02,8.191019296646118164e-02,-1.186125073581933975e-02,4.678225889801979065e-02,-7.927832752466201782e-02,-5.942855775356292725e-02,5.096676573157310486e-02,4.154862090945243835e-02,4.385424777865409851e-02,-1.814616471529006958e-01,6.481862813234329224e-02,7.505206018686294556e-02,1.275907922536134720e-02,2.003085054457187653e-02,1.978923752903938293e-02,1.687326654791831970e-02,5.878633353859186172e-03,9.432125836610794067e-03,3.396553918719291687e-02,8.848914504051208496e-02,2.801949903368949890e-02,7.119934540241956711e-03,1.363231707364320755e-02,-8.402014151215553284e-03,-5.487489327788352966e-02,-3.542902693152427673e-02,-2.604396082460880280e-02,8.149838447570800781e-02,1.971931755542755127e-02,8.270047605037689209e-02,-4.811711609363555908e-02,-1.079936772584915161e-01,1.076808106154203415e-02,-1.054525822401046753e-01,-5.441808700561523438e-02,-1.458063814789056778e-02,3.311291709542274475e-02,1.025599911808967590e-01,-2.266380339860916138e-01,-6.212342903017997742e-02,-4.581712186336517334e-02,-5.604126676917076111e-02,1.147052720189094543e-01,-2.031075209379196167e-02,-9.495136328041553497e-03,3.040612488985061646e-02,8.255971968173980713e-02,-8.406884223222732544e-02,5.608825013041496277e-03,2.494681440293788910e-02,-7.088663056492805481e-03,2.814872935414314270e-02,2.321448363363742828e-02,-7.306389976292848587e-03,4.976288601756095886e-02,6.349784880876541138e-02,-5.259440466761589050e-02,-1.989587396383285522e-02,-3.451547026634216309e-02,3.388459607958793640e-02,-6.549694389104843140e-02,5.166443437337875366e-02,7.029520720243453979e-02,2.633521705865859985e-02,2.250372990965843201e-02,-5.115181580185890198e-02,5.806282907724380493e-02,1.948737949132919312e-01,1.307039558887481689e-01,7.542554289102554321e-02,-1.702442951500415802e-02,3.058246569707989693e-03,-1.430611300747841597e-04,-2.063028663396835327e-01,5.654345825314521790e-02,-5.947655066847801208e-03,-2.965298295021057129e-02,2.015196159482002258e-02,1.471173018217086792e-02,-5.298444256186485291e-02,-4.485414549708366394e-02,-6.749910116195678711e-02,1.775999553501605988e-02,1.800522580742835999e-02,2.821489423513412476e-02,-1.468524150550365448e-02,3.206062689423561096e-02,-4.773978516459465027e-02,-5.536075681447982788e-02,-2.352312803268432617e-01,-4.165024310350418091e-02,-3.331938758492469788e-03,3.366704285144805908e-02,2.004182338714599609e-02,7.695739716291427612e-02,4.063167050480842590e-02,1.106145828962326050e-01,-4.495945200324058533e-02,6.031359732151031494e-02,-8.190035820007324219e-02,-1.022376958280801773e-02,-5.951318517327308655e-02,-9.895885735750198364e-02,2.120174653828144073e-02,2.878224011510610580e-03,-3.745681792497634888e-02,-4.815258085727691650e-02,1.584365963935852051e-02,-2.905244380235671997e-02,4.410963132977485657e-02,-1.102979034185409546e-01,5.116962268948554993e-02,8.933757431805133820e-03,2.526801452040672302e-02,-4.421197995543479919e-02,-2.043952047824859619e-02,1.244237553328275681e-02,2.747194655239582062e-02
1.713079586625099182e-02,2.050823904573917389e-02,-1.420462876558303833e-01,-3.987397253513336182e-02,2.017064252868294716e-03,-6.656783074140548706e-02,-1.091623399406671524e-02,-3.423935920000076294e-02,6.483369320631027222e-02,-2.020777389407157898e-02,8.223317563533782959e-03,2.683806791901588440e-02,-2.924554795026779175e-02,-8.912822231650352478e-03,4.537901654839515686e-02,-1.601655781269073486e-02,2.264945581555366516e-02,-2.654182724654674530e-02,-4.578644875437021255e-04,-5.892512388527393341e-03,-1.301131211221218109e-02,6.447260081768035889e-02,5.631058663129806519e-02,5.545056983828544617e-02,3.338911011815071106e-02,5.657302215695381165e-02,-2.566578611731529236e-02,-9.701503068208694458e-02,-2.437984757125377655e-02,-7.542888633906841278e-03,3.943292889744043350e-03,1.792532764375209808e-02,-7.736086845397949219e-03,-3.810971044003963470e-03,5.069790780544281006e-02,6.390335969626903534e-03,-9.707355871796607971e-03,9.314411319792270660e-03,1.154586579650640488e-02,-1.805535145103931427e-02,-1.137564331293106079e-02,-1.580458693206310272e-02,-2.171964757144451141e-02,1.271336432546377182e-02,-7.306848186999559402e-03,-1.742313802242279053e-02,2.550272829830646515e-02,-2.134996652603149414e-02,-3.834101185202598572e-02,-3.775217384099960327e-02,-2.080344781279563904e-02,-2.251116745173931122e-02,2.420134114800021052e-04,-9.313971735537052155e-03,-2.706237323582172394e-02,2.437188290059566498e-03,1.456059981137514114e-02,-1.095814779400825500e-01,-1.908623427152633667e-01,7.535306271165609360e-03,-4.968395084142684937e-02,-2.904250286519527435e-02,-1.516003757715225220e-01,1.299148797988891602e-01,3.243404999375343323e-02,6.185919977724552155e-03,-5.375345237553119659e-03,1.526245176792144775e-01,-2.706819958984851837e-02,1.238150820136070251e-01,-8.322035893797874451e-03,-1.290079206228256226e-01,2.174694538116455078e-01,-1.008287444710731506e-02,1.916652917861938477e-02,4.742451757192611694e-02,-6.602828949689865112e-02,-1.119564697146415710e-01,2.804496698081493378e-02,-1.049025729298591614e-01,-4.771344736218452454e-02,2.484395634382963181e-03,-3.963669762015342712e-02,3.338134288787841797e-02,-5.306772072799503803e-04,-3.681382909417152405e-02,5.507646873593330383e-02,6.599793583154678345e-02,6.530056148767471313e-02,7.554526440799236298e-03,4.211968928575515747e-02,-7.869176566600799561e-02,-1.272548288106918335e-01,4.090144857764244080e-02,1.108769699931144714e-01,1.018768474459648132e-01,2.124360762536525726e-02,3.453923761844635010e-02,6.483243405818939209e-02,-1.577506512403488159e-01,5.771075934171676636e-02,5.589844286441802979e-02,5.802618339657783508e-02,5.660692974925041199e-02,-3.768517822027206421e-02,-4.514926671981811523e-02,-7.398132979869842529e-02,-3.529120981693267822e-02,2.233011275529861450e-02,6.558372825384140015e-02,-2.355335745960474014e-04,1.533267181366682053e-02,-2.984686382114887238e-02,-2.943829260766506195e-02,-1.284395577386021614e-03,8.110633492469787598e-02,-1.064545363187789917e-01,6.288623809814453125e-02,-2.788127027451992035e-02,-4.948404431343078613e-02,-1.058284044265747070e-01,2.311819195747375488e-01,-5.473098531365394592e-02,-4.434517771005630493e-02,-3.608744144439697266e-01,-6.448311358690261841e-02,-2.413546107709407806e-02,-4.221960529685020447e-02,7.628495246171951294e-02,5.963370949029922485e-02,8.041107095777988434e-03,6.171841546893119812e-02,9.551128372550010681e-03,-1.787310652434825897e-02,-4.418940469622612000e-02,3.236037446185946465e-04,3.152516903355717659e-03,-8.968284726142883301e-02,3.149269148707389832e-02,-2.635027840733528137e-02,-2.170570194721221924e-02,-1.506483647972345352e-02,-5.771299079060554504e-02
3.713196888566017151e-02,-7.268209010362625122e-02,-1.703472249209880829e-02,6.882252544164657593e-02,3.269160538911819458e-02,6.955809146165847778e-02,9.699390269815921783e-03,-5.618773773312568665e-02,3.631344065070152283e-02,1.258718967437744141e-01,5.174809321761131287e-02,6.820566020905971527e-03,1.229244098067283630e-02,1.296600103378295898e-01,-1.064448580145835876e-01,8.589580655097961426e-02,-1.049942225217819214e-01,-3.605739027261734009e-02,2.129760943353176117e-02,-7.042566686868667603e-02,-8.005854487419128418e-02,-2.119109593331813812e-02,-7.725264877080917358e-02,-7.348487270064651966e-04,5.881836265325546265e-02,5.691003426909446716e-02,5.257495120167732239e-02,-4.312533140182495117e-02,-5.751338787376880646e-03,4.850820451974868774e-02,-6.372106075286865234e-02,3.011080250144004822e-02,5.647585913538932800e-02,-6.786534935235977173e-02,3.324209013953804970e-03,5.998386442661285400e-02,3.367711603641510010e-02,3.135301917791366577e-02,4.189557954668998718e-02,-3.408605605363845825e-02,-2.405722998082637787e-02,-5.764805525541305542e-02,-5.062758177518844604e-02,-2.246906608343124390e-02,6.730236113071441650e-02,-5.285874009132385254e-03,-9.269868023693561554e-03,1.343834958970546722e-02,2.278589271008968353e-02,-4.863645415753126144e-03,-8.364512771368026733e-02,1.370202898979187012e-01,4.620239883661270142e-02,9.907854348421096802e-02,8.239419013261795044e-02,-4.455593973398208618e-02,-4.183935374021530151e-02,-1.466309837996959686e-02,-1.322524398565292358e-01,-4.760697856545448303e-02,-5.640225484967231750e-02,-2.027773670852184296e-02,2.972371503710746765e-02,2.756351046264171600e-02,-1.803823411464691162e-01,-5.728529766201972961e-02,-8.299543708562850952e-02,6.016376242041587830e-02,-4.078687354922294617e-02,1.657044328749179840e-02,5.328669399023056030e-02,-4.763776436448097229e-02,4.475263878703117371e-02,6.839627772569656372e-02,4.234766960144042969e-02,5.058021843433380127e-02,1.124983504414558411e-01,4.903844371438026428e-02,5.519251525402069092e-02,4.941271245479583740e-02,6.961585581302642822e-02,7.945524156093597412e-02,2.699126675724983215e-02,2.053000479936599731e-01,1.463496237993240356e-01,2.835294604301452637e-02,1.346580386161804199e-01,5.053589120507240295e-02,6.541814655065536499e-02,5.684548057615756989e-03,7.494885940104722977e-03,3.607155382633209229e-02,5.289566144347190857e-02,4.003666713833808899e-02,3.183660283684730530e-02,6.753250211477279663e-02,3.370109200477600098e-02,3.317695483565330505e-02,6.622314453125000000e-02,-1.630656421184539795e-02,1.512870192527770996e-02,3.441766137257218361e-03,2.890219166874885559e-02,1.832731440663337708e-02,4.369443282485008240e-02,5.559618398547172546e-02,9.463920444250106812e-02,3.691151738166809082e-02,2.067087776958942413e-02,-3.279132302850484848e-03,6.046407669782638550e-02,-2.057468518614768982e-02,5.176252126693725586e-02,5.119899287819862366e-02,2.786125987768173218e-02,6.128767877817153931e-02,-1.812256313860416412e-02,5.544538050889968872e-02,3.811847791075706482e-02,-3.363249450922012329e-02,1.051400694996118546e-02,3.013271838426589966e-02,1.141983177512884140e-02,-1.004260312765836716e-02,4.586027562618255615e-02,2.847243659198284149e-02,-5.750374868512153625e-02,-6.948857009410858154e-02,-1.333689242601394653e-01,2.245662920176982880e-02,4.496484994888305664e-02,-1.015359237790107727e-01,3.372743353247642517e-02,-4.045549780130386353e-02,-7.463108748197555542e-02,-1.649202220141887665e-02,-4.530583694577217102e-02,1.396756917238235474e-01,-4.746189340949058533e-02,1.064470410346984863e-02,-1.203612089157104492e-01,-2.581584267318248749e-02,-1.397322863340377808e-02
-3.413698449730873108e-02,-5.209138244390487671e-02,-1.435242872685194016e-02,-4.440301656723022461e-02,-2.309406735002994537e-02,3.524640202522277832e-02,-2.358209155499935150e-02,4.726462438702583313e-02,4.882739111781120300e-02,-5.474632605910301208e-02,1.963596558198332787e-03,-4.535956308245658875e-02,6.803865730762481689e-02,-9.826384484767913818e-03,1.416012793779373169e-01,1.822756603360176086e-02,1.329990103840827942e-02,1.260287910699844360e-01,3.667768090963363647e-02,-4.321458935737609863e-02,1.059007570147514343e-01,-1.289625316858291626e-01,-2.493642866611480713e-01,1.559825148433446884e-02,4.706325940787792206e-03,8.403218351304531097e-03,1.267342865467071533e-01,-2.843919098377227783e-01,-3.392617106437683105e-01,-2.257203012704849243e-01,1.630962640047073364e-02,-2.742858044803142548e-02,-2.680451609194278717e-02,-1.598247736692428589e-01,-1.252958476543426514e-01,5.724829155951738358e-03,1.595898158848285675e-02,3.733391314744949341e-02,5.004593729972839355e-02,1.303079128265380859e-01,9.986542910337448120e-02,3.180545568466186523e-02,8.653689175844192505e-02,1.095066741108894348e-01,8.528798073530197144e-02,-8.746289461851119995e-02,1.146000474691390991e-01,4.770303145051002502e-02,1.177327521145343781e-02,-3.537091985344886780e-02,-3.912732005119323730e-03,-2.031776607036590576e-01,-1.971785873174667358e-01,2.825153432786464691e-02,-4.287254810333251953e-02,9.806819260120391846e-02,-9.272195398807525635e-02,8.430810272693634033e-02,-1.990639977157115936e-02,-3.402750194072723389e-02,6.677114963531494141e-02,2.478055655956268311e-02,-1.719059795141220093e-02,-2.562918663024902344e-01,3.529877960681915283e-02,4.877880588173866272e-02,3.208456188440322876e-02,1.621893234550952911e-02,7.316631730645895004e-03,-7.288459688425064087e-03,8.633182197809219360e-02,-3.866316750645637512e-02,4.452145099639892578e-02,1.614925637841224670e-02,3.687143698334693909e-02,-2.042093081399798393e-03,-4.421987384557723999e-02,-2.189860194921493530e-01,1.395700592547655106e-02,2.807139419019222260e-02,4.797243326902389526e-02,1.885645277798175812e-02,-3.667514398694038391e-02,-1.191810220479965210e-01,4.077298194169998169e-02,9.874568320810794830e-03,5.140846595168113708e-02,-1.276028454303741455e-01,4.880022630095481873e-02,-2.566113322973251343e-02,6.302881054580211639e-03,-4.897586628794670105e-02,3.282218705862760544e-03,-7.862835377454757690e-02,1.378815388306975365e-03,5.291898548603057861e-02,-1.282026022672653198e-01,-1.567879021167755127e-01,3.602556511759757996e-02,-1.121441833674907684e-02,-1.648595631122589111e-01,-1.829384267330169678e-01,-1.200116053223609924e-01,-1.744190454483032227e-01,4.365225881338119507e-02,3.227511048316955566e-02,-3.928625024855136871e-03,-1.977739781141281128e-01,-1.885690838098526001e-01,-1.799008399248123169e-01,-4.465755075216293335e-02,-1.479787081480026245e-01,-1.453324779868125916e-02,-1.328240614384412766e-02,6.534681469202041626e-02,2.350618988275527954e-01,-3.063769936561584473e-01,-1.169621422886848450e-01,-1.494912989437580109e-02,2.086372375488281250e-01,1.939279213547706604e-02,-1.913542449474334717e-01,-3.116033077239990234e-01,3.700871393084526062e-02,1.639409735798835754e-02,1.408657431602478027e-01,2.512663304805755615e-01,2.897909581661224365e-01,1.987374573945999146e-01,1.816556602716445923e-02,1.914218254387378693e-02,9.357849508523941040e-02,-1.870044507086277008e-02,-6.405644118785858154e-03,-8.691336959600448608e-02,-5.414031911641359329e-03,-6.354851275682449341e-02,-1.489352583885192871e-01,-1.795303076505661011e-02,-8.378261327743530273e-02,9.078449755907058716e-02,9.994573891162872314e-02,1.366293877363204956e-01
-4.761898517608642578e-02,-1.622170209884643555e-01,1.084354296326637268e-01,4.480157792568206787e-02,-2.575743710622191429e-03,1.421863771975040436e-02,-3.206297755241394043e-03,-2.532663755118846893e-02,-6.365685164928436279e-02,-1.248986087739467621e-02,9.445502422749996185e-03,3.413884434849023819e-03,7.655197288841009140e-03,4.986909683793783188e-03,-1.660702936351299286e-02,7.025772333145141602e-02,-6.261241622269153595e-03,1.643367484211921692e-02,1.954447710886597633e-03,5.083189159631729126e-02,5.659852176904678345e-03,7.751542329788208008e-02,8.678410202264785767e-02,-7.609441876411437988e-02,-1.457901019603013992e-02,4.128437861800193787e-02,-2.294012811034917831e-03,5.831272527575492859e-02,8.887599408626556396e-02,7.642608135938644409e-03,3.493662178516387939e-02,2.651932276785373688e-02,1.644538901746273041e-02,7.338711619377136230e-02,1.180834323167800903e-02,6.136708334088325500e-02,-1.828780397772789001e-02,1.070046797394752502e-02,5.651981383562088013e-02,-2.176608145236968994e-02,7.565544918179512024e-03,2.341328188776969910e-03,3.836335986852645874e-02,-1.075323764234781265e-02,1.779965870082378387e-02,4.708687961101531982e-02,-1.372921559959650040e-02,1.106234081089496613e-02,1.890966482460498810e-02,2.612811513245105743e-02,-2.193208783864974976e-02,-5.978402867913246155e-02,-4.548796266317367554e-02,7.418864872306585312e-03,2.931453753262758255e-03,1.809189654886722565e-02,3.982421383261680603e-02,2.184376120567321777e-02,-4.923701286315917969e-03,9.822047315537929535e-03,1.514315325766801834e-02,-2.611633576452732086e-02,-4.829170927405357361e-02,-6.730190664529800415e-02,1.334850769490003586e-02,7.074684649705886841e-02,5.426507815718650818e-02,-8.787136524915695190e-02,-3.430289216339588165e-03,5.324555933475494385e-02,6.193527951836585999e-02,-5.883876979351043701e-02,2.117474935948848724e-02,2.297127246856689453e-02,7.817959785461425781e-02,5.096863582730293274e-02,3.026826679706573486e-02,3.680004179477691650e-02,8.697962760925292969e-02,-8.206547051668167114e-02,-1.057029291987419128e-01,-6.633915752172470093e-02,-8.312519639730453491e-03,3.776757046580314636e-02,4.727537930011749268e-02,-5.617178231477737427e-02,5.598667077720165253e-03,6.882069259881973267e-02,-4.145775735378265381e-02,-2.294818870723247528e-02,-9.355611982755362988e-04,9.790484793484210968e-03,5.922597646713256836e-02,-1.541749481111764908e-02,8.987221121788024902e-02,-4.286197572946548462e-02,2.337056957185268402e-02,4.639312252402305603e-02,-4.555634688585996628e-03,2.473332919180393219e-03,6.756946444511413574e-03,1.479272544384002686e-02,6.991764996200799942e-03,4.937080200761556625e-03,-5.664777942001819611e-03,-2.714573405683040619e-02,3.643739596009254456e-02,1.403484307229518890e-02,3.527788817882537842e-02,3.138729184865951538e-02,7.330852001905441284e-02,9.113971143960952759e-02,3.256059437990188599e-02,1.288373675197362900e-02,2.153263427317142487e-02,8.592598885297775269e-02,4.651037231087684631e-02,2.908175997436046600e-02,4.383074864745140076e-02,6.512898951768875122e-02,2.129737287759780884e-02,5.271131172776222229e-02,2.188687957823276520e-02,-7.041339762508869171e-03,6.717551499605178833e-02,1.589442230761051178e-02,3.316496685147285461e-02,6.081445142626762390e-02,1.475958153605461121e-02,-7.758951932191848755e-02,1.080961450934410095e-01,6.785441190004348755e-02,-1.487738452851772308e-02,-5.271030589938163757e-03,-5.270711332559585571e-02,5.908783152699470520e-02,-4.612319171428680420e-02,9.235249459743499756e-02,-5.137593299150466919e-02,5.012233182787895203e-02,2.171750366687774658e-02,-3.642461448907852173e-02,1.507570035755634308e-02
2.959326840937137604e-03,9.993231855332851410e-03,-1.134933810681104660e-02,-2.914073504507541656e-02,2.347455173730850220e-02,9.244108572602272034e-03,1.138966530561447144e-01,-4.626039788126945496e-02,4.261074960231781006e-02,1.727425307035446167e-01,2.831132896244525909e-02,-3.811501339077949524e-02,6.555864959955215454e-02,8.039545267820358276e-02,3.080780804157257080e-02,-3.409226238727569580e-02,-6.175436545163393021e-03,6.657242029905319214e-02,-1.225767284631729126e-02,3.334935382008552551e-02,-9.992889128625392914e-03,3.425792558118700981e-03,-1.311444193124771118e-01,2.807479910552501678e-02,-3.766430169343948364e-02,7.480575586669147015e-04,-6.916029751300811768e-02,-2.267647683620452881e-01,-2.163225263357162476e-01,-3.052570857107639313e-02,-5.333646759390830994e-02,1.449557300657033920e-02,1.396107859909534454e-02,-1.226700656116008759e-02,2.478850446641445160e-02,1.001128274947404861e-02,1.880198344588279724e-02,2.294796332716941833e-02,2.033796720206737518e-02,9.569204598665237427e-02,9.296000003814697266e-02,-2.941354736685752869e-02,-3.526305034756660461e-02,-2.717865817248821259e-02,1.270517520606517792e-02,-5.042665824294090271e-02,-2.539672702550888062e-02,-1.006576791405677795e-01,-9.041676670312881470e-02,-1.206458359956741333e-01,-1.085254326462745667e-01,2.115943096578121185e-02,4.968775063753128052e-02,2.512885332107543945e-01,2.735126316547393799e-01,-1.140513569116592407e-01,7.965029217302799225e-03,2.690269239246845245e-02,-1.043150201439857483e-02,-2.787260711193084717e-02,1.613606810569763184e-01,2.237437665462493896e-01,-9.598299115896224976e-02,-8.629565127193927765e-03,-3.913633823394775391e-01,-6.382719147950410843e-03,-1.387306489050388336e-02,1.187673304229974747e-02,-1.083966251462697983e-02,-2.792783547192811966e-03,2.223886922001838684e-02,-7.912106812000274658e-03,-3.392986720427870750e-03,1.535835303366184235e-02,1.620727032423019409e-02,3.543017804622650146e-02,3.113153204321861267e-02,3.802157938480377197e-02,3.946829587221145630e-02,1.350954174995422363e-02,5.705859884619712830e-02,-4.702766984701156616e-02,3.342171013355255127e-02,8.737234398722648621e-03,2.478655055165290833e-02,-1.042722444981336594e-02,-1.672529242932796478e-02,-3.466793149709701538e-02,-1.770754577592015266e-03,-1.511885225772857666e-01,8.537052199244499207e-03,-2.099571190774440765e-02,5.121184512972831726e-02,5.172467790544033051e-03,8.395263284910470247e-05,4.733987897634506226e-02,5.758698657155036926e-02,5.292860418558120728e-02,2.203871496021747589e-02,9.360871464014053345e-02,4.721679538488388062e-02,-5.082991556264460087e-04,5.436139181256294250e-02,5.699076503515243530e-02,6.721776723861694336e-02,6.158313155174255371e-02,2.928933873772621155e-02,1.673361472785472870e-02,5.060055851936340332e-02,8.960392326116561890e-02,8.128466457128524780e-02,6.278698146343231201e-02,7.689311355352401733e-02,5.256906524300575256e-02,4.844814166426658630e-02,3.049741499125957489e-02,6.344985216856002808e-02,-2.019521966576576233e-02,5.385117605328559875e-02,-3.805756941437721252e-02,3.917500749230384827e-02,3.071041218936443329e-02,7.520639896392822266e-02,4.425645619630813599e-02,3.253922611474990845e-02,3.563359007239341736e-02,6.624996662139892578e-03,-1.278393864631652832e-01,-3.080589137971401215e-02,3.881395328789949417e-03,1.996662002056837082e-03,3.067323379218578339e-02,-1.874003792181611061e-03,-9.555012732744216919e-02,3.973750397562980652e-02,-4.016842320561408997e-02,1.627619564533233643e-02,-1.139377430081367493e-01,8.580778725445270538e-03,2.079630456864833832e-02,-3.735135868191719055e-02,2.118543349206447601e-02,-2.858440764248371124e-02
-1.788556948304176331e-02,1.226455867290496826e-01,4.631516337394714355e-02,6.400745362043380737e-02,4.219626262784004211e-02,5.938264355063438416e-02,4.471781849861145020e-02,4.162633046507835388e-02,-5.889245122671127319e-02,-5.725556612014770508e-02,-3.015268966555595398e-02,-4.533203691244125366e-02,-2.113717049360275269e-02,-1.738460920751094818e-02,-1.033970713615417480e-01,-1.025684550404548645e-01,-8.403350412845611572e-02,-7.688408344984054565e-02,-7.843113690614700317e-02,-6.773005425930023193e-02,-1.560464221984148026e-02,-1.885550282895565033e-02,-4.028087481856346130e-02,8.000757545232772827e-02,-6.154652684926986694e-03,-4.461074993014335632e-02,1.822004467248916626e-02,-1.370840370655059814e-01,-1.507892161607742310e-01,-7.502275705337524414e-02,-5.631580576300621033e-02,-7.940985262393951416e-03,2.922070026397705078e-02,-6.107933446764945984e-02,-5.655993893742561340e-02,-2.756754308938980103e-02,-3.918954357504844666e-02,-3.363558277487754822e-02,-3.498317673802375793e-02,-4.348248243331909180e-02,-1.135647669434547424e-01,-4.285955056548118591e-02,-5.195255205035209656e-02,-4.259624704718589783e-02,-1.935218460857868195e-02,-3.595563024282455444e-02,-1.504550036042928696e-02,-4.001890122890472412e-02,-4.413653165102005005e-02,-1.228853408247232437e-02,-2.623764239251613617e-02,9.468015283346176147e-03,3.347398713231086731e-02,1.353744533844292164e-03,-3.768067434430122375e-02,3.145539667457342148e-03,-2.626679651439189911e-02,-4.787138849496841431e-02,4.213741049170494080e-02,1.887072622776031494e-02,-7.983388751745223999e-02,-3.886602446436882019e-02,-5.795381963253021240e-02,7.748613506555557251e-02,-7.752886158414185047e-04,3.095008805394172668e-02,-3.151720017194747925e-02,-8.318792283535003662e-02,5.984102562069892883e-02,-3.054875880479812622e-02,-4.361366108059883118e-02,-2.970782481133937836e-02,-2.341170422732830048e-02,-7.693769782781600952e-02,-1.666440069675445557e-01,-7.980883121490478516e-02,-2.524781227111816406e-02,2.941416390240192413e-02,-1.717088967561721802e-01,-2.391117066144943237e-02,3.840700536966323853e-02,3.214210271835327148e-02,-2.209620922803878784e-02,-4.749700799584388733e-02,-7.091201096773147583e-02,-1.564907468855381012e-02,-8.731500129215419292e-04,-8.652028441429138184e-02,5.809408053755760193e-02,3.506347164511680603e-02,7.150778546929359436e-03,-3.344270214438438416e-02,-9.167610853910446167e-02,5.599854141473770142e-02,6.748915463685989380e-02,-3.350353613495826721e-02,5.874272063374519348e-02,-7.226695306599140167e-03,-6.348481774330139160e-02,2.099361829459667206e-02,-3.784948959946632385e-02,-1.608019322156906128e-02,-2.402624813839793205e-04,-7.917011156678199768e-03,-1.077632233500480652e-02,-3.413522616028785706e-02,-1.450739987194538116e-02,3.800747683271765709e-03,-7.938842754811048508e-04,7.459869608283042908e-03,1.211845129728317261e-02,-3.771268948912620544e-02,-6.787645816802978516e-02,-1.686209253966808319e-02,8.592695742845535278e-02,-9.037643671035766602e-02,2.501823240891098976e-03,-8.142168074846267700e-02,-1.057483181357383728e-01,-2.703177276998758316e-03,-1.299543399363756180e-02,4.951207339763641357e-02,5.137867480516433716e-02,-9.784220717847347260e-03,7.149439305067062378e-02,-2.378043136559426785e-04,-1.301771253347396851e-01,-5.032467469573020935e-02,6.672004610300064087e-02,1.977942883968353271e-01,1.108473837375640869e-01,1.232140790671110153e-02,9.150091558694839478e-02,1.316708419471979141e-02,-5.019670352339744568e-02,-3.554046154022216797e-02,-6.274332106113433838e-02,-3.569769859313964844e-02,-6.598351150751113892e-02,2.958310581743717194e-02,-1.055842265486717224e-01,-2.519251964986324310e-02,-1.814773119986057281e-02
-4.836275242269039154e-03,6.637211423367261887e-03,-1.482989173382520676e-02,2.611856162548065186e-02,1.714525930583477020e-02,-4.702830221503973007e-03,-1.062124595046043396e-02,-3.214336931705474854e-02,-5.976722016930580139e-02,3.940265998244285583e-02,1.998018845915794373e-02,3.317745029926300049e-02,4.406421259045600891e-02,3.858216851949691772e-02,-3.304386138916015625e-02,4.269869625568389893e-02,-6.979135423898696899e-02,-1.187575608491897583e-02,-1.624781987629830837e-03,-1.083278842270374298e-02,-2.805612608790397644e-02,-6.481169909238815308e-02,1.379808969795703888e-02,-4.508755356073379517e-02,-2.226799540221691132e-02,-1.983588933944702148e-02,-6.646309792995452881e-02,7.202184200286865234e-02,7.241481542587280273e-02,3.905833885073661804e-02,1.308940649032592773e-01,3.317861817777156830e-03,3.722092509269714355e-02,6.681439001113176346e-03,-5.001632496714591980e-02,-2.228318341076374054e-02,-2.500624768435955048e-02,1.303432974964380264e-03,-1.185524743050336838e-02,-3.181590884923934937e-02,-7.949348539113998413e-03,-5.796766281127929688e-02,-5.472538527101278305e-03,-1.324619352817535400e-02,-1.167911756783723831e-02,-2.146551012992858887e-02,-4.270341247320175171e-03,-1.361066568642854691e-02,-1.228507608175277710e-02,-1.860391162335872650e-02,-4.821086302399635315e-02,2.244075061753392220e-03,3.262990340590476990e-02,6.026544794440269470e-02,8.060305565595626831e-02,1.111400872468948364e-01,2.149288356304168701e-02,-5.149399489164352417e-02,-6.026135385036468506e-02,-1.251055486500263214e-02,4.147447273135185242e-02,-1.363710314035415649e-01,-2.623111382126808167e-02,1.299499571323394775e-01,-6.555817276239395142e-02,-7.212078664451837540e-03,-2.977300807833671570e-02,8.828813582658767700e-02,-4.678424820303916931e-02,7.726322114467620850e-02,2.957530692219734192e-02,-2.937004715204238892e-02,7.487571239471435547e-02,8.033927530050277710e-02,1.065219715237617493e-01,9.943210333585739136e-02,1.318168193101882935e-01,6.931343674659729004e-02,8.388312160968780518e-02,-6.616347283124923706e-02,-1.534554548561573029e-02,4.832530021667480469e-02,-4.242043942213058472e-02,-6.551682204008102417e-02,-1.601997413672506809e-03,-6.096272170543670654e-02,-2.042647078633308411e-02,4.332887381315231323e-02,2.652204222977161407e-02,-4.273894429206848145e-02,-4.186998680233955383e-02,5.767651274800300598e-02,9.182970225811004639e-02,4.314822144806385040e-03,4.453277587890625000e-02,-1.228268910199403763e-02,-1.470383163541555405e-02,-4.829464480280876160e-02,8.331210166215896606e-02,2.514149621129035950e-02,4.908791556954383850e-02,-9.194428101181983948e-03,4.021897912025451660e-02,5.935478955507278442e-02,3.474501147866249084e-02,-2.367904223501682281e-02,1.456736936233937740e-03,-1.956041529774665833e-02,2.193270716816186905e-03,-3.458059206604957581e-02,-1.895683631300926208e-02,-3.163040801882743835e-02,-6.493119522929191589e-03,-9.198176674544811249e-03,6.102033704519271851e-02,-2.623160369694232941e-02,4.959549009799957275e-02,-5.433479696512222290e-02,3.137300536036491394e-02,-4.251969978213310242e-02,4.381391685456037521e-03,-9.521600604057312012e-02,-5.257893353700637817e-02,4.680685326457023621e-02,4.741978272795677185e-02,3.719152882695198059e-02,1.042631268501281738e-01,4.638798534870147705e-03,-1.682739146053791046e-02,-6.948350369930267334e-02,7.044860720634460449e-02,8.558165282011032104e-02,-4.346061125397682190e-02,9.087315201759338379e-02,3.166798502206802368e-03,-2.552653476595878601e-02,-2.514004521071910858e-02,-8.457966148853302002e-03,-3.018792904913425446e-02,5.002547800540924072e-02,-1.171838641166687012e-01,1.061615440994501114e-02,6.685086060315370560e-03
4.106011241674423218e-02,-1.102675776928663254e-02,-8.277891576290130615e-02,-1.442420296370983124e-02,3.975661471486091614e-02,4.067604988813400269e-02,5.530534312129020691e-02,2.570902928709983826e-03,-5.375715345144271851e-02,3.177762404084205627e-02,3.554328531026840210e-02,1.179027333855628967e-01,-2.350079128518700600e-03,-4.389841482043266296e-02,-5.442850757390260696e-03,-1.301638502627611160e-02,-8.840078487992286682e-03,-2.909656614065170288e-02,2.908054552972316742e-02,4.451429843902587891e-02,1.429554540663957596e-04,2.165623381733894348e-02,1.619021221995353699e-02,-7.417958974838256836e-02,6.787288002669811249e-03,-3.011608310043811798e-02,-7.482273038476705551e-03,4.424501210451126099e-02,6.452425569295883179e-02,8.382529765367507935e-02,7.475787401199340820e-02,-1.674817316234111786e-02,-7.128298282623291016e-02,-6.179186701774597168e-02,-2.901675365865230560e-02,2.504922077059745789e-02,4.299634695053100586e-02,-4.819735884666442871e-03,-2.082604914903640747e-02,-1.069368608295917511e-02,1.462295372039079666e-02,5.742586776614189148e-02,2.969158254563808441e-02,-5.116308480501174927e-02,3.939669951796531677e-02,1.658510975539684296e-02,1.831497997045516968e-02,2.882434241473674774e-02,3.490117378532886505e-03,-1.829745434224605560e-02,-2.544723637402057648e-02,-4.837134853005409241e-02,-7.726946473121643066e-02,-4.275989159941673279e-02,-7.293933629989624023e-02,6.122731789946556091e-02,-2.019378356635570526e-02,1.063997391611337662e-02,-7.707474380731582642e-02,3.472600830718874931e-03,6.922342628240585327e-02,-1.153399273753166199e-01,-8.910430967807769775e-02,-6.162704899907112122e-02,7.896788418292999268e-02,1.147550437599420547e-02,2.047488093376159668e-02,8.923906087875366211e-02,-3.569959476590156555e-02,6.014590337872505188e-02,-6.492722034454345703e-02,-3.202727437019348145e-02,5.519849807024002075e-02,4.886089637875556946e-02,-9.670319408178329468e-02,-7.532996684312820435e-02,-7.296481728553771973e-02,5.912192165851593018e-03,-3.337830305099487305e-02,5.701625719666481018e-02,-6.232749298214912415e-02,2.619445137679576874e-02,-1.769331656396389008e-02,-1.930664032697677612e-01,-5.755699798464775085e-02,4.993041511625051498e-04,1.181471198797225952e-01,-1.770694404840469360e-01,6.152392830699682236e-03,-4.436489194631576538e-02,-1.863067224621772766e-02,-3.455763310194015503e-02,-7.364159822463989258e-02,2.977295964956283569e-02,1.535421796143054962e-02,-3.522164374589920044e-02,-5.349523574113845825e-02,-1.723367534577846527e-02,-2.820852398872375488e-01,-6.800772249698638916e-02,9.000368881970643997e-04,-4.721745848655700684e-02,3.673890023492276669e-04,-1.214101139339618385e-04,-2.664135955274105072e-02,-2.817173860967159271e-02,-1.490632537752389908e-02,1.937693729996681213e-02,-2.798273460939526558e-03,-4.405965283513069153e-02,7.310408353805541992e-02,-6.959418207406997681e-02,-3.653828054666519165e-02,-3.910236060619354248e-02,3.064797818660736084e-02,2.218348160386085510e-02,-4.260630533099174500e-02,-7.085841894149780273e-02,1.384645700454711914e-02,-1.054086461663246155e-01,2.881929278373718262e-02,4.741187393665313721e-02,-7.791280001401901245e-02,-4.055973887443542480e-02,-1.588639803230762482e-02,5.382123589515686035e-02,1.680193468928337097e-02,6.237133592367172241e-02,1.164415385574102402e-02,6.915684789419174194e-02,3.921487182378768921e-02,8.814175426959991455e-02,8.778972923755645752e-02,1.308793295174837112e-02,4.164160043001174927e-02,7.324793189764022827e-02,1.211405619978904724e-01,1.031210869550704956e-01,-5.348307639360427856e-02,6.642848253250122070e-02,-9.325087303295731544e-04,6.272228783927857876e-04,-1.774355396628379822e-02
-2.721096947789192200e-02,6.819280982017517090e-02,-2.346077188849449158e-02,5.784021317958831787e-02,4.964933171868324280e-02,-3.787036612629890442e-02,2.572351880371570587e-02,-1.645824499428272247e-02,2.666564285755157471e-02,-5.830640345811843872e-02,1.825787313282489777e-02,3.117251768708229065e-02,1.471358444541692734e-02,-1.530223991721868515e-02,-1.082505658268928528e-02,-1.101727932691574097e-01,-8.931683748960494995e-02,-5.968169495463371277e-02,-2.423262223601341248e-02,2.359299361705780029e-02,-1.086808517575263977e-01,9.034857153892517090e-02,4.900201410055160522e-02,6.105338409543037415e-02,5.922362208366394043e-02,6.259687244892120361e-02,-2.525696717202663422e-02,-1.542028132826089859e-02,-5.109258741140365601e-02,-4.059452936053276062e-02,-3.498497232794761658e-02,-4.781670286320149899e-04,1.993506215512752533e-02,5.064268037676811218e-02,1.135285291820764542e-02,1.202145870774984360e-02,-1.882366649806499481e-02,1.872622035443782806e-02,7.256124913692474365e-02,8.295621722936630249e-03,-2.690367773175239563e-02,1.498989667743444443e-02,3.188109025359153748e-02,-2.230351418256759644e-02,3.730670735239982605e-02,-8.448176085948944092e-02,1.121494695544242859e-01,-5.386788770556449890e-02,-8.335493505001068115e-02,-1.600950025022029877e-02,-5.956309288740158081e-02,7.457273453474044800e-02,5.151384323835372925e-02,-4.765387251973152161e-02,-5.160662159323692322e-02,6.005103141069412231e-02,8.510171622037887573e-02,1.073162443935871124e-02,-3.276554495096206665e-02,-2.798739448189735413e-02,-5.712383892387151718e-03,-4.176041111350059509e-02,-3.888342529535293579e-02,3.569873049855232239e-02,6.624941527843475342e-02,-5.826953426003456116e-02,-5.600349977612495422e-02,3.087612427771091461e-02,1.018697954714298248e-02,-2.732277475297451019e-02,5.103939399123191833e-02,3.118409216403961182e-02,4.506472963839769363e-03,-7.465307414531707764e-02,-6.505410652607679367e-03,-1.609765179455280304e-02,3.092807903885841370e-02,6.065775826573371887e-02,-1.272664032876491547e-02,4.404575563967227936e-03,-4.823187366127967834e-03,1.388513110578060150e-02,2.673050947487354279e-02,5.304452404379844666e-02,-1.327501889318227768e-02,4.483229294419288635e-02,1.428739912807941437e-02,-1.063313037157058716e-01,6.487114820629358292e-03,9.285956621170043945e-03,-9.506498463451862335e-03,1.166457869112491608e-02,7.215424627065658569e-02,4.373302683234214783e-02,1.589938998222351074e-02,3.624549508094787598e-02,-6.183509249240159988e-03,6.998971570283174515e-03,1.967640407383441925e-02,2.808389067649841309e-02,-5.145945027470588684e-02,-6.789616495370864868e-02,-5.629038065671920776e-02,-6.490162760019302368e-02,7.033688575029373169e-02,4.764816537499427795e-02,5.398309603333473206e-02,2.577773854136466980e-02,9.035914391279220581e-02,7.420587539672851562e-02,5.686551705002784729e-02,9.212151169776916504e-02,4.304983466863632202e-02,2.112316526472568512e-02,5.638869106769561768e-02,1.857119053602218628e-02,-2.842502901330590248e-03,7.324104756116867065e-02,8.762378245592117310e-02,-1.101893212762661278e-05,1.953109167516231537e-02,1.143263280391693115e-01,-1.736496202647686005e-02,-7.331533730030059814e-02,1.693694740533828735e-01,-4.131626710295677185e-02,6.588039547204971313e-02,-4.835961014032363892e-02,-8.473236858844757080e-02,2.901514805853366852e-02,-6.446429342031478882e-02,7.648043334484100342e-02,-2.129567600786685944e-02,1.032351553440093994e-01,-9.441999346017837524e-02,-3.515246137976646423e-02,-8.287120610475540161e-03,-6.266756355762481689e-02,-8.414544165134429932e-03,-1.406270824372768402e-02,1.368013117462396622e-02,9.450095705687999725e-03,6.857667118310928345e-02
-5.033090338110923767e-02,1.470350939780473709e-02,-6.715569645166397095e-02,9.273190051317214966e-02,-5.334052816033363342e-02,-7.205680012702941895e-03,7.799657434225082397e-02,-8.018817007541656494e-02,-1.335922349244356155e-02,1.092379260808229446e-02,4.664831794798374176e-03,-2.102169021964073181e-02,-6.450214236974716187e-02,2.073596790432929993e-02,-8.120941370725631714e-02,-9.893853217363357544e-02,-5.767800286412239075e-02,-1.383396331220865250e-02,-4.691114649176597595e-02,5.697037279605865479e-02,-2.659654803574085236e-02,-4.390801861882209778e-02,-1.202353760600090027e-01,6.261993944644927979e-02,-3.543991968035697937e-02,1.130323298275470734e-02,1.067730039358139038e-01,-3.755616396665573120e-02,-3.368783742189407349e-02,-3.203563764691352844e-02,-7.657260447740554810e-02,2.247976884245872498e-02,3.965269401669502258e-02,3.410228341817855835e-02,6.142885982990264893e-02,-1.173496246337890625e-02,-4.684638977050781250e-02,-1.389548648148775101e-02,9.866595268249511719e-03,-4.864523559808731079e-02,1.718898676335811615e-02,1.334385666996240616e-02,1.922203577123582363e-03,-2.612142078578472137e-02,6.005846336483955383e-02,-5.117977783083915710e-02,5.216420814394950867e-02,5.759914405643939972e-03,9.059819392859935760e-03,1.780891232192516327e-02,6.131081283092498779e-02,5.878987908363342285e-02,-5.167071521282196045e-02,1.243666782975196838e-01,1.419116854667663574e-01,-1.829742491245269775e-01,1.353602558374404907e-01,2.975689247250556946e-02,-9.827476739883422852e-02,-1.127825304865837097e-02,-1.382998842746019363e-02,3.765548020601272583e-02,-1.529083121567964554e-02,7.671366631984710693e-02,-8.322754502296447754e-02,4.988250322639942169e-03,-1.225010864436626434e-02,-8.515521883964538574e-02,8.007635176181793213e-02,3.899634117260575294e-03,-6.846720352768898010e-03,6.421692669391632080e-02,-1.867301762104034424e-02,-5.806564912199974060e-02,9.122790768742561340e-03,6.432685256004333496e-02,3.193745017051696777e-02,-1.575490273535251617e-02,-2.378116734325885773e-02,-2.389769256114959717e-02,-2.668817527592182159e-02,-2.263382822275161743e-02,-3.624790906906127930e-02,6.276807188987731934e-02,-3.697838634252548218e-02,-4.330276045948266983e-03,5.821023136377334595e-02,1.277155242860317230e-02,8.361919224262237549e-02,9.979121387004852295e-03,-5.770712718367576599e-02,-6.715984642505645752e-02,-1.793179064989089966e-01,-3.916442394256591797e-01,3.762973099946975708e-02,-5.710467696189880371e-03,6.281101703643798828e-02,6.014981120824813843e-02,5.180877447128295898e-02,1.859818148659542203e-04,3.511897474527359009e-02,-1.920591224916279316e-03,5.703943595290184021e-02,7.334912568330764771e-02,6.388284731656312943e-03,-3.953377902507781982e-02,-4.230456426739692688e-02,-2.273392677307128906e-02,1.005959585309028625e-01,2.874587662518024445e-02,2.887369878590106964e-02,1.755181327462196350e-02,2.308295667171478271e-02,5.515605676919221878e-03,-5.387297645211219788e-02,-2.760034613311290741e-02,1.303196251392364502e-01,1.055559888482093811e-02,-5.663001537322998047e-02,1.979407481849193573e-02,-5.182139202952384949e-02,1.076325774192810059e-01,-3.959313780069351196e-02,4.466495290398597717e-02,-5.654094740748405457e-02,-1.360304746776819229e-02,3.782456507906317711e-03,-3.317457810044288635e-02,-2.423289418220520020e-02,4.988457262516021729e-02,-3.552305698394775391e-02,6.995128095149993896e-02,5.307174101471900940e-02,1.827490702271461487e-02,-7.226541638374328613e-02,6.484915316104888916e-02,-1.377988606691360474e-01,-5.977210588753223419e-03,6.299803964793682098e-03,1.349483150988817215e-02,-1.329895853996276855e-02,2.334628999233245850e-02,-7.635351270437240601e-02
-4.067177325487136841e-02,-5.002872087061405182e-03,1.284570549614727497e-03,7.365569472312927246e-02,-6.295267492532730103e-02,3.932819515466690063e-02,6.060346961021423340e-02,-1.471652835607528687e-02,-5.991464853286743164e-02,-1.140192598104476929e-01,-5.693063884973526001e-02,-8.165104687213897705e-02,8.047325536608695984e-04,-8.804186433553695679e-02,6.168053671717643738e-02,-2.859457209706306458e-02,1.263319794088602066e-02,1.175307482481002808e-02,-2.450943738222122192e-02,-4.460475593805313110e-02,4.447748139500617981e-02,-3.646296635270118713e-02,-3.368758410215377808e-02,1.738841645419597626e-02,-1.909374259412288666e-02,2.899980172514915466e-02,2.330131642520427704e-02,1.000314392149448395e-02,-4.552774503827095032e-02,5.826678499579429626e-02,9.986223280429840088e-02,4.637755081057548523e-02,2.049412392079830170e-02,-8.991328999400138855e-03,1.076755765825510025e-02,3.868550434708595276e-02,-2.776207588613033295e-02,7.852903567254543304e-03,-2.206587232649326324e-02,2.937700785696506500e-02,2.786499075591564178e-02,5.337261408567428589e-02,3.327050060033798218e-02,9.250807017087936401e-02,1.209373027086257935e-02,-4.225939977914094925e-03,3.757828846573829651e-02,-3.041833115275949240e-04,1.736826845444738865e-03,7.490067183971405029e-02,-3.918577916920185089e-03,-2.887558750808238983e-02,2.017813548445701599e-02,-5.194489285349845886e-02,-7.017508149147033691e-02,-3.491540439426898956e-03,8.237730711698532104e-02,-1.190752256661653519e-02,1.883727498352527618e-02,-1.556340232491493225e-02,-3.387061506509780884e-02,8.793601393699645996e-02,-1.940658502280712128e-02,5.810560286045074463e-02,9.267111122608184814e-02,5.327975749969482422e-02,1.071376353502273560e-01,3.003048151731491089e-02,1.982047036290168762e-02,-5.279969424009323120e-02,5.771620199084281921e-02,5.277218669652938843e-02,-1.453826855868101120e-02,-4.184078052639961243e-02,2.953100390732288361e-02,1.636314578354358673e-02,6.553815305233001709e-02,1.689960248768329620e-02,1.866542920470237732e-02,5.768280103802680969e-02,2.608916908502578735e-02,9.173911809921264648e-02,7.117763161659240723e-02,-3.314860165119171143e-02,8.387945592403411865e-02,8.423659205436706543e-02,-2.608296833932399750e-02,-1.039600931107997894e-02,1.009081955999135971e-02,2.529401518404483795e-02,1.646177406655624509e-04,-4.334053024649620056e-02,-2.584945410490036011e-02,-5.711462348699569702e-03,2.508195117115974426e-03,2.179755456745624542e-02,-3.478138893842697144e-02,-8.541405200958251953e-02,-3.092125058174133301e-02,5.506577715277671814e-02,-8.627620525658130646e-03,1.053843460977077484e-02,9.007498621940612793e-03,1.513282023370265961e-02,5.746025964617729187e-02,3.478946909308433533e-02,6.952674593776464462e-03,3.021203912794589996e-02,1.111465319991111755e-02,-6.621832959353923798e-03,2.619368955492973328e-02,5.653440207242965698e-02,4.989831522107124329e-02,4.384717717766761780e-02,1.140226237475872040e-02,1.331211030483245850e-01,-8.560298942029476166e-03,-1.817305944859981537e-02,-7.111883908510208130e-02,1.502712257206439972e-02,-2.642077952623367310e-02,-3.211705759167671204e-02,2.743696980178356171e-02,1.094511896371841431e-01,1.651231572031974792e-02,-3.234770614653825760e-03,4.281814396381378174e-02,-2.791019156575202942e-02,-5.451537296175956726e-02,7.002142816781997681e-02,-1.669119447469711304e-01,8.072555065155029297e-02,3.353848308324813843e-02,-3.784514591097831726e-02,4.745832085609436035e-02,9.421346709132194519e-03,4.486984014511108398e-02,1.567886918783187866e-01,-1.127606909722089767e-02,8.974916301667690277e-03,-8.100736141204833984e-02,1.484648417681455612e-02,-6.352559477090835571e-02
-5.792148038744926453e-02,-5.222988780587911606e-03,5.161054432392120361e-03,-3.161618858575820923e-02,-3.719087317585945129e-02,-4.217939078807830811e-02,6.003748252987861633e-02,-2.106384560465812683e-02,-5.192279815673828125e-02,-2.500382624566555023e-02,-4.387403279542922974e-02,-8.654445409774780273e-02,8.992455899715423584e-02,-1.577285118401050568e-02,2.691640146076679230e-02,-2.837673760950565338e-02,-4.021223261952400208e-02,3.224469348788261414e-02,-1.140225306153297424e-02,3.040072321891784668e-02,3.847105056047439575e-02,-1.808051578700542450e-02,5.814908072352409363e-02,-3.691921383142471313e-02,2.490066224709153175e-03,-8.133851923048496246e-03,-7.926186919212341309e-02,6.863755732774734497e-02,8.267773687839508057e-02,-2.569366805255413055e-02,-7.109485566616058350e-02,5.309927091002464294e-02,2.275751717388629913e-02,1.130099445581436157e-01,-2.537610754370689392e-02,2.584472484886646271e-02,5.584533885121345520e-02,1.617940887808799744e-02,2.703479863703250885e-02,6.025048345327377319e-02,-4.347361251711845398e-02,3.757189214229583740e-02,7.757495343685150146e-02,5.608130991458892822e-02,-2.665998786687850952e-02,2.636548504233360291e-02,1.294009014964103699e-02,6.440871208906173706e-02,3.170983493328094482e-02,9.617275744676589966e-02,1.223013922572135925e-01,-2.426660992205142975e-02,-7.779911160469055176e-02,-1.300155837088823318e-02,-3.544664010405540466e-02,-8.802400529384613037e-02,5.906465463340282440e-03,3.740463405847549438e-02,5.195306241512298584e-02,4.554005339741706848e-02,-6.118288263678550720e-02,1.005367040634155273e-01,9.941417723894119263e-02,-5.024151876568794250e-02,-8.580691367387771606e-02,7.573232054710388184e-02,4.445454105734825134e-02,-2.168733440339565277e-02,-4.219261556863784790e-02,4.127988591790199280e-03,-2.779019065201282501e-02,2.331630513072013855e-02,-9.522341191768646240e-02,2.418478205800056458e-02,1.253317296504974365e-01,8.604640513658523560e-02,7.269848138093948364e-02,-5.718546453863382339e-03,7.055140286684036255e-02,-1.232156679034233093e-01,5.945920571684837341e-02,-1.717097461223602295e-01,-1.054670140147209167e-01,6.488661468029022217e-02,1.121982783079147339e-01,-6.822257488965988159e-02,-8.432870358228683472e-02,-5.555707961320877075e-02,-3.628816828131675720e-02,-4.072941467165946960e-02,-6.006057560443878174e-02,1.235475242137908936e-01,1.127331554889678955e-01,5.548677593469619751e-02,4.327299073338508606e-02,2.563075348734855652e-02,4.503022134304046631e-02,6.497912108898162842e-02,4.188979417085647583e-02,-2.378509752452373505e-02,1.248222868889570236e-02,-3.032806143164634705e-02,-1.883274130523204803e-02,-7.046442013233900070e-03,-1.263352185487747192e-01,-4.593168199062347412e-02,3.862442076206207275e-02,8.766090869903564453e-02,2.143367193639278412e-02,3.965232148766517639e-02,3.713266178965568542e-02,3.997174650430679321e-02,7.024233043193817139e-02,9.528391063213348389e-02,5.275736376643180847e-02,-2.298291539773344994e-03,4.059053212404251099e-02,4.746124520897865295e-02,6.218908354640007019e-02,3.670063242316246033e-02,1.161996051669120789e-01,8.818076457828283310e-04,4.647910222411155701e-02,-5.364669952541589737e-03,5.164653435349464417e-02,2.212905697524547577e-02,1.061484124511480331e-02,-6.495573371648788452e-02,-8.190999180078506470e-02,-4.723848775029182434e-02,4.032457992434501648e-02,-1.671450734138488770e-01,-1.697890460491180420e-02,-3.160696849226951599e-02,-8.247919031418859959e-04,8.101980388164520264e-02,-4.148721229285001755e-03,1.812096238136291504e-01,3.104775957763195038e-02,3.328835964202880859e-02,-1.633902639150619507e-02,-4.024476185441017151e-02,-1.485492587089538574e-01
3.186149150133132935e-02,1.480482704937458038e-02,1.324142366647720337e-01,-1.381406839936971664e-02,-3.610537573695182800e-02,-1.099776104092597961e-01,1.998408697545528412e-02,-1.075246557593345642e-02,3.474712371826171875e-02,1.427110005170106888e-02,1.577395014464855194e-02,2.777593955397605896e-02,6.184707954525947571e-02,-4.655355121940374374e-03,4.233320802450180054e-02,-4.202365502715110779e-02,-5.371302738785743713e-02,-1.750123128294944763e-02,5.286912620067596436e-02,-1.552127534523606300e-03,5.585173889994621277e-02,2.661796286702156067e-02,8.114849030971527100e-02,2.337402105331420898e-02,1.384468749165534973e-02,9.185004979372024536e-03,-1.254898309707641602e-01,2.827980183064937592e-02,-8.822158724069595337e-02,-8.584371209144592285e-02,5.498202145099639893e-02,1.634293608367443085e-02,-4.422203451395034790e-02,-8.495757356286048889e-03,-2.381993085145950317e-02,8.822292089462280273e-02,1.237912625074386597e-01,6.813117116689682007e-02,4.967908561229705811e-02,1.789512671530246735e-02,7.588741835206747055e-03,9.776223450899124146e-03,4.845176264643669128e-02,5.455207079648971558e-02,3.394956514239311218e-02,-1.601371169090270996e-02,-3.744645416736602783e-02,4.000597447156906128e-02,-1.224387343972921371e-02,-2.891494194045662880e-03,-3.882422298192977905e-02,-7.375625520944595337e-02,7.621971517801284790e-02,-1.416628155857324600e-02,6.362031400203704834e-02,-5.702111124992370605e-02,-1.018149685114622116e-02,9.102067351341247559e-02,-3.478594496846199036e-02,-4.146872088313102722e-02,6.470380723476409912e-02,1.186182629317045212e-02,3.250829642638564110e-03,-1.843738108873367310e-01,7.631991058588027954e-02,1.162634883075952530e-02,1.282596681267023087e-02,-6.797696650028228760e-02,-4.925620183348655701e-02,-8.259223401546478271e-02,9.022034704685211182e-02,3.560578823089599609e-02,1.245209202170372009e-01,-6.529600918292999268e-02,3.622462740167975426e-03,3.671240434050559998e-02,-1.333547476679086685e-02,-6.172633264213800430e-03,6.121145933866500854e-02,-4.438570886850357056e-02,1.012930087745189667e-02,-3.619804605841636658e-02,-1.149199064821004868e-02,-5.691171810030937195e-02,1.364793442189693451e-02,-3.204859420657157898e-02,2.205031923949718475e-02,1.028641760349273682e-01,-4.475242272019386292e-02,-1.754550822079181671e-02,-7.173431105911731720e-03,-1.107940897345542908e-01,2.587025426328182220e-02,-7.319860905408859253e-02,5.089092627167701721e-02,-1.788373477756977081e-02,-3.142435103654861450e-02,6.882680207490921021e-02,-5.067436397075653076e-02,8.028549700975418091e-02,2.254599332809448242e-02,1.265583839267492294e-02,2.236727625131607056e-02,2.247653901576995850e-02,-6.263425573706626892e-03,2.841527014970779419e-02,1.945768669247627258e-02,3.542694076895713806e-02,1.132397279143333435e-01,-5.085978284478187561e-02,3.131746500730514526e-02,5.953343585133552551e-02,-1.655147969722747803e-02,4.223082680255174637e-03,3.206491097807884216e-02,1.470374688506126404e-02,-1.305033415555953979e-01,1.158508583903312683e-01,1.094286441802978516e-01,1.176302656531333923e-01,3.559971973299980164e-02,-1.841932684183120728e-01,3.769207000732421875e-02,7.845154404640197754e-02,-8.069074153900146484e-02,-7.980183511972427368e-02,-1.043325439095497131e-01,-8.122639358043670654e-02,5.149033665657043457e-02,-7.338047772645950317e-02,1.431055460125207901e-02,3.819313645362854004e-02,-8.848574012517929077e-03,8.296377211809158325e-02,-5.748913064599037170e-02,-1.971024647355079651e-02,2.542349696159362793e-02,-8.331976085901260376e-02,2.591243572533130646e-02,7.300783693790435791e-02,-1.452581137418746948e-01,-1.348839104175567627e-01,-1.631516963243484497e-01
3.866061940789222717e-02,1.638297177851200104e-02,-5.807055905461311340e-02,-3.309769555926322937e-02,1.729140244424343109e-02,-4.230358451604843140e-02,-1.456905901432037354e-02,-3.902298631146550179e-04,-2.526939474046230316e-02,1.390212327241897583e-01,7.307912409305572510e-02,4.487849306315183640e-03,4.644606634974479675e-02,1.290473192930221558e-01,7.315110415220260620e-02,2.009288780391216278e-02,8.241485804319381714e-02,7.742769271135330200e-02,5.998778715729713440e-02,1.349849551916122437e-01,2.225799113512039185e-02,-1.126646995544433594e-01,-7.746713608503341675e-02,-4.380915686488151550e-02,4.970138520002365112e-02,2.789986878633499146e-02,7.521836087107658386e-04,4.383623227477073669e-02,7.199960947036743164e-02,2.546940557658672333e-02,3.914918750524520874e-02,8.597998879849910736e-03,1.721184328198432922e-02,8.018638193607330322e-02,9.951129555702209473e-02,1.339280977845191956e-02,2.522310987114906311e-02,3.665334079414606094e-04,-9.655447676777839661e-03,6.552005559206008911e-02,4.404482617974281311e-02,3.373470529913902283e-02,1.986633427441120148e-02,8.954791724681854248e-02,-3.958179056644439697e-02,3.103750012814998627e-02,3.689642250537872314e-02,3.622897341847419739e-02,5.298056080937385559e-02,5.283819884061813354e-02,6.167971342802047729e-02,-1.175576448440551758e-01,-5.285115167498588562e-02,4.398050904273986816e-02,7.269307225942611694e-02,4.439549893140792847e-02,-4.459634050726890564e-02,-5.449000373482704163e-02,-2.467037551105022430e-02,-1.870086044073104858e-02,-9.705166332423686981e-03,-5.171884223818778992e-02,-5.007267743349075317e-02,-2.256222814321517944e-02,-1.639004051685333252e-01,-3.789698332548141479e-02,4.558816362987272441e-05,1.031512692570686340e-01,-8.408828824758529663e-02,8.122093230485916138e-02,9.238249808549880981e-02,-2.999028936028480530e-02,1.580712571740150452e-02,-7.910144329071044922e-02,8.775163441896438599e-03,-2.882676012814044952e-02,6.725579034537076950e-03,-1.893521659076213837e-02,-1.241377927362918854e-02,6.178256496787071228e-02,6.624254584312438965e-02,3.337991237640380859e-02,3.226697444915771484e-03,-1.519738286733627319e-01,-8.895483613014221191e-02,-9.779881220310926437e-04,-4.711572546511888504e-03,1.474842876195907593e-01,8.352241665124893188e-02,-8.239789307117462158e-02,-8.065713942050933838e-02,-8.837672881782054901e-03,1.197635978460311890e-01,4.387381300330162048e-02,9.102113544940948486e-02,6.021098047494888306e-02,-7.765253074467182159e-03,5.213613063097000122e-02,1.475967019796371460e-01,7.442151010036468506e-02,-4.238580819219350815e-03,2.434593066573143005e-02,-5.889035528525710106e-04,-1.397533249109983444e-02,-3.452440723776817322e-02,9.835087694227695465e-03,2.286358177661895752e-02,7.810367736965417862e-03,-1.990198343992233276e-02,5.416557565331459045e-02,2.608349919319152832e-02,-7.736248429864645004e-03,1.965479739010334015e-02,5.145803466439247131e-02,7.847119122743606567e-03,4.415828734636306763e-02,-1.041850373148918152e-01,-5.743651464581489563e-02,9.419378638267517090e-02,-8.644053712487220764e-03,8.217580616474151611e-02,1.045671105384826660e-01,3.471159562468528748e-02,-9.307247586548328400e-03,7.918299175798892975e-03,5.334192514419555664e-02,5.618158355355262756e-02,7.979840040206909180e-02,-2.153271734714508057e-01,3.284290432929992676e-02,-3.226825594902038574e-02,2.887830436229705811e-01,1.130265295505523682e-01,2.257578819990158081e-01,1.172517910599708557e-01,6.526590138673782349e-02,9.626875817775726318e-02,3.328330814838409424e-02,1.267372863367199898e-03,2.994687110185623169e-02,7.753357291221618652e-02,1.232517417520284653e-02,1.092550009489059448e-01
-1.051343046128749847e-02,1.064823418855667114e-01,-2.755483379587531090e-03,2.102093584835529327e-02,-4.010789096355438232e-02,-3.458013758063316345e-02,5.773735418915748596e-02,2.830104343593120575e-02,-7.274158298969268799e-02,-5.945686995983123779e-02,-5.033068824559450150e-03,4.468476027250289917e-02,5.565408989787101746e-02,-4.639046639204025269e-02,-5.507746711373329163e-02,-3.444537147879600525e-02,-5.293239280581474304e-02,4.792226850986480713e-02,1.324516721069812775e-02,6.471297703683376312e-03,1.020483449101448059e-01,-5.994565784931182861e-02,-6.348595023155212402e-02,2.476725727319717407e-02,4.600343480706214905e-02,8.131636679172515869e-02,-1.196928322315216064e-01,-2.065306156873703003e-02,3.181870281696319580e-02,-4.620469734072685242e-02,1.801677793264389038e-02,5.456421151757240295e-02,4.969722777605056763e-02,-2.066388353705406189e-02,2.435780130326747894e-02,2.388230152428150177e-02,2.475453168153762817e-02,4.711356014013290405e-02,3.704086691141128540e-02,4.033184051513671875e-02,4.213012382388114929e-02,6.711116433143615723e-02,5.232836678624153137e-02,4.401920735836029053e-02,4.211746901273727417e-02,1.748703233897686005e-02,2.978986687958240509e-02,7.014583796262741089e-02,5.213926360011100769e-02,3.839072957634925842e-02,1.480471249669790268e-02,2.392854914069175720e-02,5.379093810915946960e-02,-3.179522976279258728e-02,-5.509726703166961670e-02,2.542395330965518951e-02,4.622277989983558655e-02,8.922587335109710693e-02,1.959268562495708466e-02,3.677226603031158447e-02,2.289117500185966492e-02,-3.663257509469985962e-02,4.845682065933942795e-03,-3.689658641815185547e-01,1.026487946510314941e-01,2.969746291637420654e-02,-3.127633407711982727e-02,3.560356423258781433e-02,-3.608556464314460754e-02,-1.789896562695503235e-02,-5.394861102104187012e-03,-2.909457497298717499e-02,3.568482398986816406e-02,8.376179262995719910e-03,-4.980932176113128662e-02,-1.687558367848396301e-02,-3.890832141041755676e-02,1.502207107841968536e-02,1.193596050143241882e-01,1.055056899785995483e-01,7.122705876827239990e-02,-2.740723639726638794e-02,7.435552775859832764e-02,3.338888660073280334e-02,9.592751413583755493e-02,4.214600473642349243e-02,4.691590741276741028e-02,-4.891046881675720215e-02,-1.081493124365806580e-02,-4.215584695339202881e-02,-2.214377559721469879e-02,-4.990851506590843201e-03,1.124774292111396790e-01,-1.326687540858983994e-02,-3.892591223120689392e-02,4.613677039742469788e-02,4.988566413521766663e-02,-2.575314976274967194e-02,-6.428005546331405640e-02,-4.895438626408576965e-02,-5.813112948089838028e-03,2.080193348228931427e-02,-1.077168621122837067e-02,-4.092058911919593811e-02,2.127841114997863770e-02,7.873707450926303864e-03,4.961867630481719971e-02,1.950539201498031616e-01,-3.186539933085441589e-02,5.743611603975296021e-03,1.565158367156982422e-03,-1.816609688103199005e-02,9.367211163043975830e-02,3.640903532505035400e-02,-2.989694289863109589e-02,2.098686806857585907e-02,-4.272263962775468826e-03,4.915709723718464375e-04,4.814491420984268188e-02,3.301679855212569237e-03,-2.092342972755432129e-01,1.370414197444915771e-01,1.100176274776458740e-01,-8.497591316699981689e-02,-2.241774275898933411e-02,-3.484744951128959656e-02,1.212504878640174866e-02,6.677123904228210449e-02,8.051491528749465942e-02,-1.174341663718223572e-01,4.194936528801918030e-02,1.748991943895816803e-02,1.122183538973331451e-02,-1.079265475273132324e-01,-6.398288905620574951e-02,8.405176550149917603e-02,-1.139683555811643600e-02,-3.125589340925216675e-02,-2.742549031972885132e-02,-7.477034628391265869e-02,-1.203381270170211792e-02,-7.901183515787124634e-02,1.681911991909146309e-03
6.458171177655458450e-03,7.888772524893283844e-03,-1.079167332500219345e-02,-3.609391301870346069e-02,7.873903959989547729e-03,-4.411389585584402084e-03,3.716082498431205750e-02,7.396656088531017303e-03,-4.693770781159400940e-03,1.364228576421737671e-01,4.541730508208274841e-02,5.685055255889892578e-02,-6.081692874431610107e-02,9.854739904403686523e-02,5.307195708155632019e-02,2.285275608301162720e-02,1.112132743000984192e-01,1.338158845901489258e-01,1.759033277630805969e-02,3.405094146728515625e-02,2.503839880228042603e-02,-3.558060154318809509e-02,-7.503852248191833496e-03,-4.800177738070487976e-02,4.699390847235918045e-03,-1.212776266038417816e-02,9.833353012800216675e-02,-1.276521086692810059e-01,-8.730493485927581787e-02,4.689113236963748932e-03,8.327093906700611115e-03,-1.733259297907352448e-02,3.677884861826896667e-02,-2.228603139519691467e-02,7.242743857204914093e-03,7.819078862667083740e-03,5.672454135492444038e-04,4.515655338764190674e-02,3.607449680566787720e-02,-4.017471894621849060e-02,3.255646675825119019e-03,1.568376272916793823e-02,2.916055917739868164e-02,1.885135844349861145e-02,4.533506929874420166e-02,4.987170919775962830e-03,2.791227772831916809e-02,2.042513713240623474e-02,-3.467444563284516335e-03,3.533992543816566467e-02,-3.101210668683052063e-02,4.798345640301704407e-02,-4.793148860335350037e-02,7.236353307962417603e-02,4.975660517811775208e-02,-1.529074460268020630e-02,5.583270639181137085e-02,3.002263605594635010e-02,5.954542011022567749e-02,-1.447662245482206345e-02,2.892172522842884064e-02,7.107795774936676025e-02,1.288529206067323685e-02,8.437315374612808228e-02,-1.191090494394302368e-01,-8.409776538610458374e-02,-3.282200172543525696e-02,-8.666767738759517670e-03,1.949626393616199493e-02,-2.753556147217750549e-02,6.097619421780109406e-03,4.768388718366622925e-02,-1.794154196977615356e-02,-7.072481326758861542e-03,-1.217477843165397644e-01,-7.156765460968017578e-02,-3.908390551805496216e-02,1.360207498073577881e-01,-1.525063216686248779e-01,1.637131869792938232e-01,1.586101055145263672e-01,1.137281507253646851e-01,-2.016450837254524231e-02,9.265365451574325562e-02,8.810485154390335083e-02,4.743647202849388123e-02,5.512546747922897339e-02,3.260231018066406250e-02,4.887568950653076172e-02,6.318221986293792725e-02,3.009835444390773773e-02,-5.618828162550926208e-02,-1.606951504945755005e-01,1.125836297869682312e-01,5.952540785074234009e-02,1.746245920658111572e-01,-1.906463410705327988e-03,-9.027858078479766846e-02,1.271134763956069946e-01,3.465282171964645386e-02,7.681951671838760376e-02,5.221945419907569885e-02,4.887236654758453369e-02,4.874600097537040710e-02,-9.421257674694061279e-02,-9.483359009027481079e-02,-4.312554374337196350e-02,2.762165665626525879e-02,3.365807607769966125e-02,8.372116088867187500e-02,2.967608906328678131e-02,4.700611904263496399e-02,-8.082817494869232178e-02,-8.060980588197708130e-02,-2.262738533318042755e-02,2.884681150317192078e-02,-8.966453373432159424e-03,-1.184402108192443848e-01,2.746696583926677704e-02,-9.301279485225677490e-02,-2.593700215220451355e-02,1.229840293526649475e-01,4.279181733727455139e-02,-2.893160842359066010e-02,-1.239479184150695801e-01,6.202807277441024780e-02,-1.808307319879531860e-02,-4.568670876324176788e-03,9.843014180660247803e-02,1.871331930160522461e-01,-5.423048138618469238e-02,1.736642420291900635e-02,-2.790486626327037811e-02,1.498179044574499130e-02,-5.668549798429012299e-03,1.083886530250310898e-02,-2.909948490560054779e-02,-3.459969907999038696e-02,-6.369817256927490234e-02,9.544631093740463257e-02,-4.997546970844268799e-02,-4.757064953446388245e-02,1.357724890112876892e-02
7.357839494943618774e-03,3.534460067749023438e-02,8.091054856777191162e-03,1.573348231613636017e-02,-1.016910094767808914e-02,2.680666930973529816e-02,4.862249363213777542e-03,-3.073249943554401398e-02,7.165926694869995117e-02,5.297899991273880005e-02,1.259795874357223511e-01,8.691176027059555054e-02,-1.679057255387306213e-03,1.138227656483650208e-01,1.782595925033092499e-02,4.138712212443351746e-02,-4.974837973713874817e-02,1.316828653216362000e-02,6.864259392023086548e-02,1.234121527522802353e-02,3.961276728659868240e-03,3.969607874751091003e-03,7.726710289716720581e-02,5.661653727293014526e-02,1.720307953655719757e-02,3.048910200595855713e-02,6.602975726127624512e-02,4.125210270285606384e-02,5.948156118392944336e-02,-4.746858403086662292e-02,-1.370649784803390503e-02,5.504118651151657104e-02,3.450966253876686096e-02,7.653556764125823975e-02,9.551432728767395020e-02,1.889807730913162231e-02,4.091550782322883606e-02,2.119772508740425110e-02,2.478471025824546814e-02,-5.760057363659143448e-03,6.032055616378784180e-02,4.427694901823997498e-02,5.922384560108184814e-02,3.203947842121124268e-02,3.980908915400505066e-02,2.845586650073528290e-02,2.850049734115600586e-02,3.399474546313285828e-02,5.226446315646171570e-02,4.487797990441322327e-02,2.359796129167079926e-02,1.144170388579368591e-02,-9.260171093046665192e-03,3.458604961633682251e-02,6.696960330009460449e-02,4.692451283335685730e-02,8.719041012227535248e-03,3.966945037245750427e-02,8.019085973501205444e-02,3.626877814531326294e-02,-1.254027616232633591e-02,4.708929453045129776e-03,-8.039662986993789673e-02,1.897689886391162872e-02,-5.057175830006599426e-02,-1.271407306194305420e-01,1.852023764513432980e-03,-6.049820687621831894e-03,-1.471571810543537140e-02,-5.493834614753723145e-02,-1.098261587321758270e-02,2.899777702987194061e-02,3.846899420022964478e-02,-5.549382418394088745e-02,-5.310169979929924011e-02,2.103388682007789612e-02,7.801510393619537354e-02,5.900735035538673401e-02,-3.155955299735069275e-02,7.651760429143905640e-02,1.018468663096427917e-01,3.670568391680717468e-02,9.244067966938018799e-02,7.266048341989517212e-02,-9.237865358591079712e-02,6.608903408050537109e-02,-2.242651954293251038e-02,5.895496904850006104e-02,7.330203801393508911e-02,6.928940769284963608e-03,3.517207503318786621e-02,5.587640404701232910e-02,8.572415262460708618e-02,3.154118731617927551e-02,2.725780196487903595e-02,2.331808395683765411e-02,1.861844584345817566e-02,-2.311403630301356316e-03,6.857911497354507446e-02,3.600347042083740234e-02,2.323163487017154694e-02,1.578160747885704041e-02,1.447687111794948578e-02,1.280149724334478378e-02,5.918635427951812744e-02,4.852731898427009583e-02,5.784435197710990906e-02,8.366417139768600464e-02,4.211022704839706421e-02,3.738571330904960632e-02,2.409514226019382477e-02,4.075018316507339478e-02,5.855208635330200195e-02,3.267328441143035889e-02,8.106034994125366211e-02,9.669056534767150879e-02,-5.504960659891366959e-03,4.910568520426750183e-02,2.071222662925720215e-02,4.309359472244977951e-03,9.697952866554260254e-02,1.195070892572402954e-01,3.485918417572975159e-02,7.938169687986373901e-02,3.338700532913208008e-02,4.111257568001747131e-02,1.698308810591697693e-02,5.930264294147491455e-02,-1.212875321507453918e-01,4.298228397965431213e-02,-4.638264700770378113e-02,3.352995216846466064e-02,-3.285916894674301147e-02,3.857356682419776917e-02,3.422321379184722900e-02,1.998951658606529236e-02,5.144690722227096558e-02,-7.029800117015838623e-02,1.134290173649787903e-02,6.026753224432468414e-03,1.232401207089424133e-01,3.504269989207386971e-03,6.608985364437103271e-02
-3.365570306777954102e-02,1.127885468304157257e-02,2.885225228965282440e-02,9.483692795038223267e-02,1.381935458630323410e-02,3.212038427591323853e-02,-1.079721841961145401e-02,-3.518125042319297791e-02,6.143239513039588928e-02,-1.488256175071001053e-02,1.162601448595523834e-02,3.218745067715644836e-02,5.849941074848175049e-02,-2.581289410591125488e-02,1.113496124744415283e-01,8.650144189596176147e-02,6.756635755300521851e-02,3.041351959109306335e-02,4.239052534103393555e-02,5.741315707564353943e-02,5.105524137616157532e-02,3.545982018113136292e-02,2.902306430041790009e-02,-3.913867101073265076e-02,5.238741263747215271e-02,5.558223649859428406e-02,8.218754082918167114e-03,-1.140440162271261215e-02,1.151592005044221878e-03,-3.245083987712860107e-02,5.178103223443031311e-02,1.769101805984973907e-02,5.233681201934814453e-02,5.276289954781532288e-02,4.453055933117866516e-02,4.551044479012489319e-02,4.992226883769035339e-02,5.893949046730995178e-02,7.561354339122772217e-02,1.227503120899200439e-01,3.830475732684135437e-02,4.293335601687431335e-03,-2.943782135844230652e-02,8.149563334882259369e-03,1.923735998570919037e-02,-1.876713708043098450e-02,5.566329695284366608e-03,-4.378625378012657166e-02,-1.625451818108558655e-02,-5.008112266659736633e-02,-6.928601115942001343e-02,1.126218680292367935e-02,-2.309824898838996887e-02,-1.730397343635559082e-02,4.128024354577064514e-02,2.793852053582668304e-02,3.744335379451513290e-03,-4.391641169786453247e-02,3.294886648654937744e-02,1.920750550925731659e-02,-3.552696481347084045e-02,-1.397336926311254501e-02,6.688215304166078568e-03,3.203326091170310974e-02,8.810714632272720337e-02,-3.436110913753509521e-02,1.351239188807085156e-04,-7.839073985815048218e-02,-4.779560863971710205e-02,-1.484199520200490952e-02,6.015054415911436081e-03,-6.825856864452362061e-02,8.862049318850040436e-03,-1.592183834873139858e-03,-1.334974355995655060e-02,3.522506356239318848e-02,8.218133822083473206e-03,5.398212373256683350e-02,1.732387579977512360e-02,-6.180997937917709351e-02,-8.428575098514556885e-02,-4.706165287643671036e-03,-1.334697101265192032e-02,-1.122073382139205933e-01,2.616482600569725037e-02,-2.607626654207706451e-02,1.013600267469882965e-02,-5.745444074273109436e-02,1.166694331914186478e-02,2.485232241451740265e-02,3.488967567682266235e-02,8.023349195718765259e-02,-5.398974940180778503e-02,-3.479377832263708115e-03,7.995948195457458496e-03,-3.136913850903511047e-02,-2.595298737287521362e-02,4.662695154547691345e-02,5.267048999667167664e-02,-4.031070321798324585e-02,4.810046032071113586e-02,5.437286570668220520e-02,5.131013691425323486e-02,6.160010024905204773e-02,8.099726587533950806e-02,-7.146760821342468262e-03,5.078876391053199768e-02,-1.651845127344131470e-02,1.072972789406776428e-01,7.163257151842117310e-02,6.788088381290435791e-02,8.240692317485809326e-02,-3.240004554390907288e-02,4.532295465469360352e-02,2.793711610138416290e-02,1.081885248422622681e-01,3.932081907987594604e-02,-2.818133495748043060e-02,3.774861246347427368e-02,8.272580057382583618e-02,3.928146511316299438e-02,7.899525761604309082e-02,-2.818393986672163010e-04,1.259705573320388794e-01,4.248279705643653870e-02,4.378718882799148560e-02,7.982861250638961792e-02,6.486102938652038574e-02,7.518242299556732178e-02,-1.400236934423446655e-01,-5.085358768701553345e-02,1.427117437124252319e-01,-4.442195594310760498e-02,1.106445714831352234e-01,-6.580334156751632690e-03,6.123249977827072144e-02,6.405927985906600952e-02,-4.476728290319442749e-02,4.021261632442474365e-02,-2.466441132128238678e-02,5.825076624751091003e-02,7.937246561050415039e-02,-5.071250721812248230e-02
3.608830273151397705e-02,-6.643640249967575073e-02,-1.841642521321773529e-02,2.785151265561580658e-02,-3.747437149286270142e-02,-1.409727707505226135e-02,-5.811932682991027832e-02,-2.530148951336741447e-03,2.919552102684974670e-02,-7.024451345205307007e-02,-7.672528177499771118e-02,-3.993208333849906921e-02,-1.161213964223861694e-02,-7.615856081247329712e-02,-2.966253459453582764e-02,-1.600874662399291992e-01,-5.211179330945014954e-02,-4.072238877415657043e-02,-3.742282465100288391e-02,-4.415487125515937805e-02,3.037834307178854942e-03,1.684471615590155125e-03,-4.309843480587005615e-02,-3.001326881349086761e-02,-1.318344380706548691e-02,3.405277803540229797e-02,-1.926943473517894745e-02,1.173206418752670288e-01,-4.817553237080574036e-02,2.593679726123809814e-02,2.056924253702163696e-02,4.545519873499870300e-02,5.796851590275764465e-02,-8.774793893098831177e-02,3.270380664616823196e-03,1.125530712306499481e-02,5.372609943151473999e-03,1.867482252418994904e-02,-1.152107864618301392e-02,-3.873171750456094742e-03,5.134112387895584106e-02,4.844600334763526917e-03,-5.394465103745460510e-02,-2.196786738932132721e-02,3.204703703522682190e-02,2.385945618152618408e-02,-2.019197121262550354e-02,9.011895162984728813e-04,-8.537639677524566650e-02,-5.233522504568099976e-03,2.950388193130493164e-02,3.348355367779731750e-02,2.541598677635192871e-02,-7.688369601964950562e-03,1.672695390880107880e-02,-4.705810174345970154e-02,-1.838379353284835815e-02,-7.517579197883605957e-02,-3.545098379254341125e-02,1.381876878440380096e-02,9.725855663418769836e-03,3.833046182990074158e-02,2.580514550209045410e-02,2.377375774085521698e-02,6.127290055155754089e-02,5.401791632175445557e-02,4.102005809545516968e-02,8.257401734590530396e-02,2.321221120655536652e-02,2.886381698772311211e-03,-1.482524210587143898e-03,5.804420635104179382e-02,-6.024201866239309311e-03,5.549164861440658569e-02,2.240728959441184998e-02,4.059530911035835743e-04,-6.712827831506729126e-02,6.488051265478134155e-03,3.284156695008277893e-02,-5.265857651829719543e-02,-4.726937785744667053e-02,1.428916491568088531e-02,-3.797921352088451385e-03,-6.748918443918228149e-02,-4.431780055165290833e-02,3.857307136058807373e-02,3.511445596814155579e-02,-2.753206528723239899e-02,-1.124336943030357361e-02,-4.576650261878967285e-02,3.647556155920028687e-02,2.906909910961985588e-03,-5.901659280061721802e-02,-3.281555138528347015e-03,1.510415412485599518e-02,-3.269091621041297913e-02,6.896859500557184219e-03,8.323945105075836182e-02,-2.816129662096500397e-02,-1.113167330622673035e-01,6.183096766471862793e-02,-4.877699539065361023e-02,5.971447378396987915e-02,3.941389545798301697e-02,4.303146153688430786e-02,-1.713312231004238129e-02,4.715051874518394470e-02,9.359233081340789795e-02,8.331371098756790161e-02,6.123066996224224567e-04,-9.132368117570877075e-02,8.734748512506484985e-02,1.257302463054656982e-01,1.633221060037612915e-01,4.011138528585433960e-02,7.083749771118164062e-02,-2.266881056129932404e-02,-5.077104270458221436e-02,8.973264694213867188e-02,8.431477099657058716e-02,-8.419071324169635773e-03,5.618469417095184326e-02,4.369261860847473145e-02,5.432989448308944702e-02,3.361334651708602905e-02,-9.960146620869636536e-03,1.212903708219528198e-01,6.790622603148221970e-03,-1.747665405273437500e-01,-4.404580965638160706e-02,-3.096713870763778687e-02,-1.032963395118713379e-01,-4.669990763068199158e-02,8.657977730035781860e-02,4.377692006528377533e-03,-5.014287307858467102e-02,1.735690981149673462e-02,-6.381071358919143677e-02,-7.774972915649414062e-02,5.453330650925636292e-02,-4.799507558345794678e-03,8.478841185569763184e-02,2.677802182734012604e-02
