-2.013631351292133331e-02,-8.826671540737152100e-02,-2.188670039176940918e-01,1.494774818420410156e-01,9.821652621030807495e-02,5.008665099740028381e-02,-4.101346060633659363e-02,1.186079904437065125e-01,-2.750910520553588867e-01,-2.336264997720718384e-01,2.183686196804046631e-01,3.723021224141120911e-02,-1.326517313718795776e-01,-7.982709258794784546e-02,-1.723240315914154053e-01,-8.139035850763320923e-02,5.338402464985847473e-02,-7.663714140653610229e-02,1.704885810613632202e-02,6.469129770994186401e-02,8.537930995225906372e-02,-7.341723889112472534e-02,-7.285832613706588745e-02,3.360430896282196045e-02,-6.558381021022796631e-02,1.078153103590011597e-01,-2.671856582164764404e-01,4.101880639791488647e-02,3.698389977216720581e-02,-2.353955246508121490e-02,-1.062849536538124084e-01,1.349174231290817261e-02,5.551851540803909302e-02,-6.362615525722503662e-02,8.847900480031967163e-02,-2.983363717794418335e-02,-8.346684277057647705e-03,-1.677713543176651001e-01,-1.908945851027965546e-02,-3.224278688430786133e-01,-7.589934766292572021e-02,6.126431003212928772e-02,-1.430635899305343628e-01,3.421752154827117920e-02,-6.808160245418548584e-02,-5.206627398729324341e-02,5.708947032690048218e-02,3.968670964241027832e-02,8.343290537595748901e-02,-7.566441199742257595e-04,5.164659395813941956e-02,4.873302206397056580e-02,1.426385622471570969e-02,8.397822827100753784e-02,1.283698678016662598e-01,1.101202294230461121e-01,2.960736453533172607e-01,-1.339952200651168823e-01,-8.496975153684616089e-02,2.408184856176376343e-02,-2.161088734865188599e-01,1.282365340739488602e-02,3.616605401039123535e-01,1.186878979206085205e-02,2.091605588793754578e-02,1.918003708124160767e-02,1.468407511711120605e-01,-1.258936077356338501e-01,1.456031501293182373e-01,8.525298535823822021e-02,-5.378429591655731201e-02,-2.494442462921142578e-02,1.303174067288637161e-03,1.026032343506813049e-01,1.572758108377456665e-01,-7.348950207233428955e-02,-7.118302583694458008e-02,3.052443824708461761e-02,-2.514697909355163574e-01,3.264078125357627869e-02,-1.691698431968688965e-01,4.784088581800460815e-03,1.067786291241645813e-01,3.116853721439838409e-02,-4.362719953060150146e-01,-1.371688544750213623e-01,4.870832711458206177e-02,5.193141754716634750e-03,-2.742581302300095558e-03,5.059050768613815308e-02,5.323100090026855469e-02,1.688440702855587006e-02,-5.878576077520847321e-03,3.739434853196144104e-02,-7.865329831838607788e-02,1.163137704133987427e-01,3.689793497323989868e-02,-2.057513687759637833e-03,-1.640308648347854614e-02,-1.101581566035747528e-02,-2.188998609781265259e-01,-8.163774758577346802e-02,-5.011754855513572693e-02,6.508258730173110962e-02,-4.111508280038833618e-02,5.770832765847444534e-03,9.943906217813491821e-02,7.035896778106689453e-01,6.750674452632665634e-03,-1.532252132892608643e-02,5.840647593140602112e-02,6.453029811382293701e-02,-5.320437997579574585e-02,-3.222436010837554932e-01,-1.326405629515647888e-02,-2.632332146167755127e-01,2.854293445125222206e-03,-1.996954903006553650e-03,-1.615949869155883789e-01,6.904439628124237061e-02,1.075921282172203064e-01,-8.229759335517883301e-02,-1.710531301796436310e-02,7.009040564298629761e-02,-1.185546163469552994e-03,-1.466350406408309937e-01,5.096946284174919128e-02,4.532995447516441345e-02,6.556868553161621094e-02,-2.973915264010429382e-02,2.339272387325763702e-02,1.010032296180725098e-01,7.409815490245819092e-02,-3.321374207735061646e-02,6.160137802362442017e-02,-1.915950700640678406e-02,6.601016223430633545e-02,1.287715882062911987e-01,1.047653853893280029e-01,-4.666958004236221313e-02,-8.281685411930084229e-03,4.152449220418930054e-02,8.730902522802352905e-02,-2.774886786937713623e-03,-2.995929913595318794e-03,2.865782976150512695e-01,6.974261999130249023e-02,-9.186297655105590820e-02,1.064216718077659607e-01,-3.454811125993728638e-02,2.191548794507980347e-02,3.009716607630252838e-02,3.753983974456787109e-02,-4.959058761596679688e-02,2.296373993158340454e-02,4.425945505499839783e-02,2.458710782229900360e-02,-4.021579325199127197e-01,-5.905760526657104492e-01,-1.049258187413215637e-01,-1.701758652925491333e-01,5.373525433242321014e-03,-1.455726474523544312e-02,4.010024666786193848e-02,-1.339880347251892090e+00,6.081298366189002991e-02,3.644948452711105347e-02,7.388605922460556030e-02,1.484971493482589722e-01,1.561039835214614868e-01,-5.962780117988586426e-02,6.954564899206161499e-02,3.474320769309997559e-01,-8.243306726217269897e-02,-8.161619305610656738e-03,1.387035357765853405e-03,6.150086596608161926e-02,-9.735336899757385254e-02,1.022902280092239380e-01,3.982742317020893097e-03,6.058939918875694275e-02,-8.013418316841125488e-02,5.403448268771171570e-02,2.350859530270099640e-02,-1.199072878807783127e-02,1.311471909284591675e-01,-5.131957307457923889e-02,2.327724359929561615e-02,4.034223034977912903e-02,3.570980206131935120e-02,-2.584138698875904083e-02,9.754431247711181641e-02,-3.984552249312400818e-02,-1.156179700046777725e-02,8.803679049015045166e-02,-1.771719753742218018e-02,6.337024271488189697e-02,6.168923527002334595e-02,-1.609433814883232117e-02,-2.138240635395050049e-01,-1.416725665330886841e-02,5.359304696321487427e-02,5.006242543458938599e-02,-4.366812482476234436e-02,-1.221996918320655823e-01,-9.768922626972198486e-02,2.549008280038833618e-02,2.743152678012847900e-01,7.657139003276824951e-02,-2.540363073348999023e-01,9.082872420549392700e-02,2.020180039107799530e-02,1.053906828165054321e-01,-3.008000850677490234e-01,-8.975583314895629883e-02,5.360337719321250916e-02,8.772993832826614380e-02,8.530787192285060883e-03,-3.098475933074951172e-01,1.133116800338029861e-02,-7.383661717176437378e-02,-1.203447878360748291e-01,1.450827997177839279e-02,-6.605834513902664185e-02,6.162657961249351501e-02,8.118407428264617920e-02,1.197606772184371948e-01,1.369663805235177279e-04,-4.045200943946838379e-01,2.443325519561767578e-02,-7.396930456161499023e-02,5.520642176270484924e-02,7.393058389425277710e-02,-5.317788943648338318e-02,-5.479812249541282654e-02,9.900679811835289001e-03,-8.811343461275100708e-02,4.029051214456558228e-02,1.014091297984123230e-01,1.272690147161483765e-01,-2.038801833987236023e-02,2.449152767658233643e-01,1.176014021039009094e-01,7.448431104421615601e-02,-9.250779449939727783e-02,-3.816128149628639221e-02,5.217349529266357422e-02,4.862610623240470886e-02,-8.949313312768936157e-03,1.098949760198593140e-01,6.280780583620071411e-02,5.767688155174255371e-02,1.081204116344451904e-01,-6.007410958409309387e-02,-2.151943556964397430e-02,-1.727846451103687286e-02,-5.399337410926818848e-02,7.811693102121353149e-02,1.689817756414413452e-01,-4.896489381790161133e-01,-2.098677121102809906e-02,-6.698708236217498779e-02,-1.066920310258865356e-01,1.302686780691146851e-01,6.810218840837478638e-02,-1.021190956234931946e-01,1.283124387264251709e-01,-3.125089406967163086e-02,1.215459778904914856e-01,-2.998571395874023438e-01,2.431713510304689407e-03,-2.330167451873421669e-03,-1.305141150951385498e-01,6.554662436246871948e-02,-6.511086132377386093e-03,-1.804416626691818237e-02,-2.518631815910339355e-01,6.156453490257263184e-02,7.176291197538375854e-03,3.968379646539688110e-02,3.337297216057777405e-02,5.945186689496040344e-02,-2.516071312129497528e-02,2.878094092011451721e-02,1.308392435312271118e-01,1.649923771619796753e-01,5.121535062789916992e-02,6.540755927562713623e-02,4.309831932187080383e-02,-1.836002022027969360e-01,2.247419580817222595e-02,2.467848807573318481e-01,-1.056918781250715256e-02,2.916173636913299561e-02,1.822289824485778809e-01,1.694454699754714966e-01,4.428381845355033875e-02,-3.387878835201263428e-01,-3.145165443420410156e-01,-6.070155277848243713e-02,9.176284819841384888e-02,3.748436272144317627e-02,-4.402535036206245422e-02,-2.511321008205413818e-01,-3.232824429869651794e-02,1.780328750610351562e-01,8.975359797477722168e-02,1.525526866316795349e-02,5.171022191643714905e-02,2.444580048322677612e-01,7.410532236099243164e-02,7.044677156955003738e-03,9.633539617061614990e-02,-8.735898137092590332e-02,1.577153056859970093e-02,9.244324639439582825e-03,-5.015436932444572449e-02,8.500616997480392456e-02,1.479213386774063110e-01,4.526133835315704346e-02,1.578937098383903503e-02,-8.631099760532379150e-02,-7.802494615316390991e-02,-2.404758892953395844e-02,5.082251504063606262e-02,3.212224319577217102e-02,6.319329142570495605e-03,1.313930749893188477e-02,-6.432452797889709473e-02,-4.142604023218154907e-02,-1.479438319802284241e-02,-8.746063709259033203e-02,2.380445413291454315e-02,-5.275357980281114578e-03,9.249909222126007080e-02,-1.260199397802352905e-01,-3.965973109006881714e-02,1.530912984162569046e-02,4.731378704309463501e-02,9.345629252493381500e-03,2.887360379099845886e-02,-1.106568202376365662e-01,-4.907661676406860352e-02,5.318235233426094055e-02,9.379987418651580811e-02,1.132308840751647949e-01,7.539479434490203857e-02,-3.160114167258143425e-03,4.099263250827789307e-02,3.538510948419570923e-02,7.303249090909957886e-03,3.637143224477767944e-02,7.099142670631408691e-02,-5.364358890801668167e-03,-3.475593775510787964e-02,8.644223213195800781e-02,8.780661225318908691e-02,8.967624977231025696e-03,-6.810903549194335938e-02,-6.783539056777954102e-01,-5.604693666100502014e-02,1.984645845368504524e-03,-9.292502701282501221e-02,2.133800089359283447e-02,-1.093962490558624268e-01,-7.109818607568740845e-02,-8.819412440061569214e-02,-2.317129075527191162e-01,4.530111327767372131e-02,-1.243265066295862198e-02,2.170304656028747559e-01,2.859807945787906647e-02,-7.945324480533599854e-02,6.766416877508163452e-02,5.872571840882301331e-02,1.014990955591201782e-01,1.168457344174385071e-01,-1.121915355324745178e-01,4.534397646784782410e-02,-2.956496179103851318e-02,-2.864936888217926025e-01,7.099359482526779175e-02,-1.487021595239639282e-01,-7.517877221107482910e-02,6.458194553852081299e-02,2.007059305906295776e-01,-2.923116832971572876e-02,4.739679768681526184e-02,-1.113772690296173096e-01,2.683179080486297607e-01,1.536691188812255859e-01,7.185407727956771851e-02,6.515473127365112305e-02,3.170252591371536255e-02,4.588429257273674011e-02,-5.508301779627799988e-02,9.243997745215892792e-03,-5.647227633744478226e-03,4.531449452042579651e-02,1.383057236671447754e-01
-3.670881316065788269e-02,-5.953397601842880249e-02,2.165222307667136192e-03,2.432684749364852905e-01,1.694866120815277100e-01,1.867744773626327515e-01,-7.937860675156116486e-03,-6.699452642351388931e-03,-4.328768551349639893e-01,-5.791095271706581116e-02,-9.786203503608703613e-02,1.079377830028533936e-01,-2.652173936367034912e-01,-2.870839461684226990e-02,-5.871404707431793213e-02,1.663036271929740906e-02,9.686315804719924927e-02,-1.767557561397552490e-01,5.772507935762405396e-02,6.364638358354568481e-02,-1.008133331197313964e-04,-5.135856941342353821e-02,2.040493935346603394e-01,-5.403237417340278625e-02,-4.783424735069274902e-02,2.087080329656600952e-01,-3.068023733794689178e-02,-4.551965743303298950e-02,1.478318125009536743e-01,-1.430208534002304077e-01,1.628043502569198608e-01,-1.106405109167098999e-01,-1.576668918132781982e-01,-1.858014464378356934e-01,2.939860150218009949e-02,1.781292855739593506e-01,-1.556216627359390259e-01,6.020737886428833008e-01,-2.324858307838439941e-02,1.745021790266036987e-01,-2.097238600254058838e-02,-3.432723507285118103e-02,-2.255619615316390991e-01,-3.168957680463790894e-02,-8.347778022289276123e-02,6.328161060810089111e-02,1.374366730451583862e-01,2.111036796122789383e-03,1.340312212705612183e-01,7.745847851037979126e-02,8.119416236877441406e-02,-1.097902134060859680e-01,2.797025954350829124e-03,-4.402484744787216187e-02,-1.241277605295181274e-01,-1.340229809284210205e-01,1.472760289907455444e-01,-2.347429841756820679e-01,2.680267021059989929e-02,2.599512599408626556e-02,3.004558756947517395e-02,1.224843785166740417e-01,-1.159858822822570801e+00,-5.580567196011543274e-02,-7.148943096399307251e-02,-2.377226250246167183e-03,1.244734600186347961e-01,-9.632854908704757690e-02,-1.033475846052169800e-01,8.596302010118961334e-03,7.378201466053724289e-03,-7.780989259481430054e-02,-1.420774031430482864e-02,-2.583487518131732941e-02,1.382920444011688232e-01,-1.174944266676902771e-01,2.367245219647884369e-02,-4.350139200687408447e-02,-1.243008226156234741e-01,6.707406044006347656e-02,7.372665405273437500e-02,2.841402217745780945e-02,3.652865439653396606e-02,6.628641486167907715e-02,3.383057415485382080e-01,5.868170782923698425e-02,1.517256721854209900e-02,-2.076688036322593689e-02,1.589943170547485352e-01,-5.063692107796669006e-02,1.083495654165744781e-02,7.862833142280578613e-02,5.095969419926404953e-03,1.489135771989822388e-01,3.910953998565673828e-01,1.483733952045440674e-01,-8.356279134750366211e-02,-9.234970062971115112e-02,8.951149880886077881e-03,3.861803561449050903e-02,-3.988561779260635376e-02,-1.179380193352699280e-01,-2.561413869261741638e-02,8.093854784965515137e-02,-9.475392103195190430e-02,6.469587981700897217e-02,1.183141842484474182e-01,-2.510238289833068848e-01,-4.040467739105224609e-02,6.793928146362304688e-02,3.208697214722633362e-02,7.097946852445602417e-02,-1.424697935581207275e-01,-4.732216000556945801e-01,-4.900103434920310974e-02,-1.930092871189117432e-01,2.836478874087333679e-02,5.070833861827850342e-02,4.943732544779777527e-02,2.014815807342529297e-02,2.975366115570068359e-01,-1.408023983240127563e-01,-1.303940862417221069e-01,2.807298209518194199e-03,1.297915074974298477e-02,6.416076421737670898e-01,-3.088367730379104614e-02,1.860890388488769531e-01,-7.094403505325317383e-01,1.404987648129463196e-02,-1.337284874171018600e-02,6.692974269390106201e-02,3.475329652428627014e-02,5.562904477119445801e-02,4.765028506517410278e-02,-2.219335548579692841e-02,-8.757361210882663727e-04,6.112131476402282715e-02,-3.406770154833793640e-02,-1.435473859310150146e-01,1.579477638006210327e-01,1.721119731664657593e-01,1.727343797683715820e-01,6.511550396680831909e-03,1.317243278026580811e-01,1.958140879869461060e-01,1.140918955206871033e-01,7.059627026319503784e-02,1.232846453785896301e-01,5.647483095526695251e-02,4.619308561086654663e-02,-1.584111899137496948e-01,-1.060182154178619385e-01,-1.232308568432927132e-03,-2.977443486452102661e-02,-5.552345514297485352e-02,4.722843877971172333e-03,2.119040489196777344e-01,1.377431303262710571e-01,-4.462969601154327393e-01,-4.285172224044799805e-01,5.427474528551101685e-02,-1.554194092750549316e-01,4.472518712282180786e-02,-3.510390818119049072e-01,3.563301870599389076e-04,3.815666586160659790e-02,7.773556560277938843e-02,1.891180276870727539e-01,1.282033920288085938e-01,-2.992025576531887054e-02,-2.704063663259148598e-03,4.944636952131986618e-03,-3.187135979533195496e-02,-1.767576038837432861e-01,4.071832075715065002e-02,4.644393548369407654e-02,-1.630351096391677856e-01,4.965508356690406799e-02,4.801881685853004456e-02,-2.852352708578109741e-02,-2.312953770160675049e-02,1.250560581684112549e-02,-3.458159277215600014e-03,3.481560572981834412e-02,1.639141738414764404e-01,-4.765825346112251282e-02,2.693725377321243286e-02,2.052089758217334747e-02,6.389667838811874390e-02,1.733448542654514313e-02,-2.713425159454345703e-01,1.462603211402893066e-01,1.972736865282058716e-01,5.879678949713706970e-02,3.051138482987880707e-02,-1.178793087601661682e-01,-1.217333879321813583e-02,9.593126922845840454e-02,-2.416478842496871948e-01,8.593775331974029541e-02,9.985376149415969849e-02,3.130933642387390137e-02,-1.612759828567504883e-01,-1.666966229677200317e-01,-1.126644238829612732e-01,4.285389557480812073e-02,-8.363702148199081421e-02,-2.018536441028118134e-03,5.362984910607337952e-02,2.116609066724777222e-01,-2.366779744625091553e-02,-4.632563143968582153e-02,1.753017157316207886e-01,-2.243068516254425049e-01,-9.791961312294006348e-02,1.516706645488739014e-01,-5.812758579850196838e-02,2.846222519874572754e-01,-8.659673482179641724e-02,-2.395776510238647461e-01,4.926622658967971802e-02,6.212898716330528259e-02,-2.680387906730175018e-02,7.820432633161544800e-02,1.516671013087034225e-02,1.338935494422912598e-01,5.387526005506515503e-02,-3.185747265815734863e-01,1.044561117887496948e-01,-1.738121360540390015e-01,4.192459210753440857e-02,-9.829334449023008347e-04,-1.339809894561767578e-01,7.629185914993286133e-02,4.566328600049018860e-02,-1.349275261163711548e-01,-1.820656284689903259e-02,1.610579788684844971e-01,1.217148378491401672e-01,1.751620024442672729e-01,2.150020748376846313e-01,-6.738286465406417847e-02,-1.713145822286605835e-01,-1.599810272455215454e-01,1.204734817147254944e-01,1.041712462902069092e-01,5.766211450099945068e-02,3.366363421082496643e-02,-2.910465896129608154e-01,7.332617789506912231e-02,1.067195683717727661e-01,1.246545687317848206e-01,-9.731376916170120239e-02,-1.220753863453865051e-01,9.298829734325408936e-02,-1.706690639257431030e-01,-8.658368885517120361e-02,1.981439292430877686e-01,-6.221550703048706055e-01,1.266555339097976685e-01,3.196782246232032776e-02,-9.680334478616714478e-02,2.049456238746643066e-01,-3.008649311959743500e-02,-2.087667584419250488e-01,3.082111477851867676e-02,-1.599199697375297546e-02,4.071617498993873596e-02,-2.384864836931228638e-01,-2.729029022157192230e-02,3.559973835945129395e-02,8.722963184118270874e-02,6.503693293780088425e-03,2.045298181474208832e-02,-2.783294953405857086e-02,4.318622052669525146e-01,3.774054814130067825e-03,-1.570699661970138550e-01,-3.523261472582817078e-02,-7.245746999979019165e-02,-7.885124534368515015e-02,1.043898835778236389e-01,5.905219912528991699e-02,-4.788326919078826904e-01,2.273365408182144165e-01,-1.174193397164344788e-01,3.645055368542671204e-02,-1.631458550691604614e-01,-2.676735818386077881e-01,1.661568530835211277e-03,8.141371607780456543e-02,8.028942346572875977e-02,9.725048439577221870e-04,2.841383218765258789e-01,2.058445066213607788e-01,6.225443939911201596e-05,1.989405453205108643e-01,-7.951384037733078003e-02,-7.408118247985839844e-02,7.795362919569015503e-02,2.564807534217834473e-01,2.051481902599334717e-01,-4.505507349967956543e-01,-7.866221666336059570e-02,-9.313392639160156250e-02,3.455771878361701965e-02,-2.522674202919006348e-01,3.023265302181243896e-02,1.612748205661773682e-01,-1.017541810870170593e-02,-4.200882092118263245e-02,2.894665487110614777e-02,-8.566717617213726044e-03,4.731933772563934326e-02,-4.369054362177848816e-02,-1.440176460891962051e-02,-4.272096324712038040e-03,-2.850659489631652832e-01,5.644254684448242188e-01,-2.736916765570640564e-02,-9.313198924064636230e-02,-5.582286044955253601e-02,-5.875284969806671143e-02,-3.777966499328613281e-01,1.555150374770164490e-02,1.492221504449844360e-01,2.191867679357528687e-01,9.194830060005187988e-02,-3.657243847846984863e-01,-1.236255094408988953e-02,-1.366149075329303741e-02,3.569524884223937988e-01,3.431782126426696777e-02,-1.036860868334770203e-01,-9.692106395959854126e-02,-9.232562780380249023e-02,1.485063694417476654e-02,-3.144121170043945312e-02,-1.505336444824934006e-02,1.619740389287471771e-02,-9.556475281715393066e-02,-1.360998451709747314e-01,2.755477325990796089e-03,-1.162049025297164917e-01,-1.576209217309951782e-01,-2.111941426992416382e-01,-2.193974889814853668e-02,5.007347837090492249e-02,2.976582385599613190e-03,2.665762789547443390e-02,9.565161913633346558e-02,-2.551832422614097595e-02,-8.481463789939880371e-02,-2.576397657394409180e-01,-8.235106244683265686e-03,-4.898359999060630798e-02,4.098932445049285889e-02,-4.465588554739952087e-02,5.604654550552368164e-01,-1.608031541109085083e-01,1.781756617128849030e-02,-2.277131974697113037e-01,-5.949819087982177734e-02,1.511086076498031616e-01,-3.509489446878433228e-02,-1.613560318946838379e-01,2.204040735960006714e-01,3.064668364822864532e-02,6.992542743682861328e-02,1.992255151271820068e-01,-1.520077418535947800e-02,-4.973719269037246704e-02,-4.262275993824005127e-02,3.795776888728141785e-02,6.172799505293369293e-03,6.327465921640396118e-02,-8.631275035440921783e-03,8.268313854932785034e-02,-1.066096872091293335e-01,-4.235534965991973877e-01,-2.612867206335067749e-02,-5.621774122118949890e-02,-9.474611282348632812e-02,6.501133553683757782e-03,-5.372406840324401855e-01,-1.409024279564619064e-02,3.527329117059707642e-02,-1.708855330944061279e-01,7.479894161224365234e-02,1.046498417854309082e-01,-3.596569597721099854e-02,4.052455350756645203e-02,5.764653906226158142e-02,2.288720197975635529e-02,-1.666838079690933228e-01,3.198123872280120850e-01,3.328575054183602333e-03,4.981053993105888367e-02,1.148161962628364563e-01
4.527187347412109375e-02,-2.859066426753997803e-02,-9.522590041160583496e-02,2.019532173871994019e-01,1.495859473943710327e-01,7.216732203960418701e-02,-1.224275603890419006e-01,6.265100091695785522e-02,-4.032653570175170898e-01,-1.677396446466445923e-01,6.586372852325439453e-02,9.024687111377716064e-02,-3.545885384082794189e-01,-2.934113889932632446e-02,-7.677059620618820190e-02,-2.184471860527992249e-02,-6.151213869452476501e-02,-2.136936187744140625e-01,6.016036495566368103e-03,1.235099136829376221e-01,7.674904167652130127e-02,-7.689211517572402954e-02,-1.482201963663101196e-01,-2.239610254764556885e-02,-3.248052671551704407e-02,1.548867523670196533e-01,-2.458237856626510620e-01,5.694773048162460327e-02,1.011127680540084839e-01,-3.323559835553169250e-02,-1.332561373710632324e-01,-7.846623659133911133e-02,1.024059485644102097e-02,-5.552789941430091858e-02,1.119074970483779907e-01,-1.809861958026885986e-01,2.426486462354660034e-02,1.234102025628089905e-01,2.714028581976890564e-02,1.627690275199711323e-03,-7.097012829035520554e-03,5.437359213829040527e-03,-9.734910726547241211e-02,-1.469748094677925110e-02,1.307242922484874725e-02,-3.577230498194694519e-02,1.239271741360425949e-02,-4.916407912969589233e-02,1.266019493341445923e-01,4.744233447127044201e-04,3.454151004552841187e-02,1.610578270629048347e-03,5.093505140393972397e-03,5.695671588182449341e-02,3.343486413359642029e-02,2.115903235971927643e-02,2.111534178256988525e-01,-1.777831465005874634e-02,-3.867341950535774231e-02,4.577367007732391357e-02,-1.153571158647537231e-01,4.017914459109306335e-02,9.969825744628906250e-01,-2.300595678389072418e-02,5.293089523911476135e-02,5.374447628855705261e-02,8.007279783487319946e-02,-1.351081281900405884e-01,1.420574188232421875e-01,9.365788102149963379e-02,1.649468392133712769e-02,-5.341436713933944702e-03,5.842933058738708496e-02,1.065017729997634888e-01,1.386372745037078857e-01,-7.742903381586074829e-02,-5.954906344413757324e-02,-2.326101064682006836e-02,-1.776143759489059448e-01,7.907666265964508057e-02,-1.123426109552383423e-01,1.078742370009422302e-02,1.226399987936019897e-01,6.795043498277664185e-02,-9.499026089906692505e-02,-9.292819350957870483e-02,5.958801135420799255e-02,8.295757323503494263e-02,-5.080230161547660828e-02,1.601119898259639740e-02,6.233713030815124512e-02,1.565276645123958588e-02,6.317497789859771729e-02,3.370563685894012451e-02,-3.418139740824699402e-02,1.068885326385498047e-01,8.845523744821548462e-02,-2.797800675034523010e-02,-2.658452987670898438e-01,7.566695567220449448e-03,-1.248012185096740723e-01,-2.492182329297065735e-02,-8.817775174975395203e-03,7.013063877820968628e-02,-6.975314114242792130e-03,7.626467198133468628e-02,4.490970820188522339e-02,4.093492329120635986e-01,3.577459231019020081e-02,7.433668524026870728e-02,-2.534844097681343555e-04,1.488295942544937134e-01,-2.558284206315875053e-03,-3.353738486766815186e-01,-8.994157612323760986e-02,-3.287501931190490723e-01,1.861072145402431488e-02,-8.988653123378753662e-02,-1.845646500587463379e-01,4.507701843976974487e-02,1.911926865577697754e-01,-3.055086731910705566e-02,-4.746496677398681641e-02,3.129792585968971252e-02,5.398352816700935364e-02,6.272479891777038574e-02,-4.193881060928106308e-03,8.455890417098999023e-02,-1.548618078231811523e-01,2.375701628625392914e-02,3.247365355491638184e-02,8.707637898623943329e-03,1.404335629194974899e-02,-3.530024737119674683e-02,1.175846308469772339e-01,-3.974413126707077026e-02,1.074115261435508728e-01,1.625576019287109375e-01,1.601263731718063354e-01,-6.256025284528732300e-02,1.697118952870368958e-02,1.778489723801612854e-02,4.889293015003204346e-02,7.825452834367752075e-02,1.563149392604827881e-01,1.909601688385009766e-01,1.887988597154617310e-01,-9.284455329179763794e-02,8.006474375724792480e-02,6.705386564135551453e-03,6.390902400016784668e-02,-6.080701202154159546e-02,-6.442530453205108643e-02,-2.863936312496662140e-02,6.190184503793716431e-02,9.488720446825027466e-03,7.822244614362716675e-02,-8.457965403795242310e-02,-2.076534032821655273e-01,-2.402937784790992737e-02,-4.228171706199645996e-01,2.290026098489761353e-02,7.218750566244125366e-02,2.912291139364242554e-02,-7.612645030021667480e-01,6.086703389883041382e-03,7.879540324211120605e-03,9.984669089317321777e-02,1.442899256944656372e-01,1.715708076953887939e-01,-1.052736677229404449e-02,8.645705133676528931e-02,3.130345046520233154e-01,-2.056447714567184448e-01,4.856482148170471191e-02,4.615342244505882263e-02,3.724188357591629028e-02,4.668631125241518021e-03,1.201039105653762817e-01,-5.263552069664001465e-02,5.046198517084121704e-02,-8.054488897323608398e-02,-7.764425827190279961e-04,-4.212554078549146652e-03,4.827458038926124573e-02,8.851337432861328125e-02,-5.465368181467056274e-02,2.251053974032402039e-02,5.444176495075225830e-02,1.041232887655496597e-02,-1.560627855360507965e-02,-9.750550240278244019e-02,-7.893042638897895813e-03,-2.671309188008308411e-02,3.561454638838768005e-02,1.576531305909156799e-02,-6.148364022374153137e-02,-3.585493192076683044e-02,6.955968216061592102e-03,-1.947762668132781982e-01,4.536428302526473999e-02,3.281816467642784119e-02,-1.553539768792688847e-03,-7.308292388916015625e-02,-1.050541102886199951e-01,-8.543106913566589355e-02,4.063687846064567566e-02,-1.961497217416763306e-02,5.526996776461601257e-02,-1.047374084591865540e-01,8.801215887069702148e-02,4.525079950690269470e-02,4.364344105124473572e-02,-2.252972722053527832e-01,-5.764922127127647400e-02,8.944562077522277832e-02,7.364005595445632935e-02,-6.921987980604171753e-02,-4.984098672866821289e-02,7.102097151800990105e-04,-1.321803033351898193e-01,-1.609472371637821198e-02,-5.156769603490829468e-02,-2.123374305665493011e-02,5.846663564443588257e-02,1.941833458840847015e-02,9.172535687685012817e-02,5.354830622673034668e-02,-3.658405244350433350e-01,2.494922839105129242e-02,-1.771996170282363892e-01,-3.938531503081321716e-03,3.093898668885231018e-02,-1.622718176804482937e-03,-3.622214496135711670e-02,5.786316469311714172e-02,-6.762689352035522461e-02,-2.556011080741882324e-02,8.796311914920806885e-02,6.292297691106796265e-02,-3.182628657668828964e-03,1.322578638792037964e-01,-1.407346688210964203e-02,9.378523379564285278e-02,-5.312653630971908569e-02,-4.989151656627655029e-02,9.796050935983657837e-02,1.292540878057479858e-01,4.142810776829719543e-02,5.530926398932933807e-03,4.623537883162498474e-03,3.392799058929085732e-03,1.171869635581970215e-01,-8.385007083415985107e-02,5.228508962318301201e-04,3.932177647948265076e-02,1.946221664547920227e-02,-3.556204587221145630e-02,1.426999568939208984e-01,-5.879464745521545410e-01,8.934340626001358032e-02,-5.816714838147163391e-02,-1.554367542266845703e-01,7.032283395528793335e-02,9.099840372800827026e-02,-3.452693819999694824e-01,7.211180031299591064e-02,-1.154775992035865784e-01,3.672359883785247803e-02,-2.763845622539520264e-01,7.034275680780410767e-02,4.260899871587753296e-02,6.809572130441665649e-02,6.560792028903961182e-02,-1.630861312150955200e-02,-3.593121469020843506e-02,-4.410828948020935059e-01,-1.943898759782314301e-02,-3.499560430645942688e-02,1.658762805163860321e-02,1.043602544814348221e-02,1.185711026191711426e-01,-1.845567300915718079e-02,1.040372531861066818e-02,8.196197450160980225e-02,1.238673403859138489e-01,1.067158356308937073e-01,9.872138500213623047e-02,4.079704359173774719e-02,-2.442342787981033325e-01,-4.144234582781791687e-02,1.864450424909591675e-01,-5.121148424223065376e-04,2.454796573147177696e-03,1.942254304885864258e-01,1.695153415203094482e-01,4.416291415691375732e-02,-1.757079809904098511e-01,-6.436740607023239136e-02,-6.566517800092697144e-02,4.732593148946762085e-02,1.193203479051589966e-01,1.261671632528305054e-01,-1.754045039415359497e-01,-5.735968425869941711e-02,1.249463260173797607e-01,3.990778326988220215e-02,-8.682433515787124634e-02,5.913573130965232849e-02,9.946619719266891479e-02,-5.364143289625644684e-03,-1.566041074693202972e-02,3.358694911003112793e-02,-1.028680354356765747e-01,5.832571536302566528e-02,3.415504470467567444e-02,-7.634518668055534363e-03,1.062242537736892700e-01,8.981924504041671753e-02,-8.486301451921463013e-02,2.233270369470119476e-02,-1.221725717186927795e-01,-4.946614056825637817e-02,2.217920869588851929e-02,4.298774525523185730e-02,9.484784677624702454e-03,1.777674257755279541e-02,1.115819960832595825e-01,2.163904346525669098e-02,-1.715593636035919189e-01,-1.146600395441055298e-01,1.726397685706615448e-02,1.859806925058364868e-01,3.293174877762794495e-02,7.955223321914672852e-02,1.330808270722627640e-02,-7.887904345989227295e-02,1.425698678940534592e-02,-3.551685810089111328e-02,-2.307145297527313232e-02,4.317605867981910706e-02,-1.770710796117782593e-01,-8.524717390537261963e-02,3.493793308734893799e-02,8.885722607374191284e-02,4.546073824167251587e-02,4.350464046001434326e-02,7.659797370433807373e-02,4.924496263265609741e-02,5.047913268208503723e-02,-2.705882489681243896e-02,8.904008567333221436e-02,4.908455535769462585e-02,2.154582925140857697e-02,6.365913152694702148e-02,1.579595208168029785e-01,6.045309454202651978e-02,7.606007903814315796e-02,-4.715539515018463135e-02,-2.859980762004852295e-01,-8.449815213680267334e-03,3.902303427457809448e-02,-2.191721946001052856e-01,-1.828405819833278656e-02,-4.987601190805435181e-02,8.302325382828712463e-03,-6.174942106008529663e-02,1.066010892391204834e-01,4.313782602548599243e-02,7.378568500280380249e-02,8.695358037948608398e-02,4.962688684463500977e-02,-7.416722923517227173e-02,8.682873845100402832e-02,-8.545441552996635437e-03,9.377621859312057495e-02,7.965135574340820312e-02,-1.704236716032028198e-01,5.842782184481620789e-02,-7.808934152126312256e-02,-3.123399317264556885e-01,-4.478974640369415283e-02,-1.070232763886451721e-01,-1.117448136210441589e-01,1.385228987783193588e-02,-5.601210892200469971e-02,1.138997171074151993e-02,1.684730290435254574e-03,-8.811318874359130859e-02,1.915994733572006226e-01,3.278864547610282898e-02,-1.520179677754640579e-02,5.818395689129829407e-02,8.027302473783493042e-02,-2.405385486781597137e-02,2.595883794128894806e-02,8.127963170409202576e-03,5.156262964010238647e-02,4.193237517029047012e-03,1.726234555244445801e-01
-2.779280208051204681e-02,-2.936352975666522980e-02,6.751907616853713989e-02,5.274475365877151489e-02,4.272328689694404602e-02,-2.641256451606750488e-01,-4.452686607837677002e-01,-5.749068036675453186e-02,1.328805238008499146e-01,8.779165893793106079e-02,2.982129156589508057e-01,7.478177547454833984e-02,1.860583871603012085e-01,3.171028196811676025e-02,-3.033223748207092285e-01,-1.534266471862792969e-01,-2.364193322136998177e-03,1.620530188083648682e-01,2.900028973817825317e-02,-6.590031832456588745e-02,1.616976112127304077e-01,-4.797452688217163086e-02,-1.574569614604115486e-03,-2.957462146878242493e-02,2.546282112598419189e-02,1.416189670562744141e-01,-4.748646616935729980e-01,-4.883785545825958252e-02,-1.029717847704887390e-01,3.083014674484729767e-02,-5.581507459282875061e-02,7.350365817546844482e-02,-1.877534538507461548e-01,1.908341944217681885e-01,-3.966608643531799316e-02,-1.439843773841857910e-01,3.741533309221267700e-02,-4.318322986364364624e-02,2.502485737204551697e-02,-2.746261954307556152e-01,9.942448884248733521e-02,-2.286660484969615936e-02,-5.320079252123832703e-02,-2.469439059495925903e-03,-2.034243941307067871e-02,-3.004666790366172791e-02,-1.670284569263458252e-01,-9.228660166263580322e-02,-1.490978151559829712e-01,-6.009776145219802856e-03,1.656929254531860352e-01,1.041884347796440125e-01,5.145482346415519714e-02,9.282193332910537720e-02,3.794989362359046936e-02,1.079106032848358154e-01,2.245648503303527832e-01,-9.742008894681930542e-02,-2.484205216169357300e-01,-8.367750793695449829e-02,-2.185299098491668701e-01,-2.016309835016727448e-02,-7.864826917648315430e-02,-2.767593227326869965e-02,6.415653973817825317e-02,6.057393923401832581e-02,6.177384033799171448e-02,-5.998431518673896790e-02,-1.692074537277221680e-01,4.683341458439826965e-02,7.634285837411880493e-02,-8.095121942460536957e-03,5.347655713558197021e-02,1.597574204206466675e-01,1.245388761162757874e-01,7.794748246669769287e-02,-1.081977933645248413e-01,1.393725723028182983e-01,3.831278905272483826e-02,-1.222718693315982819e-02,-1.335349380970001221e-01,-8.350706659257411957e-03,1.329649239778518677e-01,-1.914304941892623901e-01,5.033980682492256165e-02,-7.933364808559417725e-02,-2.927863970398902893e-02,-4.737850651144981384e-02,-1.781880706548690796e-01,-7.493420690298080444e-02,-2.591544389724731445e-02,-1.754872500896453857e-02,5.587097257375717163e-02,-2.302279323339462280e-02,-1.125675141811370850e-01,-2.397650294005870819e-02,7.652078568935394287e-02,-1.041651219129562378e-01,1.860536038875579834e-01,8.163261413574218750e-02,3.038099706172943115e-01,-6.824251264333724976e-02,4.650337398052215576e-01,1.110217273235321045e-01,-6.902844458818435669e-02,-2.902681380510330200e-02,-3.561551123857498169e-02,8.005563616752624512e-01,-5.692167580127716064e-02,-8.165588229894638062e-02,4.270106926560401917e-02,-1.928438395261764526e-01,7.170823216438293457e-02,-6.048391386866569519e-02,4.265298135578632355e-03,-1.698495447635650635e-01,-3.267589258030056953e-03,-1.395919453352689743e-02,-2.102718502283096313e-01,7.428464293479919434e-02,5.063930526375770569e-02,-1.653563231229782104e-01,-1.118704751133918762e-01,5.335859209299087524e-02,-1.328099370002746582e-01,-2.082908153533935547e-01,6.993806362152099609e-02,-7.442281395196914673e-02,-3.272137045860290527e-01,1.048164889216423035e-01,4.874884709715843201e-02,-1.394624859094619751e-01,6.145877763628959656e-02,-1.492453813552856445e-01,7.073730230331420898e-02,-3.955546393990516663e-02,1.613072156906127930e-01,3.477514088153839111e-01,7.532254606485366821e-02,-6.151670217514038086e-02,-1.024444773793220520e-02,-1.583263278007507324e-01,-2.523720860481262207e-01,3.318146616220474243e-02,-1.934096217155456543e-01,4.341647401452064514e-02,-1.304101664572954178e-03,-5.972287058830261230e-02,8.691235631704330444e-02,-1.704232953488826752e-02,2.420706115663051605e-02,-8.203924447298049927e-02,-5.193877965211868286e-02,6.952344439923763275e-03,-2.603518543764948845e-03,7.397434115409851074e-02,-1.280116289854049683e-01,-2.933393443527165800e-05,-1.011829078197479248e-02,1.038148552179336548e-01,3.469837903976440430e-01,1.016888320446014404e-01,-2.554849982261657715e-01,-1.307522226125001907e-02,1.755641847848892212e-01,-4.170635342597961426e-02,2.193998778238892555e-03,4.629877805709838867e-01,1.082217767834663391e-01,1.204788237810134888e-01,1.735282503068447113e-02,-2.830579876899719238e-02,4.042412340641021729e-01,5.640572309494018555e-02,7.900439947843551636e-02,-6.842473894357681274e-02,8.005525916814804077e-02,-2.831647694110870361e-01,-1.123310346156358719e-02,-2.517412006855010986e-01,-1.572050899267196655e-01,-1.406702846288681030e-01,-3.131565824151039124e-02,-2.727172076702117920e-01,-3.050182946026325226e-02,-3.153904154896736145e-02,1.589554846286773682e-01,1.915385201573371887e-02,-5.839241668581962585e-02,2.892641117796301842e-03,1.469704359769821167e-01,3.280620872974395752e-01,1.315903812646865845e-01,-4.917415231466293335e-02,-1.070251408964395523e-02,-6.548213958740234375e-02,1.069696247577667236e-01,3.966895863413810730e-02,-8.951762318611145020e-02,2.281601279973983765e-01,2.465259097516536713e-02,-1.579561978578567505e-01,-2.014105916023254395e-01,-4.931894317269325256e-02,2.293431013822555542e-01,-7.644189894199371338e-02,-6.945997010916471481e-03,4.080756008625030518e-01,1.099506951868534088e-02,1.831078678369522095e-01,9.829609096050262451e-02,-6.802808493375778198e-02,-4.490842670202255249e-02,-4.678358882665634155e-02,-7.347989827394485474e-02,5.790179595351219177e-03,-2.756575942039489746e-01,-1.332073360681533813e-01,-1.192587614059448242e-01,6.536613404750823975e-02,6.728801131248474121e-02,7.617274671792984009e-02,-2.528190910816192627e-01,3.660502284765243530e-02,-6.453621387481689453e-02,6.554730236530303955e-02,-4.963469877839088440e-02,-3.025757893919944763e-02,-2.529830634593963623e-01,6.643706560134887695e-02,-1.529238075017929077e-01,-6.914263963699340820e-02,-8.668823540210723877e-02,-1.188996061682701111e-01,-5.207501724362373352e-02,-6.790523231029510498e-02,1.251561790704727173e-01,1.156208738684654236e-01,5.382714793086051941e-02,-1.168757453560829163e-01,7.442688941955566406e-02,1.176273152232170105e-01,3.835663944482803345e-02,-1.927695870399475098e-01,2.494600862264633179e-01,-4.106394052505493164e-01,-4.220432788133621216e-02,1.672561466693878174e-01,1.211621761322021484e-01,-7.456026971340179443e-02,-8.310044556856155396e-02,-5.413002893328666687e-02,1.917365789413452148e-01,2.476822137832641602e-01,-6.907940655946731567e-02,2.373675704002380371e-01,3.534381464123725891e-02,-2.213668264448642731e-02,-1.646414101123809814e-01,-2.618919014930725098e-01,6.414226256310939789e-03,1.455479711294174194e-01,1.456860452890396118e-01,1.030393838882446289e-01,-9.301773458719253540e-02,2.643594145774841309e-01,2.536947131156921387e-01,1.909321099519729614e-01,-7.076602429151535034e-02,-1.323807537555694580e-01,7.748906314373016357e-02,6.458827294409275055e-03,-7.370685227215290070e-03,2.350984141230583191e-02,1.933781802654266357e-01,4.666906222701072693e-02,-5.639694929122924805e-01,5.445505958050489426e-03,2.309952676296234131e-01,-1.760993450880050659e-01,-1.154490485787391663e-01,-3.081674128770828247e-02,-2.389022856950759888e-01,1.354846209287643433e-01,5.070579424500465393e-02,2.234213240444660187e-02,1.743202842772006989e-02,5.124063789844512939e-02,1.132030189037322998e-01,1.477670073509216309e-01,-1.931162551045417786e-02,2.689074575901031494e-01,8.269903808832168579e-02,1.546659879386425018e-02,3.060772269964218140e-02,-4.785373061895370483e-02,1.093124449253082275e-01,-5.448835343122482300e-02,1.637320965528488159e-01,3.302174061536788940e-02,5.396152287721633911e-02,-2.747942805290222168e-01,-5.252545326948165894e-02,-2.208767086267471313e-01,4.056583344936370850e-02,8.019987493753433228e-02,-1.052108779549598694e-01,-7.076144218444824219e-02,-3.381207212805747986e-02,2.113087326288223267e-01,2.365756966173648834e-02,5.730693787336349487e-02,1.494213342666625977e-01,-1.340917497873306274e-01,9.258054941892623901e-02,1.409725844860076904e-01,8.511552214622497559e-02,-8.080414682626724243e-02,-5.052599590271711349e-03,-2.876752912998199463e-01,2.730513177812099457e-02,8.067852258682250977e-02,-7.798629254102706909e-02,2.930221334099769592e-02,1.781304366886615753e-02,1.753108203411102295e-02,-1.854304820299148560e-01,-2.326147854328155518e-01,-4.571754951030015945e-03,-9.452090412378311157e-02,-1.032495573163032532e-01,8.964175730943679810e-02,6.090991199016571045e-02,4.909174144268035889e-02,-2.614026367664337158e-01,3.066082857549190521e-02,5.479146540164947510e-02,-1.290092468261718750e-01,-2.765519618988037109e-01,1.593768596649169922e-01,-1.977081298828125000e-01,1.460791379213333130e-01,1.302752792835235596e-01,-7.011989364400506020e-04,9.868302196264266968e-02,1.474884003400802612e-01,4.602568596601486206e-02,-1.919806189835071564e-02,1.060876920819282532e-01,6.124855577945709229e-02,1.262447237968444824e-01,-7.148392498493194580e-02,1.184010207653045654e-01,-8.391028642654418945e-02,-7.374484091997146606e-02,7.172422111034393311e-02,-5.540300607681274414e-01,3.293452411890029907e-02,5.172252282500267029e-02,-3.391784057021141052e-02,-7.555629312992095947e-02,1.281027346849441528e-01,-7.254734635353088379e-02,5.300993844866752625e-02,-5.134039744734764099e-02,7.820480316877365112e-02,-2.853469923138618469e-02,4.661350697278976440e-02,1.582484133541584015e-02,2.200732193887233734e-02,2.504562139511108398e-01,1.084600165486335754e-01,9.793239086866378784e-02,-2.146518416702747345e-02,7.804007828235626221e-02,-8.535600453615188599e-02,-1.493214517831802368e-01,1.640673130750656128e-01,-1.666624248027801514e-01,1.214671805500984192e-01,-5.135386064648628235e-02,-1.326619833707809448e-01,-1.025180593132972717e-01,8.765267580747604370e-02,-4.712316021323204041e-02,1.931780427694320679e-01,1.679733246564865112e-01,4.363118484616279602e-02,-5.474105477333068848e-02,-7.187544833868741989e-03,2.335001379251480103e-01,9.694202989339828491e-02,7.196556776762008667e-02,4.673976823687553406e-02,2.314999252557754517e-01,3.180381376296281815e-03,-1.417064368724822998e-01,4.843691363930702209e-02,-3.720706701278686523e-02,-1.637729704380035400e-01
2.738146856427192688e-02,-3.148171526845544577e-04,-1.972855329513549805e-01,1.579466611146926880e-01,9.530537575483322144e-02,1.166711449623107910e-01,-5.246897414326667786e-02,1.101379469037055969e-01,-3.685982823371887207e-01,-1.737138181924819946e-01,2.325071208178997040e-02,6.048824638128280640e-02,-1.849433928728103638e-01,2.871572505682706833e-03,-3.561032935976982117e-02,-1.129750721156597137e-02,2.910512499511241913e-02,2.110345521941781044e-03,-1.120299473404884338e-02,9.916096180677413940e-02,7.084136456251144409e-02,-1.451065391302108765e-01,-6.665635854005813599e-02,-2.182953525334596634e-03,-7.668320834636688232e-02,1.102869361639022827e-01,1.792758703231811523e-02,8.181391656398773193e-02,1.057164371013641357e-01,-8.109706640243530273e-02,-2.133851312100887299e-02,6.590893864631652832e-02,1.841347664594650269e-02,-2.507269196212291718e-02,-1.075975014828145504e-03,5.968941003084182739e-02,-6.399852782487869263e-02,3.392086923122406006e-02,-2.185123041272163391e-03,-2.283818721771240234e-01,-5.396405234932899475e-02,5.421116948127746582e-03,4.237087443470954895e-03,-4.621615260839462280e-02,-7.336478680372238159e-02,-4.659880697727203369e-02,1.320733577013015747e-01,2.510111546143889427e-03,1.557558774948120117e-01,-4.034474864602088928e-02,9.080916643142700195e-03,-1.044232485583052039e-04,-7.383963093161582947e-03,-1.304274983704090118e-02,1.195644214749336243e-02,8.154290169477462769e-02,1.044418811798095703e-01,-1.623363420367240906e-02,1.391152036376297474e-03,1.477735582739114761e-02,-1.719007343053817749e-01,1.238141395151615143e-02,-1.268545687198638916e-01,1.742177829146385193e-02,5.120100080966949463e-02,4.867440834641456604e-02,1.259131580591201782e-01,-1.903860084712505341e-02,1.012232750654220581e-01,3.488032892346382141e-02,-2.316322922706604004e-02,-4.892124608159065247e-02,7.107699662446975708e-02,6.595253944396972656e-02,1.268540620803833008e-01,-4.260117188096046448e-02,-4.694487899541854858e-02,-7.608848623931407928e-03,-2.171058654785156250e-01,1.808045804500579834e-02,-2.853052876889705658e-02,6.074675545096397400e-02,8.490519970655441284e-02,2.466591261327266693e-02,-3.768712580204010010e-01,-3.295886889100074768e-02,-2.454231865704059601e-02,-1.372114755213260651e-02,-1.034849062561988831e-01,-2.899034647271037102e-03,8.931611478328704834e-02,9.108866751194000244e-02,2.307331189513206482e-02,-1.915338449180126190e-02,5.125176534056663513e-02,5.846497043967247009e-02,7.195279747247695923e-02,-3.312518447637557983e-02,-4.638043045997619629e-02,-1.545753609389066696e-02,-2.193413376808166504e-01,-6.421651691198348999e-02,-3.930170089006423950e-03,7.205120474100112915e-02,-6.794413179159164429e-02,6.226607412099838257e-02,1.151465326547622681e-01,2.643979191780090332e-01,5.307245254516601562e-02,6.939160078763961792e-02,-2.641397155821323395e-02,9.082188457250595093e-02,3.728367388248443604e-02,-1.624524891376495361e-01,-5.206662788987159729e-02,-3.281753882765769958e-02,3.490447625517845154e-02,-2.979817427694797516e-02,-4.054909199476242065e-02,2.809750102460384369e-02,1.284784674644470215e-01,-7.278293371200561523e-02,2.358456607908010483e-03,5.665963143110275269e-02,6.592246145009994507e-02,-2.760566584765911102e-02,-1.152931363321840763e-04,5.143604055047035217e-02,1.731342375278472900e-01,-4.326244443655014038e-02,-2.869187295436859131e-02,5.642856657505035400e-02,3.033715859055519104e-02,5.285271629691123962e-02,-3.593506664037704468e-02,-4.734918475151062012e-02,7.169459015130996704e-02,5.168622359633445740e-02,7.937338203191757202e-02,1.347300410270690918e-01,-7.350515574216842651e-03,1.301764249801635742e-01,7.708251476287841797e-02,-2.935694530606269836e-02,3.880373761057853699e-02,1.866531223058700562e-01,1.216691732406616211e-01,-7.726947963237762451e-02,8.166996389627456665e-02,-1.179432845674455166e-03,1.898990198969841003e-02,1.728039002045989037e-03,-2.932997047901153564e-02,3.775259107351303101e-02,9.410118684172630310e-03,5.152488127350807190e-02,5.472136288881301880e-02,-2.173718363046646118e-01,-5.725291967391967773e-01,1.142814680933952332e-01,-1.947691887617111206e-01,-5.514956638216972351e-02,1.095177084207534790e-01,4.210580140352249146e-02,-1.419455170631408691e+00,-2.500175265595316887e-03,5.099674686789512634e-02,1.004413813352584839e-01,1.967120468616485596e-01,1.038194224238395691e-01,-8.783332258462905884e-02,6.114078313112258911e-02,2.134191095829010010e-01,-3.841613652184605598e-03,-2.053173445165157318e-02,7.326602935791015625e-02,7.316932827234268188e-02,-3.142262622714042664e-02,4.977930337190628052e-02,3.969200327992439270e-02,5.336656048893928528e-02,-2.553018927574157715e-02,2.947752177715301514e-02,8.922570943832397461e-02,4.904165491461753845e-02,5.047734454274177551e-02,-5.565428361296653748e-02,-3.380585461854934692e-02,3.726099804043769836e-02,4.519293829798698425e-02,-6.819067522883415222e-03,-4.442486446350812912e-03,9.270963072776794434e-02,3.888533636927604675e-02,6.729798763990402222e-02,2.889303141273558140e-04,-5.565716326236724854e-02,-1.712494716048240662e-02,-2.097069658339023590e-02,-1.727564632892608643e-01,5.122132971882820129e-02,8.026844263076782227e-02,1.022559851408004761e-01,-5.891339480876922607e-02,-5.593569949269294739e-02,3.483599517494440079e-03,6.020769476890563965e-02,1.103491336107254028e-02,1.984454505145549774e-02,-1.849783957004547119e-01,1.025104001164436340e-01,3.906592726707458496e-02,4.998442530632019043e-02,-1.713905781507492065e-01,5.748635157942771912e-03,7.975383847951889038e-02,8.822135627269744873e-02,-4.773692414164543152e-02,-1.919188052415847778e-01,3.380798548460006714e-02,-3.145843371748924255e-02,-1.082044020295143127e-01,3.098443895578384399e-02,1.013862714171409607e-02,6.446653604507446289e-02,-3.113050200045108795e-02,1.387420743703842163e-01,3.798712417483329773e-02,-1.078256592154502869e-01,1.242703422904014587e-01,-1.700254529714584351e-01,7.329499348998069763e-04,9.157465398311614990e-02,5.769538879394531250e-02,1.246454566717147827e-02,7.846047729253768921e-02,-1.776499114930629730e-02,1.409325469285249710e-02,7.467354089021682739e-02,6.290891766548156738e-02,2.813040092587471008e-02,6.496622413396835327e-02,2.019414901733398438e-01,1.353346258401870728e-01,-6.003849580883979797e-02,9.421601891517639160e-02,8.789551258087158203e-02,9.814650565385818481e-02,1.673422195017337799e-02,1.075091585516929626e-01,4.041339457035064697e-02,7.585098594427108765e-02,8.981003612279891968e-02,-6.805974990129470825e-03,2.242606505751609802e-02,-2.466387301683425903e-02,1.494573801755905151e-02,9.991648606956005096e-03,2.070739269256591797e-01,-2.944793105125427246e-01,6.077736616134643555e-02,-5.592999234795570374e-02,-1.764643192291259766e-01,1.562792807817459106e-02,6.326498836278915405e-02,-8.774536661803722382e-03,8.194755017757415771e-02,3.550139814615249634e-02,8.795157819986343384e-02,-4.029277563095092773e-01,5.065200477838516235e-02,4.975570365786552429e-02,3.888918086886405945e-02,6.886938959360122681e-02,-1.101527269929647446e-02,3.082717768847942352e-03,-1.506499648094177246e-01,-2.953967824578285217e-02,-6.280977278947830200e-02,-3.763426840305328369e-02,-1.409537345170974731e-02,8.428110927343368530e-02,-7.002724707126617432e-02,1.732984557747840881e-02,-4.940775688737630844e-03,2.034099847078323364e-01,1.383577287197113037e-01,9.779455140233039856e-03,5.281155183911323547e-02,-1.503221690654754639e-01,2.761935815215110779e-02,1.535701602697372437e-01,-2.902785316109657288e-02,2.813060022890567780e-02,1.684103608131408691e-01,1.357487291097640991e-01,7.104240357875823975e-02,-2.927699089050292969e-01,-2.721923589706420898e-01,-5.771110951900482178e-02,1.185619551688432693e-02,1.643084138631820679e-01,2.016379535198211670e-01,-5.259790420532226562e-01,-8.993599563837051392e-02,1.578702032566070557e-01,8.905461989343166351e-03,2.077790945768356323e-01,8.645776659250259399e-02,4.238339886069297791e-02,4.190049692988395691e-02,2.433051355183124542e-02,1.535441260784864426e-02,5.119444336742162704e-03,1.425696443766355515e-02,-1.665736548602581024e-02,-6.901389360427856445e-02,3.340089693665504456e-02,2.495493292808532715e-01,-8.961047977209091187e-02,-2.839933708310127258e-02,-1.234659776091575623e-01,3.877195343375205994e-02,2.938425168395042419e-04,5.835095047950744629e-02,5.493613332509994507e-02,9.462094306945800781e-02,4.042555019259452820e-02,1.179331392049789429e-01,-3.706753998994827271e-02,2.637948840856552124e-03,-6.467153131961822510e-02,1.204575076699256897e-01,2.609089203178882599e-02,1.345527619123458862e-01,-9.907131642103195190e-02,4.117701668292284012e-03,3.023042529821395874e-02,2.951175905764102936e-02,-4.347040131688117981e-02,2.735310792922973633e-02,-9.236718714237213135e-02,-8.228658698499202728e-03,-6.231236085295677185e-02,7.872837781906127930e-02,2.315516583621501923e-02,7.365804910659790039e-02,3.336447104811668396e-02,4.077291488647460938e-02,-2.867770753800868988e-02,-6.249356642365455627e-02,5.409836396574974060e-02,5.231817439198493958e-02,2.513208799064159393e-02,1.013617590069770813e-01,7.753910869359970093e-02,8.382108062505722046e-02,1.971442438662052155e-02,-7.025110721588134766e-02,-4.823132157325744629e-01,6.571308523416519165e-02,-4.844881221652030945e-02,-1.116229668259620667e-01,-2.550263702869415283e-02,-9.333260357379913330e-02,-6.370195001363754272e-02,2.150885388255119324e-02,-3.957761451601982117e-02,3.295631334185600281e-02,1.561992987990379333e-02,1.948952972888946533e-01,7.486896961927413940e-02,-7.473077625036239624e-02,2.231006696820259094e-02,1.750452257692813873e-02,9.802380949258804321e-02,2.639604173600673676e-02,-1.443938165903091431e-01,1.195674166083335876e-01,-1.040633097290992737e-01,-1.023147702217102051e-01,1.094153821468353271e-01,-4.852399230003356934e-02,-1.161075308918952942e-01,7.008075714111328125e-02,-5.763063207268714905e-03,1.810412108898162842e-02,-2.233154326677322388e-02,-3.009302355349063873e-02,1.575749367475509644e-01,5.322643741965293884e-02,-5.942631885409355164e-02,-2.321499213576316833e-02,-3.636971861124038696e-02,4.028695449233055115e-02,-9.121550247073173523e-03,1.455008834600448608e-01,-2.675775438547134399e-03,2.186550013720989227e-02,2.265471816062927246e-01
8.003582246601581573e-03,2.095630206167697906e-02,-2.518680691719055176e-01,1.855338066816329956e-01,1.060332134366035461e-01,5.791484937071800232e-02,-4.732333496212959290e-02,-1.933148130774497986e-02,-4.271137416362762451e-01,-7.037355005741119385e-02,3.059451282024383545e-02,6.343939155340194702e-02,-1.239711046218872070e-01,-1.415220089256763458e-02,-9.773109108209609985e-02,-6.543703377246856689e-02,-1.900941692292690277e-02,-7.154879719018936157e-02,4.324745386838912964e-02,4.827138781547546387e-02,2.887881547212600708e-02,-1.516784280538558960e-01,-1.905783824622631073e-02,6.335671991109848022e-02,-1.539577096700668335e-01,9.560638666152954102e-02,-9.989983588457107544e-02,7.212559878826141357e-02,9.965220093727111816e-02,-1.427321285009384155e-01,6.437075883150100708e-02,4.485077038407325745e-02,-1.381359901279211044e-02,-8.422242477536201477e-03,6.734959781169891357e-02,-8.417588472366333008e-02,-4.302800074219703674e-02,1.958763003349304199e-01,1.927909324876964092e-04,2.594230510294437408e-02,2.429255470633506775e-02,4.455437138676643372e-02,-1.288198679685592651e-01,4.773900285363197327e-02,-1.134353354573249817e-01,-7.976388931274414062e-02,3.889777883887290955e-02,-6.270450353622436523e-02,1.930193156003952026e-01,-6.953398115001618862e-04,7.714328169822692871e-02,1.300499886274337769e-01,3.972069174051284790e-02,2.258773148059844971e-02,-2.185787260532379150e-02,-7.338107097893953323e-04,8.289184421300888062e-02,-1.329117864370346069e-01,-3.579995408654212952e-02,-9.722344577312469482e-03,-9.694793075323104858e-02,1.374316052533686161e-04,-7.493667006492614746e-01,-5.280220881104469299e-02,9.202904067933559418e-03,5.856019258499145508e-02,5.255901068449020386e-02,-1.163505539298057556e-01,1.288766413927078247e-01,7.815835624933242798e-02,7.292098365724086761e-03,-3.359828144311904907e-02,-2.965424954891204834e-02,3.496889723464846611e-03,1.088690459728240967e-01,-5.052027478814125061e-02,9.642015211284160614e-03,3.227772936224937439e-02,3.886179765686392784e-03,3.546438738703727722e-02,-1.016453504562377930e-01,4.033678770065307617e-02,1.682088971138000488e-01,4.901392757892608643e-02,-2.626241445541381836e-01,-7.216104865074157715e-02,-5.147576704621315002e-02,-3.650647588074207306e-03,-1.702965497970581055e-01,-2.469243481755256653e-02,1.376205682754516602e-01,1.245535984635353088e-01,-7.906058803200721741e-03,5.205132067203521729e-02,-2.212850935757160187e-02,1.173240616917610168e-01,8.374606072902679443e-02,-5.380541086196899414e-03,-1.153143867850303650e-01,-2.856806293129920959e-02,-8.116515725851058960e-02,3.923249617218971252e-02,3.041553869843482971e-02,1.436647400259971619e-02,-6.342671066522598267e-02,6.161908805370330811e-02,1.172558814287185669e-01,-7.292042672634124756e-02,6.525696814060211182e-02,5.915039032697677612e-02,6.256165355443954468e-02,1.456297934055328369e-01,-3.490500524640083313e-02,-2.678627073764801025e-01,-8.363217115402221680e-02,-8.550575375556945801e-02,5.670470371842384338e-02,-4.423140734434127808e-02,-1.537475176155567169e-02,8.645606786012649536e-02,2.170001864433288574e-01,-9.891997277736663818e-02,-1.179316733032464981e-02,7.067934423685073853e-02,2.606458961963653564e-02,2.687321901321411133e-01,4.642899334430694580e-02,7.094740867614746094e-02,-1.586166322231292725e-01,-9.877679869532585144e-03,3.426411375403404236e-02,8.709717541933059692e-03,5.901025980710983276e-02,-2.387680113315582275e-02,-7.897373288869857788e-03,-5.920266732573509216e-03,8.918213099241256714e-02,8.263422548770904541e-02,8.485186845064163208e-02,-6.348600145429372787e-03,3.522291779518127441e-02,6.842734664678573608e-02,1.498507559299468994e-01,2.201562561094760895e-02,4.070025682449340820e-02,2.225812077522277832e-01,1.205773204565048218e-01,-2.832766063511371613e-02,9.889878332614898682e-02,5.429017916321754456e-02,-4.988593282178044319e-04,-7.925930619239807129e-02,-6.691645830869674683e-02,5.825374741107225418e-03,-1.414568815380334854e-02,1.314046792685985565e-02,6.440301239490509033e-02,6.178238987922668457e-02,-3.157452046871185303e-01,-2.172218114137649536e-01,-3.575147390365600586e-01,2.902881056070327759e-02,7.727040350437164307e-02,6.281924247741699219e-02,-1.145559906959533691e+00,1.273040752857923508e-02,-6.867020390927791595e-03,1.734275668859481812e-01,1.907754540443420410e-01,1.431621164083480835e-01,2.856868319213390350e-02,1.104429066181182861e-01,1.168788969516754150e-01,-1.948770582675933838e-01,-1.801648363471031189e-02,9.289386123418807983e-02,1.153855472803115845e-01,6.663516908884048462e-02,-8.739749342203140259e-02,-2.986857108771800995e-02,-2.143345959484577179e-02,-7.012505084276199341e-02,-2.551711164414882660e-03,2.730762772262096405e-02,-2.293322794139385223e-02,3.854843229055404663e-02,-2.527332631871104240e-03,2.373796887695789337e-02,9.424296766519546509e-02,3.363978117704391479e-02,-4.888180643320083618e-02,2.668577246367931366e-02,-4.743053577840328217e-03,1.041756719350814819e-01,1.286578550934791565e-02,3.149989619851112366e-02,-9.423893876373767853e-03,-2.133860439062118530e-02,2.944849617779254913e-02,-2.937193810939788818e-01,6.893621385097503662e-02,1.089398264884948730e-01,9.971452504396438599e-02,-8.297757059335708618e-02,-1.501582562923431396e-01,-7.924988120794296265e-02,-9.195054881274700165e-03,1.157146040350198746e-02,1.012610048055648804e-01,-6.023538112640380859e-02,-1.922020614147186279e-01,6.512801349163055420e-02,-3.572287783026695251e-02,7.206506561487913132e-03,-4.804879054427146912e-02,4.862077161669731140e-02,1.134978756308555603e-01,-3.414629399776458740e-02,-7.363545894622802734e-02,-1.267172954976558685e-02,-1.036719530820846558e-01,-6.889513880014419556e-02,3.935091663151979446e-03,6.643063575029373169e-02,7.651311904191970825e-02,-1.505207363516092300e-02,1.339023709297180176e-01,3.904498741030693054e-02,-2.160907387733459473e-01,8.394768834114074707e-02,-1.092080250382423401e-01,5.817911028861999512e-02,5.999954044818878174e-02,1.462565083056688309e-02,-5.491085723042488098e-02,7.921959459781646729e-02,-1.282456219196319580e-01,-5.028938874602317810e-02,1.623764783143997192e-01,1.066022142767906189e-01,1.089272946119308472e-01,1.324444562196731567e-01,-1.298754825256764889e-03,-5.026479810476303101e-02,-1.174923479557037354e-01,1.862040907144546509e-01,1.861063838005065918e-01,1.674124747514724731e-01,1.581775868544355035e-04,1.597156673669815063e-01,9.007019549608230591e-02,5.734632536768913269e-02,1.519978642463684082e-01,-6.163690611720085144e-02,-2.762190066277980804e-02,-4.028152674436569214e-02,1.597932726144790649e-02,-4.277210310101509094e-02,1.865240782499313354e-01,-3.846814036369323730e-01,8.355033397674560547e-02,-1.458748243749141693e-02,-2.918747663497924805e-01,3.566761687397956848e-02,7.951345294713973999e-03,-2.604897916316986084e-01,3.866692632436752319e-02,-1.670556515455245972e-01,5.673234909772872925e-02,-3.849154412746429443e-01,4.256523028016090393e-02,1.686532609164714813e-02,7.112069427967071533e-02,1.770392619073390961e-02,-3.749049827456474304e-02,4.364599287509918213e-02,-6.411998718976974487e-02,-3.567492589354515076e-02,-1.990991383790969849e-01,2.174132131040096283e-02,-1.797137781977653503e-02,-2.688796445727348328e-02,1.960015669465065002e-02,2.525721117854118347e-02,-2.146215885877609253e-01,2.637896835803985596e-01,9.592175483703613281e-02,2.446131035685539246e-02,-1.014702320098876953e-01,-3.592028021812438965e-01,-4.241884499788284302e-02,1.023972928524017334e-01,4.088210687041282654e-02,6.115427613258361816e-02,2.261922210454940796e-01,2.009422332048416138e-01,5.669048801064491272e-02,-4.473678022623062134e-02,-1.431807130575180054e-01,-4.494533687829971313e-02,1.091124266386032104e-01,1.498239040374755859e-01,5.766603350639343262e-02,-6.860773563385009766e-01,1.744354143738746643e-02,3.487215563654899597e-02,1.391738932579755783e-02,8.424540609121322632e-02,7.975504547357559204e-02,9.760355949401855469e-02,5.005019716918468475e-03,2.473796950653195381e-03,-4.707357287406921387e-02,-7.625381648540496826e-02,-1.946295145899057388e-03,1.408198326826095581e-01,-3.069767542183399200e-02,8.458469808101654053e-02,-1.692260056734085083e-01,7.299096137285232544e-02,-5.190671235322952271e-02,-1.216379851102828979e-01,-9.972132742404937744e-02,1.978326030075550079e-02,-3.053223341703414917e-02,7.088503241539001465e-02,8.445914089679718018e-02,1.429416686296463013e-01,9.934626519680023193e-02,-1.556812077760696411e-01,-7.296852022409439087e-02,-5.922968033701181412e-03,5.499694123864173889e-02,7.586120069026947021e-02,2.040285766124725342e-01,-1.179012507200241089e-01,-5.481026694178581238e-02,3.006198816001415253e-02,-3.171768411993980408e-02,1.990389637649059296e-02,1.278373878449201584e-02,-1.548896282911300659e-01,4.553491622209548950e-02,-2.493741922080516815e-02,5.879828333854675293e-02,7.357022911310195923e-02,-1.389453262090682983e-01,-1.638113707304000854e-02,-1.954244449734687805e-02,1.419187150895595551e-02,-8.122581243515014648e-02,1.314996629953384399e-01,-3.298039082437753677e-03,8.734458684921264648e-02,-1.108268368989229202e-02,8.188468962907791138e-02,6.061607971787452698e-02,-2.996553480625152588e-02,-5.081450566649436951e-02,-1.630872189998626709e-01,-1.213408485054969788e-01,-3.936892375349998474e-02,-1.115129441022872925e-01,2.656831033527851105e-02,-1.200857833027839661e-01,1.143226982094347477e-04,-3.658818081021308899e-02,1.295910216867923737e-02,-1.491947192698717117e-02,9.978368133306503296e-02,1.001973748207092285e-01,4.330741986632347107e-02,-1.249140202999114990e-01,1.034103184938430786e-01,-1.674364134669303894e-02,1.993869096040725708e-01,1.269160360097885132e-01,-2.150064855813980103e-01,1.814581900835037231e-01,-5.856448039412498474e-02,-2.672152221202850342e-01,-3.658799827098846436e-02,-2.178965508937835693e-01,-1.515063047409057617e-01,7.607987523078918457e-02,-2.193803340196609497e-01,-7.880771160125732422e-02,3.800651058554649353e-02,-5.970072373747825623e-02,2.541296780109405518e-01,5.362642556428909302e-02,1.813096925616264343e-03,1.498208940029144287e-02,1.915472373366355896e-02,-1.363154593855142593e-02,-2.379361353814601898e-02,1.120225116610527039e-01,8.591334335505962372e-03,4.859478771686553955e-02,1.314346939325332642e-01
-2.730285935103893280e-02,-1.358786690980195999e-02,-3.430284559726715088e-01,2.105439603328704834e-01,1.484410464763641357e-01,1.343154348433017731e-03,-7.183922827243804932e-02,-7.531215995550155640e-02,-4.031229019165039062e-01,-1.765647716820240021e-02,-1.009195521473884583e-01,9.615094214677810669e-02,-2.130006253719329834e-01,2.105281315743923187e-02,-7.956353947520256042e-03,8.505440317094326019e-03,-2.518926933407783508e-02,-1.532018780708312988e-01,1.357415318489074707e-01,-8.254235610365867615e-03,-3.979211673140525818e-03,-1.504453122615814209e-01,1.980918347835540771e-01,3.701808676123619080e-02,-1.456991136074066162e-01,6.875690072774887085e-02,2.132835984230041504e-02,2.056376263499259949e-02,-3.094710875302553177e-03,-2.146566212177276611e-01,8.505045622587203979e-02,4.332392662763595581e-02,-1.803955622017383575e-02,-3.298371657729148865e-02,1.499301642179489136e-01,-1.173358783125877380e-02,-5.255407840013504028e-02,2.136618494987487793e-01,-8.508142828941345215e-02,-2.407036954537034035e-03,-1.268182396888732910e-01,7.367367297410964966e-02,-5.474386736750602722e-02,7.290878333151340485e-03,-1.521142423152923584e-01,-7.066308520734310150e-03,8.250999450683593750e-02,2.266931114718317986e-03,1.326501667499542236e-01,1.569531708955764771e-01,8.758829534053802490e-02,2.144804596900939941e-01,-5.721848830580711365e-02,2.273530699312686920e-02,-4.604567587375640869e-02,-5.719493702054023743e-02,1.148039773106575012e-01,1.034490182064473629e-03,-1.599287800490856171e-02,6.343732774257659912e-02,-1.006447058171033859e-02,2.038508187979459763e-03,-1.573116660118103027e+00,5.910991877317428589e-02,-3.033093176782131195e-02,2.937139198184013367e-02,5.641942471265792847e-02,-3.868039324879646301e-02,4.802564904093742371e-02,5.992636457085609436e-02,-1.067940443754196167e-01,-1.587723940610885620e-02,1.656635664403438568e-02,-6.166115030646324158e-02,6.536301225423812866e-02,-8.521604537963867188e-02,-9.126077406108379364e-03,-2.101997286081314087e-02,3.538869693875312805e-02,6.208806484937667847e-02,1.649238727986812592e-02,4.379800334572792053e-02,1.635618507862091064e-01,-6.011063605546951294e-02,-1.872482895851135254e-01,-1.098033115267753601e-01,-1.042368728667497635e-02,1.051251124590635300e-02,-2.341133356094360352e-01,3.446365473791956902e-03,9.614314883947372437e-02,1.121834889054298401e-01,3.716519102454185486e-02,-5.141711980104446411e-02,5.520716309547424316e-02,7.187661528587341309e-02,2.055159956216812134e-02,3.114695660769939423e-03,-1.254164576530456543e-01,7.135611958801746368e-03,-1.773075163364410400e-01,-8.018655329942703247e-02,7.598511874675750732e-02,-2.575933374464511871e-02,-8.132781088352203369e-02,-5.000029504299163818e-02,1.333813369274139404e-01,-2.281577885150909424e-01,1.277283765375614166e-03,6.018165498971939087e-02,1.082967314869165421e-02,1.019422858953475952e-01,1.609721034765243530e-02,-2.568965554237365723e-01,-2.178622037172317505e-02,-1.066564992070198059e-01,4.957733675837516785e-02,6.138591840863227844e-02,-4.612990468740463257e-02,1.398496795445680618e-02,2.900094091892242432e-01,-6.424843519926071167e-02,-4.966386035084724426e-02,6.309092789888381958e-02,8.789316564798355103e-02,3.953668177127838135e-01,3.843779210001230240e-03,1.755676418542861938e-02,9.856951981782913208e-02,-4.209676384925842285e-02,-5.431723315268754959e-03,1.224223244935274124e-02,1.007696092128753662e-01,5.054098367691040039e-02,-2.632053382694721222e-02,3.963395953178405762e-02,6.418783683329820633e-03,-1.074753329157829285e-01,-7.742957677692174911e-03,5.147251114249229431e-02,7.042317092418670654e-02,9.872668981552124023e-02,1.283610761165618896e-01,1.666683517396450043e-02,3.448548167943954468e-02,2.950991094112396240e-01,1.350757330656051636e-01,7.588863372802734375e-02,1.907810121774673462e-01,-2.756674215197563171e-02,3.340816125273704529e-03,-2.516726851463317871e-01,-1.575179845094680786e-01,4.064826294779777527e-02,-2.279665932292118669e-04,4.201252013444900513e-02,-8.853185921907424927e-02,2.338539659976959229e-01,-1.646320223808288574e-01,-7.462547421455383301e-01,-4.819588959217071533e-01,-1.427419763058423996e-02,7.279318571090698242e-02,3.736921772360801697e-02,-9.156445264816284180e-01,-1.865302585065364838e-02,6.006585061550140381e-02,-1.472744941711425781e-01,1.449694931507110596e-01,1.808333843946456909e-01,-1.085583344101905823e-01,-1.527899131178855896e-02,6.643311679363250732e-02,-1.766929924488067627e-01,-3.410995751619338989e-02,9.497407823801040649e-02,4.576738551259040833e-02,-4.409567266702651978e-02,2.938061766326427460e-02,4.450198728591203690e-03,-7.098596543073654175e-02,2.272363193333148956e-02,3.576739132404327393e-02,-2.007442060858011246e-03,3.689137101173400879e-02,5.000370740890502930e-02,7.407236099243164062e-02,-5.338008049875497818e-03,6.073557212948799133e-02,7.262976467609405518e-02,3.091558814048767090e-02,1.345418840646743774e-01,-2.389966323971748352e-02,1.251866966485977173e-01,1.250720699317753315e-03,1.408909633755683899e-02,-4.654572531580924988e-02,-1.931610703468322754e-02,1.273924298584461212e-02,-1.951209455728530884e-01,3.286789869889616966e-03,1.728451400995254517e-01,6.494384258985519409e-02,-5.713866651058197021e-02,-1.918353289365768433e-01,-8.690410852432250977e-02,4.723052494227886200e-03,1.058808267116546631e-01,-7.484540808945894241e-03,1.417422890663146973e-01,-2.078834921121597290e-01,-6.055996753275394440e-03,-1.249985489994287491e-02,-2.404608391225337982e-02,5.479843914508819580e-02,-1.082719024270772934e-02,2.531234323978424072e-01,-2.085398696362972260e-02,-1.665890067815780640e-01,6.968164443969726562e-02,-2.180790156126022339e-01,-8.025685697793960571e-02,1.979476213455200195e-01,8.862633258104324341e-03,5.248214676976203918e-02,5.119884386658668518e-03,2.011641561985015869e-01,5.653984844684600830e-02,-1.028231829404830933e-01,8.486904203891754150e-02,-1.107030957937240601e-01,3.011680208146572113e-02,6.393854320049285889e-02,8.818833529949188232e-02,6.326963752508163452e-02,6.983681023120880127e-02,-1.306951642036437988e-01,-2.901544049382209778e-02,2.122609019279479980e-01,5.879096314311027527e-02,1.172631159424781799e-01,2.627449482679367065e-02,3.672394901514053345e-02,-1.118220686912536621e-01,-2.492356747388839722e-01,1.482227146625518799e-01,5.884229019284248352e-02,1.409259289503097534e-01,-3.355585038661956787e-02,1.817105561494827271e-01,2.430369518697261810e-02,7.764903455972671509e-02,1.151284426450729370e-01,-5.107586085796356201e-02,-4.259328544139862061e-02,-8.816231787204742432e-02,-3.635226562619209290e-02,2.262008003890514374e-02,2.879705727100372314e-01,-2.861287295818328857e-01,1.505182683467864990e-01,2.742270939052104950e-02,-2.856677472591400146e-01,8.234627544879913330e-02,4.127474874258041382e-02,-2.413811087608337402e-01,6.638685613870620728e-02,-5.874073505401611328e-02,1.917789690196514130e-02,-4.170196056365966797e-01,5.286902561783790588e-02,1.791298203170299530e-02,1.033392399549484253e-01,2.383034862577915192e-02,-3.535343706607818604e-02,-7.019727956503629684e-03,1.097607091069221497e-01,2.038481459021568298e-02,-2.484367936849594116e-01,-1.209885254502296448e-02,5.182243138551712036e-02,-3.963578119874000549e-02,3.732242435216903687e-02,5.998885259032249451e-02,-4.412817955017089844e-01,2.540259361267089844e-01,2.724154479801654816e-02,-5.885168910026550293e-02,-4.091697186231613159e-02,-3.066976666450500488e-01,1.151890009641647339e-01,7.441941648721694946e-02,-1.859927177429199219e-02,7.501778751611709595e-02,1.389793306589126587e-01,4.711286723613739014e-02,7.699973136186599731e-02,1.864907145500183105e-01,-1.209434121847152710e-02,1.797994598746299744e-02,9.334564954042434692e-02,8.555521816015243530e-02,7.520554959774017334e-02,-8.965534567832946777e-01,-9.913755580782890320e-03,8.535524457693099976e-02,-3.019563620910048485e-03,2.121472358703613281e-01,1.224381383508443832e-02,8.607371896505355835e-02,-8.454398252069950104e-03,-3.067908622324466705e-02,-5.384575575590133667e-02,-1.473358571529388428e-01,-2.868259325623512268e-02,6.691706925630569458e-02,7.472914457321166992e-02,9.495577216148376465e-02,-1.692083179950714111e-01,1.549555808305740356e-01,4.351946990936994553e-03,-8.002944290637969971e-02,-3.413612768054008484e-02,-9.862872958183288574e-02,-2.106184959411621094e-01,-1.564147323369979858e-02,1.980358958244323730e-01,1.026036664843559265e-01,7.692370563745498657e-02,-1.417444348335266113e-01,3.801321983337402344e-02,1.833067834377288818e-02,7.968254387378692627e-03,8.877663873136043549e-03,1.166799291968345642e-01,-1.087805908173322678e-02,4.046871140599250793e-02,6.308850646018981934e-02,-4.224310815334320068e-02,4.692516848444938660e-02,-3.183144703507423401e-02,-1.500769257545471191e-01,9.899215400218963623e-02,-1.640865020453929901e-02,-7.869827747344970703e-02,4.441340640187263489e-02,-5.999033525586128235e-02,2.665895037353038788e-02,2.375004440546035767e-02,1.406525168567895889e-02,-1.445394102483987808e-02,1.665651500225067139e-01,-4.310983046889305115e-02,4.567960649728775024e-02,-1.914498209953308105e-01,1.693408191204071045e-01,-9.546189755201339722e-02,4.048228636384010315e-02,8.815673738718032837e-02,1.639026552438735962e-01,-1.546447128057479858e-01,-8.197983354330062866e-02,-1.038633212447166443e-01,3.262756764888763428e-02,-7.337622344493865967e-02,-6.893955916166305542e-02,4.686404764652252197e-02,-1.487977653741836548e-01,8.038948476314544678e-02,1.217294782400131226e-01,5.350012332201004028e-02,3.290943056344985962e-02,4.155069962143898010e-02,9.811713546514511108e-02,-1.811388693749904633e-02,2.193943262100219727e-01,1.601348221302032471e-01,-1.830260455608367920e-01,1.820978969335556030e-01,-6.664972007274627686e-02,-3.250510096549987793e-01,8.571061491966247559e-02,-1.147459223866462708e-01,-4.487964138388633728e-02,-4.573636129498481750e-02,-1.331788003444671631e-01,-2.109851688146591187e-02,7.225652784109115601e-02,-5.985410884022712708e-02,2.655526399612426758e-01,7.404475659132003784e-02,-1.026206463575363159e-02,1.028869375586509705e-01,-4.296385217458009720e-03,-3.484607487916946411e-02,-6.536611169576644897e-02,-7.728748023509979248e-02,7.273627072572708130e-02,5.844702012836933136e-03,3.067390620708465576e-01
-6.147148087620735168e-02,7.697671651840209961e-02,-8.326791226863861084e-02,-7.190969586372375488e-02,7.650660723447799683e-02,-1.819666475057601929e-01,2.493099682033061981e-02,-4.239173978567123413e-02,2.373455017805099487e-01,3.861647471785545349e-02,4.811572283506393433e-02,-1.518187019973993301e-02,-6.895153522491455078e-01,6.771700922399759293e-03,-1.302906274795532227e-01,4.798036813735961914e-02,-5.623307824134826660e-02,-3.518779575824737549e-02,-1.956787705421447754e-02,-2.101566083729267120e-02,-9.457292035222053528e-03,-1.327733136713504791e-02,-2.578901350498199463e-01,2.051083138212561607e-03,4.110503941774368286e-02,-3.342809081077575684e-01,9.074975550174713135e-02,1.335396897047758102e-02,-2.240879647433757782e-02,3.298293054103851318e-02,-2.699052095413208008e-01,-3.566394746303558350e-02,9.409365803003311157e-02,2.740903943777084351e-02,-8.496394008398056030e-02,2.491111680865287781e-02,7.022178918123245239e-02,-3.280680179595947266e-01,-7.299815863370895386e-02,-6.652724463492631912e-03,-4.242618754506111145e-02,-3.588439524173736572e-02,4.741291701793670654e-02,7.478880882263183594e-02,-4.679779335856437683e-02,-6.094353273510932922e-02,2.174513228237628937e-02,1.582229509949684143e-02,-1.314928382635116577e-01,-3.298573568463325500e-02,1.670660264790058136e-02,6.692324299365282059e-03,-2.161222510039806366e-02,5.380383133888244629e-02,1.036454141139984131e-01,1.656626462936401367e-01,1.108824163675308228e-01,-1.149770170450210571e-01,-1.227092444896697998e-01,2.375341579318046570e-02,-3.027895279228687286e-02,-5.069341138005256653e-02,1.774538159370422363e+00,3.398927301168441772e-02,2.530975826084613800e-02,8.258325047791004181e-03,1.130506694316864014e-01,-1.149636507034301758e-01,1.160382702946662903e-01,2.161863744258880615e-01,7.122592628002166748e-02,-1.096980297006666660e-03,-3.867794200778007507e-02,1.295096799731254578e-02,4.797879979014396667e-02,3.472030907869338989e-02,-4.013963788747787476e-02,1.968356594443321228e-02,-5.704028531908988953e-02,-3.655707091093063354e-02,-6.302735954523086548e-02,-8.261600136756896973e-02,-3.898467868566513062e-02,-8.833837509155273438e-02,2.582612931728363037e-01,9.319701045751571655e-02,3.375833854079246521e-02,-2.115913666784763336e-02,-1.140587180852890015e-01,-1.589080132544040680e-02,3.045266866683959961e-02,-8.415264636278152466e-02,8.777806907892227173e-02,1.659031026065349579e-02,-1.471373885869979858e-01,-3.814487531781196594e-02,3.874068334698677063e-02,7.391239516437053680e-03,-2.220381349325180054e-01,7.134669274091720581e-02,9.251490980386734009e-02,8.040088415145874023e-02,4.655749723315238953e-02,-2.756489999592304230e-02,-9.481346234679222107e-03,1.180172152817249298e-02,-1.478687673807144165e-01,5.087254643440246582e-01,2.970995614305138588e-03,-8.166005834937095642e-03,6.216100975871086121e-02,8.115990087389945984e-03,-3.007171675562858582e-02,-3.597860783338546753e-02,1.736376434564590454e-02,-9.969105571508407593e-02,-7.321786880493164062e-02,-5.899713374674320221e-03,2.725830115377902985e-02,7.259631529450416565e-03,-1.512726396322250366e-01,3.502346202731132507e-02,4.295737296342849731e-02,-2.146643400192260742e-02,-1.997171528637409210e-02,-2.555931210517883301e-01,-5.098792724311351776e-03,9.384050220251083374e-02,-5.521798506379127502e-02,-3.064531134441494942e-03,8.087573200464248657e-02,-2.074842900037765503e-02,6.873073522001504898e-03,1.994313858449459076e-02,5.245674774050712585e-02,7.515455130487680435e-03,5.565046146512031555e-02,2.141083180904388428e-01,2.400171756744384766e-01,-1.293086856603622437e-01,2.630552276968955994e-02,-1.153188124299049377e-01,-8.910119533538818359e-02,5.242316424846649170e-02,2.233672738075256348e-01,-5.586418882012367249e-02,-6.346518546342849731e-02,-1.519856601953506470e-01,-5.060089379549026489e-02,-2.735641039907932281e-02,6.365992128849029541e-02,1.136519685387611389e-01,-6.224544346332550049e-02,-3.834786638617515564e-02,1.789114437997341156e-02,5.681237578392028809e-02,1.689068041741847992e-02,-2.851988375186920166e-01,8.647471666336059570e-02,-1.656651496887207031e-01,-7.577743381261825562e-02,5.286066234111785889e-02,2.146929688751697540e-02,7.840167731046676636e-03,5.603471398353576660e-01,-3.371179476380348206e-02,-5.955610051751136780e-02,2.097227275371551514e-01,-4.471898823976516724e-02,2.041876874864101410e-02,8.832079172134399414e-02,3.780326992273330688e-02,5.131827667355537415e-02,6.107002869248390198e-02,5.627926811575889587e-02,2.819502726197242737e-02,-2.534080855548381805e-02,1.139323972165584564e-02,3.679410368204116821e-02,-6.950998306274414062e-02,1.332069002091884613e-02,4.644843935966491699e-02,2.494012564420700073e-02,3.946541249752044678e-02,-6.489988416433334351e-02,-5.731775239109992981e-02,1.947829574346542358e-01,-3.710334748029708862e-02,1.185247767716646194e-02,2.398951537907123566e-02,-4.911421611905097961e-02,1.978474110364913940e-01,3.588778898119926453e-02,-7.217475771903991699e-02,6.181995943188667297e-02,6.193240988068282604e-04,1.036068797111511230e-02,6.851895153522491455e-02,8.611118793487548828e-02,1.980247534811496735e-02,-2.889554388821125031e-02,-1.121880784630775452e-01,-5.530977249145507812e-02,5.256433412432670593e-02,1.078310236334800720e-01,6.716728955507278442e-02,-8.063396811485290527e-02,3.944599628448486328e-02,8.066321164369583130e-02,4.044497758150100708e-02,-6.149312108755111694e-02,-2.256021462380886078e-02,1.128597650676965714e-02,-1.057406142354011536e-01,-2.487888783216476440e-01,-2.185989730060100555e-02,-1.636622995138168335e-01,-1.646772213280200958e-02,2.661169972270727158e-03,7.341509312391281128e-02,3.381526842713356018e-02,3.469698876142501831e-02,-5.480479449033737183e-03,-5.366929620504379272e-02,-7.205630838871002197e-02,-2.708665654063224792e-02,-1.349520832300186157e-01,2.143864706158638000e-02,-1.451553255319595337e-01,-3.800284489989280701e-02,7.300858199596405029e-02,-9.871984831988811493e-03,-3.614529594779014587e-02,7.456471025943756104e-02,7.590016722679138184e-02,3.578046709299087524e-02,5.817551910877227783e-02,-8.867453783750534058e-02,-8.977100998163223267e-02,1.704285852611064911e-02,-7.743369787931442261e-02,-9.952002204954624176e-03,6.740755587816238403e-02,2.151719182729721069e-01,2.458984591066837311e-02,-1.667737513780593872e-01,1.617683842778205872e-02,-3.011348843574523926e-02,3.087633522227406502e-03,7.116463780403137207e-02,-3.202386572957038879e-02,-1.174218952655792236e-01,1.730498485267162323e-02,-6.517092883586883545e-02,-5.896995775401592255e-03,4.295249003916978836e-03,5.051147192716598511e-02,-5.349059030413627625e-02,-6.649866700172424316e-02,-1.806103289127349854e-01,-6.686316430568695068e-02,3.664580732583999634e-02,3.761889412999153137e-02,-1.011671870946884155e-02,5.965743958950042725e-02,-3.737368285655975342e-01,-1.717925816774368286e-01,-9.133822470903396606e-02,-1.110119745135307312e-03,-4.001284390687942505e-02,2.595872990787029266e-02,3.664511442184448242e-02,5.064597725868225098e-02,5.829473957419395447e-02,3.360951086506247520e-03,2.200071513652801514e-02,2.428123801946640015e-01,2.550748921930789948e-02,-1.106536686420440674e-01,1.557028442621231079e-01,1.565072312951087952e-02,-1.240587886422872543e-02,-3.436161205172538757e-02,9.777347743511199951e-02,3.163517713546752930e-01,-1.532181501388549805e-01,9.022115170955657959e-02,1.133940555155277252e-02,3.510354459285736084e-02,1.313648223876953125e-01,-4.938784521073102951e-03,1.637500971555709839e-01,-1.115672010928392410e-02,-1.304798666387796402e-02,-1.926300972700119019e-01,-2.994147874414920807e-02,3.790037706494331360e-02,-7.686453312635421753e-02,-1.048547700047492981e-01,-5.043697729706764221e-02,6.538123637437820435e-02,-1.224234029650688171e-01,-2.124187797307968140e-01,2.940788865089416504e-01,7.527373731136322021e-03,3.404750302433967590e-02,-2.796654030680656433e-02,-1.911844760179519653e-01,-1.645922660827636719e-02,-3.403630107641220093e-02,6.568961590528488159e-02,3.585061430931091309e-02,8.861885964870452881e-02,-1.035707886330783367e-03,-8.108407258987426758e-02,-1.173195615410804749e-02,-3.055268339812755585e-02,-1.099485717713832855e-02,3.609578907489776611e-01,-1.871883124113082886e-01,6.031073629856109619e-02,-5.590283870697021484e-02,-3.239419683814048767e-02,1.000311374664306641e-01,2.186923772096633911e-01,7.150018960237503052e-02,-9.424086310900747776e-04,-4.476494342088699341e-02,2.787245996296405792e-02,-5.512443836778402328e-03,3.954193741083145142e-02,-1.383476331830024719e-02,-1.308377683162689209e-01,-1.074190959334373474e-01,1.678742617368698120e-01,1.029665768146514893e-01,-7.232942152768373489e-03,2.451772568747401237e-03,-6.618773937225341797e-02,-5.889580398797988892e-02,-4.051988199353218079e-02,2.742306888103485107e-02,-1.354997325688600540e-02,-6.085984874516725540e-03,7.991085201501846313e-02,-3.767569363117218018e-02,2.489896267652511597e-01,1.192718371748924255e-01,-1.157671585679054260e-02,1.221094932407140732e-02,1.483805663883686066e-02,-3.245016932487487793e-02,5.671976506710052490e-02,-4.656905774027109146e-03,2.395707070827484131e-01,-3.399831056594848633e-02,-7.766502350568771362e-02,-3.522631153464317322e-02,-1.178687661886215210e-01,-8.555386215448379517e-02,-1.099905818700790405e-01,-2.133425697684288025e-02,7.943069934844970703e-02,7.378096133470535278e-02,-7.972369901835918427e-03,-3.887220099568367004e-02,6.089750677347183228e-02,-1.811098158359527588e-01,3.303426876664161682e-02,-7.682993263006210327e-02,-2.559213340282440186e-02,-1.025108471512794495e-01,-8.879801630973815918e-02,4.513286426663398743e-02,8.894863724708557129e-02,-7.738866657018661499e-02,1.907546259462833405e-02,-1.063127145171165466e-01,-3.758579120039939880e-02,5.526861920952796936e-02,8.903981745243072510e-02,1.900154910981655121e-02,-3.057697713375091553e-01,4.119571670889854431e-02,2.597247622907161713e-02,3.341068923473358154e-01,6.150767579674720764e-02,-1.054227501153945923e-01,5.377686768770217896e-02,2.520944923162460327e-02,-9.386777877807617188e-02,8.213827013969421387e-02,-1.088939793407917023e-02,3.033499419689178467e-02,-4.172170162200927734e-02,-5.844899639487266541e-02,-3.249754309654235840e-01,5.888020619750022888e-02,3.232114017009735107e-02,-2.443313598632812500e-02
3.054969199001789093e-02,-9.982713311910629272e-02,-1.188778057694435120e-01,9.508472867310047150e-04,-2.304912805557250977e-01,-1.125519871711730957e-01,-8.603132516145706177e-02,1.802882701158523560e-01,-3.146093189716339111e-01,-2.162626534700393677e-01,-6.505549699068069458e-02,6.524892151355743408e-02,1.583797931671142578e-01,-2.052823826670646667e-02,-1.624727249145507812e-01,-1.052608564496040344e-01,1.253655254840850830e-01,-9.546212852001190186e-02,1.403364725410938263e-02,7.668929174542427063e-03,-8.444976992905139923e-03,-4.575849324464797974e-02,-5.653326958417892456e-02,5.482686311006546021e-02,-3.662515431642532349e-02,-3.662186861038208008e-01,-1.021521463990211487e-01,3.803786635398864746e-02,4.348899237811565399e-03,-7.650896906852722168e-02,-5.914516746997833252e-02,3.169912844896316528e-02,-1.474651694297790527e-01,5.774999782443046570e-02,-1.476297900080680847e-02,-2.225898206233978271e-01,-2.378452755510807037e-02,-1.728294193744659424e-01,-1.763006858527660370e-02,-4.125105440616607666e-01,-4.674423113465309143e-02,-3.328944370150566101e-02,-8.099512010812759399e-02,-5.752028431743383408e-03,-6.186006218194961548e-02,-9.598936140537261963e-02,6.791126728057861328e-02,-6.837651133537292480e-02,-4.238608852028846741e-02,8.925534784793853760e-02,5.982442200183868408e-02,-2.207430265843868256e-02,3.228724002838134766e-02,-4.152585566043853760e-02,1.393434405326843262e-01,3.348665684461593628e-02,1.109775975346565247e-01,-1.270723789930343628e-01,-1.751335337758064270e-02,-2.736677881330251694e-03,-1.404480487108230591e-01,-4.523361474275588989e-02,-2.798383533954620361e-01,-4.367759451270103455e-02,3.021022491157054901e-02,-5.957872048020362854e-02,1.764826029539108276e-01,-1.122660562396049500e-01,-8.004289865493774414e-02,-1.136517152190208435e-01,4.416411742568016052e-02,-1.501939892768859863e-01,-2.001842111349105835e-02,4.020750895142555237e-02,2.162264436483383179e-01,-2.787967771291732788e-02,-5.975014716386795044e-02,4.862412065267562866e-02,-3.648919463157653809e-01,6.872925162315368652e-02,-5.095218494534492493e-02,-2.696641907095909119e-02,5.452585965394973755e-02,6.929746828973293304e-03,-1.153256654739379883e+00,-3.303292021155357361e-02,-3.146135434508323669e-02,3.599594533443450928e-02,-1.812799870967864990e-01,-9.400270064361393452e-04,-3.408842906355857849e-02,-3.359132111072540283e-01,2.702141925692558289e-02,-9.237360954284667969e-02,-8.181299269199371338e-02,7.744169980287551880e-02,2.204370871186256409e-02,-4.503126442432403564e-02,2.649589814245700836e-02,-9.501021355390548706e-03,-2.796701788902282715e-01,-1.203393787145614624e-01,-1.808410584926605225e-01,7.317081093788146973e-02,-1.523524373769760132e-01,-2.099332958459854126e-02,5.372928455471992493e-02,1.096962466835975647e-01,-3.904149681329727173e-02,6.614821404218673706e-02,-2.872241847217082977e-02,2.547515556216239929e-02,-6.768565624952316284e-02,-1.697314679622650146e-01,1.951659843325614929e-02,-9.300847351551055908e-02,-8.719135075807571411e-02,1.058716177940368652e-01,-4.698999971151351929e-02,-2.552577061578631401e-03,-1.216794084757566452e-02,-5.948254466056823730e-02,-3.620582073926925659e-02,5.604290054179728031e-04,-4.339376837015151978e-02,-4.794104099273681641e-01,2.147088199853897095e-02,-3.028813935816287994e-02,7.867509499192237854e-03,-2.778964350000023842e-03,-1.609429344534873962e-02,1.316848844289779663e-01,-2.990294247865676880e-02,1.765934191644191742e-02,2.967107109725475311e-02,-6.387414038181304932e-02,-2.140083722770214081e-02,1.122118085622787476e-01,-2.633314430713653564e-01,4.937789216637611389e-02,5.536008626222610474e-03,-1.195187121629714966e-02,7.001120597124099731e-02,-1.281912904232740402e-02,5.396722257137298584e-02,2.868229150772094727e-01,1.469187587499618530e-01,-6.958200782537460327e-02,2.682286081835627556e-03,1.025776099413633347e-02,9.349901974201202393e-02,-5.249097198247909546e-02,8.086100220680236816e-02,-3.472862765192985535e-02,-1.127216685563325882e-02,-2.240040712058544159e-02,-3.366512805223464966e-02,-6.003815531730651855e-01,-1.803523302078247070e-01,9.948119521141052246e-03,-1.459716167300939560e-02,-4.297231137752532959e-02,6.117371097207069397e-02,1.823409087955951691e-02,-1.172996401786804199e+00,3.671501949429512024e-02,8.260565996170043945e-02,1.105397865176200867e-01,2.122013270854949951e-01,7.989037036895751953e-02,-1.461848765611648560e-01,9.195800125598907471e-02,2.506077885627746582e-01,-1.478721797466278076e-01,1.998639665544033051e-02,-7.057873904705047607e-02,2.417766861617565155e-02,-1.687832921743392944e-01,-1.687979251146316528e-01,-1.115120053291320801e-01,1.069928705692291260e-02,-1.093990132212638855e-01,7.238406687974929810e-02,3.101791813969612122e-02,7.986481487751007080e-02,3.269299492239952087e-02,-1.696939617395401001e-01,-4.299890995025634766e-02,1.000416278839111328e-01,1.075342297554016113e-01,-5.217012949287891388e-03,3.281053528189659119e-02,-6.527788005769252777e-03,1.310177613049745560e-03,3.084049932658672333e-02,-1.871318928897380829e-02,-8.003661409020423889e-03,8.633007854223251343e-02,1.967891148524358869e-04,-5.064411833882331848e-02,-7.775352895259857178e-02,-2.811058983206748962e-02,2.676934376358985901e-02,-1.279713120311498642e-02,1.616165786981582642e-01,-7.694289833307266235e-02,4.201849922537803650e-02,-2.600941956043243408e-01,-6.177886389195919037e-04,-2.393948137760162354e-01,-9.607439488172531128e-02,5.302992463111877441e-02,1.370869129896163940e-01,-2.581474483013153076e-01,3.315763175487518311e-02,1.487838625907897949e-01,1.332504600286483765e-01,-2.747531235218048096e-02,-5.755108594894409180e-01,-4.645173624157905579e-02,-1.247139065526425838e-03,-1.482126563787460327e-01,-3.792393952608108521e-02,-1.973352022469043732e-02,3.084284439682960510e-02,9.855466894805431366e-03,5.988494679331779480e-02,5.329228565096855164e-02,-1.837216615676879883e-01,5.654596537351608276e-02,-8.002253621816635132e-02,7.997525483369827271e-02,2.492945827543735504e-02,-5.498822778463363647e-02,1.306541636586189270e-02,1.418103557080030441e-02,7.613079249858856201e-02,-4.740387666970491409e-03,8.799817413091659546e-02,1.055179983377456665e-01,4.018395673483610153e-03,1.390205919742584229e-01,1.119455415755510330e-02,2.615487575531005859e-01,4.013638477772474289e-03,8.481284230947494507e-02,1.509714126586914062e-01,1.059330161660909653e-02,-9.100701659917831421e-02,3.860650211572647095e-02,5.515045300126075745e-02,-1.409128587692975998e-02,1.333035379648208618e-01,1.549084321595728397e-03,-1.713869161903858185e-02,-4.550465196371078491e-02,-5.248847883194684982e-03,6.010635755956172943e-03,1.377254575490951538e-01,-3.294813930988311768e-01,-4.233676567673683167e-02,-1.008048206567764282e-01,4.648882523179054260e-02,8.027464151382446289e-02,1.085606291890144348e-01,1.888067275285720825e-01,8.490684628486633301e-02,6.213192641735076904e-02,2.812398970127105713e-01,-2.568644285202026367e-01,-8.339174091815948486e-03,-3.200338408350944519e-02,-6.053223088383674622e-02,1.508415862917900085e-02,1.899445243179798126e-02,5.775539949536323547e-02,8.549006283283233643e-02,3.812464699149131775e-02,1.294686794281005859e-01,-6.254278123378753662e-02,-1.808078959584236145e-02,4.653222113847732544e-02,3.287827223539352417e-02,1.046170592308044434e-01,6.156612187623977661e-02,1.140161380171775818e-01,-6.462717801332473755e-02,6.900213658809661865e-02,5.820304527878761292e-02,-1.227865591645240784e-01,4.783588275313377380e-02,2.043315470218658447e-01,2.655902691185474396e-02,9.249198436737060547e-02,2.102787941694259644e-01,1.444525569677352905e-01,6.462088227272033691e-02,-4.106742143630981445e-01,-4.507084190845489502e-01,-9.150938689708709717e-02,8.349804580211639404e-02,7.611738145351409912e-02,7.938776910305023193e-02,-4.002592265605926514e-01,-8.108242601156234741e-02,1.608248353004455566e-01,1.250804364681243896e-01,1.988223791122436523e-01,-1.738496869802474976e-02,-5.720761045813560486e-02,4.471050575375556946e-02,-3.874745219945907593e-02,1.348565667867660522e-01,-7.641647011041641235e-02,2.075941115617752075e-02,-3.522338718175888062e-02,-4.526893049478530884e-02,-1.842490434646606445e-01,8.174491673707962036e-02,-4.677725136280059814e-01,1.125191617757081985e-02,-1.193804144859313965e-01,2.649500034749507904e-03,4.472245275974273682e-02,-8.555747917853295803e-04,8.439847081899642944e-02,8.376608788967132568e-02,-3.916503116488456726e-02,4.407012090086936951e-02,7.794005423784255981e-02,-1.095341611653566360e-02,-2.994496934115886688e-02,2.465771138668060303e-02,7.807169854640960693e-02,1.144928634166717529e-01,-1.915771961212158203e-01,-7.454214990139007568e-02,-1.299275904893875122e-01,-5.968507751822471619e-02,-6.810844689607620239e-02,2.577572688460350037e-02,-8.833127468824386597e-02,-3.970159590244293213e-02,1.229812577366828918e-02,2.252675034105777740e-02,-1.278794184327125549e-02,3.810558021068572998e-01,-5.870546773076057434e-02,1.327809691429138184e-01,-8.028675802052021027e-03,3.157904371619224548e-02,-2.200504764914512634e-02,6.252900511026382446e-02,7.208748161792755127e-02,1.383111253380775452e-02,-7.669109385460615158e-03,1.914838999509811401e-01,-1.111207716166973114e-02,-1.706856116652488708e-02,-1.183593869209289551e+00,6.811619549989700317e-02,-1.417260915040969849e-01,-1.427770406007766724e-01,-1.833793474361300468e-03,-1.642250716686248779e-01,-7.661375403404235840e-02,-3.561816737055778503e-02,-2.333811968564987183e-01,-2.841909229755401611e-02,8.607454597949981689e-02,1.824963688850402832e-01,6.163873896002769470e-02,-3.688644990324974060e-02,4.487575590610504150e-02,-2.716768160462379456e-02,1.499556191265583038e-02,5.526450276374816895e-02,-5.892940238118171692e-02,1.320840567350387573e-01,-9.074572473764419556e-02,-3.191197514533996582e-01,-7.697634398937225342e-02,-7.757596671581268311e-02,-1.124994307756423950e-01,4.344191029667854309e-02,-1.192985102534294128e-01,1.682441681623458862e-01,6.661843508481979370e-02,-3.131188452243804932e-02,2.339708060026168823e-01,6.392403692007064819e-02,4.869063198566436768e-02,-3.995541017502546310e-03,-4.153724014759063721e-02,-1.371112372726202011e-02,7.817608863115310669e-02,8.165961503982543945e-02,2.567408233880996704e-02,2.630226872861385345e-02,1.600814163684844971e-01
